{
  "recurrent_layers": [
    {
      "index": 0,
      "type": "RNN",
      "input_size": 2,
      "hidden_size": 32,
      "activation": "tanh"
    }
  ],
  "dense_layers": [
    {
      "index": 0,
      "in_features": 32,
      "out_features": 16,
      "activation": "relu"
    },
    {
      "index": 1,
      "in_features": 16,
      "out_features": 3,
      "activation": "linear"
    }
  ],
  "parameters": {
    "rec_0_W_ih_weight": [
      [
        0.20042110979557037,
        -0.13834640383720398
      ],
      [
        -0.31069615483283997,
        0.05204832926392555
      ],
      [
        0.15726982057094574,
        0.13285017013549805
      ],
      [
        -0.37523314356803894,
        0.22511252760887146
      ],
      [
        0.203493133187294,
        0.259115606546402
      ],
      [
        0.377433180809021,
        -0.00020447713905014098
      ],
      [
        -0.3712861239910126,
        0.08029193431138992
      ],
      [
        -0.38564854860305786,
        0.1892150491476059
      ],
      [
        -0.2768862247467041,
        0.10815951228141785
      ],
      [
        0.16467629373073578,
        0.11572590470314026
      ],
      [
        -0.24880987405776978,
        -0.13661187887191772
      ],
      [
        0.06702248752117157,
        0.3094555139541626
      ],
      [
        0.16655364632606506,
        0.24209809303283691
      ],
      [
        0.14877547323703766,
        -0.052367743104696274
      ],
      [
        0.19930671155452728,
        0.17821405827999115
      ],
      [
        -0.4059135317802429,
        0.07621979713439941
      ],
      [
        -0.15104332566261292,
        -0.24209384620189667
      ],
      [
        -0.19473612308502197,
        -0.2309027910232544
      ],
      [
        0.20179571211338043,
        0.26399487257003784
      ],
      [
        0.10199268162250519,
        0.30826395750045776
      ],
      [
        0.27494415640830994,
        -0.042791567742824554
      ],
      [
        -0.21331539750099182,
        -0.31300821900367737
      ],
      [
        -0.22575008869171143,
        -0.2593666613101959
      ],
      [
        0.20379574596881866,
        -0.1738649159669876
      ],
      [
        -0.31356894969940186,
        0.06403172016143799
      ],
      [
        -0.20909690856933594,
        0.25530776381492615
      ],
      [
        -0.2919616997241974,
        -0.3180311322212219
      ],
      [
        0.2978784441947937,
        -0.07834556698799133
      ],
      [
        0.03876815363764763,
        0.27183797955513
      ],
      [
        0.0947297215461731,
        -0.25519657135009766
      ],
      [
        0.30533018708229065,
        0.265485554933548
      ],
      [
        -0.21481746435165405,
        0.17070654034614563
      ]
    ],
    "rec_0_W_ih_bias": [
      0.35774946212768555,
      -0.01722882315516472,
      0.20982001721858978,
      -0.2982828617095947,
      0.016141610220074654,
      0.12289587408304214,
      -0.011498243547976017,
      -0.282356858253479,
      -0.0105091268196702,
      -0.058879464864730835,
      -0.021149177104234695,
      0.011028221808373928,
      0.15171211957931519,
      -0.2683561444282532,
      -0.0640132799744606,
      0.058957166969776154,
      -0.0931924507021904,
      -0.020113332197070122,
      0.24376964569091797,
      -0.014652256853878498,
      -0.03858618438243866,
      -0.06195725128054619,
      -0.07075033336877823,
      0.2715332508087158,
      0.024447882547974586,
      -0.29010480642318726,
      -0.17171990871429443,
      0.01649129018187523,
      0.22884972393512726,
      0.25407183170318604,
      0.04401739686727524,
      -0.2321430891752243
    ],
    "rec_0_W_hh_weight": [
      [
        -0.08017829060554504,
        0.01717759668827057,
        -0.020544275641441345,
        -0.1753508448600769,
        -0.03221319615840912,
        -0.016931548714637756,
        -0.052127644419670105,
        0.16241897642612457,
        -0.0385725200176239,
        0.1135643869638443,
        0.043790727853775024,
        -0.14922305941581726,
        0.041540056467056274,
        0.14650113880634308,
        -0.11562974750995636,
        -0.11426402628421783,
        0.17303769290447235,
        0.14204181730747223,
        -0.09862265735864639,
        0.10637448728084564,
        -0.022615402936935425,
        -0.17428933084011078,
        0.013281837105751038,
        0.05711549520492554,
        -0.05302608758211136,
        0.06149768829345703,
        -0.15116190910339355,
        0.12250907719135284,
        0.1507081836462021,
        0.0974864512681961,
        0.02996210753917694,
        0.058221206068992615
      ],
      [
        -0.12790638208389282,
        -0.04417179524898529,
        -0.016876444220542908,
        -0.09837377816438675,
        -0.13057079911231995,
        0.11890311539173126,
        0.11996866762638092,
        -0.16054651141166687,
        0.05625244975090027,
        0.07191313803195953,
        0.16793225705623627,
        0.10227479040622711,
        0.16251729428768158,
        -0.05787487328052521,
        0.1238120049238205,
        0.14379040896892548,
        -0.16693519055843353,
        -0.14189983904361725,
        0.035780563950538635,
        0.09652675688266754,
        -0.08782497048377991,
        0.019469216465950012,
        -0.00025662779808044434,
        0.04474353790283203,
        -0.09499087929725647,
        0.09970895946025848,
        0.11755816638469696,
        -0.12265796959400177,
        0.001712515950202942,
        0.0004904866218566895,
        0.056765779852867126,
        0.16468243300914764
      ],
      [
        0.051842138171195984,
        -0.040167540311813354,
        0.15876896679401398,
        -0.06726934015750885,
        -0.051330968737602234,
        0.012069493532180786,
        -0.13461701571941376,
        0.01923637092113495,
        -0.11993865668773651,
        0.018176287412643433,
        0.016936540603637695,
        0.02446955442428589,
        -0.1490750014781952,
        -0.1678997278213501,
        0.08133803308010101,
        0.15160296857357025,
        -0.15686675906181335,
        0.06547707319259644,
        -0.1301291286945343,
        0.011082366108894348,
        0.16446556150913239,
        0.13410620391368866,
        -0.1292484700679779,
        0.1093490868806839,
        0.09233351051807404,
        -0.0002711564302444458,
        0.17124830186367035,
        -0.07021131366491318,
        -0.04113873839378357,
        -0.08934544026851654,
        0.0254376083612442,
        0.04680812358856201
      ],
      [
        0.01408560574054718,
        -0.09946112334728241,
        -0.0795789361000061,
        0.06013102829456329,
        -0.15500247478485107,
        -0.027530238032341003,
        -0.003915891051292419,
        -0.0716235339641571,
        0.06433223187923431,
        0.011393919587135315,
        0.12410865724086761,
        -0.015699803829193115,
        -0.1115705668926239,
        0.12490187585353851,
        0.024686649441719055,
        -0.050628527998924255,
        -0.11651401221752167,
        0.04143449664115906,
        -0.16860121488571167,
        0.04655905067920685,
        0.08740629255771637,
        -0.15506860613822937,
        -0.11573082208633423,
        -0.12708932161331177,
        0.14858196675777435,
        0.15028153359889984,
        0.01106637716293335,
        0.16595898568630219,
        -0.05909714847803116,
        -0.1716187447309494,
        0.061747193336486816,
        0.0626264214515686
      ],
      [
        0.17330874502658844,
        -5.117058753967285e-05,
        0.13548098504543304,
        0.10835771262645721,
        0.12794546782970428,
        -0.17542119324207306,
        0.14556817710399628,
        -0.15069380402565002,
        0.15848226845264435,
        -0.0073257386684417725,
        -0.15666252374649048,
        0.049160316586494446,
        -0.03598232567310333,
        -0.15877965092658997,
        -0.06408830732107162,
        0.018226593732833862,
        0.13768191635608673,
        -0.05434639751911163,
        0.10499967634677887,
        0.02213747799396515,
        0.005958765745162964,
        0.0338253378868103,
        -0.11601301282644272,
        -0.14693647623062134,
        -0.05554528534412384,
        -0.16473007202148438,
        -0.08243990689516068,
        0.008132755756378174,
        -0.11642676591873169,
        -0.07332626730203629,
        -0.03176437318325043,
        -0.020365267992019653
      ],
      [
        -0.09758331626653671,
        0.0084943026304245,
        -0.02481245994567871,
        0.05055736005306244,
        0.007984548807144165,
        -0.0882769301533699,
        -0.06086137890815735,
        -0.0020374804735183716,
        -0.11030605435371399,
        0.013838961720466614,
        -0.012481451034545898,
        0.06858555972576141,
        0.04183697700500488,
        0.13229675590991974,
        -0.005827516317367554,
        -0.13062122464179993,
        0.07902075350284576,
        -0.11947238445281982,
        -0.024298369884490967,
        -0.057240769267082214,
        -0.06707693636417389,
        -0.06540453433990479,
        0.16244374215602875,
        0.1011970192193985,
        0.048991426825523376,
        0.16598565876483917,
        -0.16019892692565918,
        0.028526023030281067,
        0.11316825449466705,
        0.11743097007274628,
        -0.14068838953971863,
        0.06291298568248749
      ],
      [
        -0.10070719569921494,
        -0.006907343864440918,
        -0.03688803315162659,
        -0.14760226011276245,
        -0.16862984001636505,
        -0.1163010224699974,
        0.08021606504917145,
        0.08086393773555756,
        -0.15375395119190216,
        -0.0663871243596077,
        0.002887547016143799,
        -0.15283803641796112,
        0.09960563480854034,
        0.16011236608028412,
        0.03126503527164459,
        -0.13134770095348358,
        0.04122191667556763,
        0.06417234241962433,
        0.13997940719127655,
        -0.09405755996704102,
        -0.15837596356868744,
        0.07766695320606232,
        0.011005476117134094,
        -0.05759851634502411,
        -0.07407338172197342,
        -0.09114886075258255,
        0.14310018718242645,
        -0.03050088882446289,
        0.12749259173870087,
        0.1577996462583542,
        0.022393375635147095,
        0.037656545639038086
      ],
      [
        -0.012039333581924438,
        0.12141294777393341,
        -0.1592913269996643,
        0.07030108571052551,
        -0.028802022337913513,
        0.08071912825107574,
        -0.0007873624563217163,
        -0.06545441597700119,
        -0.019083037972450256,
        0.09545813500881195,
        -0.12277670204639435,
        -0.11174039542675018,
        -0.039597347378730774,
        -0.06412124633789062,
        0.06944482028484344,
        0.11896537244319916,
        -0.018932536244392395,
        0.1671553999185562,
        -0.07386083155870438,
        -0.09919989854097366,
        -0.07914187759160995,
        -0.12179425358772278,
        -0.12390875816345215,
        -0.15751077234745026,
        -0.15667350590229034,
        0.0461384654045105,
        0.10780797898769379,
        0.16596631705760956,
        0.15057791769504547,
        -0.010181218385696411,
        0.03430292010307312,
        -0.10576898604631424
      ],
      [
        0.06832791864871979,
        -0.16950075328350067,
        0.08338077366352081,
        0.032423585653305054,
        0.05432422459125519,
        0.06472650170326233,
        -0.08115902543067932,
        0.1516932100057602,
        0.08436711132526398,
        0.11612366139888763,
        0.023348405957221985,
        0.11101339757442474,
        0.11897088587284088,
        0.08012138307094574,
        0.1346629410982132,
        -0.032063379883766174,
        0.11623705923557281,
        0.04072919487953186,
        0.10636584460735321,
        0.17218025028705597,
        0.04002879559993744,
        -0.06561366468667984,
        -0.017588600516319275,
        0.04976767301559448,
        0.02980618178844452,
        -0.048290103673934937,
        0.13850779831409454,
        0.10620872676372528,
        -0.10980550199747086,
        -0.01440402865409851,
        -0.016969457268714905,
        -0.1107914000749588
      ],
      [
        0.025783762335777283,
        -0.05426918715238571,
        -0.09126299619674683,
        -0.05684202164411545,
        -0.06302947551012039,
        0.16911165416240692,
        0.06780658662319183,
        0.17396827042102814,
        0.04847137629985809,
        0.040027767419815063,
        0.07267177104949951,
        0.03034062683582306,
        -0.1387293040752411,
        -0.10453752428293228,
        -0.04282920062541962,
        0.0026575326919555664,
        0.06659433245658875,
        0.06806756556034088,
        0.14023931324481964,
        0.03598691523075104,
        -0.060332685708999634,
        -0.13294072449207306,
        -0.12947313487529755,
        -0.10559534281492233,
        0.053316473960876465,
        0.09550751745700836,
        0.15466417372226715,
        -0.05591654032468796,
        -0.013944670557975769,
        -0.05249621719121933,
        -0.0006459355354309082,
        0.05674557387828827
      ],
      [
        -0.003884047269821167,
        0.008183836936950684,
        0.022395342588424683,
        0.0658348798751831,
        -0.05363428592681885,
        -0.10541152209043503,
        0.041705965995788574,
        -0.020931348204612732,
        -0.08008478581905365,
        0.07423965632915497,
        0.0016032010316848755,
        -0.025714755058288574,
        -0.08557473123073578,
        -0.023257791996002197,
        -0.15031765401363373,
        0.040214985609054565,
        0.0026528239250183105,
        0.10727454721927643,
        0.0114145427942276,
        0.014133691787719727,
        0.04815627634525299,
        0.13451601564884186,
        -0.08353718370199203,
        0.10553659498691559,
        0.04323278367519379,
        -0.11793069541454315,
        0.06155131757259369,
        -0.10601890087127686,
        -0.055645912885665894,
        -0.08426394313573837,
        -0.12026369571685791,
        0.13922427594661713
      ],
      [
        -0.1580066978931427,
        0.08839099109172821,
        -0.15910112857818604,
        -0.021514788269996643,
        0.010543346405029297,
        0.12567241489887238,
        -0.06397434324026108,
        0.050881192088127136,
        0.02738375961780548,
        0.10401274263858795,
        0.010509654879570007,
        0.06619307398796082,
        -0.10678917169570923,
        -0.12284407019615173,
        0.15752176940441132,
        -0.12881134450435638,
        -0.030094414949417114,
        -0.021368786692619324,
        0.17286641895771027,
        -0.03820383548736572,
        -0.13458086550235748,
        -0.04481269419193268,
        0.09118513762950897,
        0.07005487382411957,
        0.14624597132205963,
        -0.036189183592796326,
        0.0832698792219162,
        -0.16635394096374512,
        0.06840193271636963,
        0.08122248947620392,
        0.11403633654117584,
        -0.10137122124433517
      ],
      [
        -0.04719555377960205,
        0.042767539620399475,
        -0.12562011182308197,
        -0.14062249660491943,
        -0.1700667440891266,
        0.00986817479133606,
        0.10977618396282196,
        0.045406848192214966,
        0.010777175426483154,
        0.06159357726573944,
        -0.11108720302581787,
        0.018636852502822876,
        -0.04391549527645111,
        -0.08752986043691635,
        0.15244747698307037,
        -0.13676375150680542,
        0.02590632438659668,
        -0.1553359031677246,
        -0.005997449159622192,
        -0.07855284959077835,
        0.05818559229373932,
        -0.09926682710647583,
        0.11314408481121063,
        -0.14344844222068787,
        0.1061783879995346,
        -0.13279101252555847,
        0.09467901289463043,
        -0.07443472743034363,
        -0.0004118233919143677,
        -0.03226235508918762,
        0.11473338305950165,
        0.05793459713459015
      ],
      [
        -0.15577639639377594,
        0.01625293493270874,
        -0.12195158749818802,
        0.13215143978595734,
        0.029044359922409058,
        -0.045463576912879944,
        -0.09018605947494507,
        0.061187535524368286,
        -0.1058710515499115,
        0.08383850753307343,
        0.096462681889534,
        0.10850612819194794,
        0.04618076980113983,
        -0.15474480390548706,
        0.1271585077047348,
        -0.05484027415513992,
        -0.05226152390241623,
        -0.018992692232131958,
        0.12924762070178986,
        0.13592831790447235,
        0.027296453714370728,
        0.08434931933879852,
        -0.16475534439086914,
        0.0004175901412963867,
        -0.156391441822052,
        0.06016586720943451,
        -0.12594445049762726,
        -0.0630040392279625,
        0.12357242405414581,
        0.16894476115703583,
        -0.10613326728343964,
        -0.09811299294233322
      ],
      [
        0.021893098950386047,
        0.06949184834957123,
        -0.02879202365875244,
        -0.05520565062761307,
        -0.11611464619636536,
        0.07546167075634003,
        0.17319904267787933,
        -0.08557390421628952,
        0.08337916433811188,
        0.08633677661418915,
        0.14209257066249847,
        -0.020126700401306152,
        0.005568087100982666,
        0.12987764179706573,
        0.1117430180311203,
        0.17460359632968903,
        -0.05065891146659851,
        0.06994816660881042,
        0.12343893945217133,
        -0.11999884247779846,
        0.03511825203895569,
        -0.03955426812171936,
        0.11363635957241058,
        -0.07939521968364716,
        0.012398868799209595,
        0.1057673841714859,
        -0.16194812953472137,
        -0.14926354587078094,
        -0.09054219722747803,
        0.11338759958744049,
        0.11853368580341339,
        -0.12073318660259247
      ],
      [
        0.03370906412601471,
        -0.09367059171199799,
        -0.08205138146877289,
        0.15245531499385834,
        0.08538474142551422,
        -0.048345401883125305,
        0.026021808385849,
        0.034251704812049866,
        0.041408345103263855,
        -0.060506902635097504,
        -0.10410124063491821,
        0.11703746020793915,
        0.02375394105911255,
        0.07398982346057892,
        -0.06695058196783066,
        0.08562524616718292,
        0.12865202128887177,
        0.10751090943813324,
        0.04806482791900635,
        0.17392756044864655,
        -0.00038661062717437744,
        0.037635236978530884,
        0.16796080768108368,
        0.17180873453617096,
        -0.07463867217302322,
        0.15924103558063507,
        0.06524121761322021,
        -0.019787967205047607,
        0.1543518751859665,
        -0.091575488448143,
        0.114860400557518,
        0.17517583072185516
      ],
      [
        -0.12192326784133911,
        -0.10431466996669769,
        -0.17517051100730896,
        -0.031813159584999084,
        -0.16054922342300415,
        -0.05920639634132385,
        0.0536685585975647,
        0.12495951354503632,
        0.09847085177898407,
        0.09812535345554352,
        0.07333825528621674,
        -0.10964278876781464,
        -0.1403597891330719,
        0.007328048348426819,
        0.1678640991449356,
        0.009953543543815613,
        -0.0152045339345932,
        -0.1199849545955658,
        -0.08765265345573425,
        -0.13627073168754578,
        0.14153949916362762,
        -0.02880217134952545,
        -0.15616606175899506,
        0.018963664770126343,
        0.012828364968299866,
        -0.02184051275253296,
        0.06327967345714569,
        0.09506683051586151,
        -0.1662425994873047,
        -0.13542716205120087,
        -0.008492335677146912,
        -0.1638963371515274
      ],
      [
        -0.16057683527469635,
        0.15607799589633942,
        -0.013445541262626648,
        -0.08739669620990753,
        -0.06063738465309143,
        -0.1380135416984558,
        0.13795046508312225,
        -0.03833204507827759,
        -0.09939056634902954,
        -0.13406971096992493,
        0.10332421958446503,
        -0.024436086416244507,
        -0.018571674823760986,
        -0.04607388377189636,
        -0.08533415198326111,
        0.03144685924053192,
        0.13600675761699677,
        -0.10245627164840698,
        0.008469849824905396,
        -0.13444101810455322,
        -0.08289007842540741,
        0.1551692634820938,
        0.0018535107374191284,
        0.17029236257076263,
        -0.030972018837928772,
        -0.09635110944509506,
        -0.10562200099229813,
        0.15667976438999176,
        -0.13593897223472595,
        0.09277139604091644,
        0.043943554162979126,
        0.05216808617115021
      ],
      [
        0.09974448382854462,
        -0.04624883830547333,
        0.10938297212123871,
        -0.14084197580814362,
        -0.06219734996557236,
        0.1294078379869461,
        0.05246374011039734,
        -0.02354179322719574,
        -0.0412827730178833,
        -0.10794241726398468,
        0.10749645531177521,
        -0.005621522665023804,
        -0.005981042981147766,
        0.04180653393268585,
        0.13045205175876617,
        -0.09018852561712265,
        -0.06088143587112427,
        0.11978937685489655,
        0.09983859956264496,
        -0.08696290105581284,
        -0.17487812042236328,
        0.03279408812522888,
        0.09296579658985138,
        0.042224377393722534,
        0.12539024651050568,
        -0.1402677297592163,
        0.08914603292942047,
        -0.1098984107375145,
        0.09949110448360443,
        0.13147135078907013,
        0.05598801374435425,
        0.14302553236484528
      ],
      [
        -0.11652263253927231,
        -0.1581047922372818,
        -0.16997170448303223,
        0.11098597943782806,
        0.06192663311958313,
        -0.12944769859313965,
        0.085609570145607,
        0.16129322350025177,
        -0.17431659996509552,
        0.1282375305891037,
        0.027112752199172974,
        0.016443923115730286,
        0.159062460064888,
        0.1600872427225113,
        0.07448507845401764,
        0.13967745006084442,
        0.07354341447353363,
        0.028804272413253784,
        -0.15538866817951202,
        0.03301882743835449,
        -0.12576711177825928,
        0.05442357063293457,
        0.031189411878585815,
        0.003971412777900696,
        -0.12086693942546844,
        -0.10716154426336288,
        0.13066230714321136,
        0.08609361946582794,
        0.09320370852947235,
        -0.052675358951091766,
        -0.030440285801887512,
        -0.04530392587184906
      ],
      [
        0.12156815826892853,
        -0.0763123482465744,
        0.11134542524814606,
        0.12188641726970673,
        -0.1616721898317337,
        0.0010795146226882935,
        -0.03366774320602417,
        -0.09772610664367676,
        0.07631759345531464,
        -0.021477490663528442,
        0.1547694355249405,
        -0.11064523458480835,
        0.08213602006435394,
        -0.15093064308166504,
        -0.08860430866479874,
        0.012058466672897339,
        0.13967005908489227,
        0.09311167895793915,
        -0.14514876902103424,
        0.019580751657485962,
        -0.10420805960893631,
        0.007659688591957092,
        -0.14726793766021729,
        -0.05186159163713455,
        0.12124522030353546,
        -0.162199005484581,
        -0.16854290664196014,
        0.03219886124134064,
        0.024233326315879822,
        -0.032329902052879333,
        0.15436355769634247,
        -0.10643529146909714
      ],
      [
        -0.10731763392686844,
        -0.13213634490966797,
        -0.03290212154388428,
        -0.04511427879333496,
        0.10938002169132233,
        -0.00992584228515625,
        0.05645427107810974,
        -0.07346073538064957,
        0.1433999091386795,
        0.1490260809659958,
        -0.1583157181739807,
        -0.04543153941631317,
        -0.14999456703662872,
        0.07509948313236237,
        -0.1544468253850937,
        -0.08358211070299149,
        0.1766303926706314,
        -0.16880746185779572,
        0.13042663037776947,
        0.014933928847312927,
        0.14135678112506866,
        -0.08971228450536728,
        0.11611197888851166,
        0.021328777074813843,
        0.013596326112747192,
        0.12065578997135162,
        -0.16803105175495148,
        -0.14238500595092773,
        0.17072446644306183,
        -0.10615379363298416,
        -0.1274220049381256,
        -0.008643433451652527
      ],
      [
        -0.056586652994155884,
        -0.024185150861740112,
        -0.11843782663345337,
        0.06378436088562012,
        -0.15211309492588043,
        0.01431766152381897,
        0.1031561940908432,
        0.03396517038345337,
        0.023488298058509827,
        0.025856077671051025,
        -0.05178682506084442,
        -0.03367564082145691,
        -0.07454555481672287,
        -0.1194176971912384,
        -0.09359550476074219,
        0.17475445568561554,
        -0.029584720730781555,
        0.061924174427986145,
        0.12225063145160675,
        -0.013809412717819214,
        -0.09510128200054169,
        -0.11977310478687286,
        -0.06512512266635895,
        0.06309804320335388,
        -0.14887399971485138,
        -0.02158387005329132,
        0.06724348664283752,
        0.14422418177127838,
        0.053197503089904785,
        0.034960538148880005,
        0.12101967632770538,
        0.0816863626241684
      ],
      [
        0.0598059743642807,
        -0.054809004068374634,
        -0.1417570263147354,
        -0.038184136152267456,
        -0.0320608913898468,
        0.012981981039047241,
        -0.01944194734096527,
        0.071468785405159,
        0.11747695505619049,
        -0.07166886329650879,
        -0.16773644089698792,
        -0.09069698303937912,
        -0.08458347618579865,
        0.10020412504673004,
        -0.1140286773443222,
        -0.016627103090286255,
        -0.037465885281562805,
        -0.10729148238897324,
        0.0801302045583725,
        -0.07363730669021606,
        -0.00914505124092102,
        -0.12428899109363556,
        -0.01782965660095215,
        0.025117456912994385,
        -0.007193535566329956,
        -0.06605220586061478,
        0.05251745879650116,
        -0.045802414417266846,
        -0.09800480306148529,
        -0.1303609013557434,
        -0.037446528673172,
        -0.16699713468551636
      ],
      [
        0.14672817289829254,
        -0.08445113152265549,
        -0.07325948029756546,
        0.01634107530117035,
        0.04582639038562775,
        -0.016668692231178284,
        0.12127284705638885,
        -0.10305190831422806,
        0.06335337460041046,
        -0.0003986954689025879,
        -0.1438027322292328,
        -0.06846471130847931,
        0.04498739540576935,
        0.03377173840999603,
        0.12854059040546417,
        0.11826236546039581,
        -0.09641803801059723,
        -0.0754888579249382,
        -0.037483975291252136,
        -0.12664645910263062,
        -0.04772791266441345,
        -0.1446586400270462,
        0.06723561882972717,
        0.12508000433444977,
        0.013996541500091553,
        -0.12655100226402283,
        -0.13387440145015717,
        -0.06881901621818542,
        0.051416099071502686,
        0.0043119341135025024,
        0.032141879200935364,
        0.16660873591899872
      ],
      [
        0.08210252225399017,
        0.038010984659194946,
        -0.03576579689979553,
        0.08362402021884918,
        0.0646720826625824,
        -0.15911710262298584,
        -0.10442357510328293,
        0.005933642387390137,
        0.06707656383514404,
        0.08600236475467682,
        -0.1052313819527626,
        -0.17538268864154816,
        -0.009208574891090393,
        -0.020208626985549927,
        0.05129705369472504,
        -0.04861472547054291,
        0.13514982163906097,
        0.011795282363891602,
        0.12909062206745148,
        -0.12309214472770691,
        0.07071703672409058,
        0.02106402814388275,
        -0.08841456472873688,
        0.08763666450977325,
        -0.17395170032978058,
        0.14291812479496002,
        0.01424609124660492,
        0.017068251967430115,
        0.08174960315227509,
        0.014674648642539978,
        0.07577560842037201,
        0.11246784031391144
      ],
      [
        -0.13796687126159668,
        0.11694847047328949,
        -0.026470333337783813,
        -0.041109248995780945,
        0.035581886768341064,
        0.1382661908864975,
        -0.09609849750995636,
        -0.1191353127360344,
        0.10970889031887054,
        -0.08302634209394455,
        0.05691327154636383,
        -0.026043817400932312,
        0.04865831136703491,
        0.13490094244480133,
        -0.08959025144577026,
        -0.08578329533338547,
        0.08673031628131866,
        0.009678959846496582,
        -0.019455716013908386,
        -0.1552785485982895,
        0.14977551996707916,
        -0.006694689393043518,
        -0.03256003558635712,
        -0.07256504893302917,
        -0.03488479554653168,
        0.08591954410076141,
        -0.004062920808792114,
        0.15118096768856049,
        -0.010206148028373718,
        -0.02535998821258545,
        0.09978188574314117,
        -0.004574194550514221
      ],
      [
        -0.03528338670730591,
        0.0590834766626358,
        0.1394115835428238,
        0.044114530086517334,
        0.12309281527996063,
        0.11455805599689484,
        0.04999205470085144,
        0.061463236808776855,
        0.05704304575920105,
        0.018336474895477295,
        0.1503903716802597,
        0.16318972408771515,
        0.06293049454689026,
        -0.008827969431877136,
        0.1584969311952591,
        -0.13758893311023712,
        0.12989266216754913,
        0.09366081655025482,
        0.11351470649242401,
        -0.013582751154899597,
        -0.13189272582530975,
        0.12610168755054474,
        -0.07729659974575043,
        0.046512171626091,
        0.10015197098255157,
        -0.16520234942436218,
        0.011731594800949097,
        -0.06279575079679489,
        0.1254682093858719,
        -0.11255397647619247,
        0.1073334664106369,
        0.1102326363325119
      ],
      [
        0.0975303202867508,
        0.169707790017128,
        0.02677302062511444,
        -0.16022706031799316,
        0.12619467079639435,
        0.016183331608772278,
        0.003508135676383972,
        -0.16839557886123657,
        -0.03973166644573212,
        -0.08580171316862106,
        0.17313702404499054,
        0.12587009370326996,
        0.13187332451343536,
        0.12106315791606903,
        -0.10957925766706467,
        -0.0759202092885971,
        -0.06918160617351532,
        -0.07086663693189621,
        0.13760866224765778,
        0.06006285548210144,
        0.14166070520877838,
        -0.008269429206848145,
        -0.157583549618721,
        -0.05128702521324158,
        0.12423773109912872,
        0.10762263834476471,
        0.05472502112388611,
        -0.05185350030660629,
        -0.16499824821949005,
        -0.09498683363199234,
        0.09216789901256561,
        -0.07130424678325653
      ],
      [
        0.0845591276884079,
        0.04826730489730835,
        -0.06789768487215042,
        0.107670858502388,
        -0.0568041130900383,
        -0.005872994661331177,
        -0.0673365443944931,
        -0.1676853448152542,
        0.02850314974784851,
        0.0510830283164978,
        -0.08900377154350281,
        0.10844309628009796,
        -0.15857850015163422,
        -0.17040859162807465,
        -0.10918594151735306,
        -0.06109488755464554,
        -0.019632488489151,
        -0.034161701798439026,
        0.08067883551120758,
        -0.15514370799064636,
        0.026029929518699646,
        0.003061354160308838,
        0.046692073345184326,
        0.17573018372058868,
        0.10879693925380707,
        -0.09788206964731216,
        -0.14486010372638702,
        -0.04279780387878418,
        -0.08867595344781876,
        0.061749011278152466,
        0.0016205012798309326,
        0.14218564331531525
      ],
      [
        0.06943897902965546,
        -0.032503992319107056,
        0.006075799465179443,
        0.04233554005622864,
        -0.021935731172561646,
        0.14264722168445587,
        -0.13822174072265625,
        0.0861620157957077,
        -0.11268522590398788,
        -0.15487077832221985,
        -0.036291658878326416,
        0.08614416420459747,
        0.12490369379520416,
        0.04436078667640686,
        -0.015278637409210205,
        -0.009909987449645996,
        -0.07166197150945663,
        -0.015863478183746338,
        -0.01221419870853424,
        0.150430366396904,
        0.10345752537250519,
        -0.14146094024181366,
        0.0007312744855880737,
        -0.1087300181388855,
        -0.02806168794631958,
        -0.14049647748470306,
        0.04595506191253662,
        -0.12746979296207428,
        0.1745176762342453,
        0.13350220024585724,
        -0.12168581038713455,
        -0.16642887890338898
      ],
      [
        0.006897419691085815,
        -0.04934750497341156,
        0.05189575254917145,
        -0.11966263502836227,
        0.07236199080944061,
        -0.15269075334072113,
        -0.09329744428396225,
        -0.0929318219423294,
        0.08554072678089142,
        -0.004628226161003113,
        -0.1698874533176422,
        -0.10096070915460587,
        -0.0818081721663475,
        -0.1640186458826065,
        0.022635698318481445,
        0.06299223005771637,
        -0.03243456780910492,
        -0.0703473687171936,
        -0.0010720640420913696,
        -0.14041049778461456,
        -0.10763959586620331,
        -0.00403161346912384,
        0.1570443958044052,
        -0.05436030775308609,
        0.0876210480928421,
        -0.06957053393125534,
        -0.04705756902694702,
        -0.16828159987926483,
        0.14645685255527496,
        0.17213232815265656,
        -0.003712877631187439,
        0.11231856048107147
      ]
    ],
    "rec_0_W_hh_bias": [
      0.36982303857803345,
      0.0686432495713234,
      0.21563009917736053,
      -0.4047676920890808,
      0.0042115175165236,
      -0.057472988963127136,
      -0.008906633593142033,
      -0.31973060965538025,
      -0.23118732869625092,
      0.0064429622143507,
      -0.33621975779533386,
      -0.15992262959480286,
      0.1290864795446396,
      -0.2608911097049713,
      -0.034298159182071686,
      -0.038280729204416275,
      -0.1910286247730255,
      0.05647020787000656,
      0.26095178723335266,
      0.04105273634195328,
      -0.12572506070137024,
      -0.1988488882780075,
      -0.06750144809484482,
      0.23260976374149323,
      0.2053050398826599,
      -0.36172887682914734,
      -0.371869832277298,
      -0.09126433730125427,
      0.05209514498710632,
      0.23695330321788788,
      0.12799596786499023,
      -0.3527703881263733
    ],
    "dense_0_weight": [
      [
        0.2606523633003235,
        -0.36185961961746216,
        0.07221788167953491,
        -0.3768671154975891,
        0.11115074902772903,
        0.3805577754974365,
        -0.16376647353172302,
        -0.24999012053012848,
        -0.17804330587387085,
        0.12597247958183289,
        -0.23676984012126923,
        0.05501310154795647,
        0.10772684216499329,
        -0.01407755259424448,
        0.22160883247852325,
        -0.3878355324268341,
        -0.19419042766094208,
        -0.23400366306304932,
        0.40563666820526123,
        0.2249976396560669,
        0.26017293334007263,
        -0.20725366473197937,
        -0.27658823132514954,
        0.30386316776275635,
        -0.348327100276947,
        -0.2631090581417084,
        -0.26015058159828186,
        0.19187280535697937,
        0.039688993245363235,
        0.2453756183385849,
        0.37112435698509216,
        -0.33612260222435
      ],
      [
        0.33696451783180237,
        -0.30290687084198,
        0.23347006738185883,
        -0.22981750965118408,
        0.38711071014404297,
        0.27873605489730835,
        -0.3666110336780548,
        -0.3483545184135437,
        -0.20537148416042328,
        0.19553185999393463,
        -0.25473880767822266,
        0.19481787085533142,
        0.17566293478012085,
        0.029267601668834686,
        0.15608109533786774,
        -0.23688527941703796,
        -0.200944185256958,
        -0.10713426023721695,
        0.2134588062763214,
        0.23819419741630554,
        0.4750519394874573,
        -0.16699928045272827,
        -0.22421994805335999,
        0.2788638472557068,
        -0.2580103576183319,
        -0.28466179966926575,
        -0.24001604318618774,
        0.2563949227333069,
        0.3896121382713318,
        0.45293378829956055,
        0.2792409062385559,
        -0.05921589210629463
      ],
      [
        -0.1564909815788269,
        0.3469354808330536,
        -0.02394263446331024,
        -0.005166512914001942,
        -0.2837224304676056,
        -0.23940566182136536,
        0.1665555238723755,
        0.17950913310050964,
        0.01070465613156557,
        -0.07063960283994675,
        0.12711265683174133,
        -0.22585143148899078,
        -0.2750691771507263,
        -0.21527236700057983,
        -0.36893680691719055,
        0.08734620362520218,
        0.20401087403297424,
        0.25927963852882385,
        -0.028418151661753654,
        -0.2769260108470917,
        -0.10730229318141937,
        0.08303742110729218,
        0.05019664391875267,
        0.10858042538166046,
        0.08494871109724045,
        -0.29670336842536926,
        0.018619325011968613,
        -0.3083948493003845,
        -0.0354299359023571,
        0.15039174258708954,
        -0.2534219026565552,
        -0.15528684854507446
      ],
      [
        0.022205280140042305,
        -0.09939135611057281,
        0.08202695846557617,
        0.258818656206131,
        0.23942701518535614,
        0.07825571298599243,
        0.29200440645217896,
        -0.23169827461242676,
        -0.2265579104423523,
        -0.019993280991911888,
        -0.33798906207084656,
        0.21538430452346802,
        0.3255036473274231,
        -0.1424383968114853,
        0.07350770384073257,
        -0.07289352267980576,
        -0.36555245518684387,
        -0.04667998477816582,
        0.09624619036912918,
        0.2758840322494507,
        -0.2950645089149475,
        -0.28659167885780334,
        -0.14999254047870636,
        -0.08362486958503723,
        0.033751897513866425,
        0.3132675886154175,
        -0.1885213851928711,
        -0.07852859795093536,
        0.19858194887638092,
        -0.17270228266716003,
        0.17206892371177673,
        -0.04086114838719368
      ],
      [
        -0.03152589872479439,
        0.3122570216655731,
        -0.19169969856739044,
        0.35491055250167847,
        0.0013403092743828893,
        -0.12899340689182281,
        0.36449873447418213,
        0.10913661122322083,
        0.1838027685880661,
        -0.11632101982831955,
        0.1790943145751953,
        -0.1593654751777649,
        0.16199293732643127,
        -0.2950638234615326,
        0.13840197026729584,
        0.3430385887622833,
        -0.2330954223871231,
        0.05456983298063278,
        0.19759468734264374,
        0.35310497879981995,
        -0.09710906445980072,
        -0.09854509681463242,
        -0.05153178051114082,
        -0.22185853123664856,
        0.35069355368614197,
        0.35565832257270813,
        -0.15504416823387146,
        -0.3403111398220062,
        0.2582387924194336,
        -0.19445191323757172,
        0.05809762328863144,
        0.3682718575000763
      ],
      [
        0.2678888440132141,
        -0.31888365745544434,
        0.3810049891471863,
        -0.339603453874588,
        0.259586364030838,
        0.062451671808958054,
        -0.308561772108078,
        -0.39589589834213257,
        -0.3197222054004669,
        0.10695295035839081,
        -0.366971492767334,
        0.04993078112602234,
        0.3507081866264343,
        0.23227567970752716,
        0.2292342633008957,
        -0.3597257733345032,
        -0.24553267657756805,
        -0.21039770543575287,
        0.3441334664821625,
        0.05183494836091995,
        0.20493033528327942,
        -0.34831348061561584,
        -0.31496158242225647,
        0.38513675332069397,
        -0.12443969398736954,
        -0.291503369808197,
        -0.2957848906517029,
        0.42891284823417664,
        0.2475397139787674,
        0.14225688576698303,
        0.1697702258825302,
        -0.2734408676624298
      ],
      [
        0.264199435710907,
        0.27496573328971863,
        -0.07205792516469955,
        -0.15854522585868835,
        -0.045308176428079605,
        -0.2729393243789673,
        0.0014395988546311855,
        0.09693701565265656,
        0.027328258380293846,
        -0.3282162845134735,
        0.05011114850640297,
        -0.214516282081604,
        -0.20328499376773834,
        -0.2334488183259964,
        -0.2640991806983948,
        0.36337000131607056,
        0.15057824552059174,
        0.2850055694580078,
        -0.09351752698421478,
        -0.31268078088760376,
        -0.1715419441461563,
        0.30409419536590576,
        0.37221014499664307,
        0.15057140588760376,
        0.3325256407260895,
        -0.3285369277000427,
        0.08968953043222427,
        -0.0583295002579689,
        -0.21843692660331726,
        0.3852922022342682,
        -0.18583881855010986,
        -0.21937508881092072
      ],
      [
        0.17027169466018677,
        0.35649579763412476,
        -0.1681807041168213,
        -0.26818111538887024,
        -0.20094940066337585,
        -0.27424976229667664,
        0.31648778915405273,
        0.20443938672542572,
        0.21353626251220703,
        -0.10080878436565399,
        0.2674156129360199,
        -0.2998334467411041,
        -0.04443877562880516,
        -0.07097461074590683,
        -0.32140690088272095,
        0.3227265477180481,
        0.25344011187553406,
        0.1656792312860489,
        -0.32631999254226685,
        -0.22654016315937042,
        -0.35838237404823303,
        0.29053014516830444,
        0.3207206726074219,
        0.12756139039993286,
        0.3577081561088562,
        -0.2568891942501068,
        0.22204454243183136,
        -0.3228452801704407,
        -0.19566397368907928,
        0.2080622911453247,
        -0.1135224774479866,
        -0.15552324056625366
      ],
      [
        -0.21749484539031982,
        0.3312239348888397,
        0.1313379406929016,
        0.24454915523529053,
        0.10688537359237671,
        -0.015294497832655907,
        0.2115669697523117,
        0.38148871064186096,
        0.23097901046276093,
        -0.0853419080376625,
        0.17745359241962433,
        0.20785154402256012,
        0.1688791662454605,
        -0.042300205677747726,
        0.1441948562860489,
        -0.029704498127102852,
        -0.17227324843406677,
        -0.3571949303150177,
        0.009927564300596714,
        0.20832426846027374,
        -0.15956321358680725,
        -0.1480354219675064,
        -0.016865132376551628,
        -0.33911293745040894,
        0.09567958861589432,
        0.17440836131572723,
        -0.11298422515392303,
        -0.23530447483062744,
        0.30741962790489197,
        -0.271812379360199,
        -0.040338292717933655,
        0.22792279720306396
      ],
      [
        0.04141947254538536,
        0.24222327768802643,
        -0.029245462268590927,
        0.18843068182468414,
        0.10339459031820297,
        -0.04504123702645302,
        0.3433738350868225,
        0.14001452922821045,
        0.017592653632164,
        -0.07046429067850113,
        0.21718120574951172,
        0.002711253007873893,
        -0.18563242256641388,
        -0.05460307374596596,
        -0.11435792595148087,
        0.1614038199186325,
        0.12410157173871994,
        0.01754431612789631,
        0.06289732456207275,
        0.004218169488012791,
        -0.10924524813890457,
        -0.027957839891314507,
        0.03942829743027687,
        -0.10931824892759323,
        0.32863208651542664,
        0.07709308713674545,
        0.15881024301052094,
        -0.39934030175209045,
        -0.11526153981685638,
        -0.23613125085830688,
        -0.28973588347435,
        0.19787268340587616
      ],
      [
        -0.15537357330322266,
        0.37805086374282837,
        -0.04032214358448982,
        0.2686610817909241,
        0.22337625920772552,
        -0.1145557314157486,
        0.2943955361843109,
        0.2062920182943344,
        0.22489097714424133,
        0.03938060253858566,
        0.13107271492481232,
        0.012490760535001755,
        0.23580507934093475,
        -0.16168293356895447,
        0.02877420000731945,
        0.13590343296527863,
        -0.20024017989635468,
        -0.11848316341638565,
        0.2195236086845398,
        0.19923202693462372,
        -0.29241490364074707,
        -0.0451221726834774,
        -0.22918270528316498,
        -0.3312149941921234,
        0.20386451482772827,
        0.11682534962892532,
        -0.1720723956823349,
        -0.21120181679725647,
        0.1398468315601349,
        -0.29576146602630615,
        -0.05895030498504639,
        0.030168984085321426
      ],
      [
        0.06183908134698868,
        0.10426241904497147,
        -0.19433045387268066,
        -0.0987037792801857,
        -0.2923288941383362,
        -0.2672044336795807,
        0.09747020155191422,
        0.11842653155326843,
        0.19930551946163177,
        -0.31208091974258423,
        0.06931319087743759,
        -0.07934891432523727,
        -0.1991795301437378,
        -0.28680363297462463,
        -0.23298107087612152,
        0.3417840301990509,
        0.04169221222400665,
        0.08632226288318634,
        -0.35302484035491943,
        -0.18545612692832947,
        -0.24570271372795105,
        0.0746854916214943,
        0.3364666998386383,
        0.022015662863850594,
        0.3793265223503113,
        -0.2888028919696808,
        0.188505157828331,
        -0.18479768931865692,
        -0.28950822353363037,
        0.2770739495754242,
        -0.33206233382225037,
        -0.1010909304022789
      ],
      [
        -0.24172592163085938,
        0.2535330057144165,
        0.14586491882801056,
        0.389756977558136,
        0.26803794503211975,
        -0.1989315152168274,
        0.390784353017807,
        0.23217955231666565,
        0.34075552225112915,
        -0.1156531423330307,
        -0.02629058063030243,
        -0.08673888444900513,
        0.2601888179779053,
        -0.16832251846790314,
        0.02761528082191944,
        0.20406651496887207,
        -0.3071953058242798,
        -0.24600668251514435,
        0.21606095135211945,
        0.13069278001785278,
        -0.18261656165122986,
        -0.20604410767555237,
        -0.04002511501312256,
        -0.46623146533966064,
        0.2510474920272827,
        0.4270855784416199,
        0.022298306226730347,
        -0.1583762913942337,
        0.2252979874610901,
        -0.033536653965711594,
        0.1325490027666092,
        0.28864356875419617
      ],
      [
        -0.04970531910657883,
        0.35470303893089294,
        -0.020799824967980385,
        -0.05359252169728279,
        -0.18368901312351227,
        -0.2708365023136139,
        0.21907928586006165,
        0.009656997397542,
        0.23698437213897705,
        -0.10578760504722595,
        0.2666443884372711,
        -0.12421248108148575,
        -0.27294614911079407,
        -0.10007983446121216,
        -0.12027708441019058,
        0.029409749433398247,
        0.3697863221168518,
        0.2860260605812073,
        -0.06450275331735611,
        -0.1947748363018036,
        -0.028359970077872276,
        0.08333193510770798,
        0.12834809720516205,
        0.15813328325748444,
        0.2695610523223877,
        -0.0968000665307045,
        0.014660296961665154,
        -0.014417341910302639,
        -0.2536163032054901,
        0.2110915333032608,
        -0.04048462584614754,
        0.03712647035717964
      ],
      [
        0.32454296946525574,
        0.26638391613960266,
        0.26672813296318054,
        0.12065800279378891,
        0.36989158391952515,
        0.20050694048404694,
        0.27671658992767334,
        -0.13577796518802643,
        0.05887807533144951,
        0.07977303117513657,
        -0.3316478133201599,
        0.31938236951828003,
        0.06780825555324554,
        -0.2948293685913086,
        0.035650912672281265,
        -0.09269938617944717,
        -0.3294212520122528,
        -0.28140753507614136,
        0.08835753798484802,
        0.2372857928276062,
        -0.3542689085006714,
        -0.2564956247806549,
        -0.1862567663192749,
        -0.18338043987751007,
        -0.18114525079727173,
        0.24107396602630615,
        -0.2968864142894745,
        -0.33789023756980896,
        0.1525629758834839,
        -0.28679680824279785,
        0.2905624210834503,
        0.044408127665519714
      ],
      [
        -0.173691987991333,
        0.1996288150548935,
        -0.0795368179678917,
        0.39094144105911255,
        0.06242595613002777,
        -0.036699194461107254,
        0.1359669715166092,
        0.11493566632270813,
        0.032582689076662064,
        -0.07283221185207367,
        0.07707580178976059,
        0.1197538673877716,
        0.30337953567504883,
        0.055552300065755844,
        0.23647047579288483,
        0.09991385042667389,
        -0.07914304733276367,
        0.011081424541771412,
        0.2844158113002777,
        0.03313453122973442,
        -0.21925128996372223,
        -0.2907693088054657,
        -0.12047576159238815,
        -0.3070410490036011,
        0.24000810086727142,
        0.24070020020008087,
        -0.10925380140542984,
        -0.25415727496147156,
        -0.012897346168756485,
        -0.16534294188022614,
        -0.0001172115808003582,
        0.15460489690303802
      ]
    ],
    "dense_0_bias": [
      0.33964231610298157,
      0.09087561815977097,
      -0.021022602915763855,
      0.2972052991390228,
      0.25679245591163635,
      0.12016069889068604,
      0.2274826467037201,
      0.2791368365287781,
      -0.07357024401426315,
      0.0169867891818285,
      0.09636310487985611,
      0.13034701347351074,
      0.28760769963264465,
      -0.11969411373138428,
      0.272306889295578,
      -0.14738552272319794
    ],
    "dense_1_weight": [
      [
        -0.47436007857322693,
        -0.11861198395490646,
        -0.3353276252746582,
        0.15217472612857819,
        0.3269364535808563,
        -0.4712829887866974,
        -0.41987812519073486,
        -0.11554963886737823,
        0.4508967995643616,
        0.12611140310764313,
        0.35454103350639343,
        -0.12700167298316956,
        0.29660287499427795,
        -0.375328004360199,
        0.3817860782146454,
        0.26639869809150696
      ],
      [
        0.2893385887145996,
        0.4215734004974365,
        -0.25095421075820923,
        0.1885412335395813,
        -0.3368942141532898,
        0.2255396991968155,
        -0.0866478830575943,
        -0.09136193245649338,
        -0.2156893014907837,
        -0.36016780138015747,
        -0.3585880994796753,
        -0.20695176720619202,
        -0.2868864834308624,
        -0.189752459526062,
        0.3617459237575531,
        -0.23831577599048615
      ],
      [
        -0.4062129259109497,
        -0.08862681686878204,
        0.22518029808998108,
        -0.3345496356487274,
        0.13090117275714874,
        -0.3814125061035156,
        0.29220491647720337,
        0.4390604794025421,
        -0.04120263829827309,
        0.02991730161011219,
        -0.16216117143630981,
        0.2616402506828308,
        -0.08192852884531021,
        0.12659090757369995,
        -0.25551050901412964,
        0.018776752054691315
      ]
    ],
    "dense_1_bias": [
      -0.3169640302658081,
      0.01412222906947136,
      -0.06951416283845901
    ]
  }
}