{
  "recurrent_layers": [
    {
      "index": 0,
      "type": "RNN",
      "input_size": 1,
      "hidden_size": 64,
      "activation": "tanh"
    },
    {
      "index": 1,
      "type": "RNN",
      "input_size": 64,
      "hidden_size": 32,
      "activation": "tanh"
    }
  ],
  "dense_layers": [
    {
      "index": 0,
      "in_features": 32,
      "out_features": 1,
      "activation": "linear"
    }
  ],
  "parameters": {
    "rec_0_W_ih_weight": [
      [
        0.11089157313108444
      ],
      [
        0.03523886203765869
      ],
      [
        0.0035891090519726276
      ],
      [
        0.05046874284744263
      ],
      [
        -0.03602935001254082
      ],
      [
        -0.04104260727763176
      ],
      [
        -0.02674141526222229
      ],
      [
        -0.0422874316573143
      ],
      [
        -0.15955783426761627
      ],
      [
        0.015261922962963581
      ],
      [
        0.033301740884780884
      ],
      [
        -0.08658985793590546
      ],
      [
        0.12868350744247437
      ],
      [
        0.07968205213546753
      ],
      [
        0.05856360122561455
      ],
      [
        -0.11465221643447876
      ],
      [
        -0.1570710837841034
      ],
      [
        -0.09392745792865753
      ],
      [
        0.04747391119599342
      ],
      [
        -0.02015850879251957
      ],
      [
        0.1327372044324875
      ],
      [
        -0.15716400742530823
      ],
      [
        -0.14913994073867798
      ],
      [
        -0.0986773893237114
      ],
      [
        0.17995072901248932
      ],
      [
        -0.09265363961458206
      ],
      [
        0.12484860420227051
      ],
      [
        0.09784875810146332
      ],
      [
        0.02514474093914032
      ],
      [
        0.07287260890007019
      ],
      [
        0.09907886385917664
      ],
      [
        -0.04307999834418297
      ],
      [
        -0.007704352494329214
      ],
      [
        0.0612015575170517
      ],
      [
        0.13301879167556763
      ],
      [
        -0.045043740421533585
      ],
      [
        -0.007569519802927971
      ],
      [
        0.13963329792022705
      ],
      [
        0.012762977741658688
      ],
      [
        -0.047602929174900055
      ],
      [
        -0.14079570770263672
      ],
      [
        -0.09012944251298904
      ],
      [
        -0.05264922231435776
      ],
      [
        0.030138658359646797
      ],
      [
        0.01087059173732996
      ],
      [
        -0.08502320200204849
      ],
      [
        -0.06974240392446518
      ],
      [
        0.17129561305046082
      ],
      [
        -0.14899718761444092
      ],
      [
        -0.07161691039800644
      ],
      [
        0.10540732741355896
      ],
      [
        0.13072963058948517
      ],
      [
        -0.19356568157672882
      ],
      [
        -0.11961038410663605
      ],
      [
        -0.012028297409415245
      ],
      [
        0.20006346702575684
      ],
      [
        -0.12746433913707733
      ],
      [
        -0.03705056011676788
      ],
      [
        0.16205522418022156
      ],
      [
        -0.09065064042806625
      ],
      [
        -0.029188064858317375
      ],
      [
        -0.13067767024040222
      ],
      [
        -0.0478813461959362
      ],
      [
        0.1788301169872284
      ]
    ],
    "rec_0_W_ih_bias": [
      0.03573279827833176,
      0.046788882464170456,
      0.011897583492100239,
      -0.02697424776852131,
      -0.04259803891181946,
      0.05122127756476402,
      -0.07353349030017853,
      -0.0924285352230072,
      -0.05076838284730911,
      0.051866814494132996,
      0.13051477074623108,
      -0.006315294653177261,
      -0.0965590849518776,
      -0.07693395763635635,
      -0.08278105407953262,
      0.04864250123500824,
      0.0854097530245781,
      0.02566227875649929,
      0.02610105834901333,
      0.08804217725992203,
      0.0905531793832779,
      0.04736056178808212,
      0.07228869944810867,
      0.028898935765028,
      0.05711383745074272,
      -0.07995086908340454,
      -0.07454929500818253,
      -0.036850642412900925,
      0.04341008514165878,
      -0.09336692094802856,
      -0.09542456269264221,
      -0.09088452160358429,
      0.06858588755130768,
      0.07932507991790771,
      -0.05229928344488144,
      0.03777416795492172,
      -0.05413902550935745,
      0.09848722815513611,
      -0.10670677572488785,
      -0.06208301708102226,
      -0.09466683864593506,
      0.03841415047645569,
      -0.05399426445364952,
      0.08057036250829697,
      -0.00313947512768209,
      -0.06961321085691452,
      -0.03562304750084877,
      -0.03987879306077957,
      0.07407231628894806,
      -0.03388756141066551,
      0.06392405182123184,
      0.012336406856775284,
      -0.03196125105023384,
      -0.061418432742357254,
      -0.08401302993297577,
      0.053275711834430695,
      0.03401742875576019,
      -0.01084867026656866,
      -0.07974376529455185,
      -0.10276593267917633,
      -0.04093790426850319,
      -0.09495989233255386,
      -0.10908374190330505,
      -0.10278937965631485
    ],
    "rec_0_W_hh_weight": [
      [
        -0.0778408944606781,
        -0.13022905588150024,
        0.0811656191945076,
        0.06333310902118683,
        0.044709619134664536,
        -0.11281710118055344,
        0.07264938950538635,
        0.05917655676603317,
        0.03242950886487961,
        -0.037783537060022354,
        0.11443336308002472,
        -0.11252379417419434,
        0.04992691054940224,
        0.051947399973869324,
        0.05465816333889961,
        -0.11687176674604416,
        -0.05579700693488121,
        0.011189818382263184,
        0.03985031694173813,
        -0.08395711332559586,
        0.032161541283130646,
        -0.04810487478971481,
        -0.048184510320425034,
        -0.011925666593015194,
        -0.07327482849359512,
        -0.09912517666816711,
        0.134514719247818,
        0.12989167869091034,
        -0.04315834119915962,
        0.11346273124217987,
        0.11835164576768875,
        -0.12891173362731934,
        -0.06482034176588058,
        -0.03268696740269661,
        0.052383050322532654,
        0.011110431514680386,
        -0.04102183133363724,
        0.10038633644580841,
        -0.040126167237758636,
        -0.06332160532474518,
        -0.10211672633886337,
        -0.10380847752094269,
        0.11836683005094528,
        -0.007617725059390068,
        -0.04808012768626213,
        0.002797179389744997,
        -0.09824412316083908,
        -0.05686351656913757,
        0.09121917188167572,
        -0.055884238332509995,
        -0.055363863706588745,
        0.0317564383149147,
        -0.023130014538764954,
        -0.001995562808588147,
        -0.010645601898431778,
        -0.0878150463104248,
        0.10109200328588486,
        -0.11210417002439499,
        0.0520671121776104,
        -0.06515700370073318,
        -0.0567435659468174,
        0.09210444241762161,
        -0.11054345220327377,
        0.024881917983293533
      ],
      [
        0.06845102459192276,
        0.06520911306142807,
        -0.06917688250541687,
        0.049275048077106476,
        0.11045732349157333,
        -0.11653292179107666,
        0.03266145661473274,
        -0.040078211575746536,
        -0.0028875297866761684,
        -0.127013698220253,
        0.10108324885368347,
        -0.003201897954568267,
        0.0665317252278328,
        -0.03373781591653824,
        -0.07150238007307053,
        -0.029077909886837006,
        -0.11852322518825531,
        -0.03771441802382469,
        -0.01827310584485531,
        -0.11526615917682648,
        0.09158343821763992,
        -0.06449729949235916,
        -0.07191745191812515,
        -0.014069853350520134,
        -0.1344866156578064,
        -0.004633139353245497,
        -0.041275832802057266,
        -0.07745308429002762,
        -0.011425715871155262,
        0.12282432615756989,
        0.059743501245975494,
        0.05377449095249176,
        -0.05133004114031792,
        -0.023623045533895493,
        0.09385891258716583,
        0.013277683407068253,
        -0.12460695952177048,
        0.009379465132951736,
        0.08138192445039749,
        -0.0656423345208168,
        0.05604996904730797,
        -0.06983695924282074,
        0.0004245304153300822,
        0.002986748469993472,
        -0.05604352429509163,
        -0.1583491414785385,
        0.02621523104608059,
        -0.03708741068840027,
        0.1095212996006012,
        0.029428323730826378,
        -0.10186035186052322,
        -0.05079464241862297,
        -0.06593416631221771,
        0.019079627469182014,
        -0.1363283097743988,
        -0.06658768653869629,
        0.03046155720949173,
        -0.06362868845462799,
        -0.06764725595712662,
        0.06527049094438553,
        -0.08573868125677109,
        -0.049875300377607346,
        0.11002488434314728,
        0.02311583235859871
      ],
      [
        0.06347355991601944,
        -0.12106843292713165,
        0.020829346030950546,
        -0.0876961499452591,
        -0.10003398358821869,
        -0.029029620811343193,
        -0.1364026665687561,
        0.08432140946388245,
        0.026301460340619087,
        -0.14651070535182953,
        0.06584518402814865,
        0.11945227533578873,
        0.008520440198481083,
        0.13532370328903198,
        0.05952833220362663,
        0.15342701971530914,
        0.1558782011270523,
        0.11114810407161713,
        0.039279378950595856,
        0.010910309851169586,
        -0.024514323100447655,
        -0.021766379475593567,
        0.11125291883945465,
        0.044975630939006805,
        -0.0010428669629618526,
        -0.03471946343779564,
        -0.10292505472898483,
        0.047687433660030365,
        0.01754697784781456,
        -0.03442087769508362,
        -0.17278440296649933,
        -0.006730881053954363,
        0.054684996604919434,
        -0.039480943232774734,
        0.04436907544732094,
        -0.033459100872278214,
        0.10525114834308624,
        -0.049673836678266525,
        0.05758482217788696,
        -0.06741206347942352,
        0.05091853439807892,
        -0.0797179713845253,
        -0.056211236864328384,
        -0.09845876693725586,
        0.08909082412719727,
        0.05752895399928093,
        0.05588400736451149,
        -0.05038463696837425,
        0.13758496940135956,
        0.18667444586753845,
        0.005317330826073885,
        0.04974138364195824,
        0.02559463493525982,
        0.006950753275305033,
        0.06621924787759781,
        0.05070541054010391,
        0.010770234279334545,
        -0.058983754366636276,
        0.005000771023333073,
        0.03840237855911255,
        -0.07574495673179626,
        0.11705058068037033,
        0.018523838371038437,
        -0.11412585526704788
      ],
      [
        -0.10194772481918335,
        0.09368783980607986,
        0.0826534777879715,
        -0.11762194335460663,
        -0.03860063478350639,
        0.028474880382418633,
        0.04493463411927223,
        -0.09717631340026855,
        0.024131104350090027,
        0.009906348772346973,
        0.05973636731505394,
        0.029551809653639793,
        -0.08994528651237488,
        -0.12409445643424988,
        0.0535011813044548,
        0.1430182307958603,
        -0.010541059076786041,
        -0.101514533162117,
        0.0312829352915287,
        -0.10491402447223663,
        -0.10221423208713531,
        0.05807960033416748,
        -0.026073135435581207,
        0.019557364284992218,
        0.08479034900665283,
        0.012629571370780468,
        0.08141155540943146,
        -0.07625418156385422,
        0.09538543224334717,
        0.02028890699148178,
        0.0837668776512146,
        0.08780739456415176,
        -0.028136778622865677,
        0.05847736820578575,
        0.08446495234966278,
        0.03154454380273819,
        0.032821398228406906,
        -0.11216311901807785,
        0.09745798259973526,
        -0.07923644036054611,
        0.14097164571285248,
        0.038489025086164474,
        0.05825076252222061,
        -0.1125892698764801,
        0.1585429161787033,
        0.07796624302864075,
        0.14565034210681915,
        0.027688750997185707,
        0.06781886518001556,
        -0.022098859772086143,
        -0.09290268272161484,
        0.03657031059265137,
        0.0706743597984314,
        0.06056911498308182,
        0.015398533083498478,
        0.01636989414691925,
        -0.09103085845708847,
        -0.08985734730958939,
        -0.05849607661366463,
        0.1000034511089325,
        0.030840815976262093,
        -0.08556395024061203,
        -0.02597014233469963,
        -0.025102078914642334
      ],
      [
        0.03917481005191803,
        0.06855819374322891,
        0.0665552020072937,
        -0.08215667307376862,
        -0.005734494421631098,
        -0.03408953174948692,
        -0.09183991700410843,
        0.12958431243896484,
        -0.04684467613697052,
        0.038907941430807114,
        0.14534634351730347,
        0.02671571634709835,
        0.08024801313877106,
        -0.12251169979572296,
        0.06303953379392624,
        0.00705702044069767,
        0.060341425240039825,
        0.1525571346282959,
        -0.13349613547325134,
        0.06864143908023834,
        0.10918557643890381,
        -0.10128168761730194,
        -0.005586126819252968,
        -0.1120806559920311,
        0.02920111082494259,
        0.004233265295624733,
        -0.07843711972236633,
        0.06745290011167526,
        -0.08821310847997665,
        0.14100272953510284,
        0.15423905849456787,
        -0.02266738750040531,
        0.03680063411593437,
        0.09201128035783768,
        0.12717972695827484,
        0.0335952490568161,
        0.005433926358819008,
        -0.02354956977069378,
        0.030108347535133362,
        -0.03014804795384407,
        -0.061550937592983246,
        0.014272033236920834,
        0.03751031681895256,
        0.002294221194460988,
        -0.14010897278785706,
        -0.01211073063313961,
        -0.11876925826072693,
        0.0061848764307796955,
        -0.1076320931315422,
        0.08664195239543915,
        0.11213856190443039,
        -0.055779218673706055,
        -0.12210895121097565,
        -0.12567271292209625,
        -0.03959711268544197,
        -0.05869096890091896,
        -0.03581765294075012,
        -0.02670745737850666,
        0.03063349798321724,
        -0.10348290205001831,
        0.03728216141462326,
        -0.10982731729745865,
        0.00382796092890203,
        0.11919957399368286
      ],
      [
        -0.0659559816122055,
        0.09995663166046143,
        0.022993577644228935,
        -0.05736728757619858,
        0.05265011265873909,
        -0.10322249680757523,
        0.0007358965813182294,
        0.0014512441121041775,
        0.12596942484378815,
        -0.06626878678798676,
        -0.12598095834255219,
        -0.07322672009468079,
        -0.1306251436471939,
        0.06968847662210464,
        -0.09959150850772858,
        -0.03831525892019272,
        -0.048812076449394226,
        -0.023758267983794212,
        0.06574917584657669,
        -0.04713895916938782,
        -0.05137307196855545,
        -0.011270641349256039,
        -0.0606352761387825,
        0.02803683467209339,
        0.047275692224502563,
        -0.088387630879879,
        0.07001800835132599,
        0.06830232590436935,
        0.011123958975076675,
        0.029564857482910156,
        0.011476420797407627,
        0.032799042761325836,
        -0.07694344967603683,
        0.04126769304275513,
        0.06094824895262718,
        -0.10028410702943802,
        -0.0655772015452385,
        0.1151643618941307,
        0.014831838198006153,
        -0.03176778927445412,
        0.08744102716445923,
        0.07531570643186569,
        0.03446848690509796,
        0.04626663774251938,
        -0.024060001596808434,
        0.17358416318893433,
        -0.0894806757569313,
        -0.07913670688867569,
        0.01732872985303402,
        -0.004922404885292053,
        0.09023100882768631,
        -0.0770847275853157,
        0.019206590950489044,
        -0.008992977440357208,
        0.14987798035144806,
        -0.009015221148729324,
        0.00841593649238348,
        0.08139874041080475,
        0.1194186732172966,
        0.12704816460609436,
        -0.11733976006507874,
        -0.04775627329945564,
        -0.030304964631795883,
        -0.027688005939126015
      ],
      [
        0.03855006769299507,
        0.017296072095632553,
        -0.023026451468467712,
        -0.011891210451722145,
        -0.0016071639256551862,
        0.10483080893754959,
        0.008879059925675392,
        -0.07143516838550568,
        -0.028783395886421204,
        0.002785108983516693,
        -0.04903317242860794,
        -0.05885667726397514,
        -0.16082780063152313,
        0.050413213670253754,
        -0.06665831059217453,
        -0.04211562126874924,
        0.05572747439146042,
        0.11299285292625427,
        0.09780781716108322,
        0.07806869596242905,
        -0.14092424511909485,
        0.10472463816404343,
        0.05859731510281563,
        0.07274219393730164,
        -0.0745425745844841,
        0.03185281530022621,
        -0.09151595085859299,
        -0.07559622079133987,
        0.005221902392804623,
        -0.018343890085816383,
        -0.13782885670661926,
        0.07008621841669083,
        -0.12749506533145905,
        -0.16141393780708313,
        0.01641523465514183,
        -0.05241764709353447,
        0.12139573693275452,
        0.07661689817905426,
        -0.0029020376969128847,
        0.00980263389647007,
        -0.05550838261842728,
        0.014496436342597008,
        0.044051505625247955,
        -0.10006869584321976,
        0.027445344254374504,
        0.01576846092939377,
        -0.007707990240305662,
        -0.040947724133729935,
        -0.09195049852132797,
        -0.04213244467973709,
        0.028791259974241257,
        0.0810185968875885,
        -0.0399370938539505,
        0.08484131842851639,
        0.035459715873003006,
        -0.08875370770692825,
        0.04517877474427223,
        0.07911023497581482,
        -0.020016368478536606,
        0.0884658619761467,
        -0.05995425581932068,
        -0.03576450049877167,
        0.14392170310020447,
        -0.07157901674509048
      ],
      [
        0.08680181205272675,
        0.09868764877319336,
        -0.025068465620279312,
        -0.12432897090911865,
        -0.10408186167478561,
        0.036534640938043594,
        0.022948160767555237,
        0.026951953768730164,
        -0.09366966038942337,
        -0.005546053871512413,
        0.05697695165872574,
        0.055501069873571396,
        0.09947238862514496,
        0.14369362592697144,
        -0.02997424826025963,
        -0.09418723732233047,
        -0.0725145936012268,
        0.004783698823302984,
        -0.009613702073693275,
        0.0495067723095417,
        0.019818179309368134,
        0.07001248747110367,
        0.1206234022974968,
        0.0668850690126419,
        0.01976843550801277,
        0.06752216815948486,
        -0.10275585949420929,
        -0.06817947328090668,
        0.021601734682917595,
        -0.08360983431339264,
        0.10476461797952652,
        0.02526325359940529,
        0.06034599617123604,
        -0.05247173830866814,
        0.003881244221702218,
        -0.08799661695957184,
        0.033186718821525574,
        -0.10628660023212433,
        -0.07845937460660934,
        0.07975037395954132,
        -0.1263197660446167,
        0.0711456760764122,
        0.002859806641936302,
        -0.17008164525032043,
        0.018136486411094666,
        0.12330717593431473,
        0.083060622215271,
        0.025767294690012932,
        0.08765295892953873,
        0.025882646441459656,
        0.05762794241309166,
        -0.015108414925634861,
        -0.09800388664007187,
        -0.009794585406780243,
        -0.02758544124662876,
        0.10276433080434799,
        0.05092084780335426,
        -0.06797650456428528,
        -0.019448840990662575,
        0.06937210261821747,
        -0.0905950516462326,
        0.011175405234098434,
        0.04939459264278412,
        0.015765098854899406
      ],
      [
        -0.018913671374320984,
        0.07109057903289795,
        0.030518198385834694,
        -0.11933917552232742,
        0.07360012084245682,
        -0.10617343336343765,
        0.057629942893981934,
        0.08874242752790451,
        0.030420174822211266,
        -0.042526453733444214,
        -0.09509607404470444,
        -0.047902073711156845,
        -0.035371869802474976,
        -0.025363121181726456,
        0.10256829857826233,
        -0.04751631245017052,
        0.06514761596918106,
        -0.12836632132530212,
        0.07062449306249619,
        0.13141277432441711,
        -0.10709603875875473,
        -0.019664913415908813,
        0.04559694603085518,
        -0.11330457031726837,
        -0.09508054703474045,
        0.04702674597501755,
        0.08097781240940094,
        -0.05645241215825081,
        0.019529039040207863,
        -0.13059090077877045,
        -0.12360341101884842,
        0.11824942380189896,
        0.10224799066781998,
        -0.0941731259226799,
        -0.063085176050663,
        0.013115026988089085,
        0.0712711438536644,
        -0.13385261595249176,
        -0.06563929468393326,
        -0.046667277812957764,
        -0.042604394257068634,
        0.024420088157057762,
        0.07765935361385345,
        -0.002182186348363757,
        -0.11863704770803452,
        0.13931408524513245,
        0.10515256971120834,
        0.01891040802001953,
        0.0711996853351593,
        0.07262016832828522,
        0.09837929159402847,
        -0.16173632442951202,
        -0.06750467419624329,
        -0.024094227701425552,
        0.0028906946536153555,
        -0.09353581070899963,
        -0.10744556784629822,
        -0.0940285250544548,
        -0.03000057302415371,
        0.10464795678853989,
        0.07414377480745316,
        0.043261971324682236,
        -0.06777060776948929,
        -0.07579518854618073
      ],
      [
        -0.014044520445168018,
        -0.16823448240756989,
        0.03841322287917137,
        0.047046273946762085,
        0.07307671755552292,
        -0.011457688175141811,
        0.11126574873924255,
        0.027403848245739937,
        -0.0853344276547432,
        0.07137341052293777,
        0.14855259656906128,
        -0.09387419372797012,
        -0.09701298922300339,
        0.03380514308810234,
        -0.09608346223831177,
        0.11466724425554276,
        -0.036063261330127716,
        -0.02484748885035515,
        -0.04818900674581528,
        0.08697742223739624,
        -0.07676668465137482,
        0.010102557949721813,
        0.04554208740592003,
        -0.05557296797633171,
        -0.03804915398359299,
        -0.07302605360746384,
        -0.09248462319374084,
        -0.040025509893894196,
        0.01814991980791092,
        0.10728338360786438,
        -0.12721167504787445,
        -0.0657065138220787,
        -0.020895225927233696,
        0.08256605267524719,
        0.04741528630256653,
        -0.07524164766073227,
        -0.0523127056658268,
        -0.007862577214837074,
        -0.04038550332188606,
        0.1215432807803154,
        -0.08235840499401093,
        0.02901374362409115,
        0.07384569942951202,
        -0.007263127248734236,
        0.03291771188378334,
        0.061219941824674606,
        0.12238255888223648,
        0.06229492276906967,
        -0.04861167445778847,
        0.021420272067189217,
        0.08311866223812103,
        0.05646472051739693,
        0.11387462168931961,
        -0.11583579331636429,
        0.044737670570611954,
        -0.03857705369591713,
        -0.07601151615381241,
        -0.003605251433327794,
        0.08113754540681839,
        -0.08340442180633545,
        -0.062376968562603,
        -0.044499486684799194,
        -0.04248925298452377,
        0.012649238109588623
      ],
      [
        0.05032242834568024,
        -0.00378034939058125,
        -0.08253045380115509,
        -0.07076341658830643,
        -0.10440308600664139,
        -0.0404120571911335,
        0.0070443591102957726,
        -0.11027926206588745,
        0.10726002603769302,
        -0.025463514029979706,
        -0.07345734536647797,
        -0.008235088549554348,
        0.060773734003305435,
        0.14821720123291016,
        0.0058405352756381035,
        0.09037567675113678,
        -0.022706948220729828,
        0.050091177225112915,
        -0.049324747174978256,
        0.1194460541009903,
        -0.1379881501197815,
        0.032285869121551514,
        0.09900587052106857,
        0.12276247143745422,
        0.05194531008601189,
        0.0873006135225296,
        0.009363745339214802,
        -0.026803726330399513,
        0.16552399098873138,
        0.0366986021399498,
        -0.00512242317199707,
        0.01822156459093094,
        -0.009502783417701721,
        -0.09587770700454712,
        0.02686457708477974,
        -0.04914609342813492,
        0.055249202996492386,
        0.07177285850048065,
        0.11843135207891464,
        -0.04683304950594902,
        0.07684903591871262,
        0.1383378952741623,
        -0.058080557733774185,
        0.014615022577345371,
        -0.032585565000772476,
        -0.028676092624664307,
        -0.008868562057614326,
        -0.08003298938274384,
        -0.026286935433745384,
        0.08797675371170044,
        0.010915640741586685,
        -0.0008851523161865771,
        0.11070837080478668,
        -0.005258423276245594,
        -0.05648072436451912,
        -0.13471974432468414,
        -0.00962489377707243,
        -0.027193833142518997,
        0.021134715527296066,
        -0.0550374835729599,
        -0.11031899601221085,
        0.14578181505203247,
        -0.08398070931434631,
        -0.006361365783959627
      ],
      [
        -0.07786460220813751,
        0.07292540371417999,
        0.06434786319732666,
        -0.09525880962610245,
        0.0632096379995346,
        -0.07853828370571136,
        0.09272655844688416,
        0.10623987019062042,
        -0.10378599911928177,
        0.07309500128030777,
        0.0595998615026474,
        0.09351928532123566,
        0.12378330528736115,
        0.033934373408555984,
        0.040393829345703125,
        0.00629621185362339,
        -0.08873447775840759,
        -0.035212598741054535,
        0.001292127650231123,
        -0.06823133677244186,
        0.023915428668260574,
        -0.03538968414068222,
        -0.03171515837311745,
        -0.05436544492840767,
        -0.09475455433130264,
        0.1027882918715477,
        0.05973071604967117,
        0.1093943789601326,
        -0.10974795371294022,
        -0.10419750213623047,
        0.10052020847797394,
        -0.012045284733176231,
        0.016690129414200783,
        0.04201130568981171,
        0.02070346474647522,
        -0.03158903867006302,
        0.08251207321882248,
        0.11598552763462067,
        -0.05913444608449936,
        -0.13113005459308624,
        -0.0872359573841095,
        0.10524183511734009,
        -0.0279531329870224,
        0.08057860285043716,
        -0.061624277383089066,
        -0.097741037607193,
        0.018135664984583855,
        -0.046749603003263474,
        -0.09271252900362015,
        0.05841824412345886,
        0.033427994698286057,
        -0.028366072103381157,
        0.10273097455501556,
        0.08521593362092972,
        -0.07600094377994537,
        -0.09666411578655243,
        -0.08123118430376053,
        -0.12103305757045746,
        -0.049506161361932755,
        0.09135016798973083,
        -0.06346619874238968,
        0.10242209583520889,
        0.016048481687903404,
        0.01739894598722458
      ],
      [
        -0.0007368469377979636,
        -0.007261661812663078,
        0.04279446601867676,
        -0.12544474005699158,
        -0.0070838844403624535,
        0.10250670462846756,
        0.11007031053304672,
        -0.0036563777830451727,
        -0.07347454130649567,
        0.02420060522854328,
        -0.1052403450012207,
        0.1393641084432602,
        0.037803564220666885,
        0.039256371557712555,
        -0.02419610135257244,
        0.11353449523448944,
        -0.02511736750602722,
        -0.09577006846666336,
        -0.06089334562420845,
        0.09593011438846588,
        -0.10420173406600952,
        -0.07233476638793945,
        0.04028966650366783,
        -0.049162257462739944,
        -0.045823175460100174,
        -0.050874169915914536,
        -0.007724310737103224,
        -0.046205271035432816,
        0.036501429975032806,
        0.032943617552518845,
        -0.10199808329343796,
        -0.031728595495224,
        -0.07547523826360703,
        0.10997502505779266,
        -0.06622234731912613,
        0.07923358678817749,
        0.03155158460140228,
        -0.14968915283679962,
        -0.07990443706512451,
        -0.0027739638462662697,
        -0.06688977777957916,
        0.06352249532938004,
        0.13544192910194397,
        0.00895439088344574,
        0.025957876816391945,
        0.03566402569413185,
        0.06884563714265823,
        -0.0417851097881794,
        -0.027490882202982903,
        -0.04520914703607559,
        -0.014580910094082355,
        0.09522400796413422,
        0.010964546352624893,
        0.13009342551231384,
        0.03707137703895569,
        -0.09288015216588974,
        0.07600236684083939,
        0.07350435107946396,
        -0.08142038434743881,
        -0.0144952442497015,
        -0.0283358171582222,
        0.07008573412895203,
        0.12244149297475815,
        -0.048610277473926544
      ],
      [
        0.09617982804775238,
        0.07839314639568329,
        -0.07114975899457932,
        0.137865349650383,
        -0.00706338370218873,
        0.10536423325538635,
        0.1199272945523262,
        -0.09663905203342438,
        -0.14274786412715912,
        -0.009401218965649605,
        0.09197397530078888,
        -0.035394344478845596,
        -0.0942494124174118,
        0.02899671532213688,
        -0.0503234826028347,
        0.045355137437582016,
        0.06538303941488266,
        -0.02094070054590702,
        0.06099134683609009,
        -0.01662108488380909,
        -0.014341209083795547,
        -0.0054497988894581795,
        0.01238004956394434,
        0.04937787353992462,
        -0.05375576391816139,
        0.07520845532417297,
        -0.010601052083075047,
        -0.06812725216150284,
        -0.07498756051063538,
        -0.07370752841234207,
        0.06192031130194664,
        -0.02590787410736084,
        -0.010038807056844234,
        -0.0338585339486599,
        0.08379990607500076,
        -0.0023614345118403435,
        -0.05981004610657692,
        0.040388863533735275,
        0.043848879635334015,
        -0.06753820925951004,
        -0.049461111426353455,
        -0.10133346170186996,
        0.10263761132955551,
        0.07096792757511139,
        -0.09314629435539246,
        0.042218517512083054,
        -0.03225961700081825,
        0.0369543693959713,
        0.006101788952946663,
        -0.06429705023765564,
        0.12118260562419891,
        0.10781625658273697,
        0.012113218195736408,
        -0.052088480442762375,
        -0.014955160208046436,
        -0.07549715787172318,
        -0.05973163992166519,
        0.0613240972161293,
        -0.10527236759662628,
        -0.030415432527661324,
        -0.04003741592168808,
        0.035067953169345856,
        -0.08960343152284622,
        0.055378466844558716
      ],
      [
        -0.0624111033976078,
        0.08050016313791275,
        -0.03030865639448166,
        -0.16865530610084534,
        -0.05498857796192169,
        0.10766083747148514,
        -0.003772364929318428,
        0.037572652101516724,
        0.0993504598736763,
        0.023475123569369316,
        -0.008573012426495552,
        -0.023137694224715233,
        -0.1742771565914154,
        0.06090322136878967,
        0.0013327645137906075,
        -0.01625923253595829,
        -0.036302242428064346,
        0.03662622347474098,
        -0.00426619965583086,
        0.09637538343667984,
        -0.029919544234871864,
        0.02282112091779709,
        -0.11966001242399216,
        0.06342629343271255,
        -0.03949727490544319,
        0.05153432860970497,
        -0.0013376480201259255,
        -0.005721317138522863,
        -0.00987977534532547,
        -0.099837526679039,
        -0.09584680944681168,
        0.09692033380270004,
        0.15470503270626068,
        0.004227146040648222,
        0.10402649641036987,
        0.15500834584236145,
        0.0670773833990097,
        0.044182948768138885,
        0.06005639582872391,
        -0.013444245792925358,
        0.026223020628094673,
        0.11821220815181732,
        -0.0038308745715767145,
        0.05450817570090294,
        0.008212500251829624,
        0.010039541870355606,
        0.10454565286636353,
        0.05141495168209076,
        0.09657124429941177,
        0.16821616888046265,
        -0.0659361481666565,
        0.09023357927799225,
        0.11569295078516006,
        0.13956637680530548,
        -0.10949810594320297,
        -0.07639127969741821,
        -0.08660715073347092,
        0.0443943627178669,
        0.07103681564331055,
        -0.0693797618150711,
        0.016730420291423798,
        0.003233502386137843,
        -0.0843275636434555,
        -0.04930631443858147
      ],
      [
        -0.028528302907943726,
        -0.06537627428770065,
        -0.1134750172495842,
        0.0305906031280756,
        -0.01150752604007721,
        -0.0326584167778492,
        -0.041358333081007004,
        -0.037216681987047195,
        0.01049791555851698,
        -0.07953745126724243,
        -0.006260168273001909,
        -0.001282743876799941,
        -0.1285206526517868,
        -0.03290946036577225,
        -0.027977190911769867,
        -0.03985228016972542,
        0.060615066438913345,
        0.098749540746212,
        -0.07959799468517303,
        0.0337461456656456,
        0.08101185411214828,
        -0.05794170871376991,
        -0.06918853521347046,
        0.05493007227778435,
        -0.017457956448197365,
        0.025395480915904045,
        0.0386931449174881,
        -0.14123816788196564,
        -0.045081716030836105,
        0.07377602905035019,
        -0.11989029496908188,
        0.030517902225255966,
        0.06053557246923447,
        -0.12404922395944595,
        -0.12309475243091583,
        -0.06797288358211517,
        -0.07105901092290878,
        -0.13277669250965118,
        -0.01893630623817444,
        -0.1107129454612732,
        -0.05148380994796753,
        0.045226093381643295,
        0.1349748820066452,
        0.06863898783922195,
        0.1033511608839035,
        0.06535106897354126,
        0.09120090305805206,
        -0.07361778616905212,
        -0.0742126926779747,
        0.0796544998884201,
        0.03313549607992172,
        -0.0073731872253119946,
        0.07051077485084534,
        0.0030271729920059443,
        0.14470075070858002,
        0.04686249420046806,
        -0.024044258520007133,
        0.08638335764408112,
        0.023142974823713303,
        0.03860974311828613,
        -0.003864781931042671,
        0.14939501881599426,
        -0.00045832525938749313,
        0.016274092718958855
      ],
      [
        0.08465179055929184,
        0.003340310649946332,
        0.08183717727661133,
        -0.08737321197986603,
        -0.012364029884338379,
        0.004380716476589441,
        -0.00024551659589633346,
        -0.11066868156194687,
        0.13977625966072083,
        -0.06791584938764572,
        0.05097343772649765,
        -0.04442261531949043,
        0.03627949208021164,
        -0.03312639147043228,
        -0.07289078831672668,
        0.03794044256210327,
        0.10102372616529465,
        -0.02397669106721878,
        0.05582544207572937,
        -0.04448699578642845,
        0.021098436787724495,
        -0.005400972440838814,
        -0.012040034867823124,
        0.06652341037988663,
        -0.05719064548611641,
        -0.07217756658792496,
        -0.06873861700296402,
        0.030881760641932487,
        0.14157651364803314,
        0.09848763048648834,
        0.07895975559949875,
        -0.05337586998939514,
        0.11302628368139267,
        -0.009111782535910606,
        0.010905768722295761,
        -0.058649227023124695,
        -0.0557415597140789,
        0.0228368379175663,
        -0.011905204504728317,
        -0.042500853538513184,
        -0.08308145403862,
        0.13925395905971527,
        0.030995754525065422,
        -0.018525799736380577,
        0.015699906274676323,
        0.09934844076633453,
        -0.07188288867473602,
        -0.02518518455326557,
        0.12014955282211304,
        0.005053926259279251,
        -0.11866936832666397,
        -0.12130352109670639,
        0.08771760016679764,
        0.07788535952568054,
        0.11901132762432098,
        -0.05334071069955826,
        -0.044590722769498825,
        -0.10884934663772583,
        -0.001042516203597188,
        -0.017938723787665367,
        0.11264706403017044,
        -0.04144984483718872,
        -0.07332191616296768,
        0.025236139073967934
      ],
      [
        -0.05510528013110161,
        -0.020290154963731766,
        0.09843258559703827,
        0.07218822836875916,
        -0.1272388994693756,
        -0.004484242759644985,
        -0.004959044512361288,
        0.09710850566625595,
        -0.08605819195508957,
        0.07474961131811142,
        -0.16142190992832184,
        -0.11585643887519836,
        -0.07636275142431259,
        -0.08466891199350357,
        -0.021948888897895813,
        0.10783927142620087,
        -0.020159471780061722,
        -0.11413225531578064,
        0.004418002907186747,
        -0.07685086876153946,
        0.06534072756767273,
        0.029416410252451897,
        0.1286734938621521,
        0.06176559627056122,
        0.030798783525824547,
        0.05052390322089195,
        0.08928929269313812,
        -0.1052485927939415,
        -0.04939882829785347,
        0.08778399974107742,
        0.037734877318143845,
        0.139251247048378,
        0.02659287303686142,
        -0.014524294063448906,
        0.06367326527833939,
        0.09849724918603897,
        0.08747115731239319,
        -0.11140299588441849,
        0.03980915620923042,
        -0.08851846307516098,
        0.03033479116857052,
        0.0964992418885231,
        -0.04408383369445801,
        0.07341793924570084,
        0.11241656541824341,
        0.06716147065162659,
        -0.08511717617511749,
        -0.017383553087711334,
        0.10631871968507767,
        0.04177813231945038,
        0.10457685589790344,
        -0.037807006388902664,
        -0.04598042368888855,
        0.07584565132856369,
        0.07454337924718857,
        0.05717449262738228,
        -0.05992978438735008,
        -0.09292325377464294,
        0.07218748331069946,
        0.04669298231601715,
        0.08253762125968933,
        -0.08561379462480545,
        -0.049402955919504166,
        -0.025781305506825447
      ],
      [
        -0.06152273714542389,
        0.06841911375522614,
        0.13624125719070435,
        0.15860046446323395,
        -0.00958847627043724,
        -0.06910493969917297,
        -0.013396181166172028,
        0.0762873962521553,
        -0.06627078354358673,
        0.051966793835163116,
        -0.0022163614630699158,
        0.08601505309343338,
        0.1255519986152649,
        0.09156571328639984,
        0.07471252977848053,
        -0.08632950484752655,
        -0.03881155699491501,
        -0.00661676237359643,
        -0.024276360869407654,
        -0.09564689546823502,
        0.053075630217790604,
        0.027977002784609795,
        -0.0908689796924591,
        0.004239881411194801,
        -0.03868912532925606,
        0.007171060424298048,
        -0.04476665332913399,
        0.010532109066843987,
        0.0556195005774498,
        0.10795777291059494,
        -0.042941562831401825,
        0.08089998364448547,
        -0.12051285803318024,
        0.1338714361190796,
        -0.01247524656355381,
        0.10014453530311584,
        0.0006620761705562472,
        -0.008668136782944202,
        0.11846961826086044,
        0.14491164684295654,
        -0.08562036603689194,
        -0.0368664488196373,
        0.08904483914375305,
        0.011648699641227722,
        0.034982748329639435,
        0.06652766466140747,
        -0.11407848447561264,
        0.08087635785341263,
        -0.10979875177145004,
        0.024993382394313812,
        -0.0710776224732399,
        -0.010807210579514503,
        0.02852998860180378,
        -0.0800970122218132,
        -0.04424332082271576,
        -0.03716294467449188,
        0.043711625039577484,
        0.025666913017630577,
        -0.10487882792949677,
        -0.03769391402602196,
        0.0004306748160161078,
        0.05493505671620369,
        -0.05569906905293465,
        -0.06405510753393173
      ],
      [
        0.06132685765624046,
        -0.09695857018232346,
        0.014717060141265392,
        -0.09121665358543396,
        -0.04666367545723915,
        -0.08035873621702194,
        -0.016372978687286377,
        0.16593390703201294,
        0.02018018439412117,
        -0.12081040441989899,
        0.1606435924768448,
        -0.10511121898889542,
        -0.03055589459836483,
        0.013238216750323772,
        0.06999912858009338,
        0.0671868771314621,
        -0.05916044861078262,
        -0.07537664473056793,
        -0.1699143946170807,
        -0.05029270797967911,
        -0.099066823720932,
        -0.08902806043624878,
        0.03353200852870941,
        -0.03724820539355278,
        0.04875235632061958,
        -0.12268713116645813,
        0.06251444667577744,
        0.1395418643951416,
        -0.04490366578102112,
        0.05366981029510498,
        -0.039536185562610626,
        -0.14698992669582367,
        0.00564942043274641,
        -0.07219665497541428,
        0.0082296933978796,
        -0.07496869564056396,
        -0.03679009899497032,
        -0.11768968403339386,
        0.06348574161529541,
        0.006650985684245825,
        -0.10216545313596725,
        -0.11375531554222107,
        -0.09422507882118225,
        0.0011659584706649184,
        -0.07131903618574142,
        -0.04813199117779732,
        -0.0826135128736496,
        0.052468474954366684,
        -0.10464940965175629,
        0.0920325294137001,
        -0.05807868763804436,
        0.10048668831586838,
        -0.09694482386112213,
        -0.13496412336826324,
        -0.08158401399850845,
        -0.05793279409408569,
        -0.04711811617016792,
        -0.05293544754385948,
        -0.020222825929522514,
        -0.15065577626228333,
        0.10550063848495483,
        0.04279400035738945,
        -0.03667279705405235,
        0.11300336569547653
      ],
      [
        -0.07064677029848099,
        -0.12235371768474579,
        0.03875235840678215,
        -0.068111851811409,
        0.09939800202846527,
        -0.024098137393593788,
        -0.09270203113555908,
        0.10605046153068542,
        0.04058382287621498,
        0.019330115988850594,
        0.0037117984611541033,
        -0.06571878492832184,
        0.011973278596997261,
        -0.024381978437304497,
        -0.12212296575307846,
        0.0878165066242218,
        -0.10442285239696503,
        -0.06598515808582306,
        -0.02438916452229023,
        -0.10677248239517212,
        -0.13668018579483032,
        -0.02129446342587471,
        0.0069951703771948814,
        0.1108439564704895,
        0.032694991677999496,
        0.13582471013069153,
        -0.000944892643019557,
        0.010161865502595901,
        -0.018555177375674248,
        -0.09428206831216812,
        -0.13311897218227386,
        -0.11550207436084747,
        0.07868685573339462,
        -0.05715359002351761,
        -0.06630980968475342,
        0.08183668553829193,
        -0.06211520731449127,
        0.03136131167411804,
        -0.008115671575069427,
        0.03954688459634781,
        -0.04553088918328285,
        0.10219706594944,
        -0.05054794251918793,
        -0.09452208131551743,
        0.11348088085651398,
        -0.08298613131046295,
        0.14070723950862885,
        0.04635284096002579,
        0.05895675718784332,
        0.009106817655265331,
        -0.004370562266558409,
        0.02744634822010994,
        -0.0473974347114563,
        0.10323392599821091,
        0.06730040162801743,
        -0.007703668903559446,
        0.04763678088784218,
        0.007936309091746807,
        -0.059372302144765854,
        -0.07411332428455353,
        -0.05470893159508705,
        -0.10398591309785843,
        -0.02258141152560711,
        0.04698949679732323
      ],
      [
        0.10803694278001785,
        -0.10383087396621704,
        -0.12862107157707214,
        0.09054361283779144,
        -0.05575505644083023,
        -0.013861523009836674,
        0.059396520256996155,
        0.08079417049884796,
        0.08061348646879196,
        0.026289943605661392,
        -0.049038808792829514,
        -0.011391942389309406,
        0.05122192203998566,
        -0.0763799324631691,
        -0.10343921184539795,
        0.09252851456403732,
        -0.09785809367895126,
        0.02896646223962307,
        0.10203950107097626,
        0.10288041085004807,
        0.029561348259449005,
        0.024977410212159157,
        0.04590417444705963,
        0.09477917104959488,
        0.01650073006749153,
        -0.06363452970981598,
        0.07554744929075241,
        -0.0014699628809466958,
        0.09697951376438141,
        -0.08478295803070068,
        -0.0603051520884037,
        -0.036962494254112244,
        0.01947040483355522,
        0.0625644102692604,
        0.0001156918442575261,
        0.09284857660531998,
        0.08964373916387558,
        -0.10264089703559875,
        0.13031218945980072,
        0.019628329202532768,
        0.12620480358600616,
        0.036359962075948715,
        -0.019605113193392754,
        0.060635942965745926,
        -0.060414284467697144,
        0.03484567627310753,
        -0.003774331882596016,
        -0.01993444189429283,
        -0.028734320774674416,
        0.09824012219905853,
        -0.02478884346783161,
        0.021172819659113884,
        0.06660613417625427,
        0.13059134781360626,
        0.08931486308574677,
        -0.14166168868541718,
        -0.07983926683664322,
        -0.12630419433116913,
        -0.14115287363529205,
        -0.09408901631832123,
        -0.012632365338504314,
        0.14430662989616394,
        -0.09430565685033798,
        0.044897980988025665
      ],
      [
        -0.08018789440393448,
        0.07066655158996582,
        0.0717562735080719,
        0.043916769325733185,
        0.09020204842090607,
        -0.08075270056724548,
        -0.13762915134429932,
        -0.06608624756336212,
        0.061058614403009415,
        0.09180473536252975,
        0.058549270033836365,
        0.05883961543440819,
        -0.04767448082566261,
        -0.055666234344244,
        0.09156405925750732,
        -0.08538505434989929,
        -0.056575026363134384,
        0.06917709857225418,
        0.09289311617612839,
        0.04087034612894058,
        -0.029588855803012848,
        0.014546331018209457,
        0.032250240445137024,
        -0.03820458799600601,
        0.09400158375501633,
        0.14470021426677704,
        -0.08132773637771606,
        0.05668429285287857,
        -0.028754033148288727,
        -0.108705073595047,
        0.002770547056570649,
        -0.019475888460874557,
        0.0895582064986229,
        -0.04198300838470459,
        -0.05787011981010437,
        -0.06679966300725937,
        0.07465945929288864,
        0.0531938336789608,
        0.03997867926955223,
        0.0011063527781516314,
        -0.013992371968925,
        0.03906645625829697,
        0.1067570224404335,
        -0.039916861802339554,
        0.005367498844861984,
        -0.11256957054138184,
        0.05418700724840164,
        -0.08938624709844589,
        -0.003704374423250556,
        -0.03424474969506264,
        0.10404139012098312,
        0.0513027124106884,
        -0.027042418718338013,
        -0.04442894086241722,
        0.053880661725997925,
        0.019696451723575592,
        -0.027928993105888367,
        0.06285329908132553,
        -0.007848872803151608,
        0.06064126268029213,
        -0.0955837145447731,
        -0.06130336597561836,
        0.08035024255514145,
        -0.04179393872618675
      ],
      [
        -0.06587410718202591,
        0.09126292914152145,
        -0.041975900530815125,
        -0.0915193036198616,
        -0.022441400215029716,
        -0.06417576968669891,
        -0.04820604249835014,
        -0.1258811354637146,
        0.13065460324287415,
        0.10848532617092133,
        -0.14027389883995056,
        0.08475637435913086,
        0.018523044884204865,
        -0.015994682908058167,
        -0.05314828082919121,
        0.031262416392564774,
        0.051841650158166885,
        0.09313365072011948,
        0.12986235320568085,
        0.031314730644226074,
        0.09013354778289795,
        -0.05749336630105972,
        0.02806144393980503,
        -0.08945455402135849,
        0.041033800691366196,
        0.038098644465208054,
        -0.11440186202526093,
        -0.1264743208885193,
        0.0020246091298758984,
        -0.05744213983416557,
        -0.06714591383934021,
        -0.07826130092144012,
        -0.07942958176136017,
        0.044833894819021225,
        -0.08137014508247375,
        0.06377192586660385,
        0.01794232614338398,
        -0.034430764615535736,
        0.046070680022239685,
        0.0954422652721405,
        0.06124839186668396,
        0.042024705559015274,
        0.0991738811135292,
        -0.02502269484102726,
        0.02763303555548191,
        0.15880106389522552,
        -0.08145278692245483,
        0.0633288025856018,
        -0.04552735388278961,
        0.013894095085561275,
        -0.0867539718747139,
        0.03723902627825737,
        -0.08360514789819717,
        -0.03293897956609726,
        0.05840197205543518,
        -0.06437279284000397,
        0.03497103601694107,
        0.1186261773109436,
        -0.12766443192958832,
        -0.06401180475950241,
        -0.1072881743311882,
        0.14358100295066833,
        0.04007335752248764,
        -0.12162905931472778
      ],
      [
        -0.10660795122385025,
        0.08522521704435349,
        0.1416827291250229,
        -0.07157126814126968,
        0.03250165656208992,
        -0.017908653244376183,
        0.07635549455881119,
        -0.04691673442721367,
        0.0658332109451294,
        0.11754558235406876,
        0.11569566279649734,
        -0.016535798087716103,
        0.012423872947692871,
        0.014483601786196232,
        -0.0795871838927269,
        -0.05645085871219635,
        -0.1355854719877243,
        0.10810337960720062,
        -0.06574627012014389,
        0.09023624658584595,
        -0.021552814170718193,
        -0.04615123197436333,
        0.06123235076665878,
        -0.01327663566917181,
        -0.09331145137548447,
        0.012772766873240471,
        -0.046397216618061066,
        -0.07638287544250488,
        -0.09393568336963654,
        0.03933340683579445,
        0.021710023283958435,
        -0.07829023152589798,
        0.05575762689113617,
        0.00641217827796936,
        -0.08859100192785263,
        0.04621128365397453,
        -0.04732314124703407,
        -0.0362030491232872,
        0.09343384206295013,
        0.10177840292453766,
        -0.12899237871170044,
        0.08062407374382019,
        0.12891840934753418,
        -0.05353691056370735,
        -0.1330638825893402,
        -0.1298404484987259,
        -0.030413251370191574,
        0.008693178184330463,
        0.03280578553676605,
        0.03321286663413048,
        0.032482270151376724,
        -0.06207581236958504,
        0.1165459156036377,
        0.10059911757707596,
        0.025432512164115906,
        0.031685758382081985,
        -0.07488834112882614,
        0.015482484363019466,
        -0.08372890949249268,
        0.10197865217924118,
        -0.10938361287117004,
        0.0966418981552124,
        0.12154877930879593,
        -0.049402955919504166
      ],
      [
        -0.10987307131290436,
        0.04438550025224686,
        -0.1261948049068451,
        -0.12694159150123596,
        -0.053274139761924744,
        0.08044584840536118,
        -0.06361979991197586,
        -0.07100174576044083,
        -0.03797929733991623,
        0.0946953073143959,
        0.0013413436245173216,
        0.0706578940153122,
        -0.022979598492383957,
        -0.060985267162323,
        0.040378306061029434,
        0.04559097811579704,
        0.10287775099277496,
        -0.12296802550554276,
        -0.07650909572839737,
        0.11646651476621628,
        0.02393699623644352,
        0.08330363035202026,
        -0.01762998476624489,
        0.12254712730646133,
        0.04678265377879143,
        -0.05082063376903534,
        -0.08273018896579742,
        0.02717738412320614,
        0.021983694285154343,
        -0.05402861163020134,
        -0.06428627669811249,
        0.06563937664031982,
        0.06134090945124626,
        0.05770087242126465,
        -0.05564717575907707,
        -0.05962613597512245,
        -0.04883377626538277,
        -0.08902929723262787,
        0.09731139987707138,
        -0.09088423103094101,
        -0.05845260247588158,
        0.12442383915185928,
        0.09027291089296341,
        -0.15553396940231323,
        -0.028431009501218796,
        0.07334019988775253,
        0.014247956685721874,
        -0.07939530909061432,
        -0.10375133901834488,
        -0.07976395636796951,
        0.04850466549396515,
        -0.10121839493513107,
        -0.11698968708515167,
        0.11176160722970963,
        0.09722938388586044,
        -0.03731190785765648,
        0.02458375133574009,
        -0.05165988951921463,
        -0.08199594914913177,
        -0.10959769040346146,
        0.09488779306411743,
        -0.09966534376144409,
        -0.09707866609096527,
        0.09698473662137985
      ],
      [
        -0.0872693806886673,
        -0.04349365830421448,
        -0.024896472692489624,
        -0.15258757770061493,
        -0.11685049533843994,
        -0.10433795303106308,
        -0.01870087720453739,
        -0.07263761013746262,
        0.10808346420526505,
        0.07195377349853516,
        0.10527735948562622,
        -0.10177113860845566,
        -0.07666149735450745,
        0.10417705029249191,
        0.03209184855222702,
        -0.07400895655155182,
        0.10560789704322815,
        -0.07929446548223495,
        0.1462145447731018,
        -0.07692258059978485,
        0.052332811057567596,
        -0.0006891713128425181,
        -0.10517802089452744,
        0.07896111160516739,
        -0.04822675511240959,
        0.023902850225567818,
        -0.06903741508722305,
        -0.04762263968586922,
        0.012799950316548347,
        0.03415495157241821,
        -0.042200516909360886,
        0.13305827975273132,
        0.08349885046482086,
        -0.0005768073024228215,
        0.044175900518894196,
        -0.04535866528749466,
        -0.07513926178216934,
        -0.08689004182815552,
        -0.08068257570266724,
        -0.08539533615112305,
        0.029604140669107437,
        0.011810417287051678,
        -0.05777914449572563,
        0.04706740006804466,
        0.10781960189342499,
        0.14864327013492584,
        0.01945810206234455,
        -0.011194848455488682,
        0.07706549763679504,
        -0.09018218517303467,
        -0.009426331147551537,
        0.047976478934288025,
        0.09525813162326813,
        0.07037513703107834,
        0.01903868466615677,
        0.03599942475557327,
        0.03015851601958275,
        0.004978011827915907,
        0.09043806046247482,
        0.13661326467990875,
        -0.06784535944461823,
        0.136423259973526,
        -0.035275429487228394,
        0.024607142433524132
      ],
      [
        0.11265342682600021,
        -0.0774487853050232,
        0.08559183776378632,
        -0.06187855452299118,
        -0.07916059345006943,
        -0.009126397781074047,
        0.05562908202409744,
        0.11669547855854034,
        -0.07757394015789032,
        0.09139398485422134,
        0.022706888616085052,
        0.11497240513563156,
        0.12129942327737808,
        -0.09235961735248566,
        0.10508310794830322,
        -0.02248758263885975,
        -0.007673385553061962,
        0.03227629140019417,
        -0.02980179339647293,
        -0.03759552538394928,
        -0.10673864185810089,
        -0.002943760482594371,
        0.08122037351131439,
        0.0330095998942852,
        -0.12196803092956543,
        0.02591572515666485,
        0.0038887718692421913,
        0.020346445962786674,
        -0.14795814454555511,
        0.030445795506238937,
        -0.07425513863563538,
        0.0007336973212659359,
        0.0479535311460495,
        0.10769874602556229,
        -0.005629296414554119,
        0.12245723605155945,
        -0.016935689374804497,
        -0.0723126232624054,
        0.08960039168596268,
        0.04000122472643852,
        -0.11739543825387955,
        0.05064314231276512,
        0.13906964659690857,
        0.08994503319263458,
        -0.055651597678661346,
        -0.1323230117559433,
        0.104080930352211,
        -0.05379301682114601,
        0.008710497990250587,
        -0.09440089762210846,
        0.10012335330247879,
        0.04270641505718231,
        0.10488049685955048,
        0.08472053706645966,
        -0.1515110284090042,
        0.10965419560670853,
        -0.10303822159767151,
        -0.0635618194937706,
        0.07550965249538422,
        -0.07649432867765427,
        0.03722256049513817,
        0.048724040389060974,
        0.006691819988191128,
        -0.045103520154953
      ],
      [
        0.0888034775853157,
        0.00845574215054512,
        0.11283748596906662,
        0.10968135297298431,
        -0.11306913942098618,
        -0.008466440252959728,
        0.06263181567192078,
        -0.0720747858285904,
        -0.0928814485669136,
        -0.12299226969480515,
        -0.026311777532100677,
        0.014315899461507797,
        -0.013466189615428448,
        0.02405667118728161,
        0.12672364711761475,
        0.022869568318128586,
        0.10634361952543259,
        0.06322244554758072,
        0.050917260348796844,
        -0.10179274529218674,
        0.01002737507224083,
        0.022073006257414818,
        -0.1431647390127182,
        0.07573805004358292,
        0.11341162770986557,
        -0.1330043375492096,
        -0.006495336536318064,
        0.120760977268219,
        -0.0329204685986042,
        0.013067957945168018,
        -0.012210301123559475,
        -0.0687296912074089,
        -0.1349996030330658,
        0.14276222884655,
        -0.057174183428287506,
        -0.0020845411345362663,
        -0.07632628828287125,
        -0.049320369958877563,
        0.027317021042108536,
        0.009696144610643387,
        0.10130784660577774,
        -0.0036811688914895058,
        -0.022357163950800896,
        -0.02785266377031803,
        -0.08767319470643997,
        -0.10260549932718277,
        0.08110880851745605,
        0.11776197701692581,
        0.03575817123055458,
        -0.17685161530971527,
        0.01446100976318121,
        0.019390534609556198,
        0.07264337688684464,
        0.07764746993780136,
        0.05303756520152092,
        0.021213477477431297,
        -0.00015890668146312237,
        0.020214471966028214,
        0.09938939660787582,
        0.07103734463453293,
        0.028626397252082825,
        -0.07511207461357117,
        -0.012513689696788788,
        0.13504722714424133
      ],
      [
        -0.09239056706428528,
        0.010451426729559898,
        0.03391330689191818,
        0.06725341081619263,
        -0.09739793092012405,
        -0.0008011378231458366,
        -0.01860138587653637,
        -0.011399345472455025,
        -0.09433552622795105,
        0.03606454282999039,
        -0.08709622174501419,
        0.0009147549280896783,
        -0.005513601005077362,
        0.11204520612955093,
        -0.07728622853755951,
        -0.04174777865409851,
        -0.014276810921728611,
        0.01987254060804844,
        -0.06901096552610397,
        0.007778191473335028,
        0.02952137589454651,
        0.13470125198364258,
        0.11865946650505066,
        -0.0027620969340205193,
        0.019758397713303566,
        0.039036091417074203,
        0.04121210798621178,
        -0.12327152490615845,
        0.11069946736097336,
        -0.060545921325683594,
        0.045048732310533524,
        0.11050700396299362,
        -0.012166379950940609,
        0.11654339730739594,
        -0.05039500817656517,
        0.06475279480218887,
        -0.035935889929533005,
        -0.1090310588479042,
        -0.018331293016672134,
        0.06363965570926666,
        0.12824538350105286,
        -0.09789888560771942,
        -0.025268610566854477,
        0.07583699375391006,
        0.009332778863608837,
        0.007564384490251541,
        -0.06294174492359161,
        -0.017983736470341682,
        -0.028627267107367516,
        0.06777079403400421,
        -0.009415702894330025,
        -0.0008090382325462997,
        -0.06540224701166153,
        0.1585860550403595,
        0.09540024399757385,
        -0.13410554826259613,
        0.1213693842291832,
        -0.06925326585769653,
        0.032888785004615784,
        0.023483170196413994,
        -0.021413395181298256,
        -0.06583967804908752,
        0.12806758284568787,
        -0.027081836014986038
      ],
      [
        -0.01837572269141674,
        -0.011535152792930603,
        0.11134032160043716,
        0.1032409816980362,
        -0.08199406415224075,
        -0.10808982700109482,
        -0.09050370752811432,
        -0.05394190549850464,
        -0.1061740517616272,
        -0.059237390756607056,
        -0.04210527986288071,
        0.00444269273430109,
        0.042440496385097504,
        0.06675010174512863,
        -0.06404224038124084,
        -0.09152720123529434,
        -0.06317351013422012,
        -0.08925648033618927,
        -0.0027596119325608015,
        -0.11744756996631622,
        -0.0028450991958379745,
        -0.02678319439291954,
        -0.10598447918891907,
        -0.05812782794237137,
        0.06647465378046036,
        -0.02009846642613411,
        -0.08023592829704285,
        0.10139526426792145,
        -0.05751422792673111,
        0.010923894122242928,
        0.09385158866643906,
        0.07201343029737473,
        -0.09488864243030548,
        0.1474691480398178,
        -0.026737898588180542,
        0.027711011469364166,
        0.04931236803531647,
        0.039926525205373764,
        0.09367279708385468,
        -0.04157448559999466,
        0.09372816234827042,
        0.058716244995594025,
        -0.08731705695390701,
        -0.032754283398389816,
        0.11592037230730057,
        -0.10968251526355743,
        -0.11370303481817245,
        0.08794908225536346,
        0.03581356257200241,
        0.0011132238432765007,
        0.09135274589061737,
        0.014322895556688309,
        0.12452143430709839,
        -0.06269166618585587,
        -0.11853515356779099,
        -0.03118334524333477,
        0.12332551926374435,
        -0.10834669321775436,
        0.057225968688726425,
        0.046788688749074936,
        -0.05751438066363335,
        -0.0912298858165741,
        0.056095413863658905,
        0.06721916794776917
      ],
      [
        0.015262896195054054,
        0.06527014076709747,
        0.10608085244894028,
        0.007031905464828014,
        -0.0956512838602066,
        -0.0393349751830101,
        -0.009155784733593464,
        -0.05076124519109726,
        -0.01694396883249283,
        -0.06694997102022171,
        0.18295827507972717,
        -0.04116770252585411,
        -0.044093433767557144,
        -0.017361970618367195,
        -0.07237037271261215,
        -0.1254456639289856,
        0.019785040989518166,
        -0.03543328493833542,
        -0.09039894491434097,
        0.030509842559695244,
        0.12144289910793304,
        0.0007580878445878625,
        -0.06407655030488968,
        0.04163774847984314,
        -0.010364808142185211,
        -0.09935085475444794,
        0.014404146932065487,
        0.03954024240374565,
        0.0819198340177536,
        0.011126532219350338,
        -0.06679872423410416,
        -0.10989417880773544,
        0.00717685092240572,
        0.10966068506240845,
        -0.06792561709880829,
        -0.09853959828615189,
        -0.054645832628011703,
        0.028755158185958862,
        -0.112758569419384,
        0.030412308871746063,
        -0.03980867564678192,
        0.042457059025764465,
        -0.04175946116447449,
        0.012456473894417286,
        -0.053814761340618134,
        -0.012472289614379406,
        -0.09320255368947983,
        -0.014613812789320946,
        0.04693351313471794,
        -0.15611764788627625,
        0.009671088308095932,
        0.0883779525756836,
        -0.07419046759605408,
        -0.02219468355178833,
        0.02067069336771965,
        0.0008038958767428994,
        -0.0760892704129219,
        0.045053932815790176,
        0.02406812272965908,
        -0.13859690725803375,
        0.08325544744729996,
        0.026370078325271606,
        0.10280925780534744,
        -0.0634523555636406
      ],
      [
        0.1386549025774002,
        -0.044680483639240265,
        -0.06887251138687134,
        0.13131679594516754,
        -0.06518415361642838,
        0.07872716337442398,
        0.1220431849360466,
        -0.08157595992088318,
        0.0564461350440979,
        -0.005509695969521999,
        -0.005234849639236927,
        -0.002254687948152423,
        0.07181702554225922,
        -0.10048096626996994,
        0.14736111462116241,
        0.0651969164609909,
        -0.09806438535451889,
        0.058355171233415604,
        0.012769284658133984,
        0.06443122774362564,
        0.015166101977229118,
        0.027227845042943954,
        0.03554241359233856,
        0.09284838289022446,
        0.03887582942843437,
        0.07092312723398209,
        0.04064929112792015,
        0.07635104656219482,
        -0.028732048347592354,
        0.029658719897270203,
        -0.05294759199023247,
        0.07223089784383774,
        -0.11204800009727478,
        0.07528985291719437,
        0.04774942249059677,
        0.07900573313236237,
        -0.11304491013288498,
        -0.00012341816909611225,
        -0.1285742223262787,
        -0.11700956523418427,
        0.022551245987415314,
        -0.04850584641098976,
        0.021252408623695374,
        0.10287461429834366,
        -0.06583345681428909,
        -0.06234034150838852,
        0.05962333083152771,
        0.1388874500989914,
        -0.007010042667388916,
        -0.12960892915725708,
        0.10200158506631851,
        0.011668841354548931,
        -0.11135201156139374,
        -0.031555645167827606,
        -0.015389693900942802,
        0.021637892350554466,
        0.10359039157629013,
        0.0356103852391243,
        0.09908338636159897,
        -0.038063615560531616,
        -0.009542656131088734,
        0.03114793449640274,
        -0.1018691137433052,
        0.1358838528394699
      ],
      [
        -0.007881950587034225,
        -0.13007430732250214,
        -0.12584522366523743,
        0.0013734650565311313,
        0.023897841572761536,
        0.07049261778593063,
        -0.14124275743961334,
        -0.024104591459035873,
        0.12186313420534134,
        0.05123843997716904,
        -0.059580255299806595,
        -0.10866447538137436,
        0.0649372786283493,
        0.09001799672842026,
        0.0027655968442559242,
        0.09804925322532654,
        0.11289973556995392,
        -0.023859679698944092,
        0.1030154600739479,
        0.1248113363981247,
        -0.01698886603116989,
        -0.06770786643028259,
        0.11910540610551834,
        -0.030934473499655724,
        0.06414705514907837,
        -0.044180549681186676,
        -0.059214264154434204,
        -0.10604079067707062,
        -0.022206777706742287,
        -0.08192090690135956,
        0.042791176587343216,
        0.09655975550413132,
        0.0007666712044738233,
        -0.17150413990020752,
        -0.09958198666572571,
        0.09408615529537201,
        -0.038989461958408356,
        -0.12671726942062378,
        -0.0623563788831234,
        -0.0315902940928936,
        -0.021883342415094376,
        0.11659611761569977,
        0.029551204293966293,
        0.06420959532260895,
        -0.09375303238630295,
        -0.001487242290750146,
        0.06933349370956421,
        0.038013700395822525,
        -0.027751555666327477,
        0.11401615291833878,
        -0.08428620547056198,
        -0.13538579642772675,
        0.09869424253702164,
        0.038628414273262024,
        -0.03393050655722618,
        -0.03579918295145035,
        0.14802998304367065,
        0.03880622982978821,
        -0.056719448417425156,
        0.006464076228439808,
        -0.08524001389741898,
        0.12343969941139221,
        0.014433197677135468,
        -0.10763096064329147
      ],
      [
        0.018854280933737755,
        0.0486014224588871,
        0.03020741604268551,
        0.0015022516017779708,
        -0.11320250481367111,
        0.0026391935534775257,
        -0.0279827993363142,
        0.016596853733062744,
        -0.1065976619720459,
        0.050116170197725296,
        -0.04060160368680954,
        -0.04927610605955124,
        -0.04019257798790932,
        -0.09176547825336456,
        0.014719530940055847,
        -0.06517927348613739,
        -0.07757660746574402,
        0.024507950991392136,
        0.04678323492407799,
        -0.08134607970714569,
        0.09147147834300995,
        0.02210616134107113,
        0.07274993509054184,
        0.00034215982304885983,
        0.12246610969305038,
        -0.12421460449695587,
        0.07530242204666138,
        -0.07674398273229599,
        0.03044476918876171,
        -0.03914894536137581,
        -0.012391298078000546,
        0.07873924821615219,
        0.1217920333147049,
        0.02898670732975006,
        -0.05342975631356239,
        0.05110308527946472,
        -0.0648682713508606,
        -0.0412808358669281,
        -0.10012892633676529,
        0.12357788532972336,
        -0.012080861255526543,
        -0.002871426986530423,
        -0.06847365200519562,
        0.09358636289834976,
        -0.11348865926265717,
        -0.07166817784309387,
        -0.02691994234919548,
        0.10094047337770462,
        -0.02510876953601837,
        -0.0025047482922673225,
        0.1068064495921135,
        0.09267035871744156,
        0.08598899096250534,
        -0.06184190511703491,
        0.044085923582315445,
        -0.0035173811484128237,
        -0.02917436696588993,
        0.024320267140865326,
        0.1368110179901123,
        -0.014086095616221428,
        -0.002572303172200918,
        -0.07114716619253159,
        -0.0911225974559784,
        0.10179339349269867
      ],
      [
        -0.010044881142675877,
        0.005690573714673519,
        0.03696422651410103,
        0.04725366830825806,
        -0.0033222842030227184,
        0.10265161097049713,
        0.13166680932044983,
        0.03571341931819916,
        -0.07465524971485138,
        -0.01754225417971611,
        0.11513101309537888,
        0.0053069679997861385,
        -0.0649837926030159,
        -0.024525010958313942,
        0.09092067182064056,
        0.009418478235602379,
        0.08153142035007477,
        0.016197947785258293,
        -0.03479957580566406,
        0.059667907655239105,
        0.02971649542450905,
        -0.0037949983961880207,
        -0.08231183886528015,
        -0.06549665331840515,
        -0.03328284993767738,
        -0.001856000628322363,
        -0.055825646966695786,
        0.11029382795095444,
        -0.10090192407369614,
        -0.0849371999502182,
        -0.0037928461097180843,
        -0.06285454332828522,
        -0.08098817616701126,
        0.14868152141571045,
        0.06815873831510544,
        -0.057577792555093765,
        0.05103716626763344,
        -0.0008410665323026478,
        -0.010832234285771847,
        0.09231224656105042,
        -0.08885567635297775,
        0.04143550619482994,
        0.10372696071863174,
        -0.01365590188652277,
        0.1088322177529335,
        -0.04043266922235489,
        -0.051920145750045776,
        0.05889224633574486,
        -0.048536140471696854,
        -0.08170169591903687,
        -0.009234877303242683,
        0.03780626133084297,
        -0.09616545587778091,
        -0.09821277856826782,
        -0.10778848826885223,
        0.15433478355407715,
        -0.035620495676994324,
        0.055358778685331345,
        -0.09359827637672424,
        0.03015953302383423,
        -0.061778657138347626,
        -0.05364927276968956,
        0.08556544035673141,
        0.12156352400779724
      ],
      [
        -0.06070247292518616,
        -0.08316104859113693,
        -0.05619645118713379,
        -0.05536620691418648,
        0.0251725185662508,
        -0.02833425998687744,
        0.023148467764258385,
        0.03325948491692543,
        0.10033709555864334,
        -0.04017501696944237,
        0.020363613963127136,
        0.10907132923603058,
        0.07957317680120468,
        0.04467529430985451,
        0.07337711751461029,
        -0.09678912162780762,
        0.06310778856277466,
        -0.007866166532039642,
        0.02922804094851017,
        0.030559854581952095,
        0.007436124142259359,
        0.047654539346694946,
        0.000886752619408071,
        0.05383037403225899,
        0.06514659523963928,
        0.02836650051176548,
        -0.022359777241945267,
        -0.009815622121095657,
        -0.09152428060770035,
        -0.12331824749708176,
        0.04895543307065964,
        -0.1381576508283615,
        0.045945025980472565,
        0.1486278474330902,
        0.015668705105781555,
        0.1240781843662262,
        -0.06308215856552124,
        0.07649562507867813,
        0.06842828541994095,
        -0.11088910698890686,
        -0.10764173418283463,
        -0.07051672041416168,
        0.0008743182406760752,
        0.03656535968184471,
        -0.038506679236888885,
        0.005161456298083067,
        0.12020102143287659,
        0.04323546588420868,
        0.06379184871912003,
        0.07850193977355957,
        -0.012264277786016464,
        -0.08630900830030441,
        -0.11527063697576523,
        -0.15302637219429016,
        -0.17387591302394867,
        0.09455569833517075,
        -0.01109357550740242,
        -0.06538950651884079,
        0.023104937747120857,
        -0.022327058017253876,
        -0.0898922011256218,
        -0.14939157664775848,
        0.04782763868570328,
        -0.011492947116494179
      ],
      [
        -0.0261282566934824,
        -0.06596744060516357,
        -0.011879360303282738,
        0.1235390454530716,
        -0.09475449472665787,
        -0.04229019954800606,
        -0.046255651861429214,
        0.1372424066066742,
        -0.03629511222243309,
        0.0837889090180397,
        0.027942374348640442,
        -0.03230644762516022,
        0.08296242356300354,
        -0.0743173137307167,
        0.07964986562728882,
        0.09715883433818817,
        0.018660245463252068,
        0.0851413682103157,
        -0.10115118324756622,
        0.10044196993112564,
        -0.0519745796918869,
        0.054730262607336044,
        0.0009322959231212735,
        -0.011798800900578499,
        0.04023642838001251,
        -0.14517810940742493,
        0.15753714740276337,
        0.019745400175452232,
        0.10141545534133911,
        0.01645357720553875,
        -0.021366380155086517,
        0.044692445546388626,
        -8.5533618403133e-05,
        -0.028972992673516273,
        0.04303380474448204,
        -0.12754544615745544,
        -0.08897019177675247,
        -0.08003731071949005,
        0.007729490287601948,
        -0.06423500925302505,
        -0.027433663606643677,
        -0.12290892750024796,
        -0.11292894184589386,
        0.01879282295703888,
        0.012354339472949505,
        0.049288637936115265,
        -0.05266149714589119,
        0.15579436719417572,
        -0.10173780471086502,
        0.032022036612033844,
        -0.09242506325244904,
        0.1694795787334442,
        -0.06547705084085464,
        0.05140853673219681,
        -0.03426365554332733,
        -0.028864577412605286,
        -0.05132826790213585,
        -0.05029086023569107,
        0.09909970313310623,
        0.054315559566020966,
        0.12781234085559845,
        -0.058866195380687714,
        -0.04828821122646332,
        -0.030717847868800163
      ],
      [
        -0.03798171132802963,
        0.02284245751798153,
        -0.06505898386240005,
        -0.1553034484386444,
        -0.0019324040040373802,
        -0.0042563797906041145,
        -0.13371433317661285,
        -0.038079988211393356,
        0.04149778187274933,
        -0.15185490250587463,
        -0.051639799028635025,
        0.059919361025094986,
        -0.04208345711231232,
        -0.0016082382062450051,
        -0.020665694028139114,
        0.057466380298137665,
        -0.031170541420578957,
        -0.017591167241334915,
        0.08147456496953964,
        0.0036300907377153635,
        -0.02404460869729519,
        -0.09576011449098587,
        -0.06629292666912079,
        0.022201556712388992,
        -0.058322034776210785,
        0.16485467553138733,
        -0.066644586622715,
        -0.13964411616325378,
        0.11998378485441208,
        -0.12075060606002808,
        0.055981043726205826,
        0.04717883840203285,
        0.09873093664646149,
        -0.17116375267505646,
        0.082359179854393,
        0.0008624051115475595,
        -0.04351867362856865,
        -0.11635388433933258,
        0.021837029606103897,
        -0.09693840146064758,
        0.11479843407869339,
        0.11747845262289047,
        0.1535724401473999,
        0.06904573738574982,
        -0.01731262356042862,
        0.023506058380007744,
        0.11109928786754608,
        0.0453178733587265,
        0.14355070888996124,
        -0.0023447538260370493,
        -0.01428977120667696,
        -0.05349939316511154,
        0.09150976687669754,
        -0.016149738803505898,
        0.17415738105773926,
        -0.06306678056716919,
        0.09303697943687439,
        0.10655295848846436,
        -0.15424548089504242,
        0.0703454464673996,
        -0.09703192859888077,
        0.11367330700159073,
        0.1136956587433815,
        -0.06377934664487839
      ],
      [
        -0.09459453821182251,
        -0.05584575980901718,
        0.07793767750263214,
        0.013946742750704288,
        -0.0977616235613823,
        0.09528858959674835,
        0.07865428179502487,
        -0.04464064911007881,
        0.03176967427134514,
        0.0237051360309124,
        0.10306743532419205,
        0.07275309413671494,
        0.008696023374795914,
        0.04341334477066994,
        0.032097019255161285,
        -0.08455631136894226,
        0.0887308195233345,
        0.041590116918087006,
        0.026864537969231606,
        0.08653055876493454,
        -0.03978339955210686,
        -0.1041494682431221,
        -0.07479548454284668,
        0.12442809343338013,
        -0.043711427599191666,
        -0.08683793246746063,
        0.09618456661701202,
        -0.10477538406848907,
        0.10615918785333633,
        0.09646368026733398,
        -0.026224585250020027,
        0.09075430035591125,
        0.09540210664272308,
        -0.15806730091571808,
        -0.08020192384719849,
        0.011541071347892284,
        0.045589789748191833,
        -0.0920335203409195,
        -0.10967758297920227,
        0.10341716557741165,
        -0.04532245546579361,
        -0.09611578285694122,
        0.03359921649098396,
        -0.08442508429288864,
        -0.033260244876146317,
        -0.009781834669411182,
        0.1174609437584877,
        0.027610192075371742,
        0.1343916356563568,
        -0.032037220895290375,
        0.07652238756418228,
        -0.14850358664989471,
        0.09111589193344116,
        0.017378119751811028,
        0.03780367225408554,
        0.09641072899103165,
        0.012278471142053604,
        -0.06051093712449074,
        -0.08116315305233002,
        0.03549464792013168,
        -0.0464136078953743,
        0.04527588188648224,
        -0.08991798758506775,
        -0.1097983717918396
      ],
      [
        0.09788979589939117,
        -0.05073186755180359,
        -0.1520709991455078,
        0.09417855739593506,
        -0.04606807604432106,
        0.010257186368107796,
        0.0750243216753006,
        0.015432650223374367,
        -0.09579212218523026,
        0.0231668371707201,
        0.08967235684394836,
        -0.006357518956065178,
        0.07180583477020264,
        0.160500168800354,
        0.03825293108820915,
        -0.10620671510696411,
        0.13881638646125793,
        0.08382140100002289,
        0.04832509160041809,
        0.002533303340896964,
        -0.11371666193008423,
        0.04362991452217102,
        -0.020854823291301727,
        0.12371860444545746,
        -0.1451808512210846,
        0.03810122236609459,
        -0.026440370827913284,
        -0.03264576569199562,
        0.012897111475467682,
        0.04297303780913353,
        -0.12319812923669815,
        0.06479255855083466,
        -0.07862083613872528,
        -0.01968546025454998,
        -0.02923871949315071,
        0.021095437929034233,
        0.06592395901679993,
        -0.06357981264591217,
        -0.09533366560935974,
        -0.05440855026245117,
        0.1304154098033905,
        -0.07888057827949524,
        0.07494055479764938,
        -0.07972900569438934,
        0.024442996829748154,
        0.08967693895101547,
        -0.0367560088634491,
        -0.11484409868717194,
        0.061816226691007614,
        0.08480598777532578,
        0.017878897488117218,
        -0.04237419366836548,
        0.033942945301532745,
        0.09207526594400406,
        0.07405482977628708,
        -0.07941371202468872,
        0.11273597925901413,
        -0.009982668794691563,
        -0.06735844165086746,
        -0.01795630343258381,
        0.0036283114459365606,
        -0.049647025763988495,
        -0.08388978242874146,
        0.038508087396621704
      ],
      [
        0.1226961687207222,
        -0.12182005494832993,
        0.1415105015039444,
        -0.045888058841228485,
        0.04650985449552536,
        0.09519138187170029,
        -0.07506568729877472,
        -0.01704808697104454,
        0.004657425917685032,
        -0.061918705701828,
        -0.018804118037223816,
        -0.11778581142425537,
        0.05005348101258278,
        0.04995494708418846,
        0.07600781321525574,
        -0.044677283614873886,
        0.08199118077754974,
        0.09490059316158295,
        -0.10444324463605881,
        0.04861125722527504,
        0.00325984600931406,
        0.020905068144202232,
        -0.0185596514493227,
        0.022891990840435028,
        -0.036695852875709534,
        -0.09497075527906418,
        -0.029876364395022392,
        -0.024314267560839653,
        -0.11331504583358765,
        0.06261833012104034,
        0.07932775467634201,
        -0.0363796167075634,
        0.04364598169922829,
        0.12822481989860535,
        0.12302494049072266,
        0.08336000144481659,
        -0.00568293547257781,
        0.04597605764865875,
        -0.07430916279554367,
        -0.032262373715639114,
        -0.023184774443507195,
        -0.14103488624095917,
        0.03776414692401886,
        -0.000264298461843282,
        0.04277830198407173,
        -0.0018902390729635954,
        -0.09630391001701355,
        0.05762406811118126,
        -0.07982604950666428,
        -0.09862308949232101,
        0.07845664769411087,
        0.10680969804525375,
        -0.09823806583881378,
        -0.14499489963054657,
        0.04940379038453102,
        -0.02200140617787838,
        -0.11220242828130722,
        -0.13416343927383423,
        0.09763834625482559,
        0.03949345275759697,
        0.12917441129684448,
        -0.143038809299469,
        -0.0021569912787526846,
        0.04836469516158104
      ],
      [
        0.018821153789758682,
        0.03992467373609543,
        -0.11733973771333694,
        -0.092132568359375,
        -0.051663972437381744,
        0.0028918886091560125,
        0.004452758003026247,
        -0.020570388063788414,
        -0.12655259668827057,
        0.09537462145090103,
        -0.08576654642820358,
        0.022623443976044655,
        -0.08365125209093094,
        0.0967092365026474,
        0.10735495388507843,
        -0.07207595556974411,
        0.10535772144794464,
        -0.036458831280469894,
        -0.12926357984542847,
        -0.020481277257204056,
        -0.08836254477500916,
        0.021389970555901527,
        0.040733516216278076,
        -0.06393192708492279,
        -0.027858100831508636,
        0.023027891293168068,
        -0.07852515578269958,
        0.05562126636505127,
        -0.10413118451833725,
        0.07770996540784836,
        -0.04997793585062027,
        -0.11825968325138092,
        0.005113237537443638,
        -0.005078160669654608,
        -0.08882320672273636,
        0.10154159367084503,
        -0.047200821340084076,
        0.08857888728380203,
        -0.031732916831970215,
        0.07503784447908401,
        -0.06619849801063538,
        -0.07996420562267303,
        -0.1419452428817749,
        -0.07249348610639572,
        -0.09365568310022354,
        0.06302941590547562,
        -0.09379459172487259,
        -0.022961070761084557,
        -0.04840213060379028,
        -0.0463220439851284,
        0.006514678709208965,
        0.05079782381653786,
        -0.0538954883813858,
        -0.14030273258686066,
        0.09220892190933228,
        -0.06635752320289612,
        0.07737182825803757,
        -0.02220742776989937,
        -0.010138123296201229,
        0.11014445871114731,
        0.029484499245882034,
        -0.13541096448898315,
        -0.11869946122169495,
        -0.126182422041893
      ],
      [
        -0.07697964459657669,
        0.061321187764406204,
        -0.041134368628263474,
        -0.02961893565952778,
        -0.07149063050746918,
        0.03787846490740776,
        0.11005447804927826,
        -0.002308981493115425,
        -0.02008638344705105,
        -0.10612153261899948,
        0.03188753128051758,
        -0.011638486757874489,
        0.0054496233351528645,
        0.07046350836753845,
        0.05037994682788849,
        -0.14211660623550415,
        0.06231090798974037,
        -0.1462641805410385,
        0.18033546209335327,
        0.005516625475138426,
        -0.045443277806043625,
        0.030867647379636765,
        0.05412440374493599,
        0.04069014638662338,
        -0.003479283768683672,
        0.04937202110886574,
        -0.12254677712917328,
        -0.05483246222138405,
        0.12684643268585205,
        0.06005440279841423,
        -0.12669338285923004,
        0.022952938452363014,
        -0.02617451548576355,
        -0.13409996032714844,
        -0.0638679638504982,
        -0.02439647726714611,
        0.13592565059661865,
        -0.02392294444143772,
        -0.0036512992810457945,
        -0.04115094989538193,
        -0.12649044394493103,
        0.10014622658491135,
        0.04200072959065437,
        -0.1742209494113922,
        -0.08562114089727402,
        0.1143142506480217,
        -0.03179395571351051,
        0.028338532894849777,
        -0.05426502227783203,
        0.02848619967699051,
        -0.05016321688890457,
        0.06651180982589722,
        -0.12926439940929413,
        0.012029574252665043,
        0.057744886726140976,
        -0.036645106971263885,
        0.07730090618133545,
        0.08467988669872284,
        0.11007656157016754,
        -0.015888432040810585,
        -0.02648341841995716,
        0.10620710998773575,
        0.035649240016937256,
        -0.10326731950044632
      ],
      [
        -0.0241884533315897,
        -0.03552377596497536,
        0.0035668385680764914,
        0.007948372513055801,
        -0.06172961741685867,
        -0.04928741976618767,
        0.057806346565485,
        0.0004232641076669097,
        -0.06328026205301285,
        -0.02462524175643921,
        0.14238694310188293,
        -0.08120828121900558,
        0.11588530987501144,
        -0.10232950001955032,
        0.017817189916968346,
        0.020208697766065598,
        0.013433818705379963,
        -0.0967610627412796,
        0.08586018532514572,
        -0.02284335345029831,
        0.0056458511389791965,
        -0.03558606654405594,
        0.12756462395191193,
        0.009742158465087414,
        0.07872527837753296,
        -0.05568409711122513,
        0.12913832068443298,
        0.08034449815750122,
        0.07291311025619507,
        0.05198262259364128,
        -0.0735679641366005,
        0.06970492750406265,
        -0.15698733925819397,
        -0.1049802377820015,
        0.029229316860437393,
        -0.059986963868141174,
        -0.07485707104206085,
        0.11074753850698471,
        -0.0015920610167086124,
        -0.06926623731851578,
        0.06964883208274841,
        0.036138489842414856,
        -0.12022288143634796,
        -0.022939050570130348,
        -0.2194550335407257,
        -0.0683109387755394,
        -0.007370593026280403,
        0.061444979161024094,
        -0.08225598931312561,
        -0.1397276073694229,
        -0.054566577076911926,
        -0.0542648509144783,
        -0.03237191215157509,
        0.006312549114227295,
        0.063400037586689,
        0.1013670340180397,
        0.09609419107437134,
        6.0034642956452444e-05,
        -0.0716308206319809,
        -0.04049374908208847,
        -0.0797886848449707,
        0.000749536557123065,
        0.04792599007487297,
        0.03375688195228577
      ],
      [
        0.0865664854645729,
        0.1257820427417755,
        0.08551337569952011,
        0.03299704194068909,
        0.1392901986837387,
        0.0471082367002964,
        -0.07467280328273773,
        0.02100963331758976,
        0.015949659049510956,
        0.07479796558618546,
        0.15534986555576324,
        -0.10597901791334152,
        0.04813450202345848,
        0.12060362845659256,
        -0.0591522678732872,
        -0.0962471142411232,
        0.05625308305025101,
        0.06249456852674484,
        0.08899912983179092,
        -0.03684676066040993,
        0.10287415236234665,
        -0.13391561806201935,
        -0.08781367540359497,
        -0.01643460802733898,
        -0.06675825268030167,
        -0.048080042004585266,
        -0.013529155403375626,
        0.15833130478858948,
        -0.06024885177612305,
        0.07141123712062836,
        0.07138269394636154,
        0.05958773195743561,
        -0.02856270782649517,
        0.09630348533391953,
        -0.05632933974266052,
        -0.10060594975948334,
        0.059703100472688675,
        0.10630343854427338,
        -0.08863764256238937,
        0.06232910230755806,
        0.013421083800494671,
        -0.08326472342014313,
        -0.00240016495808959,
        0.14142701029777527,
        -0.06004900857806206,
        0.05813729763031006,
        -0.07527250796556473,
        -0.09361244738101959,
        -0.12094340473413467,
        -0.07835806906223297,
        0.14145508408546448,
        0.09405525028705597,
        0.08295216411352158,
        0.003145177848637104,
        -0.03472061827778816,
        -0.053285159170627594,
        -0.14507126808166504,
        -0.06988739222288132,
        -0.026076266542077065,
        0.07305468618869781,
        -0.00842585414648056,
        -0.07159958779811859,
        0.006009007804095745,
        0.11667715013027191
      ],
      [
        -0.013758491724729538,
        0.06233089417219162,
        -0.11699602752923965,
        -0.13201163709163666,
        -0.0017706687794998288,
        0.038233112543821335,
        0.07302496582269669,
        0.022793103009462357,
        0.11522001028060913,
        -0.07060801237821579,
        -0.015877986326813698,
        0.10575646907091141,
        -0.08194246888160706,
        0.11265560984611511,
        -0.10656588524580002,
        0.07933800667524338,
        0.0700206309556961,
        0.0920557975769043,
        0.0017125440062955022,
        0.028520449995994568,
        -0.08815057575702667,
        0.11937876045703888,
        0.018597355112433434,
        -0.030893659219145775,
        0.004995299968868494,
        0.06818126887083054,
        -0.09745381027460098,
        -0.10676288604736328,
        -0.005422391928732395,
        0.041048500686883926,
        0.010502096265554428,
        -0.00562211824581027,
        0.018722230568528175,
        -0.07386130094528198,
        0.08945532143115997,
        -0.0601641871035099,
        0.1453029364347458,
        -0.007125754840672016,
        0.07662642747163773,
        0.04425441473722458,
        -0.08832599967718124,
        0.12271777540445328,
        -0.052296265959739685,
        -0.1261141002178192,
        0.041560087352991104,
        0.0637635663151741,
        -0.06505048274993896,
        -0.07262320071458817,
        0.10891792923212051,
        -0.10652394592761993,
        0.020813509821891785,
        -0.03976694867014885,
        -0.09816133230924606,
        0.05758044123649597,
        -0.06790636479854584,
        -0.008035531267523766,
        -0.0195163544267416,
        0.061132241040468216,
        -0.030591126531362534,
        -0.10309106111526489,
        -0.009474603459239006,
        0.1208699643611908,
        -0.07322705537080765,
        0.09325116872787476
      ],
      [
        0.07389039546251297,
        -0.006732590030878782,
        0.021037301048636436,
        0.11060105264186859,
        -0.00827877689152956,
        0.026192830875515938,
        0.01187606155872345,
        0.02413620799779892,
        -0.12606488168239594,
        -0.07313146442174911,
        0.15127967298030853,
        0.07288999110460281,
        0.012586778961122036,
        0.0943508967757225,
        -0.04257720336318016,
        0.050467222929000854,
        -0.0778723880648613,
        0.10872574150562286,
        0.06258250027894974,
        0.019532589241862297,
        0.009089024737477303,
        0.07614384591579437,
        0.05212082341313362,
        0.05991557240486145,
        -0.03090806119143963,
        0.0010004688519984484,
        -0.0012279893271625042,
        -0.051020488142967224,
        0.0020012513268738985,
        0.10552868992090225,
        0.07487604022026062,
        -0.05649410933256149,
        0.07637099176645279,
        0.05134958773851395,
        0.1293013095855713,
        -0.1387498676776886,
        0.022208595648407936,
        -0.09856896102428436,
        0.05647708848118782,
        0.0919003114104271,
        0.08333973586559296,
        -0.06548565626144409,
        0.021813489496707916,
        0.06909246742725372,
        -0.03323355317115784,
        0.08841560781002045,
        0.08406151086091995,
        0.07943008095026016,
        -0.05758020654320717,
        0.08025084435939789,
        -0.05890665575861931,
        -0.06193668395280838,
        -0.045942746102809906,
        -0.021338777616620064,
        0.048871420323848724,
        0.06050805747509003,
        0.030144061893224716,
        -0.037354476749897,
        0.10524018108844757,
        0.11183789372444153,
        -0.10103888809680939,
        0.09642735123634338,
        0.018636375665664673,
        0.06299220770597458
      ],
      [
        0.05552789568901062,
        0.10718779265880585,
        -0.048103056848049164,
        -0.010976123623549938,
        -0.028439098969101906,
        -0.10674877464771271,
        0.03346710279583931,
        -0.11898767948150635,
        0.09382320940494537,
        -0.06056694686412811,
        0.07646643370389938,
        -0.12337648868560791,
        0.11805681139230728,
        0.07576994597911835,
        -0.1028454601764679,
        0.02800510823726654,
        -0.07299221307039261,
        -0.13884975016117096,
        0.04273901507258415,
        0.009501617401838303,
        0.044538889080286026,
        0.09167711436748505,
        -0.08187790960073471,
        0.12244874984025955,
        -0.03902498632669449,
        -0.024248698726296425,
        0.051840368658304214,
        -0.03264360502362251,
        -0.02976486086845398,
        -0.04325206205248833,
        0.028489938005805016,
        0.030586006119847298,
        0.1816810816526413,
        0.03283388167619705,
        -0.11724941432476044,
        -0.1257658749818802,
        0.03930463641881943,
        0.010577967390418053,
        -0.06929077953100204,
        0.011299921199679375,
        0.049450624734163284,
        -0.02111808769404888,
        -0.02888772450387478,
        0.004441200289875269,
        0.09133099764585495,
        0.03273766487836838,
        0.05737312510609627,
        0.04093223437666893,
        -0.12702056765556335,
        -0.12628492712974548,
        7.214612560346723e-05,
        0.011880711652338505,
        -0.09587112069129944,
        -0.08626726269721985,
        -0.06555648893117905,
        0.030771443620324135,
        0.07783444970846176,
        0.10310982167720795,
        -0.0978190004825592,
        0.11581256985664368,
        -0.0353504978120327,
        -0.13009199500083923,
        0.05700090900063515,
        0.09726803749799728
      ],
      [
        0.04955372214317322,
        -0.00472141383215785,
        0.059286653995513916,
        0.09103305637836456,
        0.0814700648188591,
        -0.11329635977745056,
        0.031088562682271004,
        0.07391560822725296,
        -0.031876713037490845,
        0.053559135645627975,
        0.047620706260204315,
        -0.034399040043354034,
        0.1384432464838028,
        -0.0963049978017807,
        0.16040478646755219,
        -0.09443073719739914,
        -0.15444894134998322,
        0.05816991627216339,
        -0.07738913595676422,
        -0.15118403732776642,
        0.03674276918172836,
        0.07031814008951187,
        -0.1567971110343933,
        -0.02476983517408371,
        -0.04815994203090668,
        0.001140920096077025,
        0.16231901943683624,
        0.02387976087629795,
        -0.16022838652133942,
        -0.029515890404582024,
