/**
 * "Compiled" implementation of modified MobileNet
 */
class MicroMobileNet {
public:
    const uint16_t numInputs = 9216;
    const uint16_t numOutputs = 5;
    float outputs[5];
    float arena[28812];
    uint16_t output;
    float proba;

    /**
     *
     */
    MicroMobileNet() : output(0), proba(0) {
        for (uint16_t i = 0; i < numOutputs; i++)
            outputs[i] = 0;
    }

    /**
     *
     * @param input
     */
    uint16_t predict(float *input) {
        float *ping = arena;
        float *pong = arena + 14406;

        // conv2d (0)
        for (int16_t d = 0; d < 3; d++)
            this->conv2d_3x3x1(input, ping + 47 * 47 * d, conv2d_0_weights[d], 96, 2);

        
            
            // padding (1)
            for (int16_t d = 0; d < 3; d++)
                this->pad(ping + 47 * 47 * d, pong + 49 * 49 * d, 47);

            memcpy(ping, pong, sizeof(float) * 49 * 49 * 3);
            

            // depthwise (1)
            for (int16_t d = 0; d < 3; d++)
                this->depthwise_conv(ping + 49 * 49 * d, pong + 47 * 47 * d, depthwise_1_weights[d], 49, 1);

            // pointwise (1)
            for (int16_t d = 0; d < 6; d++)
                this->pointwise_conv(pong, ping + 47 * 47 * d, pointwise_1_weights[d], 47, 3);
        
            
            // padding (2)
            for (int16_t d = 0; d < 6; d++)
                this->pad(ping + 47 * 47 * d, pong + 49 * 49 * d, 47);

            memcpy(ping, pong, sizeof(float) * 49 * 49 * 6);
            

            // depthwise (2)
            for (int16_t d = 0; d < 6; d++)
                this->depthwise_conv(ping + 49 * 49 * d, pong + 24 * 24 * d, depthwise_2_weights[d], 49, 2);

            // pointwise (2)
            for (int16_t d = 0; d < 12; d++)
                this->pointwise_conv(pong, ping + 24 * 24 * d, pointwise_2_weights[d], 24, 6);
        
            
            // padding (3)
            for (int16_t d = 0; d < 12; d++)
                this->pad(ping + 24 * 24 * d, pong + 26 * 26 * d, 24);

            memcpy(ping, pong, sizeof(float) * 26 * 26 * 12);
            

            // depthwise (3)
            for (int16_t d = 0; d < 12; d++)
                this->depthwise_conv(ping + 26 * 26 * d, pong + 24 * 24 * d, depthwise_3_weights[d], 26, 1);

            // pointwise (3)
            for (int16_t d = 0; d < 12; d++)
                this->pointwise_conv(pong, ping + 24 * 24 * d, pointwise_3_weights[d], 24, 12);
        
            
            // padding (4)
            for (int16_t d = 0; d < 12; d++)
                this->pad(ping + 24 * 24 * d, pong + 26 * 26 * d, 24);

            memcpy(ping, pong, sizeof(float) * 26 * 26 * 12);
            

            // depthwise (4)
            for (int16_t d = 0; d < 12; d++)
                this->depthwise_conv(ping + 26 * 26 * d, pong + 12 * 12 * d, depthwise_4_weights[d], 26, 2);

            // pointwise (4)
            for (int16_t d = 0; d < 24; d++)
                this->pointwise_conv(pong, ping + 12 * 12 * d, pointwise_4_weights[d], 12, 12);
        
            
            // padding (5)
            for (int16_t d = 0; d < 24; d++)
                this->pad(ping + 12 * 12 * d, pong + 14 * 14 * d, 12);

            memcpy(ping, pong, sizeof(float) * 14 * 14 * 24);
            

            // depthwise (5)
            for (int16_t d = 0; d < 24; d++)
                this->depthwise_conv(ping + 14 * 14 * d, pong + 12 * 12 * d, depthwise_5_weights[d], 14, 1);

            // pointwise (5)
            for (int16_t d = 0; d < 24; d++)
                this->pointwise_conv(pong, ping + 12 * 12 * d, pointwise_5_weights[d], 12, 24);
        
            
            // padding (6)
            for (int16_t d = 0; d < 24; d++)
                this->pad(ping + 12 * 12 * d, pong + 14 * 14 * d, 12);

            memcpy(ping, pong, sizeof(float) * 14 * 14 * 24);
            

            // depthwise (6)
            for (int16_t d = 0; d < 24; d++)
                this->depthwise_conv(ping + 14 * 14 * d, pong + 6 * 6 * d, depthwise_6_weights[d], 14, 2);

            // pointwise (6)
            for (int16_t d = 0; d < 24; d++)
                this->pointwise_conv(pong, ping + 6 * 6 * d, pointwise_6_weights[d], 6, 24);
        
            
            // padding (7)
            for (int16_t d = 0; d < 24; d++)
                this->pad(ping + 6 * 6 * d, pong + 8 * 8 * d, 6);

            memcpy(ping, pong, sizeof(float) * 8 * 8 * 24);
            

            // depthwise (7)
            for (int16_t d = 0; d < 24; d++)
                this->depthwise_conv(ping + 8 * 8 * d, pong + 6 * 6 * d, depthwise_7_weights[d], 8, 1);

            // pointwise (7)
            for (int16_t d = 0; d < 24; d++)
                this->pointwise_conv(pong, ping + 6 * 6 * d, pointwise_7_weights[d], 6, 24);
        
            
            // padding (8)
            for (int16_t d = 0; d < 24; d++)
                this->pad(ping + 6 * 6 * d, pong + 8 * 8 * d, 6);

            memcpy(ping, pong, sizeof(float) * 8 * 8 * 24);
            

            // depthwise (8)
            for (int16_t d = 0; d < 24; d++)
                this->depthwise_conv(ping + 8 * 8 * d, pong + 3 * 3 * d, depthwise_8_weights[d], 8, 2);

            // pointwise (8)
            for (int16_t d = 0; d < 24; d++)
                this->pointwise_conv(pong, ping + 3 * 3 * d, pointwise_8_weights[d], 3, 24);
        

        this->maxpool(ping, pong, 3, 24);

        for (uint16_t d = 0; d < numOutputs; d++)
            this->dot(pong, ping + d, conv2d_last_weights[d], conv2d_last_bias[d], 24);

        this->softmax(ping, outputs, numOutputs);

        return this->argmax();
    }

    /**
 * Get index of max output
 */
uint16_t argmax() {
    this->output = 0;
    this->proba = outputs[0];

    for (uint16_t i = 1; i < numOutputs; i++) {
        if (outputs[i] > this->proba) {
            this->proba = outputs[i];
            this->output = i;
        }
    }

    return this->output;
}

protected:
    const float conv2d_0_weights[3][9] = {{0.37168633938, -0.35606172681, -0.25590446591, 0.34159097075, -0.35154694319, 0.07026072592, 0.04437673092, 0.05678167939, -0.24381004274},
{-0.04419308156, 0.14969502389, -0.14784316719, 0.03655895591, 0.24509394169, -0.06856322289, -0.25487774611, 0.08764832467, 0.06347317249},
{0.08605079353, 0.21303845942, -0.13187260926, -0.33553588390, -0.14326149225, 0.13592897356, 0.19997555017, 0.00579921110, -0.06436228752}};
    
    const float depthwise_1_weights[3][9] = {{-0.04098032415, -0.22692298889, -0.17657892406, 0.27851021290, 0.38100948930, 0.39987519383, -0.22356964648, -0.29329010844, 0.25950500369},
{0.19791775942, -0.26188978553, -0.23645694554, 0.06973817945, 0.11149222404, 0.13724578917, 0.08694370836, -0.16740155220, -0.00691888295},
{0.13833154738, 0.22163796425, -0.24562138319, 0.06155434996, -0.18292252719, 0.12247734517, 0.02578558959, -0.01708475314, -0.11344058067}};
    const float pointwise_1_weights[6][3] = {{0.23838795722, 0.46596094966, 0.53810822964},
{0.52563732862, -0.35029292107, -0.05469422415},
{-0.72148561478, -0.04943710566, -0.28357732296},
{-0.15779687464, 0.66683328152, 0.36202818155},
{-0.22588139772, -0.51348990202, -0.10214364529},
{-0.35696601868, -0.20530101657, 0.86516720057}};
    
    const float depthwise_2_weights[6][9] = {{0.22846478224, 0.34639284015, -0.17762270570, 0.38702544570, 0.42202576995, -0.28258565068, 0.13104352355, 0.08743020147, 0.01553633623},
{-0.10609888285, 0.36223343015, -0.34486427903, 0.11739953607, 0.25076079369, -0.20895539224, -0.04813164473, -0.19472204149, 0.14298380911},
{-0.28932136297, 0.06192752719, -0.09453313053, 0.26833304763, 0.29192742705, 0.09538772702, 0.11398747563, -0.03897809982, -0.07076300681},
{-0.31562247872, 0.33241856098, 0.33679422736, -0.58811438084, 0.00768896099, 0.15134626627, -0.06830090284, -0.29549220204, -0.14568842947},
{-0.14003394544, 0.14164322615, -0.21990166605, 0.15501800179, -0.02961733937, -0.02362090349, -0.20412051678, -0.02913916111, 0.21648201346},
{0.35291153193, 0.12053713948, 0.19284091890, 0.44123336673, 0.34929510951, 0.20187316835, 0.06244153902, 0.32310125232, 0.12228533626}};
    const float pointwise_2_weights[12][6] = {{0.69520246983, 1.29747831821, -0.22891077399, 0.86460387707, -0.21858280897, 0.32826745510},
{0.61856663227, 0.53839254379, 0.13880562782, -0.26592177153, 0.39040529728, -0.27744582295},
{0.65297406912, -0.23439215124, -0.04123926163, -0.01291372813, 0.39721751213, 0.38083198667},
{0.54710966349, 0.07777258009, 0.20683097839, -0.32294133306, 0.24270355701, 0.76210147142},
{-0.00311852968, -0.48832520843, -0.05257540941, -0.24543897808, 0.12557905912, -0.08330550045},
{0.60224556923, -0.32979908586, 0.33898466825, -0.30994066596, -0.24962106347, 0.24247325957},
{-0.21776875854, -0.02305239439, 0.55766570568, -0.37224939466, -0.54990541935, -0.40096879005},
{-0.03442322835, 0.00367157278, -0.24317333102, 1.09666800499, -0.47846865654, -0.11126055568},
{-0.10292969644, -1.19364130497, -0.24054557085, -0.40290763974, 0.23988872766, 0.25838240981},
{0.58484727144, -0.74621325731, 0.57634961605, -0.56824970245, 0.12819451094, 0.68667125702},
{-0.43401753902, 0.46134081483, 0.23973649740, 0.45941117406, -0.46525526047, 0.64961045980},
{0.17332069576, 0.68600100279, -0.39755201340, 0.32955190539, 0.21024775505, -0.60388505459}};
    
    const float depthwise_3_weights[12][9] = {{-0.48016238213, 0.07411472499, 0.24015216529, -0.56631255150, -0.37222900987, 0.23410438001, -0.07332862914, -0.01262525748, 0.22187642753},
{0.03727955744, 0.33907222748, 0.26139816642, 0.16325797141, 0.21290843189, 0.53411728144, -0.01839583367, -0.13421753049, 0.29704755545},
{-0.25107628107, -0.18340058625, 0.20022420585, 0.04005242139, -0.06418440491, 0.01576318219, 0.35686546564, 0.03058159910, -0.21106961370},
{0.05202312022, 0.01213869732, -0.02263244614, -0.10371211916, 0.55620676279, 0.45208895206, -0.11202123761, -0.25071737170, 0.13613213599},
{0.14703367651, -0.01196020935, -0.01330507733, 0.01107724104, -0.17427720129, -0.10888312757, 0.04875711352, -0.13761724532, 0.05037866160},
{-0.04312646762, 0.03555171937, 0.27977922559, -0.16021202505, 0.39846351743, -0.23625187576, -0.14280931652, 0.31311371922, 0.02750875056},
{0.05344407260, 0.06119202077, 0.16192017496, 0.09063272178, -0.06499370933, 0.09607200325, -0.00623203814, 0.10069142282, -0.17603941262},
{-0.05842483044, 0.65631526709, -0.62910127640, -0.51811271906, 0.33671528101, 0.17141561210, -0.08168089390, -1.22394609451, 0.35390046239},
{0.05374949053, -0.25855240226, 0.05194412917, 0.41811111569, -0.25669181347, 0.48302313685, -0.02845177986, 0.20177283883, 0.12100049853},
{0.22395353019, 0.03109505586, -0.16317878664, -0.06945428252, 0.23560620844, 0.02934669890, 0.05789395049, 0.43920564651, 0.36605682969},
{0.55600959063, 0.46050211787, -0.27288812399, 0.37962603569, 0.33436572552, -0.11691263318, -0.08175464720, 0.14883826673, -0.10124788433},
{-0.34284001589, -0.29388922453, 0.05264614522, -0.51893913746, -0.13689298928, 0.21978166699, -1.23627066612, 0.45582729578, 0.23842556775}};
    const float pointwise_3_weights[12][12] = {{-0.12804560363, 0.39615997672, -0.35414245725, 0.65350127220, -0.32436323166, -0.33146393299, 0.26449799538, -0.10990541428, -0.95097213984, 0.10790052265, 1.24172306061, 0.19770283997},
{0.37438765168, 0.52299302816, -0.30148556828, 0.12924727798, -0.19317790866, -0.01791524328, 0.14872455597, -0.02863870747, -0.12413805723, -0.31982582808, 0.32675242424, 0.04283799604},
{0.01414064690, 0.15421493351, -0.70597732067, -0.15382900834, -0.09749855846, 0.72288918495, -0.16744661331, 0.23393310606, -0.06434688717, 0.14244441688, -0.76013040543, 0.13596411049},
{-1.10912334919, 0.19300673902, -0.64887803793, 0.16689312458, 0.44219145179, 0.16596798599, -0.06377160549, -0.42444795370, 0.02992028557, 0.35706213117, 0.46660724282, 0.41114372015},
{-0.00591312768, 0.58415353298, 0.68084633350, -0.09841727465, 0.28204560280, -0.42435988784, 0.23507249355, 1.13367891312, 0.62262868881, -0.51448255777, 0.08233623207, 0.96126019955},
{0.55384159088, -0.47485452890, -0.60877156258, 0.44087463617, -0.42282232642, 0.22087517381, -0.38499891758, -0.24250467122, 0.06215899810, 0.38434085250, 0.96962344646, 0.48331350088},
{-0.22906225920, -0.02045730501, 0.15236306190, 0.56588125229, 0.47315356135, 0.43873918056, -0.44986855984, -0.67381578684, -0.00307327090, 0.46902680397, -0.22933262587, -0.39264219999},
{-0.43458914757, -0.04188194871, 0.69776773453, 0.61751168966, -0.21418812871, 0.27131330967, 0.41487991810, 0.34146618843, 0.33665272593, -0.75000751019, 0.19175073504, 0.36477321386},
{0.70753157139, 0.12433919311, 0.48529961705, -0.09342373908, -0.06097851694, 0.04755565897, -0.31267809868, 0.89949154854, -0.75423181057, -0.15900251269, 0.12695895135, 0.26200097799},
{0.10514530540, 0.29753097892, -0.11401692778, 0.32513585687, -0.22241222858, -0.56527459621, 0.34741556644, 0.06826073676, -0.54921180010, 0.70556735992, 0.05845056847, 0.37419500947},
{0.44214034081, 0.02866264433, -0.10684912652, -0.35242336988, -0.33707076311, 0.36121687293, 0.14087510109, 0.32533004880, 0.03990882263, -0.40250632167, 0.46712785959, 0.36879092455},
{0.00282459240, 0.33855926991, 1.12431538105, 0.77430665493, 0.35770225525, 0.63112431765, -0.40633869171, -1.00724411011, -0.40869453549, 0.44646975398, -0.13306048512, -2.23676085472}};
    
    const float depthwise_4_weights[12][9] = {{0.30995872617, -0.01884839684, -0.17953166366, 0.13074421883, 0.08820642531, -0.10054812580, -0.65666896105, 0.10034061223, 0.07823223621},
{0.33883565664, 0.31508463621, 0.40069961548, 0.13576380908, 0.50482505560, 0.43994998932, -0.00169273384, 0.53961253166, 0.22613306344},
{0.19723260403, 0.72963202000, -0.21264374256, -0.37862187624, 0.76121515036, -0.24689985812, 0.00523075834, 0.47725036740, -0.12227005512},
{0.40298658609, 0.00590819446, 0.08706168085, 0.10700371116, 0.33669599891, 0.00548954308, 0.24478934705, 0.29719060659, 0.37016716599},
{-0.00179906492, 0.08748912811, -0.39013355970, 0.53659725189, -0.87339949608, 0.48713624477, -0.32661449909, -0.00999476667, 0.26892381907},
{0.50318026543, 0.26405474544, 0.07002017647, 0.35550129414, 0.29979828000, 0.23198965192, -0.17554108799, -0.05258325860, 0.08775495738},
{0.01493105944, 0.32876685262, -0.25083065033, 0.07588312775, 0.08650710434, 0.23683784902, -0.11258195341, 0.19481869042, 0.26261621714},
{-0.22733061016, 0.22634492815, 0.45039781928, 0.42883795500, -0.21546757221, -0.49727189541, 0.60582512617, 0.20030522346, -0.71892774105},
{-0.08357857168, 0.53348439932, 0.42308515310, 0.00716979895, 0.63885658979, 0.22229221463, 0.21106904745, 0.19660092890, 0.18833579123},
{-0.37254291773, 0.08771176636, -0.53204590082, 0.24278178811, 0.04097754508, 0.23312687874, -0.12418776751, 0.13867646456, 0.03108209558},
{0.20868253708, 0.05561589450, 0.32958623767, 0.09238552302, 1.09314048290, 0.14888550341, 0.47590661049, 0.31245437264, 0.30542767048},
{0.34570854902, 0.34748160839, 0.15340721607, 0.02486850694, -0.12572650611, -0.18664790690, -0.26929965615, -0.09381137788, -0.33693075180}};
    const float pointwise_4_weights[24][12] = {{-0.59962850809, 0.31973400712, -0.29351174831, 0.62948751450, 0.27674981952, 0.25776597857, 0.56227976084, -0.11042531580, -0.53082239628, 0.37010872364, -1.15348541737, -0.03091155365},
{-0.11263431609, -0.30870649219, -0.78855311871, 0.16054598987, 1.16799259186, 0.07604519278, -0.14080086350, 0.72259008884, 0.39990758896, -0.12387069315, 0.78019005060, 0.00920526683},
{0.64943891764, 0.03443745896, -0.04430222511, -0.10468468070, 0.41113081574, 0.09857835621, -0.25493010879, 0.69485884905, 0.06500718743, -0.34975847602, 0.90797668695, 0.45427054167},
{0.03615336493, 0.19941087067, 0.02570743300, 0.42733669281, -0.21856094897, 0.38329458237, 0.54269999266, 0.49731263518, -0.19445279241, 0.05247456580, -0.58327794075, 0.05302788317},
{-0.22945241630, -0.05163471773, 0.37604209781, 0.51120680571, 0.48379135132, 0.38292527199, 0.24743096530, 0.61438435316, -0.07234652340, 0.67254233360, 0.12015718222, 0.20863005519},
{-1.11429369450, 0.44427302480, 0.85343253613, 0.16728238761, 0.38245624304, 0.37397351861, 0.56153571606, 0.11923856288, 0.33058989048, 0.82681852579, -0.16851544380, 0.01830203459},
{0.04625260830, 0.51644045115, -0.72950202227, -0.08589182049, -0.22972609103, -0.24874317646, -0.26791274548, 0.60838335752, 0.00497534452, 0.42959764600, 0.29523792863, -0.15483999252},
{-0.27059003711, 0.83233213425, 0.12347073853, 0.02741833590, 0.01259290706, 0.05504557118, -0.25214573741, 0.05191973969, 0.67972850800, 0.41029742360, -1.03676843643, 0.05051891506},
{-0.60009032488, 0.50615274906, -0.21528820693, -0.28833302855, -0.45554712415, -0.39404121041, -0.18579915166, 0.09591869265, 0.08532091975, 0.61895233393, 0.51306372881, -0.51778781414},
{0.05661430955, 0.59006828070, -0.04734822735, 0.25200414658, 0.66487282515, -0.28326189518, 0.04367497936, -0.35630315542, 0.28018325567, 0.57851034403, 0.33253854513, 0.53348004818},
{0.05274053663, -0.35216179490, -0.38240104914, -0.02475438267, -0.11346013099, 0.07469208539, 0.28334599733, -0.23314803839, -0.09349260479, 0.32600003481, 0.32275128365, 0.24418959022},
{0.38180553913, 0.48122391105, 0.05303947628, -0.43628299236, 0.83676648140, 0.18849363923, -0.16551278532, 0.76271516085, 0.72435212135, 0.31925946474, 0.62900859118, 0.41122242808},
{-0.01276481245, -0.00361395185, -0.82412177324, 0.43981146812, -1.78198254108, -0.44477030635, -0.01029221900, -0.07911493629, 0.30820229650, 0.02133611962, 0.71084868908, 0.56415826082},
{-0.99623131752, -0.84778505564, -0.04607288912, 0.31777575612, -0.88745838404, 0.91283059120, 0.24243241549, -0.26611763239, 0.41484591365, -0.26726713777, 0.25897833705, -0.55596631765},
{0.43779027462, 0.85114222765, -0.25472098589, -0.06262239814, 1.00667452812, 0.13837526739, -0.38810035586, 1.23994243145, 0.79833054543, 0.32498309016, 0.51445138454, 0.65862447023},
{-0.49981191754, -0.93475967646, 0.26063641906, 0.34092125297, 0.19872801006, 0.66092646122, -0.00363958813, 0.65097528696, 0.12109558284, 0.01899966784, -1.18815302849, 0.79891824722},
{-0.55205160379, 0.36408898234, 0.48668587208, -0.51317453384, 0.45582139492, -0.26136147976, -0.59728318453, -0.49982959032, 0.06193757057, -0.91618716717, 0.70441609621, -0.61446952820},
{-0.03901856765, -0.56954807043, 0.13699886203, 0.16510027647, -1.13201498985, 0.18450634181, 0.43419644237, -0.23283959925, -0.09142928571, -0.74127221107, 0.06515866518, -0.78297913074},
{-0.37376490235, -0.16464887559, 0.06905694306, -0.39584642649, 0.70518910885, -0.09853272140, -0.19890148938, 0.16709454358, 0.69714957476, 1.00673925877, 0.60731762648, -0.63923782110},
{0.63871443272, -0.11236913502, 0.62235003710, 0.04300300032, 0.67091494799, 0.45999962091, 0.77623581886, 0.05882505327, 0.23369163275, 0.26636791229, -0.03870556504, 0.41790425777},
{0.31946286559, -0.35247960687, -0.11397857964, -0.06090012193, -0.27870574594, -0.41775184870, 0.17854867876, 0.91275328398, -0.19328105450, 0.72125709057, 0.35841315985, 0.58500605822},
{-0.51616138220, -0.43834266067, -0.59687608480, -0.36687538028, -0.59951794147, 0.18389488757, 0.34647035599, 0.03680021688, 0.18664136529, 0.34982109070, -0.49854248762, -0.64184921980},
{-0.84957933426, -0.47184243798, -0.53853523731, 0.36855566502, -0.64590799809, 0.30337545276, -0.26206284761, 0.11920268089, -0.81487905979, -0.15663155913, -0.52367931604, 0.53864085674},
{-0.37212660909, -0.25925144553, 0.02723174542, 0.27688533068, 0.06578332931, 0.39310503006, 0.13898758590, 0.45085254312, 0.65166133642, 0.21213819087, 0.00591688883, 0.05943095684}};
    
    const float depthwise_5_weights[24][9] = {{0.04158065841, -0.26993718743, 0.27154135704, 0.15927584469, -0.18389540911, 0.11208668351, 0.42147314548, -0.07814525068, -0.12178777903},
{0.58810973167, 0.24993212521, 0.21650648117, 0.39075693488, 0.32204133272, 0.04207284003, 0.77783292532, 0.31760242581, 0.16651542485},
{0.57114821672, 0.13426032662, 0.27352589369, 0.20699048042, 0.18294700980, 0.43819293380, 0.26694196463, -0.10405154526, -0.12947569788},
{-0.32606205344, -0.28953436017, -0.12428165972, 0.00618956937, 0.29786491394, 0.22211413085, -0.05707878992, 0.36624690890, -0.04951523617},
{0.29035392404, 0.36605852842, -0.07451158017, 0.28417783976, 0.10421950370, 0.18400785327, 0.28714871407, -0.06433168054, -0.13691158593},
{0.01103886217, -0.00130547024, 0.18007683754, -0.22479347885, -0.08425311744, 0.22887624800, -0.44660761952, -0.14041501284, 0.34601762891},
{0.72392904758, 0.24502992630, -0.12036383152, 0.97627055645, 0.22797892988, -0.27729451656, 0.19099216163, 0.56677663326, 0.08110231906},
{0.34318953753, 0.28244245052, 0.50867938995, 0.23619492352, 0.26042184234, -0.14374305308, 0.27710300684, -0.15723890066, -0.34581726789},
{0.27834004164, 0.69365936518, -0.14408673346, 0.05230058357, 0.50154209137, 0.23227046430, 0.31888970733, 0.60519075394, -0.00438065920},
{0.16072057188, 0.04283991829, -0.10947275162, 0.46835458279, 0.08331160247, -0.04534284025, 0.28681319952, 0.17336522043, 0.42427685857},
{-0.06400842965, -0.01066933479, -0.01762858592, -0.07447966933, -0.15685909986, -0.12109521776, -0.14340996742, -0.01374753192, -0.08471985906},
{0.39225569367, 0.37983509898, 0.25770178437, 0.26467227936, 0.53286069632, 0.14179380238, 0.05643311888, 0.13718944788, 0.13706433773},
{-0.64051312208, -0.01570353657, 0.54662775993, -0.44990503788, 0.06639367342, 0.74771249294, -0.37714576721, 0.01356110256, 0.71380585432},
{0.37333881855, 0.24410770833, 0.02583540976, -0.15514573455, -0.07310350984, 0.31554740667, -0.30539184809, -0.39638847113, -0.34252965450},
{-0.09867381305, 0.23294214904, -0.03700675070, 0.46984520555, -0.06920796633, -0.14802603424, 0.07400649786, -0.61578005552, 0.03914367780},
{-0.31732714176, 0.15471938252, 0.15405274928, -0.39463362098, 0.38444390893, -0.11899221689, 0.05585121363, -0.01668211445, -0.05915208906},
{0.39887064695, 0.43647032976, 0.42671570182, 0.16071403027, 0.63747853041, 0.84422951937, 0.06645363569, 0.22128878534, 0.24910432100},
{-0.00526025053, 0.24352446198, 0.42621782422, -0.19031469524, 0.34077289701, 0.02003016137, 0.23836801946, 0.19766937196, 0.33864358068},
{0.22702467442, 0.39486837387, -0.13415239751, 0.49753209949, 0.12928606570, 0.25568124652, 0.18098123372, 0.82332485914, 0.53180706501},
{-0.11722941697, -0.40449193120, -0.32555052638, 0.06855560839, 0.13928258419, 0.00827560388, 0.33565104008, 0.28528842330, -0.03340514749},
{0.20227465034, 0.05207772553, 1.20060467720, 0.69817596674, 0.23958678544, 1.36060822010, 0.08935087174, 1.00266075134, 0.24682337046},
{1.05162107944, 0.63731974363, 0.43700444698, 0.48439475894, 0.74082571268, 0.02124997042, 0.95732802153, 0.39209040999, -0.78159761429},
{-0.05450908840, 0.13482740521, 0.38519817591, 0.01067573950, 0.25982454419, 0.27167460322, 0.21020562947, 0.37479886413, 0.30079934001},
{0.30632826686, 0.10376191884, -0.19744470716, 0.18428173661, -0.26361748576, -0.00924741942, -0.03327945620, 0.13351334631, -0.01829134673}};
    const float pointwise_5_weights[24][24] = {{0.14034426212, -0.12815701962, -0.49168163538, -0.36128613353, 0.33612740040, 0.39813646674, -0.26248350739, 0.46726444364, 0.49869048595, 0.20450852811, -0.23715201020, 0.34099432826, -0.58037388325, -0.36501690745, -0.36260506511, -0.74075210094, -0.27247700095, 0.13526433706, 0.51719069481, -0.41404312849, -0.61432617903, -0.47219371796, 0.14328137040, -0.04391641170},
{-0.01803321950, -0.02629669383, 0.73205602169, -0.27453410625, 0.55216395855, -0.74414891005, 0.48130166531, -0.11814126372, 0.08330594003, -0.09755695611, -0.23180691898, 0.15637166798, 0.56843692064, 0.61415827274, 0.14189261198, 0.47400406003, 0.26241451502, -0.23263663054, 0.20929193497, -0.19595685601, 0.25277981162, -0.35239315033, 0.18554459512, 0.35776281357},
{-0.52294230461, -0.01110588294, 0.49802607298, -0.25538989902, -0.21922437847, 0.47358036041, -0.27944985032, -0.69293671846, 0.25125819445, -0.19289547205, 0.13789692521, 0.04357758537, 0.39373421669, -0.66941362619, -0.41991299391, -0.29890531301, -0.01598306932, 0.34851926565, 0.38952723145, -0.01520959940, 0.16615015268, -0.03632936627, 0.03382594511, -1.37696444988},
{-0.28946551681, 0.12313984334, 0.02911280468, -0.14619435370, -0.59118998051, 0.01351213455, -0.04296695814, 0.17546968162, -0.18273946643, 0.15484158695, -0.04219155759, -0.02412049659, -0.02169587091, 0.08262889087, -0.14843294024, -0.01482472848, 0.28923997283, -0.20910382271, -0.06307450682, 0.23503413796, 0.37031176686, -0.16629683971, 0.11323650926, -0.16695865989},
{-0.26536852121, 0.40965092182, 0.03751526400, 0.03631213680, -0.03244954720, 0.87013131380, -0.42036527395, -0.57896924019, -0.34970569611, -0.68800413609, -0.19794249535, -0.29709273577, 0.45639067888, -0.84835427999, -0.79335170984, 0.96133840084, 0.11221185327, 0.56054860353, -0.81107664108, -0.51258647442, 0.35477453470, -0.47452363372, 0.35891368985, -0.41357380152},
{-0.51565676928, 0.94411301613, 0.34867855906, 0.76403415203, 0.17500866950, 0.40657016635, -0.40669590235, -0.28488209844, -0.01753565483, 0.36737564206, -0.11140827835, 0.17542240024, 0.30638444424, 0.41724357009, -0.22560983896, 0.13207718730, -0.06642485410, -0.26799517870, 0.25734493136, 0.34776070714, 0.72613668442, -1.10238206387, 0.48893827200, 0.37233000994},
{-0.17140935361, 0.41090327501, 0.09739941359, -0.28359678388, -0.16545353830, -0.62478423119, -0.06550433487, -0.47979938984, -0.40651315451, -0.04198481143, -0.26799166203, -0.29754471779, 1.13227343559, 0.33946165442, 0.23840627074, 0.39169731736, 0.00371440989, 0.31110224128, 0.42554622889, 0.44287455082, -0.34414798021, 1.10446500778, 0.44262495637, 0.10257117450},
{0.37133303285, 0.12714768946, 0.30121082067, -0.04426947981, -0.01771679707, 0.19897504151, 0.07755683362, -0.30581051111, -0.33163058758, 0.27281984687, 0.22296032310, 0.43274164200, 0.06811846048, 0.72742384672, -0.10916896164, 0.43586909771, -1.14029586315, -0.25736820698, -0.38535740972, -0.00490048015, 0.23929513991, 0.25666841865, -0.34496614337, 0.20291903615},
{0.03408860415, -0.28962123394, -0.28776398301, 0.60551756620, -0.02239082381, -0.18389271200, 0.43264389038, 0.44124197960, 0.21013048291, 0.23317669332, 0.10621380061, 0.07795332372, -0.04808441177, -0.49455994368, 0.22969838977, 0.06870368123, 0.21152535081, -0.33882591128, -0.34512051940, -0.42188438773, 0.16267244518, 0.35206508636, -0.15720093250, -0.85798448324},
{0.24656860530, 0.03582791239, 0.30247101188, -0.12428449839, -0.29050526023, -0.25578537583, 0.12736561894, 0.02916802652, 0.00323696621, 0.30224868655, -0.26445993781, -0.06796318293, 0.07731061429, -0.11731248349, -0.34530729055, 0.04998848960, -0.18579283357, 0.19760438800, 0.17608802021, -0.12799732387, -0.30163255334, -0.20282642543, 0.24731551111, -0.24832560122},
{-0.55558609962, 0.07972245663, -0.33634391427, -0.22812262177, 0.31589162350, -0.47775712609, -0.48531544209, 0.21851556003, 0.10873223841, -0.20380830765, 0.14047987759, 0.58907389641, 0.34841483831, 0.22023241222, 0.60899519920, -0.51655715704, -0.35538804531, 0.48049172759, 0.04081172869, 0.16956505179, 0.18961060047, 0.12490121275, 0.05703501403, -0.34576466680},
{-0.44770446420, 0.26898542047, 0.17898148298, 0.14393067360, 0.70392215252, 0.37840273976, 0.37304657698, -0.03069183230, -0.16880775988, -0.29172879457, -0.14795385301, 0.49307906628, -0.50681370497, 0.44258141518, -0.43950790167, -0.25343072414, -0.97786897421, 0.01915237308, 0.49537512660, -0.09738106281, 0.26061332226, -0.17585887015, 0.63057094812, 0.84973096848},
{1.08966827393, -0.39466530085, 0.34213751554, -0.06242701411, 0.47198170424, -0.34244713187, -0.07665399462, 0.44803583622, -0.37696698308, -0.27750629187, -0.17902329564, -0.04969789088, 0.43144845963, -0.14088356495, 0.21398037672, -0.16981437802, 0.80905359983, 0.22361494601, -0.58889895678, 1.04546070099, 0.63111770153, -0.48090398312, 0.20684045553, 0.00365264807},
{-0.13669508696, -0.00560026756, -0.30561462045, 0.80015420914, -0.11828067899, 0.39699608088, 0.38308167458, -0.26118421555, -0.59077316523, 0.38232952356, -0.02871325240, -0.03871853277, -0.35644194484, -1.16606140137, 0.34968018532, 0.54150187969, -0.00886547565, 0.64221644402, 0.25433930755, 0.27890560031, -0.68986564875, 0.25432372093, 0.01873684116, 0.04878330976},
{0.84543573856, -0.55374580622, 0.00418346887, -0.00928030256, 0.02404493839, -0.05739387125, 1.54451668262, -0.28570401669, -0.02017584629, 0.35835951567, -0.10643505305, 0.21747520566, 0.76406931877, -0.59563237429, 0.18355384469, -0.01424928755, 0.02837191336, 0.64266079664, 0.15165054798, -0.20590750873, -0.43852829933, -0.86521857977, -0.18356525898, -1.01077699661},
{0.29086071253, -0.14771497250, -0.31841593981, 0.02886762843, -0.08983556181, 0.46123871207, 0.39212784171, 0.25401324034, 0.26904955506, -0.91703867912, -0.03808204085, -0.22927142680, -0.14220610261, -0.07811003923, 0.68364423513, -0.10792355239, -0.37126809359, 0.04470040649, 0.09983836859, -0.24601274729, -0.06676115096, 0.44771745801, 0.27824041247, -0.01383889467},
{-0.13693824410, 0.27265951037, 0.49002763629, -0.02136493288, 0.14946900308, -0.07063212991, -0.24812591076, 0.35418286920, -0.06844566017, 0.04591824487, 0.27608245611, 0.29155239463, 0.36715513468, -0.06266301125, 0.19720749557, 0.06090146303, -0.53919172287, -0.11611511558, 0.36641955376, -0.53822106123, -0.44113820791, 0.00809289981, -0.30075570941, -0.08712275326},
{-0.09517550468, 0.21430434287, 0.41930145025, 0.44216746092, -0.03619121015, -0.51874589920, -0.14200751483, -0.21723179519, -0.15341331065, 0.40472772717, 0.31508433819, 0.58156311512, 0.37856343389, -0.35361647606, 0.23404707015, -0.08784613758, 0.07495152950, -0.35512933135, -0.30300715566, 0.11385849863, 1.12650012970, 0.13331471384, 0.13875590265, -0.03126304969},
{-0.78813338280, 0.03741269186, -0.18628004193, -0.39565280080, 0.42023557425, -0.17813976109, -0.06260721385, 0.49049651623, -0.09259817749, 0.13447602093, 0.21837922931, 0.01065944415, -0.49695843458, 0.15882077813, 0.70167654753, 0.20905865729, 1.13180923462, 0.50739711523, -0.32765892148, -0.81433224678, 0.23872552812, 1.21530854702, 0.54203760624, -0.23438619077},
{0.15233470500, 0.39799541235, 0.52228307724, 0.00180071546, 0.22436730564, 0.20222979784, -0.31303843856, -0.39721283317, 0.38634064794, -0.48014473915, 0.31496629119, -0.26653093100, 0.55948793888, -0.12687073648, 0.04749684408, -0.24727596343, -0.07146129012, -0.14274416864, -0.41667160392, -0.28371837735, 0.80463182926, -0.93299239874, 0.49414056540, -0.00836356357},
{-0.65477788448, 0.16761413217, -0.52990633249, -0.02272856422, 0.03400462493, 0.55494648218, 0.70470923185, -0.39295783639, -0.10538982600, -0.37053680420, -0.02828565799, -0.25387990475, -0.51243263483, 0.35778310895, -0.61437070370, 0.30733677745, -0.04409938678, 0.27629950643, -0.25027430058, -0.04980484769, -0.12213853747, 0.23853063583, 0.14549845457, -0.30697563291},
{-0.26531672478, -0.06418661028, 0.14559140801, 0.46021661162, 0.53370046616, 0.05365196615, -0.56118267775, -0.49112781882, 0.03898767382, -0.18117812276, 0.22224943340, -0.07094831765, 0.39710247517, 0.30915984511, 0.04636457562, 0.14164897799, 0.16942852736, 0.17241504788, -0.61432874203, -0.46093252301, 0.77775675058, -0.77103865147, 0.44238224626, -0.08020348847},
{0.39327073097, 0.08114385605, -0.50408482552, -0.50926691294, 0.62732052803, 0.13095036149, -0.37773528695, -0.11722607911, -1.36813318729, 0.48390999436, -0.09749646485, 0.09366378188, -0.83336156607, -0.14732329547, -0.33105447888, 0.03343390673, -0.72807741165, -0.05555483326, -0.89747828245, -0.32994177938, -0.71846443415, -0.22992478311, 0.04606819153, -0.15021122992},
{0.24187485874, 0.02385954745, -0.11508869380, 0.08349699527, 0.10496494174, -0.86608093977, -0.15543991327, 0.24124026299, -0.12078355253, 0.24153833091, 0.25383344293, -0.18474437296, 0.36778032780, 0.27623784542, 0.73179280758, 0.55105692148, 0.18483841419, -0.14714628458, 0.47543683648, 0.75295817852, -0.62396568060, 0.39503532648, 0.15505786240, 0.28246551752}};
    
    const float depthwise_6_weights[24][9] = {{0.09923449159, 0.01294653863, 0.32101622224, 0.19634671509, 0.09020745009, -0.11729978770, 0.10745190829, 0.31876656413, 0.18478344381},
{0.32740467787, 0.14028039575, -0.09834910929, 0.22735103965, -0.05130462721, -0.25465154648, 0.24768136442, -0.14949131012, -0.11364103854},
{0.60585850477, 0.09959235787, 0.83970850706, 0.42445671558, -0.28352051973, 0.48552164435, 0.93055963516, 0.66193693876, 0.95105618238},
{0.32039299607, -0.13008368015, 0.46798798442, -0.05077391118, 0.37034583092, 0.05685304105, -0.04665558413, -0.20513968170, 0.32444754243},
{-0.08080112934, 0.63867908716, 0.02728494816, 0.23751087487, 0.26885876060, -0.31649070978, -0.26049065590, 0.35413125157, -0.31357946992},
{0.12183604389, 0.21949055791, -0.03185429797, -0.32292169333, 0.30346682668, 0.16307917237, 0.17800769210, 0.34444096684, 0.30285143852},
{0.04742990434, 0.53405827284, 0.93005603552, -0.29943665862, -0.07880680263, 0.02754899673, -0.07412042469, 0.39152172208, -0.03432989866},
{0.25891706347, 0.26583454013, 0.20066320896, 0.63230127096, 0.26780074835, -0.04303325340, 0.13664086163, -0.07565769553, -0.05535364151},
{0.15981081128, 0.92056506872, -0.31695860624, -0.22089104354, 0.04457525909, -0.24349957705, 0.01984680630, 0.58739012480, 0.09823171049},
{-0.13421982527, -0.13066628575, -0.14335072041, -0.15835556388, -0.11106643826, -0.04938530549, -0.02239190042, -0.03186031803, -0.00507509848},
{-0.06087346002, 0.19330374897, -0.20149210095, 0.31784725189, 0.25569340587, -0.06987875700, 0.37414550781, 0.23522624373, -0.03027647175},
{-0.10791238397, 0.24387849867, 0.31946066022, 0.09635090083, 0.34253290296, -0.01626078039, -0.31212222576, -0.38854929805, -0.18106934428},
{-0.08894314617, -0.66886478662, -0.91843968630, 0.49210733175, -0.29544335604, -0.31178593636, 0.38992473483, 0.02972592972, -0.24005059898},
{0.23463866115, -0.16785158217, -0.06011813879, 0.21007594466, 0.07447174937, -0.24823348224, 0.77230215073, 0.26542308927, 0.08434452862},
{0.38352429867, -0.58897012472, -0.13939222693, 0.06474280357, 0.04970461875, 0.13919268548, 0.03421675041, 0.33113825321, 0.12863698602},
{0.12295553088, 0.52241224051, -0.17264458537, 0.26549309492, 0.39015871286, 1.06892931461, 0.73087179661, 0.24937976897, 0.44875663519},
{0.32901006937, 0.11238242686, -0.07599154115, 0.24436922371, 0.12158826739, 0.04226863012, 0.13515105844, -0.03860033676, 0.52726590633},
{0.19903983176, 0.21742092073, 0.26765599847, 0.42945963144, 0.20098739862, -0.08035162091, 0.26030385494, 0.49308279157, -0.04963561520},
{0.34372848272, -0.60999906063, -0.08846140653, 0.33856648207, -0.27764546871, -0.31232064962, 0.00733338995, 0.01682409830, 0.40661734343},
{0.00978919677, 0.33432635665, 0.11489532143, 0.29258081317, 0.46619296074, -0.21356013417, 0.04253508523, 0.16815613210, 0.21364870667},
{0.28638029099, 0.53927886486, 0.38682812452, 0.27812248468, 0.24394088984, 0.30847036839, 0.45402443409, 0.59849447012, 0.35308983922},
{0.11163281649, 0.44724673033, 0.34298470616, 0.05982551351, 0.28575918078, 0.09891504049, -0.21042884886, 0.24223805964, 0.10193987936},
{-0.76915448904, -0.08277902007, 0.15085676312, -0.19163928926, 0.36147984862, 0.25553467870, -0.28944653273, 0.18825499713, 0.02562422678},
{0.20271651447, 0.43104076385, 0.00189022149, -0.01198624913, -0.10930330306, -0.25881874561, 0.15488035977, 0.27436167002, -0.09407205880}};
    const float pointwise_6_weights[24][24] = {{-0.21404664218, -0.08055601269, 0.22991609573, -0.18520496786, 0.78935456276, 0.25565636158, -0.02999528870, -0.29275223613, 0.39588800073, 0.04826907068, -0.35184371471, -0.07727749646, -0.86251860857, -0.10607712716, 0.20856150985, -0.34705778956, -0.35253524780, 0.16895407438, 0.65996539593, 0.26011720300, 0.33300074935, 0.14438876510, -0.40497758985, -0.22145920992},
{0.06597835571, -0.48355823755, 0.27136594057, -0.07827194035, 0.16579253972, 0.60269063711, -0.53926134109, -0.28241720796, -1.11684668064, 0.20165662467, 0.42589360476, -0.20753338933, -0.40363124013, -0.13114817441, -0.12027119100, -0.22381867468, 0.15308107436, 0.16450953484, 0.78441196680, 0.09366329014, 0.24317254126, 0.48276260495, -0.02703595348, -0.35033828020},
{0.47208419442, -0.30422008038, 0.60786771774, 0.07723410428, 0.59798300266, -0.09058979154, -0.41941562295, -0.32891735435, -0.08126550913, -0.06918404996, 0.44119846821, -1.07799255848, 0.01668958366, -0.58368229866, -0.06332176179, -0.30846261978, -0.14796945453, 0.12967941165, 0.17813660204, 0.49580672383, -0.42815023661, 0.39036259055, -0.69348424673, 0.23956848681},
{0.73412865400, -0.86956101656, 0.64974677563, -0.12761993706, -0.09067451954, 0.47842031717, -0.25035634637, -0.60035079718, 0.68100911379, -0.09569051117, 0.01249056216, -0.25545555353, -0.14917060733, -0.24999500811, -0.10539350659, 0.14942264557, 0.26913294196, -0.38778302073, 0.62415432930, -0.26782599092, -0.67354089022, 0.27516862750, -0.07591568679, -0.07438362390},
{-0.15924821794, -0.29373386502, 0.39017012715, -0.53509050608, 0.25139322877, -0.34046414495, 0.73569548130, 0.26447346807, 0.10231384635, 0.25323432684, -0.11484964937, -0.03401730582, -0.01084378548, -0.21283261478, 0.30942288041, 0.19135434926, -0.22450259328, 0.07923313230, 0.98423349857, 0.07409282029, 0.01207883190, 0.09125350416, 0.17752210796, -0.00782901049},
{0.20677323639, 0.24985061586, 0.74094814062, 0.36275771260, -0.20470811427, 0.43735554814, -0.31725031137, -0.13984176517, -0.23070733249, 0.09094821662, 0.42921683192, -0.32254520059, -0.67168456316, 0.12929886580, -0.29240882397, -0.17425695062, 0.41389217973, 0.34294798970, 0.24091050029, 0.26070889831, -0.27426707745, 0.24206535518, 0.46828243136, 0.29322794080},
{0.27976241708, 0.12539157271, 0.16451621056, -0.06929609179, -0.23045171797, 0.08209799230, -0.20501293242, 0.12479531765, 0.55523586273, -0.12985423207, 0.21574887633, 0.54151666164, -0.85734891891, -0.51897341013, -0.07166846842, -0.76067775488, 0.43191626668, 0.05751311406, -0.74659413099, -0.18306063116, -1.03592681885, 0.17622496188, 0.19269363582, -0.04735678807},
{0.11656081676, 0.07550796866, -1.03215682507, 0.23381859064, 0.61010545492, 0.41915443540, 0.40435099602, -0.39902868867, -0.21577118337, 0.29020467401, -0.13679407537, 0.35751739144, -0.96113139391, -0.23309832811, -0.52648675442, 0.64693689346, -0.37021157146, 0.13378983736, -0.59902495146, 0.01404824387, 0.22393521667, 0.11572811007, 0.42618933320, 0.19614474475},
{-0.25449302793, -0.41969496012, 0.40527233481, -0.28184494376, 0.21359744668, 0.16765244305, 0.65158790350, 0.41672727466, -0.40134814382, -0.18509493768, -0.05974666402, 0.28677213192, -0.26993140578, 0.17233932018, 0.60082250834, -0.13539616764, 0.35462909937, 0.18377164006, -0.24749030173, -0.55397462845, 0.02415128052, -0.29877933860, 0.15719388425, 0.06830012798},
{0.34001782537, -0.51685333252, 0.58780878782, -0.24885965884, -0.32386282086, 0.41786441207, 0.21112358570, 0.56473106146, -0.02373115346, -0.11626794189, 0.54966199398, 0.38201975822, 0.57211220264, -0.04367408901, 1.49456000328, -0.70053356886, -0.27668416500, -0.71468544006, 0.52306354046, -0.11156258732, -0.16445086896, 0.13507243991, -0.30213326216, -0.67554730177},
{0.16274054348, 0.20040856302, -0.33104589581, -0.74597686529, 0.42722377181, 0.04115112498, 0.55357325077, -0.51572954655, -0.41806405783, 0.28222894669, -0.08491299301, -0.75188481808, 0.75011420250, 0.02747257613, 0.11477973312, 0.04885819554, -0.29521894455, 0.19064511359, -1.36856603622, -0.14943778515, -0.52552753687, 0.26828902960, 0.31767845154, -0.60885113478},
{0.22034652531, -0.18732087314, 0.02132743411, -0.26674193144, -0.11959443241, 0.27072969079, 0.31608170271, 0.12370973080, -0.31286510825, 0.08328289539, 0.08229403198, 0.28934684396, -0.10629082471, -0.00839097798, 0.35188892484, 0.07145255804, 0.31051704288, -0.08105537295, 0.26250320673, -0.08837280422, -0.13023056090, -0.25228807330, -0.05438668653, 0.06168669090},
{-0.27061235905, 0.30109810829, -0.44713234901, -0.21314074099, 0.11212518811, -0.04307289422, 0.58591127396, 0.24209111929, 0.00464281766, 0.06962313503, 0.07521733642, 0.40433952212, -1.01670813560, -0.33553048968, 0.66315925121, 0.58354437351, 0.27937668562, 0.27616816759, 0.02560661919, -0.29359540343, 0.13360118866, -0.33634954691, -0.40470030904, 0.23729367554},
{0.04553421214, -0.13260793686, -0.41024276614, 0.17347502708, 0.63499629498, -0.15416902304, -0.11529529840, -1.28040575981, 0.36190780997, 0.11073222756, 0.32967936993, 0.37610656023, -0.37594085932, -0.12486684322, -0.16497819126, 0.12553827465, -0.61696821451, -0.62873566151, 0.70921140909, 0.06120602041, -0.03754061460, 0.38777431846, -0.96348667145, 0.15401621163},
{0.13188491762, -0.60659164190, -0.92115586996, -0.27306625247, 0.37089583278, 0.55102831125, -0.10869208723, -0.22629901767, -0.39520150423, -0.21920970082, -0.08727054298, -0.44920280576, 0.98424547911, 0.07399655133, 0.07819504291, 0.58775371313, 0.15512584150, 0.11633431166, -0.09375208616, 0.65400075912, 0.89043283463, 0.00615955843, 0.08359450847, -0.36942896247},
{0.01522991620, 0.23875468969, 0.03704524040, 0.18984015286, 0.33897763491, 0.19881977141, 0.08383172005, -0.62555778027, 0.20366314054, 0.18205179274, -0.32659322023, 0.88850867748, -0.22844821215, 0.11394953728, 0.48570191860, -0.01812792942, -0.42821604013, -0.99907666445, -0.70282858610, 0.27345171571, 0.68397581577, 0.12610560656, 0.21818487346, 0.37357184291},
{-0.01153854933, -0.00075608765, -1.10802209377, -0.04523952678, 0.55264210701, 0.26909199357, -0.09296684712, -0.04141047597, -0.02827401087, 0.14732590318, -0.06538743526, 0.41469156742, -0.10685878992, -0.60636568069, 0.37073424459, -0.67559981346, -0.01955940761, 0.27653375268, 0.73860609531, 0.23761087656, 0.46086773276, 0.32850053906, 0.28082376719, -0.57165718079},
{0.16796693206, 0.39395087957, -0.21277679503, -0.21168364584, -1.06604802608, 0.20648397505, -0.00223638583, -0.15876311064, 0.08503282070, -0.24014253914, -0.04377543926, -0.04879819602, 0.84506291151, 0.10946632177, -0.72280943394, 0.87305814028, -0.02419309132, 0.16611766815, 0.15811619163, -0.25671947002, 0.34347188473, -0.41675007343, -0.49555099010, 0.61578190327},
{0.03798858821, -0.72219014168, -0.55046063662, -0.40900391340, 0.09309110790, -0.17371068895, -0.09103818238, -1.01332724094, 0.46109223366, -0.07322829962, -0.81465542316, -0.69612890482, -0.20610481501, -0.21095974743, 0.43204408884, -0.10681907833, -0.59278994799, -0.24892382324, 0.37970387936, -0.06184248999, 0.70785510540, 0.10124052316, 0.03689560294, -0.20661331713},
{-0.12077177316, -1.08303916454, -0.64283180237, -0.39204230905, -0.41352993250, 0.10163109750, 0.37677982450, -0.82328587770, -0.16124132276, -0.32260853052, -0.40786153078, -0.15596626699, -0.05130729079, 0.25674563646, -0.08819900453, 0.50267553329, -0.43827870488, -0.12743154168, -0.15700151026, 0.01576475054, 0.31367176771, -0.25421178341, -0.81728768349, -0.69515347481},
{-0.39253222942, 0.40027752519, 0.42471486330, 0.19612893462, -0.59295314550, 0.17647874355, 0.16098082066, 0.45856288075, -0.69822221994, -0.05483629555, -0.00913170539, 0.78275310993, -1.27674269676, -0.32391905785, 0.29584088922, 0.01894818060, -0.04187840596, -0.23087121546, 0.14668563008, 0.44096198678, -0.27065724134, 0.13568916917, -0.72724306583, 0.47506442666},
{0.46472063661, 0.37471976876, 0.29589217901, -0.24195870757, 0.09110687673, 0.63717287779, 1.23373293877, -0.39119869471, 0.07336752862, -0.15144246817, 0.06099820510, -0.50399941206, 0.26826018095, 0.06834659725, -0.77983564138, -0.13321025670, -0.33386635780, -0.45792669058, 0.38969358802, 0.45347490907, 0.58742994070, 0.14025828242, 0.42936629057, 0.00265123835},
{0.48266342282, -0.66000139713, -0.64590609074, -0.25180667639, 0.59978902340, -0.15718880296, 0.19197030365, -0.58207827806, -0.81725287437, -0.04313807562, 0.11231751740, -0.01749691553, -0.18606775999, 0.69225645065, 0.08889450133, -0.07229387760, -0.35025268793, 0.10744839162, -0.46414676309, 0.13425199687, -0.32793977857, 0.35152742267, -0.32787701488, 0.23575326800},
{0.24292668700, -0.81246221066, 0.13735736907, 0.31935262680, 0.13988232613, 0.30207508802, -0.24757668376, 0.26700192690, 0.23347055912, 0.29384386539, -0.17824590206, 0.26881203055, 0.98474949598, 0.39204493165, 0.27217271924, -0.50615048409, 0.26213136315, -0.60125964880, 0.84233850241, 0.33368360996, -0.35148212314, -0.01513377856, -0.18667849898, -0.24104870856}};
    
    const float depthwise_7_weights[24][9] = {{-0.04061223194, 0.21254996955, 0.34741178155, -0.26624739170, 0.18167218566, 0.26916512847, -0.12421642989, 0.22307354212, 0.01255493052},
{0.44182601571, 0.20353154838, -0.21056215465, 0.22900448740, 0.30508539081, -0.43217694759, 0.36757799983, 0.14833906293, -0.24894276261},
{-0.39048993587, -0.59603607655, 0.30552729964, 0.38097071648, -0.20228378475, 0.07581055909, 0.31864976883, -0.02945054695, 0.27785688639},
{0.03426085413, -0.33389061689, 0.09364696592, -0.18083307147, 0.47336474061, 0.24816486239, -0.25100600719, -0.89875090122, -0.35891517997},
{-0.36713662744, 0.61733424664, -0.15116246045, 0.02788493596, -0.35852277279, -0.65422958136, -0.00276925252, 0.78066855669, -0.15893864632},
{0.23952324688, 0.00468012877, 0.30685538054, 0.07819401473, 0.11256510764, 0.21074096859, 0.10107366741, 0.19794352353, 0.00188066554},
{0.21465668082, 0.08515996486, 0.13333332539, 0.08314274251, 0.24138481915, 0.12547717988, -0.27310758829, 0.51258832216, 0.16340707242},
{0.49164193869, 0.01997409202, -0.00868640654, 0.02194905467, 0.25234863162, -0.32394197583, -0.98384362459, -0.97752231359, 0.14651519060},
{0.06308685243, 0.23891675472, 0.14239275455, 0.08400110900, 0.53190124035, 0.45523771644, -0.21563002467, 0.06025456265, -0.15686039627},
{-0.25885289907, -0.21226169169, 0.02899403125, -0.37154993415, -0.13996180892, 0.43624907732, -0.38326567411, -0.24133899808, 0.25559869409},
{-0.00175118004, 0.45271149278, 0.39993223548, -0.06684155762, -0.22322289646, 0.37376528978, -0.44323515892, -0.15894241631, -0.11396704614},
{-0.06148348749, -0.08147214353, -0.02076681703, -0.11255680025, -0.09400654584, -0.07340992987, -0.00481134932, 0.00035285077, -0.12675043941},
{0.46738940477, -0.07078810781, 0.21960604191, 0.11872141063, 0.28590035439, 0.53968876600, 0.11309690773, -0.08334220946, 0.08018570393},
{0.07010830194, -0.10051669180, 0.12052818388, 0.70862489939, 0.18775442243, 0.08190876991, -0.36070993543, 0.12498132139, -0.12005847692},
{0.40925580263, 0.03208631277, -0.23179449141, 0.30836981535, -0.20771591365, -0.26804125309, -0.22167953849, -0.23729962111, -0.38026002049},
{0.35848465562, -0.10793866962, 0.03414247558, 0.00648729503, -0.68269687891, 0.28918197751, 0.29918470979, -0.19967542589, 0.61052042246},
{-0.19141343236, 0.06623010337, 0.32969197631, -0.15431933105, -0.04615280405, 0.51971369982, -0.21685539186, -0.07999105006, 0.47956246138},
{0.68165498972, 0.60073649883, 0.29822030663, -0.15475456417, 0.14222078025, -0.12769152224, 0.30851337314, -0.55982685089, -0.46622142196},
{0.21769134700, 0.38654237986, -0.21118502319, 0.80039614439, 0.42516055703, -0.39212700725, 0.70078408718, 0.80544131994, -0.35786700249},
{0.37400189042, 0.65803521872, 0.44811388850, 0.98495453596, 0.37009081244, 0.08346929401, 0.12291169912, -0.13023336232, 0.04756342620},
{-0.43713042140, 0.42579257488, 0.44263112545, -0.02232667059, 0.00060229859, 0.77891755104, 0.00824055914, -0.05583687127, -0.10691260546},
{-0.02130971104, 0.16814740002, 0.39205506444, -0.09962509573, -0.21771475673, 0.17256464064, 0.23389382660, -0.38656175137, -0.70657145977},
{-0.13831654191, -0.22061726451, 0.10771340132, 0.19971460104, -0.06063970551, -0.05330836773, 0.19277368486, 0.22087369859, 0.38354545832},
{0.00076860184, -0.09659480304, 0.12113206089, -0.17472225428, -0.41322255135, 0.39155548811, -0.12220142037, 0.12204463035, 0.39466989040}};
    const float pointwise_7_weights[24][24] = {{0.15699309111, 0.07496054471, 0.39870929718, -0.22851067781, 0.42220804095, 0.56906396151, -0.08524901420, -0.82212513685, -0.02448102459, -0.24794198573, -0.29589051008, -0.24258357286, -0.41394889355, 0.29486027360, 0.06041920558, -0.15321066976, 0.16115777194, 0.30195686221, -0.64098840952, -0.36850494146, 0.75799876451, -0.36733248830, -0.41368678212, -0.46213302016},
{-0.23069661856, 0.41881644726, -0.00637655100, -0.60930472612, 0.18955658376, -0.25735262036, 0.28377023339, 0.67213851213, -0.73368436098, 0.30301821232, -0.08535102010, 0.21600258350, -0.12714916468, 0.12865298986, 0.69109541178, 0.37574353814, -0.94570916891, -0.10258794576, -0.15334732831, -0.44899716973, -0.09655124694, -0.42903587222, 0.33777081966, -0.28835573792},
{-0.19588810205, -0.03908145055, -1.00541150570, 0.18395699561, 0.13562692702, 0.10778003186, 0.29187676311, -0.00830128323, 0.06542502344, 0.65342432261, 0.31421700120, 0.32852062583, 0.56449937820, -0.18099144101, 0.10606565326, -0.02975526266, 0.01660236530, -0.86004406214, 0.30533850193, 0.84489858150, 0.68157446384, -0.30481231213, -0.39694955945, 0.30138295889},
{0.08913772553, -0.07951734215, 0.13767822087, -0.12990708649, 0.05582017079, 0.38891661167, -0.01479040645, 0.50418740511, 0.69634175301, 0.31045317650, 0.13498227298, -0.02796359174, -0.26408517361, -0.04928680137, -0.71804147959, -0.42366853356, -0.19169770181, -0.52815282345, 0.62002277374, 0.50998973846, -0.08662287891, 0.72624093294, 0.12638047338, -0.09830977023},
{0.58523523808, 0.01142441761, 0.02540400811, 0.26564252377, 0.76684492826, -0.43556624651, 0.17384457588, -0.08623565733, 0.13588021696, 0.58551830053, -0.03662468120, -0.11450335383, -0.41227251291, 0.22549682856, -0.53822958469, -0.54590946436, 0.25128877163, -0.91540002823, -0.72718745470, -0.71612185240, 0.44969201088, 0.22436940670, 0.02168485336, 0.69084477425},
{0.04845145717, -0.60270851851, 0.28663164377, 0.42894262075, -0.14907738566, -0.17321300507, 0.46459841728, -1.05743336678, 0.22306157649, -0.13615781069, -0.39663648605, 0.06744464487, -0.29904869199, -0.19611226022, -0.33533671498, 0.26626598835, 0.35602799058, 0.20940284431, 0.66646492481, 0.25164490938, -0.33756634593, -0.32037451863, 0.43113276362, -0.07349611819},
{-0.14525155723, -0.34442073107, -0.03516825289, -0.07449626178, -0.21981944144, 0.14009006321, -0.22957913578, -0.24164053798, 0.11821833253, -0.02249919064, 0.00967840478, -0.15248106420, -0.22899352014, -0.15543068945, 0.22534394264, -0.00505862990, 0.15090070665, -0.08060241491, -0.04060677812, 0.20182275772, 0.11313546449, -0.21344301105, 0.06509059668, -0.27520820498},
{-0.15752406418, 0.36356970668, 0.17106905580, 0.11311295629, -0.38585421443, 0.18946008384, 0.25662466884, 0.53583383560, -0.37626039982, 0.18871833384, 0.14014247060, -0.31854885817, -0.01368180942, -0.03326850757, -0.66752314568, -0.54875737429, 0.49896708131, -0.58614093065, 0.23151524365, 0.80531984568, 0.08026946336, 0.02157767862, -0.21810249984, 0.11350735277},
{0.18966190517, -0.10232323408, 0.68939274549, 0.40004274249, 0.35499030352, -0.01694406942, 0.25809338689, -0.31665313244, 0.14692953229, -0.30172353983, 0.45273950696, -0.10031419247, 0.48609721661, 0.50306355953, 0.06158387288, 0.97470057011, 0.27443304658, -0.14550802112, -0.30106887221, 0.44094806910, -0.08264011890, -0.44954770803, 0.43050703406, 0.21464115381},
{-0.18178035319, 0.61855459213, 0.17752769589, -0.63037556410, -0.53160434961, 0.04638744518, -0.61582261324, 0.86721003056, -0.47741666436, -0.01796837896, 0.17530153692, -0.21869063377, -0.00909293536, -0.63264262676, 0.26934230328, -0.17190323770, -0.13040007651, 0.44547533989, 0.62723571062, -0.19892005622, 0.28288763762, 0.41759291291, 0.73109668493, -0.84186846018},
{0.12556362152, -0.48416796327, -0.32621017098, -0.17552095652, -0.52037483454, -0.30445826054, -0.04156083986, -0.00965252891, 0.28811123967, -1.37915909290, 0.61103910208, -0.10252515972, 0.16940371692, 0.20818862319, -0.20108087361, -0.67745941877, 0.07145435363, 0.19270539284, -0.15485416353, -0.47267714143, 0.41984760761, 0.34467148781, 0.47933772206, -0.42714068294},
{-0.42289471626, 0.64093309641, -0.45860025287, -1.14441311359, -0.60720753670, 0.13234919310, -0.43051579595, -0.31399911642, 0.02144091949, -0.43605697155, 0.17152872682, -0.11022306234, -0.07766817510, -0.40703731775, 0.41859102249, 0.25792375207, -0.20929142833, 0.17395925522, -0.12781117857, -0.25577050447, -0.59607976675, 0.73723989725, 0.08177879453, -0.08367979527},
{-0.02737346478, -0.59573978186, -0.16318020225, -0.39002341032, -0.20175299048, 0.22845803201, -0.15824225545, 0.11564677209, -0.37898471951, 0.42255631089, 0.04638974741, -0.19994750619, -0.01353940088, 0.41694819927, -0.40730625391, -0.04191393405, 0.29270774126, 0.12682078779, -0.01334357355, 0.49570193887, -0.22496907413, 0.90756124258, -0.11199822277, 0.57584190369},
{-0.40638339520, 0.07886486501, -0.70783543587, -0.46818196774, -0.70036613941, 0.29088005424, 0.30078428984, -0.17429012060, 0.18124283850, -1.30029690266, 0.09236465394, 0.34199395776, 0.00440400047, -0.09019694477, -0.44464486837, 0.15598641336, -0.27125066519, -0.50051504374, 1.43673813343, 0.34714344144, 0.14475552738, -0.79818630219, -0.35250905156, -0.72235471010},
{0.06267038733, -0.05967138335, -0.24620962143, 0.40973255038, -0.56422889233, 0.35305318236, -0.06677085161, -0.57187688351, -0.03449049965, 0.37356185913, 0.34709373116, 0.23755164444, -0.13488852978, 0.06162805110, -0.61149561405, -0.24323417246, 0.29836970568, 0.21178568900, 0.75851291418, 0.14097815752, -0.18201449513, -0.62629467249, 0.57160168886, -0.45666345954},
{0.43349134922, -0.19854275882, -0.12131050974, -0.39914345741, -0.18277928233, 0.17131771147, 0.17428709567, 0.81209456921, 0.48001638055, 0.31487682462, 0.02262681723, -0.14494284987, 0.29921123385, 0.45734393597, -0.43972259760, 0.42809274793, -0.05578847975, -0.81447792053, 0.32390603423, 0.45135736465, 0.43142610788, -0.14016306400, 0.55356293917, 0.59891670942},
{0.41233110428, 0.19942235947, -0.25853717327, -0.04524732381, -0.20367848873, -0.31160196662, -0.08306733519, 0.71112841368, 0.14555588365, 1.07966613770, 0.12184849381, 0.18714897335, 0.36947855353, -0.08518972993, 0.61140257120, -0.15554791689, -0.00490833819, 0.07821991295, 0.39310875535, 0.59676969051, 0.50342327356, -0.67933923006, 0.16090117395, 0.70280313492},
{-0.16085118055, 0.23635083437, -0.57903409004, 0.00587391667, 0.06228007749, -0.46413341165, 0.35422611237, -0.89221006632, -0.39853519201, 0.04030823708, -0.21626403928, 0.30253565311, 0.29702952504, 0.15204316378, -0.33009061217, 0.76103597879, 0.42583695054, 0.38508030772, 0.69884139299, 0.44126948714, 0.18709716201, -0.03577595204, -0.08614737540, 0.06558576226},
{0.29245558381, -0.25089347363, 0.62007790804, 0.24879178405, 0.99380666018, 0.20903371274, 0.62867361307, 0.33520695567, -0.46828904748, -0.34796392918, 0.35009902716, 0.29187878966, -0.43440988660, 0.07995957881, -0.71575111151, -0.44996446371, 0.12208647281, -0.44610443711, -0.86290812492, 0.02499631979, -0.59889769554, -0.21580955386, 0.18359664083, -0.55376166105},
{0.52144205570, -0.63088601828, 0.28295096755, -0.58121496439, -0.26262658834, -0.28963932395, -0.16305264831, 0.41249614954, 0.24167348444, 0.73615884781, 0.27105966210, -0.23171322048, 0.14607180655, 0.26415616274, -0.69889771938, 0.04511204734, 0.46435806155, -0.07262083143, -0.08618544787, 0.77962058783, -0.42046254873, 0.48634487391, 0.33726885915, 0.09386564046},
{0.43738567829, -0.23594909906, 0.66394168139, 1.12957918644, -1.00726616383, 0.22394654155, 0.51929330826, -0.22050012648, 0.35266971588, -0.05856576562, 0.54001456499, 0.20419496298, 0.54900783300, -0.18517710268, 0.72167605162, 0.04749616235, -0.07740780711, -0.09891341627, 0.06351108104, -0.20553545654, -0.11072520912, -0.37909394503, -0.04723730311, -0.17107696831},
{0.23020163178, -0.33310368657, 0.11158557981, 0.04109233990, -0.40136060119, -0.08968620002, -0.34613737464, 0.57412028313, 0.24608290195, 0.56068986654, -0.78180658817, -0.27391788363, 0.35628250241, -0.78900760412, -0.22708323598, -0.20852288604, -0.10372941941, 0.82000035048, 0.42872580886, 0.11280892044, 0.23591208458, 0.58920401335, 0.20008277893, -0.79706412554},
{-0.60693287849, -0.07796395570, 0.37937957048, 0.20038449764, -0.00151565205, 0.19472596049, 0.43386292458, 0.11627197266, -0.14226739109, -1.13246095181, 0.76588648558, 0.21961125731, 0.04227894917, 0.81534630060, 0.02553586289, 0.42664137483, -0.33184996247, -0.55015891790, -0.10803700238, -0.45467773080, 0.21615114808, 0.21831053495, -0.10019173473, 0.04147472978},
{0.24399994314, -0.33309563994, 0.19062988460, 0.19549712539, -0.34508273005, 0.20405553281, 0.01396151539, -0.45647904277, 0.49685314298, -0.50815957785, -0.27736982703, 0.04491417482, 0.44800686836, 0.17814430594, -0.83251690865, -0.56005674601, 0.15520817041, 0.69891959429, 0.10232204199, 0.57094299793, 0.13710919023, 0.23229663074, -0.36202827096, -0.38679173589}};
    
    const float depthwise_8_weights[24][9] = {{-0.30423757434, -0.28433504701, 0.16707913578, -0.20960392058, -0.06435772777, 0.39180383086, -0.04226439074, 0.33911699057, 0.60498166084},
{0.95950239897, 0.31285199523, 0.22737719119, -0.21076852083, 0.46629875898, -0.02624967322, 0.16496717930, 0.33729347587, 0.12324544042},
{0.22656548023, -0.30089792609, -0.54608106613, -0.19424387813, 0.08983877301, 0.37340286374, -0.02406371757, -0.20082676411, 0.72787034512},
{-0.41067412496, 0.23746606708, -0.10208040476, -0.33804398775, 0.06597211212, 0.09421700984, -0.31346455216, 0.52257823944, 0.25914442539},
{0.80419474840, 0.12137337774, 0.16306583583, -0.35502821207, -0.05736441910, 0.13152951002, -0.40505459905, -0.13255363703, 0.76841902733},
{0.82705235481, -0.27371245623, -0.17211595178, 0.25852778554, 0.68636286259, -0.14977177978, 0.17012335360, 0.69459599257, 0.03795372322},
{-0.13311301172, -0.05572944880, -0.08975993097, -0.04500835761, -0.09950891882, -0.10844326764, -0.11509849131, -0.02766738646, -0.00627845200},
{0.27813905478, -0.01865496673, 0.08378277719, 0.34096342325, 0.25953620672, 0.08633236587, 0.21762849391, 0.29916441441, -0.25086978078},
{-0.15992042422, 0.43825486302, -0.18331307173, -0.14953814447, 0.36987957358, -0.39206206799, 0.13338412344, 0.00292114471, 0.29915151000},
{0.16391393542, 0.10018133372, 0.04772001132, -0.11618459225, -0.47541895509, -0.10566118360, 0.70299589634, -0.61948198080, 0.19419322908},
{0.60247319937, 0.01277309656, 0.79922926426, -0.07920915633, -0.11801157147, -0.16983839869, 0.83143770695, 0.26043155789, -0.15707616508},
{-0.09719249606, -0.34025382996, 0.49233147502, -0.13015913963, -0.41512387991, 0.34611618519, -0.17200905085, -0.02165631019, 0.25263351202},
{0.04708048701, 0.64047408104, -0.19657760859, 0.87215626240, 0.23179955781, 0.17828178406, 0.36014333367, 0.11267233640, 0.17944119871},
{0.68488734961, 0.61810469627, -0.14457993209, -0.07453408837, -0.16043581069, 0.32411602139, 0.18193235993, -0.07699564844, 0.04933802783},
{-0.01434713788, 0.34031102061, -0.06961414218, -0.11662621796, 0.26073521376, 0.21084509790, 0.01126872469, 0.33438482881, 0.40831378102},
{-0.91074544191, -0.16898493469, -0.00072949060, 0.03266049549, 0.02042727359, 0.03266180307, 0.11916456372, 0.58719760180, -0.19644789398},
{0.47049269080, 0.13523899019, 0.39822068810, 0.64473837614, -0.20883941650, -0.44157001376, -0.02056191303, 0.34076502919, -0.13947701454},
{-0.26505663991, 0.90829116106, 0.19182665646, -0.10923191160, 0.77583050728, -0.19906570017, -0.60840475559, 0.79969531298, -0.48624086380},
{-0.02985270694, 0.55035728216, -0.42419865727, -0.50361746550, 0.35968396068, 0.11535391212, -0.09208203107, 0.70232492685, 0.46496030688},
{0.80715930462, 0.10006778687, 0.40145528316, 0.53192657232, 0.23581381142, 0.08501186222, 0.08181232959, 0.13723558187, 0.18975250423},
{0.04290486500, -0.31269612908, -0.42701938748, 0.36149889231, 0.01824699901, 0.41655588150, 0.09200187027, -0.20971061289, 0.40767168999},
{1.10530292988, -0.52829796076, -0.60533511639, 0.39146721363, 0.16309140623, 0.16261027753, 0.17471252382, 0.14671942592, 0.30678912997},
{0.74236053228, 0.18110519648, 0.13432067633, 0.27490034699, -0.23663973808, -0.07917043567, 0.08101665974, -0.30387699604, -0.36544439197},
{0.46614351869, 0.14928579330, 0.52139389515, 0.22177393734, 0.13587638736, 0.08572468907, -0.15605504811, -0.27683150768, 0.15647067130}};
    const float pointwise_8_weights[24][24] = {{-0.80070763826, -0.16660971940, 0.39240723848, 0.34666079283, -0.28075310588, 0.29974138737, -0.06495360285, -0.08133833855, 0.09777838737, 0.10585331917, -0.69952780008, -0.17241457105, 0.22334490716, 0.04173740000, -0.20456582308, -1.29432296753, 0.08964943141, 1.11185920238, 0.10998265445, 0.28050717711, 0.05747243389, 0.42518404126, -0.14160710573, -0.16344676912},
{-0.06065368280, -0.85468375683, -0.87801396847, -0.08493396640, -0.99638050795, -0.01936906017, 0.07024508715, -0.56435269117, 0.12398327142, 0.73285967112, -0.05953948945, 0.43308305740, -0.54934328794, 0.33381238580, -0.07322987914, 0.30913388729, 0.50886940956, 0.21848867834, -0.19385568798, -0.46253982186, -0.70546269417, 0.03315968812, -0.74215227365, -0.48928681016},
{0.19712652266, 0.45569291711, -0.16148848832, -0.23595698178, -0.55513542891, -0.44914576411, -0.20396877825, 0.05511958152, 0.21367456019, -0.84158688784, -0.51816612482, -0.25643703341, 0.69598394632, 0.00072057144, -0.31909382343, -0.61551952362, -0.04219288006, 0.19618284702, -0.09780620039, 0.21867874265, -0.07753081620, 0.61315655708, -0.03487810493, -0.19085335732},
{-0.01071142871, -1.21696686745, -0.59040153027, 0.20507468283, -0.21792306006, 0.29826223850, -0.27139642835, 0.25706633925, -0.56432646513, 0.36105838418, 0.76301771402, -0.59602767229, 0.51080805063, -0.33292964101, 0.02966530621, 0.18436245620, -1.28537607193, -0.46824413538, -1.01763820648, -0.03928666562, -0.03769867495, 0.05668497831, -0.79280281067, 0.11739952117},
{-0.61012858152, -0.34061881900, -0.86022585630, -0.72812080383, -1.07176220417, 0.36735826731, -0.30448937416, 0.43308815360, 0.48230203986, -0.55094242096, 0.00160185306, -0.09564033151, -0.41712209582, -0.60493195057, -0.01934627816, -0.03240824118, 0.14609429240, 0.34710770845, 0.39962002635, 0.08253227919, 0.28895688057, -0.12609583139, -0.19994996488, -0.21998752654},
{-1.12599015236, -0.29320102930, -0.23817278445, -0.30782029033, 0.43132439256, -0.32621669769, -0.28045022488, 0.24151295424, -0.14388662577, 0.44908630848, 0.25890168548, -0.63042289019, -0.19089677930, -0.78849446774, -0.28038850427, 0.36503463984, -0.26430687308, 0.27971321344, 0.45353081822, 0.49734514952, 0.60449343920, 0.53050726652, -0.23634608090, 0.40677779913},
{-0.22193098068, 0.12209442258, -0.55772954226, -0.81582748890, -0.22800984979, 0.48109576106, -0.04579768702, -0.67996609211, -0.17954933643, 0.13087767363, 0.30542960763, -0.48720064759, 0.06867410243, 0.17608682811, -0.06074991822, 0.06821324676, -0.04033047706, -0.44083321095, 0.39407500625, 0.64019787312, 0.31379050016, 0.25309208035, -0.39698773623, -0.41428431869},
{-0.72356289625, -0.39710319042, -0.86734080315, -0.07335414737, -1.85479664803, 0.22275894880, -0.09716200829, 0.16132545471, 0.10135852545, -0.08906584978, 0.14832261205, 0.30421152711, 0.16552449763, 0.64888477325, -0.48319628835, -1.16747379303, -0.22414162755, 0.94507724047, 0.33109572530, -0.40561062098, -0.12676505744, -0.34766051173, 0.01032032818, 0.07698284090},
{-0.49413889647, -0.49253705144, -1.66962206364, -0.15563501418, -0.55848163366, 0.34097972512, 0.15685443580, 0.19419476390, 0.24094170332, -1.08233213425, -0.06234309450, 0.35081472993, -0.71693664789, 0.16571293771, -0.14108461142, -0.39008721709, -0.28784278035, 0.62265795469, 0.64799207449, -1.07982027531, -0.48592409492, 0.30437600613, 0.03863327578, 0.11736442894},
{0.50713378191, 0.07523681968, -0.29663270712, -0.34560829401, -0.40270331502, 0.52261364460, 0.35010716319, 0.02024661005, 0.06714306772, -0.25406625867, 0.44815477729, 0.24277924001, -0.19071847200, -0.67491847277, -0.26462090015, -0.98811393976, -0.16868691146, 0.16728691757, -0.36210826039, -0.62803381681, -0.47860673070, -0.31215503812, 0.55447924137, -0.68765002489},
{0.18828000128, -0.48603034019, 0.61596888304, -0.23061528802, 0.70855569839, -0.14502464235, 0.07276057452, 0.42937085032, -0.42765358090, -0.34161266685, 0.21357838809, 0.16269175708, -0.18259745836, -0.63493353128, -0.09659571946, -0.06314655393, 0.01247055922, 0.00540060457, 0.14646612108, -1.22959160805, -0.49981111288, -0.18127726018, 0.02151491307, -0.71252644062},
{-0.67664057016, 0.39983832836, 0.24976716936, 0.24570460618, -0.04013560340, -0.40477201343, -0.17985898256, 0.35233002901, -0.15100586414, 0.44152751565, 0.13557574153, -0.43178793788, -0.36886960268, -0.33915880322, -0.34257051349, 0.67866855860, 0.67796361446, -0.05006266013, -0.39004960656, -0.83976638317, -0.30927300453, 0.37987074256, 0.02696126141, -0.12888951600},
{-0.38465332985, 0.76708334684, 0.71579462290, 0.12147653848, -1.13346123695, -0.15296150744, 0.02814179659, -0.10440964252, -0.66284817457, -0.31656259298, -0.58347791433, 0.10970669985, 0.07642999291, -0.34997984767, -0.19523833692, -0.29342019558, -0.00097848044, 0.44192510843, -0.36327674985, 0.40650975704, -0.09867995232, 0.80315840244, -0.05007116497, -0.07976961881},
{-0.60389971733, -0.35177239776, -0.85666036606, 0.00939164404, -0.80793523788, 0.51850545406, 0.18388484418, 0.38976305723, 0.29768088460, -0.51594626904, 0.05256078020, 0.07937792689, -0.39008054137, 0.08217196167, -0.31227460504, 0.08877584338, 0.05857146904, 0.12734305859, 0.30924043059, 0.01288163941, 0.06449113041, -0.17215870321, -0.08482894301, -0.20063616335},
{0.04375977814, 0.50456613302, -0.51949226856, -0.85748916864, 0.05007769540, -0.38860458136, -0.01965349726, -0.08902808279, -0.10916517675, -0.40648561716, 0.50642281771, -0.58100301027, 0.33518272638, -0.14411933720, -0.12739041448, -0.12640479207, 0.14537084103, -0.25596728921, 0.28082171082, 0.38178941607, -0.28657892346, 0.54300910234, -0.88177442551, -0.33049786091},
{-0.66670984030, -0.30771034956, -1.44648814201, 0.17835928500, -0.81475478411, -0.04777413607, -0.27233576775, -0.01680424064, 0.42256325483, -0.84686154127, 0.14793889225, 0.43102517724, -0.55662286282, 0.52397346497, -0.10259785503, -0.29830145836, -0.16789144278, -0.18416653574, 0.60210114717, -1.05073547363, -0.24406783283, -0.05974902213, -0.08099104464, 0.08873834461},
{0.22623696923, 0.18151505291, -0.06680737436, -0.44054520130, 0.39810049534, -0.50900995731, 0.03950418532, 0.24129725993, -1.06579875946, -0.86412453651, 0.39132860303, -0.34466212988, 0.20517259836, 0.34863224626, -0.07849767804, -0.52952992916, 0.39481818676, -0.30931672454, 0.56550967693, -0.44214162230, -0.27642086148, 0.25485426188, -0.95052856207, -0.32065233588},
{-0.74342298508, -0.35800141096, 0.40889295936, -0.21041423082, -0.31116101146, -0.42502358556, 0.23991632462, -0.47638455033, 0.06879875809, 0.37458536029, -0.30197817087, -0.40675097704, -0.05790248886, 0.00455625122, -0.54104626179, 0.83670425415, -0.39178952575, 0.63917785883, -0.36864149570, 0.25527042150, 0.68312543631, 0.25114640594, -0.63742882013, 0.55572843552},
{-0.20013387501, 0.14703834057, -0.15435987711, -0.33071634173, -0.44171267748, 0.47288137674, 0.30529198050, -0.64836788177, -0.12864638865, 0.66770011187, -0.55321431160, 0.25236904621, -0.58588123322, -0.32092738152, -0.43871104717, -1.26064932346, 0.24661272764, -0.22732974589, -1.07799649239, -0.52208596468, -0.34704214334, 0.12895636261, -0.01963326894, 0.41219377518},
{-0.72008651495, -0.45624372363, -1.26385092735, -0.21244785190, -0.43237438798, -0.17176127434, -0.25647181273, 0.05454800650, 0.73616534472, -0.90314781666, 0.28139734268, 0.39647808671, -0.70477277040, 0.37174168229, -0.13043078780, -0.15230660141, -0.07255058736, 0.16155114770, 0.82729518414, -0.15482921898, -0.22180700302, -0.21881236136, 0.04472499713, 0.00503983162},
{0.01737009548, -0.38708266616, -0.76829099655, 0.40834212303, -0.25473833084, -0.66176551580, 0.17325651646, -0.37627583742, -0.17792817950, 0.21817319095, -0.13357956707, -1.58932888508, -0.57661545277, 0.51262873411, 0.31605365872, -0.28962463140, 0.51538354158, -0.70799821615, 0.03060336038, -0.41922616959, 0.30709242821, -0.45014852285, -0.45268839598, -0.33918067813},
{0.07974494249, -0.03706299141, 0.45834958553, -0.05313398317, 0.11569768190, 0.85207945108, -0.07124833763, -0.50595933199, 0.52326697111, -0.41269153357, -1.75221371651, 0.36454603076, -0.10894337296, -0.48152327538, -0.12332698703, -0.73541545868, -0.14493359625, -0.22508217394, -0.66972333193, -0.25959676504, -0.60205429792, 0.53126066923, -1.05164873600, -0.18954055011},
{-0.46713998914, 0.03147159517, 0.05124015361, 0.13187767565, -0.05843792111, 0.37496629357, -0.05534251779, 0.06582818180, -0.11849008501, -0.10443104059, -0.64745950699, -1.35294747353, -0.44304731488, 0.48401731253, -0.26127550006, -0.23612740636, -0.82055187225, -0.70754176378, 0.21467065811, -0.67757731676, 0.37745639682, -0.25515913963, 0.08369169384, 0.33292815089},
{-0.04314750805, -0.12953731418, 0.15496449172, 0.12757314742, -0.23406964540, -0.07876577973, -0.31470808387, 0.00950009190, 0.25883969665, 0.23202012479, -0.63183152676, 0.01437307242, 0.46139022708, -0.21838021278, -0.72444272041, 0.20029386878, 0.32850337029, 0.78289318085, 0.00117031205, 0.37208691239, -1.06945681572, -0.03591483459, 0.10114944726, -0.76055377722}};
    
    const float conv2d_last_weights[5][24] = {{0.46770718694, 0.00400814693, -0.07806618512, 0.15932853520, 0.69950270653, 0.58859276772, -0.72763752937, -0.35172495246, -0.59193307161, -1.44141471386, -0.54419189692, 0.51435047388, 0.51389265060, 0.19303248823, -1.06710672379, -0.25834605098, -1.11260008812, 0.69986069202, 1.18546092510, -0.10302630812, 1.04542255402, -1.56198811531, -1.75459718704, 0.02443850413},
{0.47360453010, -0.64339321852, 0.24687078595, -0.67555695772, -1.39752578735, 0.51573121548, 0.84164142609, -0.49250921607, -1.67490541935, 0.67196547985, -0.05636681244, 0.63723850250, 0.26573801041, -1.08556854725, 1.12140595913, -1.41693747044, 0.84492850304, 0.62212610245, -0.92437863350, -1.55969059467, -0.75892049074, -0.05039538816, 0.47517284751, 0.72125613689},
{-1.34086620808, -0.50887638330, 0.06712648273, 1.09451532364, -0.34579867125, -0.10738307238, 0.74935126305, 0.45728003979, 0.19212481380, -0.34979611635, 0.29409110546, 0.37032929063, -0.37252852321, 0.11236555874, 0.61151480675, 0.58787822723, -1.43808650970, -0.91278278828, -1.70618963242, 0.04372192919, -1.16416442394, -1.09316933155, -0.36353987455, -0.78708744049},
{0.19669729471, 1.25029206276, 0.06212856993, 0.46447208524, 0.48745733500, -1.81222045422, -0.64976876974, 0.26131126285, 0.08817452937, 0.92475378513, 0.58304500580, -0.32902771235, -0.49498280883, 0.22360444069, -0.67729789019, -0.15556955338, 0.14349700511, -1.84157896042, 0.81807243824, -0.23850698769, 0.69168186188, 1.63120710850, -0.05316594988, 0.51983588934},
{-0.71078658104, 0.60546165705, -0.98696726561, -1.41171324253, 0.27372795343, 0.25688624382, -0.54734081030, 0.16620653868, 0.66305595636, 0.23977194726, 0.84967398643, -1.43096423149, -1.34048867226, 0.06751502305, 0.17755006254, 0.60225743055, 0.71407389641, 0.74133974314, 0.31203114986, 0.09504509717, 0.22077420354, 0.04480747879, 0.72399514914, -0.65475416183}};
    const float conv2d_last_bias[5] = {-0.33418148756, 0.65198624134, 0.57591611147, -0.93171876669, 0.00434370618};

    /**
 * Multiply 3x3 kernel on single 3x3 image patch
 *
 * @param inputs
 * @param kernel
 * @param width
 */
inline float mult3x3(float *inputs, const float kernel[9], const uint16_t width) {
    const float *i1 = inputs;
    const float *i2 = inputs + width;
    const float *i3 = inputs + width + width;

    return i1[0] * kernel[0] +
           i1[1] * kernel[1] +
           i1[2] * kernel[2] +
           i2[0] * kernel[3] +
           i2[1] * kernel[4] +
           i2[2] * kernel[5] +
           i3[0] * kernel[6] +
           i3[1] * kernel[7] +
           i3[2] * kernel[8];
}
    /**
 * Zero padding 2D
 *
 * @param inputs
 * @param outputs
 * @param width
 */
void pad(float *inputs, float *outputs, uint16_t width) {
    const uint16_t paddedWidth = width + 2;
    uint16_t i = 0;
    uint16_t o = 0;

    // first row of zeros
    for (uint16_t x = 0; x < paddedWidth; x++)
        outputs[o++] = 0;

    for (uint16_t y = 0; y < width; y++) {
        outputs[o++] = 0;

        for (uint16_t x = 0; x < width; x++)
            outputs[o++] = inputs[i++];

        outputs[o++] = 0;
    }

    // last row of zeros
    for (uint16_t x = 0; x < paddedWidth; x++)
        outputs[o++] = 0;
}
    /**
 * Depthwise 3x3 convolution without ReLU
 *
 * @param input
 * @param output
 * @param kernel
 * @param width
 * @param stride
 */
void conv2d_3x3x1(float *input, float *output, const float *kernel, const uint16_t width, uint8_t stride) {
    uint16_t o = 0;

    for (uint16_t y = 0; y <= width - 3; y += stride) {
        const uint16_t offset = y * width;
        float *i = input + offset;

        for (uint16_t x = 0; x <= width - 3; x += stride) {
            output[o++] = this->mult3x3(i + x, kernel, width);
        }
    }
}
    /**
 * Depthwise 3x3 convolution with ReLU
 *
 * @param inputs
 * @param outputs
 * @param kernel
 * @param width
 * @param stride
 */
void depthwise_conv(float *inputs, float *outputs, const float *kernel, const uint16_t width, uint8_t stride) {
    uint16_t o = 0;

    for (uint16_t y = 0; y <= width - 3; y += stride) {
        const uint16_t offset = y * width;
        float *i = inputs + offset;

        for (uint16_t x = 0; x <= width - 3; x += stride) {
            float val = this->mult3x3(i + x, kernel, width);

            if (val < 0) val = 0;
            else if (val > 6) val = 6;

            outputs[o++] = val;
        }
    }
}
    /**
 * Pointwise 1x1 convolution with ReLU
 *
 * @param inputs
 * @param outputs
 * @param kernel
 * @param width
 * @param channels
 */
void pointwise_conv(float *inputs, float *outputs, const float *kernel, const uint16_t width, const uint16_t channels) {
    const uint16_t size = width * width;
    uint16_t o = 0;

    for (uint16_t y = 0; y < width; y += 1) {
        const uint16_t offset = y * width;
        for (uint16_t x = 0; x < width; x += 1) {
            float val = 0;

            for (uint16_t c = 0; c < channels; c++)
                val += inputs[(offset + x) + size * c] * kernel[c];

            if (val < 0) val = 0;
            else if (val > 6) val = 6;

            outputs[o++] = val;
        }
    }
}
    /**
 * (Global) MaxPooling
 *
 * @param inputs
 * @param outputs
 * @param width
 * @param channels
 */
void maxpool(float *inputs, float *outputs, const uint16_t width, const uint16_t channels) {
    const uint16_t size = width * width;

    for (uint16_t c = 0; c < channels; c++) {
        const uint16_t offset = size * c;
        float *in = inputs + offset;
        float greatest = in[0];

        for (uint16_t j = 1; j < size; j++)
            if (in[j] > greatest)
                greatest = in[j];

        outputs[c] = greatest;
    }
}
    /**
 * Dot product with bias
 *
 * @param inputs
 * @param outputs
 * @param kernel
 * @param bias
 * @param length
 */
void dot(float *inputs, float *outputs, const float *weights, const float bias, const uint16_t length) {
    float sum = 0;

    for (uint16_t i = 0; i < length; i++)
        sum += inputs[i] * weights[i];

    outputs[0] = sum + bias;
}
    /**
 * Softmax activation
 *
 * @param inputs
 * @param outputs
 * @param numOutputs
 */
void softmax(float *inputs, float *outputs, uint16_t numOutputs) {
    float sum = 0;

    for (uint16_t i = 0; i < numOutputs; i++) {
        const float e = exp(inputs[i]);
        outputs[i] = e;
        sum += e;
    }

    for (uint16_t i = 0; i < numOutputs; i++)
        outputs[i] /= sum;
}
};