/**
 * "Compiled" implementation of modified MobileNet
 */
class MobileNet {
public:
    const uint16_t numInputs = 9216;
    const uint16_t numOutputs = 5;
    float outputs[5];
    float arena[28812];
    uint16_t output;
    float proba;

    /**
     *
     */
    MobileNet() : output(0), proba(0) {
        for (uint16_t i = 0; i < numOutputs; i++)
            outputs[i] = 0;
    }

    /**
     *
     * @param input
     */
    uint16_t predict(float *input) {
        float *ping = arena;
        float *pong = arena + 14406;

        // conv2d (0)
        for (int16_t d = 0; d < 3; d++)
            this->conv2d_3x3x1(input, ping + 47 * 47 * d, conv2d_0_weights[d], 96, 2);

        
            
            // padding (1)
            for (int16_t d = 0; d < 3; d++)
                this->pad(ping + 47 * 47 * d, pong + 49 * 49 * d, 47);

            memcpy(ping, pong, sizeof(float) * 49 * 49 * 3);
            

            // depthwise (1)
            for (int16_t d = 0; d < 3; d++)
                this->depthwise_conv(ping + 49 * 49 * d, pong + 47 * 47 * d, depthwise_1_weights[d], 49, 1);

            // pointwise (1)
            for (int16_t d = 0; d < 6; d++)
                this->pointwise_conv(pong, ping + 47 * 47 * d, pointwise_1_weights[d], 47, 3);
        
            
            // padding (2)
            for (int16_t d = 0; d < 6; d++)
                this->pad(ping + 47 * 47 * d, pong + 49 * 49 * d, 47);

            memcpy(ping, pong, sizeof(float) * 49 * 49 * 6);
            

            // depthwise (2)
            for (int16_t d = 0; d < 6; d++)
                this->depthwise_conv(ping + 49 * 49 * d, pong + 24 * 24 * d, depthwise_2_weights[d], 49, 2);

            // pointwise (2)
            for (int16_t d = 0; d < 12; d++)
                this->pointwise_conv(pong, ping + 24 * 24 * d, pointwise_2_weights[d], 24, 6);
        
            
            // padding (3)
            for (int16_t d = 0; d < 12; d++)
                this->pad(ping + 24 * 24 * d, pong + 26 * 26 * d, 24);

            memcpy(ping, pong, sizeof(float) * 26 * 26 * 12);
            

            // depthwise (3)
            for (int16_t d = 0; d < 12; d++)
                this->depthwise_conv(ping + 26 * 26 * d, pong + 24 * 24 * d, depthwise_3_weights[d], 26, 1);

            // pointwise (3)
            for (int16_t d = 0; d < 12; d++)
                this->pointwise_conv(pong, ping + 24 * 24 * d, pointwise_3_weights[d], 24, 12);
        
            
            // padding (4)
            for (int16_t d = 0; d < 12; d++)
                this->pad(ping + 24 * 24 * d, pong + 26 * 26 * d, 24);

            memcpy(ping, pong, sizeof(float) * 26 * 26 * 12);
            

            // depthwise (4)
            for (int16_t d = 0; d < 12; d++)
                this->depthwise_conv(ping + 26 * 26 * d, pong + 12 * 12 * d, depthwise_4_weights[d], 26, 2);

            // pointwise (4)
            for (int16_t d = 0; d < 24; d++)
                this->pointwise_conv(pong, ping + 12 * 12 * d, pointwise_4_weights[d], 12, 12);
        
            
            // padding (5)
            for (int16_t d = 0; d < 24; d++)
                this->pad(ping + 12 * 12 * d, pong + 14 * 14 * d, 12);

            memcpy(ping, pong, sizeof(float) * 14 * 14 * 24);
            

            // depthwise (5)
            for (int16_t d = 0; d < 24; d++)
                this->depthwise_conv(ping + 14 * 14 * d, pong + 12 * 12 * d, depthwise_5_weights[d], 14, 1);

            // pointwise (5)
            for (int16_t d = 0; d < 24; d++)
                this->pointwise_conv(pong, ping + 12 * 12 * d, pointwise_5_weights[d], 12, 24);
        
            
            // padding (6)
            for (int16_t d = 0; d < 24; d++)
                this->pad(ping + 12 * 12 * d, pong + 14 * 14 * d, 12);

            memcpy(ping, pong, sizeof(float) * 14 * 14 * 24);
            

            // depthwise (6)
            for (int16_t d = 0; d < 24; d++)
                this->depthwise_conv(ping + 14 * 14 * d, pong + 6 * 6 * d, depthwise_6_weights[d], 14, 2);

            // pointwise (6)
            for (int16_t d = 0; d < 48; d++)
                this->pointwise_conv(pong, ping + 6 * 6 * d, pointwise_6_weights[d], 6, 24);
        
            
            // padding (7)
            for (int16_t d = 0; d < 48; d++)
                this->pad(ping + 6 * 6 * d, pong + 8 * 8 * d, 6);

            memcpy(ping, pong, sizeof(float) * 8 * 8 * 48);
            

            // depthwise (7)
            for (int16_t d = 0; d < 48; d++)
                this->depthwise_conv(ping + 8 * 8 * d, pong + 6 * 6 * d, depthwise_7_weights[d], 8, 1);

            // pointwise (7)
            for (int16_t d = 0; d < 48; d++)
                this->pointwise_conv(pong, ping + 6 * 6 * d, pointwise_7_weights[d], 6, 48);
        
            
            // padding (8)
            for (int16_t d = 0; d < 48; d++)
                this->pad(ping + 6 * 6 * d, pong + 8 * 8 * d, 6);

            memcpy(ping, pong, sizeof(float) * 8 * 8 * 48);
            

            // depthwise (8)
            for (int16_t d = 0; d < 48; d++)
                this->depthwise_conv(ping + 8 * 8 * d, pong + 6 * 6 * d, depthwise_8_weights[d], 8, 1);

            // pointwise (8)
            for (int16_t d = 0; d < 48; d++)
                this->pointwise_conv(pong, ping + 6 * 6 * d, pointwise_8_weights[d], 6, 48);
        
            
            // padding (9)
            for (int16_t d = 0; d < 48; d++)
                this->pad(ping + 6 * 6 * d, pong + 8 * 8 * d, 6);

            memcpy(ping, pong, sizeof(float) * 8 * 8 * 48);
            

            // depthwise (9)
            for (int16_t d = 0; d < 48; d++)
                this->depthwise_conv(ping + 8 * 8 * d, pong + 6 * 6 * d, depthwise_9_weights[d], 8, 1);

            // pointwise (9)
            for (int16_t d = 0; d < 48; d++)
                this->pointwise_conv(pong, ping + 6 * 6 * d, pointwise_9_weights[d], 6, 48);
        
            
            // padding (10)
            for (int16_t d = 0; d < 48; d++)
                this->pad(ping + 6 * 6 * d, pong + 8 * 8 * d, 6);

            memcpy(ping, pong, sizeof(float) * 8 * 8 * 48);
            

            // depthwise (10)
            for (int16_t d = 0; d < 48; d++)
                this->depthwise_conv(ping + 8 * 8 * d, pong + 6 * 6 * d, depthwise_10_weights[d], 8, 1);

            // pointwise (10)
            for (int16_t d = 0; d < 48; d++)
                this->pointwise_conv(pong, ping + 6 * 6 * d, pointwise_10_weights[d], 6, 48);
        
            
            // padding (11)
            for (int16_t d = 0; d < 48; d++)
                this->pad(ping + 6 * 6 * d, pong + 8 * 8 * d, 6);

            memcpy(ping, pong, sizeof(float) * 8 * 8 * 48);
            

            // depthwise (11)
            for (int16_t d = 0; d < 48; d++)
                this->depthwise_conv(ping + 8 * 8 * d, pong + 3 * 3 * d, depthwise_11_weights[d], 8, 2);

            // pointwise (11)
            for (int16_t d = 0; d < 96; d++)
                this->pointwise_conv(pong, ping + 3 * 3 * d, pointwise_11_weights[d], 3, 48);
        
            
            // padding (12)
            for (int16_t d = 0; d < 96; d++)
                this->pad(ping + 3 * 3 * d, pong + 5 * 5 * d, 3);

            memcpy(ping, pong, sizeof(float) * 5 * 5 * 96);
            

            // depthwise (12)
            for (int16_t d = 0; d < 96; d++)
                this->depthwise_conv(ping + 5 * 5 * d, pong + 3 * 3 * d, depthwise_12_weights[d], 5, 1);

            // pointwise (12)
            for (int16_t d = 0; d < 96; d++)
                this->pointwise_conv(pong, ping + 3 * 3 * d, pointwise_12_weights[d], 3, 96);
        

        this->maxpool(ping, pong, 3, 96);

        for (uint16_t d = 0; d < numOutputs; d++)
            this->dot(pong, ping + d, conv2d_last_weights[d], conv2d_last_bias[d], 96);

        this->softmax(ping, outputs, numOutputs);

        return this->argmax();
    }

    /**
 * Get index of max output
 */
uint16_t argmax() {
    this->output = 0;
    this->proba = outputs[0];

    for (uint16_t i = 1; i < numOutputs; i++) {
        if (outputs[i] > this->proba) {
            this->proba = outputs[i];
            this->output = i;
        }
    }

    return this->output;
}

protected:
    const float conv2d_0_weights[3][9] = {{-0.12864306569, 0.15059895813, -0.00105501746, 0.24418929219, 0.30232006311, -0.12309103459, 0.01176814642, 0.35900390148, 0.39580929279},
{0.09542480856, -0.22297561169, -0.05387755483, 0.06000542268, 0.20581768453, -0.16832880676, -0.04452652857, 0.10505113006, 0.21109983325},
{0.08103877306, 0.36973482370, 0.20211046934, 0.25004389882, 0.05384036526, 0.11917620897, -0.07604815066, -0.26050335169, -0.06265974045}};
    
    const float depthwise_1_weights[3][9] = {{-0.11507538706, 0.38850334287, 0.03161659092, -0.07785742730, 0.38397985697, -0.36350247264, -0.26024922729, 0.04726752266, 0.25745117664},
{0.28048941493, 0.25781238079, 0.02573533542, -0.03008188494, 0.24717065692, 0.20047020912, -0.30899494886, -0.28852862120, 0.16919599473},
{0.24829620123, -0.33586174250, 0.01901808381, -0.28754687309, -0.01921376027, 0.39396327734, 0.21019895375, -0.31106141210, -0.02046781778}};
    const float pointwise_1_weights[6][3] = {{-0.41166171432, -0.77892023325, 0.73411607742},
{-0.43935564160, -0.66750091314, 0.69235467911},
{0.41433605552, 0.71261882782, 0.06012107804},
{-0.32696431875, -0.54691225290, -0.44913363457},
{0.54929465055, 0.06422542036, 0.18006139994},
{0.65421932936, 0.52850216627, 0.51989805698}};
    
    const float depthwise_2_weights[6][9] = {{0.01585520059, -0.21105763316, 0.22920393944, -0.00806635432, -0.05024771765, 0.06550221890, 0.27438297868, 0.05621081591, -0.17600387335},
{-0.16523368657, -0.00532537093, 0.19467598200, -0.28216829896, -0.05883419514, -0.27395510674, -0.01377088577, 0.23319524527, -0.07723220438},
{0.05287458748, 0.29658895731, -0.21554118395, 0.19493457675, -0.16479744017, -0.27682849765, -0.17802537978, 0.11123558879, -0.24189709127},
{-0.23278921843, 0.11897963285, -0.20045937598, -0.12515765429, -0.11122670770, -0.05988198519, 0.12658020854, 0.27574160695, 0.23180511594},
{-0.05443268269, -0.07240475714, 0.26549682021, 0.00065281155, 0.02311654016, -0.08520202339, 0.07760524750, 0.31358596683, 0.16289861500},
{-0.30539557338, 0.01414208673, 0.11599013954, -0.15718553960, -0.19637535512, -0.17102815211, 0.04257835448, -0.17651721835, 0.14254274964}};
    const float pointwise_2_weights[12][6] = {{-0.39310961962, 0.01895908825, -0.34745436907, -0.13302704692, 0.04369568080, 0.39088174701},
{-0.43854615092, -0.31986302137, 0.14428654313, -0.33058270812, 0.54068428278, -0.14165833592},
{0.15537804365, -0.45606482029, -0.42979627848, -0.45443862677, 0.48329406977, 0.47001910210},
{-0.30001327395, -0.18849568069, 0.30934244394, -0.10306745768, 0.38410264254, 0.45944109559},
{-0.03938586637, -0.26031717658, 0.20851054788, 0.08474415541, -0.09937330335, -0.44874730706},
{-0.40700203180, 0.50594615936, 0.36131411791, -0.09616357088, 0.33889478445, 0.13743223250},
{-0.38734999299, 0.01305628102, 0.35026991367, 0.10192620754, -0.47724241018, -0.47079390287},
{0.49178642035, -0.27491211891, -0.30665990710, -0.34960854053, 0.38578620553, -0.32524618506},
{0.52481192350, -0.36116358638, -0.08325281739, 0.49166309834, 0.36575895548, 0.22940155864},
{0.49719005823, 0.32727083564, -0.35047945380, -0.04324084520, 0.52613496780, -0.28169256449},
{-0.11087592691, 0.52347147465, -0.08819980919, -0.31672909856, 0.21267448366, -0.56576347351},
{0.33154034615, 0.28140318394, 0.52050542831, -0.46602085233, 0.37858229876, 0.06580847502}};
    
    const float depthwise_3_weights[12][9] = {{0.04911674932, -0.21439249814, -0.20315675437, -0.19665120542, 0.17895320058, 0.21637479961, 0.12398795038, -0.16863261163, -0.15329562128},
{0.18190240860, -0.14849555492, 0.07789691538, 0.21173897386, 0.14646385610, 0.13197439909, 0.12268789858, -0.22281689942, 0.17055244744},
{-0.00699990662, 0.08456210047, 0.18779951334, -0.16217668355, 0.03667695448, -0.18942590058, 0.06288685650, -0.20508287847, 0.18883818388},
{-0.18219709396, -0.08871202171, 0.20586961508, 0.05113511905, -0.04304061085, 0.17680995166, 0.10759387910, 0.15650412440, -0.00543298898},
{0.13417929411, 0.11520918459, 0.13683794439, -0.00869502034, 0.10542349517, -0.09256240726, -0.07884897292, -0.16484810412, 0.05257186294},
{-0.09314106405, -0.19253782928, -0.02091036364, -0.11835073680, -0.13124518096, 0.11251068860, -0.20128294826, 0.14737409353, -0.07604866475},
{-0.21619059145, -0.01355237234, 0.20780959725, -0.09979909658, 0.19392660260, -0.16363561153, 0.18499471247, -0.15129053593, 0.12188739330},
{-0.14043191075, -0.02369764820, 0.15582637489, 0.16411523521, -0.08476538211, 0.00882120151, 0.09852045774, 0.08620680869, 0.06020154059},
{0.10698347539, 0.20068044960, -0.01817601919, -0.22571687400, 0.06167897582, -0.05354227871, -0.07583078742, 0.06835810095, 0.16500042379},
{-0.09520585090, -0.11185950041, -0.10368970037, 0.20454080403, -0.03739741072, 0.19347253442, -0.08501136303, 0.00177914742, 0.12805519998},
{0.05314895883, 0.11121737957, -0.21730570495, 0.12002031505, -0.15919251740, 0.16349637508, 0.14416159689, -0.22437067330, 0.00875861291},
{-0.01733094454, 0.00333036110, -0.11985814571, -0.18907666206, -0.08475740254, -0.03860579431, -0.18605758250, 0.02024803683, -0.14767958224}};
    const float pointwise_3_weights[12][12] = {{0.42787325382, 0.05826069787, -0.11914462596, -0.41250199080, -0.08019798994, 0.13711798191, -0.16504776478, -0.09772633761, -0.33489459753, -0.10563793033, 0.07293140888, -0.04299807549},
{0.39189338684, 0.06456018984, 0.46774765849, 0.16157940030, 0.40015435219, 0.43429267406, 0.08442889899, 0.28435552120, -0.07871968299, 0.44463068247, 0.19426350296, 0.41173124313},
{-0.21436342597, 0.37511429191, -0.34372702241, 0.17883667350, -0.38208597898, 0.15322655439, -0.14936232567, 0.23568063974, -0.31490281224, -0.34464976192, -0.40097224712, -0.19522416592},
{0.23727537692, -0.27164483070, -0.29983133078, -0.05678210780, -0.39994433522, 0.00549898716, 0.21049596369, 0.35447362065, 0.34405887127, 0.17433974147, -0.18068966269, 0.40562820435},
{0.07426951081, -0.10896736383, -0.23048304021, 0.37361016870, 0.02223455161, 0.37609502673, -0.44918334484, -0.30886152387, 0.36229741573, -0.44936370850, -0.41707125306, -0.13438665867},
{0.06606005877, -0.07763143629, 0.32879289985, 0.09103725851, 0.49683439732, 0.00663118344, 0.22464974225, 0.12323379517, 0.03262240812, 0.21436950564, 0.32658395171, -0.07175445557},
{-0.10310496390, 0.36570069194, 0.01655379497, 0.44460988045, -0.38184785843, 0.19494205713, 0.36191514134, 0.49249562621, -0.43425261974, 0.31937420368, -0.22560389340, -0.05525124073},
{-0.44716101885, 0.48913419247, 0.25897699594, 0.49358218908, -0.15636566281, 0.25963735580, -0.24536763132, -0.19051390886, -0.28369003534, 0.48000597954, -0.05603370816, -0.13428962231},
{0.21425104141, -0.37387952209, -0.21626079082, -0.31632542610, -0.21120607853, 0.24005715549, 0.40721189976, 0.05488489941, 0.06530681252, 0.21004171669, 0.11420550197, 0.04775297642},
{0.27301400900, 0.16951917112, 0.14817766845, -0.13230362535, -0.08694281429, -0.37249007821, 0.10102996230, -0.22277322412, 0.05655222386, 0.34591016173, 0.24699172378, 0.44545650482},
{-0.17644897103, -0.25035455823, -0.44724693894, -0.30574560165, 0.02003519051, 0.20171944797, 0.34634608030, -0.30733579397, 0.49623852968, 0.34930357337, -0.12988144159, 0.34304070473},
{-0.24633921683, 0.44512411952, -0.36651620269, -0.26524180174, 0.42383712530, -0.30677285790, -0.37543985248, 0.43176653981, 0.12090272456, -0.05463529378, -0.22870662808, -0.09119129181}};
    
    const float depthwise_4_weights[12][9] = {{0.06820540875, 0.21816250682, 0.01030993275, -0.07244022191, 0.19616828859, -0.13063490391, 0.00799314864, -0.15651518106, 0.16472527385},
{-0.22290219367, 0.05681208894, 0.14985142648, 0.07688105106, 0.01391403936, -0.03926496208, -0.10164865851, -0.19687256217, -0.11249976605},
{-0.09655053169, -0.20065741241, 0.18376064301, -0.06911231577, -0.21539555490, 0.14216189086, 0.15930853784, 0.13795383275, -0.06867770106},
{0.20807918906, -0.13866011798, 0.18469533324, 0.13892251253, 0.16936272383, -0.20797815919, -0.15511982143, 0.07634495199, -0.06754160672},
{0.17242515087, 0.01063314360, -0.21156491339, 0.00784178451, -0.04936724901, 0.16168929636, -0.21370230615, 0.06931037456, -0.10944783688},
{0.15236078203, 0.06452707946, -0.05185572430, -0.00381987682, 0.05349784344, -0.19406275451, 0.03336795047, -0.22532629967, 0.02723629028},
{0.19259341061, -0.01595799252, 0.17225226760, -0.06729476899, -0.06227414310, -0.18848763406, 0.09770864993, -0.08096332103, -0.12365747243},
{0.19329220057, -0.10199101269, 0.08479529619, 0.22421737015, -0.20907036960, -0.20807310939, -0.09800972790, 0.12658552825, -0.02834648080},
{-0.04218976572, -0.04299094155, -0.00162021001, 0.21701313555, 0.07119084895, -0.14416219294, -0.04562059045, -0.03885022923, -0.07612650096},
{0.04542609304, 0.17226204276, 0.17067305744, 0.14719282091, -0.20822522044, -0.04549329355, -0.20821811259, -0.22279460728, -0.18915256858},
{-0.20086154342, 0.04302066565, 0.16034319997, -0.20558682084, 0.18000856042, -0.21734608710, 0.05918041244, -0.03074445948, 0.11678640544},
{0.19686457515, -0.12896758318, -0.07845854759, -0.02849771269, 0.17604739964, -0.16255065799, 0.17943024635, 0.15488336980, -0.01481744368}};
    const float pointwise_4_weights[24][12] = {{-0.27453127503, 0.00062248728, 0.16489122808, 0.29066431522, 0.15012645721, -0.27467134595, 0.17972710729, -0.21398085356, -0.36271303892, -0.03866057098, -0.34048324823, -0.12068230659},
{-0.06176315248, 0.38766622543, -0.19755184650, -0.00939272158, -0.24513100088, 0.13089385629, -0.21653530002, 0.09107727557, 0.17307519913, 0.15317329764, 0.38771021366, 0.19497431815},
{-0.18380582333, 0.38965111971, -0.24419246614, 0.11716331542, -0.28091922402, -0.09096049517, 0.08825450391, -0.31610143185, -0.28598690033, 0.31042280793, -0.06392630935, 0.39306461811},
{0.03452792764, 0.32515445352, 0.23584471643, -0.29084202647, 0.33736732602, -0.40543204546, 0.18659755588, -0.27058234811, 0.37920278311, -0.25858184695, -0.09385560453, 0.22765311599},
{-0.19116833806, 0.37552711368, 0.32071051002, -0.27814379334, -0.23988829553, 0.03910882771, 0.31779623032, 0.18449072540, 0.10458682477, 0.27871295810, 0.31839904189, -0.25045982003},
{0.05292923748, -0.23315063119, 0.07782491297, -0.28999140859, -0.05223881453, 0.39496600628, -0.21761696041, 0.00843898673, 0.30871164799, 0.30733695626, -0.08548791707, 0.13743403554},
{-0.36804205179, 0.30902186036, 0.21051330864, 0.09315182269, 0.17994755507, -0.23383800685, 0.21363162994, 0.18513630331, 0.37428933382, 0.12343465537, 0.08132406324, -0.02004623972},
{-0.39679646492, -0.22640882432, 0.20814889669, 0.34268137813, -0.22351324558, 0.27904498577, 0.10986163467, 0.27033159137, 0.28158301115, -0.37603005767, -0.27758377790, -0.24333369732},
{-0.17126147449, 0.10756811500, -0.09080602974, -0.40087687969, 0.27235886455, 0.21322003007, 0.31744489074, 0.27586075664, -0.33896675706, 0.33730208874, -0.07665746659, 0.02990712225},
{0.23712193966, -0.22330927849, 0.18809503317, 0.19733288884, 0.20736008883, 0.31820949912, -0.10881067067, -0.13439609110, 0.14864945412, 0.05926236883, 0.20232497156, -0.16953419149},
{0.40117758512, 0.12872575223, 0.26016941667, 0.06182375178, -0.28977000713, 0.26738226414, -0.37715455890, 0.35718366504, 0.33628100157, -0.08724504709, 0.09873226285, 0.03604968265},
{0.38874426484, 0.04232453555, -0.20539836586, -0.13310654461, 0.11180541664, 0.24445147812, 0.31093502045, 0.36444926262, -0.01793833077, -0.32740929723, -0.35624092817, 0.14808459580},
{-0.12490006536, 0.22870016098, 0.35569900274, 0.01923644915, -0.06714651734, 0.04938226566, 0.36759570241, 0.13631537557, -0.09884973615, 0.20865549147, -0.30349782109, -0.32258978486},
{0.36306983232, -0.00395207340, 0.03667634353, 0.19958515465, 0.14146493375, 0.18880805373, -0.09595344961, 0.09216737747, 0.15253750980, -0.02967966907, 0.23884648085, 0.12097308785},
{-0.14975449443, -0.19511424005, 0.17271862924, -0.17436501384, 0.31881263852, 0.10621167719, 0.06981187314, -0.26094201207, 0.15340881050, 0.28678449988, 0.31505861878, 0.31403917074},
{-0.33840787411, -0.03658906743, -0.10201559961, -0.22153720260, -0.22170002759, -0.00007446191, -0.24197611213, 0.38569113612, 0.02299644239, -0.11426392198, 0.05585093796, -0.24690996110},
{-0.37541863322, 0.24608857930, -0.15510688722, -0.36833688617, -0.22998662293, 0.30898240209, -0.08555185050, 0.28396609426, -0.08084687591, -0.23131805658, 0.11132145673, -0.26317942142},
{0.03281383216, -0.09968408197, -0.20722192526, -0.10325028747, 0.19549445808, -0.20456391573, -0.02651264518, 0.27600213885, 0.11445499212, 0.01700275019, 0.32449901104, -0.22843910754},
{0.17809647322, 0.23865686357, -0.00527597731, 0.07909446210, -0.34879377484, 0.22751238942, 0.26300927997, -0.40050464869, -0.38033729792, 0.04524315149, -0.16132985055, 0.35490095615},
{0.25692629814, -0.33325451612, 0.24114686251, 0.38999471068, -0.14043293893, -0.29623565078, -0.09824434668, -0.31013342738, 0.40785896778, 0.04262034968, -0.27209714055, -0.36532944441},
{-0.06180866435, -0.36132922769, 0.02810848318, -0.13041299582, -0.04526406899, 0.16571308672, -0.04315431044, 0.22215357423, 0.39991962910, -0.28619346023, 0.37245178223, 0.00598866260},
{-0.24683742225, 0.03780113533, 0.34650185704, 0.01176651474, 0.27962207794, -0.04347616807, -0.16788944602, 0.17404606938, -0.15867911279, -0.07509405911, 0.17668470740, -0.26043912768},
{-0.06954637915, -0.03244592249, -0.14147840440, -0.11566761881, 0.29271966219, -0.05750285462, 0.33660411835, -0.17630217969, 0.26813942194, 0.04535624385, -0.24232576787, -0.22048595548},
{-0.31158331037, 0.09214431047, 0.12410178781, 0.05084412172, -0.35921296477, -0.15188086033, 0.26370456815, -0.17993521690, 0.14723110199, -0.01763354428, 0.32619750500, -0.30967506766}};
    
    const float depthwise_5_weights[24][9] = {{0.13026352227, -0.03105338663, -0.04590956494, -0.01183532458, -0.01591139100, -0.01839158870, 0.08065781742, -0.13301175833, 0.05641205981},
{-0.16506464779, 0.06579785049, 0.11250381917, 0.13814002275, 0.04694817588, -0.09416782111, -0.06016314030, -0.06505802274, 0.15016886592},
{-0.06466618925, 0.02912830189, -0.03051297739, 0.02279160917, 0.07110552490, -0.15791487694, -0.03350193426, 0.14289408922, 0.01812105626},
{-0.13848438859, -0.08725985140, 0.12163035572, -0.06928129494, 0.07139228284, -0.06424113363, -0.13888522983, 0.07698703557, 0.16463004053},
{0.14044916630, 0.04509781301, 0.05796491727, -0.11191823334, 0.01694759913, -0.13845629990, -0.06366626173, 0.00408845907, 0.15953572094},
{0.08567706496, -0.10716427863, -0.07502003759, -0.11562211066, -0.11494890600, -0.15853609145, 0.08247264475, 0.16342434287, 0.06316071749},
{-0.01289558690, -0.00736829173, -0.10427564383, 0.11829330772, 0.05953849480, 0.08517329395, 0.14555548131, -0.06009827182, 0.13680344820},
{0.03721592948, -0.01755396836, -0.15708790720, -0.15230566263, 0.01702402346, -0.10960566998, 0.13236820698, 0.03877184168, -0.13819651306},
{-0.13419364393, -0.10428269207, 0.06963944435, 0.03021442145, -0.15089215338, -0.09853894264, 0.10097480565, 0.06254870445, -0.01169726904},
{0.09539432079, -0.11900020391, -0.12380619347, 0.05161793157, -0.13742655516, 0.01457093470, -0.02600901015, -0.03540061414, 0.10306236893},
{-0.02364511415, -0.03661181778, 0.04834385216, 0.14079104364, 0.01477238722, -0.14419031143, 0.00013837575, 0.09591420740, -0.06569837034},
{-0.07727354020, -0.09834300727, -0.10066257417, 0.06675399095, 0.15506428480, -0.05763188750, -0.15654593706, 0.03884249181, 0.14137610793},
{0.09491742402, 0.10430266708, -0.05980935320, 0.11131977290, 0.04385861382, -0.08320275694, -0.07970304042, 0.15204727650, 0.05237969384},
{0.01375820208, -0.13403224945, 0.10074821115, -0.14222024381, 0.12672361732, -0.15277214348, 0.10728582740, -0.16233991086, 0.03110681847},
{-0.10528496653, -0.01570639387, 0.02137904055, 0.10602220893, 0.08651402593, -0.08599594980, 0.15071515739, 0.02043350227, 0.07716951519},
{0.11709134281, 0.11838443577, -0.08611413836, -0.13616842031, 0.13061717153, 0.03675204143, -0.09229082614, -0.12599724531, 0.10271733999},
{0.01058771182, -0.02901173942, 0.15880134702, 0.01206577197, -0.08869913965, -0.09259803593, -0.15625019372, -0.02550158091, -0.06981844455},
{0.10667362809, 0.06280213594, 0.10815662891, 0.14940282702, -0.00307711656, 0.06814294308, 0.06864058226, 0.04950179532, 0.11098844558},
{-0.14550930262, 0.10546514392, -0.09346044064, -0.07399317622, -0.10082686692, -0.06888452172, -0.03860968724, 0.01708878390, 0.00202592998},
{0.05367017165, -0.12955814600, 0.11043491960, -0.06981956959, 0.15697719157, 0.05626145378, 0.02636695839, 0.11472420394, -0.12268351763},
{0.11687597632, 0.15553757548, 0.10385077447, -0.14491535723, -0.03435372561, -0.12408293784, 0.00184341194, 0.08345553279, -0.16000540555},
{-0.15406587720, 0.10352828354, 0.11138053238, -0.06091435254, -0.04839285463, -0.15771375597, 0.09941362590, 0.01362980530, -0.15712322295},
{0.08480501175, 0.11349180341, 0.06700042635, -0.04004966840, 0.12474960834, -0.04879619181, -0.03486752138, 0.09417799860, 0.07481390983},
{0.01944503374, -0.16133809090, -0.06582082063, -0.09639025480, -0.05542643741, -0.00307578105, 0.03153555095, 0.11057925224, -0.15390032530}};
    const float pointwise_5_weights[24][24] = {{-0.29922962189, -0.28180441260, -0.27113440633, 0.16492462158, 0.34734404087, 0.01086864714, -0.22483713925, -0.13139776886, -0.09794175625, -0.15170252323, -0.33718371391, -0.34767827392, -0.31116160750, -0.21822887659, -0.19860652089, -0.30697157979, 0.28500521183, 0.05537842214, 0.27854403853, -0.22157719731, -0.22185158730, 0.25665962696, 0.32619214058, 0.31950411201},
{-0.15264876187, -0.15330256522, -0.28167331219, 0.15556269884, 0.04133988917, -0.31115323305, 0.06008158624, 0.34960648417, -0.10025684536, -0.01177498139, 0.31114652753, 0.03973376378, -0.25157335401, -0.29361745715, -0.26726648211, -0.15367634594, 0.13938352466, -0.24129760265, -0.30742111802, 0.35083329678, 0.00380002568, -0.08933750540, 0.23630006611, -0.26643142104},
{0.19873651862, -0.18384097517, 0.07262531668, -0.29986929893, 0.26502650976, 0.13187670708, 0.26929995418, -0.16725981236, 0.27856099606, -0.26661235094, 0.25821480155, 0.32005047798, 0.22485885024, -0.22842057049, 0.12515369058, 0.18816618621, 0.02267896570, 0.25933998823, -0.30934676528, -0.29059934616, -0.08157899231, -0.02711199597, -0.18458130956, -0.04781672731},
{-0.05802609771, 0.02198552713, 0.01795709506, -0.33760741353, -0.28301975131, 0.30252194405, 0.02488765307, 0.29854401946, -0.20047861338, 0.11309254169, 0.27831923962, 0.13247798383, -0.13458961248, -0.06972449273, 0.07056093961, 0.13339412212, -0.32610616088, 0.23131096363, 0.03308111429, -0.02293501049, -0.32385498285, -0.28670069575, -0.14467969537, 0.26395660639},
{0.10150010884, -0.09135591984, 0.24369719625, 0.05074950680, -0.14485071599, -0.31731230021, 0.08848018944, 0.00153319759, -0.07219459862, 0.15335460007, -0.12028073519, 0.33894455433, 0.02026398480, 0.06361883134, 0.11725968122, 0.19330775738, -0.11416327953, -0.14864784479, 0.15674301982, 0.26339080930, 0.27867355943, -0.13751846552, -0.00999130495, -0.19980753958},
{0.20581486821, -0.02860292420, 0.24403408170, 0.04042303935, -0.02822852507, 0.13690958917, 0.26676806808, 0.23213988543, 0.09239911288, -0.00720029371, 0.24469913542, 0.17240238190, 0.07548876107, -0.22348923981, -0.14629682899, -0.01737200096, 0.22124555707, -0.13185888529, -0.25059735775, 0.28921547532, 0.33638542891, 0.22032546997, 0.33440297842, -0.30113926530},
{-0.01753737777, 0.04956874624, 0.30099254847, -0.19023866951, 0.32426577806, 0.12453071028, 0.27668473125, 0.10702911019, 0.10878434032, -0.21740844846, -0.34231886268, 0.16774511337, 0.34430879354, 0.18691411614, -0.08991586417, -0.22375367582, 0.19997468591, 0.22988119721, 0.10092547536, -0.12475538254, -0.26763689518, -0.28182470798, -0.26101917028, 0.04684419557},
{-0.12062297761, -0.16721242666, -0.22269158065, 0.32838711143, -0.25345245004, 0.01938417926, -0.03919641301, 0.26037582755, 0.32755297422, 0.00574288331, -0.12790593505, -0.33518916368, -0.06918355078, -0.31738859415, -0.32783222198, 0.06208131090, -0.21779294312, 0.24928739667, -0.06099304929, -0.14509886503, 0.14483945072, 0.21678228676, -0.31153151393, -0.22900481522},
{-0.09692031145, 0.00206752634, 0.20871661603, -0.07255694270, -0.22845260799, 0.03809232265, -0.11706933379, 0.08261056989, 0.11727362871, 0.19690850377, 0.21431756020, -0.14183370769, -0.02661617100, -0.19694077969, -0.25321346521, 0.28928393126, -0.01851443574, 0.22899702191, -0.32205367088, 0.23533290625, 0.27994406223, 0.22409678996, 0.32915371656, 0.10216715187},
{0.08647491038, 0.13899742067, -0.20907300711, 0.11001578718, -0.05137087405, 0.35289567709, 0.31764432788, -0.10004986823, 0.08238171041, -0.08677587658, -0.00214128289, 0.07452122122, -0.13217118382, 0.17794680595, -0.29747349024, -0.20195874572, 0.27875837684, 0.16065251827, 0.25504341722, 0.26396739483, 0.17485183477, 0.08804504573, -0.01949535869, 0.14946345985},
{0.27617418766, -0.11036302149, 0.32301285863, -0.32410451770, -0.29476675391, 0.19780087471, -0.05543413386, -0.14788483083, -0.27565595508, 0.12546700239, 0.03942310065, 0.32427120209, 0.13821873069, 0.05546678230, 0.25865828991, 0.31567281485, 0.29815989733, 0.01648744568, -0.12112772465, 0.31969815493, -0.23056285083, -0.02990954556, -0.07631966472, 0.13354471326},
{0.00729294866, 0.07692631334, 0.29633414745, 0.31332901120, -0.34703218937, 0.05201514438, 0.33953073621, 0.31002646685, -0.23659580946, -0.18643529713, 0.01040296815, 0.18140605092, 0.31616821885, 0.22218103707, 0.28396034241, -0.02511906065, -0.25352603197, -0.14375130832, -0.21310402453, -0.20153854787, -0.06400847435, -0.10547021031, 0.12510628998, -0.07871565968},
{-0.30010256171, -0.17556200922, 0.10035665333, -0.15299840271, 0.18600414693, 0.11700621992, -0.34842672944, -0.21566742659, 0.26183605194, -0.25026106834, -0.05745485798, 0.01999936253, 0.27740627527, -0.16977949440, -0.07196185738, -0.34474676847, -0.16339491308, 0.34792217612, 0.30670508742, 0.09275157005, 0.18614999950, 0.04809788615, 0.28077176213, -0.00462425128},
{0.11447376758, -0.31263673306, -0.17161224782, 0.30785447359, 0.28451892734, -0.12337452173, -0.17106398940, 0.09935107827, -0.01486497559, 0.14038795233, 0.22329829633, -0.10734716803, -0.31620776653, 0.16965946555, -0.31859555840, -0.29495155811, 0.09208344668, 0.19006522000, -0.19041430950, -0.33061832190, -0.35257786512, -0.21809086204, 0.15124814212, 0.27063807845},
{0.22126592696, -0.29193454981, -0.01191010419, -0.03970848769, -0.18854740262, 0.07614139467, 0.23191340268, -0.05484165251, -0.23375545442, 0.02542911284, 0.33451697230, -0.33581194282, -0.06344329566, -0.01357228495, -0.00807127077, -0.26121690869, -0.25308111310, -0.06098107994, 0.18659320474, -0.32626026869, 0.05409049243, 0.19468878210, -0.17923544347, -0.23484224081},
{-0.27667200565, -0.20881336927, 0.23116725683, 0.32174229622, -0.21327605844, 0.04529671371, 0.18152678013, 0.09988201410, -0.17851474881, -0.34007617831, 0.02556053922, 0.25258633494, 0.26485109329, 0.29717785120, 0.32766228914, 0.15753988922, -0.05582289770, 0.16826266050, -0.24397325516, -0.06771529466, -0.03141243383, -0.17142917216, -0.29129371047, 0.18138606846},
{0.01788892224, -0.11432325840, 0.33181059361, 0.34077063203, 0.27833446860, 0.09588817507, 0.22900891304, -0.31163239479, 0.04668509960, -0.31652697921, 0.03464123979, 0.33927679062, -0.19027239084, -0.00982821919, 0.11812174320, -0.13222926855, 0.14679448307, -0.06135669723, 0.01435815450, 0.24706953764, -0.15660637617, -0.24582037330, -0.22001349926, 0.01418437343},
{-0.07005009800, -0.07459952682, -0.05983095616, 0.26776376367, 0.33096179366, -0.22894090414, -0.03526725993, -0.04178526998, -0.15882772207, 0.16621339321, -0.29012936354, 0.01123618428, 0.04214023054, 0.23827458918, 0.27624735236, 0.12106461823, 0.25991696119, -0.04265305027, -0.22975842655, 0.19590203464, -0.15544094145, 0.12954118848, 0.09179183841, -0.08167352527},
{0.21091869473, -0.20396846533, -0.29018029571, 0.20891937613, -0.21579816937, 0.29960331321, 0.32501751184, -0.09582281113, -0.25240010023, 0.31524389982, -0.23216047883, -0.14188881218, -0.10770955682, -0.03516957909, 0.02147477120, 0.03224570304, -0.09530118853, -0.30967596173, 0.21765534580, -0.01989053190, 0.04025305063, -0.09392441064, -0.03639707714, 0.03349176422},
{-0.01165000442, 0.28627482057, 0.00423693936, -0.11910147965, -0.26272568107, -0.19789204001, 0.33177980781, 0.19245611131, -0.34248068929, -0.16045865417, -0.19772946835, 0.24441637099, 0.21983270347, -0.01324584987, -0.24036329985, -0.34507378936, 0.30687665939, 0.19218190014, -0.26299187541, 0.00789734721, 0.21353441477, -0.29041144252, -0.27790534496, -0.07465391606},
{0.15047387779, -0.07327875495, -0.07959143072, -0.33689841628, 0.15433228016, -0.09223315865, -0.31741452217, -0.30990871787, -0.01245072577, -0.25194829702, 0.21466828883, -0.23122252524, 0.11586063355, 0.21744082868, 0.29035088420, -0.04775599390, -0.25045937300, -0.22755824029, -0.30857071280, -0.30265828967, 0.12014298886, -0.11570221931, 0.10714586079, 0.28043788671},
{-0.26976978779, -0.15875405073, -0.11951933056, -0.12675495446, -0.00300337747, 0.16311559081, 0.28986153007, 0.29394301772, 0.02576815151, -0.02834726125, -0.11015675217, 0.03893171996, -0.16933971643, 0.21832670271, 0.29862630367, 0.26031628251, -0.30870148540, -0.04603977874, 0.28715869784, -0.28295600414, 0.29123058915, -0.21444950998, 0.10863928497, -0.29400494695},
{0.00172886369, 0.05926461890, -0.18571475148, -0.13393089175, 0.11771378666, 0.33957788348, 0.08820484579, 0.01011233311, -0.05754759163, 0.11743504554, -0.08632460982, -0.17017272115, 0.08124158531, -0.19134567678, 0.12487059832, 0.27423489094, -0.19186285138, 0.11037832499, 0.13112047315, -0.09302510321, 0.01952894405, -0.24878071249, 0.30770528316, 0.32783553004},
{0.01289479621, 0.00280389981, -0.22120067477, -0.30063933134, -0.09681614488, 0.16597273946, 0.22550101578, -0.31068655849, -0.06455414742, -0.11545745283, -0.34523075819, 0.21102625132, 0.15953119099, 0.24930568039, 0.20760540664, -0.25920462608, 0.30909040570, -0.21146488190, 0.19135478139, -0.22000277042, -0.01911448874, 0.18707825243, 0.05737325549, 0.05347087607}};
    
    const float depthwise_6_weights[24][9] = {{-0.13736513257, 0.12524534762, -0.11316075921, -0.07090529054, 0.07169946283, -0.01818813942, -0.13876964152, -0.15745395422, -0.05121749640},
{0.12281011045, 0.07177188247, -0.03218520060, 0.12250479311, -0.07304234803, 0.03697962686, -0.11760480702, 0.01970282011, 0.08712419868},
{0.11813169718, -0.01587248407, 0.07123371959, 0.15942206979, -0.06758116931, -0.02323338389, -0.09663217515, 0.13900782168, -0.04696912318},
{-0.09930842370, -0.08513206989, 0.01754995808, 0.10604115576, -0.09795574844, 0.10177931935, 0.01863791421, 0.06682153791, 0.07747858763},
{-0.10421777517, 0.07546166331, 0.07300023735, -0.07510630041, -0.02382420562, 0.16403223574, 0.01404546574, 0.00395045150, 0.05209828913},
{0.01072834618, 0.10869673640, 0.15696734190, 0.07528164983, 0.06210534647, 0.04755128920, -0.02279314026, 0.11357912421, 0.01726432703},
{0.14844623208, -0.07254776359, -0.01247257087, 0.12582117319, -0.11437624693, -0.12141856551, -0.03296754882, 0.06830600649, 0.01573791541},
{-0.01617493853, -0.06021536887, -0.15187913179, 0.03056304716, -0.06381765753, 0.03692813218, -0.11621684581, 0.01825467125, 0.07111389935},
{-0.04715714231, 0.07905782759, -0.00471289223, -0.04635893181, 0.12964387238, -0.08040322363, -0.04060578346, 0.01437304169, -0.11296654493},
{0.08574203402, 0.10627722740, -0.00519138854, -0.11576378345, -0.02548394538, -0.01172390766, -0.13855515420, -0.09559144080, 0.07719000429},
{-0.03595052287, 0.09536242485, 0.00516662840, 0.01455914136, -0.09421333671, -0.02407788485, -0.01623599976, -0.00554947788, 0.14396272600},
{-0.00738304621, 0.15191467106, 0.08079113811, 0.12534883618, 0.08207774162, 0.11127968878, -0.01295323949, 0.03580805659, 0.01795225404},
{-0.09371237457, -0.08308865875, -0.07232441008, 0.08472989500, 0.08336655051, -0.10845351964, -0.00154237240, -0.02048891410, 0.11508732289},
{-0.05900301412, -0.07722911239, -0.11839534342, 0.07247912139, -0.07884369791, 0.00409665145, -0.12004931271, -0.09298922867, -0.00047674720},
{-0.01061952114, 0.03259680420, -0.10303802043, -0.08030722290, -0.10537078232, -0.15450005233, -0.00039690713, -0.10820668936, 0.03848105296},
{0.11146106571, 0.03452036157, 0.13098353148, 0.13013829291, 0.02910554968, 0.00543263834, -0.11198730767, 0.10015773773, -0.01434015855},
{0.14544795454, -0.06790883094, -0.09387369454, 0.12125131488, 0.14043363929, 0.12270490825, 0.09943813086, -0.09022972733, -0.04657266289},
{0.15893413126, 0.05249301717, 0.10002207011, 0.14946359396, 0.09518849850, 0.09332293272, -0.15124984086, 0.01299438067, -0.08344710618},
{-0.03793484345, -0.12951061130, -0.08333623409, -0.00659906026, -0.06311028451, -0.13163018227, 0.02190747485, 0.05573928729, 0.08932940662},
{-0.12830285728, -0.02914725803, 0.14895550907, 0.11025385559, 0.14181089401, -0.05643536896, 0.02908871323, -0.01863268949, -0.03524971008},
{0.01397282537, -0.05639302731, -0.09368109703, 0.03109765239, 0.15176379681, 0.13742752373, -0.09527634829, 0.00366469100, 0.07901968807},
{0.15110507607, -0.02737654746, 0.06417869031, 0.02524860203, 0.13670299947, -0.03620540723, 0.01159537584, 0.16092696786, -0.16100661457},
{-0.13028734922, -0.04168250039, 0.11069482565, -0.12854589522, -0.08938715607, 0.14827361703, 0.12518335879, 0.01436436549, -0.10716731101},
{0.10237651318, -0.09350757301, -0.16315971315, -0.15612195432, -0.14397035539, -0.07865823805, -0.09519691765, 0.15719205141, 0.08630537987}};
    const float pointwise_6_weights[48][24] = {{0.18021285534, 0.25617459416, 0.11294804513, -0.26682454348, 0.18063232303, -0.11892646551, -0.26633095741, -0.10153992474, 0.18242651224, -0.08380752057, -0.26273363829, 0.02972206846, 0.23757766187, 0.21206253767, -0.19781753421, 0.25581589341, -0.04127632082, -0.18277817965, -0.19258978963, 0.05428654328, 0.25319376588, -0.22518666089, 0.26973113418, 0.09272982180},
{0.14105145633, 0.21448540688, 0.04481239617, 0.22417148948, -0.02216683514, 0.25613367558, -0.15933673084, 0.06322508305, 0.01671200991, -0.24962145090, 0.01030588988, -0.24190533161, 0.08313430101, 0.06719060242, -0.12608125806, 0.15895521641, 0.16870991886, 0.01771924831, 0.00762037234, 0.20445753634, -0.09110165387, 0.06420297176, 0.06718529016, -0.00674041035},
{-0.26949036121, -0.22181800008, 0.25260171294, -0.08047034591, -0.14000397921, -0.01620776579, -0.22639694810, 0.10996738821, -0.00927959848, -0.03819199651, 0.28381299973, 0.21375912428, 0.10691992939, -0.06072570011, 0.11072011292, -0.04435528442, -0.17721717060, 0.28095346689, -0.18504372239, -0.02746099979, 0.25878834724, -0.21559447050, -0.26195943356, 0.01393705327},
{0.06241855025, -0.26341328025, -0.15261782706, 0.19254308939, -0.05010778457, -0.02378217131, -0.18511047959, -0.11940807104, -0.21794053912, -0.27396291494, -0.13254693151, -0.20053669810, 0.06581363082, 0.13030818105, 0.04131004214, 0.00953490846, -0.18118599057, -0.08642794937, -0.05970448256, -0.16179680824, 0.24223643541, 0.16105401516, -0.15515390038, 0.04199388623},
{-0.19561667740, 0.24451053143, -0.12082186341, -0.00206086552, 0.03981990367, 0.02044678666, -0.27339524031, -0.05196757615, 0.14169155061, -0.09676773846, 0.17812547088, 0.21534630656, 0.19014090300, -0.20034757257, -0.03150175512, -0.00833394658, -0.19954313338, 0.08597119153, -0.01268270425, 0.03142732009, 0.16897903383, 0.07820427418, 0.23129789531, 0.04324854910},
{0.06576322764, -0.11120111495, 0.10145922005, -0.14776931703, 0.11848983169, -0.08177287132, 0.17571680248, 0.04867928848, -0.08467223495, 0.05596233904, -0.05983392149, 0.08768087626, -0.19640462101, 0.10367484391, 0.07074682415, -0.04459672049, 0.13715130091, 0.07989569753, 0.20766398311, -0.23631623387, 0.09006504714, -0.23397135735, 0.20987302065, 0.08381570876},
{0.14148159325, 0.19236060977, 0.20677638054, -0.07643768936, 0.22620016336, 0.00679710740, -0.02186218277, 0.14552873373, -0.25566110015, -0.16817393899, 0.24456065893, 0.27301841974, -0.02473929711, 0.22521954775, 0.02493659034, -0.05461770669, 0.29000788927, -0.21159711480, 0.17523287237, -0.25067803264, 0.14182685316, -0.24453625083, 0.17369392514, 0.24467667937},
{-0.12125582993, -0.07285661995, 0.10694410652, 0.11177254468, 0.03967168555, -0.26004701853, 0.11480658501, -0.12827822566, 0.03454237059, -0.10370601714, -0.00212709722, -0.15517680347, -0.00437159324, 0.13133519888, 0.02183145285, 0.08643264323, -0.11441461742, 0.06728721410, -0.20597040653, -0.03763097525, -0.04180323705, -0.12679891288, -0.00062147941, -0.01490729861},
{0.05134639144, 0.20737305284, -0.09791600704, -0.14202997088, -0.10622415692, -0.22406494617, -0.14250329137, -0.04865886644, -0.24248488247, -0.10042364895, 0.16424988210, 0.06820818037, -0.05864003301, 0.27921473980, -0.12963306904, -0.22856231034, -0.09060286731, -0.03729873896, -0.17946659029, -0.24221184850, 0.16528809071, 0.10106598586, -0.28596898913, -0.24673189223},
{0.17588077486, -0.08357257396, -0.05056127906, 0.13013127446, 0.00433077337, 0.18282115459, -0.18053162098, -0.17505134642, 0.04547692463, -0.17849272490, 0.21811318398, 0.19212701917, 0.14104159176, -0.22412568331, 0.15688069165, 0.10880485922, -0.05839759856, 0.03475131467, -0.01398414280, -0.16840827465, 0.05571833998, 0.14640276134, 0.01492789574, -0.26602363586},
{0.16098746657, 0.17034958303, 0.00360905239, -0.20198266208, -0.27921023965, 0.01423025224, -0.01190955844, 0.07524952292, -0.13326969743, 0.19008322060, -0.25767406821, 0.25355809927, -0.28328952193, 0.06249398366, -0.11586651206, -0.24414166808, 0.08172781020, 0.01576394960, 0.23882932961, 0.28705886006, 0.11904762685, -0.00775360130, -0.12214197218, 0.02240425162},
{-0.18358366191, 0.18503449857, 0.09446013719, 0.23133054376, 0.22231417894, 0.15773934126, -0.10614068806, -0.27333584428, 0.18213254213, -0.07339879870, 0.10197418928, 0.22178177536, 0.20725306869, 0.16702204943, -0.12236980349, 0.27419099212, -0.10480695963, -0.13327397406, 0.19323045015, 0.04012250528, 0.00088344468, -0.00047807419, -0.12543739378, -0.09141716361},
{-0.05672213435, -0.02866184711, -0.24281744659, 0.00390645396, 0.04491451010, -0.18580588698, -0.25644207001, 0.04682612419, -0.08215515316, 0.21791803837, 0.00203021034, -0.20063193142, -0.06602066755, 0.13182067871, -0.11592529714, -0.13069714606, -0.19867262244, 0.27785968781, 0.18886628747, -0.20735909045, -0.08042006195, 0.05782444030, 0.05229060724, -0.25264126062},
{-0.01262344886, 0.25434839725, 0.15706643462, -0.17065335810, 0.07436533272, 0.10049171001, -0.24539281428, -0.02690875903, -0.00148361723, 0.04811688140, 0.18074792624, -0.06460624933, -0.12044379860, 0.06084900722, 0.14288520813, -0.16978521645, -0.07716693729, -0.28756362200, -0.21948432922, -0.13749623299, 0.03544972092, -0.18829220533, 0.10580529273, -0.07317346334},
{-0.23113884032, 0.07834079117, 0.20492792130, -0.14139774442, 0.10537520796, 0.16470065713, 0.28340253234, -0.02177334577, 0.19532664120, -0.09031914175, -0.14842383564, -0.23882851005, 0.11297318339, -0.17251726985, -0.18813546002, 0.20333243906, 0.22223396599, 0.03332002461, -0.26851972938, 0.22919036448, 0.17455123365, 0.18085305393, 0.03903683648, -0.06806101650},
{-0.16465616226, 0.16011697054, -0.06190301478, 0.08166178316, 0.13406901062, -0.07494113594, 0.04165351391, 0.17007720470, -0.10007691383, -0.09051078558, 0.01216036547, -0.25237694383, -0.15272450447, 0.15188780427, 0.07838627696, -0.17486484349, 0.01841722801, -0.23038108647, 0.03432286531, 0.17179811001, 0.27676117420, 0.09044697881, -0.27053231001, 0.11611917615},
{0.00794903841, 0.11069578677, 0.08617622405, 0.04166477174, -0.24606315792, 0.02687535249, 0.19874434173, -0.20498429239, -0.05138297006, 0.07173144817, -0.10411212593, 0.27653595805, 0.14909139276, -0.14072901011, -0.19425745308, 0.28654125333, -0.04084226862, -0.10052577406, 0.19367174804, 0.13314953446, 0.26068383455, -0.10729505867, -0.04790252075, 0.26015263796},
{0.03362235427, 0.14000713825, -0.10703799129, 0.08003789186, 0.03233534098, -0.21962559223, -0.07449129224, -0.03843885660, -0.28197777271, -0.03687408566, -0.10652840137, -0.18133217096, -0.00855019689, 0.01870614290, -0.24787563086, -0.25108641386, -0.01824274287, -0.08302758634, 0.26188313961, -0.25690183043, -0.14828002453, -0.04758065939, -0.27472984791, 0.12169942260},
{-0.23086114228, -0.06695783883, 0.21295703948, -0.17476408184, -0.28602534533, -0.26455906034, 0.09219468385, 0.06328311563, 0.16591933370, 0.10376935452, 0.06630649418, 0.11934848130, -0.28717115521, 0.20677593350, 0.15802586079, -0.03628562763, -0.01413179748, 0.05353086814, 0.19862428308, 0.13388393819, -0.18205045164, 0.21768642962, -0.05018201098, -0.23443865776},
{0.28828257322, -0.20953580737, -0.14311577380, 0.18232123554, -0.16985578835, 0.09759967774, -0.03776453435, 0.26763704419, -0.23322695494, 0.19252054393, 0.17076319456, -0.07276040316, -0.00170869939, -0.18308226764, -0.23038740456, 0.17808444798, -0.00239982666, -0.05791413784, -0.18313270807, -0.10591787100, 0.15596485138, 0.04240372032, 0.13336962461, -0.27741843462},
{-0.17874509096, 0.05987721682, -0.22160318494, -0.10470705479, -0.16922846437, 0.18296587467, -0.05835881829, 0.18324841559, 0.02000191621, -0.20695152879, 0.16018316150, -0.04781833291, 0.06184531376, 0.21812760830, -0.19738709927, 0.17492502928, -0.14645712078, 0.18814729154, -0.07555121928, -0.14774560928, -0.25558429956, -0.01230147853, 0.23808807135, 0.25027021766},
{-0.04149574786, 0.14302012324, -0.14041164517, -0.21741117537, -0.17691886425, 0.21199166775, 0.20299021900, -0.27222198248, -0.05704149604, 0.19584500790, 0.13360978663, 0.07857541740, -0.22425183654, -0.09465084970, 0.01488655712, -0.27584090829, -0.01859409921, -0.14220085740, 0.01269892231, 0.13099558651, -0.17292870581, -0.20697699487, -0.24033769965, -0.27478826046},
{-0.09007582814, -0.25556752086, 0.13304856420, -0.26334896684, 0.01019786205, -0.23487015069, 0.19297769666, -0.04718572646, 0.19878308475, -0.21048046649, 0.10287450254, 0.16854885221, -0.00442402158, -0.00219214451, -0.11189849675, 0.07744791359, 0.00615174277, -0.03082521819, 0.20410268009, -0.04911889508, -0.08674275875, -0.09589099139, 0.03668314219, 0.11590337008},
{0.00961901899, -0.22572338581, -0.22456076741, -0.08637522161, 0.25545069575, 0.21018277109, -0.04557619244, 0.19686050713, -0.26712304354, -0.06921940297, 0.01370216347, -0.12212220579, -0.00803384557, 0.08414981514, -0.21752573550, 0.24343007803, -0.08048420399, -0.21481840312, 0.28136160970, 0.25633522868, 0.25775140524, 0.28651395440, -0.18736943603, -0.22728201747},
{-0.05588026345, 0.20022821426, 0.08860657364, -0.01962276734, -0.10461017489, -0.26548352838, 0.05574148521, 0.06534045935, -0.08912050724, -0.22273471951, -0.18270929158, -0.04064822942, 0.24394452572, -0.28649100661, -0.02870380878, -0.17072637379, 0.17031654716, -0.14502742887, -0.11991184950, 0.07289153337, 0.24715636671, -0.25338840485, -0.15960292518, 0.07652037591},
{-0.09317898750, 0.21801847219, 0.28277027607, -0.13187634945, -0.03968214244, 0.08771164715, 0.12591631711, -0.26844269037, 0.19679288566, 0.23555909097, 0.02831698768, 0.19873976707, -0.10436617583, 0.01399012841, 0.12494240701, -0.02579337172, -0.12847790122, 0.21023006737, 0.27415016294, -0.13126598299, -0.12564642727, 0.07484245300, 0.04842403531, 0.00118336524},
{0.17541126907, -0.27661144733, -0.04965520650, -0.18517985940, 0.01431825012, 0.09181457013, -0.22216327488, -0.03067288175, -0.08379273862, -0.02909902669, -0.19797676802, 0.20317219198, -0.24361039698, 0.16426883638, 0.26897740364, -0.22194217145, 0.22203890979, -0.17212958634, -0.12285385281, -0.12938649952, 0.25990036130, -0.10358121991, 0.16463288665, -0.07087575644},
{-0.09049199522, 0.02763576247, -0.18104743958, 0.17854312062, 0.13086345792, -0.18157380819, -0.02121520974, 0.11679675430, -0.19780755043, 0.26780694723, 0.04823229462, -0.17620728910, -0.05378965661, -0.00488910777, 0.18148222566, 0.00204302976, 0.27787643671, 0.20432564616, 0.11805175990, -0.27248370647, 0.23444406688, -0.16861395538, -0.13702727854, -0.18270057440},
{-0.15791395307, 0.01298685651, 0.12047787011, 0.20595940948, -0.04137672111, 0.10801870376, 0.17582245171, 0.04614116624, -0.03245151415, 0.00223863614, -0.02677905932, -0.03945136815, 0.28532356024, 0.16047823429, -0.23464882374, 0.10804750770, -0.08731231838, -0.05787687749, 0.24562776089, 0.26259589195, 0.01700732298, -0.24435135722, 0.19391398132, -0.28608796000},
{-0.13119566441, -0.09869772941, 0.21777337790, 0.11253654957, -0.06437082589, 0.21151164174, 0.17254373431, 0.13137084246, -0.22302305698, -0.24116557837, -0.20925259590, 0.17964711785, 0.27547341585, 0.23910671473, 0.26136317849, 0.17983072996, 0.14122311771, 0.10235435516, -0.16867384315, 0.23151043057, 0.06743673980, 0.14475066960, 0.01155266911, -0.12625910342},
{0.09277945012, 0.03270253167, -0.14842997491, -0.09598386288, 0.28017759323, 0.19701281190, -0.00021679107, 0.19197311997, 0.17770366371, 0.11430022120, 0.15397547185, -0.28881406784, 0.23647773266, 0.18521910906, 0.22450447083, 0.17779490352, 0.21182422340, -0.11307805777, 0.00040659605, 0.21143321693, 0.01605909690, -0.05180350319, 0.09827226400, 0.02077594213},
{0.09665289521, -0.27449762821, 0.08321797103, 0.07132728398, 0.05855660886, -0.16931612790, -0.26085400581, -0.17356136441, 0.14963072538, 0.02727501467, 0.19856981933, -0.20043678582, 0.17404535413, 0.15761318803, -0.24822753668, 0.17328941822, -0.21589785814, -0.26671773195, -0.06866432726, -0.05620088056, -0.22734162211, 0.07903183997, -0.26348397136, 0.02639238909},
{-0.12549361587, 0.24356204271, -0.22548663616, 0.07748141885, -0.02169746161, -0.20666436851, -0.06082971394, -0.12214650214, -0.10161426663, -0.26783964038, 0.07097995281, -0.19124627113, -0.16201016307, 0.04201737046, -0.19218926132, -0.28502908349, 0.00052326918, -0.01422649622, 0.22675049305, 0.04733157158, 0.13165551424, -0.20703059435, -0.06466555595, -0.26369449496},
{0.13570785522, -0.28305068612, -0.07559323311, -0.05103425309, -0.22013600171, -0.12452504784, -0.20704475045, 0.23968335986, -0.24145753682, -0.00806486886, 0.14933787286, 0.00842185877, 0.24759881198, 0.24699923396, -0.28291186690, 0.24461039901, -0.00903477520, 0.08939658850, -0.01846255921, 0.25648927689, 0.26665478945, -0.01440805849, -0.27841395140, 0.11958803982},
{-0.26436218619, 0.11364075541, -0.14140057564, 0.16983446479, -0.17661109567, 0.22051972151, 0.23768764734, -0.09318485856, 0.24019217491, 0.01398810744, -0.12176287174, 0.20017817616, -0.18037618697, -0.09609597921, -0.26427972317, 0.26839041710, 0.05467635393, 0.12654182315, -0.10742272437, 0.11624127626, -0.09795288742, 0.16932612658, 0.25278186798, -0.25014433265},
{0.21979777515, 0.24172377586, -0.22351671755, 0.25772821903, -0.01195106748, -0.28237995505, -0.09871208668, 0.25727048516, 0.21889917552, -0.00864756200, -0.20406088233, 0.11757493019, -0.27994474769, 0.28769326210, -0.00503997039, -0.25593894720, -0.18427094817, 0.27379700541, -0.15418788791, 0.19652958214, -0.16628837585, 0.15663677454, 0.13874347508, -0.15375165641},
{0.27695333958, -0.23745581508, 0.07699734718, -0.15461905301, 0.14758077264, 0.19516830146, -0.21907941997, -0.00072957302, -0.24305836856, 0.25118818879, 0.14748983085, -0.25802072883, -0.00719909975, -0.12394751608, -0.15626928210, 0.22574132681, -0.23442500830, 0.20649446547, 0.13424719870, 0.24461518228, 0.15827786922, -0.06190381944, 0.20473586023, -0.14631818235},
{0.22133708000, -0.02460884117, 0.17868210375, 0.00126512419, -0.07564070076, 0.25566071272, -0.13534978032, -0.06031243876, -0.28369268775, -0.14730635285, 0.11695448309, 0.11076403409, -0.02016075328, -0.05289603770, -0.22384281456, -0.27829861641, -0.23309563100, 0.09514559805, -0.23531723022, -0.13464282453, -0.19686573744, -0.11071742326, -0.10955639929, -0.16332945228},
{-0.00476348400, -0.07434944808, -0.06515983492, -0.11905609071, 0.05980824679, -0.18148565292, 0.09800897539, -0.03833737969, 0.12184697390, 0.17932686210, 0.05527509004, 0.03571932018, 0.18391147256, -0.00550314784, -0.22847324610, -0.09373481572, -0.25427076221, -0.21804672480, -0.22232747078, 0.13184699416, 0.08234664798, -0.18277028203, -0.08820368350, 0.19344669580},
{0.16108654439, -0.16189244390, 0.11260260642, -0.09120447189, 0.23876126111, 0.16145959496, -0.14236564934, 0.21639153361, 0.10895570368, 0.04839737341, -0.01011826191, 0.10877466202, -0.00738254981, 0.25320643187, -0.17976103723, -0.02544524148, 0.07737392187, 0.07003059983, -0.20342372358, 0.26350647211, 0.07861128449, 0.28699731827, 0.15143615007, -0.14032304287},
{-0.18963341415, 0.23440268636, -0.18988232315, 0.00989359152, 0.28750723600, -0.19722405076, 0.01621687040, 0.07781886309, -0.21026557684, 0.01459038071, 0.17968565226, 0.24489679933, -0.24670451880, -0.13152755797, -0.20743252337, -0.14447404444, -0.15370330215, -0.16340763867, -0.06282812357, 0.24445290864, -0.22071443498, 0.27536231279, -0.08392556012, 0.20488426089},
{-0.05673006177, -0.03041536175, 0.11763476580, -0.24541233480, 0.12649463117, 0.00579426950, -0.08888939023, 0.08529771864, 0.04371139035, -0.17123110592, 0.23062928021, -0.06952100992, -0.14734454453, -0.08013831079, -0.23488456011, -0.02522691898, -0.17952997983, 0.16940137744, 0.02397957258, -0.25898587704, -0.02315485850, 0.17564153671, -0.06830200553, 0.13237556815},
{-0.04835563153, 0.07208713889, -0.09050407261, 0.24501250684, -0.17768740654, -0.05482760072, -0.19210337102, -0.19688475132, -0.28590917587, 0.24344769120, 0.22081752121, 0.20819343626, 0.19140762091, -0.23459623754, -0.05870584026, 0.16916282475, 0.11265963316, 0.00191869505, 0.25460112095, -0.24031892419, -0.23272891343, 0.03458885476, 0.07670760900, -0.20246411860},
{-0.25544157624, 0.13776488602, 0.26518565416, 0.06401732564, -0.00646119937, 0.11598646641, -0.23561358452, 0.13278642297, 0.08415755630, -0.04267200083, 0.12428502738, -0.27885758877, -0.11340966076, -0.28861573339, 0.26862931252, 0.24223326147, -0.10358374566, 0.22703547776, -0.19821962714, -0.04366351292, 0.03346187994, 0.00066233001, 0.07538917661, -0.12558525801},
{0.07144475728, -0.13952337205, 0.16043466330, -0.16603659093, -0.14190310240, 0.09280896187, -0.10167150944, 0.12255268544, 0.15342360735, -0.10436507314, -0.20478823781, 0.07421849668, 0.10070852190, -0.08235754818, 0.05944641307, -0.12418042868, 0.16294515133, 0.13471560180, -0.27202805877, 0.03142947331, 0.13548950851, 0.17127755284, 0.14539627731, 0.07086368650},
{0.26832133532, 0.12508656085, 0.00072261988, 0.09236058593, 0.27964299917, -0.06608932465, -0.00013473281, 0.24452954531, 0.17023013532, 0.22752228379, 0.17016962171, -0.01998539641, 0.08768855780, -0.17151606083, -0.11159148067, -0.14898765087, -0.09925244749, 0.03560870141, 0.09078960866, 0.04298746213, 0.00775664160, -0.12668356299, -0.14682006836, -0.14014968276},
{0.06664742529, -0.17251418531, 0.15186394751, -0.18650160730, -0.25668033957, 0.09408547729, 0.19603793323, 0.08950740844, 0.21848663688, 0.14849524200, 0.05392864347, 0.05797867849, -0.05943223462, 0.04592068121, 0.15004894137, -0.01530572679, -0.04448324069, -0.27544185519, 0.19300895929, 0.24271559715, -0.26109531522, 0.19005386531, -0.24852186441, 0.20782685280},
{-0.13481272757, 0.18004749715, 0.00664322963, 0.09161705524, -0.20286773145, 0.26494607329, -0.04355838895, 0.16636538506, -0.02454511821, 0.14289143682, -0.07630580664, 0.11867097765, 0.28055611253, 0.01364039164, -0.27180379629, -0.14892466366, -0.00358480960, 0.19443975389, 0.04025020823, -0.16103273630, 0.25402876735, 0.02032089047, -0.18410608172, 0.10291162133}};
    
    const float depthwise_7_weights[48][9] = {{-0.08323776722, -0.01935090497, -0.03335746378, 0.06490955502, -0.02516819909, -0.06699891388, -0.03244725615, 0.06166451797, 0.01965419389},
{0.11134332418, -0.02176936716, -0.01670623384, -0.03144655004, 0.06799689680, 0.11189665645, 0.06548483670, -0.08046931028, 0.06565537304},
{-0.10516560078, 0.04357640073, -0.02852205746, -0.09511525929, 0.09416619688, 0.08176768571, 0.10014826059, -0.02473360300, -0.07197871804},
{0.00401763106, -0.04854515195, -0.06402426213, 0.09695915878, 0.06488074362, 0.02788990922, 0.08489230275, -0.02092257887, 0.07953067124},
{-0.07539715618, 0.04468298331, 0.05565408617, -0.02041905560, 0.06520220637, -0.07250805944, 0.05340555683, 0.06349147856, 0.01866615377},
{0.05476750433, 0.01111618988, -0.02747884020, 0.09560156614, -0.05911911651, -0.06495757401, -0.04960327595, -0.07728195935, -0.00469102152},
{-0.01056440081, -0.04003700241, 0.01212305669, 0.04616884887, 0.06014876813, 0.06701088697, -0.10507500172, 0.05173100531, 0.11579728127},
{0.05123673752, 0.01497316640, 0.01244512200, 0.05290536582, 0.06269955635, 0.04024373367, -0.00112873735, 0.05479990318, -0.06474058330},
{-0.05064373836, -0.09762272984, 0.07253844291, 0.09791501611, -0.11086155474, 0.06254929304, 0.04356779531, 0.05081497878, -0.05834522098},
{0.10769969225, 0.09109843522, -0.04735504463, 0.01968251355, 0.03929809481, -0.03804704174, -0.03753734380, -0.02467204444, 0.07335904986},
{-0.10204768926, 0.03116046265, -0.05910975486, 0.02905054018, -0.00646639289, -0.00118071167, -0.01484685205, 0.09205033630, 0.06158557534},
{-0.01955304481, -0.09006801993, 0.10175489634, -0.07479146123, 0.03977342322, -0.01158080343, 0.05076318234, 0.05043397099, -0.02552132308},
{-0.02971481532, -0.08279828727, -0.02478957362, -0.07627213001, -0.02092688531, 0.08770544827, -0.08225443959, 0.04979654774, 0.04966660962},
{0.11651968211, 0.10840059072, 0.03452433273, 0.10016757250, 0.05041705444, 0.03664536029, 0.10238454491, -0.08153047413, 0.07418654859},
{0.06117721274, 0.06903505325, -0.10200221837, -0.05460728705, 0.04477097094, -0.03894768655, 0.03784290701, 0.05048484355, -0.05592510477},
{-0.02295855433, -0.02403125912, 0.01693282276, 0.09912325442, 0.09494718909, -0.10454448313, 0.07869899273, -0.03211467713, -0.01655939966},
{-0.07974434644, 0.05785225332, 0.10733576864, -0.07490823418, 0.09175711870, -0.05714481696, 0.00333123002, 0.08924417198, -0.03236425295},
{0.07306948304, -0.04149942845, -0.06674385071, -0.10977426171, -0.07887198031, -0.09325721860, -0.11589467525, -0.01351832598, 0.11129461229},
{-0.02384266816, -0.07179775834, -0.10458349437, -0.09478125721, -0.09372305870, 0.07845069468, 0.02410505712, 0.02775376849, 0.05784360692},
{-0.11234762520, 0.09136509895, -0.00471980078, -0.04002872109, -0.07051606476, 0.02735553123, 0.10745071620, 0.01040128618, 0.09143479168},
{-0.00282907672, 0.04612358287, 0.00987111591, -0.09628658742, -0.10170358419, -0.11101373285, -0.08007664233, -0.09111020714, 0.09409534931},
{-0.08442616463, -0.10484941304, 0.03235237673, 0.00968981721, -0.04543508217, -0.01569180191, -0.07103068382, 0.06918502599, -0.00827173609},
{0.11379937083, -0.10397513956, 0.06343068928, -0.11678510904, -0.07775913179, 0.11537137628, -0.02214297466, -0.06315220147, 0.10546387732},
{0.02816676721, -0.00913824793, 0.06425213814, -0.02462112159, -0.09423405677, -0.01607748121, -0.03054939583, 0.01937830076, 0.09206615388},
{0.01849347353, -0.02355841547, -0.02555458434, 0.03752394021, 0.00473893993, 0.10042906553, -0.03263400123, 0.09634882957, 0.10080628097},
{0.10623418540, -0.06316845119, 0.07733295858, 0.06623256207, -0.08699303865, -0.06815926731, 0.08451541513, 0.04166511446, 0.04877480492},
{0.00824424252, 0.10760124773, 0.02348371223, 0.05931353197, -0.08217184991, 0.07011073083, 0.03168506548, 0.10754594952, -0.04372679815},
{-0.08215777576, -0.03950103372, 0.06681983173, 0.08403603733, 0.11108502001, 0.01214085985, 0.07757744193, 0.08037059754, -0.06637033075},
{0.08655634522, 0.00436072424, 0.06783422828, -0.10193151236, 0.08234583586, -0.01027118135, 0.00317957951, 0.08913954347, 0.00591649441},
{-0.07393066585, 0.02748869359, -0.00749187777, -0.05065891519, 0.06629152596, 0.07948252559, -0.03181860968, 0.04218745232, -0.09234923124},
{-0.11316194385, 0.06382901967, 0.06118308008, -0.08458339423, 0.09216389060, -0.09445330501, -0.09250275046, -0.01095103007, -0.10357969999},
{0.08554198593, -0.01868122816, -0.01291649789, -0.05989807844, -0.07914904505, -0.05996590853, 0.01768205687, 0.11098361015, 0.07257371396},
{-0.11500863731, 0.09417448938, 0.09966787696, -0.01408942789, -0.07716830075, 0.05868999660, -0.00160901248, -0.02908686548, -0.05738018826},
{-0.10911805183, -0.06648364663, 0.09512404352, 0.00602596346, -0.03006028756, 0.10495246947, 0.11896099150, 0.05878395587, 0.00101102563},
{-0.08844900131, -0.03451632708, -0.05907502398, -0.03717265278, -0.09223745763, -0.09536471963, -0.10020043701, -0.05201628059, -0.10718595982},
{0.08141605556, 0.04340677336, 0.07968043536, 0.03658197448, 0.06674197316, 0.03818640113, -0.07105986029, 0.08696839958, 0.08135597408},
{0.00584931578, 0.01313446090, -0.07910951972, 0.02927128971, 0.11058621854, -0.06406020373, 0.09030784667, -0.04498898238, -0.04743578285},
{-0.09699480981, -0.02657730877, 0.03405813873, 0.10929001868, -0.06852956116, 0.01615594327, 0.08536863327, 0.09747817367, -0.00525894901},
{0.02562955767, 0.03510681912, -0.07961583138, 0.08259821683, 0.00003218931, 0.10745577514, -0.01850619167, 0.04644471779, 0.00349970255},
{0.11710598320, -0.08630190045, -0.00652700197, 0.05972709507, 0.00575936353, -0.07426926494, -0.01678669639, 0.09064181894, -0.05188505724},
{0.10181736201, 0.01071653608, 0.03341949731, -0.09935447574, 0.04966777191, -0.05433480442, 0.00659685628, 0.09385610372, -0.10016167164},
{0.08556292206, 0.08168356121, -0.04902440310, 0.03785976768, 0.08308082819, 0.08005522937, -0.02185752243, -0.03983914107, -0.08344108611},
{0.07271099091, -0.09521561116, 0.00247299299, 0.08131308854, -0.10218255967, -0.03115369938, 0.04061605036, 0.00385132222, 0.11335366219},
{-0.01896320842, 0.02815630101, 0.06716041267, -0.03901516646, 0.10100641847, 0.10249469429, 0.10247339308, -0.05388177559, 0.08172538877},
{-0.04729478434, -0.02431524545, -0.08458239585, 0.04456245527, -0.09146486968, 0.07930730283, 0.04495640844, 0.00825262349, 0.10263133049},
{-0.01747252978, 0.04628488421, -0.10372962803, 0.02953970246, 0.02978483401, 0.01827629283, 0.09829980135, 0.06441497803, -0.03708457202},
{0.06394119561, -0.00875452720, -0.06957983971, 0.04565554485, -0.06682341546, -0.05103260279, 0.08303824067, 0.06040145084, 0.10881735384},
{0.03595183790, -0.09760218859, -0.10410629213, 0.10188411176, 0.00796716288, -0.07422772795, -0.09614195675, -0.00173025194, -0.00733621698}};
    const float pointwise_7_weights[48][48] = {{0.21367448568, -0.02378887683, 0.14225682616, 0.08380347490, -0.18897259235, -0.01499947999, 0.11790466309, 0.19804899395, 0.18106721342, -0.09551401436, 0.22630265355, -0.08487967402, -0.23012185097, -0.22568354011, -0.14991286397, 0.08062446117, -0.21048717201, -0.08569085598, -0.11590224504, 0.22474741936, 0.05883434415, 0.04621655494, -0.09874331951, 0.23464117944, 0.07502696663, 0.19015266001, 0.03670473769, -0.00558037497, -0.14772176743, -0.18915866315, -0.05380551517, -0.24373435974, -0.21870881319, 0.18194933236, 0.05877244473, -0.15645191073, -0.04152135551, 0.15376721323, -0.19529777765, 0.17480452359, 0.00879868120, 0.20728985965, 0.16729156673, -0.10398900509, -0.04572409391, 0.02855419926, -0.23540717363, 0.18616123497},
{-0.02376706526, 0.12550444901, -0.05847409740, -0.12384545803, 0.01469453145, -0.13558274508, -0.10628663003, -0.21028786898, -0.11531227827, -0.00010746819, -0.09701936692, -0.19320927560, -0.14956122637, 0.01626173221, -0.12000449747, -0.13272404671, 0.12349924445, -0.10886627436, -0.13465034962, -0.00964975171, -0.01440163795, 0.02016177028, 0.25038859248, 0.19105435908, -0.16233229637, -0.17380718887, -0.18596138060, 0.21928277612, -0.22435544431, 0.07206407189, 0.06473107636, -0.10734570026, -0.04972261190, 0.00647711055, 0.05119037628, 0.01561018452, -0.00724170590, -0.00061646529, 0.20655411482, -0.16761645675, 0.10467966646, 0.07476322353, -0.18941774964, 0.05565500632, 0.15452581644, 0.22220548987, -0.22330752015, 0.08775815368},
{0.07448073477, -0.07870621979, 0.10834681243, 0.18670773506, 0.02629431151, -0.22728842497, -0.09072123468, 0.09355568886, 0.10476940870, 0.09172579646, 0.18024164438, -0.16767431796, 0.06295520067, 0.08746088296, -0.04937353730, -0.13422042131, 0.22004206479, -0.04561996460, 0.24652382731, -0.10199660808, 0.07791090012, 0.14611674845, 0.06985013932, -0.08852960169, -0.14692300558, -0.21368189156, 0.06112717465, -0.23200961947, -0.08253392577, 0.08056628704, 0.10655103624, 0.18497484922, -0.06725811958, -0.21620528400, -0.16289401054, -0.14101241529, 0.00150545465, 0.20861606300, 0.24876499176, 0.16878280044, -0.06336375326, -0.03950524703, -0.18248872459, -0.17092493176, -0.02788970992, -0.17655873299, 0.10367731750, 0.23067736626},
{0.17683506012, 0.08259440213, -0.08915955573, 0.11859196424, -0.23911225796, -0.22739487886, 0.22808532417, -0.03247267008, 0.20606482029, 0.03048191406, -0.18033312261, 0.22507500648, -0.12019246817, 0.05172580108, 0.12129800022, -0.09284234047, 0.12207145244, 0.02307784557, 0.24410998821, -0.18639114499, -0.20239381492, 0.20608268678, 0.24421757460, -0.23143221438, 0.21975390613, -0.22571183741, -0.13086867332, -0.09268958867, -0.22367930412, 0.08519842476, -0.10294122249, 0.07852768898, 0.11900216341, -0.17486377060, 0.07005190849, -0.22818715870, 0.01765939407, -0.24380195141, -0.22445493937, 0.07817140222, 0.11452697217, 0.05657716841, 0.10689173639, -0.21474161744, 0.04757150635, 0.07256007940, -0.19775015116, -0.06515277922},
{-0.10830760747, -0.16753517091, 0.00567676034, 0.22263270617, -0.09633033723, 0.09765271842, -0.13909062743, -0.23191690445, 0.09292399883, 0.14129896462, -0.16357582808, 0.00285304827, -0.22242981195, -0.23500007391, 0.14865863323, 0.01794058084, 0.11029761285, 0.11456805468, -0.14994578063, 0.05554010347, -0.00769012468, -0.02239367552, -0.16407252848, 0.18691124022, -0.08601421118, -0.08825679123, 0.06168866158, 0.07945290208, -0.16825154424, -0.22051388025, 0.17934718728, -0.02327370644, 0.06466889381, -0.16285006702, -0.15688383579, 0.11178337038, -0.14918833971, 0.11330162734, 0.15202528238, 0.21132011712, -0.05590290204, -0.00286652544, -0.15575918555, -0.19590377808, 0.14919096231, -0.17048612237, -0.11197063327, -0.12563152611},
{-0.13747656345, -0.02313616313, -0.05070619285, -0.09634637833, 0.07890159637, -0.24743872881, 0.03873172775, -0.22356265783, -0.18562567234, -0.12992583215, -0.00572966505, -0.24442085624, -0.06223964691, -0.22863638401, 0.11832229793, 0.14335584641, 0.08913768083, -0.16739636660, -0.21274885535, -0.05663819611, -0.24042904377, 0.24473059177, -0.04578517005, 0.17920939624, -0.16257178783, -0.20630480349, -0.23060345650, 0.18190225959, 0.16738148034, -0.17483408749, 0.02016105689, -0.18438297510, 0.17512762547, -0.00143950433, -0.12608259916, -0.02488420904, -0.02340644225, -0.11718855053, -0.04095786810, 0.03958138824, -0.00520598935, 0.07156147063, -0.13090649247, -0.01856205799, -0.14941367507, 0.19283354282, 0.12192840874, -0.09641933441},
{0.23153069615, -0.09998366982, -0.07023037225, 0.21721571684, 0.03659388050, -0.07737769932, -0.23693351448, -0.12776470184, 0.11077725887, 0.21046039462, 0.15875250101, -0.06314140558, -0.17607712746, -0.13817578554, 0.07496044040, 0.17025721073, -0.00295467163, -0.21303147078, 0.20950485766, 0.08854704350, -0.07769505680, 0.02442555316, 0.04298915341, 0.09641654044, 0.03843696788, 0.24766075611, -0.02030576393, 0.15511117876, 0.17971275747, -0.12620772421, -0.10916643590, -0.18313378096, 0.09130620956, 0.12824101746, -0.03747558594, 0.22145482898, 0.24261462688, -0.22635200620, 0.00195561582, 0.06945501268, -0.08660646528, -0.14625836909, 0.15267843008, 0.03331271186, -0.16580660641, -0.00807605032, -0.14271976054, 0.08231682330},
{-0.22737191617, -0.14179450274, -0.19658011198, 0.13612949848, 0.03932925314, -0.21820510924, 0.10952757299, 0.11171114445, 0.11211967468, 0.23204672337, -0.15563029051, 0.14940002561, -0.15608698130, -0.23691114783, -0.09431496263, 0.11733573675, -0.11906577647, -0.06142371893, -0.17001186311, 0.20586335659, -0.07780768722, 0.18215619028, -0.19233417511, 0.03444208577, 0.21164962649, 0.09663595259, -0.24150662124, 0.00034953313, -0.12564691901, -0.19499862194, 0.04923686758, -0.17052394152, 0.08679568768, -0.07627186179, 0.06050503254, 0.00116435345, -0.16334535182, -0.23690712452, 0.14371109009, -0.14637124538, -0.23930457234, -0.03904465586, 0.08906019479, -0.17787569761, 0.20014703274, 0.01897683181, -0.19875869155, 0.08264608681},
{-0.02630922943, -0.24660448730, -0.22233444452, 0.19748401642, 0.05530871078, 0.19826020300, 0.10799715668, 0.08921211958, -0.00610339642, -0.07020771503, -0.08495498449, 0.08724847436, 0.11473643780, -0.24920588732, 0.13903182745, -0.11443549395, -0.22503268719, -0.12648093700, -0.21275168657, 0.21737194061, -0.12550169230, -0.03010529280, 0.00839011651, -0.09169883281, -0.20146232843, -0.23994201422, -0.12807016075, -0.01740969159, -0.08560103178, 0.04721339792, -0.24985849857, 0.15673148632, -0.24186819792, -0.16578854620, 0.05901229382, 0.14482361078, -0.15749758482, -0.06492184103, -0.15349620581, 0.01163147204, 0.00870599505, -0.12658441067, -0.17079049349, -0.13144648075, -0.12596419454, -0.21038877964, -0.01062529907, -0.18910276890},
{-0.04205206782, -0.09465481341, -0.10514193028, 0.19486016035, 0.16571614146, -0.16912537813, -0.22820830345, 0.09188109636, -0.08463305235, -0.21600468457, -0.04040061682, -0.12065748870, -0.08155959845, -0.03456641734, -0.21900944412, -0.02793449163, -0.24478587508, 0.20613676310, 0.18416233361, 0.16945397854, 0.05205528066, -0.23793900013, 0.09267289191, -0.13758096099, 0.18739676476, 0.13780321181, -0.00738066761, -0.20613883436, -0.14740511775, 0.09513365477, 0.19391991198, 0.12387728691, -0.08385539055, 0.09652379155, 0.22027713060, 0.08256295323, -0.07970120758, 0.15208131075, 0.07053190470, 0.08795707673, -0.16419444978, 0.14413313568, -0.04436381534, 0.07563738525, -0.12012250721, 0.24409687519, 0.23551963270, 0.01836957224},
{-0.03931602836, 0.05815214291, 0.13455039263, -0.00852888823, 0.18793253601, -0.22510588169, -0.04581584409, 0.00960075855, 0.04227918386, 0.13442121446, -0.14465561509, -0.07747528702, 0.03204965591, 0.00991981570, -0.22082547843, 0.19101530313, -0.01766415313, 0.08018982410, 0.15067988634, 0.13924729824, -0.19423866272, -0.19026786089, -0.21319079399, -0.17744921148, 0.12946105003, -0.18455336988, 0.17005614936, -0.08128970861, 0.05755020678, 0.13393373787, 0.09817451239, -0.12655788660, 0.23481702805, -0.20303291082, -0.22965836525, 0.22589910030, 0.23912250996, 0.18949294090, 0.13606083393, -0.17739178240, 0.09680826962, -0.17316590250, 0.23364484310, 0.24608360231, 0.21732713282, 0.06045395136, -0.20698775351, -0.14859020710},
{-0.04201472923, 0.16060464084, 0.18936672807, 0.02642744780, 0.12652359903, 0.00402784254, 0.11968545616, -0.21396076679, -0.15184754133, -0.24207253754, -0.08011005819, 0.14157256484, -0.06413072348, 0.16310894489, 0.05387050286, -0.21009474993, -0.16855497658, 0.06440305710, 0.10577821732, -0.17092810571, 0.21596057713, -0.04521015286, -0.15341962874, -0.23684121668, 0.08076056093, 0.18748873472, -0.07584911585, 0.10911431164, -0.04883530363, 0.04885871708, 0.00003156561, -0.18924850225, 0.07257294655, 0.16249884665, -0.13656276464, -0.13318440318, -0.12945729494, 0.06916048378, -0.16144710779, -0.03290034458, 0.01620502770, -0.09450770915, 0.24441367388, -0.16075085104, 0.17314057052, -0.08380427957, -0.18675743043, -0.10139079392},
{-0.20739640296, -0.23001471162, 0.23404175043, 0.06956303120, 0.06405831128, 0.09404475242, 0.01203531958, -0.00899181888, 0.23696771264, -0.05197434872, 0.03618729115, -0.23916104436, 0.03520798683, 0.01947292872, 0.04567306489, 0.20808702707, -0.17907422781, 0.16536074877, -0.17622818053, 0.20984137058, -0.04596465081, -0.20255969465, -0.13764375448, 0.20579825342, 0.17736221850, 0.21256738901, 0.05149310827, 0.09399726987, 0.02427367680, 0.00095356000, -0.23213104904, -0.17265921831, -0.14321208000, -0.11828634143, -0.09656167030, 0.11539520323, 0.11626569182, 0.24172405899, 0.05657417327, 0.01214623451, -0.03224772960, -0.04600122944, -0.01511971280, 0.06387064606, -0.24267977476, -0.24938559532, -0.14510914683, -0.14925131202},
{-0.03455791622, -0.08588685095, -0.03359210864, 0.04150992632, 0.12891826034, 0.12719942629, 0.08824332058, 0.19512677193, 0.16164088249, -0.20631425083, 0.17149141431, -0.21223604679, -0.17013138533, -0.20599597692, -0.09873056412, -0.12385869026, -0.08523125201, 0.15509384871, 0.11520107836, 0.22578321397, -0.22052925825, 0.14915610850, 0.11018057168, -0.17172460258, 0.19008220732, 0.16790302098, -0.12543931603, -0.05673154816, 0.24426783621, 0.09526030719, -0.22830182314, 0.21152466536, 0.12953257561, -0.18642546237, -0.07223320007, -0.13676449656, 0.13811361790, -0.12522621453, 0.09205228090, 0.04078009352, -0.24780526757, 0.24907581508, 0.19880175591, -0.17118456960, -0.15857623518, 0.20973537862, -0.20249532163, 0.00123529870},
{0.16267716885, 0.16670970619, -0.22623650730, 0.10583758354, -0.14284925163, -0.10546089709, -0.22517423332, 0.14269238710, -0.00640222756, -0.10073423386, 0.19604001939, 0.24844026566, 0.07426947355, -0.16814547777, -0.16701903939, 0.13480526209, 0.09920627624, 0.09001106024, 0.09254107624, -0.06300793588, 0.11040773988, 0.15100513399, -0.01240980159, -0.23788012564, 0.21053218842, -0.07420708984, 0.00746906176, 0.22735498846, 0.11153732985, 0.19427116215, -0.11030432582, -0.16590583324, 0.16443854570, -0.21447691321, 0.07814812660, -0.03864407539, 0.02545539476, 0.19885742664, 0.14268946648, -0.15508238971, -0.21770283580, -0.01148626488, -0.12983596325, -0.14942368865, -0.10628928989, -0.00593075063, 0.04785043746, 0.02441249602},
{-0.10543131828, -0.16450315714, -0.01421430241, 0.14308863878, -0.22691836953, -0.10281282663, -0.16774336994, -0.16323781013, 0.00224929792, -0.09304735065, 0.14251893759, -0.18729454279, -0.00078660250, -0.04338467121, -0.02821702696, -0.14754831791, -0.22703140974, 0.19338208437, 0.06374461949, 0.19032299519, 0.09620809555, -0.09384107590, 0.09835805744, -0.18294322491, 0.18095105886, 0.01743039675, -0.09303677827, 0.05652031302, -0.14279997349, 0.13779403269, 0.22139979899, 0.15564268827, 0.21549141407, 0.01322151907, -0.15723633766, -0.21778410673, -0.15909326077, 0.05295496807, 0.20093429089, 0.12807115912, 0.04275850207, 0.06686377525, -0.02692783996, -0.17080330849, 0.13682380319, 0.11449354887, -0.01816868410, 0.08812109381},
{-0.22599206865, 0.13155461848, -0.23358349502, -0.06119722128, 0.14270421863, -0.12378552556, 0.10007487983, -0.16911898553, -0.09965490550, -0.03802739456, -0.22617508471, 0.06990163028, -0.21730697155, 0.14345258474, 0.09404855967, 0.15787136555, 0.05676320940, -0.11348044872, 0.09464893490, -0.17200215161, -0.00881212018, 0.04770879820, -0.18798877299, 0.06853779405, -0.20132787526, -0.11086713523, -0.23811188340, -0.04692869633, 0.01287161000, -0.19947779179, 0.10870037228, -0.00214751577, -0.03582561016, 0.12364001572, -0.17670291662, 0.19764409959, 0.00066710263, 0.03657423705, -0.08463144302, 0.17214511335, 0.03762720153, 0.21266341209, -0.00415115897, 0.16744612157, -0.16174593568, -0.05914413184, 0.16704180837, -0.18611358106},
{-0.13861320913, -0.03449508175, 0.13827897608, -0.00176088943, 0.18575519323, -0.23241192102, -0.18028160930, 0.19096624851, -0.22385066748, 0.04994651303, 0.14749899507, 0.10409327596, -0.18294888735, -0.13085806370, -0.22425386310, 0.07662308216, -0.09260848165, -0.03246539831, 0.16278231144, 0.12262535840, -0.09096997976, -0.03181577474, -0.05428389832, -0.16155017912, 0.18072302639, -0.05058617517, 0.15777701139, 0.23293389380, 0.14031530917, -0.15868693590, -0.21980699897, -0.05558371544, -0.00405579805, -0.15128086507, 0.12449944019, 0.20503258705, -0.22758938372, 0.00455332920, 0.11355346441, -0.12335769832, 0.10363260657, 0.05203920230, 0.00540787866, -0.11759992689, 0.02472072840, 0.10053606331, -0.15228298306, 0.16596294940},
{-0.05153092369, 0.00437933812, 0.02009283192, 0.05684590340, -0.00640922366, -0.08169889450, -0.09958235919, 0.11443648487, 0.03272651508, 0.06418269873, 0.09774695337, 0.03485088795, -0.05233514309, 0.01919779181, -0.19828628004, -0.10819560289, 0.15696913004, 0.20789551735, 0.17416897416, 0.12415418029, 0.15818473697, 0.16533283889, 0.17432886362, 0.04287609830, 0.21752613783, 0.18994653225, -0.24180690944, -0.16925381124, 0.16944880784, 0.09801994264, -0.22570811212, 0.21358138323, 0.05413568020, -0.07062190026, -0.01034969091, 0.03600490093, 0.20153482258, -0.08777070791, -0.13239812851, 0.22660771012, 0.06369648129, 0.14368964732, -0.10680980980, 0.02031022124, 0.24665872753, -0.21744109690, -0.01098772325, -0.03856778145},
{-0.07965656370, 0.14063462615, 0.11616005003, -0.11173558235, 0.04181173071, -0.02865415812, 0.20653553307, 0.15072429180, 0.11301204562, 0.16765414178, -0.01967066340, -0.08183846623, 0.04813045263, -0.08431068808, 0.16486589611, -0.10467970371, 0.17118732631, 0.17049986124, 0.03438466042, 0.15848508477, -0.00577942189, -0.05573206767, 0.17387808859, -0.12950506806, 0.01401100401, -0.11396061629, -0.10767593980, -0.03455390781, -0.12234062701, 0.18092788756, -0.14627583325, 0.16944527626, 0.08166253567, -0.06737244874, -0.22505825758, 0.08380092680, -0.09513277560, 0.19498334825, -0.09938478470, 0.13181228936, 0.19246175885, -0.17246343195, 0.03805253282, -0.04863586277, -0.05124822631, -0.02337595448, 0.06622679532, 0.02207198925},
{-0.19218280911, 0.06141630933, -0.17299330235, 0.05281960964, -0.16221690178, -0.11759356409, 0.19833563268, 0.15424543619, 0.19856739044, -0.21326965094, -0.16146989167, -0.00435095513, 0.18688434362, -0.21204257011, -0.09412083030, 0.13868319988, 0.03449045867, -0.18221628666, 0.05209408700, -0.02019087039, -0.19420769811, -0.05145949498, -0.22094506025, 0.01822604612, -0.09719415754, -0.19603762031, 0.21999861300, 0.19980461895, -0.20881219208, 0.07623171806, -0.00098878751, -0.02052955516, -0.17575746775, 0.06985873729, 0.23464155197, 0.08880591393, 0.21895614266, -0.24181863666, -0.13149112463, 0.14315748215, 0.11870981753, 0.23615458608, 0.11726630479, 0.16953960061, 0.11414536089, 0.07492600381, 0.20649249852, 0.19160877168},
{0.18303343654, -0.21105997264, -0.17479474843, 0.23494917154, 0.02902975678, 0.13693824410, -0.13078507781, -0.10102701187, 0.12713599205, 0.14355443418, 0.03268475085, 0.21098959446, 0.09819394350, -0.10932704806, -0.12767285109, -0.24579596519, 0.12278404832, 0.09354615211, 0.13416752219, 0.07739025354, -0.07888510078, -0.17209365964, -0.09656275809, 0.00023607844, -0.02414525673, -0.20136034489, 0.12450561672, 0.21344541013, 0.05638877302, 0.00716668135, -0.14426960051, -0.16103190184, -0.21829372644, -0.17621013522, 0.15443956852, 0.21102452278, 0.24676077068, 0.06347341835, -0.01256021950, -0.19615364075, 0.12032409012, 0.08001523465, -0.13292019069, 0.07003516704, 0.09044083208, 0.04765452445, 0.23365031183, -0.20196567476},
{0.03207296133, 0.14037770033, 0.02522606589, -0.17766326666, 0.22849541903, -0.16571259499, -0.08289982378, 0.24659502506, -0.04427576065, 0.04254088551, 0.04558146000, 0.05411850289, 0.10991340876, 0.11797839403, -0.05062107369, 0.14235657454, 0.19351199269, -0.18916767836, 0.02757686377, 0.01533925720, 0.02663499117, -0.19362169504, 0.21962761879, -0.24981391430, 0.13765186071, 0.02565370500, 0.24118322134, -0.08572369814, -0.11672709137, -0.23748549819, 0.04414776340, 0.05698382854, -0.01321256161, 0.04700816795, -0.11008757353, 0.06152290106, -0.20243072510, 0.04944356531, -0.00772559643, -0.07915379852, 0.17921936512, -0.21606999636, 0.04951058328, 0.19614148140, 0.17031329870, 0.18435144424, -0.13945978880, -0.24126422405},
{0.23405794799, -0.15924943984, 0.07843136042, -0.14966714382, 0.02576998062, -0.09185125679, 0.18100640178, 0.02572905645, -0.07371294498, -0.24267478287, -0.10281688720, -0.17009501159, 0.08025616407, -0.22859889269, -0.18238236010, 0.21364015341, -0.17906908691, -0.24849963188, 0.21255818009, 0.23604419827, 0.13873034716, -0.05415913835, 0.20153494179, 0.14083214104, 0.05318374932, -0.02110395022, 0.22702734172, 0.18565393984, -0.20879404247, -0.05314731225, 0.10168100893, 0.05560290813, -0.14194267988, 0.16632029414, 0.05074834824, 0.20562942326, -0.12027160823, -0.13281841576, -0.10318803787, -0.20887550712, 0.06054927036, -0.01079435647, 0.23799036443, 0.08192281425, -0.00703474414, 0.11880311370, 0.23398336768, 0.19616554677},
{0.03053316846, 0.04437802359, 0.00353903789, 0.02110373974, 0.15741762519, -0.17542357743, 0.08026327193, 0.16004186869, -0.04613429680, 0.08652052283, -0.02209777385, -0.00733415224, -0.14224326611, -0.05541381240, -0.23509450257, -0.18036252260, 0.10952821374, -0.15683311224, 0.14060288668, 0.08051807433, -0.05109184235, -0.12255296856, -0.15343502164, 0.10714206845, -0.03265406936, -0.06774192303, 0.06331641227, 0.13151544333, 0.08487288654, -0.00265907729, -0.12671138346, 0.09253174067, 0.03547787666, 0.01222100481, 0.24400925636, 0.02122767828, 0.08421361446, 0.04663944989, 0.20016717911, -0.11360532045, -0.24510213733, -0.15838900208, 0.19575713575, 0.11477191001, 0.13515774906, -0.07601331174, 0.12437272817, -0.17283104360},
{-0.05987209082, 0.03812536597, -0.19891791046, -0.23695433140, -0.24140343070, -0.04484491050, 0.06528705359, -0.10956597328, -0.21689331532, 0.24461369216, 0.08101786673, 0.08231636882, 0.18132454157, -0.14404405653, -0.21003392339, 0.09505945444, 0.01190790441, -0.21147620678, -0.20378044248, -0.22944541276, -0.08672314882, 0.13090147078, -0.11619653553, -0.20693664253, 0.10456538945, 0.14803524315, -0.02034689859, 0.11967949569, 0.13498693705, 0.01626964472, -0.04761890694, -0.00744831096, -0.02894526720, 0.23405185342, -0.15184903145, -0.10188706219, -0.24593961239, 0.20289292932, -0.19720935822, -0.03437415883, -0.12861295044, -0.13753810525, 0.20367616415, -0.02897278965, 0.10979176313, -0.00639581075, -0.14743962884, -0.08819909394},
{-0.23047935963, 0.03412763029, 0.12065481395, 0.14339947701, -0.11057459563, -0.20896840096, -0.18273578584, 0.07670134306, -0.03819223866, -0.03309639543, -0.12180547416, -0.00051852397, -0.23681449890, -0.06792049110, -0.15106457472, -0.23108708858, -0.17887446284, 0.13082808256, -0.24690017104, -0.04090062529, -0.20754276216, 0.15805006027, 0.15114195645, 0.19255740941, 0.03688458726, -0.09710271657, 0.12651656568, -0.04839352518, 0.17478018999, 0.04396455735, 0.11842917651, -0.05418980122, 0.06209415197, 0.15319596231, 0.22163093090, 0.19643937051, 0.24301874638, -0.12995322049, -0.15608882904, -0.02500936389, -0.06906928122, -0.17213715613, -0.09269972891, 0.21011090279, -0.22232691944, -0.14545089006, 0.01498564985, 0.14640319347},
{0.07341875136, 0.13038876653, -0.09465822577, -0.18012011051, 0.03984536603, 0.14858816564, 0.14586566389, 0.11254668236, 0.03515070677, 0.21292172372, -0.05820566416, -0.12518569827, 0.05520993471, 0.24858939648, 0.08859497309, 0.10128152370, 0.18406239152, -0.20176059008, 0.00180560886, 0.17518657446, -0.20355644822, -0.19635313749, 0.10182499886, -0.11313220114, 0.00594851933, -0.06949302554, -0.15458962321, -0.09993816912, 0.13905686140, -0.17850039899, 0.10843060166, -0.05098617077, 0.05254554749, 0.05402510986, -0.21796137094, 0.11809585989, 0.06110778451, -0.23062898219, 0.21396058798, -0.24176770449, -0.11103633046, 0.05338424817, 0.01123670861, -0.18636086583, 0.17196674645, -0.05163716152, -0.08090730757, -0.03345092013},
{0.24068050086, -0.19323933125, -0.18264761567, -0.03273355961, -0.01334288251, -0.16384503245, -0.00599805126, 0.16943931580, -0.04041014612, 0.04731226340, -0.17093896866, 0.22833094001, 0.00268660439, -0.07905780524, 0.00558999926, -0.12816482782, -0.02688948996, 0.01755863428, 0.15921074152, -0.24306567013, -0.22579018772, 0.16156426072, 0.11801305413, 0.21691007912, 0.12960575521, 0.17398485541, 0.12955313921, 0.10631712526, 0.00196637749, -0.12411001325, 0.12725430727, 0.07728862762, 0.16973072290, -0.04232372344, 0.19226580858, 0.21750076115, 0.11855255067, -0.23171813786, 0.18867123127, -0.13367892802, -0.12487271428, 0.11317524314, 0.03556917235, -0.03659100458, 0.05467772484, -0.08487953991, 0.19883282483, 0.24471919239},
{0.11664817482, -0.17309765518, -0.13943944871, -0.18202614784, 0.01240209769, -0.17881622910, 0.13663880527, -0.08318786323, -0.01258083619, 0.10194943845, 0.12682344019, 0.07582946867, -0.01551795006, -0.11672877520, 0.19326885045, -0.04862046242, 0.14540381730, -0.00261908746, -0.07966125011, -0.13975626230, 0.08304499090, 0.22165493667, -0.21873980761, -0.04481911659, -0.01045924984, 0.22268556058, -0.00876435358, -0.21661335230, 0.15010187030, -0.06834627688, 0.23424743116, 0.06210547686, -0.07222151756, 0.23012095690, -0.02734047174, 0.21450231969, -0.05265259743, -0.18260778487, -0.07042443752, 0.24674165249, -0.07833325118, 0.21689234674, -0.14287398756, 0.03671064600, -0.21055954695, 0.01984678395, -0.07123249024, 0.18492257595},
{-0.13101674616, 0.22355063260, -0.11742217839, 0.19732868671, 0.05684407055, -0.22334612906, 0.17731893063, -0.15152090788, 0.11500846595, -0.08677680045, -0.02943892591, -0.03879456595, -0.04770112038, 0.17887312174, 0.13334743679, 0.01536369324, -0.23976014555, -0.04603737593, -0.21281801164, 0.14838944376, 0.08758625388, -0.21965442598, 0.02099043503, -0.05441489071, -0.07111905515, 0.18988202512, 0.12365783751, 0.10850954056, 0.13862787187, 0.18968032300, 0.22208669782, 0.22682148218, 0.24846720695, -0.02270563878, 0.09473150969, -0.12041832507, 0.13292075694, 0.03158298135, 0.08328926563, 0.16907076538, -0.22900566459, 0.15139579773, -0.17288708687, -0.00484638102, -0.23329187930, 0.13791002333, -0.17769959569, 0.16490808129},
{-0.23035059869, 0.07583000511, 0.24053792655, 0.22105807066, -0.06530509889, 0.24367406964, -0.18014028668, 0.20891290903, -0.10716302693, 0.21256245673, -0.13879325986, -0.20912921429, 0.18232089281, 0.22503858805, 0.19241255522, -0.21801620722, 0.21107518673, 0.00990456343, 0.23504512012, -0.10402953625, 0.07535927743, -0.16211812198, -0.15347243845, 0.19193078578, 0.04950532317, 0.09404522181, 0.23148657382, -0.14813731611, 0.05865719914, 0.22641193867, -0.19269368052, 0.22489207983, -0.20647317171, -0.10113465041, -0.10552400351, 0.09786100686, 0.15325236320, -0.23170706630, -0.09786701202, 0.15688851476, 0.15674099326, 0.07522044331, 0.16580346227, -0.01588246413, -0.15941138566, 0.16796694696, 0.23916326463, -0.18434771895},
{-0.13757672906, -0.02227792516, -0.07270361483, -0.13520246744, 0.23896680772, 0.14849098027, 0.07471572608, -0.15266507864, 0.10462874174, -0.06437174976, 0.02856441960, -0.16321322322, -0.17666345835, 0.02330979146, -0.13134644926, 0.13451308012, -0.05927991122, -0.16564047337, 0.16609594226, -0.05593980104, 0.17704890668, 0.23570775986, -0.24198599160, -0.15207281709, 0.23987419903, 0.04824410006, -0.16549943388, 0.16098314524, 0.15634265542, -0.05574142560, 0.22714015841, 0.21211427450, 0.07536673546, -0.17014519870, -0.11012345552, 0.09201281518, -0.13838866353, 0.13776347041, -0.01134663820, 0.20168831944, 0.03727203235, -0.02533094771, -0.06546892971, -0.22897611558, 0.15098777413, -0.02862536535, 0.03907951713, 0.18390783668},
{-0.07998958975, -0.08077649772, -0.01225859020, -0.17336624861, 0.24923174083, -0.09157174081, 0.12529005110, -0.00172913459, 0.17087107897, -0.18826393783, -0.11035211384, -0.01370629482, -0.17183494568, 0.12317642570, -0.10317562521, 0.01618808508, 0.03851283342, -0.07381188869, 0.20264571905, -0.00618476700, 0.17857898772, -0.13150145113, -0.13244946301, -0.02698601969, -0.11794569343, 0.10513555259, -0.02814460360, 0.09154918790, 0.03504118696, -0.22017858922, -0.23316565156, 0.09807515144, 0.06284523010, 0.12441127747, -0.09967678785, 0.18888284266, -0.18335857987, 0.16958883405, 0.08079838753, -0.24120068550, -0.10450188071, -0.02780793793, -0.09531901032, 0.09050019830, 0.20411308110, -0.20461523533, 0.15314845741, -0.02675515972},
{-0.19039051235, 0.04133870825, 0.22811804712, -0.23759531975, 0.00746649271, 0.13216802478, 0.11336586624, 0.19294673204, -0.22413933277, -0.00130656746, -0.15450927615, -0.18280422688, -0.05325388908, -0.09931925684, -0.19571392238, -0.05960762501, 0.07970431447, -0.03815126419, -0.05609551817, 0.22469396889, -0.19112734497, -0.04104875401, -0.02384510078, 0.05487757921, -0.11592770368, -0.09234206378, 0.08832597733, 0.15240554512, 0.08344764262, 0.00308408402, -0.06903841347, 0.11812120676, -0.11077743769, 0.05778455734, -0.19280302525, 0.09411158413, -0.01538446359, -0.11968958378, 0.12943726778, -0.02286968194, 0.13973161578, 0.23947635293, 0.16589315236, 0.22647613287, -0.00920185260, -0.13989222050, 0.23593187332, -0.05033370107},
{0.00216755038, -0.18747438490, -0.08327052742, 0.07374459505, 0.10871695727, -0.09387826920, -0.12223835289, -0.09247523546, -0.11936436594, 0.10078257322, 0.09435707331, 0.09880159050, -0.01104199886, 0.19713285565, 0.14237053692, 0.24733585119, -0.24056264758, -0.07121670246, -0.07022853941, 0.14294147491, 0.05270514265, -0.01634617150, 0.08499783278, -0.00189554086, 0.02306234278, 0.14567220211, -0.15489944816, -0.01761876047, -0.11938025802, -0.22805963457, -0.07057732344, 0.13309884071, -0.11465406418, 0.24447146058, 0.15704953671, 0.13900683820, -0.10704323649, -0.18402656913, -0.04005455971, -0.17836132646, 0.21550926566, -0.06190399826, -0.08669290692, -0.16559965909, 0.11358272284, 0.21475180984, -0.12703147531, 0.04110187292},
{-0.05233228579, 0.04265068099, 0.01947312430, -0.08148944378, -0.18693548441, -0.23346036673, 0.05760852620, -0.20446723700, 0.05237236619, 0.18059812486, -0.04003849626, -0.07586988062, 0.04746514559, -0.14796826243, -0.12981252372, -0.24089533091, 0.20593142509, 0.23728406429, -0.03796546906, 0.24607075751, -0.07816667855, 0.13661387563, 0.15834817290, 0.15849684179, 0.12585394084, 0.10797533393, 0.20205366611, -0.22565846145, -0.21650554240, 0.22927941382, -0.18609826267, -0.08916372061, 0.13603836298, 0.10145805031, 0.18950068951, -0.10597554594, -0.09551388025, 0.06213785708, 0.07015800476, -0.07409714907, -0.04741361365, -0.23504236341, 0.09874947369, -0.05250386149, 0.08142773807, -0.17912641168, 0.16566842794, 0.04597978666},
{-0.18451391160, -0.18191966414, 0.18172802031, 0.04797124863, 0.21099545062, -0.08751771599, -0.06993383169, -0.09665165097, -0.23708593845, 0.21914623678, 0.20320571959, -0.23521299660, 0.06124418974, -0.11605323851, 0.09544099122, 0.01186078787, -0.23265028000, 0.12627488375, -0.17197990417, 0.23386512697, 0.00958965626, -0.07088544220, -0.11808635294, -0.08302536607, -0.17585356534, 0.13523609936, 0.22927263379, 0.16350209713, -0.04534073919, -0.20714496076, -0.18328072131, 0.22373920679, 0.17508995533, -0.13259302080, 0.19360363483, -0.12551315129, 0.19212271273, -0.14296542108, 0.11156123877, 0.24668069184, -0.09429573268, -0.01253212057, 0.03476616740, -0.20695114136, -0.16367378831, -0.11976484209, -0.11650577188, -0.04027312621},
{0.14821127057, -0.23680301011, -0.19554860890, 0.10126930475, -0.17271673679, -0.16989570856, 0.16127392650, -0.13925611973, 0.19206076860, -0.08001531661, -0.03222112358, -0.21404986084, 0.16559726000, -0.12462496758, 0.07991097867, -0.12027305365, -0.17151030898, -0.08754527569, -0.21077591181, 0.15967589617, 0.22131176293, -0.13981580734, 0.14738801122, 0.20733872056, -0.00034587091, -0.00575926295, 0.10910518467, 0.09912481159, 0.01628876850, 0.03612418100, 0.13539464772, -0.10966169834, 0.08428955078, -0.09609591216, -0.04173105955, -0.19677396119, -0.14108507335, -0.22760918736, 0.19663947821, -0.22147801518, -0.11075185239, -0.20193248987, -0.23824971914, 0.05423773080, 0.15253713727, -0.02855713665, -0.24840365350, -0.24604344368},
{0.09497696161, -0.05194862187, -0.05901431292, 0.09210169315, -0.12682348490, 0.05640456080, -0.15362112224, -0.19313102961, -0.07601040602, -0.11556006223, -0.06852690130, -0.05969372392, -0.05769258738, 0.14890992641, -0.16649416089, -0.13596910238, -0.02294716425, -0.21723914146, 0.10496590286, 0.03619414195, -0.11506794393, 0.13335883617, -0.16867367923, -0.00925981347, -0.02626061440, 0.05537079647, -0.09803649038, 0.21051789820, 0.09097771347, 0.23434135318, -0.09013666213, -0.01181799173, 0.09752446413, -0.23946760595, 0.19763308764, -0.01040409878, 0.10688114911, -0.06509099156, -0.10432225466, 0.04132629186, 0.20948226750, 0.20898075402, -0.15812647343, -0.12812012434, 0.23105332255, -0.23405343294, -0.04755266756, -0.21999686956},
{0.08053026348, -0.18422663212, -0.15715160966, -0.20535337925, -0.17267191410, -0.23687599599, -0.07869672775, 0.07823270559, 0.22929030657, 0.07609225810, 0.01814542338, -0.05517819151, 0.18545407057, -0.21597796679, -0.06163322553, 0.22571390867, 0.18776725233, 0.02973508835, -0.24606557190, 0.16137391329, 0.03513432667, 0.20166897774, 0.04168985784, -0.14111074805, 0.24730694294, 0.15731145442, -0.00715230638, -0.24606904387, -0.23650376499, -0.18942025304, -0.09356285632, -0.22686421871, 0.00919824839, 0.19505265355, -0.20262128115, 0.02778770402, -0.14453981817, 0.12565872073, 0.16301208735, 0.01548537333, -0.11386357993, -0.18487784266, 0.16039906442, -0.20369544625, 0.14212082326, -0.11287412792, 0.00382733671, 0.10830202699},
{0.05801346153, 0.17796061933, 0.04978180304, -0.06466978788, -0.10942604393, 0.15013161302, -0.04775212333, 0.13243746758, -0.06739473343, -0.18939578533, -0.12457425147, 0.09875955433, 0.05888086557, -0.21954047680, -0.12011713535, 0.22020590305, -0.18020898104, 0.06870716810, -0.00439276546, -0.18050333858, 0.18073895574, 0.19219951332, -0.11582158506, -0.17572070658, 0.02701059729, 0.14456649125, -0.20455937088, -0.04965459183, 0.15054097772, 0.05744739622, 0.19732017815, -0.05606973171, 0.23360270262, 0.11549902707, 0.23888981342, 0.05599964038, -0.23213745654, 0.06962785870, -0.22380161285, -0.00323332543, -0.04491863027, -0.08552324772, -0.00374858873, 0.11564750969, 0.04193749651, -0.04359288514, 0.02896133624, 0.09132415801},
{-0.05451775342, -0.23532393575, -0.08283905685, 0.16092008352, 0.23479275405, 0.22124539316, 0.11460540444, 0.12200480700, 0.00748453289, -0.20902475715, 0.08176162839, 0.16818645597, 0.06924545765, -0.24611218274, -0.10765448958, 0.18109446764, 0.15685269237, -0.19368791580, -0.13914440572, 0.21350353956, -0.10824400187, -0.24984572828, -0.00551750697, -0.02797476761, 0.23451060057, -0.16213843226, 0.22245581448, 0.20811201632, -0.09932576120, 0.16271428764, -0.07371888310, -0.05561194569, -0.12864100933, -0.12657397985, 0.20857161283, 0.05854848027, -0.22179901600, 0.06813432276, 0.14715975523, 0.20483201742, -0.00650179805, -0.11580861360, -0.13795945048, -0.13978472352, -0.13857893646, 0.07349081337, 0.08175310493, -0.13788442314},
{-0.09353090823, -0.10392870754, -0.23351036012, -0.14500731230, -0.05166513100, -0.22158817947, 0.10229244083, 0.18429917097, -0.08093622327, -0.08834917098, -0.09779649973, 0.15256519616, -0.17885553837, 0.17922328413, 0.06743500382, 0.16982960701, 0.00743076066, 0.16315621138, 0.20635393262, 0.08300532401, 0.20795030892, 0.00862977654, -0.21598769724, 0.02070496976, 0.07228792459, 0.18222260475, 0.12744706869, -0.17125277221, -0.22815111279, 0.19497747719, -0.00494487910, -0.17659699917, -0.02725291252, 0.08012128621, 0.20530426502, -0.20486247540, -0.24244347215, -0.07460734248, 0.09263521433, -0.02343682386, 0.15244747698, -0.16698147357, -0.09248062223, 0.15207166970, 0.24384112656, 0.15692484379, 0.08381222188, 0.12609332800},
{-0.20308826864, -0.02034483850, -0.18336121738, 0.13814198971, -0.18931178749, 0.09955868870, 0.03141857684, -0.15900421143, 0.03512104228, 0.10498389602, -0.17783232033, -0.08832715452, 0.19467115402, 0.17906050384, 0.23653675616, -0.24454307556, -0.00326194847, -0.19622278214, 0.11538171768, 0.11271432787, 0.13384325802, -0.09511655569, -0.17239046097, -0.18272525072, -0.15825287998, -0.20420743525, -0.04791396484, 0.17360728979, 0.21883088350, 0.11211864650, 0.16329705715, -0.19957858324, 0.14436644316, 0.15263129771, -0.00478255749, 0.23209661245, -0.11704726517, 0.02403694391, -0.18362122774, 0.04802889377, -0.16546283662, -0.20240698755, -0.01942128874, -0.02168348804, -0.04955895990, 0.09002742916, 0.01264640037, 0.13451425731},
{0.12682074308, -0.09803243726, 0.10768020153, -0.21444272995, 0.05070569739, 0.11779831350, -0.06260914356, -0.02668672241, -0.16496384144, -0.15178364515, 0.19645340741, -0.00948064961, 0.03598934412, 0.20942646265, 0.14437960088, 0.09528028965, -0.17511345446, -0.06726169586, -0.09520149231, -0.11520583183, 0.01584947854, -0.06657662988, -0.17194281518, 0.00062389375, 0.11164162308, 0.21461002529, 0.10216322541, 0.15974113345, 0.09601248056, 0.17632237077, -0.11183899641, 0.14329719543, -0.09673804045, -0.06441043317, -0.01363247633, 0.15198926628, -0.15998230875, -0.22429449856, 0.22615557909, 0.12468225509, -0.24118331075, -0.04028463364, 0.18102335930, -0.12367186695, 0.21301621199, -0.02798818983, 0.00928162318, -0.00574939232},
{0.00703391805, -0.10828960687, -0.14683781564, -0.12681245804, -0.20451842248, 0.23294021189, -0.22102196515, 0.10801541805, -0.13606870174, 0.11772848666, -0.12567965686, 0.18781037629, -0.20175439119, 0.01115852222, 0.20416127145, 0.00346636446, 0.00402168930, 0.15696448088, -0.13598927855, 0.11957751215, 0.13727879524, -0.23605722189, -0.04889310896, -0.20114436746, 0.04333728552, -0.20799811184, -0.08725313842, 0.10330275446, -0.05342440307, -0.13165771961, 0.19324578345, 0.17729377747, -0.08668369055, -0.14660377800, -0.13625258207, -0.03528821468, 0.24516865611, -0.08990500867, -0.05760365725, 0.02095655724, 0.10666076839, 0.20773564279, -0.06656275690, 0.01594745927, -0.24363672733, -0.12333647162, 0.07239332795, -0.20461755991},
{0.19072839618, -0.01243792009, -0.16897936165, 0.07406395674, -0.10994977504, -0.17602409422, 0.13319119811, -0.03423616663, 0.09327745438, -0.05442598090, 0.00801151246, -0.03292850405, 0.19266992807, -0.09011759609, 0.13773947954, 0.23142534494, 0.10397651792, 0.06147933006, 0.08198630810, 0.23164419830, 0.12657372653, 0.07713987678, 0.16226278245, -0.04768803716, -0.08889231831, -0.02965188771, 0.24224691093, 0.01648169011, 0.07163736224, -0.20331056416, 0.10284847766, -0.03627304733, -0.07884246111, 0.11851928383, -0.16881608963, -0.20606754720, 0.12316339463, 0.04053419456, 0.14121907949, -0.03453391418, 0.04203341156, -0.09868273139, 0.07364763319, -0.09677922726, -0.06696013361, -0.10627148300, 0.01904817857, 0.08645574003}};
    
    const float depthwise_8_weights[48][9] = {{-0.01201626193, 0.04926406965, 0.01061609946, -0.04665829614, -0.03522113711, 0.11320117116, -0.08361600339, 0.01173171680, 0.11133395880},
{0.10825727135, 0.08818709850, 0.04156524315, 0.06183158606, -0.08253724128, -0.05230645835, -0.04401878640, -0.05173080415, -0.03265640512},
{0.07207052410, -0.03011901118, 0.03296421841, 0.09387821704, 0.08362228423, 0.10222297907, -0.11409974843, 0.10283056647, -0.09520058334},
{0.11261329800, -0.08560701460, 0.04015400633, -0.08430591226, -0.01878462546, -0.09112485498, -0.01070191152, 0.05745532736, 0.01975762285},
{0.06071598455, 0.09403821826, 0.02157021686, 0.08248697221, -0.06952973455, -0.03270632029, -0.02595846355, -0.08856461197, -0.02929079346},
{-0.05949516594, 0.02361700125, -0.04498517141, 0.01753264666, 0.03371744603, -0.02875581570, 0.04249063879, -0.02438720129, -0.06863496453},
{0.08060055971, -0.04485681653, 0.09209274501, -0.09903944284, 0.00555677805, -0.04049722478, -0.10525374115, -0.05772805214, 0.07787629962},
{0.00427326653, 0.06754262745, 0.00996248145, 0.09209276736, 0.09877328575, -0.03631556034, -0.03524148092, 0.00626814831, 0.07777065039},
{0.02509897016, 0.04533977062, 0.08158623427, 0.08074029535, -0.11074677110, -0.02569086105, 0.04542263970, 0.07069267333, -0.04501560330},
