{
  "architecture": [
    {
      "type": "BayesianLinear",
      "in_features": 2,
      "out_features": 20
    },
    {
      "type": "ReLU"
    },
    {
      "type": "BayesianLinear",
      "in_features": 20,
      "out_features": 20
    },
    {
      "type": "ReLU"
    },
    {
      "type": "BayesianLinear",
      "in_features": 20,
      "out_features": 1
    }
  ],
  "parameters": {
    "layer_0_weight_mu": [
      [
        -2.0069515705108643,
        0.0286830123513937
      ],
      [
        -0.6648797392845154,
        1.838690996170044
      ],
      [
        1.1023913621902466,
        -1.0204288959503174
      ],
      [
        0.40174809098243713,
        -3.479071617126465
      ],
      [
        -2.033078908920288,
        1.1854057312011719
      ],
      [
        0.8929729461669922,
        -0.5638478398323059
      ],
      [
        0.4636974334716797,
        0.04474729672074318
      ],
      [
        0.7900142669677734,
        0.5752789974212646
      ],
      [
        -1.2913063764572144,
        -0.5524859428405762
      ],
      [
        -1.3365602493286133,
        1.1780834197998047
      ],
      [
        -1.9476754665374756,
        0.36522820591926575
      ],
      [
        1.1878947019577026,
        0.19438301026821136
      ],
      [
        1.7111302614212036,
        0.2864866554737091
      ],
      [
        1.4204496145248413,
        -1.4065786600112915
      ],
      [
        0.4735087454319,
        -1.9917327165603638
      ],
      [
        -2.1630842685699463,
        0.40577325224876404
      ],
      [
        0.8592262268066406,
        0.45812007784843445
      ],
      [
        -0.47639000415802,
        1.2263069152832031
      ],
      [
        -0.36266666650772095,
        1.156256914138794
      ],
      [
        0.1260754019021988,
        -0.423508882522583
      ]
    ],
    "layer_0_weight_logvar": [
      [
        -4.001126766204834,
        -5.868444442749023
      ],
      [
        -4.840824127197266,
        -6.695245265960693
      ],
      [
        -7.085227966308594,
        -4.420100212097168
      ],
      [
        -7.27294921875,
        -4.730304718017578
      ],
      [
        -4.850209712982178,
        -6.7081217765808105
      ],
      [
        -7.224464416503906,
        -4.398532867431641
      ],
      [
        -5.2519330978393555,
        -3.584240198135376
      ],
      [
        -5.835651397705078,
        -4.846339702606201
      ],
      [
        -7.292438507080078,
        -7.044107913970947
      ],
      [
        -4.131017684936523,
        -6.34681510925293
      ],
      [
        -4.364477634429932,
        -6.248223781585693
      ],
      [
        -5.493632793426514,
        -3.7550296783447266
      ],
      [
        -5.450737953186035,
        -5.572993278503418
      ],
      [
        -6.441852569580078,
        -3.884465217590332
      ],
      [
        -6.635639190673828,
        -3.9009923934936523
      ],
      [
        -4.22380256652832,
        -6.419857978820801
      ],
      [
        -7.137671947479248,
        -5.201324939727783
      ],
      [
        -4.626228332519531,
        -6.118966579437256
      ],
      [
        -4.0301618576049805,
        -4.230434417724609
      ],
      [
        -5.105993270874023,
        -2.6877527236938477
      ]
    ],
    "layer_0_bias_mu": [
      -0.19472120702266693,
      -0.7961337566375732,
      -0.9623242020606995,
      -0.6192492246627808,
      -0.6882744431495667,
      -0.8139690160751343,
      0.039021871984004974,
      -0.29794222116470337,
      1.2313472032546997,
      -0.40315353870391846,
      -0.3606373965740204,
      0.023724118247628212,
      -0.1452791839838028,
      -1.2102848291397095,
      -0.6028127670288086,
      -0.42169666290283203,
      -0.8872981667518616,
      -0.6227182745933533,
      0.15889492630958557,
      -0.04562697559595108
    ],
    "layer_0_bias_logvar": [
      -6.966893672943115,
      -7.3464179039001465,
      -7.108366012573242,
      -7.06680965423584,
      -7.295733451843262,
      -7.185269355773926,
      -5.484251022338867,
      -6.143930912017822,
      -8.041921615600586,
      -6.695559024810791,
      -6.958319187164307,
      -5.553859710693359,
      -6.74682092666626,
      -6.664770126342773,
      -6.545253753662109,
      -7.666934967041016,
      -7.25529670715332,
      -6.895782947540283,
      -5.134950637817383,
      -4.917636871337891
    ],
    "layer_2_weight_mu": [
      [
        0.34758660197257996,
        0.2785158157348633,
        -0.8224633932113647,
        -0.7485840916633606,
        0.6143551468849182,
        -0.6243886351585388,
        0.19249673187732697,
        -0.011596553958952427,
        -1.0873485803604126,
        0.5286036729812622,
        0.6693186163902283,
        0.5896488428115845,
        0.533562958240509,
        -0.20710256695747375,
        -0.698663592338562,
        0.6032499074935913,
        -1.1783523559570312,
        0.6155046224594116,
        0.43735161423683167,
        0.14613249897956848
      ],
      [
        -0.00691299419850111,
        -0.18745143711566925,
        -0.09822672605514526,
        -0.048814039677381516,
        -0.14895284175872803,
        -0.06197059899568558,
        -0.29573267698287964,
        -0.2688508927822113,
        -0.339810311794281,
        -0.21431072056293488,
        -0.09698791801929474,
        -0.4966748356819153,
        -0.46724677085876465,
        -0.1347617208957672,
        -0.027970576658844948,
        -0.04083423689007759,
        -0.08574610948562622,
        -0.12782041728496552,
        -0.3565380275249481,
        -0.12125936895608902
      ],
      [
        0.6111822724342346,
        0.7715510129928589,
        -0.5012001395225525,
        -0.7530070543289185,
        0.6748924255371094,
        -1.0188000202178955,
        0.43633484840393066,
        0.044895678758621216,
        -1.0475397109985352,
        0.7138592600822449,
        0.6636634469032288,
        0.23829059302806854,
        0.501989483833313,
        -0.5214099884033203,
        -0.2027357667684555,
        0.772971510887146,
        -1.4319953918457031,
        0.40766602754592896,
        0.09884113818407059,
        0.0668807178735733
      ],
      [
        0.04870554059743881,
        0.4993053078651428,
        -0.7781225442886353,
        -0.6856490969657898,
        0.18245428800582886,
        -0.613795280456543,
        0.5379472374916077,
        0.2806049585342407,
        -1.5194405317306519,
        0.3133528232574463,
        0.02834576554596424,
        0.6928263902664185,
        0.37823206186294556,
        -0.7087220549583435,
        -0.24904310703277588,
        0.09764085710048676,
        -1.216268539428711,
        0.588457465171814,
        0.13815714418888092,
        0.1605212241411209
      ],
      [
        0.725463330745697,
        1.2620246410369873,
        -0.12958210706710815,
        -0.4978195130825043,
        1.1583106517791748,
        -0.020505713298916817,
        -0.4690082371234894,
        -0.1871144324541092,
        -0.08782520145177841,
        0.8719406723976135,
        0.7742308974266052,
        -0.2923431396484375,
        -0.10570113360881805,
        0.3233264684677124,
        0.0755029022693634,
        0.9992982745170593,
        0.052632007747888565,
        1.0448682308197021,
        0.6644721031188965,
        -0.2778162360191345
      ],
      [
        -0.9913694858551025,
        -0.8771761059761047,
        0.6253098249435425,
        1.3827611207962036,
        -1.2822375297546387,
        0.3294939696788788,
        0.13556769490242004,
        -0.5407163500785828,
        1.6372817754745483,
        -0.2965150773525238,
        -0.8807221055030823,
        -0.0894581750035286,
        -0.4554283320903778,
        0.35378143191337585,
        0.6109257936477661,
        -1.1932965517044067,
        0.4892072379589081,
        -0.5746686458587646,
        0.2945684790611267,
        0.03893642500042915
      ],
      [
        -0.22762975096702576,
        -0.24050623178482056,
        1.2091008424758911,
        1.1022435426712036,
        0.11648151278495789,
        0.9840158820152283,
        0.022008653730154037,
        0.3808048367500305,
        -0.2865116596221924,
        -0.07582881301641464,
        -0.22499442100524902,
        0.13062243163585663,
        0.3614022731781006,
        0.9358881711959839,
        0.7422678470611572,
        -0.24679043889045715,
        1.160681128501892,
        -0.2672885060310364,
        -0.3612769544124603,
        0.180752694606781
      ],
      [
        -0.5689699053764343,
        -0.9483163356781006,
        0.7751907110214233,
        1.0141817331314087,
        -0.8741044402122498,
        0.5299038887023926,
        0.08507408201694489,
        -0.06622496992349625,
        1.3747378587722778,
        -0.6665725111961365,
        -0.4247930943965912,
        -0.08844030648469925,
        -0.10246128588914871,
        0.8490590453147888,
        0.8152801394462585,
        -0.8225705623626709,
        0.9210192561149597,
        -0.8483087420463562,
        0.517379105091095,
        0.309034526348114
      ],
      [
        -1.212647795677185,
        -1.5901256799697876,
        0.05737138167023659,
        0.39926639199256897,
        -1.5936758518218994,
        0.05670373514294624,
        -0.01959749311208725,
        -0.31065264344215393,
        1.6068035364151,
        -0.9732427597045898,
        -1.001800298690796,
        -0.2060008943080902,
        -1.0892164707183838,
        -0.1957634538412094,
        0.08165077120065689,
        -1.6224968433380127,
        0.0037509500980377197,
        -0.9228398203849792,
        0.6154991388320923,
        -0.4481170177459717
      ],
      [
        0.48645076155662537,
        0.7113953232765198,
        -0.6222845315933228,
        -0.7761812806129456,
        0.6720478534698486,
        -0.7841132879257202,
        0.24775587022304535,
        0.009244625456631184,
        -1.0941559076309204,
        0.4159437417984009,
        0.5975744128227234,
        0.34355685114860535,
        0.24587275087833405,
        -0.3468191623687744,
        -0.44598492980003357,
        0.7049416899681091,
        -1.0843117237091064,
        0.42850127816200256,
        0.24763481318950653,
        0.16713495552539825
      ],
      [
        -0.14578057825565338,
        -0.10600950568914413,
        0.701741635799408,
        0.7840833067893982,
        -0.11783941835165024,
        0.8753957748413086,
        0.06593752652406693,
        0.09098634868860245,
        0.5790155529975891,
        0.2467142641544342,
        -0.28833770751953125,
        0.06774816662073135,
        0.23834563791751862,
        0.6176686882972717,
        0.5483013391494751,
        -0.308870404958725,
        0.7582681775093079,
        -0.021001847460865974,
        -0.408311128616333,
        0.39150527119636536
      ],
      [
        -0.5049061179161072,
        -1.082087755203247,
        0.880021333694458,
        1.0792365074157715,
        -0.8697365522384644,
        0.6900534629821777,
        -0.05782298743724823,
        -0.24090546369552612,
        1.4565119743347168,
        -0.3687763512134552,
        -0.6044670343399048,
        0.16593022644519806,
        -0.10143068432807922,
        0.5204313397407532,
        0.5265669822692871,
        -0.731113851070404,
        1.0721389055252075,
        -0.39781785011291504,
        0.16084681451320648,
        0.1849125474691391
      ],
      [
        -0.5915986895561218,
        -0.4710468351840973,
        0.6845231652259827,
        0.6994840502738953,
        -0.2558169960975647,
        0.7971116900444031,
        -0.07652519643306732,
        -0.1470063477754593,
        1.275443196296692,
        -0.2557106614112854,
        -0.477417916059494,
        0.23388954997062683,
        0.02925955317914486,
        0.4629650413990021,
        0.8170960545539856,
        -0.7002217173576355,
        0.9490076899528503,
        -0.42918047308921814,
        0.08179324120283127,
        -0.16474317014217377
      ],
      [
        0.7547791600227356,
        0.8493797183036804,
        -0.08396828174591064,
        -0.11454746872186661,
        1.067086100578308,
        -0.15068884193897247,
        -0.0675622820854187,
        0.0549115389585495,
        0.1363237351179123,
        1.1587188243865967,
        0.8784800171852112,
        -0.7149746417999268,
        -0.29125913977622986,
        0.009991115890443325,
        -0.19806824624538422,
        0.964702844619751,
        -0.11248108744621277,
        0.5843033194541931,
        0.09629444032907486,
        -0.14285412430763245
      ],
      [
        -0.0036021771375089884,
        -0.05142443627119064,
        -0.016513776034116745,
        -0.059467874467372894,
        0.20404399931430817,
        -0.02341030165553093,
        -0.17978434264659882,
        -0.2081572413444519,
        -0.13995595276355743,
        0.1486550122499466,
        -0.049400463700294495,
        -0.15861961245536804,
        -0.0050041223876178265,
        -0.022741520777344704,
        0.0170361939817667,
        0.004288828931748867,
        -0.004254636820405722,
        -0.33513548970222473,
        0.1980254203081131,
        -0.03289967402815819
      ],
      [
        0.7885412573814392,
        0.5965279340744019,
        -0.3715514838695526,
        -0.9493796229362488,
        0.4705659747123718,
        -0.8161889314651489,
        0.06194169446825981,
        0.35538002848625183,
        -0.6783693432807922,
        0.7525894045829773,
        0.6318928599357605,
        -0.07524812966585159,
        0.5167101621627808,
        -0.010625151917338371,
        -0.2304147183895111,
        0.7453359365463257,
        -0.8455802798271179,
        0.29873815178871155,
        0.24165141582489014,
        -0.030925780534744263
      ],
      [
        -0.35295337438583374,
        0.0528084859251976,
        0.8889049291610718,
        0.6645137667655945,
        0.019679855555295944,
        1.2277531623840332,
        -0.1369599997997284,
        0.2048727571964264,
        1.1827714443206787,
        -0.41413378715515137,
        -0.31505286693573,
        0.07494831830263138,
        0.14049607515335083,
        0.677386462688446,
        0.5725640654563904,
        -0.6676377058029175,
        0.9646928906440735,
        -0.28676798939704895,
        -0.08537913113832474,
        0.012214266695082188
      ],
      [
        -0.26600411534309387,
        -0.28291282057762146,
        0.8243563771247864,
        0.6201939582824707,
        -0.2721284031867981,
        0.6294748187065125,
        0.21878467500209808,
        -0.03464340791106224,
        1.4326658248901367,
        -0.48036330938339233,
        -0.4476167559623718,
        -0.0010768219362944365,
        0.16532984375953674,
        0.7076789140701294,
        0.6404758095741272,
        -0.5425107479095459,
        0.822823703289032,
        -0.45200586318969727,
        0.07442719489336014,
        -0.18538084626197815
      ],
      [
        0.42694804072380066,
        0.8226321339607239,
        -0.610598623752594,
        -1.10541832447052,
        0.7300706505775452,
        -0.4960251450538635,
        0.1403549313545227,
        0.13939596712589264,
        -0.4193212389945984,
        0.48987799882888794,
        0.6276446580886841,
        0.27244964241981506,
        0.45872825384140015,
        -0.6634474992752075,
        -0.4669434428215027,
        0.690144419670105,
        -0.7702779173851013,
        0.5233542919158936,
        -0.08705483376979828,
        0.3380350172519684
      ],
      [
        0.1607595980167389,
        0.8585052490234375,
        -1.269946575164795,
        -1.2498276233673096,
        0.3556247353553772,
        -1.1070597171783447,
        0.21233674883842468,
        0.08407577127218246,
        -1.6056194305419922,
        0.3918606638908386,
        0.11472167819738388,
        0.5327185988426208,
        0.39903590083122253,
        -0.8234941959381104,
        -0.8470630049705505,
        0.1773141473531723,
        -1.4498165845870972,
        0.5592668652534485,
        -0.008481379598379135,
        0.6024653315544128
      ]
    ],
    "layer_2_weight_logvar": [
      [
        -0.3460584878921509,
        -4.283994197845459,
        -2.715580701828003,
        -1.8170796632766724,
        -4.024298191070557,
        -1.4566373825073242,
        -4.456721782684326,
        -4.532343864440918,
        -4.027887344360352,
        -3.6019108295440674,
        -0.7027571797370911,
        -5.360719680786133,
        -5.271649360656738,
        -4.280029296875,
        -1.9714387655258179,
        -0.4576570987701416,
        -1.0227402448654175,
        -3.9655401706695557,
        -4.696756362915039,
        -2.2030534744262695
      ],
      [
        0.026551764458417892,
        -0.371780127286911,
        -0.13276910781860352,
        -0.05996868014335632,
        -0.10206575691699982,
        -0.007141193840652704,
        -0.8820364475250244,
        -0.22943496704101562,
        -0.16137245297431946,
        0.10419923067092896,
        -0.052389077842235565,
        -1.308855414390564,
        -1.6153228282928467,
        -0.22092659771442413,
        -0.05233180895447731,
        -0.017144499346613884,
        -0.17206937074661255,
        -0.09010491520166397,
        -1.1750199794769287,
        -0.2632209062576294
      ],
      [
        -0.7678845524787903,
        -4.18813419342041,
        -3.0194175243377686,
        -1.9090750217437744,
        -3.4812428951263428,
        -1.6930299997329712,
        -4.405740737915039,
        -4.592673301696777,
        -3.610246181488037,
        -3.7938714027404785,
        -1.056427240371704,
        -5.500317096710205,
        -5.196961879730225,
        -4.466598033905029,
        -2.1559200286865234,
        -0.9539593458175659,
        -1.2079092264175415,
        -2.898681879043579,
        -4.66326379776001,
        -2.777662515640259
      ],
      [
        0.01669079065322876,
        -1.6975983381271362,
        -2.5035650730133057,
        -1.69362473487854,
        -0.7515663504600525,
        -0.7768388986587524,
        -3.7837941646575928,
        -4.09709358215332,
        -2.5251543521881104,
        -1.191959023475647,
        -0.01740608550608158,
        -5.005215167999268,
        -4.688483238220215,
        -3.5463173389434814,
        -1.3384431600570679,
        0.1306963860988617,
        -0.814108669757843,
        -0.8594454526901245,
        -3.2438580989837646,
        -2.0798146724700928
      ],
      [
        -0.851850152015686,
        -2.6847262382507324,
        -0.7235687971115112,
        -2.8785109519958496,
        -1.998344898223877,
        -0.3810419738292694,
        -2.7440333366394043,
        -1.8933250904083252,
        -4.466968536376953,
        -2.7081522941589355,
        -0.6379490494728088,
        -3.323198080062866,
        -2.9640493392944336,
        -1.337735891342163,
        -0.21130245923995972,
        -0.714338481426239,
        -0.2553071081638336,
        -2.1884706020355225,
        -3.959962844848633,
        -0.28485408425331116
      ],
      [
        -1.172194004058838,
        -3.1387693881988525,
        -3.3848788738250732,
        -2.932999610900879,
        -3.3618288040161133,
        -1.9945118427276611,
        -4.829620838165283,
        -4.3921427726745605,
        -4.674245834350586,
        -3.416146993637085,
        -1.492681622505188,
        -5.672513008117676,
        -5.648372650146484,
        -4.360095977783203,
        -2.419753074645996,
        -1.1350996494293213,
        -0.9165396094322205,
        -3.216320753097534,
        -5.25452995300293,
        -3.521641254425049
      ],
      [
        -0.323486328125,
        -1.258394479751587,
        -2.076265811920166,
        -1.4408810138702393,
        -0.6277645826339722,
        -1.5910009145736694,
        -3.8851771354675293,
        -3.7199835777282715,
        -1.368394136428833,
        -0.5027797222137451,
        -0.2386118620634079,
        -4.709472179412842,
        -5.007804870605469,
        -3.284719944000244,
        -1.2760564088821411,
        0.032293643802404404,
        -0.7814845442771912,
        -0.13871490955352783,
        -3.2684552669525146,
        -2.547450065612793
      ],
      [
        -0.4181530773639679,
        -2.578381061553955,
        -3.1111130714416504,
        -3.101541042327881,
        -1.9996063709259033,
        -2.011647939682007,
        -4.232268810272217,
        -4.606687068939209,
        -4.0227837562561035,
        -2.6475634574890137,
        -0.7099500298500061,
        -5.29656457901001,
        -5.377587795257568,
        -4.880610942840576,
        -3.083918333053589,
        -0.6587919592857361,
        -1.604354739189148,
        -2.077436685562134,
        -4.379716873168945,
        -2.8785901069641113
      ],
      [
        -1.7495259046554565,
        -4.195955276489258,
        0.16655638813972473,
        0.0465962253510952,
        -3.3365602493286133,
        0.05106091871857643,
        -3.996544122695923,
        -3.9715325832366943,
        -5.214003086090088,
        -3.7607262134552,
        -1.9941256046295166,
        -4.819804668426514,
        -4.611274242401123,
        -0.2973298132419586,
        -0.03429697826504707,
        -1.6278350353240967,
        0.023684009909629822,
        -3.344715118408203,
        -5.338052272796631,
        -1.0417851209640503
      ],
      [
        0.014549865387380123,
        -2.6253583431243896,
        -2.1938061714172363,
        -1.6057239770889282,
        -2.534318685531616,
        -1.3657678365707397,
        -4.174156665802002,
        -4.031930446624756,
        -3.6957337856292725,
        -2.662891387939453,
        -0.07303820550441742,
        -5.0103983879089355,
        -5.200755596160889,
        -3.4924867153167725,
        -1.1682467460632324,
        -0.054232027381658554,
        -1.2087280750274658,
        -1.5818108320236206,
        -4.014791011810303,
        -2.3043434619903564
      ],
      [
        -0.5099446177482605,
        -4.633293151855469,
        -3.234060287475586,
        -3.7866203784942627,
        -2.863050937652588,
        -2.587737560272217,
        -4.60538387298584,
        -4.455007553100586,
        -1.933862328529358,
        -2.1895945072174072,
        -0.284890353679657,
        -5.360896587371826,
        -5.358729839324951,
        -4.594391822814941,
        -2.7589104175567627,
        -0.4916209876537323,
        -1.7302215099334717,
        -3.135714530944824,
        -4.879491329193115,
        -3.159907102584839
      ],
      [
        -0.350102037191391,
        -2.0283749103546143,
        -2.0919651985168457,
        -1.2229177951812744,
        -1.741396188735962,
        -1.0850961208343506,
        -3.7589030265808105,
        -3.5862722396850586,
        -3.5687854290008545,
        -2.8092920780181885,
        -0.34748682379722595,
        -4.819215297698975,
        -5.129636287689209,
        -3.3016045093536377,
        -1.1907553672790527,
        -0.36987483501434326,
        -0.9366342425346375,
        -1.5509965419769287,
        -3.983398914337158,
        -1.9382688999176025
      ],
      [
        -0.9612045884132385,
        -3.1803700923919678,
        -2.799030303955078,
        -2.6378304958343506,
        -2.3574397563934326,
        -1.7999162673950195,
        -4.348133087158203,
        -4.384067535400391,
        -3.827399253845215,
        -2.491349220275879,
        -0.24592193961143494,
        -5.4065046310424805,
        -5.031462669372559,
        -4.584135055541992,
        -2.250357151031494,
        -0.5040667057037354,
        -1.4572479724884033,
        -1.99234938621521,
        -4.6377177238464355,
        -3.061304807662964
      ],
      [
        -0.8681293725967407,
        -2.8449270725250244,
        -0.012606185860931873,
        -0.051917534321546555,
        -3.250546455383301,
        -0.02770395763218403,
        -2.2459144592285156,
        -1.7649683952331543,
        -3.7542366981506348,
        -3.14662766456604,
        -0.9567107558250427,
        -2.342625617980957,
        -1.679089903831482,
        -0.437600314617157,
        -0.3412467837333679,
        -0.7023980617523193,
        -0.0924471914768219,
        -2.69568133354187,
        -5.073772430419922,
        -0.02690390683710575
      ],
      [
        -0.006207752041518688,
        -3.3976292610168457,
        -0.0042142244055867195,
        -0.029017744585871696,
        -2.323091983795166,
        -0.02158832922577858,
        -0.2186538130044937,
        -0.4728900194168091,
        -0.43291810154914856,
        -1.1463038921356201,
        -0.000738519593141973,
        -1.0514004230499268,
        -0.3708452582359314,
        -0.16028164327144623,
        -0.019664159044623375,
        -0.005730116739869118,
        -0.03640495985746384,
        -0.43413227796554565,
        -2.013740062713623,
        -0.04791414737701416
      ],
      [
        -0.7780871987342834,
        -4.150933265686035,
        -2.409653425216675,
        -1.4232022762298584,
        -3.7798502445220947,
        -1.2004493474960327,
        -4.119207859039307,
        -4.080451011657715,
        -3.5172879695892334,
        -3.0965054035186768,
        -0.67812579870224,
        -4.930018901824951,
        -5.0535993576049805,
        -4.221407890319824,
        -1.5130484104156494,
        -0.5931910872459412,
        -0.9344419836997986,
        -2.5024683475494385,
        -4.849776268005371,
        -2.0226449966430664
      ],
      [
        -1.217891812324524,
        -4.220527648925781,
        -3.4196009635925293,
        -2.5773074626922607,
        -4.696943283081055,
        -2.1429567337036133,
        -4.476903915405273,
        -4.903755187988281,
        -3.9154114723205566,
        -4.328297138214111,
        -1.6265008449554443,
        -5.492188453674316,
        -5.799604892730713,
        -4.8929924964904785,
        -2.398200511932373,
        -0.6655890941619873,
        -1.3990211486816406,
        -2.971714973449707,
        -5.084897041320801,
        -2.88112473487854
      ],
      [
        -0.33003857731819153,
        -2.5620977878570557,
        -1.5065220594406128,
        -1.2500149011611938,
        -2.488762140274048,
        -0.6322281956672668,
        -3.260486364364624,
        -2.9616432189941406,
        -2.8498117923736572,
        -2.1930830478668213,
        -0.0868096649646759,
        -4.524806499481201,
        -5.040337562561035,
        -2.8539092540740967,
        -0.8419069647789001,
        -0.35333052277565,
        -0.5186071395874023,
        -2.2680070400238037,
        -4.311048984527588,
        -1.5514837503433228
      ],
      [
        -0.6055045127868652,
        -2.140226364135742,
        -1.7190724611282349,
        -0.9255083203315735,
        -2.0537109375,
        -0.9768674373626709,
        -2.973710298538208,
        -3.2718863487243652,
        -3.9444899559020996,
        -2.7543039321899414,
        -0.343252032995224,
        -4.616520881652832,
        -3.8193953037261963,
        -2.32694673538208,
        -0.456892192363739,
        -0.2788291573524475,
        -0.7588741183280945,
        -1.2866592407226562,
        -4.092503070831299,
        -1.7919752597808838
      ],
      [
        -0.06654328107833862,
        -2.3952255249023438,
        -2.9122791290283203,
        -1.901829481124878,
        -1.2398216724395752,
        -2.0384843349456787,
        -4.055232524871826,
        -3.9217233657836914,
        -3.34605073928833,
        -1.8201172351837158,
        0.04806699603796005,
        -5.307908058166504,
        -5.282777309417725,
        -3.66068172454834,
        -1.4327009916305542,
        -0.18151365220546722,
        -0.7664520144462585,
        -1.0071544647216797,
        -4.220036506652832,
        -2.477987289428711
      ]
    ],
    "layer_2_bias_mu": [
      0.27696922421455383,
      -0.6204606890678406,
      0.3470841944217682,
      0.44201505184173584,
      -0.2684645652770996,
      0.6541080474853516,
      -0.8816919326782227,
      0.08651828020811081,
      1.0625972747802734,
      0.3099813759326935,
      -0.6725417971611023,
      0.15629415214061737,
      -0.1539522260427475,
      -0.33298128843307495,
      -0.16381368041038513,
      0.2756710946559906,
      -0.3376406729221344,
      -0.3173903822898865,
      0.18255989253520966,
      0.6272638440132141
    ],
    "layer_2_bias_logvar": [
      -4.96085262298584,
      -1.563501238822937,
      -5.480650424957275,
      -4.300809860229492,
      -3.6950125694274902,
      -5.431868553161621,
      -4.283375263214111,
      -5.162771701812744,
      -5.15847635269165,
      -4.723648548126221,
      -4.428516387939453,
      -4.338614463806152,
      -5.150484561920166,
      -4.211910247802734,
      -1.3802059888839722,
      -5.037942886352539,
      -5.134602069854736,
      -3.9411118030548096,
      -4.389166355133057,
      -4.659903049468994
    ],
    "layer_4_weight_mu": [
      [
        -0.7852342128753662,
        -0.10719389468431473,
        -1.017194390296936,
        -0.7761647701263428,
        -1.198788046836853,
        1.7401307821273804,
        1.057544469833374,
        1.0433435440063477,
        2.3873982429504395,
        -0.8924281597137451,
        1.0203371047973633,
        0.8255225419998169,
        0.9817517995834351,
        -1.2100075483322144,
        0.008419917896389961,
        -0.7230332493782043,
        1.1001367568969727,
        0.6913660168647766,
        -0.7988748550415039,
        -1.36381995677948
      ]
    ],
    "layer_4_weight_logvar": [
      [
        -5.80388879776001,
        -1.7956568002700806,
        -5.801761150360107,
        -5.833050727844238,
        -5.121048450469971,
        -5.224685192108154,
        -5.200119972229004,
        -5.853614330291748,
        -4.9445271492004395,
        -5.650601863861084,
        -5.3375244140625,
        -5.614936351776123,
        -5.304667949676514,
        -4.480391979217529,
        -5.693132400512695,
        -5.547558307647705,
        -5.459897994995117,
        -5.647586345672607,
        -5.0447492599487305,
        -5.255550384521484
      ]
    ],
    "layer_4_bias_mu": [
      -0.1212395653128624
    ],
    "layer_4_bias_logvar": [
      -5.944443225860596
    ]
  }
}