{
  "architecture": [
    {
      "type": "BayesianLinear",
      "in_features": 2,
      "out_features": 30
    },
    {
      "type": "ReLU"
    },
    {
      "type": "BayesianLinear",
      "in_features": 30,
      "out_features": 3
    }
  ],
  "parameters": {
    "layer_0_weight_mu": [
      [
        -0.9548292756080627,
        0.40079566836357117
      ],
      [
        0.7040108442306519,
        0.4227382242679596
      ],
      [
        -0.7214472889900208,
        0.14877928793430328
      ],
      [
        0.35867905616760254,
        0.6128745675086975
      ],
      [
        -0.22303223609924316,
        0.15887916088104248
      ],
      [
        0.1707364320755005,
        0.3372310400009155
      ],
      [
        0.33229896426200867,
        0.5544328689575195
      ],
      [
        0.30749398469924927,
        0.0038488912396132946
      ],
      [
        0.4728715419769287,
        -0.5915486812591553
      ],
      [
        -0.8733924627304077,
        0.8381051421165466
      ],
      [
        1.1529945135116577,
        -0.005577742587774992
      ],
      [
        -0.0630209743976593,
        0.8079270124435425
      ],
      [
        1.0929168462753296,
        0.5307961702346802
      ],
      [
        -0.27798593044281006,
        1.659182071685791
      ],
      [
        -0.1792295128107071,
        -0.44457298517227173
      ],
      [
        -0.8089928030967712,
        0.44438353180885315
      ],
      [
        -0.6292180418968201,
        -0.4391520917415619
      ],
      [
        1.2834205627441406,
        -0.02724137343466282
      ],
      [
        -0.09255810081958771,
        0.3974081873893738
      ],
      [
        0.4655883014202118,
        -0.05495600402355194
      ],
      [
        -0.1919451355934143,
        0.3505186140537262
      ],
      [
        1.3399677276611328,
        0.03845910727977753
      ],
      [
        0.4502254128456116,
        0.021097332239151
      ],
      [
        -0.24800242483615875,
        -0.6012014150619507
      ],
      [
        -0.35936105251312256,
        1.2156559228897095
      ],
      [
        -0.9478788375854492,
        -0.7035824656486511
      ],
      [
        -1.0509850978851318,
        0.5246607661247253
      ],
      [
        0.24335446953773499,
        0.9999641180038452
      ],
      [
        0.07357833534479141,
        -0.4715445041656494
      ],
      [
        0.05642872676253319,
        -0.7630240321159363
      ]
    ],
    "layer_0_weight_logvar": [
      [
        -0.7871707677841187,
        -3.062500238418579
      ],
      [
        -5.0520830154418945,
        -4.583108425140381
      ],
      [
        -3.2961373329162598,
        -4.321630001068115
      ],
      [
        -4.6727776527404785,
        -5.432173252105713
      ],
      [
        -5.859671115875244,
        -5.734115123748779
      ],
      [
        -4.669968128204346,
        -5.339729309082031
      ],
      [
        -3.229447603225708,
        -3.543658494949341
      ],
      [
        -5.3626251220703125,
        -5.629048824310303
      ],
      [
        -4.6436076164245605,
        -4.337383270263672
      ],
      [
        -2.676877975463867,
        -4.80897855758667
      ],
      [
        -5.316133975982666,
        -5.294788837432861
      ],
      [
        -4.694211483001709,
        -4.694758415222168
      ],
      [
        -4.907782077789307,
        -5.0950164794921875
      ],
      [
        -5.828074932098389,
        -5.433119773864746
      ],
      [
        -4.214172840118408,
        -4.237582206726074
      ],
      [
        -5.850709438323975,
        -5.663254261016846
      ],
      [
        -5.782897472381592,
        -5.772916793823242
      ],
      [
        -3.529849052429199,
        -3.4950101375579834
      ],
      [
        -5.788321018218994,
        -5.012722015380859
      ],
      [
        -4.841736316680908,
        -2.6754133701324463
      ],
      [
        -5.53632116317749,
        -4.876894474029541
      ],
      [
        -5.188006401062012,
        -5.020071029663086
      ],
      [
        -4.5169596672058105,
        -5.204052925109863
      ],
      [
        -5.848592758178711,
        -5.915439605712891
      ],
      [
        -4.946740627288818,
        -4.590778827667236
      ],
      [
        -5.788113594055176,
        -5.678746223449707
      ],
      [
        -5.571008205413818,
        -5.470465183258057
      ],
      [
        -5.608572959899902,
        -5.584020137786865
      ],
      [
        -5.233044147491455,
        -4.879277229309082
      ],
      [
        -4.980449199676514,
        -5.401782035827637
      ]
    ],
    "layer_0_bias_mu": [
      -0.010632375255227089,
      0.09626508504152298,
      0.10600931942462921,
      0.14852403104305267,
      -0.06615322083234787,
      -0.09406863152980804,
      0.19717195630073547,
      0.5254272818565369,
      0.06332320719957352,
      -0.2728138864040375,
      0.29240113496780396,
      0.03293133154511452,
      0.2396715134382248,
      -0.1797032207250595,
      0.08071921020746231,
      0.042676836252212524,
      0.10281353443861008,
      0.44518017768859863,
      -0.12126461416482925,
      0.05611005425453186,
      -0.2559451758861542,
      0.07532826066017151,
      0.3731807768344879,
      -0.09168566018342972,
      -0.18403887748718262,
      0.10210085660219193,
      0.008349238894879818,
      0.20249882340431213,
      -0.024911776185035706,
      0.09384554624557495
    ],
    "layer_0_bias_logvar": [
      -0.46072977781295776,
      -2.0450260639190674,
      -0.205905944108963,
      -2.2892467975616455,
      -4.846407890319824,
      -3.1456210613250732,
      -0.6879247426986694,
      -1.8795323371887207,
      0.10147157311439514,
      -0.7112910747528076,
      -3.4693734645843506,
      -0.809396505355835,
      -1.682615876197815,
      -3.176044464111328,
      -1.1863923072814941,
      -4.571341037750244,
      -1.1956555843353271,
      -0.8046252131462097,
      -1.782429575920105,
      -0.131447896361351,
      -0.7464114427566528,
      -2.2698559761047363,
      -3.242793560028076,
      -4.028390884399414,
      -0.8682399988174438,
      -4.722975254058838,
      -2.2864437103271484,
      -4.729160308837891,
      -1.256384253501892,
      -1.1136598587036133
    ],
    "layer_2_weight_mu": [
      [
        0.20001652836799622,
        0.15938441455364227,
        -0.003654057625681162,
        -0.23101288080215454,
        0.19649972021579742,
        0.14014941453933716,
        0.05622697249054909,
        -0.07482679933309555,
        -0.07475367188453674,
        0.26564714312553406,
        -0.04487234354019165,
        -0.14173726737499237,
        -0.21362575888633728,
        0.3449736535549164,
        0.06291551142930984,
        0.12175308167934418,
        -0.2325374186038971,
        -0.1715792417526245,
        0.2307382971048355,
        -0.13842938840389252,
        0.2513885796070099,
        -0.43634286522865295,
        -0.6232731342315674,
        0.22337642312049866,
        0.23173825442790985,
        -0.2503911256790161,
        0.13848137855529785,
        0.09505966305732727,
        -0.11345211416482925,
        -0.07347103953361511
      ],
      [
        -0.05362938344478607,
        0.2727069854736328,
        -0.1621173620223999,
        0.11329437792301178,
        -0.4875571131706238,
        0.0615854412317276,
        0.26354631781578064,
        0.7870466709136963,
        0.270325630903244,
        -0.24039123952388763,
        0.31550484895706177,
        -0.05388127267360687,
        0.1540774405002594,
        -0.1068764328956604,
        -0.14260223507881165,
        -0.5503819584846497,
        -0.10349374264478683,
        0.18274934589862823,
        -0.0099685313180089,
        0.08054272830486298,
        -0.036178216338157654,
        0.018956609070301056,
        0.1105630025267601,
        -0.049566809087991714,
        -0.037905436009168625,
        -0.12243335694074631,
        -0.37481656670570374,
        0.4113622009754181,
        0.03643349930644035,
        0.008157509379088879
      ],
      [
        0.3037540018558502,
        -0.18224120140075684,
        0.16265718638896942,
        0.0010831677354872227,
        -0.19668349623680115,
        -0.18303078413009644,
        0.04033662751317024,
        0.006486924365162849,
        0.08543449640274048,
        0.035171788185834885,
        -0.4635774493217468,
        0.008473115973174572,
        -0.033310819417238235,
        -0.371780663728714,
        0.3446234464645386,
        0.05745166912674904,
        0.3842829465866089,
        -0.3107505142688751,
        -0.2667495310306549,
        0.0345088467001915,
        -0.005133756436407566,
        0.15958088636398315,
        -0.13652750849723816,
        0.0347147211432457,
        -0.12852023541927338,
        0.3206790089607239,
        0.03922470659017563,
        -0.09115978330373764,
        0.09691109508275986,
        0.2187322974205017
      ]
    ],
    "layer_2_weight_logvar": [
      [
        -5.96910285949707,
        -5.822060585021973,
        -5.842321872711182,
        -5.933340549468994,
        -5.380344390869141,
        -5.5123395919799805,
        -5.682852745056152,
        -5.042227268218994,
        -5.9425787925720215,
        -5.69078254699707,
        -5.729341983795166,
        -5.806717872619629,
        -6.023719787597656,
        -5.880436420440674,
        -5.978142738342285,
        -5.73605489730835,
        -5.853811740875244,
        -5.888131618499756,
        -5.776554107666016,
        -5.490795612335205,
        -5.331563472747803,
        -6.026998043060303,
        -4.054662227630615,
        -6.002557754516602,
        -5.842034339904785,
        -5.896899223327637,
        -5.751598834991455,
        -5.956790447235107,
        -5.9820756912231445,
        -4.842142581939697
      ],
      [
        -5.420595645904541,
        -5.838551044464111,
        -4.881778240203857,
        -5.974924087524414,
        -2.8552539348602295,
        -5.737441539764404,
        -5.7376556396484375,
        -2.831482172012329,
        -4.837663173675537,
        -5.441000461578369,
        -5.947239398956299,
        -5.828953742980957,
        -5.865891456604004,
        -5.980069160461426,
        -3.9858782291412354,
        -5.616706371307373,
        -2.9341065883636475,
        -5.814155578613281,
        -5.514410018920898,
        -5.728015899658203,
        -5.663052082061768,
        -5.870954990386963,
        -5.200808048248291,
        -4.827970027923584,
        -5.9100117683410645,
        -5.0011305809021,
        -5.394451141357422,
        -5.8416948318481445,
        -4.102133750915527,
        -3.060840129852295
      ],
      [
        -5.485799312591553,
        -5.515260219573975,
        -5.8331298828125,
        -3.4284420013427734,
        -5.277273178100586,
        -4.633346080780029,
        -5.619720458984375,
        -5.436232089996338,
        -5.782311916351318,
        -2.707993984222412,
        -5.521990776062012,
        -4.457730770111084,
        -5.846251010894775,
        -5.516116619110107,
        -5.6373186111450195,
        -5.9211931228637695,
        -6.0173797607421875,
        -5.616800785064697,
        -4.726501941680908,
        -5.741379737854004,
        -3.0928521156311035,
        -5.53683614730835,
        -4.173218250274658,
        -5.92037296295166,
        -5.0873613357543945,
        -5.80817174911499,
        -5.268884181976318,
        -5.636392116546631,
        -5.686902046203613,
        -5.621603012084961
      ]
    ],
    "layer_2_bias_mu": [
      -0.15488053858280182,
      0.20879758894443512,
      0.04250180348753929
    ],
    "layer_2_bias_logvar": [
      -5.352285385131836,
      -5.657394886016846,
      -5.314980983734131
    ]
  }
}