// GANModel.h  -  Auto-generated GAN Generator
// Do NOT edit weights manually.

#pragma once
#include <math.h>

// Generator block 0  in=8  out=256  act=relu  bn=True  cond=False
static const float gen0_W[256][8] = {
    {-0.00800490f, 0.00103227f, 0.02142132f, 0.02699761f, -0.00004587f, -0.00841579f, -0.03122468f, -0.00103380f},
    {-0.00992481f, -0.02316757f, 0.03852170f, 0.01589602f, 0.01046161f, -0.00983116f, 0.00426562f, 0.01181212f},
    {0.03580419f, 0.02699767f, -0.04052740f, -0.00888763f, -0.01539547f, -0.02391200f, -0.00605096f, -0.00533141f},
    {0.00359634f, 0.00217381f, -0.03383753f, -0.02459861f, -0.01080718f, 0.00619430f, -0.01645355f, -0.01661306f},
    {0.00019756f, 0.01337443f, -0.03494931f, -0.01725155f, -0.00456394f, 0.01294428f, -0.00978136f, -0.00706083f},
    {0.01102285f, 0.03314738f, -0.01096641f, 0.01501411f, -0.00861814f, -0.02985377f, 0.02766227f, 0.01039514f},
    {-0.00425390f, 0.01226342f, -0.05648161f, -0.02447677f, -0.01910674f, 0.00469305f, 0.00087995f, -0.01262842f},
    {0.00083635f, 0.00244706f, -0.00421524f, 0.00978836f, 0.00706305f, 0.00974049f, -0.04761460f, 0.00290172f},
    {-0.00023286f, -0.02899145f, 0.05935859f, 0.02368597f, 0.00699117f, -0.02137886f, 0.03221525f, 0.01198036f},
    {-0.00256963f, -0.01423471f, -0.02349398f, -0.02227927f, -0.01532224f, 0.00336335f, 0.02931570f, 0.00142320f},
    {0.00176330f, 0.01705379f, -0.04533719f, -0.02334375f, -0.00646804f, 0.01572528f, -0.01364007f, -0.00860753f},
    {-0.01489292f, 0.03241135f, -0.02124151f, 0.00434332f, -0.00885780f, 0.01781554f, -0.03514654f, -0.02690941f},
    {-0.01227956f, -0.00381305f, 0.04040730f, 0.01704522f, 0.01882095f, -0.00470884f, 0.01567160f, 0.00416803f},
    {0.02317424f, 0.04430196f, -0.02717110f, -0.01517707f, -0.03362955f, -0.01162415f, 0.02629432f, -0.00184220f},
    {0.00384997f, 0.01244574f, -0.04428060f, -0.02890150f, -0.00844025f, 0.01576775f, 0.00002756f, -0.00900139f},
    {-0.00568038f, 0.00663772f, -0.05258120f, -0.00653512f, 0.00798655f, 0.02398857f, -0.01207067f, -0.00257499f},
    {-0.03015747f, -0.01222150f, 0.00815858f, 0.01561846f, 0.02060840f, 0.01765047f, 0.01247855f, -0.00315409f},
    {0.00643710f, -0.01487625f, -0.01672058f, -0.02612963f, -0.00769917f, 0.00771665f, 0.03580895f, -0.00576193f},
    {-0.01114366f, 0.01750046f, 0.02330923f, 0.01809500f, 0.00223051f, -0.00540522f, -0.05074750f, 0.01466381f},
    {-0.01821187f, 0.02364590f, 0.02148530f, 0.01666280f, 0.00695922f, -0.03605597f, 0.01791944f, -0.02900893f},
    {0.00986550f, 0.02707296f, -0.04353599f, -0.01510235f, 0.00221157f, -0.00197121f, -0.01198414f, -0.02133853f},
    {0.03446775f, 0.01510242f, 0.00806074f, -0.02542507f, -0.02123520f, -0.02891788f, 0.00188581f, 0.00472585f},
    {-0.00910653f, 0.02013110f, -0.00635049f, 0.03790541f, 0.02668056f, 0.00706598f, -0.02613702f, 0.00945730f},
    {0.01708302f, 0.01528848f, -0.03274005f, 0.01660265f, -0.00369030f, -0.00217665f, 0.01977733f, 0.00077668f},
    {-0.00189254f, -0.01349526f, 0.03487420f, 0.01739327f, 0.00740505f, -0.00396966f, 0.00035392f, 0.00462319f},
    {-0.02848364f, 0.00398237f, 0.01408514f, 0.01479361f, 0.02372186f, -0.00061405f, 0.00772834f, -0.01132853f},
    {-0.00671896f, 0.02373411f, -0.00486173f, 0.01616442f, 0.00506802f, 0.00283634f, -0.05257381f, 0.00382005f},
    {-0.01006637f, 0.01236990f, 0.03052703f, 0.01671176f, -0.00183495f, -0.00915228f, 0.00294252f, -0.00551959f},
    {0.01648139f, -0.01089803f, 0.04106780f, 0.00427995f, -0.00022261f, -0.00268043f, 0.02419277f, -0.00015553f},
    {-0.00587860f, 0.02375159f, 0.00201459f, 0.01902113f, 0.00513183f, -0.00073803f, -0.04730069f, 0.00466538f},
    {-0.00182991f, -0.01432122f, 0.04756831f, 0.02716340f, 0.00880890f, -0.01697811f, 0.00576236f, 0.01212766f},
    {-0.00739477f, 0.03053214f, 0.03561298f, 0.02976582f, -0.00040035f, -0.01249227f, 0.01580605f, 0.01143721f},
    {-0.00640179f, 0.02085529f, -0.00167844f, 0.01590825f, 0.00580307f, 0.00157114f, -0.04448990f, 0.00311744f},
    {-0.01144681f, -0.00747595f, -0.00358194f, -0.00358096f, 0.01751018f, 0.04496649f, 0.00386278f, -0.00097635f},
    {0.01455422f, -0.01553773f, -0.03232766f, -0.03940151f, -0.00084263f, 0.00350054f, 0.05183526f, -0.00494304f},
    {-0.00821571f, 0.01227511f, 0.02608216f, 0.03325802f, 0.01009915f, -0.01197527f, -0.04570696f, 0.01079069f},
    {0.00639644f, -0.00811262f, -0.01977849f, -0.02438714f, -0.00832104f, 0.00503404f, 0.02861134f, -0.00612916f},
    {-0.03856809f, -0.02235045f, 0.01283211f, 0.00689550f, 0.03006832f, 0.02755188f, 0.01725858f, -0.00409145f},
    {-0.02946235f, 0.03349305f, -0.03313908f, -0.02492162f, 0.02249667f, 0.03005890f, -0.03716524f, 0.01173968f},
    {-0.00536020f, 0.00784151f, 0.01556241f, 0.01976254f, 0.00561850f, -0.00635410f, -0.02345730f, 0.00403216f},
    {0.00675620f, -0.01636735f, -0.01751980f, -0.02759600f, -0.00859014f, 0.00798793f, 0.03882242f, -0.00574147f},
    {0.00471378f, -0.02248548f, 0.04403830f, 0.01836549f, 0.00650278f, -0.01288597f, 0.02345171f, 0.01104100f},
    {-0.00753300f, 0.01741131f, 0.02351053f, 0.02901381f, 0.01205961f, -0.00419353f, -0.04934784f, 0.00908847f},
    {0.01083145f, 0.00445508f, 0.03024190f, 0.02445622f, -0.00606719f, -0.01976971f, 0.00300482f, 0.01191836f},
    {0.00542983f, -0.01427680f, -0.01299708f, -0.02195466f, -0.00749328f, 0.00633708f, 0.03416836f, -0.00629023f},
    {0.00690372f, -0.01734905f, -0.01479148f, -0.02610494f, -0.00889710f, 0.00712229f, 0.04224678f, -0.00681892f},
    {0.00448210f, 0.04083758f, -0.02777210f, -0.01859752f, -0.00365614f, 0.00146673f, -0.04530002f, 0.01232217f},
    {0.00012971f, -0.01188144f, 0.02336800f, 0.00921489f, 0.00309668f, -0.00793730f, 0.01271992f, 0.00386768f},
    {-0.00975310f, 0.02747939f, -0.00726477f, 0.02182543f, 0.00616479f, 0.00469098f, -0.06963181f, 0.00520315f},
    {0.00164243f, -0.00110974f, -0.03523614f, -0.02474430f, -0.01257352f, 0.01947354f, -0.01868501f, -0.01041298f},
    {-0.00108649f, 0.01559018f, 0.02077168f, 0.03208935f, 0.01422382f, -0.01374682f, -0.03289722f, 0.00648413f},
    {-0.01239520f, 0.00425891f, -0.00899776f, 0.02041443f, -0.00268073f, 0.01027514f, -0.04493199f, 0.00213927f},
    {-0.00655079f, 0.01044198f, 0.02032665f, 0.02534254f, 0.00715116f, -0.00796809f, -0.03150599f, 0.00586422f},
    {0.01659189f, -0.01642630f, 0.04655414f, 0.01864993f, -0.01043477f, -0.01857915f, 0.01637052f, 0.01509785f},
    {0.00494334f, 0.00553722f, -0.03950945f, -0.01213646f, -0.00692731f, 0.01460746f, -0.01490212f, -0.01589966f},
    {-0.00733659f, -0.01089089f, 0.04113057f, 0.01849228f, 0.00193466f, -0.00824506f, 0.00610591f, 0.01339244f},
    {0.02458438f, -0.00030170f, 0.05836139f, -0.00465766f, -0.02412520f, -0.02018867f, 0.01990189f, 0.01549000f},
    {0.00663996f, 0.02882994f, 0.01257193f, -0.00257597f, 0.00096895f, 0.00486835f, 0.01704614f, -0.01433926f},
    {-0.00955812f, 0.03177646f, -0.00764546f, 0.02076617f, 0.00640058f, 0.00470167f, -0.07251394f, 0.00492998f},
    {-0.00723714f, 0.02158944f, 0.01830132f, 0.01257043f, 0.00868175f, 0.00102532f, -0.03918101f, 0.00879809f},
    {-0.03779595f, 0.01791441f, -0.00960571f, 0.00763231f, 0.03335733f, 0.00249560f, 0.01237776f, 0.00586593f},
    {-0.00002580f, -0.04187499f, -0.01024554f, -0.01738532f, -0.00935283f, -0.00259408f, 0.06107090f, -0.01008806f},
    {0.02213227f, 0.00450419f, -0.02033336f, 0.01211900f, -0.00548510f, -0.01182349f, -0.00797065f, -0.01524758f},
    {-0.00697719f, 0.02499878f, 0.00123433f, 0.02198955f, 0.00680856f, -0.00123335f, -0.05305471f, 0.00393731f},
    {0.00677170f, -0.04717612f, -0.02339077f, -0.02488643f, -0.00891127f, 0.01249526f, 0.03902955f, 0.00677668f},
    {-0.00582806f, 0.02120838f, -0.01643276f, -0.00410822f, 0.00219256f, 0.00342175f, -0.04870808f, 0.00830571f},
    {0.00209523f, -0.00303652f, -0.02033552f, -0.02173982f, -0.00352492f, 0.00073374f, 0.02707228f, -0.00764060f},
    {0.00797921f, -0.01829706f, -0.01701484f, -0.02988374f, -0.00950777f, 0.00836820f, 0.04835574f, -0.00789753f},
    {0.00152772f, 0.02550175f, -0.02115741f, 0.00966986f, 0.00273763f, 0.01409470f, -0.05857075f, -0.00368340f},
    {0.01540058f, 0.03191573f, -0.05067294f, -0.03617322f, 0.01097898f, 0.00666148f, -0.01139356f, -0.00666765f},
    {0.01555286f, 0.00382296f, -0.05766385f, -0.01684967f, -0.02435516f, 0.01443206f, 0.01719767f, -0.01905059f},
    {0.00467330f, -0.01239545f, -0.01204831f, -0.02129829f, -0.00734908f, 0.00592376f, 0.03118037f, -0.00566467f},
    {-0.00176155f, 0.04715148f, 0.00527828f, 0.01075754f, 0.01616281f, -0.01156970f, -0.04450382f, 0.01246980f},
    {-0.00250291f, -0.01297466f, 0.02236380f, 0.01086144f, -0.00571150f, -0.01210597f, 0.03296046f, -0.00089513f},
    {0.00513574f, -0.01062187f, -0.01364498f, -0.02080047f, -0.00611020f, 0.00641661f, 0.02791789f, -0.00471652f},
    {-0.00647411f, 0.01039665f, 0.05184661f, 0.02144915f, -0.00004675f, 0.00539276f, 0.00986642f, 0.00088311f},
    {-0.00721413f, 0.01221787f, 0.02122791f, 0.02489041f, 0.00600310f, -0.00718329f, -0.02669458f, 0.00605776f},
    {0.00381963f, -0.00780174f, 0.00867410f, -0.00901098f, -0.00411385f, 0.00398250f, 0.02650003f, -0.00667306f},
    {0.00424580f, -0.01035450f, -0.01024830f, -0.01765127f, -0.00609134f, 0.00498313f, 0.02658070f, -0.00508252f},
    {0.00602960f, -0.01364877f, -0.01309485f, -0.02330235f, -0.00741790f, 0.00655400f, 0.03357410f, -0.00572559f},
    {0.00308063f, -0.01071151f, 0.01649037f, 0.03153493f, 0.01729203f, -0.01822104f, 0.05503284f, -0.01002856f},
    {-0.00278295f, 0.00174997f, 0.06411036f, 0.03519192f, 0.00442716f, -0.01953367f, 0.02854141f, 0.00225160f},
    {-0.00578145f, 0.01466194f, 0.01634659f, 0.02536125f, 0.00734031f, -0.00754301f, -0.03563420f, 0.00507491f},
    {0.00331221f, 0.00755059f, -0.03098721f, -0.02065946f, -0.00681394f, 0.01006488f, 0.00003678f, -0.00620295f},
    {0.00323204f, -0.02534865f, -0.01745522f, -0.01638868f, -0.00233436f, 0.00729490f, 0.01923114f, 0.00176569f},
    {0.00040880f, 0.02882470f, -0.05417466f, -0.02222665f, -0.00570095f, 0.01718455f, -0.03304086f, -0.00956216f},
    {0.00044783f, -0.01952906f, 0.03895844f, 0.01624896f, 0.00554002f, -0.01380140f, 0.02229429f, 0.00802780f},
    {-0.06052482f, -0.05714933f, 0.00917243f, -0.02130505f, 0.03100175f, -0.00221311f, -0.00724449f, -0.01954963f},
    {0.03348798f, 0.00524838f, 0.04516118f, 0.02154907f, 0.02051106f, -0.01127302f, 0.04393434f, -0.00643956f},
    {-0.05165283f, -0.02007615f, 0.03959448f, 0.00679553f, 0.03723183f, 0.02031054f, 0.01533559f, -0.00044111f},
    {-0.00190235f, -0.00742453f, 0.02662538f, 0.01714359f, 0.00495188f, -0.00960204f, 0.00125748f, 0.00582073f},
    {-0.00530190f, 0.01256288f, 0.01305564f, 0.02138812f, 0.00609852f, -0.00583892f, -0.03086089f, 0.00511333f},
    {0.00727276f, 0.00663706f, -0.02681669f, -0.03382551f, -0.00546433f, 0.01227953f, 0.03229091f, -0.01224198f},
    {-0.00388295f, 0.00953029f, 0.01095411f, 0.01714988f, 0.00507021f, -0.00509614f, -0.02363682f, 0.00366864f},
    {0.02432888f, -0.03790237f, -0.05930829f, -0.01709521f, -0.00101733f, 0.00114320f, -0.00061626f, -0.00007743f},
    {-0.00015237f, -0.01694929f, 0.03328775f, 0.01361369f, 0.00459170f, -0.01230747f, 0.01793474f, 0.00629721f},
    {0.02383422f, -0.01819415f, -0.02159124f, -0.04317509f, 0.00810622f, 0.00733264f, 0.02960395f, -0.00140123f},
    {-0.00582910f, 0.02153248f, -0.00694152f, 0.01227354f, 0.00374922f, 0.00381264f, -0.04680184f, 0.00321137f},
    {0.00608379f, -0.01281558f, -0.01546741f, -0.02351659f, -0.00733043f, 0.00684558f, 0.03261103f, -0.00510813f},
    {0.00152097f, 0.01424119f, -0.04087481f, -0.02300432f, -0.00653157f, 0.01493326f, -0.00864122f, -0.00871127f},
    {0.00732546f, -0.01860487f, -0.01745833f, -0.03148999f, -0.01032258f, 0.00809333f, 0.04865888f, -0.00847866f},
    {-0.00659768f, 0.01846050f, -0.02588229f, -0.01500940f, -0.00416993f, 0.01024524f, -0.00491773f, -0.00592204f},
    {0.00180033f, 0.01754321f, -0.05084388f, -0.02811430f, -0.00816260f, 0.01764527f, -0.00986337f, -0.01047050f},
    {0.00817954f, -0.02598357f, -0.00171452f, -0.02134564f, -0.00531187f, 0.00258476f, 0.05200614f, -0.00463386f},
    {-0.00490342f, 0.00398711f, -0.01396289f, 0.00481438f, 0.00003868f, -0.00510130f, -0.05347462f, 0.00386643f},
    {-0.00059239f, -0.00033075f, -0.00115635f, 0.00577990f, 0.01351375f, 0.04632954f, -0.01303283f, -0.00122214f},
    {-0.02169552f, -0.02609327f, 0.05301123f, 0.00985666f, 0.01332052f, 0.01040850f, -0.00056757f, 0.00292104f},
    {0.02466725f, 0.02836365f, 0.00723098f, -0.03043788f, -0.01951263f, -0.01234359f, 0.01207670f, -0.01817552f},
    {-0.00360146f, 0.01279139f, -0.00016854f, 0.00990216f, 0.00388000f, 0.00091754f, -0.02670840f, 0.00210189f},
    {0.00162259f, -0.01470541f, -0.02467425f, -0.03463442f, -0.00610023f, 0.02117611f, 0.04654339f, -0.01500085f},
    {0.02354032f, -0.04931041f, 0.00480436f, -0.00313277f, -0.00015238f, 0.00768578f, 0.02498979f, 0.01005468f},
    {-0.00442846f, -0.01422618f, 0.04307053f, 0.02405223f, 0.00701692f, -0.01388969f, 0.00344109f, 0.01040266f},
    {-0.00607635f, 0.02145981f, -0.00273987f, 0.01577479f, 0.00537242f, 0.00187720f, -0.04608006f, 0.00292309f},
    {-0.02896434f, -0.03568342f, 0.02360577f, -0.04605760f, 0.02038950f, 0.04407269f, 0.02402829f, -0.00607434f},
    {-0.00249207f, -0.01384373f, 0.04948204f, 0.03264514f, 0.00807787f, -0.01666044f, 0.00222371f, 0.01164701f},
    {0.00278838f, 0.03368106f, -0.03071173f, 0.03935222f, 0.00844387f, 0.00634603f, -0.01435541f, 0.00442763f},
    {0.01083403f, -0.01260493f, -0.01353268f, -0.02115737f, -0.01502373f, 0.01220638f, 0.04617066f, -0.01353431f},
    {0.01151694f, -0.00444275f, -0.05184084f, -0.00344817f, 0.00288334f, 0.02394044f, 0.02885957f, -0.00917286f},
    {0.00941439f, 0.02467621f, -0.03774431f, -0.00403514f, -0.01333557f, 0.00294113f, -0.00537660f, -0.00091395f},
    {0.00068226f, 0.01636495f, -0.04223534f, -0.02110506f, -0.00602994f, 0.01574271f, -0.01309863f, -0.00867789f},
    {-0.01257171f, 0.01085760f, -0.01204137f, -0.02270727f, 0.01252130f, 0.03001773f, 0.00724446f, -0.00289373f},
    {-0.00469605f, 0.00303552f, -0.04223387f, -0.04246052f, -0.00214396f, 0.03811196f, -0.01380790f, -0.00341959f},
    {0.00224643f, 0.00403488f, 0.04079106f, 0.00964643f, -0.00081008f, -0.01296274f, -0.01320766f, 0.00536213f},
    {-0.02439824f, 0.04693355f, -0.02215724f, 0.01332711f, 0.00538942f, -0.00469089f, 0.03262749f, 0.01328416f},
    {-0.01067047f, 0.01513988f, 0.02545994f, 0.03218345f, 0.01103309f, -0.01182320f, -0.04186377f, 0.01016603f},
    {0.00002860f, 0.02143600f, -0.03414838f, -0.01084032f, -0.00395590f, 0.01137396f, -0.02650215f, -0.00590414f},
    {-0.00246234f, -0.01597783f, 0.02979894f, 0.01404088f, 0.00676440f, -0.00990368f, 0.01633717f, 0.00428600f},
    {0.02169750f, 0.00514005f, -0.00531454f, 0.01161249f, -0.01829129f, -0.04787811f, 0.02546156f, -0.03022901f},
    {-0.01053190f, -0.01979911f, 0.02101445f, 0.02350956f, 0.00977487f, -0.01658030f, -0.00983906f, 0.00886804f},
    {-0.00489459f, 0.01310279f, 0.01274146f, 0.02139992f, 0.00626012f, -0.00571421f, -0.03150061f, 0.00448387f},
    {0.00719831f, -0.01743475f, 0.02808982f, 0.00299729f, -0.00635096f, -0.01483943f, 0.05049084f, 0.00036917f},
    {0.00357375f, -0.03026737f, 0.03372251f, 0.00531844f, 0.00102265f, -0.01538143f, 0.03019493f, 0.01021012f},
    {-0.02186642f, 0.00665503f, -0.01631944f, -0.03265265f, 0.00997116f, 0.02295649f, -0.01990739f, 0.00461237f},
    {0.00700957f, -0.03121645f, 0.03493093f, 0.02385489f, 0.00354028f, -0.01959446f, 0.02431678f, 0.01701882f},
    {-0.00645100f, 0.02324451f, -0.00583505f, 0.01477814f, 0.00511071f, 0.00277056f, -0.05099033f, 0.00248456f},
    {-0.00217664f, -0.01427743f, -0.00645691f, -0.02634994f, -0.00826794f, 0.01141718f, 0.02890640f, 0.00029821f},
    {-0.00617983f, -0.01140977f, 0.04041203f, 0.02182956f, 0.00176608f, -0.01161389f, 0.00537078f, 0.00964720f},
    {-0.00387997f, 0.01579663f, -0.00313507f, 0.01114843f, 0.00380931f, 0.00191645f, -0.03478277f, 0.00223771f},
    {-0.01012425f, -0.00321449f, 0.00907044f, 0.01123839f, 0.01314322f, 0.03523596f, 0.02501258f, 0.00234865f},
    {0.01083178f, -0.02928524f, -0.02536698f, -0.04323111f, -0.01198625f, 0.01233811f, 0.06228371f, -0.00645409f},
    {0.00166372f, 0.00968782f, -0.04212472f, -0.02751365f, -0.00879710f, 0.01499180f, 0.00629673f, -0.00841294f},
    {-0.00427303f, 0.03189459f, -0.05745147f, -0.00982522f, 0.01405865f, 0.01015761f, -0.03921298f, -0.00449166f},
    {0.01524352f, 0.01413008f, -0.03632410f, -0.01381082f, -0.00297794f, 0.01438682f, 0.00707344f, -0.01558791f},
    {0.02536425f, -0.03580146f, 0.03008711f, -0.01327892f, -0.01071655f, 0.00478601f, 0.01737263f, 0.00056513f},
    {-0.00033490f, -0.01409860f, 0.06494924f, 0.04421160f, 0.00685889f, -0.02926204f, 0.02046747f, 0.02504891f},
    {-0.00101841f, 0.02500685f, -0.04516327f, -0.01684523f, -0.00562000f, 0.01516666f, -0.02969563f, -0.00826773f},
    {-0.00827589f, 0.01314642f, 0.02618659f, 0.03162804f, 0.00892208f, -0.01062080f, -0.03929164f, 0.00687010f},
    {0.01285204f, 0.00586159f, 0.03147407f, 0.01085171f, 0.00578213f, -0.02809135f, 0.02366950f, 0.00550550f},
    {0.01452698f, -0.02525971f, -0.02762021f, -0.03837540f, 0.00147017f, 0.00723598f, 0.03227524f, -0.00830780f},
    {0.02788074f, 0.02640981f, 0.01069687f, -0.02063674f, -0.01567501f, -0.03653773f, 0.01093661f, 0.00366513f},
    {0.00971516f, -0.01103210f, -0.00578939f, -0.01411368f, -0.01700511f, -0.00740350f, 0.03793480f, 0.01235346f},
    {-0.03395317f, 0.01971995f, 0.04258598f, 0.02341622f, 0.00086535f, 0.01273974f, -0.00406043f, 0.00550731f},
    {-0.00065175f, -0.01247500f, 0.03293061f, 0.01747131f, 0.00480531f, -0.01221077f, 0.00996770f, 0.00663098f},
    {0.01063746f, 0.00087275f, 0.02167238f, 0.02916313f, -0.00125304f, -0.03620800f, 0.01687439f, -0.01682845f},
    {0.00069363f, 0.01558076f, -0.03923372f, -0.01853931f, -0.00511651f, 0.01447617f, -0.01346470f, -0.00778330f},
    {0.00182606f, -0.01133461f, 0.03059119f, 0.04863344f, -0.00482761f, -0.03649072f, 0.01142632f, -0.02119098f},
    {0.00531317f, -0.01399991f, -0.01264521f, -0.02066535f, -0.00712425f, 0.00570999f, 0.03369424f, -0.00510858f},
    {-0.00456920f, 0.00656296f, 0.01311296f, 0.01551370f, 0.00453663f, -0.00462778f, -0.02736985f, 0.00499065f},
    {0.00093966f, -0.01714202f, 0.02857877f, 0.00908993f, 0.00286500f, -0.00916382f, 0.01955067f, 0.00539986f},
    {-0.03243853f, -0.00999909f, 0.01068264f, 0.01375125f, 0.02474379f, 0.02486187f, 0.02102079f, 0.00068377f},
    {0.01021941f, -0.00737951f, -0.00962777f, -0.01545719f, -0.00603189f, 0.00385365f, 0.01569883f, -0.00759021f},
    {-0.02495035f, -0.01279045f, 0.07794096f, 0.02021153f, 0.01650156f, -0.02625789f, -0.01284401f, 0.01519749f},
    {0.00334178f, -0.03291056f, 0.02367575f, -0.00467524f, -0.00130993f, -0.00809672f, 0.05207080f, 0.00341168f},
    {-0.00726479f, 0.02185441f, -0.00393837f, 0.01486453f, 0.00623219f, 0.00445663f, -0.05290730f, 0.00462892f},
    {0.00017226f, 0.01228024f, -0.03207392f, -0.01669432f, -0.00332117f, 0.01296994f, -0.01046133f, -0.00613455f},
    {-0.00115084f, 0.01895561f, -0.03544427f, 0.00193905f, 0.00115085f, 0.02201999f, -0.04095153f, -0.01381350f},
    {0.00193686f, 0.02204813f, -0.05859070f, -0.03096002f, -0.00760419f, 0.02157217f, -0.01647722f, -0.01224959f},
    {0.01102076f, 0.06447738f, 0.00537500f, -0.01004308f, 0.01435654f, -0.00481240f, 0.00346791f, 0.00364162f},
    {-0.00461159f, 0.01499565f, 0.00037039f, 0.01278047f, 0.00454101f, 0.00024189f, -0.03187281f, 0.00210618f},
    {0.02579172f, 0.03606522f, -0.05239865f, -0.00102266f, -0.01851048f, -0.00752448f, -0.02045262f, 0.00823261f},
    {0.00354151f, 0.00944722f, -0.04137333f, -0.02757581f, -0.00820562f, 0.01466385f, 0.00405420f, -0.00927706f},
    {-0.00488385f, 0.00877945f, 0.01669946f, 0.02218026f, 0.00501416f, -0.00722661f, -0.02791735f, 0.00438185f},
    {0.00556160f, -0.00866351f, 0.03317477f, 0.01297612f, 0.00494006f, -0.00715573f, 0.01267441f, 0.00288689f},
    {-0.00219399f, -0.02529008f, -0.01107323f, -0.01735254f, -0.01422126f, 0.00528274f, 0.05625834f, -0.00708092f},
    {0.01448394f, 0.00186137f, -0.00631487f, -0.01301277f, -0.01141840f, 0.03568584f, 0.03820423f, -0.01486436f},
    {0.00983262f, -0.00139238f, -0.01560035f, 0.00147719f, 0.00697222f, 0.03752042f, 0.03693563f, -0.00756253f},
    {0.01998658f, 0.01175017f, -0.00313695f, -0.02949033f, -0.01872475f, 0.00215427f, 0.04631534f, -0.02098227f},
    {-0.00633418f, 0.01369400f, 0.01253872f, 0.02244256f, 0.00827901f, -0.01344726f, -0.02585636f, 0.00034796f},
    {-0.00219854f, -0.00828011f, 0.02860049f, 0.01833666f, 0.00585833f, -0.01001133f, 0.00070220f, 0.00573479f},
    {0.00310086f, 0.03060728f, -0.04132753f, 0.00373356f, -0.00746651f, -0.00284948f, -0.01668374f, -0.00752608f},
    {-0.00698198f, -0.02238126f, 0.01821320f, -0.00973834f, 0.01700843f, -0.01214684f, 0.04397323f, -0.00389389f},
    {0.00282755f, -0.01452627f, 0.00948437f, -0.00368214f, -0.00155396f, -0.00318493f, 0.02673259f, -0.00049039f},
    {-0.01755409f, 0.02828420f, 0.01960484f, -0.00249524f, 0.03192256f, 0.04475791f, 0.00209128f, -0.01603593f},
    {0.00529906f, -0.01188878f, -0.01391975f, -0.02123711f, -0.00685851f, 0.00658329f, 0.02981962f, -0.00554104f},
    {0.00731129f, -0.01562098f, -0.01849343f, -0.02785510f, -0.00855712f, 0.00794840f, 0.03884373f, -0.00601166f},
    {-0.00699191f, 0.02395319f, 0.00017431f, 0.01984058f, 0.00633184f, -0.00016197f, -0.05078889f, 0.00329028f},
    {0.00126749f, 0.02006230f, -0.05158611f, -0.02456679f, -0.00795954f, 0.01992232f, -0.01856895f, -0.00954963f},
    {-0.00792682f, 0.02700597f, -0.00531092f, 0.01904071f, 0.00642518f, 0.00333163f, -0.06089626f, 0.00437909f},
    {-0.00460223f, 0.00575267f, 0.01300518f, 0.01714513f, 0.00448341f, -0.00590221f, -0.02325004f, 0.00471736f},
    {0.00326259f, -0.01017032f, -0.00930187f, -0.01624477f, -0.00566535f, 0.00458166f, 0.02595256f, -0.00431313f},
    {0.03933157f, -0.02447799f, 0.01259401f, 0.00306063f, -0.04525922f, -0.00568681f, 0.03608480f, 0.01277390f},
    {0.00106301f, 0.01512946f, -0.03701302f, -0.01906175f, -0.00455391f, 0.01278081f, -0.00911073f, -0.00780941f},
    {0.00555901f, -0.01281614f, -0.01332197f, -0.02281729f, -0.00726356f, 0.00668003f, 0.03490514f, -0.00612899f},
    {-0.00042157f, -0.01728306f, 0.03412149f, 0.01395093f, 0.00413124f, -0.01194069f, 0.01830037f, 0.00701975f},
    {-0.01012040f, 0.02195168f, -0.00561521f, 0.01635164f, 0.00563998f, 0.00204374f, -0.06099883f, 0.00578973f},
    {-0.00132448f, -0.02169530f, 0.04223232f, 0.01618033f, 0.00554296f, -0.01663390f, 0.02936493f, 0.00597342f},
    {0.00370097f, -0.01815219f, 0.02337575f, 0.01649650f, -0.00009036f, -0.01031261f, 0.02036075f, 0.00940616f},
    {-0.00597080f, -0.01432204f, 0.04669677f, 0.03256031f, 0.00836632f, -0.01990771f, -0.00426342f, 0.01143299f},
    {-0.00392644f, -0.00662575f, 0.06114889f, 0.00797656f, -0.01413139f, -0.01909579f, 0.00990649f, 0.01158157f},
    {-0.01843762f, -0.02219092f, 0.03845479f, 0.01277197f, 0.01405686f, -0.03705286f, 0.03793533f, -0.02219518f},
    {-0.02685203f, 0.01299377f, 0.02966070f, -0.00824167f, 0.03737064f, -0.01048241f, 0.05407935f, -0.02229830f},
    {0.00671089f, -0.00866057f, -0.01023489f, -0.01120321f, -0.00872509f, 0.00510755f, 0.04068636f, -0.00046336f},
    {0.00094937f, 0.01301523f, -0.03698691f, -0.01927796f, -0.00587473f, 0.01300710f, -0.00797137f, -0.00734010f},
    {0.00240795f, 0.02169071f, -0.03649859f, -0.01354162f, -0.00842731f, 0.02435444f, -0.01755466f, -0.00543244f},
    {-0.01488208f, 0.02813740f, -0.02222509f, -0.00635905f, 0.01209327f, 0.01600727f, -0.06509977f, 0.01783726f},
    {0.00151068f, 0.01300932f, -0.03713991f, -0.02045393f, -0.00523950f, 0.01340659f, -0.00759228f, -0.00830270f},
    {-0.00080616f, 0.01648596f, -0.02625733f, -0.00835316f, -0.00289020f, 0.00884332f, -0.02016601f, -0.00462214f},
    {0.00081871f, 0.01601956f, -0.04318526f, -0.02343817f, -0.00653188f, 0.01507413f, -0.00899425f, -0.00908704f},
    {-0.00248398f, 0.00236521f, 0.04336152f, 0.03045162f, 0.00313805f, -0.00596397f, -0.03034976f, 0.01259955f},
    {-0.00469969f, 0.02050748f, -0.03625523f, -0.02987115f, -0.00250512f, 0.01033569f, 0.00160791f, -0.01717475f},
    {-0.00307530f, -0.04356958f, 0.04021025f, 0.00661733f, 0.00983023f, -0.00648127f, 0.01549595f, 0.02664129f},
    {0.00154999f, 0.01311991f, -0.03790792f, -0.02078453f, -0.00552138f, 0.01380486f, -0.00868690f, -0.00796880f},
    {-0.00317750f, 0.01454480f, -0.00328484f, 0.00748643f, 0.00690058f, 0.00925342f, -0.04952367f, -0.00093398f},
    {-0.00290424f, 0.02113073f, -0.00853283f, -0.02463993f, 0.01230447f, 0.02662453f, -0.04432600f, -0.00494026f},
    {0.00508415f, -0.02336379f, 0.02232891f, 0.00620655f, -0.00234404f, -0.00617075f, 0.03744579f, 0.00455411f},
    {-0.00097497f, -0.02286269f, 0.04424353f, 0.01538896f, 0.00593854f, -0.01546098f, 0.02837616f, 0.00819176f},
    {0.00914476f, 0.01025900f, -0.03072052f, -0.01996670f, -0.00167358f, 0.02704683f, -0.01349789f, -0.01036941f},
    {-0.03492488f, 0.02028123f, 0.04025243f, 0.01565918f, 0.01843743f, 0.00620839f, -0.04566063f, 0.00045005f},
    {0.01388536f, -0.00567829f, -0.00588775f, -0.00768458f, 0.00319399f, 0.00478694f, 0.05710289f, 0.00622970f},
    {-0.00598380f, 0.01964388f, 0.00946644f, 0.00503087f, -0.05357385f, -0.01076536f, 0.02116201f, 0.03465479f},
    {-0.00964098f, -0.03916075f, 0.04519074f, -0.01876248f, 0.00194802f, -0.00338696f, 0.02344308f, -0.01669743f},
    {-0.01730319f, -0.03456242f, 0.03303904f, -0.00381703f, 0.00792302f, 0.00400236f, 0.02604887f, 0.00772236f},
    {-0.00388633f, -0.02991902f, -0.00851703f, -0.00192773f, 0.00130807f, -0.00007249f, -0.04264269f, -0.02159909f},
    {-0.00911870f, -0.02179115f, 0.00771163f, 0.02887755f, 0.02720024f, -0.02290080f, -0.04815769f, 0.01439690f},
    {-0.00343069f, 0.00112450f, 0.03179134f, 0.02677922f, 0.00018918f, -0.00560770f, 0.01057389f, 0.00085907f},
    {0.00895542f, 0.02017839f, -0.05110214f, -0.02313717f, -0.01242796f, 0.00273392f, -0.00444736f, -0.00686945f},
    {0.00840361f, -0.02155802f, -0.01991794f, -0.03346311f, -0.01037993f, 0.00860445f, 0.05414952f, -0.00775655f},
    {0.00182864f, -0.01618686f, 0.01580404f, -0.00239919f, 0.00717336f, -0.00742377f, 0.03996621f, 0.02209844f},
    {0.00936018f, 0.04862180f, -0.00293380f, 0.03116781f, 0.01330631f, -0.03118398f, 0.00718369f, -0.00205541f},
    {0.00542916f, -0.01313348f, -0.01297872f, -0.02268019f, -0.00741047f, 0.00672418f, 0.03256122f, -0.00584227f},
    {0.01631922f, 0.02083862f, 0.00482227f, -0.00376365f, -0.00147507f, 0.02381502f, -0.05901803f, 0.00800887f},
    {0.00121410f, -0.00226837f, 0.02924127f, 0.02316338f, 0.00174239f, -0.00608653f, -0.01131407f, 0.01027998f},
    {0.00042951f, -0.01412088f, -0.00769510f, -0.02105563f, 0.00441309f, 0.02131967f, 0.04625125f, -0.01309111f},
    {0.00707967f, 0.00002773f, -0.02245162f, -0.01684908f, -0.01044249f, 0.00278480f, 0.03911599f, -0.01261612f},
    {0.00252249f, 0.01689729f, -0.05972443f, -0.00465795f, 0.00502993f, 0.01398794f, -0.00791756f, -0.00320985f},
    {0.00610752f, 0.04860483f, 0.01698324f, 0.00948581f, 0.03185695f, -0.01388310f, -0.03582238f, -0.00002156f},
    {0.02496175f, -0.00431655f, -0.02400300f, 0.01728757f, -0.01359245f, -0.01631237f, 0.02461238f, -0.02127121f},
    {-0.00937206f, 0.01615634f, -0.04274033f, -0.01588937f, -0.00247655f, 0.02513004f, -0.03627786f, -0.00384101f},
    {0.00132541f, 0.02256168f, -0.05854963f, -0.03039558f, -0.00840328f, 0.02156769f, -0.01889443f, -0.01210733f},
    {-0.00609634f, 0.01026433f, 0.01846434f, 0.02407053f, 0.00616716f, -0.00700061f, -0.02875739f, 0.00528082f},
    {0.01259098f, -0.00666684f, -0.00570355f, 0.00367486f, 0.00025341f, -0.01179706f, 0.02637593f, -0.00999706f},
    {0.00476338f, -0.01820189f, -0.02756116f, -0.03758750f, -0.01051676f, 0.00547876f, 0.03720869f, -0.01254804f},
    {0.00562609f, -0.01169540f, -0.01283446f, -0.02080344f, -0.00655635f, 0.00596017f, 0.02919585f, -0.00548256f},
    {-0.00278061f, 0.02270502f, -0.03344683f, -0.00742630f, -0.00462194f, 0.00527439f, 0.02363075f, 0.01912412f},
    {-0.04612686f, 0.02947226f, -0.00961910f, 0.01980380f, 0.02058255f, 0.00492071f, 0.01237167f, -0.00693909f},
    {-0.04571953f, -0.00245990f, 0.01025154f, -0.02736311f, 0.01235900f, 0.02849893f, -0.02941684f, -0.01461310f},
    {0.01897886f, 0.01354120f, -0.03776485f, -0.02706299f, -0.01316324f, -0.00191785f, -0.00070812f, -0.01515650f},
    {0.01307766f, -0.00758673f, -0.03708361f, -0.02781238f, -0.00109961f, -0.01135810f, 0.02802520f, -0.01159734f},
    {-0.00724534f, 0.02377879f, -0.00099541f, 0.01875285f, 0.00615784f, 0.00093053f, -0.04966972f, 0.00371887f},
    {0.00666216f, -0.02821523f, 0.00693240f, -0.02089176f, -0.00632841f, -0.00199121f, 0.06006835f, -0.00416224f},
    {0.00108284f, 0.01923985f, -0.04794026f, -0.02421267f, -0.00597153f, 0.01806493f, -0.01642898f, -0.00957642f},
    {0.00405895f, 0.00938895f, -0.03784184f, -0.02778330f, -0.00865832f, 0.01305831f, 0.00197183f, -0.00867881f},
    {0.00016142f, 0.01170747f, -0.03051906f, -0.01517682f, -0.00395481f, 0.01153110f, -0.00897150f, -0.00600109f},
    {0.02019475f, -0.01152125f, -0.03794380f, -0.01650991f, -0.01938633f, 0.00596960f, 0.05197879f, -0.02830580f},
    {-0.00319685f, -0.01126894f, 0.03866094f, 0.02303880f, 0.00692892f, -0.01256692f, 0.00165479f, 0.00712011f},
    {0.01679141f, -0.01116857f, 0.02246973f, -0.01265818f, 0.02866327f, -0.00505199f, 0.04618353f, -0.00448664f}
};
static const float gen0_b[256] = {0.00000000f, 0.00000000f, 0.00000000f, 0.00000000f, 0.00000000f, 0.00000000f, 0.00000000f, 0.00000000f, 0.00000000f, 0.00000000f, 0.00000000f, 0.00000000f, 0.00000000f, 0.00000000f, 0.00000000f, 0.00000000f, 0.00000000f, 0.00000000f, 0.00000000f, 0.00000000f, 0.00000000f, 0.00000000f, 0.00000000f, 0.00000000f, 0.00000000f, 0.00000000f, 0.00000000f, 0.00000000f, 0.00000000f, 0.00000000f, 0.00000000f, 0.00000000f, 0.00000000f, 0.00000000f, 0.00000000f, 0.00000000f, 0.00000000f, 0.00000000f, 0.00000000f, 0.00000000f, 0.00000000f, 0.00000000f, 0.00000000f, 0.00000000f, 0.00000000f, 0.00000000f, 0.00000000f, 0.00000000f, 0.00000000f, 0.00000000f, 0.00000000f, 0.00000000f, 0.00000000f, 0.00000000f, 0.00000000f, 0.00000000f, 0.00000000f, 0.00000000f, 0.00000000f, 0.00000000f, 0.00000000f, 0.00000000f, 0.00000000f, 0.00000000f, 0.00000000f, 0.00000000f, 0.00000000f, 0.00000000f, 0.00000000f, 0.00000000f, 0.00000000f, 0.00000000f, 0.00000000f, 0.00000000f, 0.00000000f, 0.00000000f, 0.00000000f, 0.00000000f, 0.00000000f, 0.00000000f, 0.00000000f, 0.00000000f, 0.00000000f, 0.00000000f, 0.00000000f, 0.00000000f, 0.00000000f, 0.00000000f, 0.00000000f, 0.00000000f, 0.00000000f, 0.00000000f, 0.00000000f, 0.00000000f, 0.00000000f, 0.00000000f, 0.00000000f, 0.00000000f, 0.00000000f, 0.00000000f, 0.00000000f, 0.00000000f, 0.00000000f, 0.00000000f, 0.00000000f, 0.00000000f, 0.00000000f, 0.00000000f, 0.00000000f, 0.00000000f, 0.00000000f, 0.00000000f, 0.00000000f, 0.00000000f, 0.00000000f, 0.00000000f, 0.00000000f, 0.00000000f, 0.00000000f, 0.00000000f, 0.00000000f, 0.00000000f, 0.00000000f, 0.00000000f, 0.00000000f, 0.00000000f, 0.00000000f, 0.00000000f, 0.00000000f, 0.00000000f, 0.00000000f, 0.00000000f, 0.00000000f, 0.00000000f, 0.00000000f, 0.00000000f, 0.00000000f, 0.00000000f, 0.00000000f, 0.00000000f, 0.00000000f, 0.00000000f, 0.00000000f, 0.00000000f, 0.00000000f, 0.00000000f, 0.00000000f, 0.00000000f, 0.00000000f, 0.00000000f, 0.00000000f, 0.00000000f, 0.00000000f, 0.00000000f, 0.00000000f, 0.00000000f, 0.00000000f, 0.00000000f, 0.00000000f, 0.00000000f, 0.00000000f, 0.00000000f, 0.00000000f, 0.00000000f, 0.00000000f, 0.00000000f, 0.00000000f, 0.00000000f, 0.00000000f, 0.00000000f, 0.00000000f, 0.00000000f, 0.00000000f, 0.00000000f, 0.00000000f, 0.00000000f, 0.00000000f, 0.00000000f, 0.00000000f, 0.00000000f, 0.00000000f, 0.00000000f, 0.00000000f, 0.00000000f, 0.00000000f, 0.00000000f, 0.00000000f, 0.00000000f, 0.00000000f, 0.00000000f, 0.00000000f, 0.00000000f, 0.00000000f, 0.00000000f, 0.00000000f, 0.00000000f, 0.00000000f, 0.00000000f, 0.00000000f, 0.00000000f, 0.00000000f, 0.00000000f, 0.00000000f, 0.00000000f, 0.00000000f, 0.00000000f, 0.00000000f, 0.00000000f, 0.00000000f, 0.00000000f, 0.00000000f, 0.00000000f, 0.00000000f, 0.00000000f, 0.00000000f, 0.00000000f, 0.00000000f, 0.00000000f, 0.00000000f, 0.00000000f, 0.00000000f, 0.00000000f, 0.00000000f, 0.00000000f, 0.00000000f, 0.00000000f, 0.00000000f, 0.00000000f, 0.00000000f, 0.00000000f, 0.00000000f, 0.00000000f, 0.00000000f, 0.00000000f, 0.00000000f, 0.00000000f, 0.00000000f, 0.00000000f, 0.00000000f, 0.00000000f, 0.00000000f, 0.00000000f, 0.00000000f, 0.00000000f, 0.00000000f, 0.00000000f, 0.00000000f, 0.00000000f, 0.00000000f, 0.00000000f, 0.00000000f, 0.00000000f, 0.00000000f, 0.00000000f, 0.00000000f, 0.00000000f};
static const float gen0_bn_rmean[256] = {0.00073650f, -0.00012900f, -0.00071342f, 0.00001170f, 0.00023355f, -0.00062613f, -0.00053844f, 0.00098544f, -0.00087507f, -0.00109677f, 0.00032574f, 0.00151229f, 0.00022767f, 0.00036700f, -0.00000859f, -0.00061227f, -0.00049260f, -0.00123521f, 0.00239579f, -0.00022792f, -0.00020347f, 0.00079449f, 0.00022170f, -0.00161163f, 0.00009913f, -0.00006872f, 0.00171916f, 0.00083716f, -0.00007393f, 0.00166093f, -0.00005074f, 0.00112404f, 0.00146430f, 0.00030770f, -0.00203642f, 0.00146176f, -0.00096790f, -0.00045988f, 0.00254352f, 0.00078140f, -0.00134027f, -0.00069067f, 0.00187413f, 0.00017445f, -0.00117785f, -0.00143512f, 0.00239423f, -0.00037937f, 0.00212804f, 0.00026815f, 0.00088464f, 0.00084916f, 0.00108165f, -0.00020770f, -0.00032980f, 0.00040268f, 0.00132757f, 0.00087340f, 0.00236520f, 0.00213584f, 0.00005822f, -0.00297305f, -0.00125942f, 0.00173815f, -0.00243163f, 0.00179175f, -0.00093869f, -0.00159208f, 0.00158825f, 0.00044224f, -0.00162130f, -0.00100328f, 0.00249182f, -0.00096811f, -0.00093466f, 0.00143215f, 0.00110755f, -0.00045217f, -0.00086881f, -0.00110957f, -0.00277113f, 0.00016382f, 0.00122265f, -0.00005003f, -0.00138595f, 0.00094175f, -0.00065727f, -0.00095401f, -0.00101162f, 0.00054270f, -0.00000894f, 0.00106658f, -0.00053390f, 0.00080610f, -0.00312070f, -0.00054961f, -0.00126039f, 0.00154669f, -0.00111629f, 0.00021817f, -0.00156312f, 0.00060306f, 0.00022241f, -0.00180384f, 0.00093681f, 0.00074068f, 0.00083755f, 0.00119975f, 0.00089724f, -0.00134868f, -0.00220995f, 0.00003855f, 0.00150619f, 0.00087227f, -0.00001597f, -0.00040010f, -0.00141689f, -0.00235022f, 0.00000717f, 0.00032737f, 0.00091859f, 0.00092549f, 0.00133702f, 0.00020071f, 0.00149250f, 0.00079813f, -0.00056508f, -0.00223719f, -0.00056194f, 0.00107332f, -0.00132031f, -0.00110123f, 0.00170140f, -0.00149326f, 0.00164835f, -0.00040542f, 0.00018441f, 0.00111598f, -0.00013087f, -0.00217835f, -0.00020501f, 0.00056254f, -0.00061071f, -0.00052310f, -0.00033056f, 0.00087959f, 0.00136252f, -0.00031547f, -0.00179869f, 0.00081816f, -0.00101423f, 0.00230317f, -0.00026791f, -0.00144541f, 0.00031640f, -0.00189250f, -0.00117662f, 0.00092944f, -0.00057415f, -0.00034113f, -0.00065758f, 0.00170969f, -0.00173629f, 0.00175254f, 0.00028610f, 0.00071952f, 0.00040765f, 0.00232734f, 0.00104133f, 0.00005720f, -0.00018087f, 0.00089538f, -0.00012980f, -0.00201494f, -0.00038395f, -0.00117833f, -0.00034039f, 0.00068852f, -0.00001511f, 0.00002518f, -0.00144852f, -0.00086313f, 0.00204043f, -0.00102536f, -0.00134985f, 0.00166821f, 0.00047207f, 0.00196431f, 0.00072243f, -0.00084394f, -0.00132306f, 0.00023595f, -0.00112252f, -0.00052420f, 0.00187650f, -0.00085701f, -0.00094453f, 0.00002747f, 0.00131251f, -0.00174464f, -0.00031875f, -0.00124015f, 0.00017259f, 0.00084402f, 0.00266553f, 0.00016416f, 0.00062089f, 0.00023693f, 0.00149784f, 0.00035791f, -0.00068045f, 0.00019024f, 0.00155465f, 0.00251306f, -0.00130137f, -0.00074679f, 0.00048332f, 0.00308518f, -0.00165757f, 0.00145299f, -0.00026610f, -0.00042465f, -0.00052653f, -0.00052440f, 0.00005301f, -0.00019205f, -0.00184354f, -0.00092701f, -0.00016965f, -0.00106622f, 0.00279233f, 0.00053657f, -0.00123551f, -0.00134041f, -0.00086717f, 0.00221608f, -0.00272460f, 0.00107929f, 0.00049258f, 0.00099260f, -0.00168421f, -0.00148318f, -0.00099863f, -0.00017959f, 0.00028051f, 0.00242401f, -0.00033093f, -0.00196236f, 0.00165235f, -0.00185904f, 0.00044016f, -0.00003624f, 0.00022096f, -0.00280913f, 0.00002883f, -0.00124275f};
static const float gen0_bn_rvar[256]  = {0.00225241f, 0.00270044f, 0.00450914f, 0.00245577f, 0.00202515f, 0.00338555f, 0.00451010f, 0.00250963f, 0.00656325f, 0.00237483f, 0.00343128f, 0.00398675f, 0.00274329f, 0.00525882f, 0.00334071f, 0.00366757f, 0.00215251f, 0.00261195f, 0.00397509f, 0.00412227f, 0.00351373f, 0.00324955f, 0.00340844f, 0.00222665f, 0.00179341f, 0.00189133f, 0.00361638f, 0.00160098f, 0.00266150f, 0.00317908f, 0.00373291f, 0.00369994f, 0.00269079f, 0.00248546f, 0.00561384f, 0.00435253f, 0.00199939f, 0.00399557f, 0.00639533f, 0.00133110f, 0.00300469f, 0.00365426f, 0.00433510f, 0.00219483f, 0.00214422f, 0.00314741f, 0.00497731f, 0.00101337f, 0.00616671f, 0.00285673f, 0.00320281f, 0.00273897f, 0.00229843f, 0.00390474f, 0.00250733f, 0.00247389f, 0.00549469f, 0.00154229f, 0.00676870f, 0.00261969f, 0.00298718f, 0.00597018f, 0.00151747f, 0.00395340f, 0.00519944f, 0.00316709f, 0.00166478f, 0.00405687f, 0.00479581f, 0.00542352f, 0.00528087f, 0.00183357f, 0.00487560f, 0.00205072f, 0.00160940f, 0.00346286f, 0.00206570f, 0.00099508f, 0.00131220f, 0.00215224f, 0.00501891f, 0.00665759f, 0.00252115f, 0.00163091f, 0.00164856f, 0.00574224f, 0.00292169f, 0.00848540f, 0.00610577f, 0.00646989f, 0.00120654f, 0.00183027f, 0.00323823f, 0.00112464f, 0.00577482f, 0.00209762f, 0.00411342f, 0.00285788f, 0.00214392f, 0.00280692f, 0.00422264f, 0.00142806f, 0.00424988f, 0.00385964f, 0.00311337f, 0.00247513f, 0.00432664f, 0.00323137f, 0.00098374f, 0.00481329f, 0.00362363f, 0.00300438f, 0.00285260f, 0.00777775f, 0.00416288f, 0.00397616f, 0.00349037f, 0.00423952f, 0.00236146f, 0.00301838f, 0.00198795f, 0.00525121f, 0.00214222f, 0.00467829f, 0.00403987f, 0.00260791f, 0.00176611f, 0.00469223f, 0.00197334f, 0.00186636f, 0.00389996f, 0.00329376f, 0.00281017f, 0.00397114f, 0.00339370f, 0.00198040f, 0.00253003f, 0.00159360f, 0.00230898f, 0.00756197f, 0.00301933f, 0.00626291f, 0.00239447f, 0.00332487f, 0.00824687f, 0.00413280f, 0.00363126f, 0.00272088f, 0.00414692f, 0.00360860f, 0.00233245f, 0.00395798f, 0.00185411f, 0.00330518f, 0.00259667f, 0.00538031f, 0.00201696f, 0.00125817f, 0.00168556f, 0.00298549f, 0.00081205f, 0.00853985f, 0.00440298f, 0.00355180f, 0.00177834f, 0.00395357f, 0.00579976f, 0.00465328f, 0.00141694f, 0.00561645f, 0.00293345f, 0.00171115f, 0.00162138f, 0.00446282f, 0.00339645f, 0.00310172f, 0.00416403f, 0.00178160f, 0.00138733f, 0.00308004f, 0.00332646f, 0.00102949f, 0.00462337f, 0.00178951f, 0.00303911f, 0.00356413f, 0.00454913f, 0.00484579f, 0.00110767f, 0.00118908f, 0.00547656f, 0.00227893f, 0.00220209f, 0.00218334f, 0.00455527f, 0.00370493f, 0.00172807f, 0.00404812f, 0.00462635f, 0.00593172f, 0.00669207f, 0.00204784f, 0.00222194f, 0.00296292f, 0.00634206f, 0.00229067f, 0.00153402f, 0.00308843f, 0.00387492f, 0.00297967f, 0.00458819f, 0.00239296f, 0.00281038f, 0.00387283f, 0.00252623f, 0.00384513f, 0.00252233f, 0.00565490f, 0.00352049f, 0.00509108f, 0.00491157f, 0.00342727f, 0.00326137f, 0.00507832f, 0.00189576f, 0.00385308f, 0.00512100f, 0.00268866f, 0.00469119f, 0.00203821f, 0.00474101f, 0.00164587f, 0.00341378f, 0.00255828f, 0.00417680f, 0.00533489f, 0.00290561f, 0.00435342f, 0.00587940f, 0.00195996f, 0.00111254f, 0.00414209f, 0.00169319f, 0.00268366f, 0.00382861f, 0.00465414f, 0.00303623f, 0.00331775f, 0.00341121f, 0.00489978f, 0.00396382f, 0.00260929f, 0.00155996f, 0.00594267f, 0.00241029f, 0.00400682f};
static const float gen0_bn_gamma[256] = {0.98152816f, 0.98866367f, 0.95717043f, 0.99454236f, 1.05232775f, 0.95745623f, 0.97970110f, 0.97874504f, 1.01878178f, 0.95307708f, 1.03818941f, 0.95902675f, 0.98374748f, 0.95708001f, 1.00971150f, 0.98117936f, 0.97346854f, 1.03925645f, 0.97108656f, 0.95991278f, 0.96595663f, 0.93599218f, 0.96779907f, 0.95890623f, 0.97921997f, 0.93789655f, 1.01181495f, 0.95748466f, 0.96831149f, 0.98626071f, 1.00970006f, 0.94775158f, 1.02663565f, 0.95580256f, 1.01336992f, 1.01269782f, 1.00744009f, 0.97202140f, 0.96165818f, 1.00950134f, 1.02363586f, 1.00914204f, 0.98143810f, 0.96335804f, 1.03619957f, 1.04102063f, 0.97354412f, 1.01373315f, 0.99686956f, 0.99090052f, 0.98956501f, 0.98411882f, 1.01429141f, 0.98582667f, 0.99248266f, 0.97888774f, 0.95047170f, 0.94473529f, 1.01731706f, 0.98748678f, 0.95186347f, 0.98732585f, 0.95262951f, 1.02466106f, 0.97370279f, 0.97234803f, 0.98506480f, 1.02610624f, 0.99530339f, 0.97753763f, 0.98973286f, 1.02509630f, 0.97925621f, 0.98886114f, 1.03111815f, 0.95350695f, 0.99790210f, 0.98127115f, 1.02110207f, 1.03267467f, 0.97989684f, 1.00320709f, 1.01466966f, 0.99496633f, 0.97013140f, 1.00142074f, 1.00991142f, 0.93807089f, 0.96619117f, 0.97428912f, 1.01487160f, 1.01490867f, 0.99772513f, 1.02606750f, 0.96147263f, 1.02096176f, 0.96525836f, 0.99971700f, 1.02439797f, 1.02738214f, 1.01465929f, 0.99372208f, 1.01038110f, 1.00375986f, 0.95877385f, 0.93839282f, 0.96522480f, 0.94270581f, 1.02671170f, 1.00394034f, 0.96346009f, 1.00949180f, 1.03259492f, 0.96175992f, 0.98826474f, 0.94337189f, 1.00096798f, 0.95327133f, 0.97765434f, 1.03680515f, 0.96551049f, 0.98693264f, 0.95358199f, 0.94585043f, 0.99538749f, 1.01401377f, 0.99372417f, 0.95980328f, 0.96680510f, 1.01156437f, 0.99965823f, 0.99692827f, 0.96759921f, 0.99119401f, 1.00645685f, 0.98754281f, 0.99490482f, 0.99351829f, 0.95769781f, 1.01329827f, 1.01412201f, 0.99188048f, 0.97965914f, 0.95584387f, 0.99949205f, 1.03458118f, 1.00067973f, 0.94736290f, 0.97895634f, 0.94365472f, 0.97766936f, 0.96875381f, 1.02208602f, 0.96169376f, 1.04617202f, 0.96110308f, 1.02923226f, 1.01013231f, 1.01299226f, 0.95451677f, 0.97436178f, 0.97307366f, 1.01239777f, 1.00029910f, 1.04513729f, 0.98571187f, 1.03291082f, 0.94048327f, 1.02731645f, 0.96816599f, 1.01771653f, 1.02134359f, 0.99359834f, 0.98935854f, 0.95930737f, 0.93217361f, 0.96493858f, 0.99460363f, 1.00225377f, 0.96572477f, 0.98731357f, 1.00581694f, 0.95553035f, 0.98101634f, 1.01968122f, 1.03162420f, 1.00043905f, 1.00860059f, 1.00532746f, 1.01837528f, 0.94257832f, 1.00795209f, 1.03888369f, 1.01199722f, 0.98241985f, 0.98994595f, 0.98522764f, 1.00831831f, 0.96542150f, 0.98485404f, 0.96382022f, 0.98471051f, 1.04720938f, 1.01145530f, 0.99136901f, 1.03535974f, 1.01667655f, 1.02707994f, 0.98718995f, 0.98881912f, 0.95619351f, 1.04322112f, 0.99482441f, 0.96861964f, 0.97592616f, 1.01144779f, 0.99238747f, 0.96697307f, 0.99171478f, 0.91193545f, 0.95969009f, 0.99169409f, 0.93822151f, 0.96911192f, 0.97220176f, 0.99077427f, 1.02850473f, 0.95613366f, 0.94234097f, 1.01398158f, 0.97238821f, 0.98271954f, 0.98924983f, 0.99410975f, 0.97760487f, 0.95444995f, 0.97420287f, 1.01861978f, 1.02295160f, 1.01466203f, 0.95684081f, 1.00862634f, 1.02468050f, 0.95044506f, 0.93699503f, 0.95665622f, 0.98894513f, 0.97078562f, 1.01961279f, 0.99251968f, 1.05825531f, 1.00157726f, 1.03820419f, 0.98314130f, 1.00067651f, 0.93553114f};
static const float gen0_bn_beta[256]  = {0.02588865f, 0.04572305f, -0.00083056f, -0.01079562f, 0.01740735f, -0.01116152f, -0.02625213f, -0.00826034f, 0.08209226f, -0.02225619f, 0.02861426f, -0.01734496f, 0.04687556f, -0.01405302f, -0.05713324f, -0.00993462f, -0.01045636f, 0.02621469f, -0.00463999f, -0.00486167f, -0.01970223f, -0.02119170f, 0.00288968f, -0.00254366f, 0.06495876f, -0.01911339f, 0.02418254f, -0.01190709f, 0.00783432f, 0.01065643f, 0.09424442f, -0.00609680f, 0.00210625f, -0.01337922f, -0.03074167f, 0.08552644f, -0.04873225f, -0.01022503f, 0.00838662f, 0.11748135f, 0.01529137f, 0.06014989f, 0.02722692f, 0.02518841f, 0.02848311f, 0.02046979f, 0.01703493f, 0.06764224f, 0.03254237f, 0.00169861f, 0.04302919f, 0.00382691f, 0.09677282f, 0.05582409f, -0.02487614f, 0.06880233f, -0.01231301f, -0.00562708f, 0.03434940f, 0.05059186f, -0.01224858f, 0.02323710f, -0.01972757f, 0.05473308f, 0.00323390f, -0.00376245f, -0.03076393f, 0.02105517f, 0.01269003f, -0.01936435f, -0.01434682f, -0.01077600f, 0.03893366f, 0.04438244f, 0.03141248f, -0.00017439f, 0.03297233f, -0.00673959f, -0.01312678f, 0.01576959f, 0.01188705f, 0.07321723f, -0.00010509f, -0.03805270f, -0.02230388f, -0.04969571f, 0.06328132f, -0.02443773f, 0.00843005f, 0.00761745f, 0.09261873f, 0.01801012f, 0.01087276f, 0.00309414f, -0.00580388f, 0.06346124f, -0.01740148f, 0.05427352f, 0.02892517f, 0.03521696f, -0.00673567f, -0.04290598f, 0.03690451f, -0.00866983f, -0.02338423f, -0.01317289f, 0.00538632f, -0.01545913f, 0.02238491f, -0.00763683f, -0.01013323f, 0.06872886f, 0.01192182f, -0.00524459f, 0.06971649f, -0.01959188f, -0.03547714f, -0.01472653f, -0.02744067f, 0.00920209f, 0.00772798f, -0.01211176f, -0.00337404f, -0.01737536f, 0.10109791f, -0.00100267f, 0.06697272f, -0.00935296f, 0.00478005f, 0.01410397f, 0.02463287f, 0.02062978f, -0.00939572f, 0.05799451f, 0.03744226f, -0.03244679f, 0.04984231f, 0.02418002f, -0.01867670f, 0.01559341f, -0.02056372f, -0.02841165f, -0.01532608f, -0.01820770f, 0.08001608f, -0.02336752f, 0.09843881f, -0.02161955f, -0.02235228f, -0.01052756f, -0.00672041f, 0.00080127f, 0.02082666f, -0.01352887f, 0.04185791f, -0.00205559f, 0.02812994f, 0.06529549f, 0.01398837f, -0.00678242f, -0.01915216f, 0.03174166f, 0.03119863f, 0.03630734f, 0.02447863f, -0.01164450f, 0.01580257f, -0.02609310f, 0.02751030f, -0.02494498f, -0.02037027f, 0.11163987f, 0.07555422f, -0.01206987f, -0.01536943f, -0.02424988f, -0.02117227f, 0.05968657f, 0.08616711f, -0.00754566f, -0.00143661f, 0.06612702f, -0.00200587f, -0.00408275f, 0.02872188f, 0.03771290f, 0.02894460f, 0.00840541f, 0.06426861f, 0.00926193f, -0.01977572f, 0.02105278f, 0.02006267f, 0.06963054f, 0.00765259f, 0.04297103f, 0.03582335f, 0.04427300f, 0.00121524f, 0.02952206f, -0.01257282f, -0.01303007f, 0.02538580f, -0.03603642f, 0.01857043f, 0.03563313f, 0.00176724f, 0.02310515f, 0.02577918f, -0.00339868f, 0.00300238f, 0.02499345f, 0.01983885f, -0.01278758f, 0.04021439f, 0.05196258f, -0.02511508f, 0.01736625f, 0.00275368f, -0.02118389f, -0.00207185f, 0.00933979f, -0.03157338f, 0.00389596f, 0.02463836f, 0.00579212f, 0.01852774f, -0.00213086f, -0.01878730f, -0.01337648f, -0.00097933f, 0.01786796f, -0.01573245f, -0.01683395f, -0.03324404f, 0.00245993f, -0.00449891f, 0.00781649f, 0.00571495f, 0.11391112f, -0.00721586f, -0.02919888f, 0.02325107f, -0.00587435f, -0.02090794f, -0.01812556f, -0.00994319f, -0.02555456f, 0.00799241f, 0.01831182f, 0.03079716f, -0.02800553f, 0.01102774f, -0.00828501f, 0.06681041f, -0.00085730f};

// Generator block 1  in=256  out=256  act=relu  bn=True  cond=False
static const float gen1_W[256][256] = {
    {0.01786374f, 0.02788284f, -0.01611706f, -0.01427655f, 0.01353885f, 0.01850043f, -0.00817549f, 0.00666809f, -0.02887812f, 0.01348836f, 0.02002375f, -0.00154698f, -0.02888756f, -0.00896498f, -0.00533280f, 0.01167629f, -0.00227623f, 0.00579541f, -0.02351152f, 0.00718215f, 0.01389354f, 0.01760355f, 0.01833652f, -0.01000805f, 0.01476784f, 0.00097250f, 0.00201515f, -0.02061152f, 0.00587478f, -0.01443979f, -0.04452207f, -0.00539517f, 0.01849687f, -0.02912674f, -0.00298203f, 0.01249274f, 0.01098824f, -0.01815980f, 0.03357809f, 0.03188899f, 0.03136761f, -0.01879130f, 0.00885291f, 0.00300195f, -0.00945142f, 0.01641572f, 0.00671291f, -0.02781919f, -0.03916734f, -0.02414986f, 0.00059717f, -0.00636192f, -0.02577474f, -0.01227239f, -0.02529194f, -0.01138123f, 0.00088157f, -0.01616086f, 0.01089997f, 0.00712274f, -0.04290763f, 0.02262690f, 0.05813270f, 0.03233198f, 0.01582603f, 0.03019193f, -0.03260392f, 0.04567824f, -0.01346429f, -0.01000779f, -0.02043459f, 0.03101669f, -0.00296567f, -0.02851830f, 0.01652257f, 0.01994840f, -0.02922277f, -0.02316032f, 0.01869177f, -0.00710317f, -0.00982453f, -0.02957604f, 0.00461181f, -0.00133402f, 0.01026235f, -0.00516293f, -0.00066124f, 0.01882956f, -0.01466877f, -0.00386970f, 0.04207180f, -0.00012398f, 0.03126768f, 0.00086886f, 0.01732623f, -0.02524795f, 0.01019465f, 0.01130622f, -0.01849383f, -0.00145343f, -0.00650454f, -0.01432392f, 0.00158072f, -0.01972352f, -0.00528608f, 0.02111259f, -0.00453684f, 0.01017471f, 0.01405584f, -0.00089278f, -0.00851244f, -0.03384113f, -0.01164952f, 0.00194391f, -0.01584920f, 0.00389306f, -0.00512571f, 0.03332410f, -0.01170385f, 0.02605145f, -0.01414979f, 0.01576081f, 0.02346138f, -0.00116431f, -0.01929289f, -0.02442060f, -0.01348324f, -0.00470351f, -0.01952645f, 0.04073844f, 0.00914976f, -0.01099414f, -0.01694799f, -0.03301775f, 0.03560985f, 0.02490049f, -0.04368701f, 0.00464174f, 0.00925905f, 0.01649771f, 0.00529655f, -0.03582977f, -0.00870689f, -0.00411135f, 0.01217480f, -0.04917184f, -0.02834624f, -0.01780878f, 0.01817648f, 0.00422964f, -0.01936352f, 0.01651532f, 0.00681062f, -0.01219789f, -0.02317356f, 0.02240865f, 0.02220893f, 0.01170765f, -0.01630949f, 0.04267289f, 0.03159378f, -0.01268826f, -0.02548831f, -0.01071950f, 0.03344380f, 0.03684029f, -0.03065747f, 0.00728024f, -0.00087501f, -0.00073725f, -0.00544122f, -0.00531337f, -0.03785647f, 0.01807681f, 0.04044957f, -0.01801153f, 0.03317043f, 0.01040514f, -0.02523061f, 0.01466432f, -0.02339887f, -0.01322045f, 0.01629082f, 0.01300855f, 0.00461291f, -0.02040866f, -0.02456604f, 0.02634009f, 0.00026121f, 0.02998703f, -0.00907393f, 0.01383548f, 0.00745022f, -0.05470696f, 0.00334222f, -0.01485841f, -0.02443498f, 0.03697744f, -0.01480084f, 0.00975743f, 0.04718092f, -0.00680424f, 0.02791467f, -0.04277800f, 0.00860297f, -0.00061786f, -0.02599232f, -0.00082934f, -0.00548249f, 0.00121671f, -0.01250673f, -0.00344366f, -0.02529235f, -0.00832735f, -0.00288400f, -0.03491558f, -0.02957034f, 0.02558255f, 0.02582758f, 0.02548487f, -0.02338826f, -0.00977830f, 0.01048351f, -0.01049432f, -0.00839654f, 0.01234442f, 0.03987915f, -0.00987435f, -0.01259880f, 0.03028400f, 0.01581651f, 0.01740015f, -0.00425298f, 0.01603919f, -0.02611182f, -0.00535171f, 0.00735560f, -0.00135700f, -0.02290975f, 0.00261697f, 0.00650071f, -0.00034877f, -0.01287860f, -0.00179275f, 0.01531526f, 0.00849421f, -0.01570065f, -0.01053002f, -0.03730039f, 0.00207979f, 0.01305205f, -0.00507285f, 0.00802886f, 0.01413747f, -0.05068276f, 0.01073057f},
    {0.01461623f, -0.00233758f, -0.00678430f, 0.00617708f, 0.01165867f, 0.02099058f, 0.00332466f, 0.00691698f, -0.01837937f, 0.03080513f, 0.01698116f, 0.03302792f, -0.00336882f, 0.00587847f, -0.01960221f, 0.01894432f, 0.00773166f, -0.01990272f, 0.02290322f, 0.02249001f, 0.01276064f, -0.00984135f, 0.02166691f, -0.00736012f, -0.00236521f, 0.03634046f, 0.00381518f, 0.00597045f, 0.01622860f, 0.00503698f, -0.02938554f, -0.02228457f, 0.00714220f, -0.00345641f, 0.01657616f, -0.01579769f, 0.03165230f, -0.00673053f, 0.04065163f, 0.01405032f, -0.03108226f, 0.00136910f, -0.00421259f, -0.01248968f, -0.06417730f, -0.05166164f, 0.02477833f, -0.00491672f, -0.01482442f, 0.01295510f, 0.02596729f, 0.00498669f, 0.01603126f, 0.00385389f, -0.00762584f, 0.00257821f, -0.01884088f, -0.00327314f, -0.02307804f, -0.00273878f, -0.01939506f, 0.01463791f, 0.00252565f, -0.03541424f, -0.01268561f, -0.00920712f, 0.03243130f, -0.03497656f, 0.00518396f, -0.01566783f, 0.03572755f, -0.01788252f, 0.02472270f, -0.00273036f, -0.06514690f, -0.02142468f, 0.00299420f, 0.03462952f, -0.01743908f, -0.05788350f, -0.00602801f, -0.00557937f, -0.03046718f, 0.01936015f, 0.01895432f, 0.00194837f, -0.00963117f, 0.00078374f, -0.00906099f, -0.00667811f, 0.01184068f, -0.06541969f, 0.01336912f, -0.02255838f, 0.00119669f, 0.03604290f, 0.00089282f, -0.02317361f, -0.05621494f, -0.00581005f, -0.01258184f, 0.00862355f, -0.00534816f, 0.03255742f, -0.00779862f, 0.00448835f, -0.01484833f, 0.01208823f, -0.01769014f, 0.01449430f, -0.00967514f, -0.01248464f, 0.00752010f, 0.00364195f, 0.02147555f, -0.01167725f, -0.01824693f, 0.02960291f, -0.01469473f, -0.02478584f, -0.00475519f, -0.01414704f, -0.03651966f, -0.04016141f, 0.00373324f, 0.01953291f, 0.03766200f, 0.00382546f, -0.02800796f, -0.00357504f, 0.03067754f, 0.02284086f, 0.00002251f, -0.01628343f, -0.00260751f, 0.01992702f, 0.01530086f, -0.01159486f, -0.02244622f, -0.00284511f, -0.01354821f, -0.00441545f, 0.02578072f, 0.03223037f, -0.01177715f, -0.00836444f, 0.02789151f, -0.01930233f, 0.01056168f, 0.01282269f, 0.02201183f, 0.01316853f, -0.02458171f, 0.00442525f, 0.01275135f, -0.02119739f, -0.03626663f, 0.01031517f, -0.02383674f, 0.01262746f, 0.03237787f, -0.01053252f, 0.01827710f, 0.01762016f, 0.00513897f, 0.00632765f, -0.01443946f, 0.00993069f, 0.02033097f, -0.02103679f, -0.02399428f, 0.01630209f, 0.02034131f, 0.00865190f, 0.01352464f, -0.02259017f, -0.02987838f, -0.01005404f, -0.01550192f, -0.00558450f, -0.01004339f, 0.02008683f, -0.00792304f, -0.00987999f, -0.01448245f, 0.02411477f, 0.01791194f, 0.01702426f, 0.01127991f, 0.00466576f, 0.00309882f, -0.00012424f, -0.03788104f, 0.01501060f, -0.01077807f, 0.00814097f, -0.01077367f, 0.00669302f, -0.00722123f, -0.00798980f, 0.01527521f, -0.00015425f, -0.02086426f, -0.01192184f, 0.02483401f, 0.00611592f, -0.03495000f, 0.01331642f, 0.00144342f, -0.01267343f, -0.02447074f, 0.01683250f, -0.02125064f, 0.04176588f, 0.00187443f, 0.01653544f, 0.01929773f, -0.00217133f, 0.03915137f, 0.00937791f, -0.00924140f, 0.02338988f, -0.00982621f, 0.03993187f, -0.02069844f, -0.00700234f, -0.03657099f, -0.00239450f, -0.01178866f, -0.08888986f, -0.01508006f, -0.01331073f, 0.00867745f, 0.00808212f, 0.00355424f, -0.01872846f, -0.01247399f, -0.00537040f, -0.04837513f, -0.05797654f, -0.00245809f, 0.00649731f, -0.03919772f, 0.02106629f, -0.00957117f, -0.03346541f, -0.00532735f, -0.00617993f, 0.03166600f, 0.00703550f, -0.01775735f, 0.00625553f, -0.02168552f, 0.00479169f, 0.00525921f, -0.00548089f},
    {0.00592841f, -0.00364071f, 0.01282762f, 0.01181592f, -0.00174654f, 0.01630146f, -0.02525220f, -0.02687543f, -0.00651411f, -0.00875667f, 0.00614648f, 0.02394174f, 0.00871619f, -0.00676162f, -0.00313428f, 0.03283891f, 0.01221491f, -0.03382028f, -0.03700407f, -0.00229915f, 0.00789694f, -0.02301079f, -0.02420148f, -0.00132680f, -0.02995414f, 0.00742850f, -0.01759059f, 0.02234340f, 0.00826984f, 0.00933062f, 0.01987042f, 0.01855289f, -0.02100676f, 0.01748377f, -0.00981407f, -0.02657174f, -0.00532881f, 0.00670409f, 0.01279764f, 0.00550527f, -0.05895109f, 0.00593666f, 0.00457665f, 0.00637071f, -0.07716020f, -0.05141620f, 0.01623361f, -0.02715813f, 0.00979498f, 0.00520380f, -0.01447829f, 0.01415437f, -0.02009594f, -0.01676263f, -0.00489205f, -0.00433655f, -0.00810801f, -0.01072700f, -0.00613561f, -0.01538256f, -0.00674312f, -0.00838634f, -0.00125297f, -0.00301242f, 0.01224121f, 0.01668647f, 0.00347457f, -0.02738144f, 0.01271575f, -0.00084941f, -0.00901665f, -0.04177492f, -0.02057710f, 0.01081668f, -0.04450592f, -0.03371580f, -0.00929165f, 0.03986217f, -0.06570087f, -0.10114743f, -0.01196414f, -0.00266283f, 0.03664001f, 0.00994314f, -0.00623336f, -0.00094951f, 0.02071976f, -0.01120119f, 0.02342803f, -0.01830995f, -0.02519906f, -0.00107733f, -0.01431829f, -0.01381037f, 0.00888887f, 0.00424372f, 0.00268042f, 0.03627364f, -0.03908516f, -0.02923052f, -0.00131442f, -0.00611271f, -0.01424971f, -0.01682884f, 0.01345910f, 0.00199235f, 0.01881536f, 0.00657644f, -0.00001320f, 0.02755319f, 0.00677534f, -0.03524345f, 0.03102795f, -0.00452508f, -0.00110521f, -0.00313495f, 0.01196700f, -0.01106210f, 0.00171800f, -0.05121219f, 0.02902133f, -0.01492140f, 0.00599827f, -0.03405522f, 0.01018557f, 0.00878070f, -0.00793165f, -0.02662928f, 0.00824753f, 0.00752549f, -0.01176237f, 0.00800162f, -0.03060442f, 0.01628225f, 0.01126396f, 0.00449116f, -0.02695002f, 0.00133331f, 0.01029977f, -0.00276851f, 0.00979978f, 0.00923410f, 0.01041715f, 0.01249013f, 0.00681842f, -0.04130614f, -0.00011366f, 0.01002914f, -0.03545861f, 0.02408649f, -0.00617082f, -0.02027736f, 0.01088021f, -0.00837769f, -0.00068893f, 0.01164255f, -0.03762959f, -0.00281618f, 0.00762472f, -0.00335284f, 0.02687131f, 0.03144122f, -0.02199213f, 0.02661151f, 0.01209806f, 0.00353175f, 0.00317790f, -0.02136480f, 0.00119232f, 0.01178240f, 0.00267557f, -0.01855947f, -0.00576343f, -0.00845943f, -0.01302664f, -0.01250608f, 0.00159895f, -0.00805529f, -0.00984060f, -0.01675953f, -0.00991802f, -0.01278154f, -0.01325270f, -0.05670060f, -0.05315250f, -0.00878240f, -0.00903023f, -0.00108755f, 0.00159165f, 0.00716804f, -0.03247073f, -0.01316486f, -0.02574665f, 0.02316025f, -0.01052014f, -0.01057941f, 0.00709263f, -0.00742200f, 0.01804352f, -0.00390745f, -0.00011952f, -0.00068864f, -0.01337458f, 0.00374102f, 0.01096807f, 0.02586078f, 0.01688484f, -0.03253546f, 0.01530012f, -0.01483936f, 0.00535056f, 0.02743452f, -0.01815872f, -0.01202829f, 0.00638339f, 0.00610910f, -0.01903979f, -0.01324628f, -0.00183224f, 0.00778277f, -0.01849679f, -0.00299079f, 0.01125387f, -0.00206245f, 0.00365148f, 0.02233490f, -0.08039051f, -0.01033741f, -0.00073318f, -0.07995652f, -0.00545827f, 0.02188216f, -0.01224997f, 0.02797584f, -0.01059005f, 0.03363792f, -0.00997215f, 0.00468473f, -0.02824914f, -0.01697291f, 0.01940909f, 0.00242366f, -0.06215630f, 0.00312051f, 0.03172018f, 0.00490414f, -0.01411071f, 0.01372569f, 0.00205060f, 0.00773764f, 0.01589909f, 0.03526479f, 0.00489628f, -0.00863937f, 0.01141289f, 0.00085349f},
    {0.02028114f, 0.00070453f, 0.00653865f, 0.02683867f, -0.08052591f, 0.00042419f, -0.00439343f, -0.00944671f, 0.00982294f, -0.00469230f, -0.07051567f, -0.01330672f, -0.00403178f, 0.02627913f, 0.00420100f, -0.01585072f, 0.00808301f, 0.00570150f, -0.02861143f, -0.02571957f, 0.03071360f, -0.03638277f, 0.00601726f, -0.01393562f, 0.01205261f, 0.03070536f, 0.03905797f, 0.03718469f, -0.00990434f, 0.02302438f, -0.01116135f, -0.00701626f, -0.02010200f, -0.01903605f, -0.03617810f, -0.02449809f, -0.00021034f, -0.00150021f, 0.02717763f, -0.03808399f, 0.02975487f, -0.00164407f, -0.00480503f, 0.00686365f, -0.00002947f, 0.00586898f, -0.00050573f, 0.00624568f, 0.02847113f, 0.00532709f, 0.03351309f, -0.02030217f, -0.05542791f, 0.04087782f, 0.02169053f, 0.01708991f, 0.01424642f, 0.00361701f, 0.01032128f, -0.00052465f, -0.02334093f, -0.06179639f, -0.00540510f, 0.02132452f, -0.02814962f, 0.00231929f, 0.03156972f, -0.00407342f, -0.02089664f, -0.00773648f, 0.05670970f, -0.02537655f, 0.00469690f, -0.00420201f, 0.02079838f, 0.02015497f, -0.00951259f, -0.03152372f, 0.00192241f, 0.01435745f, 0.00319280f, 0.01957450f, 0.00465083f, 0.01716563f, 0.01182463f, 0.02244808f, 0.00948864f, -0.02127071f, 0.00463915f, -0.03027620f, 0.02049366f, 0.00492766f, -0.01380194f, -0.00377633f, -0.02204752f, 0.02028400f, -0.00171069f, 0.01255577f, -0.00436621f, -0.04204808f, -0.00933650f, 0.02119797f, -0.01110332f, 0.02540239f, 0.01605139f, 0.00315349f, 0.01570140f, 0.00440845f, -0.00720342f, -0.01529535f, 0.00211189f, -0.00945911f, 0.02623231f, 0.01199706f, -0.03780680f, -0.00587209f, 0.01075972f, 0.02522658f, -0.00709184f, -0.03009073f, -0.00018526f, 0.03733017f, -0.01216977f, -0.00372751f, -0.02045619f, 0.04747349f, -0.00028789f, 0.03028932f, 0.02961704f, -0.00116743f, -0.03880368f, -0.00847701f, 0.01066668f, 0.00031739f, 0.01666643f, -0.01946068f, 0.02143510f, 0.00181474f, 0.01105605f, 0.03147794f, 0.02677673f, 0.00919817f, -0.00138368f, -0.02351574f, -0.03650051f, 0.03849459f, -0.03816620f, -0.00012519f, 0.03681291f, 0.01482821f, 0.00170238f, -0.01320438f, -0.03495123f, -0.03315214f, -0.01811531f, 0.02509561f, 0.02998871f, 0.00212787f, -0.00137996f, -0.00131039f, 0.00173721f, 0.03039529f, -0.00858565f, -0.03049526f, -0.03642548f, 0.01786886f, -0.03394463f, -0.01077063f, 0.03077094f, 0.03006388f, 0.02024299f, -0.01979963f, 0.01279497f, 0.03961701f, -0.00556925f, -0.00197853f, -0.01126906f, 0.00268452f, -0.01297305f, -0.02106894f, 0.00883995f, -0.00485885f, -0.00765742f, 0.00316018f, 0.01958844f, 0.03456456f, 0.02234263f, -0.01524471f, 0.01076579f, 0.04189075f, -0.00522373f, -0.02702544f, -0.02015519f, -0.01414296f, -0.02079161f, 0.00492075f, 0.02477156f, -0.00368611f, -0.00662084f, 0.00611995f, -0.00129722f, -0.01854623f, -0.00444157f, 0.03189193f, 0.00439493f, -0.05133225f, -0.00266078f, -0.04571383f, -0.01331756f, -0.00473438f, -0.00872164f, 0.00953169f, 0.01996399f, -0.00942234f, 0.00814818f, -0.00943931f, 0.00705362f, -0.01534451f, -0.01269601f, -0.01766657f, -0.00033221f, 0.00550389f, -0.01038100f, -0.00742490f, -0.02169963f, -0.03558430f, 0.00837820f, -0.00590859f, 0.01139977f, -0.02171101f, -0.01848568f, 0.03083578f, -0.01965817f, -0.01438808f, 0.01473937f, -0.01423599f, -0.03526790f, 0.01755898f, -0.02561869f, -0.01354993f, 0.00182229f, -0.00803521f, 0.00945578f, 0.01895903f, 0.02015506f, -0.00192514f, 0.01931743f, 0.00970021f, -0.00271669f, -0.02528817f, -0.00294292f, 0.02249391f, -0.03284921f, -0.00676730f, -0.01446035f, 0.00778599f},
    {-0.00217116f, 0.00250700f, -0.00473860f, 0.00207531f, 0.00241185f, -0.01184157f, -0.00846627f, 0.01046353f, -0.01372841f, 0.00722209f, 0.00801816f, -0.00009992f, -0.03826189f, 0.00887617f, -0.02070024f, 0.00535075f, 0.00400871f, -0.02116627f, -0.00443661f, 0.01491944f, 0.01297974f, 0.02160957f, 0.01864853f, -0.01484708f, -0.01303079f, 0.00067013f, -0.01591763f, 0.01364960f, 0.00033161f, 0.00194657f, -0.03338804f, 0.01081400f, -0.04143912f, 0.00746960f, 0.01627836f, 0.01740261f, -0.02072204f, -0.02644698f, 0.01538968f, -0.00193728f, -0.00976263f, -0.02338680f, 0.04486189f, 0.00244146f, -0.02872026f, 0.00642379f, -0.02409831f, -0.02394374f, -0.05336205f, 0.00468691f, -0.00782339f, 0.00907022f, -0.01822177f, -0.01409958f, 0.01564621f, -0.02170744f, -0.01174887f, 0.01384175f, -0.02542902f, 0.00230959f, -0.01515714f, -0.01995711f, 0.00774686f, -0.04579476f, 0.01580591f, -0.01411538f, -0.00832853f, 0.01370534f, 0.01889237f, 0.01942661f, 0.02190553f, -0.01480086f, -0.01076624f, 0.00105654f, 0.00871264f, -0.02272753f, -0.01912262f, -0.01526914f, 0.00087327f, -0.01389851f, 0.00036434f, 0.01200449f, 0.04719749f, 0.00443684f, -0.02649054f, 0.06823762f, 0.00442382f, 0.01237764f, 0.00680697f, -0.01647326f, -0.03023472f, -0.00889661f, 0.00015113f, 0.03776604f, -0.00511036f, 0.03988297f, -0.01706097f, -0.00891390f, 0.00055036f, -0.00267596f, 0.00489546f, 0.01735451f, -0.00603102f, 0.01066964f, -0.02649052f, 0.02070581f, -0.01590320f, -0.00360731f, -0.04190318f, -0.00439770f, 0.01338429f, -0.00016922f, -0.06420782f, -0.01111604f, -0.01369967f, 0.00871910f, -0.02120842f, -0.00699038f, -0.00816710f, -0.00853303f, 0.00157258f, -0.00721477f, -0.00076514f, -0.01705024f, 0.00665902f, 0.01863788f, 0.02798565f, 0.00167063f, 0.01120750f, -0.01646674f, 0.01715920f, 0.00215275f, 0.01501954f, -0.03465756f, -0.03232754f, 0.01584052f, -0.00925144f, -0.01219437f, -0.00144415f, 0.00296671f, -0.01467632f, 0.00366680f, -0.02976226f, -0.00355220f, 0.00550403f, 0.02283584f, -0.00643800f, 0.00678003f, -0.00581216f, 0.00106290f, -0.01126431f, 0.02783446f, 0.02556605f, -0.00166396f, 0.01770083f, -0.00302719f, -0.00137819f, 0.02123909f, -0.01353361f, -0.00010493f, -0.00728569f, 0.02030596f, 0.00746484f, -0.02487990f, 0.01479891f, 0.01420281f, -0.02736826f, 0.00363143f, -0.05113289f, 0.05203589f, -0.00691759f, 0.02007121f, 0.00283682f, -0.03559946f, 0.00563758f, 0.05109300f, -0.00666883f, 0.01098657f, -0.03929595f, -0.01260071f, -0.00860476f, -0.00080833f, -0.03222769f, -0.02428780f, 0.00205664f, -0.02089580f, -0.00174607f, -0.00764318f, 0.02815667f, -0.02135360f, 0.01958041f, 0.01116562f, 0.01776611f, 0.00410742f, -0.02803986f, 0.00023147f, 0.01625137f, 0.01121445f, 0.00375666f, 0.00775469f, 0.04343972f, -0.00911439f, 0.02642007f, -0.01331095f, 0.02957172f, -0.00783372f, 0.00294776f, -0.00721492f, -0.00255709f, -0.02245284f, 0.01970456f, -0.02472554f, -0.01248887f, 0.01918835f, 0.02995054f, 0.02507260f, 0.00763644f, -0.02497791f, 0.01110581f, 0.00409309f, 0.04141384f, 0.01327859f, 0.01729655f, 0.02467526f, 0.01687506f, -0.03014878f, -0.00977307f, 0.01022539f, -0.02060932f, 0.02343492f, 0.00758922f, 0.01276460f, 0.01065690f, -0.03088474f, 0.00148861f, 0.01864015f, -0.01770161f, 0.00891817f, -0.01885741f, -0.00112040f, -0.00936571f, 0.00421132f, 0.00267518f, 0.02671361f, 0.00428630f, 0.00651163f, 0.00304732f, -0.01757059f, -0.00642410f, -0.01033107f, -0.03161572f, 0.00094977f, 0.01722246f, 0.00100081f, -0.02212695f, -0.02454454f},
    {0.02816152f, -0.01554744f, -0.01204671f, -0.03086195f, -0.02300737f, -0.01252402f, -0.02394179f, 0.01657040f, -0.03340735f, 0.00188659f, 0.00590268f, -0.03752727f, -0.00541269f, -0.00356252f, -0.00673014f, -0.02082845f, -0.00353092f, -0.05465504f, 0.01425012f, 0.00826996f, 0.01741170f, 0.02733720f, 0.00025132f, -0.00286188f, 0.00179467f, -0.01435558f, -0.00938129f, 0.02033911f, 0.01547315f, 0.02332131f, -0.03065684f, 0.00189832f, -0.01482148f, 0.00156643f, 0.00720903f, 0.03340669f, -0.02691492f, 0.01785744f, 0.00256138f, 0.03380372f, -0.07080262f, -0.01409132f, -0.01336065f, 0.01775866f, -0.01460353f, 0.00425599f, 0.00495249f, -0.01397048f, -0.00098683f, 0.01145788f, 0.01450027f, 0.01284002f, 0.00373662f, -0.02481800f, 0.01250634f, -0.02373902f, 0.03254125f, -0.00536851f, -0.02425379f, -0.01715861f, -0.00406302f, -0.00099548f, 0.01212456f, 0.01160558f, -0.00891682f, -0.03573984f, -0.00402099f, -0.02778083f, 0.01045571f, -0.01488266f, -0.00094994f, 0.00063530f, -0.02917126f, -0.00497721f, -0.05787769f, -0.01417086f, -0.01698394f, -0.00216673f, -0.04104270f, -0.07468871f, 0.03070857f, 0.00908149f, 0.00443940f, -0.03108207f, 0.00363819f, -0.01475213f, 0.03172033f, 0.02256075f, -0.00148848f, 0.02261644f, -0.02750183f, 0.00929701f, 0.02535616f, -0.01896564f, 0.00706269f, 0.00793245f, 0.01163178f, -0.03076598f, -0.03000944f, 0.01330650f, -0.01299805f, 0.00491573f, 0.00771211f, -0.01411513f, -0.00331607f, 0.02041980f, 0.00984024f, -0.01671532f, -0.00257859f, -0.00569575f, -0.01180597f, -0.00757198f, 0.01910472f, 0.02276917f, 0.00654917f, 0.02989287f, -0.02322993f, -0.01200510f, -0.02478250f, -0.01693165f, -0.01695347f, -0.03056139f, 0.02924862f, 0.02642609f, 0.01551707f, -0.02397508f, 0.00181831f, -0.01688719f, -0.00275557f, -0.01502496f, 0.02109048f, 0.00391892f, 0.00434717f, -0.02688791f, -0.02343299f, 0.00800007f, -0.00580877f, -0.00218590f, -0.00849173f, -0.03663638f, 0.00501685f, -0.03867986f, 0.00705051f, -0.00828963f, -0.04285627f, 0.01490614f, 0.02721999f, -0.00769952f, -0.03634764f, -0.00849481f, -0.03150072f, -0.00741282f, -0.00361748f, 0.01383652f, 0.02085027f, -0.00739806f, -0.02556828f, -0.04768519f, 0.00862332f, 0.00278758f, -0.03072703f, -0.00345054f, 0.03073992f, 0.03956894f, 0.01880968f, -0.00422447f, 0.01278482f, -0.00494184f, 0.02750485f, -0.00872111f, 0.00289146f, -0.02105183f, 0.01553076f, -0.01293489f, -0.01828542f, -0.02013428f, -0.03243519f, -0.00364538f, -0.03836393f, -0.00558767f, -0.02863762f, -0.00356400f, -0.01838601f, -0.02023926f, -0.04070243f, -0.05711368f, -0.01199578f, 0.04211137f, -0.01997849f, -0.05528432f, 0.01030710f, 0.00194602f, -0.01144430f, -0.02862979f, 0.01482610f, 0.04112104f, -0.00738173f, 0.02098347f, 0.00091163f, 0.00722468f, 0.01641017f, -0.03143790f, -0.02075995f, 0.01952826f, 0.01615920f, 0.02022830f, 0.00504103f, 0.00599500f, 0.00126741f, -0.01854090f, 0.01751672f, -0.00126032f, 0.02396633f, -0.00035575f, 0.05134215f, -0.01332704f, -0.01422175f, 0.01519260f, 0.01908098f, 0.01529464f, -0.01207837f, -0.02333385f, -0.00041416f, 0.02153913f, 0.01124521f, 0.02102154f, -0.06955463f, -0.00237665f, -0.00530176f, -0.06177944f, 0.00466413f, 0.02280190f, -0.02382174f, -0.00669699f, -0.02497855f, 0.00871277f, 0.01017195f, 0.01295259f, -0.00007495f, 0.00742130f, -0.00520048f, -0.02040456f, -0.04392788f, 0.01146011f, -0.00859056f, -0.01467386f, 0.01176060f, -0.00277643f, 0.01941120f, -0.04209024f, -0.01061453f, 0.00553103f, -0.00372687f, -0.00935956f, -0.01875052f, -0.02659601f},
    {-0.01333180f, 0.01728377f, 0.00145545f, 0.01884290f, -0.05172273f, -0.03420486f, 0.00202571f, -0.01968398f, -0.01757306f, 0.00233419f, -0.05151602f, -0.00565216f, -0.02503280f, 0.01616576f, -0.01293453f, -0.02144404f, -0.01821295f, 0.03096734f, -0.00336672f, 0.00650812f, 0.00124043f, 0.02544907f, -0.01784561f, 0.01161112f, -0.00611924f, -0.00798141f, -0.00385558f, -0.00597282f, 0.01015588f, -0.03489894f, 0.00836395f, 0.03304856f, 0.02234911f, 0.01960270f, -0.01104930f, 0.04106264f, -0.00709133f, -0.02080425f, 0.00696316f, -0.03043592f, 0.02520007f, -0.02468257f, -0.00205948f, -0.00160561f, 0.01365643f, -0.00940352f, -0.00056338f, -0.01789036f, -0.01065243f, -0.01068850f, 0.00525835f, 0.00155550f, -0.01397616f, 0.00531724f, -0.01384310f, 0.04045337f, -0.01535215f, -0.01162845f, -0.00861427f, 0.01565830f, 0.02408693f, 0.00997030f, -0.00387172f, 0.03304976f, 0.00333525f, -0.01514751f, -0.01928682f, 0.01172942f, 0.00824364f, 0.01853027f, -0.00402643f, -0.04118460f, -0.04459431f, 0.00335684f, 0.01068630f, 0.01642672f, 0.02805679f, -0.01861440f, -0.03689820f, -0.01928875f, -0.00679911f, -0.01756528f, -0.00004334f, -0.03033353f, -0.00257999f, 0.00954537f, -0.00902366f, -0.01920822f, -0.00139725f, 0.03689383f, -0.00639882f, -0.01800599f, 0.00990631f, 0.01387788f, -0.00127341f, 0.04473109f, -0.02513629f, 0.02788963f, -0.00553989f, -0.05376247f, -0.00813523f, 0.01194073f, -0.04066784f, 0.01971190f, -0.00036324f, -0.00560459f, 0.01038431f, 0.02038720f, 0.02013147f, 0.01089497f, -0.01564495f, 0.01167170f, -0.01463153f, -0.00541431f, -0.04489592f, 0.01746450f, 0.02082256f, 0.02476531f, 0.01329368f, -0.01472844f, 0.00526666f, -0.03601081f, -0.00262064f, 0.00167423f, -0.03616123f, 0.02825651f, -0.02280393f, -0.04240638f, -0.02435934f, -0.00721081f, 0.01202843f, 0.03444403f, -0.00560283f, 0.00273731f, -0.01511206f, 0.01480777f, -0.00573681f, 0.00138278f, -0.01232078f, 0.02919661f, 0.00674888f, -0.02283613f, 0.00139420f, -0.01677925f, 0.01131953f, 0.00617928f, -0.02613996f, 0.00537391f, 0.01212047f, -0.01282087f, 0.01273505f, 0.01016575f, -0.03978817f, 0.03794051f, -0.03615470f, 0.00489461f, -0.02216583f, -0.04242602f, 0.02604646f, -0.01465275f, -0.01352376f, -0.01243185f, -0.00135706f, -0.02087769f, -0.04750092f, 0.03444679f, -0.03792211f, -0.00077891f, 0.00280305f, -0.00137162f, 0.00822234f, -0.03696321f, 0.02299979f, 0.02154829f, 0.00073323f, 0.00317185f, 0.00369874f, -0.00159282f, 0.04025394f, -0.00388432f, 0.01164848f, -0.00426453f, -0.00397982f, 0.02237397f, 0.02540294f, 0.01465035f, -0.01868340f, 0.00386288f, 0.00799508f, -0.02588085f, 0.00537516f, 0.00532889f, -0.03664173f, -0.02528897f, 0.00483727f, 0.01867319f, -0.00048632f, 0.03097984f, -0.03199193f, -0.02622997f, 0.01023493f, -0.03485098f, -0.08779719f, -0.00514576f, 0.01933827f, -0.03648609f, 0.02822420f, -0.04491356f, 0.03389946f, -0.00770600f, -0.00404454f, -0.02200891f, 0.04784450f, 0.01771393f, -0.00139184f, -0.03794912f, -0.01191236f, -0.02119027f, -0.00470872f, -0.01818917f, 0.01458594f, 0.03459733f, 0.00912407f, 0.01296047f, -0.02814609f, 0.00335909f, 0.01361190f, -0.01021081f, -0.00074049f, -0.02332104f, -0.01758508f, 0.00959641f, -0.02743915f, -0.01202847f, -0.00071411f, 0.00372936f, -0.00762277f, 0.01169495f, -0.03898056f, -0.01222996f, 0.02144215f, -0.03485086f, 0.06131563f, -0.01083431f, 0.00875727f, -0.01165872f, 0.01438488f, 0.00073348f, 0.01895279f, 0.00015366f, -0.04443446f, -0.01049822f, -0.02493487f, 0.01048942f, 0.01301553f, 0.01610766f},
    {-0.00903828f, 0.00134939f, 0.00978156f, 0.01423057f, -0.00852713f, -0.02586943f, -0.00941609f, -0.01921074f, 0.02075375f, 0.04735890f, -0.00023482f, 0.01267909f, 0.00853060f, -0.02178301f, 0.00343214f, -0.02116327f, -0.00056261f, -0.06801427f, -0.01650125f, 0.01115619f, -0.00970671f, -0.00609022f, -0.00352972f, -0.02017442f, -0.00454741f, 0.02947929f, -0.02480995f, -0.00258770f, 0.02033045f, -0.00727332f, -0.05210020f, 0.02681457f, -0.03115823f, -0.00903611f, -0.00468775f, -0.00040886f, 0.02612386f, 0.00815426f, 0.02302746f, -0.01248705f, -0.02885596f, 0.00171930f, 0.00337811f, 0.01322707f, -0.05363149f, -0.06040867f, 0.00496399f, -0.01853115f, 0.01586965f, -0.00730680f, 0.00324999f, -0.00628095f, 0.03899718f, 0.03312644f, 0.01465150f, -0.05055223f, 0.04061488f, 0.00224456f, 0.00069302f, -0.00225250f, -0.00234742f, -0.01160366f, 0.01228277f, -0.03521772f, -0.01457654f, 0.01398194f, 0.05398452f, -0.05465122f, 0.00422289f, -0.00170731f, 0.01972045f, -0.07819980f, 0.00709965f, 0.00688887f, -0.05364844f, -0.03682378f, -0.03730027f, 0.03868000f, -0.03556870f, -0.05191655f, 0.01593161f, -0.02146361f, 0.02511284f, -0.02499740f, 0.00934597f, 0.02369479f, 0.01244958f, 0.00595455f, -0.00222325f, 0.00313129f, 0.00799402f, 0.00745477f, 0.02070772f, -0.00730767f, 0.02112643f, 0.04402170f, 0.02236240f, -0.01713771f, -0.07426590f, 0.00630530f, -0.03688364f, -0.00284411f, -0.02114958f, -0.01398860f, 0.01182548f, 0.00259218f, -0.03058621f, -0.01828599f, 0.01514891f, 0.02414802f, 0.03576375f, -0.00708404f, 0.04372105f, 0.00795167f, -0.00558778f, 0.01230842f, -0.01070452f, -0.00620683f, 0.01094153f, -0.01920928f, -0.01456017f, -0.01941892f, 0.01285683f, -0.00199731f, 0.06737799f, -0.01176147f, 0.02406739f, 0.00589570f, 0.02767128f, 0.00483203f, -0.01454284f, -0.00268902f, -0.01807150f, -0.02675637f, -0.01792751f, 0.00206292f, 0.01298155f, 0.01033552f, 0.01532801f, -0.01110898f, -0.02174641f, -0.01080966f, 0.00321897f, 0.01581841f, 0.02875875f, -0.02121853f, -0.02126032f, -0.03579066f, 0.01283237f, 0.00969400f, 0.00192747f, 0.00683948f, -0.01855363f, 0.00357313f, -0.02728435f, -0.01170415f, -0.05960113f, -0.02695400f, 0.00098445f, 0.00507005f, -0.00855085f, 0.01513920f, -0.00759117f, -0.02100945f, 0.02162064f, 0.02497910f, -0.01183470f, 0.01503852f, -0.02859641f, -0.01464073f, 0.02176431f, 0.00642830f, -0.01522921f, 0.02885143f, 0.01024377f, 0.00146796f, 0.01137514f, -0.02908271f, -0.00658556f, 0.01262386f, 0.02526145f, 0.00334217f, -0.00448251f, -0.02565708f, -0.07000468f, 0.00022099f, 0.01788357f, -0.00567832f, 0.03973757f, -0.01849816f, -0.02999468f, 0.01777555f, -0.07536940f, -0.00756903f, 0.00127385f, 0.01450197f, -0.03455886f, -0.00201410f, -0.01958106f, 0.02278277f, -0.04022423f, 0.01981284f, -0.02448849f, -0.00904856f, 0.02992087f, 0.01156889f, -0.01692320f, 0.00890799f, -0.00548808f, 0.00882664f, -0.02736537f, 0.00999701f, -0.02216303f, 0.03708385f, -0.00753967f, -0.02175046f, -0.01871342f, -0.00442096f, -0.01218802f, 0.00709530f, -0.01593774f, 0.01067549f, -0.00050243f, -0.05109529f, -0.00540327f, -0.01396738f, -0.03779871f, 0.02244937f, 0.00485110f, -0.07307605f, 0.00977797f, 0.06078703f, -0.01411511f, 0.02433633f, -0.00441136f, -0.02224992f, 0.01668825f, 0.01163831f, 0.04049132f, -0.00211593f, -0.00781444f, -0.00058015f, -0.07332400f, 0.01161684f, -0.03458686f, 0.00197130f, -0.01177861f, -0.00786887f, -0.00778300f, 0.01159953f, 0.00227526f, -0.00588523f, -0.00026708f, -0.00198457f, 0.01958835f, 0.02140735f},
    {-0.01804594f, 0.00622509f, -0.01480964f, 0.00944626f, -0.04655594f, 0.01478465f, 0.00450161f, 0.04607456f, 0.02448584f, 0.02565842f, -0.02212929f, 0.00105270f, -0.01097249f, 0.02160712f, -0.02247696f, 0.03445548f, -0.01885515f, 0.00009910f, -0.02897762f, -0.02827883f, 0.01552300f, -0.03569121f, 0.01797420f, -0.00284424f, -0.00626745f, 0.00437795f, 0.00582831f, 0.02205224f, 0.00479777f, -0.00121765f, -0.00515319f, -0.01283362f, -0.00127398f, 0.01678624f, -0.00946409f, -0.03453425f, 0.02644638f, -0.03533969f, -0.01409723f, -0.05177630f, 0.03316456f, -0.00782445f, -0.02191025f, 0.01097171f, -0.00862420f, -0.00643018f, 0.02414423f, 0.03525262f, -0.02866153f, 0.03579352f, -0.02068143f, -0.01447576f, 0.02086015f, -0.02584630f, -0.00447949f, -0.00559502f, 0.00407314f, -0.01496372f, 0.01093967f, -0.00013420f, 0.00412441f, -0.00265466f, -0.00161847f, -0.05536210f, -0.01282508f, 0.01011607f, 0.00086989f, 0.00802732f, -0.01653786f, -0.02111190f, 0.00275483f, 0.00076933f, -0.01031051f, -0.01771972f, 0.00125946f, -0.00027062f, -0.02745072f, -0.00725426f, 0.04552395f, 0.03685218f, 0.00474651f, -0.00787361f, 0.02224296f, 0.01418626f, -0.01284654f, 0.01031664f, -0.01528073f, 0.01467045f, -0.01010535f, 0.01352908f, -0.07610649f, -0.00596812f, -0.00072291f, 0.03885676f, 0.02709890f, 0.03127076f, 0.01515258f, 0.02233357f, -0.00343970f, -0.03910534f, 0.00935796f, 0.01490097f, 0.00513391f, 0.00546227f, 0.03070328f, -0.01298315f, 0.00714496f, -0.00600234f, -0.02238985f, 0.03067914f, 0.00710627f, -0.00380618f, -0.02788931f, 0.01143314f, 0.00367455f, 0.00865662f, -0.01507261f, -0.01505917f, -0.00781014f, 0.00765437f, -0.00108322f, -0.03158742f, -0.01495623f, -0.01279889f, -0.02101464f, -0.03866762f, 0.02962050f, -0.01543063f, 0.00371241f, 0.03994119f, 0.00312322f, 0.00772247f, -0.01869998f, -0.00747101f, 0.00373701f, -0.01264515f, 0.03213166f, 0.00116225f, 0.01170403f, -0.01812948f, -0.00301274f, 0.01885178f, 0.02628747f, -0.02767616f, -0.02486190f, 0.02278809f, -0.00612433f, 0.00116670f, -0.02781463f, 0.01593189f, -0.02080375f, -0.00274015f, -0.02816290f, 0.01489364f, 0.01147678f, -0.00281873f, 0.01524667f, 0.01220904f, 0.03034326f, -0.00587683f, 0.03191325f, -0.00835272f, -0.00502324f, 0.01037029f, -0.01186092f, -0.00968938f, -0.02532709f, -0.01453710f, -0.04362465f, 0.00098511f, -0.00350007f, -0.04507346f, 0.01909232f, -0.01529855f, -0.00174288f, -0.02464571f, 0.02789810f, -0.03728107f, -0.05605026f, -0.01714528f, -0.01095444f, -0.00361872f, 0.00549386f, -0.00713825f, -0.03418819f, -0.04105023f, 0.04073046f, -0.00071102f, -0.03500721f, 0.02730000f, -0.01163853f, 0.00093267f, 0.02102482f, 0.03094523f, -0.01004484f, 0.01073033f, 0.00309566f, 0.01346387f, 0.00966885f, -0.00069670f, -0.01117215f, 0.03184446f, 0.01508971f, 0.01761409f, 0.04175032f, 0.02392733f, 0.01988555f, 0.02531070f, -0.01841801f, 0.02672342f, 0.00742736f, -0.03438916f, -0.01675358f, 0.01350177f, -0.01281307f, 0.00136777f, 0.02955458f, -0.01028752f, 0.00608792f, 0.01960923f, -0.01622093f, 0.01143873f, -0.01983882f, 0.00661973f, -0.00622830f, -0.00380780f, 0.02030657f, -0.00577726f, -0.01636527f, 0.00951916f, 0.01060874f, 0.00497339f, 0.01482786f, -0.01533708f, 0.01788932f, 0.00050074f, 0.01316654f, -0.02885603f, 0.01042777f, -0.01754472f, -0.00163453f, 0.01621143f, 0.01898276f, -0.00513517f, 0.00986967f, 0.00333970f, 0.03501090f, -0.00875974f, -0.05562504f, 0.01777813f, 0.00598321f, 0.00050462f, -0.00018739f, -0.01458151f, -0.00162168f, 0.02698992f},
    {0.00873894f, -0.00034650f, -0.01641260f, 0.01016682f, -0.03625064f, 0.02009001f, 0.01107615f, -0.01994263f, -0.02498931f, -0.00219197f, -0.05911668f, 0.03079472f, -0.04115729f, 0.00454152f, 0.05010854f, 0.02620483f, -0.00483978f, -0.00971525f, -0.02298857f, 0.02324640f, 0.00404553f, 0.00098276f, -0.03437641f, -0.00070216f, -0.01066928f, -0.00518483f, 0.00291863f, 0.00212392f, -0.01242000f, -0.01271444f, -0.00019210f, 0.02493670f, -0.00098024f, 0.01164313f, 0.00477206f, 0.01491622f, 0.00435864f, -0.00330301f, 0.04621404f, -0.01391819f, 0.00152207f, 0.00646329f, -0.00042320f, -0.02812988f, -0.01131010f, -0.01267589f, 0.01829675f, 0.01804212f, 0.00696629f, 0.01405816f, -0.00327812f, -0.02602468f, -0.00772359f, -0.00893862f, 0.01292197f, -0.00440320f, 0.00130983f, 0.00033044f, 0.00559361f, 0.00942632f, -0.01512383f, -0.03105479f, 0.02243795f, -0.00420170f, -0.01720087f, -0.00907911f, -0.00318638f, -0.01269449f, 0.00016386f, -0.00166934f, 0.00369688f, -0.00101287f, 0.01207051f, -0.00092657f, 0.01587744f, -0.02643248f, -0.01696162f, 0.02264843f, -0.00687019f, -0.00444249f, 0.01637118f, -0.00063259f, -0.03254194f, 0.02834540f, -0.02266553f, -0.01013651f, -0.00104150f, 0.00098993f, -0.00589262f, 0.00303276f, 0.02679920f, -0.00501475f, 0.00788212f, -0.00418561f, 0.01392448f, 0.00604255f, -0.01692646f, 0.03493733f, 0.01649461f, -0.06955087f, -0.04051241f, -0.00603871f, 0.00064497f, -0.00325067f, 0.00188094f, 0.00658643f, 0.02038557f, 0.01212170f, -0.00341498f, -0.00046028f, -0.00535240f, 0.00189402f, -0.00809266f, -0.01409422f, 0.00191969f, 0.00103509f, -0.01395207f, -0.01496823f, 0.00631385f, -0.04072003f, 0.00513325f, 0.03996816f, -0.00772055f, -0.02815705f, 0.01530007f, -0.00622113f, -0.02198064f, -0.03206339f, 0.01417570f, 0.01343859f, -0.01096316f, 0.02235310f, -0.01073075f, 0.02459317f, 0.00324243f, -0.02336487f, -0.01962533f, -0.01196450f, 0.04058458f, 0.03218452f, 0.02644550f, 0.00695840f, -0.00887533f, 0.00078319f, 0.01343049f, -0.02402439f, -0.01332858f, -0.01662024f, -0.00491956f, -0.01888184f, 0.00065212f, -0.01580457f, -0.00216747f, -0.02710323f, -0.08393749f, -0.02650378f, -0.00489157f, 0.03708538f, -0.00527013f, -0.01440448f, 0.01392235f, 0.02598701f, 0.00235987f, -0.00824426f, -0.03646974f, 0.02327611f, -0.04770479f, 0.00731295f, 0.02349465f, -0.01760451f, 0.03006198f, 0.00194048f, 0.00026504f, 0.01713580f, -0.03318188f, -0.00657105f, 0.00734351f, 0.03462481f, -0.02919006f, -0.03379570f, 0.00763106f, -0.01150496f, -0.02107745f, -0.03150657f, -0.00785092f, 0.01823653f, -0.00911574f, 0.00040474f, -0.01604600f, -0.00886267f, 0.00515561f, -0.00728588f, 0.03497994f, 0.03476080f, -0.01838541f, 0.01260943f, -0.00728059f, 0.00869170f, 0.01802494f, -0.03897107f, -0.02328674f, -0.01191151f, -0.07179251f, 0.00643077f, 0.01675925f, -0.05461873f, -0.01026113f, -0.06205068f, 0.01260252f, 0.01260648f, -0.00403949f, -0.06563576f, -0.00723838f, -0.03981156f, -0.03896939f, 0.01473137f, -0.00615281f, -0.00404116f, -0.02131121f, 0.01149417f, -0.00487652f, 0.02076721f, 0.02188705f, -0.01650068f, 0.02664141f, -0.01420983f, 0.00688050f, 0.01093658f, 0.02687877f, -0.00166013f, 0.01038346f, 0.00411376f, 0.00587679f, 0.03840684f, 0.00119087f, 0.00528553f, 0.03416531f, -0.01674540f, -0.00424278f, -0.00956435f, 0.02548472f, 0.00936593f, 0.01076964f, -0.00041052f, 0.02453200f, -0.01240254f, -0.00191888f, 0.00907784f, 0.01846314f, -0.01496030f, -0.08162130f, 0.04644195f, -0.05114661f, 0.00058929f, -0.01780780f, 0.03278315f},
    {-0.00847964f, 0.00008888f, 0.01786079f, 0.02509004f, 0.04308589f, -0.01382959f, -0.02586269f, 0.00043656f, 0.03450470f, 0.01081836f, 0.01042969f, 0.00025023f, -0.04332332f, -0.04078590f, -0.07050268f, -0.00864365f, -0.00935994f, -0.03206513f, 0.02390489f, 0.01660570f, -0.01870353f, -0.02030336f, 0.01994770f, -0.02453893f, -0.00254421f, -0.01571461f, 0.01359636f, 0.01291543f, 0.01875246f, -0.01093491f, -0.02962706f, 0.00874329f, -0.02416212f, 0.00315990f, 0.01077078f, 0.00574462f, -0.00856431f, 0.02085722f, -0.03973855f, -0.00899265f, -0.06222257f, -0.00081039f, -0.01138940f, 0.00966095f, -0.03294325f, 0.02296610f, 0.03765842f, 0.01843021f, 0.00283345f, 0.00209823f, -0.04020063f, -0.01333975f, -0.02108633f, 0.01502260f, -0.00749602f, -0.02365152f, 0.01658566f, 0.01752317f, -0.02545446f, -0.01811035f, 0.02100156f, -0.00793599f, 0.00623988f, 0.00824815f, -0.02537103f, -0.02161778f, -0.01626729f, -0.03357059f, 0.03425348f, 0.00897200f, -0.00294434f, -0.03782973f, 0.01617937f, -0.00416049f, -0.03717965f, 0.00680579f, -0.00210093f, -0.05480114f, -0.02794531f, -0.03440178f, 0.01481558f, -0.02017170f, -0.01173471f, 0.01932864f, -0.00484514f, -0.01131498f, -0.01698473f, 0.02023001f, -0.01178643f, 0.01675226f, -0.07293768f, -0.00991039f, -0.00621356f, 0.01493764f, 0.01315314f, -0.01001760f, -0.02523778f, 0.03658495f, -0.01954238f, -0.01575026f, -0.04543060f, 0.00859360f, -0.00852064f, -0.00902016f, -0.00008823f, 0.03206232f, 0.03049218f, -0.02640977f, 0.02423896f, -0.01871710f, -0.00804797f, -0.03794362f, -0.01118946f, -0.00753123f, 0.02094250f, -0.01502921f, -0.00583455f, 0.00340870f, -0.01336716f, -0.04314883f, -0.00450296f, -0.02073388f, 0.01324564f, -0.00410645f, 0.00729713f, -0.02422710f, -0.00293070f, -0.01084920f, 0.03238904f, -0.01585090f, -0.01586885f, -0.00532493f, -0.00008471f, 0.01039992f, 0.02492383f, -0.01691913f, -0.02700595f, -0.00030414f, 0.00478594f, -0.00979153f, 0.00790225f, -0.03054152f, -0.00871515f, -0.01993824f, -0.00671527f, 0.02904174f, 0.01753361f, 0.00263427f, 0.00181550f, 0.00145383f, 0.03116814f, 0.00080727f, -0.05709825f, 0.01105671f, 0.01608169f, 0.01467009f, -0.04865386f, -0.03059944f, -0.00026233f, -0.00900030f, 0.00722902f, -0.00600600f, 0.02894272f, 0.01644178f, 0.00370424f, -0.01987400f, 0.02847180f, 0.01051534f, -0.00472814f, 0.00276127f, -0.00147177f, -0.01682790f, 0.02355254f, 0.02871540f, -0.01563113f, 0.00389582f, 0.04911384f, -0.00619110f, -0.03379209f, 0.01282799f, 0.01709158f, -0.02246754f, -0.03267979f, -0.03442657f, -0.04258059f, 0.02311851f, 0.03015018f, 0.01530454f, -0.00109140f, 0.00134918f, -0.02162478f, 0.04610215f, -0.06420851f, 0.02480835f, -0.02072933f, 0.01907105f, 0.03193711f, -0.00563923f, 0.03873049f, -0.02653822f, -0.00152063f, 0.01939204f, -0.02076202f, 0.02625564f, 0.03101303f, 0.01103214f, 0.03478996f, -0.00337761f, -0.01009399f, -0.02178062f, 0.00588973f, 0.02163586f, -0.02334817f, -0.00706522f, 0.01650231f, 0.00476229f, 0.03305232f, 0.00249507f, 0.00836694f, -0.02402567f, 0.01741664f, 0.00069437f, -0.02029399f, 0.00190907f, 0.03436232f, 0.00255067f, -0.04435459f, 0.01016364f, 0.00849903f, -0.03309175f, -0.01322247f, 0.01166368f, 0.00137010f, 0.03496148f, 0.01134128f, 0.01813398f, -0.01497633f, -0.01881543f, -0.00358230f, 0.00868770f, -0.00856982f, 0.01606120f, -0.04369022f, -0.01429410f, -0.00614865f, 0.00458893f, 0.00259115f, 0.00491117f, -0.01311647f, -0.01349073f, -0.04273814f, -0.00746116f, -0.02602324f, -0.01118980f, -0.00314450f, 0.00247269f},
    {-0.00940670f, 0.01888456f, -0.00014968f, -0.00457698f, 0.00117448f, -0.00041232f, 0.03196266f, 0.03014157f, 0.00208465f, 0.01643976f, 0.01951838f, 0.01564971f, -0.03310065f, -0.02231386f, -0.00923769f, -0.00820930f, 0.01601326f, -0.06645972f, 0.02943747f, -0.01390323f, -0.00379953f, 0.00109115f, -0.02480170f, -0.01070935f, -0.01526112f, 0.00572711f, -0.01280166f, 0.00742664f, -0.00777571f, 0.00974880f, 0.00470861f, 0.01513746f, 0.01324575f, -0.01195107f, 0.01895013f, -0.05406592f, 0.03140219f, 0.00626484f, -0.06329435f, 0.02920303f, -0.04023316f, 0.04111256f, -0.00440324f, 0.02463737f, -0.04610337f, -0.07317229f, -0.02113996f, 0.00606527f, -0.01280005f, -0.01388565f, -0.03327197f, -0.03281335f, 0.02875014f, -0.00881952f, -0.02939347f, 0.02896890f, 0.02760498f, 0.01357844f, -0.00898281f, -0.02496924f, -0.01797312f, -0.00653731f, 0.00191144f, -0.02345573f, -0.01563081f, 0.00264792f, 0.02794679f, -0.07010460f, 0.04366453f, 0.02653357f, -0.03066124f, -0.02179219f, 0.01387927f, -0.04406351f, -0.08309314f, 0.02928665f, -0.02589054f, -0.00891875f, -0.04039556f, -0.05555280f, 0.02293504f, 0.01096356f, -0.01268304f, 0.00539988f, 0.00523505f, 0.03330150f, 0.02336827f, -0.02446563f, -0.01554302f, 0.01382189f, -0.01970167f, -0.00585345f, -0.00465181f, -0.02342253f, -0.01685715f, 0.00397596f, -0.00236960f, 0.01042248f, -0.06088629f, -0.01424226f, -0.03982428f, -0.00106122f, 0.01968556f, -0.00230560f, -0.00623381f, -0.01777941f, -0.00387652f, -0.02590804f, -0.00502796f, 0.00496395f, 0.00366698f, -0.02095055f, 0.01124491f, -0.02595721f, 0.00601078f, 0.00139684f, -0.00861103f, 0.00620427f, 0.00673706f, -0.00754682f, 0.01756831f, -0.00224141f, 0.01182713f, -0.01455580f, 0.01169409f, -0.01162296f, 0.00903686f, 0.01617869f, 0.01810551f, -0.04086177f, -0.01989936f, 0.01649026f, -0.00111954f, -0.01439592f, 0.05341377f, 0.01820101f, 0.00607485f, 0.02173034f, 0.03468536f, 0.01365886f, 0.02442191f, -0.00630779f, 0.00033932f, 0.01352166f, -0.02905079f, -0.04046597f, 0.01236441f, -0.00960023f, -0.00331107f, -0.01011716f, 0.01242534f, 0.00232509f, -0.01267094f, 0.00086839f, 0.01040480f, 0.03842833f, -0.03320349f, 0.01066798f, -0.00834964f, 0.00314417f, 0.00529657f, -0.00552475f, -0.01869383f, -0.00329277f, -0.01450751f, -0.00476199f, 0.01374185f, 0.01200583f, -0.04798431f, 0.01154078f, -0.00709337f, 0.01567119f, 0.00773838f, -0.00396811f, -0.00397433f, 0.00282677f, 0.00480869f, 0.01550986f, -0.03611283f, 0.00213714f, -0.00341785f, 0.00915288f, -0.03206772f, -0.03767704f, -0.03209309f, 0.01342651f, 0.00960135f, 0.00971957f, 0.00793169f, -0.03951227f, -0.01849887f, -0.01734504f, -0.03726164f, 0.00424375f, -0.01141507f, -0.01817701f, 0.00964401f, -0.01448650f, -0.02008623f, -0.00850533f, 0.01846638f, 0.02714730f, -0.01349785f, 0.01071750f, 0.01258031f, 0.01326834f, 0.01348630f, 0.01477563f, -0.00747709f, -0.01576879f, 0.00456994f, 0.03755004f, 0.01656044f, -0.00612165f, 0.00742117f, -0.01760067f, 0.02922534f, -0.02878300f, -0.02188799f, -0.00489462f, -0.01439463f, 0.00610321f, 0.00648709f, -0.00417339f, -0.00091716f, -0.03561890f, -0.01748518f, 0.02051519f, 0.03392534f, -0.07035705f, -0.00058509f, -0.00448763f, 0.00867837f, -0.00978167f, -0.00055255f, -0.01892191f, -0.02399871f, 0.03265843f, -0.03215193f, 0.01883912f, 0.00333191f, 0.04322822f, -0.03869567f, -0.01086469f, 0.01498081f, 0.01869954f, -0.01519761f, 0.02301893f, -0.01254889f, 0.00732149f, -0.03997205f, 0.00810282f, -0.01351136f, 0.02282862f, 0.00286275f, 0.01012593f},
    {-0.00001699f, -0.02520419f, -0.01006410f, 0.00438112f, -0.03137863f, 0.00519100f, 0.01646663f, 0.02059756f, -0.00181414f, -0.03073986f, -0.02701352f, 0.00509336f, 0.00191638f, -0.03390433f, -0.00887530f, 0.00417687f, -0.00464542f, -0.01415847f, -0.03644022f, -0.01373876f, 0.03235532f, -0.00006852f, -0.00401467f, 0.00605741f, -0.00343497f, -0.00775384f, -0.03871339f, 0.01110985f, -0.01739726f, -0.06046173f, 0.01951720f, 0.01497663f, -0.02232623f, -0.02227405f, -0.01210593f, 0.00393728f, 0.01006734f, 0.03015181f, -0.03109556f, -0.02501285f, 0.01369359f, 0.01412264f, -0.03305753f, -0.00939954f, 0.00008076f, 0.03425439f, 0.00371300f, 0.00344838f, -0.02363970f, -0.02908619f, 0.01615105f, -0.00891449f, -0.01720927f, -0.01403150f, 0.00697019f, -0.03332381f, -0.00392067f, 0.01272379f, -0.04411460f, 0.01451836f, 0.00424783f, 0.01000793f, 0.01277309f, -0.02805329f, -0.00668593f, -0.02600375f, -0.01186120f, -0.01696224f, -0.02141461f, -0.01954138f, 0.01322261f, -0.01242626f, -0.01231573f, 0.00608043f, 0.02076034f, -0.04312677f, -0.00831783f, 0.00445191f, 0.01144208f, 0.00100680f, -0.03570641f, -0.02119306f, 0.01702870f, 0.00887440f, -0.00549317f, 0.01093070f, -0.01556756f, 0.01882389f, -0.01596238f, -0.01368382f, -0.00794188f, 0.00878652f, -0.01730300f, 0.01694061f, 0.01721808f, 0.00106179f, -0.03067468f, 0.00281686f, 0.05005090f, -0.03115022f, 0.02725866f, -0.02063229f, 0.03189074f, -0.05846007f, 0.00044673f, 0.02812579f, -0.01266900f, -0.02267361f, -0.03820021f, -0.02450557f, -0.02222742f, -0.00169678f, -0.04104122f, 0.00290492f, -0.01086828f, -0.01868597f, -0.01463411f, -0.01167396f, -0.00720054f, -0.02970482f, 0.00812673f, 0.01430132f, 0.02695655f, 0.00710400f, -0.00038214f, -0.00353673f, 0.01661949f, 0.01440071f, 0.01946522f, 0.01746042f, 0.02374921f, 0.00917542f, 0.02681730f, 0.00560011f, -0.03386278f, -0.00038958f, -0.01882973f, -0.01248885f, -0.03506767f, 0.00703310f, -0.00482559f, 0.00880339f, 0.01228299f, -0.01065226f, -0.03629601f, 0.00603116f, -0.02462757f, 0.01334722f, -0.00948185f, 0.00715401f, -0.01032509f, -0.00147427f, -0.00111612f, -0.00263798f, -0.03017694f, 0.02414099f, -0.02693132f, -0.02126723f, -0.02385286f, 0.02354380f, -0.01382784f, 0.01431034f, -0.00204844f, -0.02527007f, -0.04526845f, 0.00055360f, 0.01315826f, 0.04351005f, -0.03541604f, 0.01234703f, -0.03782821f, -0.06021480f, -0.02006691f, -0.00830363f, 0.02669752f, 0.03575120f, 0.02093732f, -0.02098045f, 0.03332715f, 0.00906773f, -0.00345211f, -0.03615063f, 0.00565510f, -0.01254322f, 0.00168593f, -0.04880827f, -0.00651673f, -0.01885136f, -0.03075526f, 0.01260740f, 0.02084455f, -0.01518956f, 0.01433976f, 0.02811206f, -0.02616617f, -0.01089330f, 0.00213055f, -0.02604864f, 0.00008708f, -0.00476041f, -0.00869397f, -0.00581880f, 0.00264310f, 0.04216625f, 0.00010737f, -0.02491885f, 0.01050129f, -0.02715408f, 0.03086307f, -0.01109214f, -0.01261039f, -0.01599738f, 0.00175260f, 0.00122538f, 0.01652054f, 0.03708276f, -0.02963372f, 0.02780434f, 0.00100031f, 0.01962670f, -0.02379207f, 0.01595650f, -0.02045745f, -0.00274201f, -0.00493325f, 0.02082161f, -0.02716235f, -0.00802986f, 0.00507367f, -0.00005842f, 0.04064900f, -0.00746120f, -0.00300977f, -0.02149707f, -0.00615748f, 0.03777291f, -0.02769970f, -0.00015549f, 0.03380281f, -0.02774116f, 0.01474271f, 0.01786085f, 0.01294631f, 0.02413745f, 0.00678801f, -0.03472367f, 0.00603509f, -0.00556163f, -0.01663443f, -0.00045196f, 0.02051075f, 0.01674086f, -0.00869767f, -0.01637445f, 0.01516886f, -0.01199739f},
    {-0.01214964f, -0.05753018f, -0.00765730f, -0.03332470f, -0.02325992f, -0.00425498f, -0.00635091f, 0.01458381f, 0.00854633f, -0.01254534f, -0.00699082f, 0.00775517f, -0.01360943f, 0.00272343f, -0.02301746f, 0.00018576f, -0.00654318f, 0.00741307f, 0.04797820f, 0.00106799f, -0.02767866f, -0.00919578f, -0.05719810f, 0.02192195f, 0.03762943f, -0.02151703f, -0.02948483f, 0.02574839f, 0.00148193f, -0.02542179f, 0.01575881f, 0.00801881f, -0.01997473f, 0.00015028f, 0.00583581f, -0.00970229f, 0.03115173f, 0.00648392f, 0.01005339f, -0.02096719f, 0.03424538f, 0.00364706f, 0.01359617f, 0.00152724f, -0.01563937f, -0.02583454f, 0.00743615f, 0.03328165f, -0.00795161f, 0.03901195f, 0.01169008f, 0.01085736f, -0.05580275f, -0.00603789f, -0.00007067f, -0.04118658f, -0.00640392f, -0.00680918f, -0.01780637f, -0.04024179f, 0.00638135f, 0.02866477f, 0.02395734f, -0.03345301f, -0.00935433f, 0.00429768f, 0.02366738f, 0.01284737f, -0.00446391f, -0.01879389f, -0.01525552f, 0.03164422f, -0.02916291f, -0.02216517f, 0.00474501f, 0.00572427f, 0.01507487f, -0.02408996f, 0.00842167f, 0.02635249f, -0.00137262f, 0.01264987f, 0.01945980f, -0.00133877f, 0.02867354f, 0.02426670f, -0.00124234f, 0.00931701f, -0.00275639f, 0.02218270f, 0.00202783f, 0.03931311f, 0.01535487f, 0.06712411f, -0.00344501f, 0.03037112f, -0.00966264f, -0.05274145f, 0.03029869f, 0.02149081f, -0.01824338f, -0.00436986f, 0.01193812f, -0.02711565f, -0.03622841f, 0.03065102f, 0.01340177f, 0.00057006f, -0.04034100f, -0.03770094f, -0.01233249f, -0.01109067f, -0.03136558f, 0.01364960f, -0.00641192f, 0.01583846f, -0.01747047f, -0.03246211f, 0.00077631f, -0.02565103f, -0.01367019f, -0.03021882f, -0.00009314f, -0.03028107f, -0.00584625f, -0.00025210f, 0.01882934f, -0.01883584f, 0.03560068f, 0.01298222f, -0.00794312f, -0.00827619f, 0.03400465f, -0.00926449f, -0.00469463f, -0.00684828f, -0.02624023f, 0.03107819f, -0.00396374f, 0.02709347f, -0.03099235f, -0.00228490f, 0.00165487f, -0.00372403f, 0.00090808f, 0.01252265f, -0.00170289f, -0.02509625f, 0.02884861f, -0.00543462f, -0.01243245f, -0.00566955f, -0.00810143f, 0.02628252f, 0.01255516f, -0.00522683f, 0.01406742f, -0.01610033f, 0.01278289f, 0.00675884f, 0.02978085f, 0.01645727f, -0.00805417f, 0.00988812f, 0.02196534f, -0.00344346f, -0.01143565f, -0.01360440f, -0.04446836f, 0.01147695f, 0.01109166f, -0.08292393f, -0.01100572f, 0.00827131f, 0.02675863f, -0.00183869f, -0.01774569f, -0.00570231f, -0.02902706f, -0.00132667f, -0.02134073f, -0.00303944f, -0.00998933f, -0.01697329f, 0.01129824f, -0.02018095f, -0.00940502f, 0.00455181f, -0.00563862f, -0.01430827f, 0.01206315f, 0.03023298f, 0.01315282f, 0.01635822f, 0.01153062f, -0.01773631f, -0.04161295f, 0.00169185f, 0.02449017f, 0.00671723f, 0.02840890f, 0.02699889f, 0.00669510f, 0.00416574f, -0.01134309f, 0.00235135f, -0.02299614f, 0.01135085f, 0.00501419f, 0.05311494f, -0.00339298f, 0.00258177f, 0.01302128f, 0.00918640f, 0.00098922f, 0.02946612f, -0.00929533f, -0.00611386f, -0.00090375f, -0.00864847f, -0.05313072f, -0.02017286f, -0.00475322f, 0.00364009f, -0.00065212f, 0.02398842f, 0.00778654f, 0.01770531f, 0.01220578f, 0.00706167f, 0.00826572f, -0.01489770f, 0.03710375f, -0.01150767f, 0.00842248f, -0.00043181f, 0.00011432f, 0.00585292f, -0.01469282f, -0.03719903f, -0.01186845f, -0.01989840f, 0.00348198f, 0.03659239f, -0.00703579f, 0.01057053f, 0.00940149f, 0.01319264f, -0.05787254f, -0.01488298f, -0.02450873f, 0.02354837f, -0.00081465f, 0.02564893f, -0.01488879f, -0.00433642f},
    {-0.02029119f, -0.00575356f, -0.01267111f, 0.03893540f, -0.02471410f, -0.02397825f, -0.00642941f, -0.00313152f, 0.01289381f, 0.04330431f, -0.02307058f, -0.00526440f, -0.01898542f, -0.01009001f, -0.01228568f, 0.00160992f, 0.01573135f, 0.02114349f, 0.00661126f, -0.02726722f, 0.01637931f, 0.02800779f, 0.05014054f, 0.01482802f, 0.00240397f, -0.02200038f, -0.01324773f, 0.05442739f, -0.02042511f, -0.01996484f, -0.00529693f, -0.00312199f, 0.01476645f, 0.01668222f, -0.00499797f, -0.02041487f, -0.00559589f, -0.03258528f, 0.01540766f, 0.03091573f, -0.01701521f, -0.02175787f, 0.00913295f, 0.05147786f, -0.04384509f, -0.05486549f, 0.00988015f, 0.05488443f, 0.02129615f, 0.01877718f, -0.00512783f, 0.00117086f, 0.02391082f, -0.04934687f, -0.03418427f, -0.01341270f, 0.01281435f, -0.01199735f, 0.03132631f, 0.00015366f, -0.00862302f, 0.00683845f, 0.00952961f, 0.00070439f, -0.03562364f, 0.02834513f, 0.02641174f, -0.02123428f, -0.01835900f, 0.00278571f, 0.00169765f, -0.04087350f, -0.02172151f, -0.03325658f, -0.03089089f, 0.00637350f, -0.02467721f, -0.00677708f, -0.05468747f, -0.03639524f, -0.00885321f, -0.01635161f, -0.00959280f, -0.02547755f, 0.05825602f, 0.01449403f, 0.01944375f, -0.00441805f, -0.01530034f, -0.00784696f, -0.04070981f, -0.04368507f, 0.01176628f, 0.03777612f, 0.00314871f, 0.00653656f, 0.00710557f, 0.00257335f, -0.04664622f, -0.00918947f, 0.00561993f, -0.02374524f, 0.01089688f, 0.02272006f, -0.02178385f, -0.01454928f, 0.00720286f, -0.04003127f, -0.01224728f, 0.00178655f, -0.01324402f, 0.00280886f, -0.00409383f, 0.02532931f, -0.00561450f, 0.01508258f, -0.01038163f, 0.00129679f, -0.00439092f, -0.02356977f, 0.01059186f, -0.00689245f, -0.02593278f, 0.01720670f, -0.02545954f, -0.03905010f, -0.00788846f, 0.02216520f, -0.02009554f, 0.00252862f, 0.00138209f, -0.00655870f, -0.01776099f, -0.00801498f, -0.04549925f, 0.02769352f, -0.01803862f, 0.03916807f, -0.01483373f, -0.03918231f, -0.01341587f, 0.00536163f, 0.02442078f, -0.02725753f, -0.01049755f, 0.02431707f, 0.00531161f, 0.00027742f, -0.02255892f, 0.01764564f, -0.00215240f, -0.01617066f, 0.00541068f, -0.02804431f, 0.03253792f, 0.02162629f, -0.05506084f, -0.02155967f, -0.00988257f, -0.00159619f, 0.00096334f, -0.02658848f, 0.02594673f, -0.02536553f, -0.00068924f, 0.00788248f, 0.00766559f, 0.00184429f, -0.02002317f, 0.00996839f, -0.01084946f, 0.00950735f, 0.03503229f, -0.02440740f, 0.03550268f, -0.02325927f, 0.03084682f, -0.03363543f, -0.00328112f, 0.00004264f, 0.01019454f, -0.00449977f, -0.01484135f, -0.03886261f, -0.05468136f, -0.00417642f, 0.01097437f, 0.03235554f, -0.00090174f, 0.00509723f, 0.01277268f, -0.00096275f, -0.02905931f, 0.03734198f, 0.00836132f, 0.02731545f, 0.04207875f, -0.03462486f, -0.01942533f, 0.00264646f, 0.00873689f, 0.01346031f, -0.00474058f, -0.00429585f, -0.01986874f, 0.02397682f, 0.01391318f, -0.00673267f, -0.01042904f, 0.03493941f, 0.00845932f, -0.01947483f, 0.01954732f, 0.00120898f, 0.01529712f, 0.00715909f, -0.00106753f, 0.00744632f, -0.00451552f, -0.01823823f, 0.03594267f, -0.00845739f, -0.01229815f, -0.01630292f, -0.01009179f, -0.02097294f, -0.03271237f, 0.01003870f, -0.01228976f, -0.03621450f, 0.00352708f, 0.00447730f, 0.02966413f, 0.00632183f, 0.00217556f, 0.00417268f, -0.00641192f, -0.01598633f, 0.01561705f, 0.01458447f, 0.00147596f, -0.01174878f, -0.05139501f, -0.01786347f, 0.00814944f, -0.02033123f, 0.00767653f, 0.00838618f, 0.04973087f, 0.01819747f, 0.00400220f, -0.01003308f, -0.00808586f, -0.01950211f, 0.00792576f, -0.00506481f},
