{
  "feature_names": [
    "x1",
    "x2"
  ],
  "hidden_units": [
    32,
    16
  ],
  "activation": "relu",
  "output_activation": null,
  "num_classes": null,
  "bias": [
    0.000987171079032123
  ],
  "scaler": {
    "mean": [
      0.5049462367873594,
      0.4976159623014908
    ],
    "scale": [
      0.29176020765606775,
      0.28717015805616375
    ]
  },
  "networks": {
    "x1": {
      "layers": [
        {
          "weights": [
            [
              0.02550634741783142,
              -0.347089558839798,
              -0.24157965183258057,
              0.2407417744398117,
              -0.3260539174079895,
              0.02718695066869259,
              0.2001313418149948,
              0.09059436619281769,
              0.30158570408821106,
              -0.2793230712413788,
              0.15501368045806885,
              -0.34465292096138,
              -0.10062582045793533,
              0.2026652693748474,
              0.24805597960948944,
              -0.2439124435186386,
              0.20600751042366028,
              0.24539320170879364,
              -0.07053449004888535,
              -0.3681650459766388,
              0.2556368112564087,
              -0.41012731194496155,
              -0.23984910547733307,
              0.2700342535972595,
              0.10253598541021347,
              0.3101346492767334,
              0.5494518280029297,
              0.20587624609470367,
              0.31921297311782837,
              0.18047569692134857,
              -0.25515076518058777,
              0.3516850173473358
            ]
          ],
          "biases": [
            0.22330480813980103,
            0.08173950016498566,
            -0.21330276131629944,
            0.10239329189062119,
            -0.25812235474586487,
            0.238124817609787,
            -0.14091868698596954,
            0.2467869222164154,
            0.125492125749588,
            0.06626568734645844,
            0.08926663547754288,
            -0.02976074628531933,
            0.0892522931098938,
            0.16001483798027039,
            -0.13331584632396698,
            -0.14198385179042816,
            -0.15131981670856476,
            -0.06215158849954605,
            0.23852714896202087,
            0.08226601779460907,
            -0.22575503587722778,
            -0.2451259344816208,
            0.09710927307605743,
            -0.1835150271654129,
            0.203302800655365,
            -0.16367119550704956,
            0.0030107544735074043,
            0.16262927651405334,
            -0.21811741590499878,
            -0.1977470964193344,
            0.1331566870212555,
            0.12630745768547058
          ]
        },
        {
          "weights": [
            [
              -0.019346224144101143,
              -0.481950581073761,
              0.32429802417755127,
              0.5012752413749695,
              0.21039845049381256,
              0.5516610145568848,
              -0.052087392657995224,
              0.06969073414802551,
              -0.48385855555534363,
              0.1342683881521225,
              0.09566307067871094,
              -0.4121294617652893,
              0.39291253685951233,
              0.18616941571235657,
              0.18111652135849,
              0.37820541858673096
            ],
            [
              -0.3362734615802765,
              0.30353957414627075,
              -0.08001109212636948,
              -0.1732661873102188,
              0.13442489504814148,
              -0.1905665248632431,
              0.32362067699432373,
              -0.2993135154247284,
              0.24735873937606812,
              0.241719052195549,
              -0.17829777300357819,
              -0.3462531268596649,
              -0.042483437806367874,
              -0.10320751368999481,
              0.01931205578148365,
              0.07417162507772446
            ],
            [
              -0.08634164929389954,
              0.5057798624038696,
              -0.5161330103874207,
              0.041496988385915756,
              -0.6871535181999207,
              -0.028416426852345467,
              -0.4403502345085144,
              -0.22755378484725952,
              0.506475031375885,
              0.11491207778453827,
              0.13044172525405884,
              -0.3097955882549286,
              -0.04923369362950325,
              -0.461664617061615,
              -0.16683773696422577,
              -0.2273685783147812
            ],
            [
              -0.1084921807050705,
              0.11360420286655426,
              -0.1878475546836853,
              0.14040793478488922,
              -0.43235406279563904,
              -0.4251343011856079,
              0.08441384881734848,
              -0.22569864988327026,
              0.07287566363811493,
              -0.12071049958467484,
              -0.2763440012931824,
              0.19006067514419556,
              0.31495943665504456,
              0.12465284019708633,
              0.251962274312973,
              -0.03236101195216179
            ],
            [
              -0.35064852237701416,
              0.04144789278507233,
              -0.49881863594055176,
              -0.38702794909477234,
              -0.444589227437973,
              -0.14856292307376862,
              0.10654202103614807,
              -0.20068635046482086,
              0.46138134598731995,
              -0.2557632029056549,
              0.0538237988948822,
              0.08766520023345947,
              0.18254902958869934,
              -0.2678607106208801,
              -0.10699013620615005,
              -0.28638821840286255
            ],
            [
              0.307740181684494,
              -0.2256731241941452,
              -0.31313663721084595,
              0.47773778438568115,
              0.6197341680526733,
              0.4262399673461914,
              0.18009428679943085,
              -0.15339277684688568,
              -0.32191237807273865,
              0.4671635329723358,
              -0.23102322220802307,
              -0.011064551770687103,
              -0.07799936085939407,
              0.06454628705978394,
              0.5102097988128662,
              0.44538185000419617
            ],
            [
              0.4345942437648773,
              -0.03993532061576843,
              -0.01053628884255886,
              -0.5378932356834412,
              0.18714331090450287,
              -0.3343985974788666,
              -0.3846665918827057,
              -0.08658352494239807,
              -0.4173523485660553,
              -0.2646995782852173,
              0.3059808909893036,
              0.3665328621864319,
              -0.5412982106208801,
              0.0718059092760086,
              -0.2544640898704529,
              -0.20301727950572968
            ],
            [
              0.31408846378326416,
              -0.6916443705558777,
              0.2645856440067291,
              0.39521002769470215,
              0.4672437608242035,
              0.5688033699989319,
              0.4742462933063507,
              0.2540837228298187,
              -0.36791467666625977,
              -0.004143731668591499,
              -0.18428422510623932,
              -0.23842661082744598,
              0.13357090950012207,
              0.6074943542480469,
              0.4035911560058594,
              0.06661301106214523
            ],
            [
              0.03222394362092018,
              -0.1629292517900467,
              0.15742802619934082,
              -0.0048227556981146336,
              -0.16143988072872162,
              -0.17325687408447266,
              -0.020566372200846672,
              0.2542734444141388,
              0.30076196789741516,
              -0.21435417234897614,
              -0.11206096410751343,
              0.045524850487709045,
              0.2237384170293808,
              0.1778714656829834,
              0.23657120764255524,
              0.1914450079202652
            ],
            [
              -0.2133159190416336,
              0.4047482907772064,
              0.08134069293737411,
              -0.29607242345809937,
              -0.11815306544303894,
              -0.008376194164156914,
              -0.11679955571889877,
              -0.11900229752063751,
              0.13590244948863983,
              0.23572610318660736,
              -0.28652751445770264,
              -0.20157572627067566,
              0.2720169425010681,
              0.23619402945041656,
              -0.12118514627218246,
              -0.1650846004486084
            ],
            [
              0.17180107533931732,
              -0.050305601209402084,
              -0.3065815269947052,
              0.1926519274711609,
              -0.034331064671278,
              -0.15004202723503113,
              -0.24185974895954132,
              -0.2835047245025635,
              0.1655833125114441,
              -0.21588534116744995,
              0.12455236911773682,
              -0.14570435881614685,
              0.017885593697428703,
              -0.3598020672798157,
              -0.03235089033842087,
              -0.29556623101234436
            ],
            [
              0.25607651472091675,
              -0.1395968645811081,
              0.2777438759803772,
              -0.19745074212551117,
              -0.36086568236351013,
              0.2815658450126648,
              -0.04241514205932617,
              0.27740517258644104,
              0.2971673607826233,
              -0.06245355308055878,
              -0.026348859071731567,
              0.04364734888076782,
              -0.28622934222221375,
              -0.3749992847442627,
              -0.22078324854373932,
              -0.29383423924446106
            ],
            [
              -0.034759629517793655,
              0.02961723878979683,
              0.3323574364185333,
              -0.2368953973054886,
              0.04640941694378853,
              0.3375663161277771,
              0.08636372536420822,
              -0.08676281571388245,
              -0.2169051468372345,
              0.07609406858682632,
              -0.21838398277759552,
              -0.2362566441297531,
              -0.11165443062782288,
              -0.007897257804870605,
              -0.1954793483018875,
              -0.2207319587469101
            ],
            [
              -0.05999627709388733,
              0.323487251996994,
              0.07598267495632172,
              0.09704696387052536,
              -0.4076741933822632,
              0.170280322432518,
              0.13328123092651367,
              -0.28784334659576416,
              0.07930964976549149,
              0.12268427014350891,
              -0.007349491119384766,
              -0.2604391872882843,
              0.0959746465086937,
              -0.36725908517837524,
              0.3076164126396179,
              0.29849088191986084
            ],
            [
              0.35054895281791687,
              -0.21196164190769196,
              -0.03487042710185051,
              -0.2568347752094269,
              -0.24723117053508759,
              -0.27492058277130127,
              0.033419299870729446,
              -0.23624303936958313,
              0.2675347626209259,
              -0.3182404041290283,
              0.10975518822669983,
              0.059480369091033936,
              -0.40454477071762085,
              0.03259684145450592,
              -0.12674321234226227,
              0.12776370346546173
            ],
            [
              0.07911635935306549,
              0.2792501151561737,
              -0.4303525388240814,
              -0.08105568587779999,
              -0.24879366159439087,
              -0.46331965923309326,
              -0.3355086147785187,
              -0.12704560160636902,
              0.5045775175094604,
              -0.4147038757801056,
              -0.32141801714897156,
              -0.0022800564765930176,
              -0.19227351248264313,
              -0.2750709652900696,
              0.044768039137125015,
              -0.12893275916576385
            ],
            [
              0.41195210814476013,
              0.026314646005630493,
              0.48333996534347534,
              -0.17853336036205292,
              -0.2763492166996002,
              -0.02504250779747963,
              -0.13408218324184418,
              -0.3063352704048157,
              -0.0002571757067926228,
              -0.03422316908836365,
              0.2862037122249603,
              0.24901863932609558,
              -0.529443621635437,
              -0.0260482057929039,
              -0.045342449098825455,
              -0.45792356133461
            ],
            [
              0.20714013278484344,
              0.1606750190258026,
              -0.25869277119636536,
              -0.18089260160923004,
              0.13814513385295868,
              0.17155902087688446,
              0.28052818775177,
              -0.2977711856365204,
              -0.32310447096824646,
              0.17540036141872406,
              0.22970780730247498,
              0.11244773119688034,
              -0.1590687483549118,
              -0.4088480770587921,
              -0.09458885341882706,
              0.09358608722686768
            ],
            [
              0.2779662609100342,
              -0.24229268729686737,
              0.19005781412124634,
              0.20159012079238892,
              0.40151458978652954,
              -0.11692776530981064,
              -0.1028876081109047,
              0.2973618805408478,
              0.1635008305311203,
              -0.20262642204761505,
              0.15357378125190735,
              -0.6351258158683777,
              0.3059294819831848,
              0.24730820953845978,
              0.2700289785861969,
              0.3690106272697449
            ],
            [
              0.22374509274959564,
              0.44119057059288025,
              0.21281921863555908,
              -0.11247562617063522,
              0.019731692969799042,
              0.22695037722587585,
              0.23284587264060974,
              -0.31683269143104553,
              0.24973748624324799,
              0.017358150333166122,
              -0.1619633436203003,
              0.1289404332637787,
              -0.28938060998916626,
              -0.10683764517307281,
              -0.34312108159065247,
              -0.2533603012561798
            ],
            [
              0.33526915311813354,
              -0.33585256338119507,
              -0.17455710470676422,
              -0.3022736608982086,
              0.20585164427757263,
              -0.32111304998397827,
              0.07732708752155304,
              0.3107443153858185,
              0.15966220200061798,
              0.19059017300605774,
              -0.08292922377586365,
              0.3424413204193115,
              -0.2523118555545807,
              0.16140085458755493,
              -0.4714296758174896,
              -0.582032322883606
            ],
            [
              -0.2942602336406708,
              0.43183761835098267,
              0.22267316281795502,
              -0.1744755655527115,
              -0.4784255921840668,
              -0.3447749614715576,
              -0.11394134163856506,
              0.053215354681015015,
              0.4803165793418884,
              -0.4429258406162262,
              -0.155147522687912,
              -0.029961347579956055,
              -0.31766343116760254,
              -0.06658609211444855,
              -0.2074013650417328,
              -0.22550524771213531
            ],
            [
              0.08862482011318207,
              -0.22948981821537018,
              0.09740440547466278,
              0.04685647785663605,
              -0.11080849915742874,
              0.18670596182346344,
              -0.26682138442993164,
              -0.2370651364326477,
              0.11442046612501144,
              0.04936304688453674,
              0.07842305302619934,
              -0.09576532244682312,
              -0.19523680210113525,
              0.32116907835006714,
              -0.02741519920527935,
              -0.2105579972267151
            ],
            [
              0.45858100056648254,
              0.0981031060218811,
              0.4391686022281647,
              -0.4449372887611389,
              -0.3430935740470886,
              -0.07369869947433472,
              -0.14361299574375153,
              -0.25351572036743164,
              0.26055049896240234,
              -0.29743412137031555,
              -0.2818484306335449,
              0.16965681314468384,
              0.1623707413673401,
              -0.28557565808296204,
              -0.46671104431152344,
              -0.4824862480163574
            ],
            [
              0.1787279099225998,
              -1.0571558475494385,
              0.042488615959882736,
              0.04023585841059685,
              0.02368766814470291,
              0.18932858109474182,
              -0.24013863503932953,
              -0.07935047149658203,
              0.13655725121498108,
              0.41793093085289,
              0.01888599991798401,
              -0.09625456482172012,
              0.3029331564903259,
              0.24482180178165436,
              -0.270063191652298,
              0.2821086645126343
            ],
            [
              0.3600170612335205,
              -0.07673263549804688,
              0.35397961735725403,
              -0.32403653860092163,
              -0.05357268452644348,
              -0.25602683424949646,
              0.13625657558441162,
              -0.07594609260559082,
              0.26152512431144714,
              -0.17582786083221436,
              -0.2508820593357086,
              0.4603084921836853,
              -0.0927765965461731,
              0.16083773970603943,
              0.007506462279707193,
              -0.3928374648094177
            ],
            [
              -0.20260268449783325,
              -0.28224092721939087,
              0.30321505665779114,
              -0.20813436806201935,
              -0.34923025965690613,
              -0.4546818733215332,
              -0.2999960482120514,
              -0.14917218685150146,
              -0.3344290852546692,
              -0.20428763329982758,
              -0.11349235475063324,
              0.2717597186565399,
              0.2931798994541168,
              -0.07454971224069595,
              0.00027919450076296926,
              -0.31084921956062317
            ],
            [
              0.07274704426527023,
              -0.28965118527412415,
              0.05105370655655861,
              0.26899397373199463,
              -0.11630254238843918,
              0.06684983521699905,
              0.08535750210285187,
              0.04745793342590332,
              -0.31506893038749695,
              -0.12211117893457413,
              -0.3109373450279236,
              0.27308428287506104,
              -0.13243092596530914,
              0.12691253423690796,
              0.014318643137812614,
              0.38191235065460205
            ],
            [
              0.22748780250549316,
              -0.2942506670951843,
              0.34328848123550415,
              -0.12134936451911926,
              -0.22257404029369354,
              0.156516894698143,
              -0.21034258604049683,
              -0.3382531404495239,
              0.14507533609867096,
              -0.36435049772262573,
              0.34388086199760437,
              0.44170820713043213,
              -0.37842702865600586,
              -0.2858019173145294,
              0.14755892753601074,
              -0.43186822533607483
            ],
            [
              0.26787614822387695,
              -0.3177473545074463,
              0.23552455008029938,
              -0.4925941824913025,
              -0.10785862803459167,
              -0.5291622281074524,
              -0.21447694301605225,
              0.19982704520225525,
              -0.3620193600654602,
              -0.23676514625549316,
              -0.10060906410217285,
              0.6607151031494141,
              -0.25345903635025024,
              0.034536831080913544,
              -0.6867824792861938,
              -0.7036243677139282
            ],
            [
              0.2805532217025757,
              0.32987740635871887,
              0.28879451751708984,
              -0.23394881188869476,
              0.3538162112236023,
              -0.2537820637226105,
              0.2542734146118164,
              -0.16739977896213531,
              -0.2017727643251419,
              -0.16800689697265625,
              -0.11957953870296478,
              0.17343375086784363,
              0.09318501502275467,
              0.05154998600482941,
              0.08072082698345184,
              0.03666706383228302
            ],
            [
              0.13916029036045074,
              0.3155308663845062,
              0.08483687043190002,
              0.2387908697128296,
              0.12077677249908447,
              -0.10017018020153046,
              -0.014783847145736217,
              0.0668385922908783,
              -0.01854046620428562,
              -0.5136510133743286,
              0.23478642106056213,
              0.3848833441734314,
              0.32871830463409424,
              -0.44011610746383667,
              -0.23808708786964417,
              0.0002702214987948537
            ]
          ],
          "biases": [
            -0.009230758994817734,
            -0.18101467192173004,
            0.006275988183915615,
            0.13065944612026215,
            0.21455907821655273,
            0.10509637743234634,
            0.10025040805339813,
            0.0,
            -0.1146245226264,
            0.11192091554403305,
            0.0,
            -0.17200487852096558,
            0.1350862979888916,
            0.13662615418434143,
            0.14165687561035156,
            0.21998703479766846
          ]
        },
        {
          "weights": [
            [
              0.10133877396583557
            ],
            [
              -0.25772619247436523
            ],
            [
              0.3987252414226532
            ],
            [
              -0.7633166313171387
            ],
            [
              0.6824837327003479
            ],
            [
              0.46641525626182556
            ],
            [
              0.5336405634880066
            ],
            [
              0.47836923599243164
            ],
            [
              -0.1830615997314453
            ],
            [
              0.580600917339325
            ],
            [
              -0.36405032873153687
            ],
            [
              0.26411762833595276
            ],
            [
              -0.5296140313148499
            ],
            [
              0.7895894646644592
            ],
            [
              -0.3400753438472748
            ],
            [
              -0.6200597286224365
            ]
          ],
          "biases": [
            0.000987171079032123
          ]
        }
      ]
    },
    "x2": {
      "layers": [
        {
          "weights": [
            [
              0.17307598888874054,
              -0.3031613528728485,
              0.2609291672706604,
              0.09446444362401962,
              -0.3664718568325043,
              -0.3440784513950348,
              -0.06512118875980377,
              0.04971622675657272,
              0.0827125757932663,
              0.22170290350914001,
              0.4252782166004181,
              -0.1195029467344284,
              -0.09439956396818161,
              -0.29640495777130127,
              -0.31966671347618103,
              -0.38588598370552063,
              0.37737327814102173,
              0.353046178817749,
              0.3849260210990906,
              -0.13449248671531677,
              -0.25777024030685425,
              0.20619525015354156,
              -0.21410229802131653,
              0.3225485682487488,
              0.005943553056567907,
              -0.2709681987762451,
              0.16790001094341278,
              -0.10251826792955399,
              0.010937701910734177,
              -0.13261450827121735,
              -0.1984490156173706,
              0.21331101655960083
            ]
          ],
          "biases": [
            -0.03812378644943237,
            0.02403055690228939,
            -0.015569061040878296,
            0.004051262978464365,
            0.018698252737522125,
            -0.0707632526755333,
            0.027298422530293465,
            -0.020420560613274574,
            -0.016102779656648636,
            0.0024996884167194366,
            0.015144490636885166,
            -0.02171078324317932,
            -0.00691586546599865,
            0.010248920880258083,
            -0.05373439937829971,
            -0.07209371030330658,
            -0.014381625689566135,
            0.05065077915787697,
            -0.05198914557695389,
            0.020565103739500046,
            -0.017616139724850655,
            -0.011007561348378658,
            -0.002893132157623768,
            -0.017090849578380585,
            -0.011454116553068161,
            -0.049482859671115875,
            0.006828170269727707,
            -0.021216940134763718,
            -0.02082926221191883,
            -0.030280768871307373,
            0.0014336995081976056,
            -0.0170773696154356
          ]
        },
        {
          "weights": [
            [
              0.07719366997480392,
              -0.07104666531085968,
              -0.2869129776954651,
              -0.31366705894470215,
              0.05218961462378502,
              0.32212698459625244,
              -0.0031079708132892847,
              -0.16190028190612793,
              -0.18152454495429993,
              0.14984092116355896,
              0.20310471951961517,
              0.0625651478767395,
              0.20851659774780273,
              0.175454780459404,
              -0.13773168623447418,
              -0.3611030578613281
            ],
            [
              0.2603592872619629,
              0.30951231718063354,
              0.2746630311012268,
              -0.06462375819683075,
              -0.09648364037275314,
              -0.08229592442512512,
              0.28743553161621094,
              0.0534551776945591,
              -0.24185791611671448,
              -0.11052015423774719,
              -0.16233187913894653,
              -0.23384113609790802,
              0.16727611422538757,
              -0.32719114422798157,
              0.025344211608171463,
              -0.30096250772476196
            ],
            [
              -0.3370949923992157,
              -0.32964277267456055,
              -0.6338382959365845,
              -0.017501547932624817,
              0.06665951758623123,
              -0.11819279938936234,
              -0.26985689997673035,
              -0.2753751277923584,
              0.19935166835784912,
              0.29252514243125916,
              -0.17015698552131653,
              0.20903566479682922,
              0.088411845266819,
              -0.07817669957876205,
              -0.3443211317062378,
              0.243874654173851
            ],
            [
              -0.37784337997436523,
              0.02116958424448967,
              0.23254936933517456,
              0.21627745032310486,
              0.04760834202170372,
              0.08045932650566101,
              -0.0909169614315033,
              -0.3012181222438812,
              0.1691100001335144,
              0.05027276277542114,
              -0.13978785276412964,
              -0.3517158627510071,
              -0.06942908465862274,
              0.06325472891330719,
              0.04537966847419739,
              -0.14800921082496643
            ],
            [
              -0.3335992395877838,
              0.2233121544122696,
              0.04475053399801254,
              0.14200562238693237,
              0.33732539415359497,
              -0.32012006640434265,
              0.20281293988227844,
              -0.1213940903544426,
              0.11727551370859146,
              0.07090017199516296,
              0.13679325580596924,
              -0.04569534212350845,
              -0.030395537614822388,
              -0.3767624795436859,
              -0.21757785975933075,
              0.06533361226320267
            ],
            [
              0.34369373321533203,
              0.023894594982266426,
              -0.2935994863510132,
              -0.23611566424369812,
              -0.011409705504775047,
              0.13926030695438385,
              -0.11394621431827545,
              0.3086484670639038,
              -0.22375521063804626,
              0.30112984776496887,
              0.16050538420677185,
              0.18887728452682495,
              -0.016337454319000244,
              0.07407543063163757,
              0.25429007411003113,
              -0.34359240531921387
            ],
            [
              0.17694364488124847,
              0.015821801498532295,
              -0.16701942682266235,
              -0.23187440633773804,
              0.1856784224510193,
              0.29859063029289246,
              0.2120424211025238,
              0.24809426069259644,
              -0.1501636952161789,
              -0.2587898373603821,
              -0.24708716571331024,
              -0.05170131102204323,
              0.23390230536460876,
              -0.33373749256134033,
              0.11841458082199097,
              0.2427561730146408
            ],
            [
              0.18321770429611206,
              0.2554668188095093,
              0.10828569531440735,
              0.2944757044315338,
              0.05913977697491646,
              0.056433599442243576,
              0.3493887782096863,
              -0.21924251317977905,
              -0.11264633387327194,
              -0.3433888256549835,
              0.1474531590938568,
              -0.14694035053253174,
              -0.16225187480449677,
              0.08050870150327682,
              0.15189263224601746,
              0.1824331283569336
            ],
            [
              0.16848668456077576,
              -0.10191846638917923,
              -0.24308210611343384,
              0.35933953523635864,
              0.10173198580741882,
              0.17954525351524353,
              -0.05139007046818733,
              -0.08691254258155823,
              -0.22697195410728455,
              -0.2711890935897827,
              0.20240384340286255,
              -0.21248763799667358,
              0.16458459198474884,
              -0.10147244483232498,
              -0.19973956048488617,
              -0.192593514919281
            ],
            [
              -0.10631398111581802,
              0.19000574946403503,
              0.08323313295841217,
              0.19464856386184692,
              0.22717958688735962,
              -0.20343409478664398,
              0.3287976384162903,
              0.2830473482608795,
              0.18273262679576874,
              -0.29243454337120056,
              -0.0215506162494421,
              0.20233628153800964,
              -0.003010466229170561,
              0.1629943549633026,
              0.23226210474967957,
              -0.014717917889356613
            ],
            [
              -0.032424431294202805,
              -0.06503380835056305,
              0.001901128445751965,
              -0.07311458885669708,
              -0.06135343015193939,
              0.0902506560087204,
              0.28086966276168823,
              -0.26288309693336487,
              -0.09221645444631577,
              -0.30236369371414185,
              -0.14383424818515778,
              -0.020338207483291626,
              -0.11555498093366623,
              0.30872729420661926,
              -0.31479454040527344,
              0.19257986545562744
            ],
            [
              -0.22389067709445953,
              0.26663047075271606,
              -0.12893164157867432,
              -0.34367242455482483,
              0.3023885488510132,
              -0.3068279027938843,
              -0.06772193312644958,
              -0.27417275309562683,
              -0.12809404730796814,
              -0.25815820693969727,
              -0.27632930874824524,
              0.27566882967948914,
              -0.1404491513967514,
              -0.18710359930992126,
              0.14482399821281433,
              0.312640517950058
            ],
            [
              0.36245083808898926,
              -0.3190738260746002,
              0.17628899216651917,
              0.14722535014152527,
              -0.12463276833295822,
              -0.01232313085347414,
              0.32552123069763184,
              -0.10834840685129166,
              0.19076448678970337,
              0.12390118837356567,
              0.009731799364089966,
              0.23788021504878998,
              0.1229170560836792,
              0.2527243196964264,
              -0.07339520007371902,
              0.06524726748466492
            ],
            [
              0.23022450506687164,
              0.044838499277830124,
              0.09729479253292084,
              -0.13621486723423004,
              -0.00401056045666337,
              -0.3248070180416107,
              -0.16521896421909332,
              0.18374519050121307,
              -0.0855865478515625,
              0.10939407348632812,
              -0.09878933429718018,
              -0.1172444149851799,
              -0.16250501573085785,
              0.28458863496780396,
              -0.15889543294906616,
              -0.36356836557388306
            ],
            [
              -0.024958742782473564,
              0.305692195892334,
              -0.3853986859321594,
              0.0759313777089119,
              -0.08292101323604584,
              0.06829472631216049,
              0.08454198390245438,
              0.191563218832016,
              0.2507953643798828,
              0.26834407448768616,
              0.10281497240066528,
              -0.12125304341316223,
              -0.247463196516037,
              -0.3017237186431885,
              0.26442405581474304,
              -0.18106648325920105
            ],
            [
              0.16370612382888794,
              0.0004773792461492121,
              -0.011071483604609966,
              0.16011135280132294,
              0.24650324881076813,
              -0.3255392611026764,
              0.25217264890670776,
              -0.0053236582316458225,
              0.06391692906618118,
              -0.09625867009162903,
              0.07905671000480652,
              -0.08136727660894394,
              -0.2484012246131897,
              -0.15406434237957,
              0.041648875921964645,
              0.1818992793560028
            ],
            [
              -0.04960721731185913,
              0.24799351394176483,
              -0.645928680896759,
              -0.05060332641005516,
              -0.1475365310907364,
              -0.3717457354068756,
              -0.05463375523686409,
              0.2998035252094269,
              0.15892480313777924,
              -0.14843513071537018,
              0.23219525814056396,
              -0.12147404253482819,
              0.16544553637504578,
              0.03703497722744942,
              0.15124759078025818,
              0.0016503644874319434
            ],
            [
              0.21107421815395355,
              0.1451844573020935,
              -0.28661373257637024,
              0.032279614359140396,
              -0.16554972529411316,
              0.21967174112796783,
              0.23514142632484436,
              -0.7194375395774841,
              -0.09613486379384995,
              0.2999732792377472,
              -0.18102850019931793,
              -0.19225141406059265,
              -0.22652123868465424,
              -0.2107584923505783,
              -0.15385842323303223,
              0.12343360483646393
            ],
            [
              -0.3421328067779541,
              0.21121324598789215,
              0.04439142346382141,
              0.12344928085803986,
              -0.052285898476839066,
              -0.31804826855659485,
              0.09221398830413818,
              0.2302834689617157,
              0.16318555176258087,
              0.16412022709846497,
              0.2623915672302246,
              -0.12886761128902435,
              0.2869330942630768,
              0.34458377957344055,
              0.1477145254611969,
              -0.002397869946435094
            ],
            [
              -0.248246967792511,
              -0.16754889488220215,
              0.23673446476459503,
              -0.3453004062175751,
              0.1751849502325058,
              0.21601174771785736,
              -0.10670030117034912,
              0.03861094266176224,
              0.17807741463184357,
              -0.2058994024991989,
              0.34179458022117615,
              -0.16660888493061066,
              -0.23365429043769836,
              -0.009992399252951145,
              -0.1174042671918869,
              -0.13896292448043823
            ],
            [
              -0.21727217733860016,
              -0.019515596330165863,
              -0.08728581666946411,
              0.06330811232328415,
              -0.23203986883163452,
              -0.12795983254909515,
              -0.07005596160888672,
              0.10845353454351425,
              0.05312490090727806,
              -0.1777234822511673,
              -0.2830156683921814,
              -0.015999633818864822,
              -0.19729158282279968,
              -0.21203766763210297,
              0.32663214206695557,
              0.013025730848312378
            ],
            [
              0.04618309065699577,
              0.08172212541103363,
              -0.07735393196344376,
              0.357482373714447,
              0.08639407902956009,
              -0.4511207640171051,
              0.1971205472946167,
              -0.326730877161026,
              0.12204878777265549,
              -0.2703368067741394,
              0.08466757833957672,
              -0.09214892983436584,
              -0.21829430758953094,
              -0.28656136989593506,
              0.20984259247779846,
              0.008625423535704613
            ],
            [
              0.17388540506362915,
              0.06434407085180283,
              -0.38966885209083557,
              0.05097609758377075,
              0.25016874074935913,
              -0.5979915857315063,
              -0.3563539683818817,
              0.17491988837718964,
              -0.33195412158966064,
              -0.24149519205093384,
              -0.3420102894306183,
              -0.2565196752548218,
              0.24254611134529114,
              -0.33927351236343384,
              0.16296428442001343,
              0.1384575515985489
            ],
            [
              -0.09512965381145477,
              0.056409113109111786,
              -0.1088029146194458,
              0.049243904650211334,
              -0.09375662356615067,
              -0.500536322593689,
              0.1123814508318901,
              0.1676786243915558,
              0.11494455486536026,
              -0.30071884393692017,
              0.0747232660651207,
              -0.2602449655532837,
              0.061290279030799866,
              -0.046618666499853134,
              -0.19814640283584595,
              0.18480029702186584
            ],
            [
              -0.17199328541755676,
              -0.08116002380847931,
              0.259565532207489,
              -0.1158389076590538,
              0.0507626011967659,
              -0.2876209616661072,
              -0.22407369315624237,
              -0.23999422788619995,
              0.18355898559093475,
              0.2304476797580719,
              0.214517742395401,
              0.1027916967868805,
              -0.09106239676475525,
              -0.058259665966033936,
              0.09525994956493378,
              0.08122903108596802
            ],
            [
              0.26188838481903076,
              0.03640526160597801,
              -0.2335648238658905,
              0.2546039819717407,
              0.31313663721084595,
              0.11688142269849777,
              0.0036464137956500053,
              0.16112996637821198,
              0.18617409467697144,
              -0.27971160411834717,
              -0.2628406286239624,
              0.2689892649650574,
              0.05870753526687622,
              0.2633994519710541,
              0.00572610180824995,
              -0.18940599262714386
            ],
            [
              -0.022315891459584236,
              -0.01743215322494507,
              0.15492995083332062,
              0.05047587305307388,
              -0.15171600878238678,
              -0.24903830885887146,
              0.2838136553764343,
              0.27123820781707764,
              0.1073564663529396,
              -0.09916561841964722,
              -0.008490415289998055,
              0.2552294433116913,
              -0.29407626390457153,
              0.0562165267765522,
              0.31332531571388245,
              -0.08747036755084991
            ],
            [
              -0.3077811598777771,
              0.12087636440992355,
              -0.38096311688423157,
              -0.2663096785545349,
              0.032254625111818314,
              0.1532101184129715,
              -0.2786925733089447,
              -0.07158180326223373,
              -0.07030286639928818,
              -0.18330658972263336,
              0.10345205664634705,
              0.32801878452301025,
              0.28280940651893616,
              -0.09167343378067017,
              0.19973649084568024,
              0.05443349480628967
            ],
            [
              0.1519380509853363,
              -0.1814870685338974,
              0.03281217813491821,
              -0.3264906108379364,
              -0.17965270578861237,
              -0.051988571882247925,
              0.25921618938446045,
              0.10292404890060425,
              0.3177081346511841,
              -0.286725252866745,
              0.17026595771312714,
              -0.19504430890083313,
              0.2970507740974426,
              -0.11466444283723831,
              0.0857422947883606,
              0.003014282090589404
            ],
            [
              0.18797723948955536,
              -0.31935587525367737,
              -0.2078501433134079,
              0.0955711230635643,
              -0.15242920815944672,
              -0.06646182388067245,
              0.13935786485671997,
              -0.11287736147642136,
              -0.06396876275539398,
              0.16996780037879944,
              -0.27862489223480225,
              0.14093656837940216,
              0.11503610014915466,
              0.11167794466018677,
              -0.0012481423327699304,
              0.09251156449317932
            ],
            [
              0.14621920883655548,
              0.2241821438074112,
              0.2071051299571991,
              0.0379808135330677,
              0.12943843007087708,
              -0.09961125254631042,
              -0.1690927892923355,
              0.3174307346343994,
              -0.057000771164894104,
              -0.1939411610364914,
              0.26204338669776917,
              0.2401638925075531,
              -0.23951327800750732,
              -0.11508853733539581,
              -0.06386583298444748,
              0.10003174841403961
            ],
            [
              -0.03983461111783981,
              0.23685723543167114,
              0.017292337492108345,
              0.048602718859910965,
              0.24227547645568848,
              -0.11923758685588837,
              -0.2658720314502716,
              -0.2227274626493454,
              0.018092894926667213,
              0.04147815704345703,
              0.1793069988489151,
              -0.2432735413312912,
              -0.033050067722797394,
              0.29968929290771484,
              -0.047608643770217896,
              0.16045203804969788
            ]
          ],
          "biases": [
            0.005818686913698912,
            -0.010909969918429852,
            0.03219543769955635,
            -0.012181265279650688,
            0.010004649870097637,
            0.017775079235434532,
            -0.003435803111642599,
            -0.0018397605745121837,
            -0.001757204532623291,
            0.0,
            -0.009006720036268234,
            -0.01238283235579729,
            -0.020718654617667198,
            0.0019209898309782147,
            -0.0294367503374815,
            -0.005801967345178127
          ]
        },
        {
          "weights": [
            [
              -0.24215605854988098
            ],
            [
              -0.05609210953116417
            ],
            [
              0.2537682056427002
            ],
            [
              0.11000931262969971
            ],
            [
              -0.17023292183876038
            ],
            [
              0.13198433816432953
            ],
            [
              0.1301725059747696
            ],
            [
              0.09270714968442917
            ],
            [
              0.25409364700317383
            ],
            [
              0.16784459352493286
            ],
            [
              -0.45482271909713745
            ],
            [
              0.5641751885414124
            ],
            [
              -0.3971959948539734
            ],
            [
              0.4398992657661438
            ],
            [
              0.35720956325531006
            ],
            [
              -0.2180757224559784
            ]
          ],
          "biases": [
            0.000987171079032123
          ]
        }
      ]
    }
  }
}