{
  "recurrent_layers": [
    {
      "index": 0,
      "type": "LTC",
      "input_size": 2,
      "hidden_size": 32,
      "activation": "tanh",
      "ode_unfolds": 6,
      "dt": 1.0,
      "tau_min": 0.1
    }
  ],
  "dense_layers": [
    {
      "index": 0,
      "in_features": 32,
      "out_features": 16,
      "activation": "relu"
    },
    {
      "index": 1,
      "in_features": 16,
      "out_features": 1,
      "activation": "linear"
    }
  ],
  "parameters": {
    "rec_0_W_ih_weight": [
      [
        0.32092583179473877,
        0.5328879952430725
      ],
      [
        -0.398327499628067,
        -0.513480544090271
      ],
      [
        -0.8117223381996155,
        0.15508323907852173
      ],
      [
        0.44173070788383484,
        -0.5334780812263489
      ],
      [
        -1.122554898262024,
        -1.0578083992004395
      ],
      [
        -0.6632065176963806,
        0.7466128468513489
      ],
      [
        0.43124374747276306,
        -1.3106822967529297
      ],
      [
        0.29220283031463623,
        -0.4389232397079468
      ],
      [
        -0.46817272901535034,
        0.22021418809890747
      ],
      [
        0.9910966157913208,
        -0.40037572383880615
      ],
      [
        -0.7348980903625488,
        0.26168644428253174
      ],
      [
        -0.4740707278251648,
        -0.007365602534264326
      ],
      [
        1.1448092460632324,
        -0.17903581261634827
      ],
      [
        -0.8545759320259094,
        -0.07005360722541809
      ],
      [
        -0.3099762797355652,
        0.2682107090950012
      ],
      [
        -0.6053144931793213,
        -1.287652850151062
      ],
      [
        0.44681453704833984,
        -0.36096060276031494
      ],
      [
        0.07399202138185501,
        -0.3812817931175232
      ],
      [
        -0.16857494413852692,
        0.6154412031173706
      ],
      [
        0.48666611313819885,
        0.10811353474855423
      ],
      [
        0.5320421457290649,
        0.17237095534801483
      ],
      [
        -0.04981062933802605,
        -1.033432960510254
      ],
      [
        -0.47504711151123047,
        -1.0698051452636719
      ],
      [
        0.5007134675979614,
        -0.6741700172424316
      ],
      [
        1.2078269720077515,
        0.25533202290534973
      ],
      [
        -1.2302861213684082,
        0.07784691452980042
      ],
      [
        -1.0295002460479736,
        0.10845101624727249
      ],
      [
        -0.007773309946060181,
        0.2666190266609192
      ],
      [
        -0.5242431163787842,
        0.11390520632266998
      ],
      [
        0.5626158714294434,
        -0.9153231978416443
      ],
      [
        -0.4776185154914856,
        0.8033029437065125
      ],
      [
        0.6404344439506531,
        -0.12060882896184921
      ]
    ],
    "rec_0_W_ih_bias": [
      0.3272032141685486,
      0.1887499839067459,
      0.4540536403656006,
      0.15498040616512299,
      0.5341836214065552,
      0.44269078969955444,
      -0.22301968932151794,
      -0.26556554436683655,
      0.32191234827041626,
      0.11438442766666412,
      -0.2826799750328064,
      -0.3644714057445526,
      0.2898394465446472,
      0.38914236426353455,
      0.29940518736839294,
      0.27551475167274475,
      -0.31836605072021484,
      -0.15885959565639496,
      0.09321224689483643,
      -0.24226300418376923,
      0.26846837997436523,
      0.20634502172470093,
      0.17493805289268494,
      0.3819798231124878,
      0.3069154620170593,
      -0.3984166085720062,
      -0.2704269587993622,
      0.4416796565055847,
      0.41237664222717285,
      0.46164771914482117,
      -0.061399783939123154,
      -0.21220596134662628
    ],
    "rec_0_W_hh_weight": [
      [
        0.14249159395694733,
        0.16505679488182068,
        0.12778332829475403,
        0.2931138277053833,
        -0.3486498296260834,
        0.1669989377260208,
        -0.3051043152809143,
        0.4243268370628357,
        0.10794496536254883,
        0.14890846610069275,
        -0.4441757798194885,
        -0.3811214566230774,
        0.19439318776130676,
        -0.009898347780108452,
        0.05148870497941971,
        -0.875450074672699,
        -0.3307535648345947,
        -0.10739728808403015,
        0.07683368772268295,
        0.013358541764318943,
        0.4057215452194214,
        -0.22496025264263153,
        -0.5669898986816406,
        0.2259829044342041,
        0.22049665451049805,
        -0.5799328088760376,
        -0.5287171006202698,
        0.070505291223526,
        0.42470431327819824,
        0.3370555639266968,
        0.02769583836197853,
        -0.201076939702034
      ],
      [
        -0.21514998376369476,
        1.1919909715652466,
        0.06770376116037369,
        -0.06193267181515694,
        1.8564155101776123,
        -0.7669174075126648,
        -0.2042064368724823,
        -0.40483662486076355,
        -0.4662463366985321,
        -1.3093458414077759,
        0.13078707456588745,
        -0.011584804393351078,
        0.007009650114923716,
        0.0771353468298912,
        -0.24665696918964386,
        1.1134446859359741,
        0.49049583077430725,
        0.3593125641345978,
        -0.07573393732309341,
        0.09275878965854645,
        -0.4350573718547821,
        -0.142765611410141,
        1.40411376953125,
        -0.3351639211177826,
        0.10568817704916,
        -0.022212916985154152,
        0.101849764585495,
        -0.0809624195098877,
        0.22188299894332886,
        -0.16807858645915985,
        0.45133814215660095,
        -0.32814547419548035
      ],
      [
        -0.17920421063899994,
        0.892882764339447,
        2.102529764175415,
        -0.4310778081417084,
        1.3191090822219849,
        0.007885201834142208,
        0.8528348207473755,
        -0.10154087841510773,
        0.4837247133255005,
        -1.5145524740219116,
        0.41121360659599304,
        -0.0999501496553421,
        -0.08570199459791183,
        0.3612423837184906,
        -0.006711871828883886,
        1.656520962715149,
        -0.7300520539283752,
        0.056394122540950775,
        0.40392085909843445,
        -1.336932897567749,
        -0.003296842100098729,
        0.4550597071647644,
        1.251009464263916,
        -0.8806460499763489,
        -0.02343222126364708,
        0.38564354181289673,
        0.4013160169124603,
        -0.22725224494934082,
        0.32675179839134216,
        -0.6276234984397888,
        -0.061645787209272385,
        -1.4783596992492676
      ],
      [
        0.14431090652942657,
        0.40615421533584595,
        0.10999307036399841,
        0.7038123607635498,
        0.8911091089248657,
        -0.27695706486701965,
        0.13045908510684967,
        0.3031911849975586,
        -0.36244022846221924,
        0.3329935371875763,
        -0.9544336199760437,
        -0.404376357793808,
        0.9064298272132874,
        0.03429253771901131,
        -0.20793870091438293,
        -0.12860313057899475,
        0.18716338276863098,
        0.12036033719778061,
        -0.23567387461662292,
        0.16189420223236084,
        0.0687313973903656,
        0.09851551055908203,
        -0.03615419566631317,
        0.7788874506950378,
        1.0927488803863525,
        -0.8834260106086731,
        -0.8013599514961243,
        0.08089420944452286,
        -0.02607252262532711,
        0.6164315342903137,
        -0.2762629985809326,
        0.13987988233566284
      ],
      [
        0.11019932478666306,
        1.1164894104003906,
        2.1420140266418457,
        0.05617952346801758,
        2.017709255218506,
        0.8139473795890808,
        1.0420063734054565,
        -0.4363955557346344,
        0.8440566658973694,
        -1.5650626420974731,
        0.14300993084907532,
        -0.36763426661491394,
        0.20018458366394043,
        1.3317195177078247,
        0.41721636056900024,
        1.251198649406433,
        -1.9293735027313232,
        -0.2756813168525696,
        0.16152116656303406,
        -3.380453109741211,
        -0.11819715052843094,
        1.5757285356521606,
        1.1580935716629028,
        0.4514441192150116,
        -0.2514370083808899,
        -0.03780260682106018,
        0.0917813703417778,
        0.2843460440635681,
        0.7867330312728882,
        0.4414350092411041,
        -1.4696625471115112,
        -1.8809500932693481
      ],
      [
        0.46807861328125,
        -1.062289834022522,
        0.050187185406684875,
        -0.42323774099349976,
        -0.8071597814559937,
        3.166002035140991,
        -2.1773393154144287,
        -0.7896736860275269,
        0.7112019062042236,
        -0.5616438984870911,
        0.12271489202976227,
        -0.31796127557754517,
        0.23307444155216217,
        0.9498702883720398,
        0.11236710846424103,
        -1.2482993602752686,
        -1.4646059274673462,
        -0.41196179389953613,
        0.49613627791404724,
        -0.020218195393681526,
        0.12616507709026337,
        -1.1828625202178955,
        -0.9535509347915649,
        -0.3356267213821411,
        0.3451569378376007,
        -0.4007154703140259,
        -0.04845147207379341,
        0.05823647603392601,
        0.3201873302459717,
        0.15383777022361755,
        1.5176094770431519,
        -0.2628835141658783
      ],
      [
        -0.28838807344436646,
        0.014029092155396938,
        -0.6816683411598206,
        0.4609959125518799,
        0.7341893911361694,
        -1.3048683404922485,
        2.9218907356262207,
        0.4651340842247009,
        -0.5527055859565735,
        1.1481226682662964,
        -0.13264772295951843,
        0.08079880475997925,
        0.0033458604011684656,
        -0.3257700800895691,
        -0.25235167145729065,
        0.5801500082015991,
        0.9651634097099304,
        0.18285061419010162,
        -1.3023974895477295,
        0.26591116189956665,
        -0.12015587091445923,
        1.200844168663025,
        0.8122294545173645,
        0.22866350412368774,
        -0.0394245907664299,
        -0.11455360054969788,
        0.04847464710474014,
        -0.3361522853374481,
        -0.141347736120224,
        0.10413459688425064,
        -1.6504136323928833,
        0.6363924741744995
      ],
      [
        -0.13047556579113007,
        0.016156991943717003,
        -0.3006143867969513,
        0.6470770835876465,
        1.3640767335891724,
        0.2798107862472534,
        -1.51240074634552,
        2.776223659515381,
        -1.0431092977523804,
        -0.1341181993484497,
        -0.4759270250797272,
        0.008415342308580875,
        0.3618278205394745,
        -0.10803306847810745,
        -0.15812258422374725,
        -0.047689471393823624,
        0.41478630900382996,
        0.2712671756744385,
        0.23445719480514526,
        0.5775410532951355,
        0.2749257981777191,
        -1.2836284637451172,
        0.38432976603507996,
        0.3253011703491211,
        0.4749981164932251,
        -0.7977001070976257,
        -0.36611226201057434,
        -0.45643898844718933,
        -0.19080865383148193,
        0.11714831739664078,
        1.1348665952682495,
        0.2661750316619873
      ],
      [
        0.18098488450050354,
        0.362468957901001,
        0.6496090888977051,
        0.1281304955482483,
        0.5756986141204834,
        0.12568750977516174,
        0.21150366961956024,
        -0.6501986980438232,
        1.771199107170105,
        0.0870068222284317,
        -0.2061692625284195,
        -0.5182726979255676,
        0.5006282925605774,
        2.354495048522949,
        0.6062893271446228,
        0.3749017119407654,
        -0.8065178394317627,
        -0.3383098840713501,
        -0.015459271147847176,
        -0.7874345779418945,
        0.14847935736179352,
        0.535061776638031,
        0.034731149673461914,
        0.06298505514860153,
        0.39340049028396606,
        -0.38566944003105164,
        -0.37360766530036926,
        0.3879263401031494,
        0.9341728091239929,
        0.1473303735256195,
        -0.2774416506290436,
        -0.9327746033668518
      ],
      [
        0.10950464010238647,
        -0.6160849332809448,
        -0.6487886905670166,
        0.6884022355079651,
        -0.7775108814239502,
        -0.49683454632759094,
        1.0413355827331543,
        -0.38689476251602173,
        -0.32299700379371643,
        2.991116523742676,
        -0.7668366432189941,
        -0.14349448680877686,
        0.61954665184021,
        -0.40544065833091736,
        -0.12857992947101593,
        0.8088427186012268,
        0.20823070406913757,
        -0.0020646224729716778,
        -1.6968626976013184,
        0.8703290224075317,
        -0.012125637382268906,
        1.4053940773010254,
        0.5752395987510681,
        0.4261447489261627,
        0.9158545732498169,
        -0.5839213728904724,
        -0.8122683167457581,
        0.039282407611608505,
        -0.2862480878829956,
        0.7017183899879456,
        -1.506631851196289,
        0.7269389033317566
      ],
      [
        -0.6401810646057129,
        -0.5484492778778076,
        0.09965693950653076,
        -0.6858610510826111,
        -0.0366787388920784,
        -0.08001789450645447,
        0.03627428784966469,
        -0.6434007883071899,
        0.21290811896324158,
        -0.3478997051715851,
        1.428769826889038,
        0.4306390881538391,
        -1.296934723854065,
        -0.030362926423549652,
        -0.2662041187286377,
        0.8785485625267029,
        -0.16969463229179382,
        0.013489210978150368,
        0.3265102505683899,
        -0.20561471581459045,
        -0.3178713023662567,
        -0.22196437418460846,
        0.7032261490821838,
        -0.648392915725708,
        -1.5679489374160767,
        1.320082187652588,
        1.4639489650726318,
        -0.24775156378746033,
        0.039715614169836044,
        -0.24549412727355957,
        0.19023479521274567,
        -0.04406515136361122
      ],
      [
        -0.3491087555885315,
        0.041424743831157684,
        0.24110232293605804,
        -0.8759441375732422,
        0.16678886115550995,
        -0.24887080490589142,
        0.13710974156856537,
        -1.531190276145935,
        -0.1790253072977066,
        -0.246981680393219,
        1.040645956993103,
        0.6594026684761047,
        -0.7316399216651917,
        0.15491600334644318,
        -0.11756215244531631,
        0.9213297367095947,
        0.45168769359588623,
        0.41651132702827454,
        0.15454339981079102,
        -0.055722977966070175,
        -0.347989946603775,
        0.08435583114624023,
        0.1632162481546402,
        -0.27866068482398987,
        -0.5831344127655029,
        0.8113762736320496,
        0.5892367959022522,
        -0.12419141083955765,
        -0.2960392236709595,
        -0.17694701254367828,
        0.18645364046096802,
        0.2009262591600418
      ],
      [
        0.5065591931343079,
        0.3798862397670746,
        -0.018834039568901062,
        1.1488826274871826,
        -0.1834210902452469,
        0.09815312176942825,
        0.43555453419685364,
        0.11234409362077713,
        -0.10860488563776016,
        0.7019850015640259,
        -2.8315329551696777,
        -0.1688694953918457,
        2.0076937675476074,
        -0.2718065679073334,
        -0.002031487412750721,
        -0.2704693078994751,
        0.12237201631069183,
        -0.2445533126592636,
        -0.6647611856460571,
        0.49424710869789124,
        0.16588246822357178,
        0.3245818614959717,
        -0.2576225996017456,
        0.8864636421203613,
        1.6453382968902588,
        -1.3000212907791138,
        -2.9418814182281494,
        0.1333731710910797,
        0.19303742051124573,
        0.7642489671707153,
        -0.3141433000564575,
        0.21435528993606567
      ],
      [
        0.38468992710113525,
        -0.22249653935432434,
        0.7412561774253845,
        0.18123257160186768,
        0.7415964007377625,
        0.6861637830734253,
        -0.416612446308136,
        -1.1938940286636353,
        2.2682924270629883,
        -0.2664985656738281,
        -0.06721244752407074,
        -0.48208990693092346,
        0.5568690896034241,
        3.2992606163024902,
        0.5842248797416687,
        0.21722674369812012,
        -0.6091299653053284,
        -0.3332805335521698,
        0.08968580514192581,
        -1.250531792640686,
        0.2969716191291809,
        0.025776498019695282,
        0.04353298991918564,
        0.043408747762441635,
        0.4813433587551117,
        -0.29936420917510986,
        -0.20236599445343018,
        0.24674800038337708,
        0.7191786170005798,
        0.33647438883781433,
        -0.015001947060227394,
        -1.122245192527771
      ],
      [
        0.38679057359695435,
        -0.08387697488069534,
        0.2128216028213501,
        0.052464503794908524,
        0.8932314515113831,
        0.9045597314834595,
        -0.7085270881652832,
        -0.3928430378437042,
        0.8085572123527527,
        -0.29110187292099,
        0.10339925438165665,
        -0.3478532135486603,
        0.42987915873527527,
        1.770119309425354,
        1.613040566444397,
        -0.3539285659790039,
        -1.0216726064682007,
        -0.3234787583351135,
        0.3586665689945221,
        -1.314915418624878,
        0.30251625180244446,
        -0.5271418690681458,
        -0.4841209650039673,
        0.15680134296417236,
        0.24857687950134277,
        -0.3015193045139313,
        0.10533951222896576,
        0.2983711361885071,
        2.5497775077819824,
        0.10116656124591827,
        0.5233848690986633,
        -0.8663802742958069
      ],
      [
        -0.16260580718517303,
        0.5619710683822632,
        0.5282302498817444,
        -0.4213869869709015,
        1.046320915222168,
        0.12747663259506226,
        0.10529914498329163,
        -0.19433115422725677,
        -0.5707681179046631,
        -0.4283267557621002,
        0.5057386159896851,
        0.039028704166412354,
        -0.5506110191345215,
        0.1686541587114334,
        0.12353665381669998,
        3.181755304336548,
        0.3295934796333313,
        0.2603989839553833,
        -0.23560675978660583,
        0.3154073655605316,
        -0.04596332460641861,
        0.9246225953102112,
        2.570559501647949,
        0.21975445747375488,
        -0.5993332862854004,
        0.49174225330352783,
        0.4716642200946808,
        -0.09426520019769669,
        0.23767857253551483,
        0.15950745344161987,
        -0.3526514768600464,
        -0.08446883410215378
      ],
      [
        -0.21409407258033752,
        -0.23433037102222443,
        -1.6632180213928223,
        0.02407941408455372,
        -0.4694712162017822,
        -1.8855746984481812,
        0.9573701620101929,
        0.03050854802131653,
        -0.7138870358467102,
        0.49562203884124756,
        -0.06116718798875809,
        0.16811537742614746,
        -0.20321884751319885,
        -0.8621066212654114,
        -0.22516725957393646,
        -0.04356573149561882,
        1.9751088619232178,
        0.24591894447803497,
        -0.2207680195569992,
        0.6733708381652832,
        -0.19787555932998657,
        0.4821319580078125,
        -0.2148028314113617,
        0.1346428245306015,
        -0.14172784984111786,
        0.2204464226961136,
        -0.04514634609222412,
        -0.06659894436597824,
        -0.2738311290740967,
        0.1146990954875946,
        -0.5931271910667419,
        0.8387978076934814
      ],
      [
        -0.3073471784591675,
        -0.13483937084674835,
        -0.33698683977127075,
        0.08774273842573166,
        0.008182037621736526,
        -0.21319904923439026,
        0.257845938205719,
        0.18887048959732056,
        -0.4588995575904846,
        0.186270073056221,
        0.12312790006399155,
        0.45347103476524353,
        -0.37067967653274536,
        -0.593311607837677,
        -0.6400855183601379,
        0.229101300239563,
        0.5119908452033997,
        0.45317405462265015,
        -0.2039957195520401,
        0.29206129908561707,
        -0.4466983377933502,
        0.17830227315425873,
        -0.008169528096914291,
        -0.1123620793223381,
        -0.2154373824596405,
        0.34390103816986084,
        0.2841358184814453,
        -0.5706875324249268,
        -0.5608159303665161,
        -0.0880696028470993,
        -0.2839595675468445,
        0.5487378835678101
      ],
      [
        0.2805868983268738,
        -1.2410063743591309,
        0.07791563868522644,
        -0.27726513147354126,
        -0.9817589521408081,
        0.2811526954174042,
        -0.35419902205467224,
        -0.30894914269447327,
        0.4430750608444214,
        -0.041426483541727066,
        0.08509182929992676,
        0.1804640293121338,
        -0.2645224630832672,
        -0.11969293653964996,
        0.0016912776045501232,
        -1.1042101383209229,
        -0.4273945391178131,
        -0.3343659043312073,
        1.0708593130111694,
        0.7585501074790955,
        0.0351300910115242,
        -1.7195628881454468,
        -1.253286600112915,
        -0.523105263710022,
        -0.2424766570329666,
        0.23606239259243011,
        0.1678335815668106,
        0.06090099737048149,
        -0.25282764434814453,
        -0.2733747363090515,
        0.28159406781196594,
        0.17383451759815216
      ],
      [
        -0.19902946054935455,
        -0.6295044422149658,
        -0.7692581415176392,
        0.029186198487877846,
        -1.000732183456421,
        -0.35885974764823914,
        -0.5653185248374939,
        0.13226905465126038,
        -1.0562254190444946,
        -0.0039015503134578466,
        0.16681383550167084,
        0.20897036790847778,
        -0.2832852900028229,
        -1.213932752609253,
        -0.2962809205055237,
        -1.21555757522583,
        0.36902135610580444,
        0.07018278539180756,
        0.3117881715297699,
        1.9904425144195557,
        -0.2625702917575836,
        -0.27970847487449646,
        -1.1352934837341309,
        -0.08031691610813141,
        -0.06655006110668182,
        0.31183749437332153,
        0.18566785752773285,
        -0.39482057094573975,
        -0.2889137268066406,
        -0.25390976667404175,
        0.29987016320228577,
        2.9821839332580566
      ],
      [
        -0.11374305188655853,
        -1.2742228507995605,
        -0.3921425938606262,
        1.735385775566101,
        -0.827362060546875,
        -0.00015745183918625116,
        0.3294937014579773,
        -0.09210830926895142,
        -0.2553113102912903,
        0.8579185605049133,
        -0.7921172380447388,
        0.04222532734274864,
        1.167633295059204,
        -0.4519059956073761,
        -0.11379571259021759,
        -0.9892858266830444,
        0.2570338547229767,
        0.08732123672962189,
        -0.43338194489479065,
        0.8180475831031799,
        3.47121524810791,
        0.3176073729991913,
        -1.0594412088394165,
        2.0909664630889893,
        0.8635785579681396,
        -0.7975810170173645,
        -1.4245659112930298,
        -0.2173886001110077,
        -0.22452399134635925,
        1.1164445877075195,
        -0.4700613021850586,
        0.3939536213874817
      ],
      [
        -0.1317637711763382,
        1.5014818906784058,
        0.2031499147415161,
        0.6263762712478638,
        1.5817111730575562,
        -0.18640081584453583,
        1.0770821571350098,
        0.4990216791629791,
        -0.5116849541664124,
        -0.4679172933101654,
        -0.15963585674762726,
        -0.04978715255856514,
        0.4062606990337372,
        0.3526183068752289,
        0.08745552599430084,
        1.836350440979004,
        0.6377134323120117,
        0.14461396634578705,
        -1.4459662437438965,
        -0.744127094745636,
        0.12659281492233276,
        2.577085018157959,
        1.5813161134719849,
        0.6414927840232849,
        0.04817594587802887,
        -0.4667273759841919,
        0.05911250784993172,
        -0.35902139544487,
        0.5250486731529236,
        0.49207764863967896,
        -0.7074466943740845,
        -0.37940388917922974
      ],
      [
        -0.1886788308620453,
        0.6191757321357727,
        0.777524471282959,
        -0.26048335433006287,
        1.1889735460281372,
        0.37676361203193665,
        -0.24664586782455444,
        0.4754582643508911,
        -0.7564892768859863,
        -0.35458266735076904,
        0.29577377438545227,
        -0.19592039287090302,
        -0.31983697414398193,
        0.2924843728542328,
        -0.005006271414458752,
        2.624163866043091,
        0.39976391196250916,
        0.16342121362686157,
        -0.24678747355937958,
        0.44576317071914673,
        -0.0767388716340065,
        1.1300842761993408,
        2.376439332962036,
        0.3933916985988617,
        -0.5303308367729187,
        -0.02291633002460003,
        0.2333751916885376,
        -0.09550526738166809,
        0.20010527968406677,
        0.3821026682853699,
        -0.1839740127325058,
        -0.12823206186294556
      ],
      [
        0.3172408938407898,
        0.8275978565216064,
        -0.10572017729282379,
        1.2421177625656128,
        0.7098419070243835,
        -0.2008216232061386,
        0.278802752494812,
        0.5956634879112244,
        -0.29458725452423096,
        0.7559259533882141,
        -0.7252106666564941,
        -0.3105195462703705,
        0.3980734050273895,
        0.0458252988755703,
        -0.12465224415063858,
        0.30045294761657715,
        0.24334651231765747,
        0.15958036482334137,
        -0.48776254057884216,
        0.1884019374847412,
        0.22588057816028595,
        0.4461444616317749,
        0.14763085544109344,
        2.1509673595428467,
        0.6661649942398071,
        -0.3585861921310425,
        -0.6046099066734314,
        0.22694075107574463,
        0.30386510491371155,
        1.1679332256317139,
        -0.4453659653663635,
        0.1222418025135994
      ],
      [
        0.5617300868034363,
        0.4055024981498718,
        -0.03229205310344696,
        1.3060705661773682,
        -0.6529132127761841,
        -0.034039709717035294,
        0.19216960668563843,
        0.43859851360321045,
        1.8011589418165386e-05,
        0.8787193298339844,
        -1.9769229888916016,
        -0.6413171887397766,
        1.692384958267212,
        -0.25823983550071716,
        0.2110266089439392,
        -1.1582037210464478,
        0.1250608265399933,
        -0.21640676259994507,
        -0.7672451138496399,
        0.5830820798873901,
        0.4619314968585968,
        0.31913256645202637,
        -1.0205729007720947,
        0.7974522709846497,
        1.555063247680664,
        -1.2834678888320923,
        -2.0317904949188232,
        0.43425649404525757,
        0.17871695756912231,
        0.9164427518844604,
        -0.6694711446762085,
        0.2826400399208069
      ],
      [
        -0.2112794816493988,
        -0.2562633156776428,
        0.40546321868896484,
        -0.7136086821556091,
        0.9801961779594421,
        -0.12273247539997101,
        -0.1654820442199707,
        0.08020645380020142,
        -0.035986509174108505,
        -1.0931698083877563,
        1.352505087852478,
        0.3301427364349365,
        -1.1953275203704834,
        0.14981180429458618,
        -0.010042372159659863,
        2.029806613922119,
        0.04920123144984245,
        0.26912611722946167,
        0.9768571257591248,
        -0.5596866607666016,
        -0.8111761212348938,
        -0.11287613213062286,
        2.341615915298462,
        -0.7704755067825317,
        -1.490242838859558,
        1.3584424257278442,
        1.1331138610839844,
        -0.11381569504737854,
        -0.015886342152953148,
        -0.637931764125824,
        0.3839414119720459,
        -0.2512410879135132
      ],
      [
        -0.5378390550613403,
        -0.37035489082336426,
        0.19690383970737457,
        -1.2168420553207397,
        0.4280972480773926,
        0.1264764368534088,
        -0.18965809047222137,
        0.1629965901374817,
        0.10427896678447723,
        -0.7156160473823547,
        2.7548248767852783,
        0.5835903882980347,
        -2.1254448890686035,
        0.10652551054954529,
        -0.011850666254758835,
        0.6658470034599304,
        -0.029254911467432976,
        0.4297555088996887,
        0.5436771512031555,
        -0.33720389008522034,
        -0.3948470950126648,
        -0.29181644320487976,
        0.6792864203453064,
        -1.0716407299041748,
        -1.6956136226654053,
        1.186015009880066,
        2.457075595855713,
        -0.0755549743771553,
        -0.34626278281211853,
        -0.7669805884361267,
        0.26745861768722534,
        -0.20580534636974335
      ],
      [
        0.28705132007598877,
        0.6982726454734802,
        0.20334912836551666,
        0.3434973359107971,
        0.38384026288986206,
        0.5265734791755676,
        -0.461781769990921,
        0.04796773940324783,
        -0.055055394768714905,
        -0.09134212136268616,
        -0.1370961219072342,
        -0.3187282681465149,
        0.44153642654418945,
        0.2047738879919052,
        0.3803463876247406,
        0.06109324470162392,
        -0.2921043634414673,
        -0.2620355784893036,
        0.11524546146392822,
        -0.4863612949848175,
        0.16645559668540955,
        -0.024135829880833626,
        -0.026749564334750175,
        0.4681941270828247,
        0.32065606117248535,
        -0.3598770797252655,
        -0.21946260333061218,
        0.2220229059457779,
        0.5972426533699036,
        0.2973971962928772,
        0.2661280035972595,
        -0.6410448551177979
      ],
      [
        0.13325293362140656,
        -0.3172067701816559,
        0.6233266592025757,
        -0.03199712559580803,
        1.3703888654708862,
        1.111525297164917,
        -0.6581186056137085,
        -0.7523016333580017,
        1.8580148220062256,
        -0.2821024954319,
        -0.17213940620422363,
        -0.3807845115661621,
        0.051806021481752396,
        3.6886720657348633,
        0.9569589495658875,
        0.0965743139386177,
        -0.9524665474891663,
        -0.48450663685798645,
        0.24313195049762726,
        -1.2248854637145996,
        0.2206214815378189,
        0.028085533529520035,
        -0.12674742937088013,
        0.1468283087015152,
        0.1945570409297943,
        -0.13677480816841125,
        -0.1558808982372284,
        0.22374948859214783,
        2.2538418769836426,
        0.2763232886791229,
        0.23818977177143097,
        -1.0906744003295898
      ],
      [
        0.01711779274046421,
        1.7591772079467773,
        0.07355718314647675,
        0.5976791977882385,
        0.5783801674842834,
        -0.08225520700216293,
        0.32099053263664246,
        -0.16009178757667542,
        0.06725640594959259,
        0.5703994631767273,
        -0.44028300046920776,
        -0.16507478058338165,
        0.14047932624816895,
        0.11083655804395676,
        0.19112710654735565,
        1.5941214561462402,
        0.03849063441157341,
        -0.14464658498764038,
        -0.9242883920669556,
        -0.4159175157546997,
        -0.9762555956840515,
        1.0828930139541626,
        1.5486032962799072,
        1.7413076162338257,
        0.187582328915596,
        0.003766195848584175,
        -0.10270442068576813,
        0.005003825761377811,
        0.26752617955207825,
        2.575517177581787,
        -0.4260881543159485,
        -0.2273578941822052
      ],
      [
        0.35408130288124084,
        0.08113928139209747,
        0.9498048424720764,
        -0.5512529015541077,
        -0.7511625289916992,
        1.1877652406692505,
        -2.619145393371582,
        -0.07759853452444077,
        0.5284135341644287,
        -1.097215175628662,
        0.012780425138771534,
        0.23577526211738586,
        -0.05099663883447647,
        0.3729541599750519,
        0.2961694002151489,
        -0.6074066758155823,
        -1.1734999418258667,
        -0.1649779975414276,
        0.9565661549568176,
        -0.3267975449562073,
        0.05446599796414375,
        -1.1189531087875366,
        -0.28958582878112793,
        -0.3046557903289795,
        0.06792247295379639,
        0.1163269430398941,
        -0.08539064973592758,
        0.37589627504348755,
        0.13797613978385925,
        -0.24395038187503815,
        1.5320019721984863,
        -0.6425671577453613
      ],
      [
        -0.06299256533384323,
        -0.6738504767417908,
        -1.1200112104415894,
        0.15108491480350494,
        -1.1804224252700806,
        0.4286160171031952,
        -1.1063294410705566,
        0.49462440609931946,
        -0.8866692185401917,
        0.24970294535160065,
        0.018544776365160942,
        0.15726834535598755,
        -0.27122893929481506,
        -1.0151419639587402,
        0.004729277454316616,
        -1.2253230810165405,
        -0.34542176127433777,
        0.22213387489318848,
        0.3426568806171417,
        1.896747350692749,
        0.10700123757123947,
        -0.6911613345146179,
        -1.1031873226165771,
        0.18809054791927338,
        -0.18886390328407288,
        -0.0730493813753128,
        -0.13512323796749115,
        -0.022614724934101105,
        -0.4184023141860962,
        -0.08421210199594498,
        0.5639322400093079,
        2.4687442779541016
      ]
    ],
    "rec_0_W_hh_bias": [
      0.3176799416542053,
      0.2317141741514206,
      0.4967651665210724,
      0.15639521181583405,
      0.40131065249443054,
      0.4088008999824524,
      -0.04769260808825493,
      -0.08132700622081757,
      0.14733147621154785,
      -0.03235927224159241,
      -0.20852570235729218,
      -0.46897414326667786,
      0.4734988510608673,
      0.5335522890090942,
      0.4182198941707611,
      0.16980138421058655,
      -0.36271148920059204,
      -0.4339947998523712,
      -0.02589423581957817,
      -0.0884469747543335,
      -0.004336511716246605,
      -0.017232349142432213,
      0.08355579525232315,
      0.3375875949859619,
      0.33822762966156006,
      -0.33389148116111755,
      -0.29439622163772583,
      0.440843403339386,
      0.4007648825645447,
      0.45551827549934387,
      -0.023813853040337563,
      -0.37129926681518555
    ],
    "rec_0_W_tau_weight": [
      [
        -0.023298850283026695,
        -0.4796804189682007
      ],
      [
        -0.05370168760418892,
        0.5186392664909363
      ],
      [
        -0.07603681087493896,
        0.04118620976805687
      ],
      [
        -0.011831888929009438,
        -0.6570202708244324
      ],
      [
        -0.2364601492881775,
        -0.42588794231414795
      ],
      [
        0.2748465836048126,
        -1.1848456859588623
      ],
      [
        0.10775945335626602,
        -1.2660982608795166
      ],
      [
        -0.30548134446144104,
        -1.0005569458007812
      ],
      [
        -2.1717169284820557,
        0.43394339084625244
      ],
      [
        -0.6833997368812561,
        -0.2839919924736023
      ],
      [
        0.32847660779953003,
        -0.532423198223114
      ],
      [
        0.7763210535049438,
        0.22268643975257874
      ],
      [
        0.8520375490188599,
        0.21221178770065308
      ],
      [
        -0.7051427960395813,
        -0.6750676035881042
      ],
      [
        0.301418274641037,
        -0.16217392683029175
      ],
      [
        -1.0584688186645508,
        1.1571400165557861
      ],
      [
        -2.087527275085449,
        0.7178892493247986
      ],
      [
        -0.3012813329696655,
        0.021827660501003265
      ],
      [
        -0.3435741662979126,
        -0.12672428786754608
      ],
      [
        -2.3153347969055176,
        1.8429481983184814
      ],
      [
        0.191494882106781,
        -0.48500844836235046
      ],
      [
        -0.39365097880363464,
        0.03245093673467636
      ],
      [
        -3.4850528240203857,
        1.6747245788574219
      ],
      [
        0.02317160554230213,
        -0.5787970423698425
      ],
      [
        0.05341331288218498,
        -0.8728383779525757
      ],
      [
        1.0884634256362915,
        -1.1667966842651367
      ],
      [
        0.04970019310712814,
        -1.003798484802246
      ],
      [
        -0.19945691525936127,
        -0.17836055159568787
      ],
      [
        0.6321601271629333,
        0.10775577276945114
      ],
      [
        0.040471456944942474,
        -0.0139992730692029
      ],
      [
        -0.3889963626861572,
        -0.3156333267688751
      ],
      [
        -1.3408658504486084,
        -0.3820536732673645
      ]
    ],
    "rec_0_W_tau_bias": [
      -0.35052838921546936,
      -0.8092516660690308,
      -0.38882216811180115,
      -0.5842623710632324,
      -0.2532500624656677,
      -0.31099826097488403,
      -0.3555513918399811,
      -0.5880736708641052,
      0.1851329505443573,
      -0.656335711479187,
      -0.7019715905189514,
      -0.5173931121826172,
      -1.0475484132766724,
      -0.6931489706039429,
      -0.6806291937828064,
      -0.7625267505645752,
      -0.2211035043001175,
      -0.1205751895904541,
      -0.5118148326873779,
      0.40205976366996765,
      0.003110275138169527,
      -0.6607127785682678,
      -0.5936386585235596,
      -0.5278105139732361,
      -0.7590749859809875,
      -0.5669843554496765,
      -0.6548486948013306,
      -0.474749892950058,
      -0.9157100915908813,
      -0.8070000410079956,
      -0.8293125033378601,
      -0.18890801072120667
    ],
    "rec_0_W_tauh_weight": [
      [
        -0.41509807109832764,
        0.2590846121311188,
        -0.23045749962329865,
        -0.34424516558647156,
        0.09538330882787704,
        -0.925695538520813,
        1.1990599632263184,
        0.3591011166572571,
        -0.8309918642044067,
        -0.08615711331367493,
        0.2626718282699585,
        0.29226091504096985,
        -0.3022838532924652,
        -0.40498781204223633,
        -0.3023415207862854,
        0.8785994052886963,
        1.0701265335083008,
        0.29496079683303833,
        0.04893512651324272,
        0.0826927199959755,
        -0.3305719792842865,
        0.36380457878112793,
        0.9065921306610107,
        -0.16701260209083557,
        -0.5060150623321533,
        0.36600396037101746,
        0.45910659432411194,
        -0.4578140676021576,
        -0.5835588574409485,
        -0.3059619665145874,
        -0.10005641728639603,
        0.3341653048992157
      ],
      [
        -0.8409769535064697,
        -0.5546988844871521,
        -0.5578022599220276,
        -1.8376295566558838,
        -0.6726953983306885,
        -0.15444305539131165,
        -0.3596991002559662,
        -2.4182143211364746,
        0.15894842147827148,
        -0.2835961580276489,
        1.6462996006011963,
        1.4310234785079956,
        -1.6589031219482422,
        -0.7051559686660767,
        -0.8598635196685791,
        0.3030233085155487,
        0.01962873712182045,
        0.49065592885017395,
        0.4027368426322937,
        -0.04107165336608887,
        -0.8576655387878418,
        -0.5849167108535767,
        -0.3970264196395874,
        -1.1942728757858276,
        -1.3970988988876343,
        1.386805534362793,
        1.4908161163330078,
        -0.568025529384613,
        -0.516898512840271,
        -1.3836746215820312,
        0.5352458953857422,
        0.4450358748435974
      ],
      [
        0.49272194504737854,
        -0.9303598999977112,
        0.32361719012260437,
        0.48021823167800903,
        1.1479800939559937,
        0.3370203971862793,
        -0.583125114440918,
        -0.1332000344991684,
        0.4945138096809387,
        0.07377547770738602,
        -0.9032145142555237,
        -0.5327035784721375,
        0.5185533761978149,
        1.0449535846710205,
        0.511857807636261,
        -1.162259578704834,
        0.0031138041522353888,
        -0.8007046580314636,
        0.5011133551597595,
        -0.568644642829895,
        0.564549446105957,
        -0.4925413727760315,
        -0.6909211874008179,
        0.33296382427215576,
        0.6320388317108154,
        -0.6103003025054932,
        -0.5893446207046509,
        0.42208462953567505,
        0.47140374779701233,
        0.2040477991104126,
        0.46598610281944275,
        -0.4412025809288025
      ],
      [
        -0.3988100290298462,
        0.017380090430378914,
        -0.31009039282798767,
        -0.07144156098365784,
        -1.2598206996917725,
        -0.20252205431461334,
        1.2542924880981445,
        0.9464691877365112,
        0.29733654856681824,
        0.3014237880706787,
        0.003746210364624858,
        0.40284451842308044,
        -0.37172457575798035,
        -0.46345603466033936,
        -0.426221638917923,
        -0.18612270057201385,
        -0.08575363457202911,
        0.2937052249908447,
        -0.09687232226133347,
        0.0530831515789032,
        -0.2253265380859375,
        0.6928375959396362,
        0.01355798915028572,
        -0.1987433284521103,
        -0.04854894056916237,
        0.32182297110557556,
        -0.016292784363031387,
        -0.48435404896736145,
        -0.7883734703063965,
        -0.2860538959503174,
        -0.5975280404090881,
        0.363591730594635
      ],
      [
        -0.4787527620792389,
        -0.6742788553237915,
        -0.12034719437360764,
        -0.8327227830886841,
        1.4458492994308472,
        -0.32580307126045227,
        -1.3666179180145264,
        -0.4995080828666687,
        -0.8574255704879761,
        -1.4558204412460327,
        1.2190929651260376,
        0.48416242003440857,
        -0.6116875410079956,
        -0.44521012902259827,
        -0.7026301622390747,
        -0.9396854639053345,
        0.5540176630020142,
        0.5350069403648376,
        1.200440764427185,
        0.2939475178718567,
        -0.5504410266876221,
        -1.1865575313568115,
        -0.8920239210128784,
        -1.0078494548797607,
        -0.8494670391082764,
        0.7847904562950134,
        0.7808188796043396,
        -0.6349166631698608,
        -0.42558804154396057,
        -1.1946449279785156,
        1.3502261638641357,
        0.7708930969238281
      ],
      [
        -0.08967465907335281,
        -0.10705946385860443,
        0.7153012752532959,
        1.010209083557129,
        1.1215040683746338,
        0.1517307311296463,
        0.7735270261764526,
        0.30290231108665466,
        0.4621255695819855,
        0.759416937828064,
        -0.7606483697891235,
        -0.12143024802207947,
        0.4395290017127991,
        0.6565011739730835,
        0.41925370693206787,
        1.5696830749511719,
        -0.7285618782043457,
        -0.17006996273994446,
        -0.7390299439430237,
        -1.9922261238098145,
        -0.1918729841709137,
        1.2466750144958496,
        1.4506393671035767,
        0.9301047921180725,
        0.4880900979042053,
        -0.5050866603851318,
        -0.3875133693218231,
        0.04074806720018387,
        0.47163698077201843,
        0.9306265711784363,
        -0.43148383498191833,
        -0.8561450839042664
      ],
      [
        -0.49871379137039185,
        -0.035589467734098434,
        -0.4860970079898834,
        -0.10630600154399872,
        -0.9593940377235413,
        -0.43723151087760925,
        0.6870452165603638,
        0.8412083983421326,
        -0.291908323764801,
        0.450790673494339,
        0.07658727467060089,
        0.5173390507698059,
        -0.16809916496276855,
        -0.47193801403045654,
        -0.6714546084403992,
        0.5074443817138672,
        0.223453551530838,
        1.1375198364257812,
        0.005138109903782606,
        0.45527172088623047,
        -0.5847681760787964,
        0.33643797039985657,
        0.45162174105644226,
        -0.1902744472026825,
        0.04337158799171448,
        0.08435320854187012,
        0.1752646118402481,
        -0.46253177523612976,
        -0.7824784517288208,
        -0.4607935845851898,
        -0.5937167406082153,
        0.7045733332633972
      ],
      [
        -1.0013601779937744,
        -0.259640097618103,
        -0.563875138759613,
        -0.5627273917198181,
        -0.617215633392334,
        -0.5195474624633789,
        0.9103312492370605,
        -0.37847232818603516,
        -0.8036612868309021,
        -0.26117008924484253,
        0.6132843494415283,
        1.097559928894043,
        -0.7310373783111572,
        -0.8604209423065186,
        -0.8862534165382385,
        1.4171115159988403,
        0.40683430433273315,
        0.783539354801178,
        -0.1625717282295227,
        0.6014531254768372,
        -0.6199345588684082,
        0.6168668270111084,
        1.1791752576828003,
        -0.5467860698699951,
        -0.5713204145431519,
        0.868384063243866,
        0.5803889036178589,
        -0.8039059638977051,
        -0.7656955718994141,
        -0.30366942286491394,
        -0.4788825511932373,
        0.6989777088165283
      ],
      [
        0.1449686735868454,
        -1.2869733572006226,
        0.6684285402297974,
        -1.011162519454956,
        1.482920527458191,
        2.7672369480133057,
        -5.136518955230713,
        -1.215657353401184,
        0.5656223893165588,
        -2.7219607830047607,
        0.9901660680770874,
        -0.17869932949543,
        -0.538840651512146,
        1.6858447790145874,
        0.6204336881637573,
        -1.3031710386276245,
        -1.5494669675827026,
        -0.398480623960495,
        2.3110997676849365,
        -0.40032464265823364,
        0.28340983390808105,
        -3.452420949935913,
        -0.7983264327049255,
        -0.20690535008907318,
        -0.5601860880851746,
        -0.42153120040893555,
        0.523370087146759,
        -0.02462284453213215,
        0.7477203607559204,
        -0.3369796872138977,
        4.750723838806152,
        -1.3466999530792236
      ],
      [
        -0.1775480955839157,
        -0.022773075848817825,
        -0.04566545784473419,
        -0.041657641530036926,
        -1.0248618125915527,
        -0.021228402853012085,
        0.42043808102607727,
        0.20318034291267395,
        0.6218839287757874,
        0.11287222802639008,
        -0.10238400101661682,
        0.40646892786026,
        -0.2995576858520508,
        -0.016319965943694115,
        -0.3746606111526489,
        0.2682507038116455,
        -0.4903890788555145,
        0.6893165707588196,
        -0.08640144765377045,
        -0.2770490348339081,
        -0.17924383282661438,
        0.3006241023540497,
        0.35860592126846313,
        -0.1920783966779709,
        -0.000273119134362787,
        0.21460920572280884,
        0.2602331042289734,
        -0.3871569037437439,
        -0.47214001417160034,
        -0.2628893256187439,
        -0.14817871153354645,
        -0.030117850750684738
      ],
      [
        -0.4634287655353546,
        0.41823872923851013,
        0.15369689464569092,
        0.07809635996818542,
        -0.9291588664054871,
        0.20465706288814545,
        1.723449468612671,
        0.7001553177833557,
        0.29589033126831055,
        0.6256996393203735,
        -0.10632295161485672,
        0.5495561957359314,
        -0.008446350693702698,
        -0.5272923111915588,
        -0.5752896070480347,
        0.09498360753059387,
        -0.8022826910018921,
        0.3300906717777252,
        -0.598748505115509,
        -0.49627822637557983,
        -0.23393121361732483,
        1.33545982837677,
        0.12443298101425171,
        0.01796910911798477,
        0.04657192900776863,
        0.20927582681179047,
        0.027397477999329567,
        -0.32774749398231506,
        -0.736994206905365,
        -0.3023560047149658,
        -1.3081703186035156,
        -0.07682938128709793
      ],
      [
        -0.5605552196502686,
        -0.09956549853086472,
        -0.8554389476776123,
        -0.2825804352760315,
        -1.4129163026809692,
        -0.6945780515670776,
        0.47843098640441895,
        0.5451681613922119,
        -1.3796192407608032,
        0.16977299749851227,
        0.20303207635879517,
        0.674919843673706,
        -0.35328975319862366,
        -2.161921977996826,
        -0.9227555990219116,
        -0.2708478271961212,
        0.8494856357574463,
        0.44054803252220154,
        0.00924613606184721,
        1.0916975736618042,
        -0.2818850576877594,
        -0.26379987597465515,
        -0.04732554405927658,
        -0.517501950263977,
        -0.5239630341529846,
        0.4152597486972809,
        0.19237762689590454,
        -0.48385047912597656,
        -1.230815052986145,
        -0.6556496620178223,
        -0.06430605798959732,
        0.9746227264404297
      ],
      [
        -0.7795353531837463,
        -0.430665522813797,
        -1.6235765218734741,
        -0.5097923278808594,
        -2.238987922668457,
        -1.355507493019104,
        1.6351771354675293,
        0.736562192440033,
        -1.3433330059051514,
        0.6554226279258728,
        0.6102173328399658,
        0.6600771546363831,
        -0.49670591950416565,
        -3.0965754985809326,
        -1.0396103858947754,
        -0.02853022702038288,
        0.6119182109832764,
        0.6622912287712097,
        0.0007790944073349237,
        1.0475469827651978,
        -0.39256781339645386,
        0.5595853924751282,
        -0.4466600716114044,
        -0.5682041049003601,
        -0.5546534657478333,
        0.6008679270744324,
        0.47704195976257324,
        -0.5026566982269287,
        -1.4018182754516602,
        -0.506769061088562,
        -1.0676062107086182,
        1.4960280656814575
      ],
      [
        -0.1698274165391922,
        -0.4725203812122345,
        0.21858181059360504,
        -0.4217640459537506,
        0.7957847118377686,
        0.39717647433280945,
        -0.46401742100715637,
        -0.7484546899795532,
        -0.08997312188148499,
        -0.12031084299087524,
        0.2080008089542389,
        0.45338642597198486,
        -0.3333931565284729,
        0.1713198572397232,
        -0.16194690763950348,
        0.3789120614528656,
        -0.22146278619766235,
        0.037164416164159775,
        0.6114412546157837,
        -0.32964497804641724,
        -0.24282319843769073,
        -0.43966570496559143,
        0.4471508264541626,
        -0.4480125308036804,
        -0.3383171856403351,
        0.018182361498475075,
        0.43707388639450073,
        -0.3680211901664734,
        -0.2581532597541809,
        -0.12299727648496628,
        0.575112521648407,
        -0.3060795068740845
      ],
      [
        -0.6253722310066223,
        -0.07070185244083405,
        -0.2543622553348541,
        -0.21605773270130157,
        -0.8213910460472107,
        -0.19871611893177032,
        -0.07730299234390259,
        1.1980046033859253,
        -2.582054376602173,
        0.16489866375923157,
        0.3906700611114502,
        0.7682040333747864,
        -0.3939670920372009,
        -2.141953945159912,
        -0.8592969179153442,
        0.26283004879951477,
        0.6870725750923157,
        0.7328128814697266,
        0.20552219450473785,
        0.7110989689826965,
        -0.4975751042366028,
        -0.6806174516677856,
        0.10184647142887115,
        -0.4637824594974518,
        -0.2513544261455536,
        0.4470827877521515,
        0.42914459109306335,
        -0.6521344780921936,
        -1.193579077720642,
        -0.6368762254714966,
        0.09610440582036972,
        0.9128274321556091
      ],
      [
        -0.6462177038192749,
        -1.579216480255127,
        -0.9234583377838135,
        -0.4155149757862091,
        -1.6354995965957642,
        -0.5404086709022522,
        -0.28969094157218933,
        -1.0433999300003052,
        -0.7331403493881226,
        -0.28140735626220703,
        0.42978742718696594,
        0.9858514070510864,
        -0.5720368027687073,
        -1.0493742227554321,
        -0.7442397475242615,
        -0.5537183880805969,
        0.7212215065956116,
        0.5926961898803711,
        0.8167858123779297,
        1.1052629947662354,
        -0.318099707365036,
        -0.6947608590126038,
        -0.49813055992126465,
        -0.2168852686882019,
        -0.6924431920051575,
        0.7070930004119873,
        0.4552638828754425,
        -0.8206629753112793,
        -0.8224442601203918,
        -0.35414981842041016,
        0.5376022458076477,
        1.0016365051269531
      ],
      [
        0.25894463062286377,
        -1.5889067649841309,
        0.8316996097564697,
        -0.8483334183692932,
        1.2133009433746338,
        2.83538818359375,
        -5.091585159301758,
        -1.0931568145751953,
        0.5456699132919312,
        -2.9583873748779297,
        0.7696669697761536,
        -0.13732413947582245,
        -0.18224462866783142,
        2.146406650543213,
        0.5522022843360901,
        -1.1543993949890137,
        -1.8952972888946533,
        -0.37926051020622253,
        2.8799078464508057,
        0.27715733647346497,
        0.0886945128440857,
        -3.7820942401885986,
        -0.9667415022850037,
        -0.3686763048171997,
        -0.4586782455444336,
        -0.7208119034767151,
        0.44949623942375183,
        0.21925653517246246,
        0.775062620639801,
        -0.027302095666527748,
        5.120889663696289,
        -1.1395292282104492
      ],
      [
        0.08469311892986298,
        -0.15656140446662903,
        0.27260565757751465,
        -0.0828135684132576,
        0.951540470123291,
        0.1242091953754425,
        -1.682786226272583,
        0.2554541230201721,
        -0.5454633235931396,
        -0.6152753829956055,
        0.010221757926046848,
        -0.10475867986679077,
        0.04346480965614319,
        0.1580314189195633,
        0.06659558415412903,
        0.23304706811904907,
        0.4200710356235504,
        -0.25395631790161133,
        0.7565405368804932,
        0.2681651711463928,
        0.19656215608119965,
        -1.3500653505325317,
        0.2003239542245865,
        -0.17759431898593903,
        -0.15854375064373016,
        -0.150973841547966,
        -0.07476242631673813,
        0.21346208453178406,
        -0.045424241572618484,
        -0.05868638679385185,
        0.8178059458732605,
        -0.15941593050956726
      ],
      [
        -0.7433562278747559,
        -0.019552579149603844,
        -0.5028047561645508,
        -0.28824299573898315,
        -1.312296986579895,
        0.0993698313832283,
        -0.12326619774103165,
        0.8844926953315735,
        -0.6607953310012817,
        -0.09715856611728668,
        0.11467524617910385,
        0.5516448020935059,
        -0.4642470180988312,
        -0.9807566404342651,
        -0.6346175074577332,
        -0.16684819757938385,
        0.1858433187007904,
        1.0680063962936401,
        0.23689109086990356,
        0.5099206566810608,
        -0.5067105293273926,
        -0.24075740575790405,
        -0.15855886042118073,
        -0.5986388325691223,
        -0.1670074462890625,
        0.35316231846809387,
        0.22589294612407684,
        -0.5723393559455872,
        -0.6550770401954651,
        -0.7276602387428284,
        -0.08872617036104202,
        0.6443662643432617
      ],
      [
        0.2457687109708786,
        -1.0132348537445068,
        1.640620470046997,
        -1.1764028072357178,
        1.4768798351287842,
        4.1546549797058105,
        -6.316802978515625,
        -0.4439235329627991,
        -0.33541786670684814,
        -4.410164833068848,
        0.6849422454833984,
        -0.5549675822257996,
        -0.07595697790384293,
        2.2299277782440186,
        0.9386406540870667,
        -1.2832108736038208,
        -2.004345417022705,
        -0.6739163398742676,
        4.128025531768799,
        1.3081138134002686,
        0.29584014415740967,
        -4.297936916351318,
        -0.6056914925575256,
        -0.6101545095443726,
        -0.46985065937042236,
        -1.2550034523010254,
        0.3421693742275238,
        0.3038431704044342,
        0.8335855007171631,
        -0.23554429411888123,
        6.11789083480835,
        -1.135588526725769
      ],
      [
        -0.32324331998825073,
        0.30874040722846985,
        0.1208573654294014,
        -0.17770801484584808,
        -0.01801445335149765,
        -0.9513001441955566,
        2.3784873485565186,
        0.6989666223526001,
        -0.4283066391944885,
        0.3390306532382965,
        0.3951578438282013,
        0.40206050872802734,
        -0.5624526739120483,
        -1.212064504623413,
        -0.9749495387077332,
        1.0381865501403809,
        0.6331778764724731,
        0.6473703980445862,
        -1.2950224876403809,
        0.17915986478328705,
        -0.3381304144859314,
        1.568310260772705,
        1.0676031112670898,
        -0.1601540446281433,
        -0.5942153930664062,
        0.8649994730949402,
        0.5152190327644348,
        -0.6380970478057861,
        -1.0894923210144043,
        -0.23523542284965515,
        -0.7804493308067322,
        0.5560014247894287
      ],
      [
        -0.5591185688972473,
        -0.4045090973377228,
        -0.8003236055374146,
        -0.2763963043689728,
        -1.092258334159851,
        -0.525696873664856,
        0.2989591956138611,
        0.06719286739826202,
        -0.5853970050811768,
        0.13884133100509644,
        0.28323760628700256,
        0.6622729301452637,
        -0.5948793292045593,
        -0.7049976587295532,
        -1.0345773696899414,
        -0.03185153752565384,
        0.2687233090400696,
        1.035634994506836,
        -0.020680461078882217,
        0.32340386509895325,
        -0.6708831191062927,
        0.13202060759067535,
        0.20744572579860687,
        -0.5513137578964233,
        -0.27046704292297363,
        0.35941776633262634,
        0.5614843964576721,
        -0.6640726923942566,
        -1.023789644241333,
        -0.786048412322998,
        -0.05679916590452194,
        0.8274006843566895
      ],
      [
        -0.3061141073703766,
        0.6787108182907104,
        0.5502533316612244,
        -1.0333137512207031,
        -0.1843729317188263,
        0.03650009259581566,
        -1.4308340549468994,
        0.295711487531662,
        -0.032473187893629074,
        -4.2168779373168945,
        1.098897099494934,
        0.2857455909252167,
        -0.8144146800041199,
        0.13679824769496918,
        0.141937255859375,
        -0.43078315258026123,
        0.15007856488227844,
        0.13113181293010712,
        1.9408575296401978,
        -0.18509942293167114,
        -0.4432138502597809,
        -1.6714775562286377,
        0.8078885078430176,
        -1.7058699131011963,
        -0.6594401597976685,
        0.5697475075721741,
        1.2431983947753906,
        -0.1282120645046234,
        0.14576062560081482,
        -1.4677361249923706,
        2.0989410877227783,
        -0.2119951695203781
      ],
      [
        -0.35488447546958923,
        -0.27999529242515564,
        -0.6284838914871216,
        0.04772978648543358,
        -0.9390798211097717,
        -0.7180721163749695,
        0.7157000303268433,
        0.5575034022331238,
        0.14477530121803284,
        0.5583840012550354,
        0.025600720196962357,
        0.5201550722122192,
        -0.47555384039878845,
        -0.36296719312667847,
        -0.44649064540863037,
        0.18663592636585236,
        0.1005035936832428,
        0.11978013813495636,
        -0.5719335675239563,
        0.16566771268844604,
        -0.15382754802703857,
        0.37540316581726074,
        0.009209571406245232,
        -0.0004945449181832373,
        -0.24915584921836853,
        0.3122372329235077,
        0.19898389279842377,
        -0.494016170501709,
        -0.4570716321468353,
        -0.22599349915981293,
        -0.5325865149497986,
        0.5116878151893616
      ],
      [
        -0.6567107439041138,
        -0.5531959533691406,
        -0.8518659472465515,
        -0.17179784178733826,
        -0.1699894666671753,
        -0.9820411205291748,
        0.5161073207855225,
        -0.11619341373443604,
        -0.35010504722595215,
        0.27681416273117065,
        0.26351168751716614,
        0.6479800343513489,
        -0.3796203136444092,
        -0.6709544062614441,
        -0.9654309153556824,
        -0.394770085811615,
        0.34016719460487366,
        1.143351674079895,
        0.030090227723121643,
        0.10851284116506577,
        -0.6413540244102478,
        -0.16598835587501526,
        -0.3065267503261566,
        -0.41664138436317444,
        -0.5391978025436401,
        0.6468136310577393,
        0.288695752620697,
        -0.8198283910751343,
        -1.0038331747055054,
        -0.3546934425830841,
        -0.16237583756446838,
        0.3023393750190735
      ],
      [
        -0.7391672134399414,
        0.7818013429641724,
        -0.5462753772735596,
        0.01101963222026825,
        -0.5560489296913147,
        -3.0543806552886963,
        5.50313663482666,
        -0.7659814953804016,
        0.6671422123908997,
        2.3363113403320312,
        0.24533258378505707,
        0.5914261341094971,
        -0.45865362882614136,
        -1.253918170928955,
        -0.7905441522598267,
        1.4837472438812256,
        0.4138145446777344,
        0.7144676446914673,
        -2.65932035446167,
        -2.6442153453826904,
        -0.6055148243904114,
        4.046657562255859,
        1.4280556440353394,
        -0.3594183921813965,
        -0.3508621156215668,
        1.181423306465149,
        0.2829763889312744,
        -0.5969384908676147,
        -0.8521249890327454,
        -0.4346531629562378,
        -4.972014427185059,
        -0.13717754185199738
      ],
      [
        -0.580370306968689,
        -0.3816089332103729,
        -1.0147827863693237,
        -0.3458656966686249,
        -0.4828329384326935,
        -1.2823567390441895,
        0.6017804741859436,
        0.20913641154766083,
        -0.6996067762374878,
        0.26298826932907104,
        0.4110060930252075,
        0.665395975112915,
        -0.44168487191200256,
        -1.0179266929626465,
        -0.8682796955108643,
        0.08388541638851166,
        0.5788232684135437,
        0.8016109466552734,
        -0.34254899621009827,
        0.21775785088539124,
        -0.8608094453811646,
        0.24674221873283386,
        0.07983061671257019,
        -0.27753156423568726,
        -0.3759326934814453,
        0.4244145452976227,
        0.37327131628990173,
        -0.8897857069969177,
        -0.7514728307723999,
        -0.3792031407356262,
        -0.4813481867313385,
        0.7672295570373535
      ],
      [
        0.05519242584705353,
        -0.4111938178539276,
        0.17236186563968658,
        -0.012396174483001232,
        0.406789094209671,
        0.3356490135192871,
        -0.641248345375061,
        0.3014742136001587,
        -0.13785430788993835,
        -0.33461764454841614,
        -0.19806046783924103,
        0.10457735508680344,
        0.14460055530071259,
        0.18407481908798218,
        -0.0732407420873642,
        -0.018213404342532158,
        -0.14920099079608917,
        -0.062441322952508926,
        0.2731102705001831,
        0.03604813665151596,
        -0.16422486305236816,
        -0.5500928163528442,
        0.2000519335269928,
        0.009630491025745869,
        -0.10462772101163864,
        0.09601014852523804,
        -0.02584306336939335,
        -0.13767628371715546,
        0.0174996517598629,
        -0.00883051659911871,
        0.5504940748214722,
        -0.12037939578294754
      ],
      [
        -0.1433516889810562,
        -0.4148036241531372,
        -0.10050424188375473,
        -0.17302292585372925,
        -1.015419602394104,
        0.5434635281562805,
        -2.1322484016418457,
        1.1435503959655762,
        -0.956787645816803,
        -0.4975787103176117,
        -0.02638527750968933,
        0.24342676997184753,
        -0.5403541922569275,
        -0.9235128164291382,
        -0.45242583751678467,
        -1.2493456602096558,
        -0.6545534133911133,
        0.2248605638742447,
        1.026516079902649,
        0.6141913533210754,
        -0.4150446653366089,
        -2.338905096054077,
        -0.9984005093574524,
        -0.7003660798072815,
        -0.26313766837120056,
        0.16217099130153656,
        0.1271948665380478,
        -0.28536757826805115,
        -0.3051661252975464,
        -0.5046474933624268,
        1.7508469820022583,
        0.5418116450309753
      ],
      [
        -0.8295508027076721,
        -0.5955728888511658,
        -1.0690675973892212,
        -0.4489753842353821,
        -1.1338191032409668,
        -0.7008025050163269,
        -0.025825750082731247,
        -0.3698257505893707,
        -0.43386903405189514,
        0.2917410433292389,
        0.8211889266967773,
        0.9170341491699219,
        -0.8356285095214844,
        -0.7367929816246033,
        -0.614941418170929,
        0.4951976537704468,
        0.15626266598701477,
        0.6069636940956116,
        -0.32416027784347534,
        0.37374305725097656,
        -0.36030223965644836,
        0.08427105098962784,
        -3.233163442928344e-05,
        -0.384491890668869,
        -0.7616675496101379,
        0.828901469707489,
        0.4551040530204773,
        -0.551108717918396,
        -0.7229153513908386,
        -0.4776954650878906,
        -0.05991428717970848,
        0.5279383063316345
      ],
      [
        -0.6130310893058777,
        -0.5869818925857544,
        -0.5238394737243652,
        -0.37500229477882385,
        -1.0810507535934448,
        -0.5583648681640625,
        0.5671893358230591,
        -0.106161929666996,
        -0.5018726587295532,
        -0.05835842713713646,
        0.5768173933029175,
        0.7429882287979126,
        -0.7067368626594543,
        -0.5667264461517334,
        -0.6330900192260742,
        0.1043601930141449,
        0.3906165063381195,
        0.673163652420044,
        0.1894216388463974,
        0.5573853254318237,
        -0.7992514371871948,
        -0.06055399775505066,
        0.503290593624115,
        -0.6911629438400269,
        -0.6682518124580383,
        0.48165038228034973,
        0.6133605241775513,
        -0.6667601466178894,
        -0.8644713759422302,
        -0.5643979907035828,
        -0.042424626648426056,
        0.4433120787143707
      ],
      [
        0.26776760816574097,
        0.050748392939567566,
        1.487196683883667,
        -0.6773123741149902,
        0.8866074681282043,
        2.1331050395965576,
        -4.789139270782471,
        -0.3761981129646301,
        -0.5348095893859863,
        -3.321584463119507,
        0.01958993263542652,
        -0.4444532096385956,
        0.1450333148241043,
        1.429830551147461,
        0.44677743315696716,
        -0.19220329821109772,
        -1.0273748636245728,
        -0.32843005657196045,
        3.067290782928467,
        0.9230089783668518,
        0.1384168416261673,
        -3.9098403453826904,
        0.07122817635536194,
        -0.11850753426551819,
        0.08897672593593597,
        -0.8903879523277283,
        -0.047140080481767654,
        0.26392605900764465,
        0.5985111594200134,
        0.1915201097726822,
        4.705142021179199,
        -0.9306567907333374
      ]
    ],
    "rec_0_A": [
      0.6849403381347656,
      0.4841333031654358,
      -2.348083257675171,
      0.6912711262702942,
      -0.6742755174636841,
      -1.5051475763320923,
      -0.642444372177124,
      0.5764988660812378,
      2.0878379344940186,
      -0.18048985302448273,
      0.6753198504447937,
      0.9994595646858215,
      0.9946280717849731,
      -0.058341577649116516,
      0.7657922506332397,
      0.266842246055603,
      2.016808271408081,
      0.9719098806381226,
      0.3621598482131958,
      3.0087201595306396,
      1.0693256855010986,
      -0.001988844946026802,
      1.6387511491775513,
      0.4333436191082001,
      0.10726278275251389,
      1.6070889234542847,
      0.12560784816741943,
      0.5771742463111877,
      0.8989467024803162,
      0.3046060800552368,
      0.07898896932601929,
      1.2654082775115967
    ],
    "dense_0_weight": [
      [
        0.06978382170200348,
        0.05747169628739357,
        0.11499921977519989,
        -0.041167136281728745,
        -0.10871320217847824,
        -0.04339677467942238,
        0.14514519274234772,
        -0.10367602109909058,
        -0.1005886122584343,
        0.17937150597572327,
        -0.014206742867827415,
        0.17637507617473602,
        -0.11143877357244492,
        -0.16246092319488525,
        -0.17105360329151154,
        -0.14941082894802094,
        -0.08195777237415314,
        0.1387658715248108,
        -0.003271093126386404,
        -0.062070466578006744,
        0.21166963875293732,
        0.10127239674329758,
        0.11691881716251373,
        -0.1263802945613861,
        0.07071969658136368,
        -0.0733632817864418,
        0.18070131540298462,
        -0.147363543510437,
        0.02396947331726551,
        -0.11545642465353012,
        0.06375643610954285,
        -0.09713710844516754
      ],
      [
        0.4131458103656769,
        1.0862375497817993,
        -0.7058614492416382,
        -0.08026761561632156,
        1.6213066577911377,
        -0.6504201889038086,
        -0.17747631669044495,
        1.2479416131973267,
        -0.49100571870803833,
        0.16152457892894745,
        -0.2385198324918747,
        -0.5120862722396851,
        -0.22234509885311127,
        0.006315789185464382,
        0.7315281629562378,
        0.7747095823287964,
        0.5548204779624939,
        -0.1303783655166626,
        -0.3296492397785187,
        0.8812261819839478,
        0.7564349174499512,
        0.4785507619380951,
        0.7147245407104492,
        -0.1318598836660385,
        0.019786620512604713,
        -0.5447814464569092,
        0.1603109985589981,
        0.5927385687828064,
        0.4494372010231018,
        -0.49470824003219604,
        0.0010475129820406437,
        0.55777907371521
      ],
      [
        0.36571964621543884,
        0.8212655186653137,
        -0.7595638632774353,
        0.25179484486579895,
        1.2594354152679443,
        -0.6412378549575806,
        0.16767248511314392,
        0.9509574770927429,
        -0.9827051758766174,
        0.3165105879306793,
        -0.4101611077785492,
        -0.45265740156173706,
        0.6112709641456604,
        -0.4058143198490143,
        0.5843620300292969,
        0.5732038617134094,
        0.7309778928756714,
        0.3117378056049347,
        -0.5691688656806946,
        1.1607874631881714,
        0.5851051211357117,
        0.7463709712028503,
        0.7424169182777405,
        0.8292682766914368,
        0.3111778795719147,
        -0.5666494965553284,
        -0.4678758382797241,
        0.3073807656764984,
        0.6353878378868103,
        0.24714395403862,
        -0.25768759846687317,
        0.9834319949150085
      ],
      [
        -0.13277947902679443,
        0.025377444922924042,
        0.024119194597005844,
        -0.18182942271232605,
        -0.23072202503681183,
        0.08251140266656876,
        -0.010607092641294003,
        0.12850433588027954,
        0.12100798636674881,
        0.12583217024803162,
        -0.1443537473678589,
        -0.013719829730689526,
        -0.15356400609016418,
        0.05168960988521576,
        -0.06625496596097946,
        0.1648021936416626,
        0.14987528324127197,
        0.15438129007816315,
        -0.09349165856838226,
        0.03090742602944374,
        0.1843283474445343,
        -0.07028139382600784,
        -0.04143735021352768,
        -0.10522940009832382,
        0.035909850150346756,
        -0.0903846025466919,
        0.0018171118572354317,
        0.11075925081968307,
        -0.17426767945289612,
        -0.13448770344257355,
        -0.0633465126156807,
        0.10189928114414215
      ],
      [
        0.6604586839675903,
        1.066741704940796,
        -0.6015926003456116,
        0.08447499573230743,
        1.6848483085632324,
        -0.5800710916519165,
        -0.28073322772979736,
        1.2316802740097046,
        -0.6195999979972839,
        0.20853681862354279,
        -0.26284703612327576,
        -0.5211721658706665,
        -0.08027585595846176,
        -0.07933363318443298,
        0.8182847499847412,
        0.8091152906417847,
        0.388292133808136,
        -0.09711696207523346,
        -0.24731744825839996,
        0.8353583812713623,
        0.8073692321777344,
        0.22797919809818268,
        0.5317415595054626,
        -0.11314951628446579,
        0.21059371531009674,
        -0.5198817849159241,
        0.19140294194221497,
        0.4608728289604187,
        0.7597635388374329,
        -0.429381400346756,
        0.15942862629890442,
        0.6600450277328491
      ],
      [
        0.45694953203201294,
        0.45439037680625916,
        -0.637656569480896,
        0.5587122440338135,
        1.1069583892822266,
        -0.6701741218566895,
        0.27851468324661255,
        0.6528603434562683,
        -0.7218571901321411,
        0.38430002331733704,
        -0.5375115275382996,
        -0.4634697735309601,
        0.5484670996665955,
        -0.13404947519302368,
        0.3783465325832367,
        0.38284382224082947,
        0.6804611086845398,
        0.25422486662864685,
        -0.6059512495994568,
        0.6216864585876465,
        0.9855576753616333,
        0.679149329662323,
        0.36043813824653625,
        0.4074583649635315,
        0.4791838228702545,
        -0.6084294319152832,
        -0.4154992401599884,
        0.34078800678253174,
        0.4584570527076721,
        0.19720858335494995,
        -0.3981914520263672,
        0.5299023389816284
      ],
      [
        0.0727388858795166,
        -0.06829901784658432,
        0.008235874585807323,
        -0.09686771035194397,
        0.12076399475336075,
        -0.13953867554664612,
        0.04236500710248947,
        -0.06448370963335037,
        -0.12973667681217194,
        -0.10024234652519226,
        -0.20603619515895844,
        0.015190537087619305,
        -0.12927301228046417,
        0.07927783578634262,
        -0.05215469375252724,
        0.08617310971021652,
        0.02169623412191868,
        0.0888100191950798,
        0.11847434192895889,
        -0.08548460155725479,
        -0.12773437798023224,
        0.20243002474308014,
        -0.09176813066005707,
        -0.09889573603868484,
        -0.03710850700736046,
        -0.04359566047787666,
        0.06400108337402344,
        -0.12477342784404755,
        0.004772839602082968,
        -0.08882550895214081,
        -0.11062739789485931,
        -0.01528841070830822
      ],
      [
        0.013542508706450462,
        -0.8908514976501465,
        0.5776265859603882,
        -0.037279561161994934,
        -1.6141730546951294,
        0.8354974389076233,
        0.37398284673690796,
        -1.3666342496871948,
        0.7966011762619019,
        -0.24738331139087677,
        0.06766284257173538,
        0.14425796270370483,
        0.5553762912750244,
        0.39867138862609863,
        0.024029240012168884,
        -0.4265359044075012,
        -0.8578013777732849,
        -0.1783364862203598,
        0.3683947026729584,
        -1.1541733741760254,
        -0.10776837915182114,
        -0.489086389541626,
        -0.5470947623252869,
        0.34104037284851074,
        0.2578010857105255,
        0.30587777495384216,
        -0.5319846272468567,
        0.11576905846595764,
        -0.20265468955039978,
        0.6701856255531311,
        -0.20150530338287354,
        -0.66318678855896
      ],
      [
        0.23307150602340698,
        0.9790483117103577,
        -0.8406622409820557,
        0.4387161433696747,
        1.566087007522583,
        -0.7119899988174438,
        0.08691096305847168,
        1.05047607421875,
        -0.8589222431182861,
        0.5720010995864868,
        -0.48271650075912476,
        -0.20352715253829956,
        0.3948219120502472,
        -0.27206453680992126,
        0.586614191532135,
        0.4371015429496765,
        0.8758945465087891,
        -0.015722006559371948,
        -0.734819769859314,
        1.2137290239334106,
        0.5954849720001221,
        0.8956503868103027,
        0.7709193229675293,
        0.7898268103599548,
        0.27942854166030884,
        -0.5301230549812317,
        -0.4813171327114105,
        0.11825305223464966,
        0.63665372133255,
        0.06970479339361191,
        -0.07639987021684647,
        0.90810626745224
      ],
      [
        0.0082897013053298,
        -0.7920553684234619,
        0.776070773601532,
        0.048943083733320236,
        -1.1437734365463257,
        0.7340776324272156,
        -0.02805953659117222,
        -1.0138119459152222,
        0.6861844062805176,
        -0.2807847559452057,
        0.28929027915000916,
        -0.07775429636240005,
        0.47265172004699707,
        0.20015399158000946,
        -0.06077200546860695,
        -0.28336507081985474,
        -0.689825713634491,
        -0.21403495967388153,
        0.2810632884502411,
        -0.6607350707054138,
        -0.03602103143930435,
        -0.22675423324108124,
        -0.41012588143348694,
        0.5048105120658875,
        0.26825135946273804,
        -0.053547970950603485,
        -0.5621834397315979,
        0.2295939028263092,
        -0.1202230304479599,
        0.9060010313987732,
        0.12560144066810608,
        -0.5353214144706726
      ],
      [
        0.17036843299865723,
        -0.7024903893470764,
        0.757810652256012,
        -0.04037262871861458,
        -1.4359711408615112,
        0.6785995960235596,
        0.09519090503454208,
        -0.6757514476776123,
        0.5841798782348633,
        -0.19045250117778778,
        0.011959455907344818,
        -0.10261436551809311,
        0.4349331259727478,
        0.32876479625701904,
        -0.02805747278034687,
        -0.4907318353652954,
        -0.4337642788887024,
        -0.22607892751693726,
        0.36848461627960205,
        -0.9195520281791687,
        -0.2853085398674011,
        -0.4435312747955322,
        -0.47956594824790955,
        0.32877668738365173,
        0.37643271684646606,
        -0.0846584215760231,
        -0.5457536578178406,
        0.20715320110321045,
        -0.10981759428977966,
        0.8273913264274597,
        0.20033179223537445,
        -0.610235869884491
      ],
      [
        0.07623463869094849,
        -0.9244909286499023,
        0.7877320647239685,
        0.06628795713186264,
        -1.651894450187683,
        0.6188548803329468,
        0.2471235990524292,
        -1.212998867034912,
        0.8313859105110168,
        -0.29837557673454285,
        0.31633710861206055,
        -0.012419644743204117,
        0.5210813283920288,
        0.11515486985445023,
        -0.0414910763502121,
        -0.309031218290329,
        -0.6664767861366272,
        -0.057031746953725815,
        0.26867231726646423,
        -1.3123751878738403,
        -0.43043795228004456,
        -0.4664573669433594,
        -0.44299793243408203,
        0.43409714102745056,
        0.2426062673330307,
        0.04385673999786377,
        -0.5235851407051086,
        0.2415689378976822,
        -0.16669239103794098,
        0.8905901312828064,
        -5.777564365416765e-05,
        -0.6030145883560181
      ],
      [
        0.20148783922195435,
        -1.5814913511276245,
        0.693494975566864,
        -0.43888893723487854,
        -2.1029880046844482,
        0.8840835690498352,
        0.4656752049922943,
        -1.6153044700622559,
        0.886944055557251,
        -0.10846695303916931,
        0.15067033469676971,
        -0.09839936345815659,
        -0.15851075947284698,
        0.3063439428806305,
        -0.06501222401857376,
        -0.6505610346794128,
        -0.6994328498840332,
        -0.06776521354913712,
        0.49072104692459106,
        -1.294032335281372,
        0.2118193656206131,
        -0.22582942247390747,
        -1.1690024137496948,
        0.6775047779083252,
        -0.22736422717571259,
        0.7513064742088318,
        0.1665664166212082,
        0.005043551791459322,
        -0.16871733963489532,
        0.6848227381706238,
        -0.41125550866127014,
        -0.7448567152023315
      ],
      [
        -0.6572145223617554,
        -0.3580171465873718,
        -0.021741071715950966,
        -0.5942497253417969,
        0.24716044962406158,
        -0.10407443344593048,
        -0.13767766952514648,
        -1.2607873678207397,
        -0.07083578407764435,
        -0.07944093644618988,
        1.123989462852478,
        1.247294545173645,
        -0.5516800880432129,
        -0.13294386863708496,
        -0.0963435247540474,
        2.001929998397827,
        0.13061773777008057,
        -0.11273982375860214,
        -0.31573376059532166,
        0.08625251799821854,
        -0.15827395021915436,
        0.49062690138816833,
        0.9553661942481995,
        -0.06859803944826126,
        -1.9195832014083862,
        1.641080617904663,
        1.12362539768219,
        -0.2363734245300293,
        0.020270314067602158,
        0.25331926345825195,
        -0.23595111072063446,
        0.12358707934617996
      ],
      [
        0.12995068728923798,
        -0.6938756108283997,
        0.6375268697738647,
        0.11378572881221771,
        -1.440769076347351,
        0.6510173678398132,
        -0.04880596324801445,
        -0.8268638849258423,
        0.6395981311798096,
        -0.33442991971969604,
        0.2361406683921814,
        0.02555282600224018,
        0.5112788081169128,
        0.1374550312757492,
        0.055074624717235565,
        -0.2744297683238983,
        -0.578257143497467,
        -0.3148473799228668,
        0.4741823077201843,
        -0.8398386240005493,
        -0.10196524858474731,
        -0.2438793033361435,
        -0.4766124188899994,
        0.3291914165019989,
        0.3755592703819275,
        0.04113062843680382,
        -0.42521268129348755,
        0.14128655195236206,
        0.08977672457695007,
        0.8946913480758667,
        -0.02079761028289795,
        -0.5416792035102844
      ],
      [
        0.5890408754348755,
        1.1396558284759521,
        -0.5160084366798401,
        0.07966593652963638,
        1.589670181274414,
        -0.6136488914489746,
        -0.4617638885974884,
        1.3506104946136475,
        -0.47108572721481323,
        0.12520353496074677,
        -0.26118093729019165,
        -0.4068552255630493,
        -0.2971171736717224,
        0.199625626206398,
        0.5074676275253296,
        0.5789570212364197,
        0.5881842970848083,
        0.017552994191646576,
        -0.2027459442615509,
        1.2066082954406738,
        0.7640109658241272,
        0.3442519009113312,
        0.6593884825706482,
        0.029184134677052498,
        0.21576960384845734,
        -0.564508855342865,
        0.08782844990491867,
        0.4925059974193573,
        0.8840034604072571,
        -0.5324491858482361,
        0.028311865404248238,
        0.4947579503059387
      ]
    ],
    "dense_0_bias": [
      -0.1329849660396576,
      0.32510906457901,
      0.1925087571144104,
      -0.11419990658760071,
      0.24555356800556183,
      0.29705917835235596,
      -0.19692382216453552,
      0.2872059941291809,
      0.21959418058395386,
      0.21958713233470917,
      0.23389634490013123,
      0.05467968061566353,
      0.10996178537607193,
      -0.2134878933429718,
      0.143623948097229,
      0.16712084412574768
    ],
    "dense_1_weight": [
      [
        -0.0197856817394495,
        1.3759312629699707,
        0.9158250093460083,
        0.041285306215286255,
        1.3460723161697388,
        0.8338151574134827,
        0.12084224075078964,
        -0.8928204774856567,
        0.9851136803627014,
        -0.8042066693305969,
        -0.8567191958427429,
        -1.0341191291809082,
        -1.8051239252090454,
        -1.169516682624817,
        -0.8375314474105835,
        1.3591171503067017
      ]
    ],
    "dense_1_bias": [
      0.2094651758670807
    ]
  }
}