{
  "recurrent_layers": [
    {
      "index": 0,
      "type": "LTC",
      "input_size": 2,
      "hidden_size": 32,
      "activation": "tanh",
      "ode_unfolds": 6,
      "dt": 1.0,
      "tau_min": 0.1
    }
  ],
  "dense_layers": [
    {
      "index": 0,
      "in_features": 32,
      "out_features": 16,
      "activation": "relu"
    },
    {
      "index": 1,
      "in_features": 16,
      "out_features": 3,
      "activation": "linear"
    }
  ],
  "parameters": {
    "rec_0_W_ih_weight": [
      [
        0.26732686161994934,
        0.18613755702972412
      ],
      [
        0.13460417091846466,
        -0.2647545635700226
      ],
      [
        -0.26871147751808167,
        -0.32588016986846924
      ],
      [
        0.2875974476337433,
        -0.14656302332878113
      ],
      [
        -0.3637964129447937,
        0.051958803087472916
      ],
      [
        -0.26514115929603577,
        -0.14321757853031158
      ],
      [
        0.1312911957502365,
        -0.24882128834724426
      ],
      [
        0.08432457596063614,
        -0.22621101140975952
      ],
      [
        -0.2656973600387573,
        0.09766871482133865
      ],
      [
        0.27175164222717285,
        -0.11782852560281754
      ],
      [
        -0.23209373652935028,
        -0.2517550587654114
      ],
      [
        0.14272983372211456,
        0.2883627712726593
      ],
      [
        0.3035254180431366,
        -0.1761021465063095
      ],
      [
        -0.19375939667224884,
        -0.26959648728370667
      ],
      [
        -0.29233384132385254,
        0.1309196799993515
      ],
      [
        -0.31409987807273865,
        0.06578286737203598
      ],
      [
        -0.13773863017559052,
        -0.3405744433403015
      ],
      [
        -0.2922602593898773,
        -0.25131720304489136
      ],
      [
        0.0934942290186882,
        0.30633190274238586
      ],
      [
        0.10438328981399536,
        -0.21150918304920197
      ],
      [
        0.20308785140514374,
        0.285053014755249
      ],
      [
        -0.20290936529636383,
        -0.20807448029518127
      ],
      [
        -0.2518782615661621,
        -0.35112491250038147
      ],
      [
        -0.15177857875823975,
        -0.35485973954200745
      ],
      [
        0.05562450736761093,
        -0.20251794159412384
      ],
      [
        0.3703324794769287,
        -0.04909280687570572
      ],
      [
        0.3374054729938507,
        -0.07429097592830658
      ],
      [
        -0.2608029842376709,
        0.0826687440276146
      ],
      [
        -0.3660206198692322,
        0.0825592502951622
      ],
      [
        -0.28132396936416626,
        0.03696919605135918
      ],
      [
        -0.38461655378341675,
        0.020124882459640503
      ],
      [
        0.1742989420890808,
        -0.22575737535953522
      ]
    ],
    "rec_0_W_ih_bias": [
      0.17433977127075195,
      0.24593853950500488,
      -0.2492576390504837,
      0.08141525089740753,
      0.08119190484285355,
      -0.05460695922374725,
      0.16960804164409637,
      0.23246482014656067,
      0.21030685305595398,
      0.2181585729122162,
      -0.17825184762477875,
      -0.12443334609270096,
      0.12179931998252869,
      -0.09585681557655334,
      0.01626656949520111,
      0.19522187113761902,
      -0.17940552532672882,
      -0.1167546957731247,
      0.1682126820087433,
      0.3020953834056854,
      0.20602278411388397,
      -0.12912139296531677,
      -0.1677597314119339,
      0.13066160678863525,
      0.18643029034137726,
      -0.007942026481032372,
      0.0037794383242726326,
      -0.05258944258093834,
      0.1506918966770172,
      -0.06551580876111984,
      -0.02574514038860798,
      0.4352681636810303
    ],
    "rec_0_W_hh_weight": [
      [
        0.11359557509422302,
        0.09910503774881363,
        -0.010596446692943573,
        -0.030232608318328857,
        -0.2353552132844925,
        -0.2781912386417389,
        -0.1137363389134407,
        -0.030897486954927444,
        -0.13053713738918304,
        0.024309232831001282,
        -0.3035534918308258,
        0.08108486980199814,
        -0.05354048311710358,
        -0.19258937239646912,
        -0.06828448176383972,
        -0.17901921272277832,
        -0.11774060130119324,
        -0.04637971147894859,
        0.2702828347682953,
        -0.1962999701499939,
        0.22749382257461548,
        -0.21718160808086395,
        -0.3169843554496765,
        -0.13301868736743927,
        -0.2237173616886139,
        -0.01502271369099617,
        -0.04642179608345032,
        -0.09211564809083939,
        0.1932142823934555,
        0.19483895599842072,
        -0.14062060415744781,
        -0.15176287293434143
      ],
      [
        -0.04777102917432785,
        0.13326536118984222,
        -0.1364722102880478,
        0.3229082524776459,
        0.033551156520843506,
        -0.11742812395095825,
        0.3780629634857178,
        0.15154685080051422,
        -0.32839998602867126,
        0.17223013937473297,
        -0.10386940836906433,
        -0.09025658667087555,
        0.3844488263130188,
        -0.10349301993846893,
        -0.2446957677602768,
        0.012756974436342716,
        -0.1738179326057434,
        0.02038518339395523,
        -0.1362452358007431,
        0.3542786240577698,
        -0.16659238934516907,
        -0.23312826454639435,
        -0.05761351063847542,
        0.1315639764070511,
        0.3911091387271881,
        0.13978208601474762,
        0.07463359087705612,
        -0.2509009540081024,
        0.10612271726131439,
        0.020274393260478973,
        -0.05114606395363808,
        0.07974949479103088
      ],
      [
        -0.40083208680152893,
        0.21185533702373505,
        0.13540638983249664,
        0.1670827716588974,
        0.28536516427993774,
        0.21671463549137115,
        0.2441243827342987,
        -0.008123733103275299,
        -0.07100510597229004,
        -0.007783255074173212,
        0.3173058032989502,
        -0.37854406237602234,
        0.0026017611380666494,
        0.12035498768091202,
        0.0931059867143631,
        0.3428892195224762,
        0.21434585750102997,
        0.24047507345676422,
        -0.2275528460741043,
        0.21628545224666595,
        -0.1394919902086258,
        0.2612784504890442,
        0.14166143536567688,
        0.11357628554105759,
        0.22104696929454803,
        -0.11412691324949265,
        -0.05105939134955406,
        -0.09905476868152618,
        0.38886401057243347,
        0.08567646890878677,
        0.20977991819381714,
        0.22609789669513702
      ],
      [
        0.2159375250339508,
        0.058681588619947433,
        0.04665978252887726,
        0.050204213708639145,
        -0.12055044621229172,
        -0.3450625240802765,
        0.0633106678724289,
        0.09281768649816513,
        -0.21485470235347748,
        0.3244210183620453,
        -0.28364133834838867,
        -0.1147129163146019,
        0.3709622621536255,
        -0.006232160143554211,
        -0.25559812784194946,
        -0.3444351255893707,
        -0.18313704431056976,
        -0.246123805642128,
        0.20052570104599,
        0.18939195573329926,
        0.05989556014537811,
        -0.3032979965209961,
        -0.2577511668205261,
        0.00725129060447216,
        0.18200424313545227,
        0.21792659163475037,
        0.18532408773899078,
        -0.07668494433164597,
        -0.19999468326568604,
        -0.32170936465263367,
        -0.30357664823532104,
        0.2245693802833557
      ],
      [
        -0.08825274556875229,
        -0.10387319326400757,
        0.17589551210403442,
        -0.2155671864748001,
        0.3601527512073517,
        0.15011104941368103,
        -0.27235835790634155,
        -0.22272102534770966,
        0.03292489051818848,
        -0.3302695155143738,
        0.02808266133069992,
        0.07135163247585297,
        -0.22902211546897888,
        -0.024734415113925934,
        0.12371248006820679,
        0.2584155797958374,
        -0.049576304852962494,
        0.19729070365428925,
        0.16201670467853546,
        -0.32103726267814636,
        -0.034721896052360535,
        0.13005957007408142,
        0.30223357677459717,
        -0.057341597974300385,
        -0.07687962800264359,
        -0.2497190535068512,
        -0.3575276732444763,
        0.3818991184234619,
        0.2201889157295227,
        0.4260063171386719,
        0.2310539186000824,
        -0.26021891832351685
      ],
      [
        -0.0046208444982767105,
        0.26630765199661255,
        0.19612810015678406,
        -0.027083629742264748,
        0.1559438407421112,
        0.07656347751617432,
        0.23630930483341217,
        0.13029266893863678,
        -0.04732451215386391,
        0.1601881980895996,
        0.2669406831264496,
        -0.2740241587162018,
        0.20073094964027405,
        0.27564412355422974,
        -0.18450868129730225,
        0.257429301738739,
        0.2220454216003418,
        0.12449643760919571,
        -0.28071534633636475,
        0.12761956453323364,
        -0.35643428564071655,
        0.25066953897476196,
        0.3157097101211548,
        0.10976818948984146,
        0.27514612674713135,
        -0.21143202483654022,
        -0.02736392430961132,
        -0.1958353966474533,
        0.12662804126739502,
        0.2316272258758545,
        0.06916503608226776,
        0.11053018271923065
      ],
      [
        0.028293097391724586,
        0.359234094619751,
        0.03763038292527199,
        0.20938554406166077,
        -0.1823919266462326,
        -0.04275117442011833,
        0.2626991271972656,
        0.39722925424575806,
        -0.11419220268726349,
        0.1573924720287323,
        -0.05542482063174248,
        -0.07830406725406647,
        0.2008480727672577,
        0.111611008644104,
        -0.03177966922521591,
        -0.207755446434021,
        0.010689947754144669,
        -0.31544119119644165,
        -0.22499220073223114,
        0.3037455976009369,
        0.006804043892771006,
        -0.1220809668302536,
        0.06553030014038086,
        -0.0008455282659269869,
        0.09813316911458969,
        0.02527455799281597,
        0.12706612050533295,
        -0.19900813698768616,
        0.12936542928218842,
        -0.11747399717569351,
        -0.2124914675951004,
        0.24311338365077972
      ],
      [
        0.11115413904190063,
        0.23874518275260925,
        0.1544509381055832,
        0.23367531597614288,
        0.17345035076141357,
        0.1662001758813858,
        0.35723865032196045,
        0.15041100978851318,
        -0.3291530907154083,
        -0.04999249055981636,
        0.13299508392810822,
        -0.02596375346183777,
        0.03718062490224838,
        0.24138322472572327,
        -0.0262567400932312,
        0.042695678770542145,
        0.05854978784918785,
        -0.04384569823741913,
        0.08794131129980087,
        0.2282123565673828,
        0.02664594165980816,
        -0.16960486769676208,
        -0.05219567194581032,
        0.1342894583940506,
        0.43083444237709045,
        0.020337538793683052,
        0.038674525916576385,
        -0.3211575746536255,
        0.06811121106147766,
        -0.1192629337310791,
        -0.1456974595785141,
        0.1892499178647995
      ],
      [
        -0.2723156213760376,
        0.10133606195449829,
        -0.015850132331252098,
        -0.05335815250873566,
        0.335664838552475,
        -0.00524136982858181,
        0.019298182800412178,
        -0.19499826431274414,
        0.19805781543254852,
        -0.08532361686229706,
        0.04265352338552475,
        -0.14652961492538452,
        -0.086419016122818,
        0.09582024812698364,
        0.25325608253479004,
        0.35505402088165283,
        0.011990067549049854,
        0.1373683363199234,
        0.03816274181008339,
        -0.029308147728443146,
        -0.19664382934570312,
        0.17388717830181122,
        -0.003023639088496566,
        -0.010651440359652042,
        0.06824702769517899,
        -0.22902818024158478,
        -0.347112238407135,
        0.2105589210987091,
        0.27421820163726807,
        0.1310999095439911,
        0.1218680813908577,
        -0.32165664434432983
      ],
      [
        0.1178116500377655,
        0.1075207069516182,
        -0.008204057812690735,
        0.21657589077949524,
        -0.21046777069568634,
        -0.13304349780082703,
        0.10284335911273956,
        0.11979442089796066,
        -0.2568266689777374,
        0.012875686399638653,
        -0.19964300096035004,
        0.09273583441972733,
        0.27813297510147095,
        -0.0754421129822731,
        -0.1923884004354477,
        0.06803000718355179,
        -0.1834801733493805,
        -0.15710213780403137,
        -0.1138778030872345,
        0.20043723285198212,
        0.019141487777233124,
        -0.1962139755487442,
        0.07179334759712219,
        -0.12643148005008698,
        0.38038742542266846,
        -0.07245165854692459,
        0.11675294488668442,
        -0.21035556495189667,
        -0.1739765852689743,
        0.023012803867459297,
        -0.2780260145664215,
        0.2555389702320099
      ],
      [
        -0.3599832057952881,
        0.16011252999305725,
        0.34154725074768066,
        0.23340930044651031,
        0.14405088126659393,
        0.1652524471282959,
        0.27826884388923645,
        0.122203029692173,
        0.04195906221866608,
        -0.032721977680921555,
        0.14971177279949188,
        -0.32411324977874756,
        0.16315874457359314,
        0.21158702671527863,
        -0.2096398025751114,
        0.1955258995294571,
        0.1153206080198288,
        0.21805457770824432,
        -0.12548840045928955,
        0.012096649967133999,
        -0.1679866462945938,
        0.08106998354196548,
        0.24050554633140564,
        0.00903277937322855,
        0.14469513297080994,
        -0.027140159159898758,
        0.007875501178205013,
        0.02326151728630066,
        0.08109600096940994,
        0.11091011017560959,
        0.08006458729505539,
        0.1544981300830841
      ],
      [
        0.20872901380062103,
        0.026425382122397423,
        -0.05500686168670654,
        -0.1385437697172165,
        -0.1693463772535324,
        -0.24030296504497528,
        -0.06847807765007019,
        -0.2902715504169464,
        0.12065689265727997,
        0.04157106578350067,
        -0.1284039169549942,
        0.24281051754951477,
        -0.055633511394262314,
        -0.10631711781024933,
        -0.033686812967061996,
        -0.32015493512153625,
        -0.02424342930316925,
        -0.04162523150444031,
        0.2988632023334503,
        -0.17772118747234344,
        0.26596158742904663,
        -0.2959902882575989,
        -0.25774675607681274,
        -0.1049359142780304,
        -0.04934636130928993,
        0.23832201957702637,
        -0.03406123071908951,
        0.15540269017219543,
        -0.22551476955413818,
        -0.00542434910312295,
        0.03481729328632355,
        -0.06229418143630028
      ],
      [
        0.366227924823761,
        0.3457268178462982,
        -0.0425838828086853,
        0.1858823001384735,
        -0.06694568693637848,
        -0.1252492070198059,
        0.33973953127861023,
        0.16904675960540771,
        -0.11607711017131805,
        0.38296499848365784,
        -0.29974988102912903,
        0.11800971627235413,
        0.12633992731571198,
        -0.250405877828598,
        -0.3971443176269531,
        -0.17780141532421112,
        -0.2711762487888336,
        -0.2597883343696594,
        -0.04495389387011528,
        0.2813498377799988,
        -0.04073941707611084,
        -0.2595175504684448,
        -0.1825210303068161,
        -0.06942299753427505,
        0.023974090814590454,
        0.27424558997154236,
        0.11615556478500366,
        -0.3970567286014557,
        -0.25789985060691833,
        -0.3469795286655426,
        -0.11035927385091782,
        0.10988517850637436
      ],
      [
        -0.21505500376224518,
        0.1572893112897873,
        0.017767325043678284,
        0.16119641065597534,
        0.11608462780714035,
        -0.002008983865380287,
        -0.049283042550086975,
        0.03591565415263176,
        -0.09611532837152481,
        -0.13852068781852722,
        0.3006863594055176,
        -0.17291754484176636,
        0.1789603978395462,
        0.27566012740135193,
        0.22269029915332794,
        0.19049568474292755,
        0.26270344853401184,
        0.3271166980266571,
        -0.009277047589421272,
        -0.023811759427189827,
        -0.23982921242713928,
        -0.02311270497739315,
        0.18102878332138062,
        0.09687481075525284,
        0.19669906795024872,
        -0.19572223722934723,
        -0.052956994622945786,
        -0.1185319721698761,
        0.010455158539116383,
        0.27331000566482544,
        -0.07658251374959946,
        0.001071311067789793
      ],
      [
        -0.10661368817090988,
        -0.33169880509376526,
        0.14814616739749908,
        -0.11525724828243256,
        0.3087174594402313,
        0.13094507157802582,
        -0.19781774282455444,
        -0.09628982841968536,
        0.08973727375268936,
        -0.209782674908638,
        0.26467230916023254,
        -0.16656875610351562,
        -0.08320830017328262,
        0.09838307648897171,
        0.34127455949783325,
        0.1291630119085312,
        0.026426240801811218,
        0.3561400771141052,
        -0.24116608500480652,
        -0.17432209849357605,
        -0.09417440742254257,
        0.013182789087295532,
        0.08489979058504105,
        0.228745236992836,
        -0.03909137472510338,
        -0.26044225692749023,
        -0.12267651408910751,
        0.3187793791294098,
        0.28385916352272034,
        0.13667285442352295,
        0.40466272830963135,
        -0.15711326897144318
      ],
      [
        -0.17176136374473572,
        -0.08777472376823425,
        -0.2470218539237976,
        -0.19869418442249298,
        0.16416901350021362,
        0.10811027139425278,
        -0.16704334318637848,
        -0.09898850321769714,
        0.27485191822052,
        -0.372740238904953,
        0.013486498966813087,
        0.09685270488262177,
        -0.2761108875274658,
        -0.24188967049121857,
        0.42125916481018066,
        0.22708794474601746,
        -0.25815799832344055,
        0.0490678995847702,
        0.20111653208732605,
        -0.1951313614845276,
        0.17998795211315155,
        -0.2584867477416992,
        0.056186553090810776,
        0.060773879289627075,
        -0.09017281979322433,
        -0.1828548014163971,
        -0.2881762981414795,
        0.2792641520500183,
        0.3013119101524353,
        0.2526637017726898,
        0.19434629380702972,
        -0.1759949028491974
      ],
      [
        -0.2373252958059311,
        0.07347734272480011,
        0.025343408808112144,
        -0.001980328466743231,
        0.02516336366534233,
        0.3389425277709961,
        0.22825048863887787,
        -0.1893908977508545,
        -0.2380146086215973,
        -0.054898153990507126,
        0.1211138665676117,
        -0.25509244203567505,
        -0.20817838609218597,
        0.13631458580493927,
        0.11637472361326218,
        0.167815700173378,
        0.330001562833786,
        0.28985533118247986,
        -0.07723511010408401,
        -0.011998016387224197,
        -0.2879332900047302,
        0.21061140298843384,
        0.06489194184541702,
        0.27439990639686584,
        0.12045255303382874,
        -0.21147608757019043,
        -0.3075445890426636,
        0.16789881885051727,
        0.21707184612751007,
        0.26679691672325134,
        0.07706692814826965,
        0.03235207870602608
      ],
      [
        -0.2138887494802475,
        -0.08120083063840866,
        0.09392764419317245,
        0.09152079373598099,
        -0.09875181317329407,
        0.39474281668663025,
        0.12511195242404938,
        0.07749512791633606,
        0.09419234097003937,
        0.09100016206502914,
        0.2798364758491516,
        -0.00022632963373325765,
        -0.16887857019901276,
        0.10593204200267792,
        -0.07963602244853973,
        0.1774526983499527,
        0.27047526836395264,
        0.33130407333374023,
        -0.15499000251293182,
        -0.005205090157687664,
        -0.2791847884654999,
        0.26852667331695557,
        0.09419966489076614,
        0.05048173666000366,
        0.2550376355648041,
        -0.042936112731695175,
        -0.2056238204240799,
        -0.09709335118532181,
        -0.2595825791358948,
        -0.07605697959661484,
        -0.04324929788708687,
        0.1626926213502884
      ],
      [
        0.30623844265937805,
        -0.06414887309074402,
        -0.18993045389652252,
        0.07963819056749344,
        -0.030319808050990105,
        -0.018041476607322693,
        0.0225327517837286,
        -0.14940917491912842,
        0.1748971790075302,
        0.1377696990966797,
        -0.31579428911209106,
        0.2306486964225769,
        -0.052885934710502625,
        -0.27536290884017944,
        0.011023195460438728,
        -0.14022612571716309,
        -0.2059684544801712,
        -0.2688325345516205,
        0.23324288427829742,
        0.11279205232858658,
        0.1319570392370224,
        -0.27352002263069153,
        -0.19431139528751373,
        -0.30465608835220337,
        -0.3045831024646759,
        0.0705251470208168,
        0.23753070831298828,
        -0.113857202231884,
        -0.08043680340051651,
        -0.04499805346131325,
        -0.2698233723640442,
        -0.09228287637233734
      ],
      [
        0.0036461560521274805,
        0.14676742255687714,
        0.21548782289028168,
        0.26907476782798767,
        0.07656534761190414,
        0.10585255920886993,
        0.22028875350952148,
        0.2321084588766098,
        -0.29971906542778015,
        0.1620933562517166,
        0.14288021624088287,
        -0.24589312076568604,
        0.15339922904968262,
        -0.014069727621972561,
        -0.2793329656124115,
        0.02765713259577751,
        0.10144143551588058,
        -0.05194344371557236,
        -0.02257181704044342,
        0.04957376420497894,
        -0.19627611339092255,
        0.12191341072320938,
        -0.1300363391637802,
        0.16109178960323334,
        0.38590264320373535,
        0.08378119766712189,
        0.1291259527206421,
        -0.3196873962879181,
        0.011867991648614407,
        -0.14575889706611633,
        -0.12121161818504333,
        0.2788141071796417
      ],
      [
        0.1870618760585785,
        -0.28261464834213257,
        -0.3804040849208832,
        -0.0002945145242847502,
        -0.14065687358379364,
        -0.06695767492055893,
        -0.12843860685825348,
        -0.28222957253456116,
        0.163777694106102,
        0.17894211411476135,
        -0.13703224062919617,
        0.27313241362571716,
        -0.09662027657032013,
        -0.33634763956069946,
        0.1694105714559555,
        -0.3073729872703552,
        -0.1940806359052658,
        -0.2663232386112213,
        0.28482240438461304,
        -0.14485138654708862,
        0.10627645999193192,
        -0.30098289251327515,
        -0.08954891562461853,
        -0.20442990958690643,
        -0.10227314382791519,
        0.10997874289751053,
        0.3311142921447754,
        0.02277025766670704,
        -0.12871749699115753,
        0.0029864662792533636,
        -0.19576390087604523,
        -0.19396623969078064
      ],
      [
        -0.2470891922712326,
        -0.1414622813463211,
        0.14181816577911377,
        -0.12511980533599854,
        0.02451138198375702,
        0.3256462812423706,
        0.003923062700778246,
        -0.08601296693086624,
        0.13719359040260315,
        -0.33379626274108887,
        0.3101200759410858,
        0.06722012162208557,
        -0.047097936272621155,
        0.24772079288959503,
        0.24708902835845947,
        0.36521878838539124,
        0.18164561688899994,
        0.14518611133098602,
        -0.23671354353427887,
        -0.03643729165196419,
        -0.12213613837957382,
        0.33413785696029663,
        0.1388738602399826,
        0.20730885863304138,
        -0.06555980443954468,
        -0.24334369599819183,
        -0.09606055915355682,
        0.028187405318021774,
        0.3089304566383362,
        0.1853553205728531,
        0.09359413385391235,
        -0.051227446645498276
      ],
      [
        -0.22395484149456024,
        0.09831025451421738,
        0.18582062423229218,
        -0.13406126201152802,
        0.08716869354248047,
        0.2707984745502472,
        0.11402896046638489,
        -0.08741474151611328,
        -0.055525604635477066,
        -0.03365601599216461,
        0.16601458191871643,
        -0.38068869709968567,
        -0.1807631254196167,
        0.1909630298614502,
        0.08174394816160202,
        0.27494052052497864,
        0.25427383184432983,
        0.2605191767215729,
        -0.11539169400930405,
        -0.03500238433480263,
        -0.30881205201148987,
        0.3510706424713135,
        0.3421480357646942,
        0.2847413122653961,
        0.06760884076356888,
        -0.016089847311377525,
        -0.2560279071331024,
        0.11816450953483582,
        0.08390383422374725,
        0.07528138160705566,
        -0.05384970083832741,
        -0.05483273044228554
      ],
      [
        -0.11056356132030487,
        0.28483453392982483,
        0.15582868456840515,
        0.24264799058437347,
        0.11794757843017578,
        0.08091706782579422,
        0.0680103749036789,
        0.041653070598840714,
        -0.12424030900001526,
        -0.03283502906560898,
        0.09197716414928436,
        -0.2425236999988556,
        -0.3003832995891571,
        0.33863648772239685,
        0.09605876356363297,
        0.034183748066425323,
        0.20955242216587067,
        0.19545559585094452,
        -0.16110125184059143,
        0.051196109503507614,
        -0.10235724598169327,
        0.17037558555603027,
        0.14774541556835175,
        0.15339000523090363,
        0.1510513871908188,
        -0.029094642028212547,
        -0.19194276630878448,
        0.19840086996555328,
        0.2799628674983978,
        0.05971114709973335,
        0.14361360669136047,
        -0.039573196321725845
      ],
      [
        0.20989881455898285,
        0.2043999284505844,
        -0.04743091017007828,
        0.24881258606910706,
        -0.24316728115081787,
        -0.21220286190509796,
        0.10700970888137817,
        0.12259186059236526,
        -0.1627483367919922,
        0.16627874970436096,
        0.059700265526771545,
        -0.2641614079475403,
        0.22121670842170715,
        -0.21673648059368134,
        -0.18426217138767242,
        -0.0746370181441307,
        -0.22051548957824707,
        -0.033122554421424866,
        -0.10692708194255829,
        0.4286783039569855,
        -0.012061853893101215,
        -0.09688175469636917,
        0.03578769788146019,
        -0.020098289474844933,
        0.0940742939710617,
        0.18396615982055664,
        0.0030417076777666807,
        -0.11431219428777695,
        -0.20160658657550812,
        0.04512067884206772,
        -0.24173368513584137,
        0.1569182276725769
      ],
      [
        0.30472487211227417,
        0.13246260583400726,
        0.010040927678346634,
        0.3385464549064636,
        -0.046043723821640015,
        -0.34192508459091187,
        0.22159835696220398,
        0.13711759448051453,
        -0.17243795096874237,
        0.07697238028049469,
        -0.09737604856491089,
        -0.1304558664560318,
        0.12884482741355896,
        -0.2704707384109497,
        -0.1270219087600708,
        -0.25243791937828064,
        -0.026162343099713326,
        -0.13744616508483887,
        0.13007138669490814,
        0.19043998420238495,
        0.12357328832149506,
        -0.23525133728981018,
        -0.3201267123222351,
        0.03322292119264603,
        0.1297404170036316,
        0.28821268677711487,
        0.1509469896554947,
        -0.10511909425258636,
        -0.06043513864278793,
        -0.36495161056518555,
        -0.055113550275564194,
        0.21275410056114197
      ],
      [
        0.07032173126935959,
        0.3199516832828522,
        -0.06770433485507965,
        0.40468963980674744,
        -0.4125417172908783,
        -0.03528047353029251,
        0.3608076572418213,
        0.4184376895427704,
        -0.15049415826797485,
        0.1669386625289917,
        -0.047859568148851395,
        0.2377953976392746,
        0.18546205759048462,
        -0.17546823620796204,
        -0.11644738912582397,
        -0.09759023785591125,
        -0.06256058812141418,
        -0.07587141543626785,
        0.019303176552057266,
        0.2053707093000412,
        0.08327124267816544,
        -0.12255225330591202,
        -0.15720118582248688,
        -0.2727118730545044,
        0.09108860045671463,
        0.08499349653720856,
        0.07977423816919327,
        -0.09504836797714233,
        -0.334409236907959,
        -0.18000727891921997,
        -0.2767016291618347,
        0.21568630635738373
      ],
      [
        -0.15054206550121307,
        -0.10311449319124222,
        0.08459047973155975,
        -0.11168837547302246,
        0.3010062873363495,
        0.28546586632728577,
        -0.4064798355102539,
        -0.3081091642379761,
        0.11152445524930954,
        -0.2886130213737488,
        0.10203646868467331,
        -0.023025915026664734,
        -0.09384120255708694,
        0.17630444467067719,
        0.10762819647789001,
        0.06070501729846001,
        0.24420787394046783,
        0.15943554043769836,
        -0.03374861180782318,
        -0.28905484080314636,
        -0.12422913312911987,
        0.17674268782138824,
        0.024131188169121742,
        0.20324981212615967,
        -0.11343130469322205,
        -0.2686384618282318,
        -0.30698347091674805,
        0.2157478928565979,
        0.23322555422782898,
        0.16229259967803955,
        0.4003789722919464,
        -0.41951119899749756
      ],
      [
        -0.20748271048069,
        -0.3146757185459137,
        0.03677446022629738,
        -0.23046892881393433,
        0.10126762837171555,
        0.31279751658439636,
        -0.39332863688468933,
        -0.1017151027917862,
        0.1535763293504715,
        -0.29590848088264465,
        -0.08215419948101044,
        -0.09312058985233307,
        -0.40537476539611816,
        0.04502019286155701,
        0.19579289853572845,
        0.14696653187274933,
        -0.09440077841281891,
        0.0026080699171870947,
        0.03567171096801758,
        -0.05438975989818573,
        -0.06225249171257019,
        0.11517555266618729,
        0.08802801370620728,
        0.08179325610399246,
        -0.14685191214084625,
        5.915896690567024e-05,
        -0.3038460314273834,
        0.2153351604938507,
        0.23540182411670685,
        0.2982995808124542,
        0.2489461898803711,
        -0.13296546041965485
      ],
      [
        -0.23152673244476318,
        -0.059452857822179794,
        0.04918745160102844,
        -0.3437117636203766,
        0.06909457594156265,
        0.0784417912364006,
        -0.15254732966423035,
        -0.25173598527908325,
        0.16475075483322144,
        -0.26982608437538147,
        0.002865277696400881,
        0.013651147484779358,
        -0.27093183994293213,
        0.10926661640405655,
        0.38944438099861145,
        0.001661237794905901,
        0.15107151865959167,
        0.09849075227975845,
        -0.11656031012535095,
        -0.2808246314525604,
        -0.011282432824373245,
        0.10774903744459152,
        0.09924506396055222,
        -0.06947553157806396,
        -0.09377177804708481,
        -0.0726299062371254,
        -0.4256289303302765,
        0.22296380996704102,
        0.11276976019144058,
        0.09015467762947083,
        0.1483897566795349,
        -0.33717191219329834
      ],
      [
        0.014832559041678905,
        -0.24298685789108276,
        0.3018980324268341,
        -0.25272929668426514,
        0.16867540776729584,
        0.08051981776952744,
        -0.16418956220149994,
        -0.18949192762374878,
        0.20322103798389435,
        -0.3497956097126007,
        0.05733214318752289,
        0.006491824518889189,
        -0.2600560188293457,
        0.1695563793182373,
        0.3649258017539978,
        0.13476361334323883,
        0.0448213592171669,
        0.22620919346809387,
        -0.1765122264623642,
        -0.35607588291168213,
        -0.20849129557609558,
        0.08103886246681213,
        0.3373752534389496,
        0.15065167844295502,
        0.056245073676109314,
        -0.14779449999332428,
        -0.3534741699695587,
        0.39696431159973145,
        0.18616501986980438,
        0.1803545206785202,
        0.3689996600151062,
        -0.34565040469169617
      ],
      [
        0.0896189883351326,
        0.10264626890420914,
        0.07047475129365921,
        0.31123217940330505,
        -0.17857709527015686,
        0.07321081310510635,
        0.28632670640945435,
        0.12074989080429077,
        -0.07619098573923111,
        0.15475822985172272,
        0.0637458860874176,
        -0.18269911408424377,
        0.10629895329475403,
        -0.07851274311542511,
        -0.05209454894065857,
        0.017002377659082413,
        -0.12018315494060516,
        0.08471216261386871,
        0.07911480218172073,
        0.18054796755313873,
        0.07367104291915894,
        -0.14977183938026428,
        0.0162151250988245,
        0.20888715982437134,
        0.0899786427617073,
        -0.09283947199583054,
        0.0694434717297554,
        -0.16938595473766327,
        -0.12754428386688232,
        -0.1310579925775528,
        -0.08414347469806671,
        0.18758660554885864
      ]
    ],
    "rec_0_W_hh_bias": [
      0.1648164987564087,
      0.2889028489589691,
      -0.2065458446741104,
      0.08283005654811859,
      -0.0516815222799778,
      -0.08849676698446274,
      0.34493523836135864,
      0.4167032837867737,
      0.03572550788521767,
      0.07141540944576263,
      -0.10409758985042572,
      -0.2289360761642456,
      0.30545899271965027,
      0.04855288192629814,
      0.135081484913826,
      0.0895082950592041,
      -0.22375109791755676,
      -0.3918887674808502,
      0.049105945974588394,
      0.4559113681316376,
      -0.06678180396556854,
      -0.3526991605758667,
      -0.25914207100868225,
      0.0862693190574646,
      0.21774232387542725,
      0.05658314749598503,
      -0.020189756527543068,
      -0.05342574045062065,
      0.13908007740974426,
      -0.07164528965950012,
      0.011840852908790112,
      0.2761749029159546
    ],
    "rec_0_W_tau_weight": [
      [
        0.09014052152633667,
        -0.055342406034469604
      ],
      [
        0.22555772960186005,
        -0.28403887152671814
      ],
      [
        0.3203856945037842,
        -0.07123511284589767
      ],
      [
        -0.11789295077323914,
        -0.3689678907394409
      ],
      [
        -0.03724188730120659,
        -0.07012763619422913
      ],
      [
        0.31667569279670715,
        0.028266768902540207
      ],
      [
        0.10765520483255386,
        -0.3232761025428772
      ],
      [
        0.09326145797967911,
        -0.07829035073518753
      ],
      [
        -0.08449170738458633,
        -0.4002901315689087
      ],
      [
        -0.2408057004213333,
        -0.301809698343277
      ],
      [
        0.10113118588924408,
        0.007243072148412466
      ],
      [
        0.3467213809490204,
        0.06751520931720734
      ],
      [
        -0.3628304600715637,
        -0.41743865609169006
      ],
      [
        0.3245415687561035,
        0.027560623362660408
      ],
      [
        0.09437757730484009,
        -0.38948044180870056
      ],
      [
        0.033103279769420624,
        0.20330102741718292
      ],
      [
        0.1532503366470337,
        -0.013239923864603043
      ],
      [
        -0.17637783288955688,
        -0.12580037117004395
      ],
      [
        0.15564407408237457,
        -0.015780631452798843
      ],
      [
        0.32765626907348633,
        -0.07613974064588547
      ],
      [
        0.34935709834098816,
        -0.10716269165277481
      ],
      [
        -0.34048235416412354,
        0.1108810231089592
      ],
      [
        0.060219522565603256,
        0.23798123002052307
      ],
      [
        0.3902096152305603,
        -0.011872450821101665
      ],
      [
        -0.15997594594955444,
        -0.20613452792167664
      ],
      [
        0.18109072744846344,
        0.19462467730045319
      ],
      [
        -0.022117506712675095,
        -0.023414021357893944
      ],
      [
        -0.2595783472061157,
        -0.33702751994132996
      ],
      [
        0.18342432379722595,
        -0.1819780319929123
      ],
      [
        -0.07878439873456955,
        -0.34707632660865784
      ],
      [
        -0.01831364817917347,
        0.013930503278970718
      ],
      [
        0.24270835518836975,
        -0.1942143589258194
      ]
    ],
    "rec_0_W_tau_bias": [
      -0.28689131140708923,
      -0.34637051820755005,
      -0.348450243473053,
      -0.2905416190624237,
      -0.11704845726490021,
      -0.29898205399513245,
      -0.2689930200576782,
      -0.3824961185455322,
      -0.05698658898472786,
      -0.22434619069099426,
      -0.4729478657245636,
      -0.22606344521045685,
      -0.4228244423866272,
      -0.24900995194911957,
      -0.4304002523422241,
      -0.09279415011405945,
      -0.4142621159553528,
      -0.11577855795621872,
      -0.1276751309633255,
      -0.34834927320480347,
      -0.16259677708148956,
      0.03978894278407097,
      -0.3899233639240265,
      -0.2475687861442566,
      -0.1266419142484665,
      -0.09663843363523483,
      -0.15532530844211578,
      -0.4197509288787842,
      -0.3132908344268799,
      -0.31601542234420776,
      -0.36916056275367737,
      -0.2553049623966217
    ],
    "rec_0_W_tauh_weight": [
      [
        -0.154235377907753,
        -0.11475207656621933,
        -0.06335901468992233,
        -0.36961302161216736,
        -0.11842972785234451,
        -0.034966230392456055,
        -0.07688944786787033,
        -0.253374308347702,
        0.16961483657360077,
        -0.1821950376033783,
        -0.10058251023292542,
        0.013737357221543789,
        -0.1932050734758377,
        0.13945575058460236,
        0.2845720946788788,
        0.03326615318655968,
        -0.05386373773217201,
        0.010894202627241611,
        0.16982778906822205,
        -0.44439002871513367,
        0.01509135589003563,
        0.09084209054708481,
        0.23716601729393005,
        0.07083486020565033,
        -0.2571731209754944,
        -0.1338634490966797,
        -0.07704203575849533,
        0.1673954725265503,
        -0.05943969264626503,
        0.059450872242450714,
        0.16148683428764343,
        -0.3259309232234955
      ],
      [
        -0.26325303316116333,
        -0.19224821031093597,
        0.13945184648036957,
        0.12794356048107147,
        -0.18580909073352814,
        0.06002522632479668,
        -0.06251256912946701,
        -0.15892928838729858,
        -0.009164578281342983,
        0.18477997183799744,
        0.22493822872638702,
        0.026995467022061348,
        -0.06336843222379684,
        0.18664579093456268,
        -0.263470321893692,
        0.22392180562019348,
        0.36961618065834045,
        0.4352338910102844,
        -0.36928102374076843,
        -0.26467761397361755,
        -0.06075779348611832,
        0.17262694239616394,
        0.13136637210845947,
        0.2511098086833954,
        -0.21603186428546906,
        -0.12323932349681854,
        0.15318991243839264,
        0.09142902493476868,
        -0.17114031314849854,
        -0.27393731474876404,
        -0.02939588576555252,
        0.04277411475777626
      ],
      [
        -0.014073934406042099,
        -0.0703837126493454,
        -0.205417200922966,
        0.048154424875974655,
        -0.13193348050117493,
        -0.04056181013584137,
        0.057124536484479904,
        -0.21019551157951355,
        -0.19377288222312927,
        0.2920207977294922,
        -0.13125504553318024,
        0.06107698753476143,
        0.10805089771747589,
        0.07283543795347214,
        -0.3815443217754364,
        -0.32269448041915894,
        0.04535245895385742,
        -0.1897047758102417,
        0.1920272558927536,
        -0.20507138967514038,
        0.06835751980543137,
        -0.11631784588098526,
        0.04040056839585304,
        0.014923234470188618,
        -0.03408798202872276,
        0.17267420887947083,
        0.12115632742643356,
        -0.27907702326774597,
        -0.2782557010650635,
        -0.14941054582595825,
        -0.2180878072977066,
        0.053524620831012726
      ],
      [
        -0.23807702958583832,
        0.1384124457836151,
        0.15386372804641724,
        0.08043136447668076,
        0.03786560520529747,
        0.2940016984939575,
        0.18046684563159943,
        0.14440691471099854,
        0.09775450080633163,
        0.022907352074980736,
        0.21274355053901672,
        -0.39071646332740784,
        -0.2955568730831146,
        0.351166307926178,
        0.09268850088119507,
        0.12653829157352448,
        0.3118641972541809,
        0.20652200281620026,
        -0.11428912729024887,
        0.009589841589331627,
        -0.1246807724237442,
        0.3590114414691925,
        0.3660360276699066,
        0.38726872205734253,
        0.24906526505947113,
        -0.2058650702238083,
        -0.35944586992263794,
        0.0360606424510479,
        0.030130838975310326,
        0.1343216896057129,
        0.07467522472143173,
        0.14390034973621368
      ],
      [
        -0.12066718190908432,
        0.0675702840089798,
        0.31059029698371887,
        -0.10183592885732651,
        0.15232877433300018,
        0.18817313015460968,
        0.1664162129163742,
        -0.042163167148828506,
        -0.0014689904637634754,
        -0.18999835848808289,
        0.3701014518737793,
        -0.11798304319381714,
        -0.0961574837565422,
        0.10018626600503922,
        -0.2612859010696411,
        0.13441120088100433,
        0.013984343968331814,
        0.2829136252403259,
        -0.12654007971286774,
        -0.20163539052009583,
        -0.03687433898448944,
        0.30914685130119324,
        0.09683012962341309,
        -0.019279392436146736,
        0.21047863364219666,
        -0.2473321259021759,
        -0.1516958773136139,
        0.14526334404945374,
        -0.15751926600933075,
        -0.20658372342586517,
        0.12162573635578156,
        -0.17501765489578247
      ],
      [
        0.06448135524988174,
        -0.2614800035953522,
        -0.09972920268774033,
        0.09700195491313934,
        -0.17989440262317657,
        -0.1512010544538498,
        -0.02188081294298172,
        0.081339992582798,
        -0.06998784840106964,
        -0.0013942597433924675,
        -0.10316404700279236,
        0.20861616730690002,
        0.024469440802931786,
        -0.30558475852012634,
        -0.1894238293170929,
        -0.009850294329226017,
        -0.2965012788772583,
        -0.21756090223789215,
        0.0805741548538208,
        -0.26786354184150696,
        0.03295642137527466,
        0.012830698862671852,
        -0.009098012000322342,
        -0.2796097695827484,
        -0.1345740556716919,
        0.033295050263404846,
        0.2561287581920624,
        -0.30765625834465027,
        -0.27331414818763733,
        -0.25849899649620056,
        -0.14784802496433258,
        0.024889295920729637
      ],
      [
        -0.36143434047698975,
        0.09439382702112198,
        0.424392968416214,
        0.03800787031650543,
        0.19723555445671082,
        0.20052708685398102,
        0.05685001239180565,
        0.16724473237991333,
        0.027198750525712967,
        -0.09984786808490753,
        0.4631164073944092,
        -0.13188722729682922,
        -0.05253516510128975,
        0.42205163836479187,
        -0.01683923415839672,
        0.3421097695827484,
        0.11928681284189224,
        0.4473216235637665,
        -0.0801122859120369,
        -0.17690956592559814,
        -0.4379715025424957,
        0.2222491204738617,
        0.1833486407995224,
        0.2873894274234772,
        0.13253659009933472,
        -0.25848472118377686,
        0.009130509570240974,
        0.034464724361896515,
        -0.017223170027136803,
        -0.11954743415117264,
        0.05407198518514633,
        -0.1543729156255722
      ],
      [
        0.10084988176822662,
        0.15884973108768463,
        -0.027719048783183098,
        0.2284865379333496,
        -0.22283518314361572,
        0.06171135604381561,
        0.26128074526786804,
        -0.06232767179608345,
        -0.31273484230041504,
        0.13805019855499268,
        -0.16948406398296356,
        0.04775970056653023,
        0.0652545765042305,
        -0.08559619635343552,
        -0.18130627274513245,
        -0.19657200574874878,
        -0.017297839745879173,
        -0.19074136018753052,
        -0.019311362877488136,
        0.14215822517871857,
        0.11598186939954758,
        0.06445462256669998,
        0.07588016986846924,
        -0.1473960131406784,
        0.3244848847389221,
        0.16999943554401398,
        0.10963930189609528,
        -0.06370638310909271,
        -0.28949278593063354,
        -0.09908406436443329,
        -0.2970767617225647,
        0.25520044565200806
      ],
      [
        -0.02883213572204113,
        0.2785314619541168,
        0.3987768292427063,
        0.05090999975800514,
        0.00493596913293004,
        0.24954389035701752,
        0.3121439516544342,
        0.02618521638214588,
        -0.07802994549274445,
        -0.030227085575461388,
        0.11493875086307526,
        -0.21793636679649353,
        -0.0988243818283081,
        0.08450081199407578,
        -0.04937088489532471,
        0.19283270835876465,
        0.3384108245372772,
        0.21446283161640167,
        -0.3989580571651459,
        -0.0198721494525671,
        -0.09371472895145416,
        0.12390333414077759,
        0.29027387499809265,
        0.3971785306930542,
        0.31363925337791443,
        -0.2569807469844818,
        -0.1336703896522522,
        -0.2021351158618927,
        0.09001079946756363,
        -0.16311651468276978,
        -0.12446854263544083,
        -0.0034154027234762907
      ],
      [
        -0.1360359936952591,
        0.335874080657959,
        0.3976577818393707,
        0.33026784658432007,
        -0.03421315550804138,
        0.195614293217659,
        0.11258791387081146,
        0.2900264263153076,
        -0.13353170454502106,
        0.12875674664974213,
        0.13912741839885712,
        -0.2435310035943985,
        0.07325885444879532,
        0.23685094714164734,
        -0.1565679907798767,
        0.19417673349380493,
        0.12228069454431534,
        0.43656742572784424,
        -0.3401466906070709,
        0.28177332878112793,
        -0.16111615300178528,
        0.35598471760749817,
        0.40649673342704773,
        0.3616069555282593,
        0.33804428577423096,
        -0.17320919036865234,
        -0.011828833259642124,
        -0.2561538517475128,
        -0.12742309272289276,
        0.053410351276397705,
        0.05318145453929901,
        0.2152225375175476
      ],
      [
        -0.31427857279777527,
        0.14959700405597687,
        0.28985103964805603,
        0.07628987729549408,
        -0.10817639529705048,
        0.25182926654815674,
        -0.0776049941778183,
        0.05762626603245735,
        -0.1904161125421524,
        0.1170308068394661,
        0.26749780774116516,
        0.04232558235526085,
        0.05336941406130791,
        0.2747132480144501,
        -0.3726295828819275,
        -0.00843868963420391,
        0.14646278321743011,
        0.07933353632688522,
        -0.11664702743291855,
        0.11038369685411453,
        -0.17800693213939667,
        0.2625140845775604,
        0.25781163573265076,
        0.30588850378990173,
        0.09043654799461365,
        -0.01965365931391716,
        0.035830240696668625,
        -0.07576455175876617,
        -0.35723912715911865,
        -0.2411726713180542,
        -0.28141921758651733,
        -0.046081967651844025
      ],
      [
        -0.03427840396761894,
        0.12642107903957367,
        -0.17558355629444122,
        0.15459640324115753,
        -0.21449148654937744,
        0.0119567746296525,
        0.11637962609529495,
        -0.1276465654373169,
        -0.007577717304229736,
        0.13060280680656433,
        -0.09864301979541779,
        0.2514161169528961,
        0.39976873993873596,
        -0.12346646934747696,
        -0.4228180944919586,
        -0.12233752757310867,
        0.059254929423332214,
        -0.19097024202346802,
        0.044042568653821945,
        -0.14502809941768646,
        0.14761431515216827,
        -0.040062032639980316,
        -0.01742449402809143,
        -0.14585569500923157,
        -0.11476309597492218,
        0.11065438389778137,
        0.11138202995061874,
        -0.2642170190811157,
        -0.18932096660137177,
        -0.4233982264995575,
        -0.23758257925510406,
        -0.17032331228256226
      ],
      [
        -0.3946390748023987,
        0.09378578513860703,
        0.20441992580890656,
        -0.06211521476507187,
        0.2853061854839325,
        0.36900657415390015,
        0.30923929810523987,
        0.2984618544578552,
        -0.07473624497652054,
        -0.12671758234500885,
        0.3913763761520386,
        -0.37266895174980164,
        -0.00925848726183176,
        0.09018682688474655,
        -0.022642021998763084,
        0.2849685251712799,
        0.19582058489322662,
        0.2995092272758484,
        -0.11584336310625076,
        -0.049353256821632385,
        -0.0997735932469368,
        0.1911824345588684,
        0.18042412400245667,
        0.24587561190128326,
        0.174692764878273,
        -0.3312564492225647,
        -0.2564098536968231,
        0.25043851137161255,
        0.1264863759279251,
        0.05347919091582298,
        0.20068234205245972,
        0.22125409543514252
      ],
      [
        0.20090678334236145,
        -0.13846300542354584,
        -0.07652685046195984,
        -0.052331555634737015,
        -0.28995609283447266,
        0.003817738965153694,
        0.0522945374250412,
        -0.14862404763698578,
        0.059041935950517654,
        0.1546018421649933,
        -0.10710322856903076,
        0.3023090064525604,
        0.1378611922264099,
        -0.21021668612957,
        -0.08838173002004623,
        -0.23531650006771088,
        -0.1605544239282608,
        -0.21577052772045135,
        0.28565680980682373,
        0.016908494755625725,
        0.09707532823085785,
        -0.1149732694029808,
        -0.14236456155776978,
        -0.2312781661748886,
        -0.08063450455665588,
        0.05093866214156151,
        0.18990224599838257,
        -0.12291856110095978,
        -0.25538113713264465,
        -0.01520492136478424,
        -0.12573491036891937,
        0.04681877791881561
      ],
      [
        -0.1530146449804306,
        0.11295080184936523,
        0.31642475724220276,
        0.19988210499286652,
        -0.15824826061725616,
        -5.748352486989461e-05,
        -0.05972244590520859,
        0.09641271829605103,
        -0.014154117554426193,
        0.18446841835975647,
        0.13948895037174225,
        -0.12124557048082352,
        0.21569058299064636,
        0.3276943862438202,
        -0.07656852900981903,
        0.09296152740716934,
        0.17709647119045258,
        0.20109322667121887,
        -0.22342117130756378,
        -0.3741523325443268,
        -0.26743337512016296,
        0.20533840358257294,
        0.011417464353144169,
        0.3771090507507324,
        0.09897720068693161,
        -0.011868344619870186,
        0.1127530038356781,
        -0.10474156588315964,
        -0.1304825395345688,
        -0.13497032225131989,
        -0.19671939313411713,
        -0.08785058557987213
      ],
      [
        0.32440730929374695,
        -0.1344659924507141,
        -0.2592529058456421,
        0.09379427134990692,
        -0.3449316620826721,
        -0.1382552832365036,
        0.0029651855584234,
        -0.14279481768608093,
        -0.037817712873220444,
        -0.014621253125369549,
        -0.17672693729400635,
        0.2764722406864166,
        0.00972900539636612,
        -0.24748249351978302,
        -0.06798964738845825,
        -0.14142858982086182,
        -0.0858323946595192,
        -0.3278743624687195,
        0.2836872637271881,
        -0.2106911987066269,
        0.20489326119422913,
        -0.024585340172052383,
        -0.3293866217136383,
        -0.11929951608181,
        -0.29776376485824585,
        0.29463157057762146,
        0.21490433812141418,
        -0.09271810203790665,
        -0.2453790009021759,
        -0.11659382283687592,
        -0.24355728924274445,
        -0.1239248737692833
      ],
      [
        0.21926762163639069,
        -0.07406076788902283,
        -0.02947993203997612,
        0.174102783203125,
        -0.19150172173976898,
        -0.063138447701931,
        0.2374495416879654,
        0.04353925585746765,
        -0.09755835682153702,
        0.3551037907600403,
        -0.08815306425094604,
        0.15556082129478455,
        0.29797905683517456,
        0.07590834051370621,
        -0.317058801651001,
        -0.059037234634160995,
        -0.09274717420339584,
        0.049602847546339035,
        0.031291812658309937,
        0.10773802548646927,
        -0.13899588584899902,
        0.07591739296913147,
        -0.1320810168981552,
        0.06398577243089676,
        0.12007096409797668,
        0.040169548243284225,
        0.2087661474943161,
        -0.1595776528120041,
        -0.17389681935310364,
        -0.08640489727258682,
        -0.12816248834133148,
        0.1075574979186058
      ],
      [
        -0.14704066514968872,
        -0.2527351677417755,
        0.35612958669662476,
        -0.12593615055084229,
        0.2716395854949951,
        0.26997777819633484,
        -0.06182463839650154,
        -0.01797860488295555,
        -0.025784965604543686,
        -0.11995753645896912,
        0.29457077383995056,
        -0.24554061889648438,
        -0.1761075109243393,
        0.03885791823267937,
        0.11079566180706024,
        0.26857173442840576,
        0.35430046916007996,
        0.0910944789648056,
        -0.18492315709590912,
        -0.16073082387447357,
        -0.08174405992031097,
        0.10131324082612991,
        0.19639573991298676,
        0.11224569380283356,
        -0.0421275720000267,
        -0.19470341503620148,
        -0.36943936347961426,
        0.36516040563583374,
        0.0737718790769577,
        0.22737595438957214,
        0.08658869564533234,
        -0.18622151017189026
      ],
      [
        0.016627579927444458,
        0.2273654192686081,
        0.09224968403577805,
        0.32233455777168274,
        -0.30115821957588196,
        0.0007474320009350777,
        -0.0019655574578791857,
        0.087003193795681,
        -0.20949123799800873,
        0.08950747549533844,
        -0.2569151222705841,
        -0.06843744218349457,
        0.23156243562698364,
        -0.13989247381687164,
        -0.32221779227256775,
        -0.08447984606027603,
        -0.12608174979686737,
        -0.04399218410253525,
        0.03564063832163811,
        0.05163418874144554,
        0.13381876051425934,
        0.04877353087067604,
        -0.07097823917865753,
        -0.13003741204738617,
        0.27536526322364807,
        0.21485711634159088,
        0.10260878503322601,
        -0.14802275598049164,
        -0.2742776572704315,
        -0.3602593243122101,
        -0.16120262444019318,
        0.010623956099152565
      ],
      [
        -0.13064169883728027,
        0.11934894323348999,
        0.10845188051462173,
        0.12987585365772247,
        -0.23059962689876556,
        0.30114272236824036,
        0.08887287229299545,
        0.1594545841217041,
        -0.3230575621128082,
        0.24347692728042603,
        0.13972148299217224,
        -0.3282325565814972,
        0.2991027534008026,
        0.02084992080926895,
        -0.08650971204042435,
        -0.14669691026210785,
        0.1891438215970993,
        0.11543907970190048,
        -0.13720543682575226,
        0.3726847469806671,
        -0.314282089471817,
        0.1600668877363205,
        0.30399250984191895,
        0.1681699901819229,
        0.042019445449113846,
        0.07148850709199905,
        0.2619105577468872,
        -0.27581587433815,
        -0.37492266297340393,
        -0.31492698192596436,
        -0.16392913460731506,
        0.3609486222267151
      ],
      [
        0.24452006816864014,
        -0.03403102979063988,
        0.045917171984910965,
        -0.018147213384509087,
        -0.12715217471122742,
        0.08391916006803513,
        0.1198810338973999,
        -0.06461473554372787,
        0.009320355020463467,
        0.09311198443174362,
        -0.09727686643600464,
        0.03160631284117699,
        0.02011466585099697,
        -0.14610280096530914,
        -0.394558846950531,
        -0.16711965203285217,
        -0.045238323509693146,
        0.049862124025821686,
        -0.00727996788918972,
        0.08866138011217117,
        0.06141301244497299,
        0.15110376477241516,
        0.0804886519908905,
        -0.21497468650341034,
        -0.09702350944280624,
        0.2863364517688751,
        0.38090941309928894,
        -0.3358217775821686,
        -0.24662791192531586,
        -0.3098362982273102,
        -0.0377054437994957,
        0.14311595261096954
      ],
      [
        0.05942544713616371,
        -0.10638269782066345,
        -0.07551773637533188,
        -0.033434294164180756,
        0.1137763187289238,
        0.13228893280029297,
        -0.25876787304878235,
        -0.3348681628704071,
        0.09208979457616806,
        -0.17039035260677338,
        -0.022335989400744438,
        0.03293842077255249,
        -0.2562814950942993,
        -0.0639391615986824,
        0.13023467361927032,
        0.0678616389632225,
        -0.21184341609477997,
        0.04217042773962021,
        -0.0551723875105381,
        -0.4199802875518799,
        0.05892388895153999,
        0.15362444519996643,
        0.15467987954616547,
        -0.0520937442779541,
        -0.1136026382446289,
        -0.03814396634697914,
        -0.12134074419736862,
        0.35181888937950134,
        0.06599248200654984,
        0.1347498595714569,
        0.2507036030292511,
        -0.20597967505455017
      ],
      [
        -0.09320477396249771,
        -0.4015340805053711,
        0.07787182182073593,
        -0.2737230360507965,
        -0.05467730760574341,
        -0.22320568561553955,
        -0.12452779710292816,
        -0.3278175890445709,
        0.35227224230766296,
        -0.08789611607789993,
        -0.05982684716582298,
        0.21387259662151337,
        -0.2670389413833618,
        -0.1303529143333435,
        0.2199297696352005,
        -0.19338218867778778,
        0.029533764347434044,
        -0.035194121301174164,
        0.013943464495241642,
        -0.1431429386138916,
        0.09693481028079987,
        -0.13799716532230377,
        0.12223739176988602,
        -0.1928342878818512,
        -0.1321565955877304,
        0.026191120967268944,
        0.17665202915668488,
        0.369341105222702,
        -0.0932924672961235,
        0.04776977375149727,
        -0.037382181733846664,
        -0.34909912943840027
      ],
      [
        0.1980416625738144,
        0.26505255699157715,
        0.026166100054979324,
        0.3330563008785248,
        -0.24170726537704468,
        -0.16685499250888824,
        0.05339452251791954,
        0.323392391204834,
        -0.24270038306713104,
        0.38646674156188965,
        -0.2211398035287857,
        -0.019437119364738464,
        0.08074844628572464,
        0.09546787291765213,
        -0.13311178982257843,
        -0.1850711554288864,
        -0.01771564409136772,
        -0.20532159507274628,
        -0.135817751288414,
        0.02148124761879444,
        0.1412787139415741,
        -0.05238010361790657,
        0.035910993814468384,
        0.1632968634366989,
        0.18600481748580933,
        0.06059407442808151,
        0.23688028752803802,
        -0.25904926657676697,
        -0.1538683921098709,
        -0.2860329747200012,
        -0.2425888031721115,
        0.34179285168647766
      ],
      [
        -0.2032654881477356,
        0.2437017858028412,
        0.19619135558605194,
        0.21684503555297852,
        0.10567201673984528,
        0.23569361865520477,
        0.19029021263122559,
        0.08382336795330048,
        -0.11592838168144226,
        0.0892396941781044,
        0.07763535529375076,
        -0.3271785378456116,
        0.11719299107789993,
        0.2428269237279892,
        -0.08991765975952148,
        0.1257767379283905,
        0.1801450103521347,
        0.3946928083896637,
        -0.262764573097229,
        0.1072014644742012,
        -0.17366397380828857,
        0.1114988848567009,
        0.217579185962677,
        0.2525978088378906,
        0.0925334021449089,
        -0.042704302817583084,
        -0.3466883599758148,
        -0.08869466185569763,
        -0.0721074566245079,
        0.19946745038032532,
        0.24670539796352386,
        0.06725390255451202
      ],
      [
        0.10317257791757584,
        -0.20967482030391693,
        0.09357672929763794,
        -0.13687102496623993,
        -0.16259054839611053,
        0.07561299204826355,
        -0.2503747344017029,
        -0.2505696713924408,
        0.26345202326774597,
        0.026662727817893028,
        -0.01804530993103981,
        -0.05172009766101837,
        -0.3144233524799347,
        0.07439814507961273,
        0.09267105907201767,
        -0.14690282940864563,
        -0.20516563951969147,
        -0.10411573201417923,
        -0.017105819657444954,
        -0.17529574036598206,
        0.14950715005397797,
        0.1676032692193985,
        0.06314275413751602,
        -0.09996417909860611,
        -0.15217413008213043,
        0.179605633020401,
        -0.14067918062210083,
        0.3636922240257263,
        -0.20065747201442719,
        0.1727292686700821,
        -0.09992217272520065,
        -0.1810719072818756
      ],
      [
        -0.08168748766183853,
        -0.023227674886584282,
        0.1578350067138672,
        -0.02991482987999916,
        -0.06412529945373535,
        0.1312829554080963,
        -0.22947625815868378,
        -0.23361819982528687,
        -0.32542839646339417,
        0.026318471878767014,
        0.006815345026552677,
        0.00635466119274497,
        -0.03800797089934349,
        0.052012648433446884,
        -0.13252060115337372,
        -0.0491810068488121,
        0.013475200161337852,
        0.11974896490573883,
        -0.20274801552295685,
        -0.2353167086839676,
        -0.2546156644821167,
        0.22531472146511078,
        -0.03759334608912468,
        0.11614033579826355,
        -0.017730850726366043,
        -0.07263626903295517,
        -0.016193833202123642,
        -0.12842807173728943,
        -0.18960042297840118,
        -0.11145269870758057,
        -0.20113329589366913,
        -0.037377625703811646
      ],
      [
        -0.21033039689064026,
        0.04223000630736351,
        0.26642027497291565,
        0.0286395326256752,
        0.1739211082458496,
        0.31060826778411865,
        0.16294452548027039,
        0.09102120995521545,
        -0.006579937878996134,
        -0.052078936249017715,
        0.22202402353286743,
        -0.21029864251613617,
        0.12181781977415085,
        0.4457176625728607,
        -0.16839440166950226,
        0.3236912786960602,
        0.12444422394037247,
        0.24741685390472412,
        -0.33501026034355164,
        0.18390832841396332,
        -0.3984614610671997,
        0.3175962269306183,
        0.37063515186309814,
        0.41618460416793823,
        0.17395982146263123,
        -0.11466573923826218,
        -0.29069995880126953,
        -0.07047851383686066,
        -0.020131981000304222,
        -0.0021667908877134323,
        0.10721106082201004,
        0.032862383872270584
      ],
      [
        0.06596103310585022,
        -0.0338100902736187,
        -0.01512965839356184,
        0.20371073484420776,
        -0.23886120319366455,
        -0.12767566740512848,
        0.0009141021873801947,
        0.06840871274471283,
        -0.18889778852462769,
        0.011006697081029415,
        0.052815813571214676,
        -0.21589453518390656,
        -0.01214501354843378,
        -0.0356881357729435,
        -0.3368801474571228,
        0.05886070802807808,
        0.03859930858016014,
        0.04910522326827049,
        -0.2538074851036072,
        -0.10661876946687698,
        -0.11195608973503113,
        0.010558987967669964,
        0.18142224848270416,
        0.22247228026390076,
        -0.017734631896018982,
        0.12380123138427734,
        0.06547118723392487,
        -0.1460885852575302,
        -0.018747368827462196,
        -0.11837376654148102,
        0.06640739738941193,
        0.08915119618177414
      ],
      [
        -0.3582179546356201,
        -0.10001761466264725,
        0.07817859202623367,
        0.026514733210206032,
        0.05194781720638275,
        0.09467095881700516,
        -0.11773783713579178,
        -0.30309706926345825,
        -0.13544701039791107,
        -0.022648382931947708,
        0.3359218239784241,
        -0.06450500339269638,
        -0.21260711550712585,
        0.16980038583278656,
        0.07533608376979828,
        0.21795150637626648,
        0.12788093090057373,
        0.2828291654586792,
        -0.3613862097263336,
        -0.1782807856798172,
        -0.09152968227863312,
        0.29436495900154114,
        0.37758147716522217,
        0.1052456647157669,
        0.0057099261321127415,
        -0.31714946031570435,
        -0.2416183054447174,
        0.057889342308044434,
        0.019289128482341766,
        -0.0012580935144796968,
        0.11779569834470749,
        -0.14242945611476898
      ],
      [
        -0.229325070977211,
        -0.3979719281196594,
        0.3083253502845764,
        -0.11460210382938385,
        0.05295466631650925,
        0.2123541533946991,
        -0.13097694516181946,
        -0.40063437819480896,
        0.07366442680358887,
        -0.12896829843521118,
        0.16109149158000946,
        -0.002181479474529624,
        -0.3322794437408447,
        0.1952069252729416,
        0.3084180951118469,
        0.1163787841796875,
        0.08887922018766403,
        0.031300973147153854,
        -0.1412595510482788,
        -0.17003121972084045,
        -0.30923107266426086,
        0.1687774360179901,
        0.31338053941726685,
        0.05028603971004486,
        -0.3054448664188385,
        -0.19014953076839447,
        -0.26184889674186707,
        0.28311359882354736,
        -0.04050934314727783,
        0.17977023124694824,
        0.16122819483280182,
        -0.2879144549369812
      ],
      [
        -0.05807959660887718,
        0.27851149439811707,
        0.22078636288642883,
        0.016991587355732918,
        -0.2539753019809723,
        -0.052443429827690125,
        0.09450562298297882,
        0.31824928522109985,
        -0.3174585700035095,
        0.04785549268126488,
        -0.03369968757033348,
        -0.41782644391059875,
        0.15469178557395935,
        0.22096134722232819,
        -0.16778787970542908,
        0.02439366653561592,
        0.30408141016960144,
        0.33255815505981445,
        -0.3033043146133423,
        0.25343137979507446,
        -0.3139376938343048,
        0.49410298466682434,
        0.38256415724754333,
        0.40469837188720703,
        0.30448663234710693,
        -0.10140267759561539,
        0.008445927873253822,
        -0.07989327609539032,
        -0.08218300342559814,
        0.015914801508188248,
        -0.16735652089118958,
        0.11572901904582977
      ]
    ],
    "rec_0_A": [
      0.6993406414985657,
      0.7213693857192993,
      0.7034133076667786,
      0.8621477484703064,
      0.7142682671546936,
      0.6810474991798401,
      0.7393661141395569,
      0.8049114942550659,
      0.978503942489624,
      0.962655246257782,
      0.7292210459709167,
      0.6907461881637573,
      0.7401454448699951,
      0.6451352834701538,
      0.6883667707443237,
      0.732197105884552,
      0.7047350406646729,
      0.831265389919281,
      0.7641472220420837,
      0.7871050834655762,
      0.6753916144371033,
      0.898545503616333,
      0.658023476600647,
      0.6814025640487671,
      0.9037903547286987,
      0.728163480758667,
      0.7025569677352905,
      0.7245635986328125,
      0.8104090690612793,
      0.8291419148445129,
      0.7390261292457581,
      0.7608951330184937
    ],
    "dense_0_weight": [
      [
        0.014024329371750355,
        0.08432944864034653,
        0.2657662034034729,
        -0.02064768224954605,
        0.06413628906011581,
        0.12222647666931152,
        0.17168328166007996,
        -0.06899285316467285,
        -0.11838381737470627,
        0.18736492097377777,
        0.14948245882987976,
        0.026016483083367348,
        0.0035698695573955774,
        -0.013158116489648819,
        -0.14042551815509796,
        0.0028456912841647863,
        -0.032620567828416824,
        0.18951930105686188,
        -0.04920085892081261,
        -0.028811533004045486,
        0.05698557570576668,
        0.14878664910793304,
        0.17261232435703278,
        0.022056998685002327,
        0.1960858851671219,
        -0.23110687732696533,
        0.1713608056306839,
        -0.1483764499425888,
        0.2181198000907898,
        -0.0652339980006218,
        0.04884570837020874,
        -0.0698336586356163
      ],
      [
        -0.09736649692058563,
        -0.3074116110801697,
        -0.3946854770183563,
        -0.3460964262485504,
        0.2109077274799347,
        -0.12570779025554657,
        -0.13731767237186432,
        -0.2948873043060303,
        0.4361726939678192,
        -0.34925535321235657,
        -0.21133044362068176,
        0.26846686005592346,
        -0.28901246190071106,
        -0.22762054204940796,
        0.4272085726261139,
        0.2087632566690445,
        -0.44214025139808655,
        -0.33996450901031494,
        0.2539616823196411,
        -0.4428296387195587,
        0.35736283659935,
        -0.11090686917304993,
        -0.23103275895118713,
        -0.29045388102531433,
        -0.298333078622818,
        -0.18441227078437805,
        -0.28590235114097595,
        0.41741204261779785,
        0.17464245855808258,
        0.2973226308822632,
        0.11187982559204102,
        -0.31169500946998596
      ],
      [
        -0.07290024310350418,
        -0.021863508969545364,
        0.1512574404478073,
        -0.3135899007320404,
        -0.006400458514690399,
        0.21959690749645233,
        0.24803180992603302,
        0.22735291719436646,
        0.040520552545785904,
        -0.12327519059181213,
        0.03930698335170746,
        -0.2141403704881668,
        0.031033871695399284,
        -0.02680254355072975,
        0.22969718277454376,
        0.13328944146633148,
        0.0680236965417862,
        0.21857140958309174,
        -0.0184286180883646,
        0.2169933170080185,
        -0.24644605815410614,
        0.058505184948444366,
        0.15273775160312653,
        0.26875507831573486,
        -0.051865894347429276,
        -0.15970319509506226,
        -0.29174694418907166,
        0.18979349732398987,
        0.23226596415042877,
        0.1723516285419464,
        -0.014772455208003521,
        0.33123666048049927
      ],
      [
        -0.25333264470100403,
        0.30067384243011475,
        0.3025885820388794,
        -0.2172892987728119,
        0.2384602576494217,
        0.2720547318458557,
        0.07860338687896729,
        0.29510408639907837,
        0.19721101224422455,
        -0.014812646433711052,
        0.19492249190807343,
        -0.30119946599006653,
        -0.3205627202987671,
        0.2600817382335663,
        0.20560018718242645,
        0.34274399280548096,
        0.35248687863349915,
        0.20604079961776733,
        -0.35106539726257324,
        0.2315836101770401,
        -0.0482187494635582,
        0.15914608538150787,
        0.105813167989254,
        0.1602749079465866,
        0.1773371398448944,
        -0.32823628187179565,
        -0.11905056983232498,
        0.3145843744277954,
        0.12650693953037262,
        0.13580003380775452,
        0.11690670251846313,
        0.26950719952583313
      ],
      [
        0.31526869535446167,
        -0.2186138927936554,
        -0.260438472032547,
        -0.21935148537158966,
        0.1851222664117813,
        -0.18252931535243988,
        -0.3560105562210083,
        -0.12738721072673798,
        0.19281044602394104,
        -0.10822372883558273,
        -0.3391737639904022,
        0.25285661220550537,
        -0.1995280534029007,
        -0.3517947494983673,
        0.3101998567581177,
        0.09278164058923721,
        -0.40950310230255127,
        -0.18239201605319977,
        0.13524819910526276,
        -0.2638784646987915,
        0.35292884707450867,
        -0.2538267970085144,
        -0.18263712525367737,
        -0.3112120032310486,
        -0.0776807889342308,
        0.04774731025099754,
        -0.03705728054046631,
        0.2194039672613144,
        0.1728282868862152,
        0.12347456067800522,
        0.15524566173553467,
        -0.16159094870090485
      ],
      [
        0.2784471809864044,
        -0.017025453969836235,
        -0.09930802881717682,
        0.21829737722873688,
        -0.21355648338794708,
        -0.23143276572227478,
        0.10733040422201157,
        0.178164541721344,
        -0.18868620693683624,
        0.22068239748477936,
        -0.3244069516658783,
        0.05398945510387421,
        0.3487987518310547,
        -0.052321724593639374,
        -0.29854750633239746,
        -0.008851955644786358,
        -0.00023196333495434374,
        -0.03229452669620514,
        0.004795789252966642,
        0.040633998811244965,
        0.1856025606393814,
        -0.04797353222966194,
        -0.19304606318473816,
        -0.11638330668210983,
        0.05982527509331703,
        0.059062156826257706,
        0.10287971049547195,
        -0.07191310077905655,
        -0.14764130115509033,
        -0.04813825711607933,
        -0.349324494600296,
        0.07670058310031891
      ],
      [
        0.2620430886745453,
        -0.26322141289711,
        -0.1855521947145462,
        -0.39908623695373535,
        0.35980987548828125,
        -0.35407117009162903,
        -0.25735217332839966,
        -0.3261191248893738,
        0.17629890143871307,
        -0.35607558488845825,
        -0.4474453330039978,
        0.211920827627182,
        -0.29180389642715454,
        -0.11262133717536926,
        0.2131199836730957,
        0.22116607427597046,
        -0.27697786688804626,
        -0.19503392279148102,
        0.4198489487171173,
        -0.3612116873264313,
        0.1864665299654007,
        -0.06425049155950546,
        -0.28533339500427246,
        -0.29610908031463623,
        -0.26370155811309814,
        -0.07802119106054306,
        -0.20398913323879242,
        0.13792529702186584,
        0.24945227801799774,
        0.16514387726783752,
        0.13442006707191467,
        -0.27672451734542847
      ],
      [
        0.28437525033950806,
        0.2689741253852844,
        -0.3262357711791992,
        0.11680727452039719,
        -0.44149529933929443,
        -0.18094898760318756,
        0.34671908617019653,
        -0.03228801116347313,
        -0.18646122515201569,
        0.2651011347770691,
        -0.34090688824653625,
        0.07910700887441635,
        0.388359934091568,
        0.012108741328120232,
        -0.2008158415555954,
        -0.2112509161233902,
        -0.22738058865070343,
        -0.2561720907688141,
        0.08944278210401535,
        0.17665372788906097,
        0.26598209142684937,
        -0.2927761971950531,
        -0.18639065325260162,
        -0.14282114803791046,
        0.3015477657318115,
        0.3493642807006836,
        0.2728084623813629,
        -0.29360613226890564,
        -0.33259832859039307,
        -0.46113356947898865,
        -0.39829859137535095,
        0.2531754970550537
      ],
      [
        -0.3009188771247864,
        0.3071327209472656,
        0.14243221282958984,
        0.0019727020990103483,
        0.3170587122440338,
        0.22079280018806458,
        0.2414482682943344,
        0.25385576486587524,
        -0.0077238185331225395,
        -0.020847497507929802,
        0.0415630079805851,
        -0.042481765151023865,
        -0.27662765979766846,
        0.18375147879123688,
        0.33414244651794434,
        0.208694726228714,
        0.3565743863582611,
        0.10716036707162857,
        -0.3008091151714325,
        0.2983666658401489,
        -0.3108845353126526,
        0.32093867659568787,
        0.36240535974502563,
        0.3187597393989563,
        0.07142701745033264,
        -0.19332922995090485,
        -0.3702916204929352,
        0.10751232504844666,
        0.15074209868907928,
        0.07691145688295364,
        0.298423707485199,
        0.1989232450723648
      ],
      [
        -0.25478577613830566,
        0.17673452198505402,
        0.3747752010822296,
        -0.02333211526274681,
        0.3480493724346161,
        0.3713075518608093,
        0.12768186628818512,
        -0.006641754414886236,
        0.1717151254415512,
        -0.25219249725341797,
        0.37224072217941284,
        -0.3219149708747864,
        -0.1952735036611557,
        0.25456109642982483,
        0.2175542265176773,
        0.3404170870780945,
        0.04720978066325188,
        0.12042132019996643,
        -0.23591922223567963,
        0.3133748173713684,
        -0.1282941848039627,
        0.316994845867157,
        0.2778959274291992,
        0.3638461232185364,
        0.11953789740800858,
        -0.25280165672302246,
        -0.24424642324447632,
        0.26788443326950073,
        0.14461541175842285,
        0.2645179331302643,
        0.2561619281768799,
        0.19976964592933655
      ],
      [
        -0.06672237813472748,
        0.15987950563430786,
        0.30987101793289185,
        -0.02139388583600521,
        0.054226044565439224,
        0.28780218958854675,
        0.19690948724746704,
        0.31221896409988403,
        0.043030381202697754,
        -0.042186010628938675,
        0.08192936331033707,
        -0.3538897633552551,
        0.02303360402584076,
        0.3376486301422119,
        0.14607535302639008,
        0.13372550904750824,
        0.26861345767974854,
        0.09608923643827438,
        -0.104802206158638,
        0.050276242196559906,
        -0.356891930103302,
        0.05542873591184616,
        0.17447155714035034,
        0.23830758035182953,
        0.21287637948989868,
        -0.3131036162376404,
        -0.16730470955371857,
        0.058120086789131165,
        0.17464889585971832,
        0.21714913845062256,
        0.1960705667734146,
        0.10129864513874054
      ],
      [
        -0.12285047769546509,
        0.36047491431236267,
        0.2754307687282562,
        -0.12360217422246933,
        0.09586913883686066,
        0.10003645718097687,
        0.16934116184711456,
        0.2085292488336563,
        0.17829079926013947,
        -0.18440020084381104,
        0.35510557889938354,
        -0.29142996668815613,
        -0.19565758109092712,
        0.12444980442523956,
        0.30082595348358154,
        0.3671163022518158,
        0.28194695711135864,
        0.21894358098506927,
        -0.2875049412250519,
        0.032549478113651276,
        -0.3424743711948395,
        0.06713342666625977,
        0.338895708322525,
        0.14347675442695618,
        0.14739087224006653,
        -0.36897677183151245,
        -0.2742895781993866,
        0.4098954498767853,
        0.24024620652198792,
        0.18527263402938843,
        0.3045370876789093,
        0.28134819865226746
      ],
      [
        0.04018932953476906,
        -0.40642088651657104,
        -0.02287820540368557,
        -0.3905538022518158,
        0.09861626476049423,
        0.1710931956768036,
        -0.3290538489818573,
        -0.3269853889942169,
        0.2857624888420105,
        -0.055577412247657776,
        -0.1222902312874794,
        -0.011553967371582985,
        -0.3172971308231354,
        0.11537479609251022,
        0.36629682779312134,
        0.3182104527950287,
        0.03901886194944382,
        -0.005451761651784182,
        0.23127922415733337,
        -0.2340235859155655,
        0.0743604525923729,
        -0.10622182488441467,
        0.1103333979845047,
        0.012480403296649456,
        -0.1416700780391693,
        0.0024745133705437183,
        -0.2802700102329254,
        0.29553985595703125,
        0.3952949345111847,
        0.35257917642593384,
        0.14503470063209534,
        -0.3218628764152527
      ],
      [
        0.3193722069263458,
        0.2519298791885376,
        -0.2806233763694763,
        0.3612535297870636,
        -0.2120966613292694,
        -0.3894250988960266,
        0.09823039174079895,
        0.44362708926200867,
        -0.27011045813560486,
        0.21755099296569824,
        -0.4283006191253662,
        0.30184897780418396,
        0.3576332926750183,
        -0.40893179178237915,
        -0.42481645941734314,
        -0.12188440561294556,
        -0.195318803191185,
        -0.31137898564338684,
        0.114039346575737,
        0.39763152599334717,
        0.1597956120967865,
        -0.18979419767856598,
        -0.4516761600971222,
        -0.43660637736320496,
        0.06814475357532501,
        0.45065587759017944,
        0.43821439146995544,
        -0.4260820746421814,
        -0.13601325452327728,
        -0.32991307973861694,
        -0.43641695380210876,
        0.36901578307151794
      ],
      [
        0.3743768036365509,
        0.3299264907836914,
        -0.24010784924030304,
        0.39725130796432495,
        -0.42548248171806335,
        -0.19344142079353333,
        0.15306304395198822,
        0.24393488466739655,
        -0.09940008074045181,
        0.1506243348121643,
        -0.20092472434043884,
        0.09596442431211472,
        0.38272613286972046,
        -0.26161473989486694,
        -0.18990100920200348,
        -0.10189151018857956,
        -0.3448472321033478,
        -0.45282450318336487,
        0.4193498194217682,
        0.1743682473897934,
        0.3219295144081116,
        -0.17347221076488495,
        -0.30129575729370117,
        -0.12191828340291977,
        0.30389055609703064,
        0.23922552168369293,
        0.32509663701057434,
        -0.26666566729545593,
        -0.0996379554271698,
        -0.16202525794506073,
        -0.3859710991382599,
        0.2831931412220001
      ],
      [
        0.20833492279052734,
        0.14643003046512604,
        -0.044585783034563065,
        0.10703464597463608,
        -0.13876113295555115,
        -0.10269644111394882,
        -0.10342466831207275,
        0.2737980782985687,
        0.11578506231307983,
        0.021110504865646362,
        -0.25238609313964844,
        0.23804353177547455,
        0.10438433289527893,
        0.017711834982037544,
        -0.4093833565711975,
        -0.19578702747821808,
        -0.19566552340984344,
        0.05122283101081848,
        0.08076047897338867,
        0.3572240471839905,
        0.17582137882709503,
        0.03620273619890213,
        0.007734482642263174,
        0.028233727440238,
        0.150523379445076,
        0.04846159368753433,
        0.12428589165210724,
        -0.1692180335521698,
        0.05741729959845543,
        -0.19254755973815918,
        -0.2675304710865021,
        0.035520296543836594
      ]
    ],
    "dense_0_bias": [
      -0.16967563331127167,
      0.2701244652271271,
      0.04085500165820122,
      0.14866597950458527,
      0.03540341928601265,
      0.01588672213256359,
      0.03369010239839554,
      0.35486507415771484,
      0.16754449903964996,
      0.2335919439792633,
      0.21758496761322021,
      0.13870851695537567,
      0.32693547010421753,
      0.27974733710289,
      0.2816126048564911,
      -0.1787177473306656
    ],
    "dense_1_weight": [
      [
        0.08569639176130295,
        0.3657819628715515,
        -0.14923180639743805,
        -0.250566303730011,
        0.41071298718452454,
        -0.002405099803581834,
        0.3956698775291443,
        -0.23127663135528564,
        -0.17890295386314392,
        -0.389651894569397,
        -0.41934481263160706,
        -0.27639538049697876,
        0.3066687285900116,
        -0.40841910243034363,
        -0.4761490523815155,
        -0.038167282938957214
      ],
      [
        0.024531356990337372,
        -0.4214354157447815,
        0.01124738622456789,
        -0.39929160475730896,
        0.04346992447972298,
        0.3143618404865265,
        -0.3364713191986084,
        0.5232570171356201,
        -0.3496226966381073,
        -0.31410321593284607,
        -0.021839715540409088,
        -0.28358346223831177,
        -0.3405270278453827,
        0.3273123502731323,
        0.20461586117744446,
        0.366918683052063
      ],
      [
        0.15988166630268097,
        -0.1770658940076828,
        0.22479775547981262,
        0.28317201137542725,
        -0.19521163403987885,
        -0.0351845882833004,
        -0.21603287756443024,
        -0.11981067061424255,
        0.35663115978240967,
        0.1835535615682602,
        0.3222835659980774,
        0.24100454151630402,
        -0.046752650290727615,
        -0.0959848091006279,
        -0.3961354196071625,
        -0.1036234125494957
      ]
    ],
    "dense_1_bias": [
      0.10776802897453308,
      -0.03352329134941101,
      -0.43503713607788086
    ]
  }
}