{
  "recurrent_layers": [
    {
      "index": 0,
      "type": "LTC",
      "input_size": 1,
      "hidden_size": 64,
      "activation": "tanh",
      "ode_unfolds": 6,
      "dt": 1.0,
      "tau_min": 0.1
    }
  ],
  "dense_layers": [
    {
      "index": 0,
      "in_features": 64,
      "out_features": 32,
      "activation": "relu"
    },
    {
      "index": 1,
      "in_features": 32,
      "out_features": 1,
      "activation": "linear"
    }
  ],
  "parameters": {
    "rec_0_W_ih_weight": [
      [
        0.03295395150780678
      ],
      [
        -0.16955870389938354
      ],
      [
        0.008086536079645157
      ],
      [
        -0.018231216818094254
      ],
      [
        0.1420024186372757
      ],
      [
        0.14387167990207672
      ],
      [
        0.09546607732772827
      ],
      [
        -0.1117149144411087
      ],
      [
        -0.1003682017326355
      ],
      [
        0.12589822709560394
      ],
      [
        -0.15428318083286285
      ],
      [
        -0.11124192923307419
      ],
      [
        -0.1302257776260376
      ],
      [
        -0.228120356798172
      ],
      [
        -0.21354210376739502
      ],
      [
        -0.1682654172182083
      ],
      [
        0.09250487387180328
      ],
      [
        0.12950673699378967
      ],
      [
        -0.18512046337127686
      ],
      [
        -0.21233826875686646
      ],
      [
        0.12564390897750854
      ],
      [
        0.15452638268470764
      ],
      [
        0.15610235929489136
      ],
      [
        -0.05068466067314148
      ],
      [
        -0.14926882088184357
      ],
      [
        -0.11565333604812622
      ],
      [
        0.16687585413455963
      ],
      [
        -0.24892781674861908
      ],
      [
        -0.19134394824504852
      ],
      [
        0.10973146557807922
      ],
      [
        0.09067418426275253
      ],
      [
        0.11151285469532013
      ],
      [
        0.13552629947662354
      ],
      [
        -0.11788301169872284
      ],
      [
        -0.20501789450645447
      ],
      [
        -0.10141867399215698
      ],
      [
        -0.19305850565433502
      ],
      [
        -0.11424825340509415
      ],
      [
        0.2537001371383667
      ],
      [
        -0.08972323685884476
      ],
      [
        0.1341039389371872
      ],
      [
        -0.11434651911258698
      ],
      [
        -0.09858497977256775
      ],
      [
        -0.08536846935749054
      ],
      [
        -0.12774428725242615
      ],
      [
        -0.0741841197013855
      ],
      [
        -0.1497868150472641
      ],
      [
        0.18941527605056763
      ],
      [
        0.1283104121685028
      ],
      [
        0.13289937376976013
      ],
      [
        0.24957937002182007
      ],
      [
        0.13047882914543152
      ],
      [
        0.09518426656723022
      ],
      [
        0.1761617362499237
      ],
      [
        0.22238901257514954
      ],
      [
        -0.1694192737340927
      ],
      [
        -0.08341660350561142
      ],
      [
        0.13985362648963928
      ],
      [
        -0.019481856375932693
      ],
      [
        -0.20014424622058868
      ],
      [
        -0.13904951512813568
      ],
      [
        -0.1571909338235855
      ],
      [
        0.04307416453957558
      ],
      [
        0.1273471564054489
      ]
    ],
    "rec_0_W_ih_bias": [
      0.062049102038145065,
      -0.1615450382232666,
      -0.0734729915857315,
      0.1753462851047516,
      0.06843756139278412,
      0.11351630091667175,
      0.036042600870132446,
      -0.08285904675722122,
      0.0687163770198822,
      0.05082817003130913,
      -0.15649931132793427,
      0.20053035020828247,
      -0.11242601275444031,
      -0.1350155472755432,
      0.041779156774282455,
      0.1478268802165985,
      0.029494255781173706,
      0.08225972205400467,
      0.18732942640781403,
      0.040732428431510925,
      0.14112234115600586,
      -0.17260043323040009,
      0.08607804775238037,
      -0.15772239863872528,
      0.08349538594484329,
      -0.2090856432914734,
      -0.03310290724039078,
      0.07407660037279129,
      -0.17931346595287323,
      -0.19483859837055206,
      -0.20861822366714478,
      0.1313808560371399,
      0.006274563726037741,
      -0.0181430596858263,
      0.1113453283905983,
      -0.08012112230062485,
      -0.20219074189662933,
      0.09569957107305527,
      -0.13055744767189026,
      -0.15705081820487976,
      0.013287118636071682,
      -0.1568393111228943,
      0.14901259541511536,
      0.0960068479180336,
      0.17537112534046173,
      0.07353949546813965,
      0.15844810009002686,
      -0.009610927663743496,
      0.0779515728354454,
      0.17907552421092987,
      -0.19411152601242065,
      0.21177345514297485,
      0.0009500845917500556,
      -0.1264667958021164,
      -0.14686201512813568,
      0.12105704098939896,
      0.15529729425907135,
      0.12516407668590546,
      -0.12170305848121643,
      -4.764864570461214e-06,
      0.033481813967227936,
      -0.19771483540534973,
      -0.18769554793834686,
      0.005658509209752083
    ],
    "rec_0_W_hh_weight": [
      [
        0.08470986038446426,
        -0.005068586673587561,
        0.011031574569642544,
        0.08539828658103943,
        -0.006659393198788166,
        -0.012822157703340054,
        -0.0002488862373866141,
        -0.1692480444908142,
        -0.08010324090719223,
        -0.030840322375297546,
        -0.1341751366853714,
        -0.07310274988412857,
        -0.03793838247656822,
        -0.08866594731807709,
        -0.08696238696575165,
        0.036878783255815506,
        -0.06117971986532211,
        0.027935802936553955,
        0.010443159379065037,
        -0.19628773629665375,
        0.1522330939769745,
        -0.09655134379863739,
        0.17663978040218353,
        0.03490780293941498,
        -0.005541384685784578,
        -0.15722182393074036,
        0.1548246145248413,
        -0.13352712988853455,
        -0.10617412626743317,
        0.033347733318805695,
        0.05821710824966431,
        0.09581922739744186,
        0.06978829205036163,
        -0.07068447023630142,
        -0.13273216784000397,
        -0.06175561994314194,
        -0.19445808231830597,
        0.02817351743578911,
        0.0004557233478408307,
        -0.007680137641727924,
        0.021508976817131042,
        -0.004458956886082888,
        0.028956403955817223,
        -0.021591436117887497,
        -0.10765215754508972,
        0.0655655637383461,
        0.021472366526722908,
        -0.0798613503575325,
        0.06256763637065887,
        0.13883507251739502,
        0.007659025024622679,
        0.20818914473056793,
        0.12665292620658875,
        0.011205402202904224,
        0.1257997751235962,
        0.0672551691532135,
        0.017220204696059227,
        0.06128361076116562,
        -0.027832094579935074,
        -0.11148514598608017,
        0.0216841883957386,
        -0.2199132740497589,
        -0.1075277328491211,
        0.13722525537014008
      ],
      [
        -0.12533487379550934,
        0.052581265568733215,
        -0.14241760969161987,
        0.12518371641635895,
        -0.061411984264850616,
        -0.13751615583896637,
        0.03200928121805191,
        -0.0007772016106173396,
        0.005181268323212862,
        -0.05107929930090904,
        -0.013864517211914062,
        -0.01681460440158844,
        0.02717483602464199,
        0.07147154957056046,
        0.05637779459357262,
        0.09458809345960617,
        -0.11793898791074753,
        -0.16877777874469757,
        0.06632500886917114,
        0.13839171826839447,
        -0.050713226199150085,
        -0.036055538803339005,
        0.03907738998532295,
        -0.007362718693912029,
        -0.04856758937239647,
        -0.0664978101849556,
        -0.06894834339618683,
        0.13968230783939362,
        0.0828719213604927,
        -0.08042649924755096,
        -0.06446368992328644,
        -0.159211665391922,
        0.0020965361036360264,
        0.12139192223548889,
        0.014900985173881054,
        -0.07680122554302216,
        0.15687018632888794,
        0.005045687779784203,
        0.04047169163823128,
        -0.06294518709182739,
        -0.16982930898666382,
        0.0972101166844368,
        0.05572260171175003,
        0.19243082404136658,
        0.12336429208517075,
        0.09888533502817154,
        0.05711430683732033,
        -0.16974490880966187,
        0.03463274613022804,
        -0.11890193074941635,
        -0.007428834680467844,
        -0.00624211085960269,
        -0.15296906232833862,
        -0.09779318422079086,
        -0.08944647759199142,
        0.18635396659374237,
        0.07052196562290192,
        -0.03697611019015312,
        -0.047823186963796616,
        0.12989360094070435,
        0.15396204590797424,
        -0.0005586161278188229,
        0.10925588756799698,
        -0.0410861000418663
      ],
      [
        -0.026177212595939636,
        0.13611586391925812,
        0.06627228856086731,
        -0.14193156361579895,
        -0.03599926829338074,
        -0.17288313806056976,
        -0.08274282515048981,
        0.18741601705551147,
        -0.13236908614635468,
        -0.132472962141037,
        0.033268269151449203,
        -0.03684106096625328,
        0.05063270777463913,
        -0.015103934332728386,
        0.10394515842199326,
        -0.047646380960941315,
        -0.09869546443223953,
        -0.06008319929242134,
        0.002880232175812125,
        0.09898840636014938,
        -0.14981940388679504,
        0.15527045726776123,
        -0.06707768887281418,
        0.06019623205065727,
        0.117620088160038,
        0.11629029363393784,
        0.0119303148239851,
        0.14359086751937866,
        0.100140780210495,
        0.17699413001537323,
        0.08120384067296982,
        0.014124116860330105,
        -0.060624245554208755,
        0.10389677435159683,
        0.05884552374482155,
        0.0033766606356948614,
        0.19609402120113373,
        -0.07238972932100296,
        0.0110201146453619,
        0.013613928109407425,
        -0.1169801875948906,
        0.1661531627178192,
        -0.17783397436141968,
        0.03808356076478958,
        0.04698459059000015,
        -0.1058209016919136,
        -0.058574605733156204,
        -0.007716828025877476,
        0.03998894989490509,
        -0.1272115260362625,
        -0.15800276398658752,
        -0.18145465850830078,
        -0.03057967685163021,
        -0.11276469379663467,
        -0.10229652374982834,
        0.0008554640226066113,
        -0.037798747420310974,
        -0.144047811627388,
        0.021881084889173508,
        0.13284575939178467,
        -0.04528495669364929,
        -0.004952774848788977,
        0.023403072729706764,
        0.028018230572342873
      ],
      [
        0.09359300881624222,
        -0.2055644989013672,
        -0.1444791555404663,
        0.06858891993761063,
        0.22873713076114655,
        0.20531059801578522,
        0.07690063118934631,
        -0.26456326246261597,
        -0.06809628009796143,
        0.06336129456758499,
        -0.03754699230194092,
        0.12909124791622162,
        -0.15721526741981506,
        -0.024150511249899864,
        -0.08298306912183762,
        0.046784818172454834,
        0.1614067554473877,
        0.05067706108093262,
        0.10817763954401016,
        -0.04631420224905014,
        0.19724518060684204,
        -0.0752137154340744,
        0.19567637145519257,
        -0.2565140426158905,
        0.09224243462085724,
        -0.24417540431022644,
        -0.01324727013707161,
        -0.08841594308614731,
        -0.1539314240217209,
        -0.12218132615089417,
        -0.24473726749420166,
        0.18776196241378784,
        0.13856449723243713,
        0.046486079692840576,
        -0.05926334112882614,
        -0.26705947518348694,
        -0.08360975235700607,
        0.17438001930713654,
        0.058666639029979706,
        -0.11941395699977875,
        0.12779195606708527,
        -0.0700264424085617,
        0.0786944329738617,
        -0.10905829817056656,
        -0.04056849330663681,
        -0.12385616451501846,
        0.10249509662389755,
        0.12795057892799377,
        0.14863601326942444,
        0.06431421637535095,
        0.01868349313735962,
        0.29102346301078796,
        0.07976401597261429,
        -0.027882492169737816,
        -0.11745090037584305,
        -0.002706629689782858,
        0.19647367298603058,
        0.10711127519607544,
        -0.16230279207229614,
        0.01527255680412054,
        -0.08937406539916992,
        -0.19616703689098358,
        -0.09249027818441391,
        0.21869872510433197
      ],
      [
        0.07509974390268326,
        -0.09644000977277756,
        -0.12500421702861786,
        0.1479930430650711,
        0.09013713896274567,
        0.024434221908450127,
        -0.049656130373477936,
        -0.13402391970157623,
        -0.07281868159770966,
        0.05528780072927475,
        0.014414823614060879,
        0.041128821671009064,
        0.008480041287839413,
        -0.10302014648914337,
        -0.12948602437973022,
        -0.08213198184967041,
        -0.023943930864334106,
        0.16544270515441895,
        0.15062357485294342,
        0.07586310803890228,
        0.0768829733133316,
        0.018670741468667984,
        0.06692156940698624,
        0.029978586360812187,
        -0.09801839292049408,
        -0.12810227274894714,
        -0.06717459112405777,
        -0.005920324474573135,
        -0.19590769708156586,
        -0.18624864518642426,
        -0.0830850675702095,
        0.19664844870567322,
        0.1644226461648941,
        0.04045547917485237,
        -0.01662539131939411,
        -0.10087137669324875,
        -0.19429489970207214,
        0.14944447576999664,
        0.027475319802761078,
        0.0011340633500367403,
        -0.06952644884586334,
        -0.12931950390338898,
        0.029887288808822632,
        -0.09299290180206299,
        -0.011528697796165943,
        0.001206665299832821,
        0.14260071516036987,
        0.06119891628623009,
        -0.014976998791098595,
        0.1255946010351181,
        0.12579219043254852,
        0.12902837991714478,
        0.007391493767499924,
        -0.10100159794092178,
        0.05803954228758812,
        -0.013492025434970856,
        -0.006640731357038021,
        0.13192187249660492,
        -0.08104850351810455,
        -0.0963154286146164,
        -0.13960449397563934,
        -0.07867184281349182,
        -0.1255997270345688,
        0.03948395699262619
      ],
      [
        0.030852017924189568,
        0.03693189099431038,
        -0.002480091294273734,
        0.20693223178386688,
        0.11224851757287979,
        0.10309268534183502,
        0.1759350746870041,
        -0.08544063568115234,
        0.05418724939227104,
        0.04566566273570061,
        -0.17854923009872437,
        0.12545090913772583,
        -0.06243760138750076,
        -0.11469738185405731,
        0.05742780864238739,
        -0.07245679199695587,
        0.08240003883838654,
        -0.06047900766134262,
        0.01930699124932289,
        -0.09948065131902695,
        0.1587725579738617,
        0.00548927765339613,
        0.1590362787246704,
        -0.05326347053050995,
        -0.03339092805981636,
        -0.054605405777692795,
        0.11026507616043091,
        -0.045748207718133926,
        -0.16264894604682922,
        -0.11822357028722763,
        -0.12604063749313354,
        0.04338286444544792,
        0.14617404341697693,
        0.0644291341304779,
        -0.0466257780790329,
        -0.14995251595973969,
        0.0531020425260067,
        0.02922067604959011,
        -0.12291694432497025,
        -0.07169041037559509,
        0.0021601396147161722,
        -0.033999163657426834,
        0.059173334389925,
        0.13196852803230286,
        0.08201377838850021,
        -0.0514264740049839,
        0.10092466324567795,
        -0.06357190012931824,
        -0.10716195404529572,
        0.04442668333649635,
        -0.16167862713336945,
        0.014722956344485283,
        -0.06965100020170212,
        -0.0784560889005661,
        -0.16971257328987122,
        0.051622990518808365,
        0.10855522751808167,
        0.12291010469198227,
        -0.18184570968151093,
        0.1215028464794159,
        0.03414474427700043,
        0.02814374305307865,
        -0.021374303847551346,
        0.06392212212085724
      ],
      [
        0.02870158851146698,
        -0.010436668992042542,
        -0.06764958798885345,
        0.1422794908285141,
        0.20777080953121185,
        0.09438680112361908,
        0.00344960018992424,
        -0.17241477966308594,
        -0.011268524453043938,
        0.16886267066001892,
        -0.08278821408748627,
        0.004289443138986826,
        -0.1319565773010254,
        -0.09352294355630875,
        -0.030063176527619362,
        0.04318343847990036,
        0.07570172101259232,
        0.00299577577970922,
        0.0992385745048523,
        -0.04433208703994751,
        -0.04318561404943466,
        0.09596186876296997,
        0.1856304258108139,
        -0.09540054947137833,
        -0.030366037040948868,
        0.008617224171757698,
        0.20941899716854095,
        -0.008203281089663506,
        -0.0027113023679703474,
        -0.014162243343889713,
        -0.010435758158564568,
        0.08860314637422562,
        0.05386096239089966,
        0.013227310962975025,
        -0.04989439621567726,
        -0.17040935158729553,
        -0.026373831555247307,
        0.001234710682183504,
        0.09107304364442825,
        -0.11041804403066635,
        -0.02699657902121544,
        -0.11089412868022919,
        0.054190587252378464,
        -0.00902772881090641,
        -0.07315924018621445,
        -0.14477142691612244,
        0.04544949159026146,
        0.1502736359834671,
        -0.038799531757831573,
        0.014991860836744308,
        0.02482016012072563,
        0.19951356947422028,
        0.17765940725803375,
        -0.0134780528023839,
        -0.023745113983750343,
        -0.0927363857626915,
        0.1864277720451355,
        0.11576052755117416,
        -0.04255596920847893,
        -0.1967255175113678,
        0.05340846627950668,
        -0.17901399731636047,
        -0.05730365216732025,
        0.13179530203342438
      ],
      [
        -0.05872178077697754,
        0.024763423949480057,
        0.09784721583127975,
        0.03693534433841705,
        -0.08828070759773254,
        -0.19468237459659576,
        -0.15893323719501495,
        -0.006396124605089426,
        -0.11376389116048813,
        -0.14037814736366272,
        0.08290457725524902,
        -0.15015950798988342,
        0.180406391620636,
        -0.04970409348607063,
        -0.04043497517704964,
        -0.10603657364845276,
        -0.1161469966173172,
        -0.014269131235778332,
        0.03690271079540253,
        0.13700711727142334,
        -0.14848503470420837,
        0.03896842896938324,
        -0.0669107586145401,
        0.16227315366268158,
        0.056127771735191345,
        0.17849501967430115,
        0.03841710835695267,
        0.09405194967985153,
        0.10965687036514282,
        0.17178063094615936,
        0.054150380194187164,
        -0.10692159086465836,
        -0.1081162542104721,
        0.022778939455747604,
        -0.004409245681017637,
        0.013210495933890343,
        0.0045625907368958,
        -0.08315013349056244,
        0.0516216903924942,
        0.20927877724170685,
        -0.1483924835920334,
        0.1368834376335144,
        -0.06435033679008484,
        -0.027313927188515663,
        -0.05048678442835808,
        -0.05279761180281639,
        -0.06573564559221268,
        -0.0754559338092804,
        -0.0684584453701973,
        -0.1460391879081726,
        0.12725625932216644,
        -0.11558797210454941,
        -0.13597507774829865,
        0.026330826804041862,
        0.09903672337532043,
        -0.04887213557958603,
        -0.16262681782245636,
        -0.1346708983182907,
        0.012835418805480003,
        -0.02941596508026123,
        0.029071934521198273,
        0.006515247747302055,
        -0.04610613361001015,
        -0.15510223805904388
      ],
      [
        -0.10530240833759308,
        0.040180105715990067,
        -0.02017800882458687,
        0.14934402704238892,
        0.09075330942869186,
        0.018561985343694687,
        -0.09411256015300751,
        0.003336192574352026,
        -0.07830198854207993,
        0.0007666008314117789,
        0.06741239130496979,
        0.079704649746418,
        -0.043584298342466354,
        0.13350367546081543,
        -0.0819498673081398,
        0.1104472354054451,
        -0.16152609884738922,
        0.02619345113635063,
        -0.018976295366883278,
        -0.06840206682682037,
        0.020661495625972748,
        0.06148304417729378,
        -0.03959008306264877,
        0.06638041883707047,
        0.1683042347431183,
        -0.06736692041158676,
        -0.011813090182840824,
        0.07305697351694107,
        -0.04985792189836502,
        0.03700033202767372,
        0.14059242606163025,
        0.06596464663743973,
        -0.12193731963634491,
        0.16745339334011078,
        0.1812923699617386,
        0.08222264796495438,
        0.015919668599963188,
        0.10417662560939789,
        -0.14693063497543335,
        -0.05921486020088196,
        0.03476567566394806,
        0.13468502461910248,
        -0.03135824203491211,
        0.16863176226615906,
        0.056828822940588,
        0.032825831323862076,
        0.15005643665790558,
        0.061982687562704086,
        0.03240035101771355,
        0.07382237911224365,
        -0.041809890419244766,
        0.07084760069847107,
        0.009835564531385899,
        -0.12010391801595688,
        -0.0021023794542998075,
        0.06892328709363937,
        -0.04697214812040329,
        0.05920099467039108,
        0.06849581003189087,
        0.1480320543050766,
        0.06743443012237549,
        0.06272847205400467,
        0.03174459934234619,
        -0.06556680053472519
      ],
      [
        0.10392433404922485,
        -0.1050458624958992,
        -0.042475782334804535,
        0.0042038848623633385,
        0.11536448448896408,
        0.07027137279510498,
        0.17812608182430267,
        -0.11943043023347855,
        -0.12895964086055756,
        0.0392964668571949,
        0.062099888920784,
        0.07703476399183273,
        -0.010407937690615654,
        -0.145926833152771,
        -0.14056703448295593,
        -0.03161364048719406,
        -0.11111051589250565,
        -0.00918811745941639,
        -0.1393764317035675,
        0.004790851380676031,
        -0.012756846845149994,
        -0.01521583367139101,
        0.12273038178682327,
        -0.12049098312854767,
        -0.08245357871055603,
        0.11165078729391098,
        0.11752437800168991,
        -0.1774664968252182,
        -0.007509666495025158,
        0.004406413063406944,
        0.11542090028524399,
        0.1691036969423294,
        0.15358591079711914,
        -0.050890348851680756,
        -0.0025071001145988703,
        -0.12498123198747635,
        0.059334371238946915,
        -0.0042398469522595406,
        -0.009003830142319202,
        -0.040883734822273254,
        0.007070417515933514,
        -0.10340658575296402,
        -0.017051801085472107,
        -0.029352925717830658,
        -0.03288954496383667,
        -0.12992703914642334,
        0.029511362314224243,
        0.00014742737403139472,
        0.049730636179447174,
        0.003809429006651044,
        0.07154203951358795,
        -0.043143291026353836,
        0.020155837759375572,
        -0.055431533604860306,
        0.13374830782413483,
        -0.03123694285750389,
        -0.10068000108003616,
        0.11403748393058777,
        0.04288636893033981,
        -0.1027936190366745,
        -0.07899879664182663,
        -0.006484936457127333,
        0.09970485419034958,
        -0.07645734399557114
      ],
      [
        -0.18370822072029114,
        -0.0062721348367631435,
        -0.07696603238582611,
        -0.07479974627494812,
        -0.02852577343583107,
        -0.06572891771793365,
        -0.03540428355336189,
        0.11850214004516602,
        -0.0474640429019928,
        -0.13370585441589355,
        0.20294895768165588,
        0.01775762252509594,
        0.09057874977588654,
        0.09383202344179153,
        0.08982010930776596,
        0.05862206220626831,
        -0.06432914733886719,
        -0.07949706166982651,
        -0.16002684831619263,
        0.0660952478647232,
        -0.045123472809791565,
        -0.053985659033060074,
        -0.04473324492573738,
        0.1401548981666565,
        0.03881243243813515,
        0.16228845715522766,
        -0.0759165808558464,
        0.019675156101584435,
        0.014003820717334747,
        0.19829951226711273,
        0.03485788777470589,
        -0.1944780945777893,
        -0.16408246755599976,
        -0.023961225524544716,
        -0.024075141176581383,
        0.2047501653432846,
        0.0676819309592247,
        -0.01679937355220318,
        0.002377050695940852,
        0.23371507227420807,
        0.022368049249053,
        0.18301652371883392,
        -0.0907265841960907,
        -0.0720176175236702,
        0.018768467009067535,
        -0.09339851886034012,
        -0.18479032814502716,
        -0.07036653906106949,
        -0.05102331191301346,
        -0.03730415925383568,
        0.04035969451069832,
        -0.24801331758499146,
        0.0945514515042305,
        0.13420993089675903,
        0.10562056303024292,
        -0.14849138259887695,
        -0.056069884449243546,
        -0.05699948966503143,
        0.11834318190813065,
        -0.07446089386940002,
        0.10932905226945877,
        0.06507214158773422,
        0.013476763851940632,
        0.018754461780190468
      ],
      [
        0.09118396043777466,
        0.02014872059226036,
        0.06900563091039658,
        0.11970020085573196,
        -0.005964354146271944,
        -0.011108005419373512,
        0.07419216632843018,
        -0.020795462653040886,
        -0.02362009882926941,
        -0.1525762528181076,
        -0.11268811672925949,
        0.09249774366617203,
        0.09351884573698044,
        0.06827407330274582,
        0.025157272815704346,
        0.1471499353647232,
        -0.06762515753507614,
        0.08982966840267181,
        0.16209012269973755,
        -0.06655061990022659,
        -0.05629396438598633,
        -0.22677278518676758,
        -0.020146269351243973,
        0.04162462428212166,
        0.10714700818061829,
        -0.09193014353513718,
        -0.007576047908514738,
        -0.02961897850036621,
        -0.010576597414910793,
        -0.011238610371947289,
        -0.021861407905817032,
        -0.03432437777519226,
        -0.062110353261232376,
        0.09592247754335403,
        0.19621561467647552,
        -0.06270832568407059,
        -0.015932949259877205,
        0.09280017763376236,
        -0.1082054004073143,
        -0.16304711997509003,
        -0.1299411952495575,
        0.09799620509147644,
        0.024678479880094528,
        0.12147172540426254,
        0.1680009961128235,
        0.03431430086493492,
        0.05557193234562874,
        -0.06017964705824852,
        -0.07928837090730667,
        -0.06369858235120773,
        0.048180799931287766,
        0.03757915645837784,
        -0.046694256365299225,
        -0.1651824414730072,
        -0.09777208417654037,
        0.12973017990589142,
        0.17616410553455353,
        -0.06741449236869812,
        0.030527804046869278,
        0.03613352030515671,
        0.14952604472637177,
        -0.03478378802537918,
        -0.09536120295524597,
        0.045228686183691025
      ],
      [
        -0.1252073496580124,
        0.17012746632099152,
        -0.08160081505775452,
        -0.17401733994483948,
        0.02229967713356018,
        -0.1540972739458084,
        -0.17109747231006622,
        0.008852679282426834,
        0.10190590471029282,
        -0.036378368735313416,
        -0.016466772183775902,
        -0.07082418352365494,
        0.017806151881814003,
        -0.020094770938158035,
        -0.002370295347645879,
        0.06691073626279831,
        -0.025184297934174538,
        -0.007895165123045444,
        -0.047887519001960754,
        -0.031552754342556,
        -0.1645369529724121,
        -0.045915186405181885,
        -0.17295187711715698,
        -0.009367940947413445,
        0.0035290054511278868,
        0.17576594650745392,
        0.05106746032834053,
        -0.021550215780735016,
        0.09280367940664291,
        0.08087385445833206,
        0.16204673051834106,
        -0.1015017181634903,
        -0.10492368787527084,
        0.005382491275668144,
        -0.1558401882648468,
        0.03173672780394554,
        0.026154493913054466,
        -0.05055689811706543,
        -0.0386488251388073,
        0.17312560975551605,
        -0.11872737854719162,
        0.22921761870384216,
        -0.22408337891101837,
        0.04870173707604408,
        -0.1152472198009491,
        -0.01890035904943943,
        -0.1823304295539856,
        -0.10906493663787842,
        -0.1434582620859146,
        -0.08942116796970367,
        0.14914734661579132,
        -0.09551290422677994,
        0.046699922531843185,
        0.051977936178445816,
        0.0055845617316663265,
        -0.06497234851121902,
        -0.11226929724216461,
        -0.19106590747833252,
        0.1905810385942459,
        -0.015199360437691212,
        -0.059131838381290436,
        0.13674378395080566,
        0.08406361937522888,
        -0.006198471412062645
      ],
      [
        -0.11983033269643784,
        0.265307754278183,
        -0.11868368834257126,
        0.19296345114707947,
        0.008851032704114914,
        -0.052856605499982834,
        -0.2222212553024292,
        -0.026215026155114174,
        0.2598232328891754,
        -0.288895845413208,
        0.061584386974573135,
        0.23134028911590576,
        -0.006753428373485804,
        0.27924880385398865,
        0.1775117814540863,
        0.2324329912662506,
        -0.040671005845069885,
        -0.123591348528862,
        0.24460098147392273,
        0.06901141256093979,
        -0.025102518498897552,
        -0.2502228617668152,
        -0.01694374717772007,
        0.17851856350898743,
        0.14122843742370605,
        0.15620841085910797,
        -0.20205827057361603,
        0.2465752214193344,
        0.07601937651634216,
        -0.21942707896232605,
        -0.060188066214323044,
        -0.061584968119859695,
        -0.016196101903915405,
        0.1929602175951004,
        0.15000678598880768,
        0.059476759284734726,
        0.14000366628170013,
        0.281637966632843,
        -0.13730080425739288,
        0.14056290686130524,
        -0.11502283811569214,
        0.011332307010889053,
        0.05682956799864769,
        0.26474815607070923,
        0.2653011977672577,
        0.13686175644397736,
        0.09216945618391037,
        -0.1017824187874794,
        -0.11355924606323242,
        -0.20401357114315033,
        -0.15478436648845673,
        0.06658311933279037,
        -0.25874635577201843,
        -0.1940167397260666,
        -0.16730637848377228,
        0.13695703446865082,
        0.17065173387527466,
        0.02311256155371666,
        0.0581577904522419,
        0.06202251836657524,
        0.16485804319381714,
        0.20641188323497772,
        -0.012940776534378529,
        -0.14574269950389862
      ],
      [
        0.026187285780906677,
        0.24461939930915833,
        -0.10486556589603424,
        0.2329813688993454,
        -0.035764675587415695,
        -0.07805334776639938,
        -0.17101602256298065,
        0.0314522460103035,
        0.04672802984714508,
        -0.244393989443779,
        0.1405191719532013,
        0.22887007892131805,
        0.05660591274499893,
        0.15828447043895721,
        0.2588913142681122,
        0.2200877070426941,
        -0.16134940087795258,
        -0.04081272706389427,
        0.25939974188804626,
        0.19458644092082977,
        -0.004897688515484333,
        -0.3272556960582733,
        -0.0706508606672287,
        0.11931142210960388,
        0.2005215734243393,
        0.05649659410119057,
        -0.08796250820159912,
        0.21065860986709595,
        0.04789429157972336,
        -0.10731498897075653,
        -0.0593293160200119,
        -0.175725057721138,
        -0.04128638654947281,
        0.2691255807876587,
        0.20521289110183716,
        -0.010328175500035286,
        0.0689312294125557,
        0.11437264829874039,
        -0.12480783462524414,
        0.13123320043087006,
        -0.19915644824504852,
        0.189367413520813,
        0.112154021859169,
        0.14151626825332642,
        0.11461169272661209,
        -0.023837320506572723,
        0.09616667032241821,
        -0.0957936942577362,
        -0.19393566250801086,
        -0.10980863124132156,
        -0.2692064046859741,
        -0.09510824084281921,
        -0.2409125715494156,
        -0.19738318026065826,
        -0.320865273475647,
        0.18771995604038239,
        -0.033008694648742676,
        -0.17808490991592407,
        -0.03164348378777504,
        0.1644185185432434,
        0.12858210504055023,
        0.184061661362648,
        -0.126613050699234,
        -0.08459308743476868
      ],
      [
        0.06095849350094795,
        -0.0014834445901215076,
        -0.18538841605186462,
        0.010827392339706421,
        0.10297230631113052,
        0.08845143765211105,
        0.071198970079422,
        0.0732695683836937,
        -0.05164362117648125,
        -0.09610898047685623,
        -0.05240583047270775,
        -0.0015702701639384031,
        0.08886431902647018,
        -0.13148170709609985,
        0.002568204188719392,
        0.1547713279724121,
        -0.10676979273557663,
        -0.0013870855327695608,
        -0.05446096137166023,
        0.005911058746278286,
        -0.05073881521821022,
        -0.015294059179723263,
        0.04018452391028404,
        0.012293554842472076,
        0.010585921816527843,
        -0.06184350326657295,
        -0.18815375864505768,
        0.042658526450395584,
        0.07475045323371887,
        -0.13159818947315216,
        -0.06749574840068817,
        0.05205720290541649,
        0.09076456725597382,
        0.0689273253083229,
        0.14199140667915344,
        -0.017236558720469475,
        -0.05117132514715195,
        -0.06701051443815231,
        -0.16763989627361298,
        -0.11307085305452347,
        0.07495325803756714,
        0.13478811085224152,
        0.1452747881412506,
        0.15008871257305145,
        0.03735954686999321,
        0.10535413771867752,
        0.0908052921295166,
        -0.13635075092315674,
        -0.0649341344833374,
        -0.08399660885334015,
        0.06844498217105865,
        0.036209411919116974,
        0.03229634463787079,
        -0.062222808599472046,
        0.04294003173708916,
        0.09476487338542938,
        -0.009927614592015743,
        0.017088819295167923,
        0.07829836755990982,
        0.017777463421225548,
        0.11443966627120972,
        0.0013610051246359944,
        -0.09237028658390045,
        -0.03984956443309784
      ],
      [
        -0.08469584584236145,
        0.11351613700389862,
        0.0678204819560051,
        -0.023313244804739952,
        -0.14472410082817078,
        0.04386679828166962,
        -0.03157494589686394,
        -0.1204383447766304,
        -0.030415795743465424,
        -0.04128122329711914,
        0.11591297388076782,
        0.03886480629444122,
        -0.06406888365745544,
        0.03435670956969261,
        -0.036140602082014084,
        0.07695416361093521,
        -0.01415292453020811,
        0.04308638721704483,
        -0.07021409273147583,
        -0.005629184190183878,
        -0.10717971622943878,
        -0.10938829928636551,
        -0.1548699587583542,
        -0.0792049840092659,
        0.11244970560073853,
        -0.008286413736641407,
        -0.03929980471730232,
        0.10449499636888504,
        0.06343209743499756,
        0.012893900275230408,
        -0.05677703395485878,
        0.1011725664138794,
        -0.03780499845743179,
        -0.03246592357754707,
        0.11790819466114044,
        -0.07927589863538742,
        -0.02892301417887211,
        0.044539667665958405,
        -0.019518692046403885,
        -0.042457591742277145,
        -0.03766443207859993,
        -0.0025448983069509268,
        0.021492209285497665,
        0.055250927805900574,
        -0.0019694208167493343,
        0.04838312789797783,
        -0.05288582295179367,
        -0.1278109848499298,
        -0.03444620221853256,
        -0.07492288947105408,
        -0.15437720715999603,
        0.10534947365522385,
        0.10198657214641571,
        0.058776095509529114,
        -0.12709875404834747,
        0.006573562975972891,
        -0.105605348944664,
        -0.046491384506225586,
        0.13835379481315613,
        0.07247765362262726,
        0.05918160825967789,
        -0.08971250802278519,
        0.02549387514591217,
        0.06429233402013779
      ],
      [
        -0.048429399728775024,
        0.0568668469786644,
        0.007534313015639782,
        -0.10229631513357162,
        -0.05661997199058533,
        0.030095981433987617,
        -0.040604252368211746,
        -0.15675967931747437,
        -0.08107642084360123,
        0.019215291365981102,
        -0.05743871629238129,
        -0.14138169586658478,
        0.015601609833538532,
        0.07491528242826462,
        0.05168411135673523,
        -0.21020826697349548,
        -0.04806211218237877,
        0.07981298863887787,
        0.0021984954364597797,
        -0.06823846697807312,
        0.08030237257480621,
        0.09674402326345444,
        0.05461254343390465,
        0.07611070573329926,
        0.0027232561260461807,
        -0.10712313652038574,
        -0.03393205255270004,
        -0.0009399870759807527,
        0.04470058158040047,
        0.041234344244003296,
        0.1846466064453125,
        0.052584946155548096,
        0.003761348081752658,
        -0.07014712691307068,
        -0.1587872952222824,
        0.021672295406460762,
        -0.15074439346790314,
        0.01528012752532959,
        -0.04264857620000839,
        0.06745702773332596,
        -0.025726642459630966,
        -0.051900576800107956,
        -0.1556294709444046,
        0.07494065910577774,
        -0.026986703276634216,
        -0.231828510761261,
        -0.20820525288581848,
        0.06236981600522995,
        0.06894347071647644,
        0.06064785644412041,
        0.07352723926305771,
        -0.011294775642454624,
        0.16378828883171082,
        0.05672813579440117,
        -0.009993408806622028,
        -0.026277953758835793,
        -0.1732303351163864,
        0.019762903451919556,
        0.06726450473070145,
        -0.07999617606401443,
        -0.2178005427122116,
        0.037424154579639435,
        0.08606138825416565,
        0.09712927788496017
      ],
      [
        0.0929551050066948,
        -0.12425002455711365,
        -0.08650320023298264,
        0.021476952359080315,
        0.12947531044483185,
        -0.04992913454771042,
        -0.10209532082080841,
        -0.05062684044241905,
        0.10776512324810028,
        -0.026202887296676636,
        0.09278307855129242,
        0.17859554290771484,
        0.03138817846775055,
        0.13461457192897797,
        0.08773200958967209,
        0.16103199124336243,
        -0.12735988199710846,
        -0.027271337807178497,
        0.08046398311853409,
        -0.07302787154912949,
        -0.038233574479818344,
        -0.01832430250942707,
        0.04261665791273117,
        0.05111614987254143,
        0.17072531580924988,
        -0.03587893024086952,
        0.050881948322057724,
        0.09843578934669495,
        -0.05883926898241043,
        -0.15449149906635284,
        -0.03673425316810608,
        0.042607631534338,
        0.061990294605493546,
        0.03845829516649246,
        -0.011901265010237694,
        -0.013129583559930325,
        0.019671428948640823,
        0.035738516598939896,
        -0.05940444767475128,
        -0.07961513102054596,
        0.06838567554950714,
        0.00226195459254086,
        0.05602410435676575,
        0.15044325590133667,
        0.11445899307727814,
        0.03283482789993286,
        0.17746366560459137,
        0.03712478652596474,
        -0.021410198882222176,
        -0.002342031802982092,
        0.02174314111471176,
        0.007175307720899582,
        0.051424361765384674,
        -0.1555260270833969,
        -0.1002935916185379,
        0.20258989930152893,
        0.12302843481302261,
        -0.049077488481998444,
        0.005082700401544571,
        0.1323511004447937,
        -0.03502833843231201,
        -0.04648807272315025,
        -0.18161854147911072,
        -0.04951399564743042
      ],
      [
        -0.05808485671877861,
        0.09494052827358246,
        -0.16702470183372498,
        0.2651238441467285,
        -0.10015537589788437,
        -0.17095044255256653,
        -0.10500884056091309,
        -0.01967114582657814,
        0.05669492110610008,
        -0.0925532877445221,
        0.2004440575838089,
        0.15853331983089447,
        0.009729426354169846,
        0.2214348316192627,
        0.05548514425754547,
        0.2963164150714874,
        0.020368492230772972,
        -0.07781228423118591,
        0.2518189251422882,
        0.21312427520751953,
        -0.14354446530342102,
        -0.27249184250831604,
        -0.06281472742557526,
        0.17323699593544006,
        0.224274680018425,
        0.110013946890831,
        -0.30362796783447266,
        0.2783384323120117,
        0.032400719821453094,
        -0.27825847268104553,
        0.013441216200590134,
        -0.17693175375461578,
        -0.19825293123722076,
        0.15459616482257843,
        0.32278746366500854,
        0.13298480212688446,
        0.14130444824695587,
        0.2712153494358063,
        -0.11010465025901794,
        -0.0028071010019630194,
        -0.2283378541469574,
        0.10532576590776443,
        0.09589242190122604,
        0.18504638969898224,
        0.06996799260377884,
        0.002601705491542816,
        0.11384722590446472,
        -0.2865273356437683,
        -0.08852234482765198,
        -0.2283061146736145,
        -0.20677335560321808,
        -0.118513323366642,
        -0.2498699426651001,
        -0.25319617986679077,
        -0.15718881785869598,
        0.27646470069885254,
        0.08593819290399551,
        -0.08473043888807297,
        -0.0682113990187645,
        0.2910463809967041,
        0.22971776127815247,
        0.07192052155733109,
        -0.0987105593085289,
        -0.21329717338085175
      ],
      [
        0.1300390362739563,
        0.04847545921802521,
        -0.13465534150600433,
        0.14556735754013062,
        0.09919263422489166,
        -0.08029834181070328,
        0.07688441127538681,
        0.034051261842250824,
        -0.038814008235931396,
        -0.04419596120715141,
        -0.0922284871339798,
        -0.022299466654658318,
        -0.002754710614681244,
        -0.14179600775241852,
        -0.13338805735111237,
        -0.0076465969905257225,
        -0.13972781598567963,
        0.12679970264434814,
        0.028981169685721397,
        -0.0690469741821289,
        0.05883246287703514,
        0.016188964247703552,
        0.13724760711193085,
        -0.12613774836063385,
        0.002026207046583295,
        -0.14097970724105835,
        -0.1002478301525116,
        -0.027322759851813316,
        -0.04040487855672836,
        -0.16841505467891693,
        -0.07500532269477844,
        0.09285760670900345,
        0.05273880809545517,
        0.08375614136457443,
        0.10791178792715073,
        0.025882022455334663,
        -0.09854677319526672,
        0.12099255621433258,
        -0.16023588180541992,
        -0.04195675626397133,
        -0.0559689886868,
        -0.01931588351726532,
        -0.06127728521823883,
        0.03193098306655884,
        0.07947424054145813,
        -0.16228820383548737,
        0.14789032936096191,
        -0.05017064884305,
        0.12632156908512115,
        0.1605387181043625,
        -0.11873774975538254,
        0.06051703169941902,
        -0.00318862940184772,
        -0.08396570384502411,
        -0.02686403878033161,
        -0.08003439754247665,
        0.013817434199154377,
        0.020574811846017838,
        -0.15091532468795776,
        -0.10950814187526703,
        0.045466769486665726,
        -0.15690408647060394,
        -0.015185863710939884,
        -0.04413492977619171
      ],
      [
        -0.06756701320409775,
        0.0866229385137558,
        -0.010460395365953445,
        -0.26808831095695496,
        -0.01063718181103468,
        -0.05625784397125244,
        0.05139057710766792,
        0.06778315454721451,
        -0.012214038521051407,
        0.15000711381435394,
        0.1132437065243721,
        -0.08870355784893036,
        0.07521729171276093,
        -0.08047898858785629,
        0.09335380792617798,
        -0.13388359546661377,
        0.10006823390722275,
        -0.03921293094754219,
        -0.21646910905838013,
        -0.11370665580034256,
        0.048942312598228455,
        0.08307046443223953,
        -0.1246539056301117,
        0.183961883187294,
        -0.07276875525712967,
        0.14951631426811218,
        0.10856150835752487,
        -0.06531137228012085,
        0.12783905863761902,
        0.023063046857714653,
        0.1865697056055069,
        -0.08860716968774796,
        0.023089498281478882,
        -0.15549810230731964,
        -0.21708594262599945,
        0.12732744216918945,
        -0.02889193594455719,
        -0.10277172178030014,
        0.21039889752864838,
        0.18462705612182617,
        -0.08567743003368378,
        0.012274305336177349,
        -0.04464244470000267,
        -0.0025634262710809708,
        -0.1186654195189476,
        0.008404789492487907,
        -0.17779596149921417,
        0.1580771654844284,
        0.129495307803154,
        -0.004735280759632587,
        0.0962490439414978,
        -0.13978451490402222,
        0.021421656012535095,
        0.0688827708363533,
        0.1730787456035614,
        -0.08012739568948746,
        -0.002929958514869213,
        -0.08387808501720428,
        0.04463336244225502,
        -0.09513518959283829,
        0.04665014520287514,
        0.12365972250699997,
        0.026174286380410194,
        -0.05236523598432541
      ],
      [
        -0.06824608892202377,
        -0.15956029295921326,
        -0.07364359498023987,
        0.010907904244959354,
        0.029626747593283653,
        -0.013605653308331966,
        0.08911989629268646,
        -0.10550753772258759,
        0.01942899078130722,
        0.2224602848291397,
        -0.18884629011154175,
        0.014371449127793312,
        -0.0647004023194313,
        -0.07351174205541611,
        -0.18364869058132172,
        -0.0913243368268013,
        0.05506754294037819,
        0.1676197350025177,
        0.01326900627464056,
        -0.08064466714859009,
        0.07450271397829056,
        0.00671427883207798,
        0.042134884744882584,
        -0.13069719076156616,
        -0.24155984818935394,
        0.038098227232694626,
        0.06911314278841019,
        -0.20257721841335297,
        -0.15967439115047455,
        0.08932548016309738,
        -0.1071198433637619,
        -0.009964537806808949,
        -0.0004027950926683843,
        -0.08217483013868332,
        -0.10538496822118759,
        -0.16182053089141846,
        -0.1965297907590866,
        -0.1700810045003891,
        0.14845837652683258,
        -0.004219552967697382,
        0.10074818879365921,
        -0.1442383974790573,
        -0.048000235110521317,
        -0.05034225434064865,
        -0.0676926001906395,
        -0.08701461553573608,
        -0.11275613307952881,
        0.1282879114151001,
        0.13471435010433197,
        0.1723657101392746,
        0.22382959723472595,
        0.045297157019376755,
        0.11687881499528885,
        0.027826527133584023,
        -0.0011839953949674964,
        0.00983912218362093,
        0.025608940050005913,
        -0.0020816964097321033,
        0.027592923492193222,
        -0.0763455480337143,
        -0.05350705608725548,
        -0.0373537614941597,
        0.023214491084218025,
        -0.01809731312096119
      ],
      [
        -0.18021553754806519,
        0.22751247882843018,
        0.0935102105140686,
        -0.1344721019268036,
        -0.0006320688989944756,
        -0.19803576171398163,
        0.019182221964001656,
        0.18566159904003143,
        0.09018826484680176,
        -0.015843404456973076,
        0.024773992598056793,
        -0.08790484070777893,
        0.11522682011127472,
        0.15293608605861664,
        0.2142598032951355,
        0.0036423662677407265,
        -0.010513996705412865,
        -0.17620423436164856,
        -0.054467156529426575,
        0.1717633306980133,
        -0.07800569385290146,
        0.07511734217405319,
        -0.1986885964870453,
        0.004214974120259285,
        0.0830654725432396,
        0.08538662642240524,
        -0.19743792712688446,
        0.13952387869358063,
        0.112158864736557,
        0.09191682189702988,
        0.09675273299217224,
        -0.17589403688907623,
        -0.15612325072288513,
        -0.029574818909168243,
        0.12913206219673157,
        0.025980960577726364,
        0.21034987270832062,
        -0.051260922104120255,
        -0.030641227960586548,
        0.22002390027046204,
        -0.15084689855575562,
        -0.0254052821546793,
        -0.04522491618990898,
        -0.04070359468460083,
        0.04939890280365944,
        0.08393007516860962,
        0.07896402478218079,
        -0.08020628988742828,
        -0.1561569720506668,
        -0.2119809091091156,
        -0.14735734462738037,
        -0.00030142866307869554,
        -0.11726392805576324,
        -0.059490229934453964,
        -0.06268426030874252,
        -0.0437944270670414,
        0.023143066093325615,
        -0.10612877458333969,
        0.023093895986676216,
        0.21205705404281616,
        0.11880242079496384,
        0.1660870760679245,
        0.15983949601650238,
        -0.16978468000888824
      ],
      [
        0.09392672032117844,
        -0.0469842329621315,
        -0.10478539764881134,
        0.19376541674137115,
        -0.023726733401417732,
        0.1314029097557068,
        0.021344972774386406,
        0.044641051441431046,
        -0.006982147693634033,
        -0.18750770390033722,
        -0.0835975855588913,
        -0.022134339436888695,
        0.008747374638915062,
        -0.07627556473016739,
        -0.09132495522499084,
        0.10677144676446915,
        -0.13012877106666565,
        -0.10885654389858246,
        0.03483583405613899,
        0.09570122510194778,
        0.12684208154678345,
        -0.012035207822918892,
        -0.056246280670166016,
        0.04096338525414467,
        0.18517470359802246,
        -0.06369748711585999,
        0.02871866337954998,
        0.09606879204511642,
        -0.11215677112340927,
        -0.12454625219106674,
        -0.13148991763591766,
        0.05243624746799469,
        0.06958062201738358,
        -0.08571571111679077,
        0.05268692970275879,
        -0.02493242919445038,
        0.09383454918861389,
        -0.03444385156035423,
        -0.10509098321199417,
        -0.05665173754096031,
        -0.07250762730836868,
        -0.07267338782548904,
        0.011315254494547844,
        0.042870957404375076,
        -0.012371893040835857,
        -0.07600920647382736,
        0.05762876197695732,
        -0.152237668633461,
        -5.8970588725060225e-05,
        0.0999857559800148,
        -0.10507822036743164,
        0.01813356764614582,
        -0.1769314408302307,
        -0.17873090505599976,
        -0.11579270660877228,
        0.0837482213973999,
        0.07329259812831879,
        -0.05543011426925659,
        -0.06775280833244324,
        0.06832824647426605,
        0.17405936121940613,
        0.06988906860351562,
        -0.18846119940280914,
        -0.010134239681065083
      ],
      [
        -0.08788739889860153,
        0.09747973084449768,
        0.07915282994508743,
        -0.09149116277694702,
        -0.10597217828035355,
        -0.16592562198638916,
        -0.09557808935642242,
        -0.06163555011153221,
        0.09039976447820663,
        -0.14949877560138702,
        0.008692409843206406,
        -0.10228733718395233,
        0.14557205140590668,
        0.06590308994054794,
        0.20606237649917603,
        -0.049767084419727325,
        0.06313493102788925,
        -0.12353749573230743,
        -0.11274667084217072,
        0.1924697756767273,
        -0.14449205994606018,
        -0.10397019982337952,
        -0.025162378326058388,
        0.08683663606643677,
        0.04673394188284874,
        0.20561115443706512,
        -0.1768529713153839,
        0.030833937227725983,
        0.14715352654457092,
        0.02500452846288681,
        0.047793079167604446,
        -0.11552730947732925,
        -0.08203889429569244,
        0.1498105227947235,
        0.008606938645243645,
        0.09999971091747284,
        0.18665215373039246,
        0.10889964550733566,
        0.001966200303286314,
        0.17414848506450653,
        -0.0906892642378807,
        0.11197734624147415,
        -0.09186339378356934,
        -0.11274741590023041,
        0.11437288671731949,
        -0.03810563310980797,
        -0.07345160096883774,
        -0.09254438430070877,
        -0.17019832134246826,
        -0.15830068290233612,
        -0.1296846866607666,
        -0.08527222275733948,
        -0.21548032760620117,
        -0.14402654767036438,
        -0.10017115622758865,
        -0.08113991469144821,
        -0.027084846049547195,
        -0.037016600370407104,
        0.08060159534215927,
        0.20297695696353912,
        -0.0076268198899924755,
        0.05574975162744522,
        0.09346534311771393,
        0.05838288366794586
      ],
      [
        -0.0038846898823976517,
        0.01201836857944727,
        0.05221126973628998,
        -0.20241594314575195,
        -0.101374551653862,
        -0.03813108429312706,
        -0.08123063296079636,
        -0.11510016024112701,
        -0.12858329713344574,
        0.0763934850692749,
        0.0446973517537117,
        -0.046974487602710724,
        -0.06093469634652138,
        0.04340016096830368,
        0.11310447007417679,
        -0.14970222115516663,
        0.11090624332427979,
        0.07239355146884918,
        -0.11311642080545425,
        0.11488410830497742,
        -0.005024826619774103,
        0.009437896311283112,
        0.08325125277042389,
        0.08182793110609055,
        0.06468375027179718,
        -0.013430656865239143,
        -0.08432772755622864,
        0.123404361307621,
        0.032305944710969925,
        0.10912923514842987,
        -0.008449922315776348,
        0.07039691507816315,
        -0.07697787135839462,
        -0.0372626930475235,
        0.04586765542626381,
        -0.02861100435256958,
        0.13898015022277832,
        0.0077355122193694115,
        0.05513860657811165,
        0.1519588828086853,
        -0.013675147667527199,
        -0.025565825402736664,
        0.05556783452630043,
        -0.11448508501052856,
        -0.13063785433769226,
        0.07017390429973602,
        -0.15334326028823853,
        -0.01485373079776764,
        0.08607847988605499,
        0.0360029935836792,
        -0.09904361516237259,
        -0.051691289991140366,
        0.06002456322312355,
        -0.06608817726373672,
        0.11012422293424606,
        -0.09337752312421799,
        -0.07349061220884323,
        -0.07439202815294266,
        -0.014289455488324165,
        0.14920412003993988,
        -0.10235114395618439,
        -0.06656816601753235,
        0.05185254290699959,
        0.12126119434833527
      ],
      [
        -0.03299921378493309,
        0.21604974567890167,
        0.04631843790411949,
        0.2431587278842926,
        -0.13959051668643951,
        -0.13954216241836548,
        -0.1932651698589325,
        0.04618830606341362,
        0.01719161495566368,
        -0.08039836585521698,
        0.09832227230072021,
        0.2368340790271759,
        -0.04138810187578201,
        0.017052646726369858,
        0.11181983351707458,
        0.19167956709861755,
        0.03588294982910156,
        -0.10505520552396774,
        0.2693038880825043,
        0.12758897244930267,
        -0.06505504995584488,
        -0.19551657140254974,
        -0.146219864487648,
        -0.03537583723664284,
        0.040063951164484024,
        0.0298878476023674,
        -0.18037988245487213,
        0.0828433632850647,
        -0.021845001727342606,
        -0.25651705265045166,
        -0.0810118094086647,
        -0.19760844111442566,
        0.0077439844608306885,
        0.08011612296104431,
        0.1841677725315094,
        -0.05809515714645386,
        0.108254574239254,
        -0.012882906012237072,
        -0.13125602900981903,
        0.06170975789427757,
        -0.23016828298568726,
        0.11529267579317093,
        0.08541471511125565,
        0.005616027861833572,
        0.04143844544887543,
        0.12295433133840561,
        0.09346313774585724,
        -0.03653547540307045,
        -0.13360370695590973,
        -0.027819467708468437,
        -0.21906884014606476,
        0.021511347964406013,
        -0.13172748684883118,
        -0.05197170004248619,
        -0.27689987421035767,
        0.12183846533298492,
        0.08330536633729935,
        -0.16441841423511505,
        0.007843165658414364,
        0.21952658891677856,
        0.230110302567482,
        -0.0058264476247131824,
        -0.05545569583773613,
        -0.18723982572555542
      ],
      [
        -0.01354812178760767,
        0.030960550531744957,
        -0.08347317576408386,
        0.003926994279026985,
        -0.12671774625778198,
        -0.05984431877732277,
        0.01950266771018505,
        0.21751928329467773,
        0.12730541825294495,
        -0.20911945402622223,
        0.08411817997694016,
        -0.009948440827429295,
        -0.03195185586810112,
        0.24056081473827362,
        0.213713601231575,
        -0.030955392867326736,
        -0.11112945526838303,
        -0.20034600794315338,
        0.036868296563625336,
        0.14167679846286774,
        -0.14766395092010498,
        0.020688744261860847,
        -0.1508772373199463,
        0.1286381185054779,
        0.15662133693695068,
        0.06095484644174576,
        -0.22615940868854523,
        0.17271600663661957,
        0.043664198368787766,
        0.11179875582456589,
        0.04635443165898323,
        -0.024594666436314583,
        -0.10474296659231186,
        0.04044659435749054,
        -0.022965652868151665,
        0.1862986981868744,
        0.04535038024187088,
        0.051986563950777054,
        0.00982996728271246,
        0.010080845095217228,
        -0.19539012014865875,
        0.14020800590515137,
        -0.11770954728126526,
        -0.05189695581793785,
        0.08643042296171188,
        -0.04313858225941658,
        -0.044633109122514725,
        -0.18004760146141052,
        -0.047778889536857605,
        -0.08586869388818741,
        -0.0416865237057209,
        -0.06949891895055771,
        -0.10268394649028778,
        -0.11888324469327927,
        0.054874762892723083,
        0.05181722342967987,
        -0.05379733070731163,
        -0.1829473227262497,
        -0.025090737268328667,
        0.05942542850971222,
        0.0003218941856175661,
        0.15791505575180054,
        0.014662339352071285,
        -0.07605442404747009
      ],
      [
        0.049033984541893005,
        -0.030473139137029648,
        0.0825786292552948,
        -0.10556519776582718,
        0.06815701723098755,
        0.02395223081111908,
        -0.0056558772921562195,
        0.09163608402013779,
        -0.12818454205989838,
        0.055461615324020386,
        -0.059134937822818756,
        -0.23250636458396912,
        0.09418606013059616,
        -0.11776063591241837,
        -0.16734784841537476,
        -0.18778063356876373,
        0.0006111192051321268,
        -0.005083387717604637,
        -0.08663240075111389,
        -0.020931001752614975,
        0.02944733388721943,
        0.004576367326080799,
        0.06341028213500977,
        0.13789202272891998,
        -0.18114838004112244,
        0.04673736169934273,
        0.0754268541932106,
        -0.0962577760219574,
        0.11819931864738464,
        0.2345682829618454,
        0.24644358456134796,
        0.03612688556313515,
        0.11079423874616623,
        -0.004838308319449425,
        -0.18153882026672363,
        0.1373376101255417,
        -0.029893141239881516,
        -0.08649216592311859,
        0.048400070518255234,
        0.19053204357624054,
        0.09446384757757187,
        0.0559963658452034,
        -0.2517368197441101,
        -0.04279075562953949,
        -0.17441847920417786,
        0.08045350760221481,
        -0.2606270909309387,
        0.07592026144266129,
        0.0342368558049202,
        -0.08124673366546631,
        0.16885659098625183,
        -0.16312821209430695,
        0.10976547747850418,
        0.13075418770313263,
        0.06632799655199051,
        -0.13291138410568237,
        -0.10191058367490768,
        -0.026965152472257614,
        0.005855731666088104,
        -0.14764921367168427,
        -0.08451896160840988,
        -0.07586732506752014,
        0.20055228471755981,
        0.11027849465608597
      ],
      [
        0.0377928763628006,
        0.110628642141819,
        0.013906431384384632,
        -0.18721778690814972,
        0.08957895636558533,
        0.008054466918110847,
        -0.06671568751335144,
        -0.05602848902344704,
        -0.014350974932312965,
        0.043183498084545135,
        0.03611062467098236,
        -0.23749908804893494,
        0.046596623957157135,
        0.01663997769355774,
        0.06828213483095169,
        -0.1281706839799881,
        0.12326987832784653,
        0.14630670845508575,
        -0.16859224438667297,
        -0.13806115090847015,
        -0.09334981441497803,
        0.20501670241355896,
        -0.0813240185379982,
        -0.02199779450893402,
        -0.2229427546262741,
        -0.02425811067223549,
        0.1300308108329773,
        -0.20011846721172333,
        -0.016511185094714165,
        0.2633174955844879,
        0.10168547183275223,
        -0.02941095642745495,
        0.09096460044384003,
        -0.19805482029914856,
        -0.23251231014728546,
        0.032354436814785004,
        0.03459208831191063,
        -0.2569226324558258,
        0.22264285385608673,
        0.037338465452194214,
        0.06626657396554947,
        0.1137467697262764,
        -0.08578521758317947,
        -0.07224477082490921,
        -0.24224621057510376,
        -0.11781197041273117,
        -0.09599877893924713,
        0.1318528652191162,
        0.18436093628406525,
        0.07928477972745895,
        0.00795133039355278,
        -0.0572625957429409,
        -0.05913413688540459,
        0.052812397480010986,
        0.17381435632705688,
        -0.13908551633358002,
        -0.18212570250034332,
        0.08292488753795624,
        0.1594311147928238,
        -0.19681400060653687,
        0.025042107328772545,
        0.12100939452648163,
        0.11504168063402176,
        -0.07968733459711075
      ],
      [
        0.0038477920461446047,
        -0.07031258940696716,
        -0.02994323894381523,
        -0.05892421305179596,
        0.03441689535975456,
        0.17109140753746033,
        0.1978648602962494,
        -0.17684218287467957,
        -0.0667460486292839,
        0.1827240288257599,
        -0.08816505968570709,
        -0.07552746683359146,
        -0.0616457499563694,
        -0.0003279382362961769,
        -0.11570414155721664,
        -0.17243768274784088,
        0.011710095219314098,
        0.1437288373708725,
        -0.03856797143816948,
        0.003912246786057949,
        0.1125723123550415,
        0.050333306193351746,
        0.14772793650627136,
        -0.10675939172506332,
        -0.1733897179365158,
        -0.19880551099777222,
        -0.015887511894106865,
        -0.08572510629892349,
        -0.19360873103141785,
        0.014279046095907688,
        -0.0615089125931263,
        0.19059370458126068,
        0.09685922414064407,
        -0.06009961664676666,
        -0.00217640632763505,
        -0.1018519178032875,
        -0.15779021382331848,
        -0.10214311629533768,
        -0.07056985050439835,
        -0.07783789932727814,
        0.015884026885032654,
        -0.06768284738063812,
        0.10506922006607056,
        0.03118758648633957,
        0.009367230348289013,
        -0.03601110726594925,
        0.05477459728717804,
        0.0827336236834526,
        0.13517726957798004,
        0.009047347120940685,
        -0.035284873098134995,
        0.19026696681976318,
        0.1577455997467041,
        0.009943856857717037,
        0.058515917509794235,
        -0.17628395557403564,
        0.06074116379022598,
        -0.041341688483953476,
        0.003008896252140403,
        -0.19877655804157257,
        -0.10706591606140137,
        0.02104508876800537,
        -0.04865264520049095,
        0.0010597541695460677
      ],
      [
        0.18528121709823608,
        -0.1911264955997467,
        0.038846954703330994,
        0.08846304565668106,
        0.1266249716281891,
        -0.030244940891861916,
        0.17168819904327393,
        -0.005321131553500891,
        -0.11259513348340988,
        0.007145198527723551,
        -0.10163044929504395,
        0.0611395537853241,
        -0.005975218955427408,
        -0.10761630535125732,
        -0.03217175230383873,
        0.11679273843765259,
        0.08145619928836823,
        0.17075391113758087,
        0.09067679196596146,
        -0.06742251664400101,
        0.07807380706071854,
        0.1410330832004547,
        0.2009407877922058,
        -0.024354783818125725,
        -0.09326887875795364,
        -0.16592177748680115,
        0.03361384570598602,
        -0.1788185089826584,
        -0.12645728886127472,
        0.01866040751338005,
        -0.04936503618955612,
        0.04634838551282883,
        0.05408972501754761,
        -0.1669575721025467,
        -0.1122366264462471,
        -0.05451918765902519,
        -0.1812400370836258,
        0.01641702651977539,
        0.15813718736171722,
        -0.061535827815532684,
        0.15346896648406982,
        -0.19971667230129242,
        0.06112144887447357,
        -0.16867278516292572,
        0.004904732573777437,
        -0.15932542085647583,
        0.12354768812656403,
        -0.050187479704618454,
        0.10242246091365814,
        -0.01215051393955946,
        0.09699434787034988,
        0.10595344752073288,
        0.08379210531711578,
        0.00845936220139265,
        0.1119500994682312,
        -0.03996535390615463,
        0.07617536187171936,
        0.002441848861053586,
        -0.16312910616397858,
        -0.15046992897987366,
        0.07467299699783325,
        0.008977393619716167,
        -0.10982918739318848,
        0.07200391590595245
      ],
      [
        -0.002101040678098798,
        0.1419033706188202,
        0.046150002628564835,
        -0.045244134962558746,
        -0.059258896857500076,
        0.01227013673633337,
        -0.1768440455198288,
        -0.07906091213226318,
        0.04110756516456604,
        -0.09642382711172104,
        -0.06135027855634689,
        -0.02728392370045185,
        0.09265448898077011,
        0.06664948910474777,
        -0.03531303629279137,
        0.0059323725290596485,
        0.12313075363636017,
        0.0037524395156651735,
        0.07535260170698166,
        -0.06347551941871643,
        -0.11805016547441483,
        -0.09096227586269379,
        -0.014038631692528725,
        0.01075331587344408,
        -0.04788198322057724,
        0.147858664393425,
        -0.1397206038236618,
        -0.02275506965816021,
        0.08219403028488159,
        -0.0015494541730731726,
        0.04521682485938072,
        -0.04242883622646332,
        -0.09943041205406189,
        -0.06204997003078461,
        -0.04568222537636757,
        -0.10722431540489197,
        0.09622464329004288,
        0.1338510662317276,
        -0.03432410955429077,
        0.041381094604730606,
        0.023164795711636543,
        0.07695381343364716,
        -0.07034565508365631,
        -0.09072346240282059,
        0.15894201397895813,
        0.16038885712623596,
        0.11282073706388474,
        0.08975952118635178,
        -0.027259161695837975,
        0.06007746234536171,
        0.02112014777958393,
        -0.03773621469736099,
        -0.07810963690280914,
        0.10493070632219315,
        -0.004834209103137255,
        0.03144695237278938,
        -0.10680025815963745,
        0.01632755994796753,
        -0.061800517141819,
        -0.033600736409425735,
        0.01640704832971096,
        0.07346037030220032,
        0.03399639204144478,
        -0.002612027572467923
      ],
      [
        0.02737702615559101,
        -0.16730865836143494,
        -0.10993721336126328,
        0.09633097052574158,
        -0.035833097994327545,
        0.016445893794298172,
        -0.036285411566495895,
        -0.049605730921030045,
        0.01754973642528057,
        0.03208964318037033,
        -0.11444665491580963,
        0.0240494254976511,
        -0.00953622069209814,
        -0.07302617281675339,
        0.06950441747903824,
        0.09971293061971664,
        0.028961019590497017,
        -0.060745228081941605,
        0.1843627244234085,
        -0.05224938318133354,
        0.12466157972812653,
        -0.007915123365819454,
        -0.03225744888186455,
        -0.2238292098045349,
        0.002199609763920307,
        -0.03513642027974129,
        -0.16196541488170624,
        0.06681482493877411,
        -0.06409410387277603,
        -0.08301392942667007,
        -0.15337085723876953,
        0.06478293240070343,
        0.13211025297641754,
        0.10276912152767181,
        0.13073861598968506,
        -0.1878456324338913,
        0.003825398860499263,
        0.02645711600780487,
        0.00516439089551568,
        -0.05867627635598183,
        0.0039018867537379265,
        -0.03614730015397072,
        0.03658698499202728,
        0.1679825484752655,
        0.06630416214466095,
        -0.14016440510749817,
        0.13239893317222595,
        0.010958006605505943,
        -0.13087233901023865,
        0.1817321926355362,
        -0.11392587423324585,
        0.22545740008354187,
        -0.03644299507141113,
        -0.088198222219944,
        -0.14808456599712372,
        0.02902606688439846,
        -0.043607670813798904,
        -0.018158718943595886,
        -0.11770529299974442,
        0.16577011346817017,
        0.09863480180501938,
        -0.06572775542736053,
        -0.2477470338344574,
        0.1287349909543991
      ],
      [
        -0.017175855115056038,
        0.018937405198812485,
        0.12055659294128418,
        -0.2213425636291504,
        -0.14748212695121765,
        -0.14171914756298065,
        -0.1740712821483612,
        0.10126148164272308,
        0.014093596488237381,
        0.05666486173868179,
        0.2027776539325714,
        0.003739609383046627,
        -0.034703999757766724,
        -0.003475208766758442,
        0.1069789007306099,
        -0.16931138932704926,
        -0.07117147743701935,
        -0.024756968021392822,
        -0.16665013134479523,
        0.10397373884916306,
        -0.2005351334810257,
        -0.03486498072743416,
        -0.157438263297081,
        0.09686961770057678,
        -0.0014572034124284983,
        0.13089731335639954,
        -0.08486471325159073,
        0.061143454164266586,
        0.03442395105957985,
        0.20986345410346985,
        0.14357298612594604,
        -0.1128513365983963,
        0.04364456608891487,
        0.06029042974114418,
        -0.17761363089084625,
        0.18061016499996185,
        0.17519482970237732,
        -0.17287883162498474,
        0.04754113405942917,
        0.05345651134848595,
        0.04145705699920654,
        0.16930601000785828,
        -0.017196953296661377,
        -0.03552233427762985,
        -0.07492709904909134,
        0.05774665251374245,
        -0.1838516891002655,
        0.12098268419504166,
        -0.06603255122900009,
        -0.07322700321674347,
        0.0739106610417366,
        -0.13640469312667847,
        -0.15598708391189575,
        0.03775423765182495,
        0.14934539794921875,
        -0.133451908826828,
        -0.14346358180046082,
        -0.15194477140903473,
        -0.0054556261748075485,
        0.10922694951295853,
        0.11257394403219223,
        0.17033861577510834,
        0.004318463150411844,
        -0.06921228766441345
      ],
      [
        -0.04471086338162422,
        0.16460426151752472,
        -0.010367491282522678,
        -0.05666613578796387,
        -0.08071474730968475,
        -0.15430676937103271,
        -0.01977808028459549,
        0.1599792242050171,
        -0.007921875454485416,
        -0.20262789726257324,
        0.08461488783359528,
        0.04973078891634941,
        -0.013334526680409908,
        0.16951178014278412,
        0.2082781046628952,
        -0.07328753918409348,
        0.013876873068511486,
        -0.029159387573599815,
        -0.04259318858385086,
        0.22618107497692108,
        -0.12325312942266464,
        0.03614038601517677,
        -0.19865746796131134,
        0.18757182359695435,
        0.06538020074367523,
        -0.02932620793581009,
        -0.04188267141580582,
        0.10538732260465622,
        0.12905970215797424,
        0.09826059639453888,
        0.06180838495492935,
        -0.05318542197346687,
        -0.19330275058746338,
        -0.029069650918245316,
        0.03893072530627251,
        -0.004738979507237673,
        -0.019772466272115707,
        0.03468251973390579,
        -0.11711336672306061,
        0.05224424973130226,
        -0.08842688798904419,
        0.15291447937488556,
        -0.08727142959833145,
        0.08623268455266953,
        -0.005742604378610849,
        0.10440635681152344,
        -0.0008242842159233987,
        -0.04972606897354126,
        -0.1460503339767456,
        0.01718018762767315,
        -0.0902644544839859,
        -0.06411515176296234,
        -0.04836275056004524,
        -0.231708362698555,
        -0.03501678258180618,
        0.18172687292099,
        0.011799601837992668,
        0.011660180054605007,
        -0.048300642520189285,
        0.22128579020500183,
        0.1056082621216774,
        -0.032197944819927216,
        0.1513565182685852,
        0.022118670865893364
      ],
      [
        0.04153437167406082,
        0.11019113659858704,
        -0.10716000944375992,
        0.24265216290950775,
        -0.08878565579652786,
        -0.09618575125932693,
        0.06973566859960556,
        -0.03889056295156479,
        -0.10126687586307526,
        -0.15900762379169464,
        0.06535426527261734,
        0.1531105935573578,
        -0.10666228830814362,
        -0.026605064049363136,
        0.03701192885637283,
        0.0745401680469513,
        -0.1111440509557724,
        0.04960343986749649,
        0.017629047855734825,
        0.1713177114725113,
        -0.055197566747665405,
        -0.2003965973854065,
        0.03986356034874916,
        -0.1226615235209465,
        0.1553306132555008,
        -0.08075030893087387,
        -0.06430190056562424,
        0.20198512077331543,
        -0.1107068657875061,
        -0.14617374539375305,
        0.026275981217622757,
        0.12068600952625275,
        0.013340787962079048,
        0.14587479829788208,
        0.19873696565628052,
        0.030112704262137413,
        -0.0006001705187372863,
        0.17783065140247345,
        -0.16892831027507782,
        -0.05724933370947838,
        -0.06481938809156418,
        -0.036572616547346115,
        0.1394331008195877,
        0.18720972537994385,
        0.06407571583986282,
        -0.006759860552847385,
        0.16907814145088196,
        -0.05383738502860069,
        -0.12838560342788696,
        0.08273208141326904,
        -0.015926126390695572,
        0.16013629734516144,
        -0.041027795523405075,
        -0.023397112265229225,
        -0.21995455026626587,
        0.13681471347808838,
        -0.05650242045521736,
        0.07827039808034897,
        -0.052128247916698456,
        0.06537814438343048,
        0.1338387131690979,
        -0.05279356613755226,
        -0.04064415022730827,
        0.06276042759418488
      ],
      [
        -0.07144024223089218,
        -0.25951245427131653,
        0.08395857363939285,
        -0.18962886929512024,
        0.04615827649831772,
        0.1076858714222908,
        0.14183367788791656,
        -0.16239498555660248,
        -0.17459185421466827,
        0.0899321660399437,
        -0.19687774777412415,
        -0.10599534958600998,
        -0.19075211882591248,
        -0.2926246225833893,
        -0.30520784854888916,
        -0.24563205242156982,
        0.01147074718028307,
        0.15156424045562744,
        -0.18267382681369781,
        -0.1027998998761177,
        0.11596442759037018,
        0.026371559128165245,
        0.19114388525485992,
        -0.06789527088403702,
        -0.025579005479812622,
        0.037811294198036194,
        0.22260941565036774,
        -0.23331813514232635,
        -0.10250406712293625,
        0.035335004329681396,
        0.10598374903202057,
        0.28476813435554504,
        0.12956838309764862,
        -0.2328612357378006,
        -0.19334687292575836,
        -0.10104945302009583,
        -0.09180142730474472,
        -0.18619856238365173,
        0.2537192702293396,
        0.09193436801433563,
        0.23080527782440186,
        -0.08588912338018417,
        -0.11721339821815491,
        -0.048460036516189575,
        -0.12425842136144638,
        -0.046895258128643036,
        -0.10021062940359116,
        0.20406250655651093,
        0.1094667986035347,
        0.2185404896736145,
        0.13056690990924835,
        0.07115856558084488,
        0.1775868684053421,
        0.030371936038136482,
        0.12505432963371277,
        -0.1742561012506485,
        -0.14779646694660187,
        0.10186693072319031,
        0.0026985846925526857,
        -0.15777534246444702,
        -0.17757439613342285,
        -0.18167081475257874,
        0.12999288737773895,
        0.04988361522555351
      ],
      [
        -0.2065337598323822,
        0.10809936374425888,
        0.029396746307611465,
        -0.19794155657291412,
        -0.06534887850284576,
        -0.11391544342041016,
        -0.055304866284132004,
        0.12279454618692398,
        -0.018192263320088387,
        -0.10226716101169586,
        0.11361417174339294,
        -0.16726230084896088,
        0.16864076256752014,
        0.14817838370800018,
        0.20068992674350739,
        -0.13475798070430756,
        -0.10460326075553894,
        -0.14873643219470978,
        -0.05579446256160736,
        0.10948867350816727,
        -0.1496402621269226,
        -0.0016896995948627591,
        -0.14171500504016876,
        0.1639554798603058,
        -0.04489518329501152,
        0.1202622503042221,
        -0.025606965646147728,
        0.1425522416830063,
        0.15250828862190247,
        0.09650067239999771,
        0.1455782949924469,
        -0.0588858462870121,
        -0.08483721315860748,
        0.007909146137535572,
        -0.08835489302873611,
        0.19163911044597626,
        0.0678669884800911,
        -0.007018742151558399,
        -0.13548357784748077,
        0.20588339865207672,
        -0.04828844219446182,
        0.10733582824468613,
        -0.21743422746658325,
        -0.015339953824877739,
        0.023405054584145546,
        0.1455543041229248,
        -0.06044255942106247,
        -0.04620666056871414,
        0.031496159732341766,
        -0.1001022607088089,
        0.0833272710442543,
        -0.03877006843686104,
        -0.16636261343955994,
        -0.11877822130918503,
        -0.03137824684381485,
        -0.007021889556199312,
        0.0013627706794068217,
        -0.20354364812374115,
        0.1882394701242447,
        0.1786147952079773,
        0.06071024388074875,
        0.02991364896297455,
        0.016672084107995033,
        -0.09333396703004837
      ],
      [
        0.08386453241109848,
        -0.045963726937770844,
        0.10457080602645874,
        0.12128100544214249,
        -0.03367941081523895,
        0.13282103836536407,
        0.15261535346508026,
        -0.14058181643486023,
        -0.017612485215067863,
        -0.08741488307714462,
        -0.19118696451187134,
        0.13291114568710327,
        -0.036133699119091034,
        -0.12197797745466232,
        -0.16012413799762726,
        -0.08416848629713058,
        0.16742323338985443,
        0.09698321670293808,
        0.07855454087257385,
        -0.03212170675396919,
        0.12613604962825775,
        -0.021877111867070198,
        0.11980470269918442,
        -0.05027851462364197,
        -0.05051403120160103,
        -0.14206303656101227,
        0.07387244701385498,
        0.03521844744682312,
        0.0046187592670321465,
        -0.1832835078239441,
        -0.06300181150436401,
        -0.04647699370980263,
        0.06789180636405945,
        -0.1445334255695343,
        -0.04328695684671402,
        -0.1600203812122345,
        0.04704887419939041,
        0.20134690403938293,
        -0.07556365430355072,
        -0.09080518782138824,
        -0.06031056493520737,
        -0.18783339858055115,
        0.0638669803738594,
        -0.02726525440812111,
        -0.017904428765177727,
        -0.022095493972301483,
        0.08992412686347961,
        0.007527828216552734,
        0.01751348003745079,
        0.09133066236972809,
        0.1102699562907219,
        -0.004553388338536024,
        -0.06911198049783707,
        0.051913872361183167,
        0.006700784899294376,
        0.10416216403245926,
        0.1870463788509369,
        -0.024426665157079697,
        -0.13483315706253052,
        -0.1365266740322113,
        0.04434387758374214,
        -0.005526323802769184,
        -0.17014500498771667,
        -0.011995673179626465
      ],
      [
        0.056630056351423264,
        0.1003071665763855,
        -0.11761191487312317,
        0.02051524445414543,
        -0.13826949894428253,
        0.025483816862106323,
        0.008453859016299248,
        0.08385737985372543,
        0.003548028413206339,
        -0.04209069535136223,
        -0.023016436025500298,
        0.12117630243301392,
        0.035399429500103,
        0.08974433690309525,
        0.10563573241233826,
        -0.10533294826745987,
        0.01839388534426689,
        0.0654701218008995,
        0.0746595710515976,
        0.12370618432760239,
        0.005471257027238607,
        0.006838879082351923,
        -0.0659116730093956,
        0.08712799847126007,
        0.08648834377527237,
        0.07759011536836624,
        -0.14192821085453033,
        0.08510506898164749,
        0.14823205769062042,
        0.09793532639741898,
        -0.04933340847492218,
        -0.01080015953630209,
        -0.14112477004528046,
        0.07807528227567673,
        0.08786937594413757,
        -0.04364728555083275,
        0.16489046812057495,
        0.09452776610851288,
        0.005364308599382639,
        0.06983200460672379,
        -0.010617694817483425,
        0.033384766429662704,
        -0.08153022825717926,
        0.06966517865657806,
        -0.0520830936729908,
        0.029183125123381615,
        -0.05039690062403679,
        -0.11823365837335587,
        -0.16408100724220276,
        -0.09450796246528625,
        -0.02139327861368656,
        -0.009404100477695465,
        -0.08766531199216843,
        -0.0009241382940672338,
        0.0336017869412899,
        -0.03350941836833954,
        -0.1211557686328888,
        0.0677589550614357,
        -0.09801850467920303,
        -0.0019325162284076214,
        -0.059414301067590714,
        -0.025284258648753166,
        -0.06681868433952332,
        -0.05451764166355133
      ],
      [
        0.023178894072771072,
        0.08405954390764236,
        -0.14139965176582336,
        0.04387728124856949,
        -0.10963534563779831,
        -0.0999535545706749,
        -0.0011768623953685164,
        -0.09293816983699799,
        0.08600709587335587,
        -0.17277078330516815,
        -0.015595625154674053,
        0.08947578817605972,
        0.11131378263235092,
        -0.017601516097784042,
        -0.014286506921052933,
        0.21220146119594574,
        0.1067083477973938,
        0.07564183324575424,
        0.14049406349658966,
        0.11684748530387878,
        -0.020307617262005806,
        -0.1550537794828415,
        0.014163821935653687,
        -0.15896271169185638,
        0.11302109062671661,
        0.0034895320422947407,
        -0.05260267108678818,
        0.23741240799427032,
        -0.10398347675800323,
        -0.2081676721572876,
        -0.25948449969291687,
        0.04089466854929924,
        -0.11193463951349258,
        -0.02532227709889412,
        0.16391929984092712,
        -0.09066097438335419,
        -0.05624579265713692,
        0.21917346119880676,
        -0.21457915008068085,
        -0.030119504779577255,
        0.03406224772334099,
        0.04927407205104828,
        0.09598321467638016,
        0.18486455082893372,
        0.051228899508714676,
        0.14994002878665924,
        0.13039530813694,
        -0.18792110681533813,
        -0.10842400044202805,
        0.0866045281291008,
        -0.16879992187023163,
        0.18271778523921967,
        -0.02659286931157112,
        -0.22433432936668396,
        -0.24536335468292236,
        0.24563021957874298,
        0.22663472592830658,
        0.029066141694784164,
        0.02769370749592781,
        0.008203488774597645,
        0.048978324979543686,
        -0.09490621089935303,
        -0.20383451879024506,
        -0.08084119111299515
      ],
      [
        0.1264120638370514,
        -0.046481285244226456,
        0.0760774314403534,
        -0.032882869243621826,
        0.1712992638349533,
        0.0773807168006897,
        0.13756005465984344,
        0.02045200951397419,
        0.02657299116253853,
        0.1460498571395874,
        -2.808764111250639e-05,
        -0.040078774094581604,
        -0.05482426658272743,
        -0.11552153527736664,
        -0.036118991672992706,
        -0.06149802356958389,
        -0.004743912257254124,
        -0.007592000067234039,
        -0.10663790255784988,
        0.06551840901374817,
        0.013571847230196,
        -0.04838722571730614,
        0.06362492591142654,
        -0.07921508699655533,
        -0.11453097313642502,
        -0.033168110996484756,
        -0.04179386794567108,
        -0.13392922282218933,
        -0.14762909710407257,
        -0.12373928725719452,
        0.041540950536727905,
        0.11932478845119476,
        0.17243725061416626,
        -0.1467675268650055,
        -0.10225742310285568,
        -0.012412544339895248,
        -0.11908090114593506,
        -0.0013259146362543106,
        -0.05558794364333153,
        -0.18772517144680023,
        -0.015430108644068241,
        -0.13825981318950653,
        0.1258622258901596,
        -0.06947217881679535,
        0.13091672956943512,
        0.12580905854701996,
        0.10077859461307526,
        -0.07103370875120163,
        0.11244592815637589,
        0.13754354417324066,
        -0.032803215086460114,
        0.04844972491264343,
        0.08479323238134384,
        0.010001271031796932,
        -0.0625424012541771,
        -0.03750906139612198,
        0.025444256141781807,
        0.14231280982494354,
        0.0005250454414635897,
        0.0374363511800766,
        -0.03206319361925125,
        -0.18341435492038727,
        0.07627716660499573,
        0.06255809962749481
      ],
      [
        0.1042676493525505,
        -0.0837223082780838,
        -0.08383309096097946,
        0.15142109990119934,
        -0.03193109482526779,
        -0.06285278499126434,
        0.04561872035264969,
        0.07463697344064713,
        0.1447679102420807,
        -0.051635656505823135,
        -0.0017065579304471612,
        0.1557125300168991,
        -0.036603912711143494,
        0.09915086627006531,
        0.06513398885726929,
        -0.021840857341885567,
        0.07472090423107147,
        -0.0627933219075203,
        0.029016690328717232,
        -0.02732113189995289,
        0.1394604742527008,
        -0.20990701019763947,
        0.04417641833424568,
        -0.10145582258701324,
        -0.017322534695267677,
        0.014521956443786621,
        -0.007601584307849407,
        0.1866374909877777,
        -0.14028938114643097,
        -0.05150637403130531,
        0.005166748538613319,
        0.00807253923267126,
        0.09637787938117981,
        0.17685316503047943,
        0.010397188365459442,
        0.03169894590973854,
        0.020628133788704872,
        0.10097093880176544,
        0.0019462021300569177,
        -0.04679427295923233,
        -0.05991874635219574,
        0.09721749275922775,
        0.15564866364002228,
        0.15562178194522858,
        0.04079403355717659,
        -0.11941943317651749,
        0.09277991950511932,
        -0.1252104490995407,
        -0.10237019509077072,
        -0.05252093821763992,
        0.005153331905603409,
        0.026177305728197098,
        -0.1683698296546936,
        -0.17117346823215485,
        -0.23848235607147217,
        0.173505499958992,
        0.048198144882917404,
        -0.06570470333099365,
        -0.14524689316749573,
        0.11917375773191452,
        -0.0463675893843174,
        -0.14757882058620453,
        -0.11580856144428253,
        0.06976635009050369
      ],
      [
        -0.07877813279628754,
        -0.06623875349760056,
        -0.04097839072346687,
        -0.045639678835868835,
        0.06378605961799622,
        0.005566064268350601,
        0.038847897201776505,
        0.11431864649057388,
        0.09171753376722336,
        -0.1203380823135376,
        0.07798492163419724,
        0.09387653321027756,
        0.10031489282846451,
        -0.036429714411497116,
        -0.07936681807041168,
        -0.03705970570445061,
        -0.04057752713561058,
        -0.07592794299125671,
        0.05607309564948082,
        0.0891551524400711,
        -0.15622578561306,
        -0.016135627403855324,
        0.01796877011656761,
        -0.0161429475992918,
        0.10402138531208038,
        0.11239957064390182,
        -0.13824902474880219,
        0.004944560118019581,
        -0.06506142020225525,
        -0.1052212342619896,
        -0.03826620429754257,
        0.036794908344745636,
        -0.024756677448749542,
        -0.015335395000874996,
        0.007854510098695755,
        0.03738551214337349,
        0.05224723741412163,
        0.11285490542650223,
        -0.06829994171857834,
        0.0183554757386446,
        0.11473653465509415,
        0.1375517100095749,
        -0.0019193775951862335,
        0.05650302395224571,
        0.01412543747574091,
        -0.05001845955848694,
        0.022556904703378677,
        0.03024798445403576,
        -0.08396520465612411,
        -0.04287978634238243,
        0.09883224964141846,
        -0.007818701677024364,
        -0.11948508024215698,
        -0.039788782596588135,
        0.06041542813181877,
        0.1452319175004959,
        0.10411491990089417,
        -0.10778320580720901,
        -0.039362579584121704,
        0.039461199194192886,
        0.11023582518100739,
        0.11331700533628464,
        0.001024181372486055,
        0.05160433053970337
      ],
      [
        -0.04361388832330704,
        0.04945393651723862,
        -0.11259215325117111,
        0.09954895824193954,
        0.060658905655145645,
        -0.08376128226518631,
        0.04378565773367882,
        -0.06979187577962875,
        0.08130186796188354,
        -0.20344987511634827,
        -0.03990187123417854,
        -0.008664648048579693,
        0.09415987879037857,
        0.14676445722579956,
        0.18773199617862701,
        0.19559918344020844,
        0.012820076197385788,
        -0.03662637248635292,
        0.1367427110671997,
        0.13003793358802795,
        0.02412400022149086,
        -0.14800269901752472,
        0.06344318389892578,
        -0.12561844289302826,
        0.1606200635433197,
        0.03720942512154579,
        -0.05188610404729843,
        0.15685537457466125,
        0.018346941098570824,
        -0.15505351126194,
        -0.12435350567102432,
        -0.09978104382753372,
        -0.12409830838441849,
        0.11084695160388947,
        0.11718475818634033,
        -0.029751699417829514,
        0.07284879684448242,
        0.1661093682050705,
        -0.12831170856952667,
        -0.11115056276321411,
        -0.16295360028743744,
        0.0958501324057579,
        -0.04841918498277664,
        0.1205434575676918,
        0.15823283791542053,
        0.024004803970456123,
        0.05661529302597046,
        -0.11173688620328903,
        -0.012592179700732231,
        -0.08761659264564514,
        -0.06378185003995895,
        -0.00031209454755298793,
        -0.038611579686403275,
        -0.12511149048805237,
        -0.19164806604385376,
        0.0392378494143486,
        0.12577293813228607,
        0.04579639434814453,
        -0.13164439797401428,
        0.01826510764658451,
        0.050873514264822006,
        -0.02415083907544613,
        -0.1205655187368393,
        0.045357149094343185
      ],
      [
        -0.06305373460054398,
        0.0021561591420322657,
        0.03456607088446617,
        -0.019109327346086502,
        -0.13220971822738647,
        -0.16624285280704498,
        -0.08384168148040771,
        0.07246822863817215,
        -0.03500031307339668,
        -0.09216547757387161,
        0.13481463491916656,
        0.017545100301504135,
        -0.09212452173233032,
        0.1099579930305481,
        0.023230766877532005,
        -0.05323757976293564,
        0.07619410008192062,
        0.09855242073535919,
        -0.04309922829270363,
        -0.04214473441243172,
        0.04076003283262253,
        0.18634375929832458,
        -0.05645707994699478,
        -0.026913505047559738,
        0.053144365549087524,
        0.004401660058647394,
        -0.05135384574532509,
        -0.128218874335289,
        0.10555323958396912,
        0.10713087022304535,
        -0.003547110827639699,
        -0.13737376034259796,
        0.07110852748155594,
        0.0142501350492239,
        0.03671986237168312,
        0.04729278385639191,
        0.15325672924518585,
        -0.09230577200651169,
        -0.015859270468354225,
        0.1436038464307785,
        0.01857505552470684,
        0.14907146990299225,
        -0.044735413044691086,
        -0.11363545060157776,
        -0.1494615375995636,
        -0.04619022086262703,
        -0.0853986144065857,
        -0.040650732815265656,
        0.1354249268770218,
        -0.09479739516973495,
        0.042689770460128784,
        0.009310831315815449,
        0.030592214316129684,
        0.03900854289531708,
        0.10321956872940063,
        -0.12222910672426224,
        -0.15696482360363007,
        0.03423616662621498,
        -0.02755817584693432,
        -0.10555987805128098,
        -0.13711531460285187,
        0.15812331438064575,
        -0.0006743133999407291,
        0.077439084649086
      ],
      [
        0.043840035796165466,
        0.04363217577338219,
        -0.029599780216813087,
        -0.16432316601276398,
        -0.09830285608768463,
        0.12590065598487854,
        -0.05692916736006737,
        -0.04335538670420647,
        0.030758315697312355,
        0.013972567394375801,
        0.022033462300896645,
        -0.10994723439216614,
        0.06520552933216095,
        -0.03900737315416336,
        -0.04008115082979202,
        -0.12239496409893036,
        0.10785506665706635,
        -0.04667161405086517,
        -0.06249744072556496,
        0.1182374358177185,
        -0.000567736744415015,
        0.11487039178609848,
        0.002080026548355818,
        0.02172260172665119,
        -0.06822441518306732,
        -0.11276375502347946,
        0.057919811457395554,
        0.07449185103178024,
        0.12308189272880554,
        -0.10631351917982101,
        0.009070114232599735,
        0.057496778666973114,
        0.07444150745868683,
        0.012443367391824722,
        0.00372188538312912,
        -0.1431577205657959,
        0.0034505652729421854,
        0.13642320036888123,
        -0.15030796825885773,
        -0.07239235937595367,
        0.10641547292470932,
        -0.011056257411837578,
        -0.018301736563444138,
        -0.052331022918224335,
        0.04797329008579254,
        0.04708248749375343,
        0.11477834731340408,
        0.0027372892946004868,
        -0.03252613916993141,
        -0.04096394032239914,
        -0.07889553904533386,
        -0.02053665928542614,
        0.03956925496459007,
        0.023271886631846428,
        0.061732158064842224,
        0.05684930086135864,
        0.09096670895814896,
        -0.08455002307891846,
        -0.02817041054368019,
        0.04510984197258949,
        0.09117399901151657,
        0.02596976049244404,
        0.08034020662307739,
        0.01955961063504219
      ],
      [
        -0.06604565680027008,
        -0.08098886162042618,
        -0.0033652251586318016,
        -0.01109673548489809,
        0.2175748646259308,
        0.00025073933647945523,
        -0.024249618873000145,
        -0.17510369420051575,
        -0.05282331630587578,
        -0.01256752759218216,
        -0.14395366609096527,
        0.1871737688779831,
        -0.013314907439053059,
        0.0034705493599176407,
        0.06501785665750504,
        -0.03586599975824356,
        -2.6981077098753303e-05,
        0.16884785890579224,
        0.1739596128463745,
        0.0388021394610405,
        0.17354805767536163,
        -0.03878110647201538,
        0.07114603370428085,
        -0.13626645505428314,
        0.10189258307218552,
        -0.20693594217300415,
        0.1581394225358963,
        -0.06069589778780937,
        -0.19965139031410217,
        -0.014992308802902699,
        -0.20013107359409332,
        0.01743781380355358,
        0.021446002647280693,
        -0.15024378895759583,
        0.053590450435876846,
        -0.13303668797016144,
        -0.10455694794654846,
        0.10345707088708878,
        -0.15354789793491364,
        -0.12223654240369797,
