#include "RNNModel.h"
#include <math.h>


// Shared scratch
float RNNModel::gate_buf[256]  = {0};
float RNNModel::dense_in[64]  = {0};
float RNNModel::dense_out[64] = {0};

// Per-layer hidden / cell state buffers
float RNNModel::h0[64]     = {0};
float RNNModel::h0_new[64]  = {0};
float RNNModel::h1[64]     = {0};
float RNNModel::h1_new[64]  = {0};

const float RNNModel::rec0_W_ih_w[64][1] = {
    {0.16669305f},
    {-0.07561854f},
    {-0.07565353f},
    {-0.19414228f},
    {-0.16757093f},
    {-0.08512934f},
    {-0.16687347f},
    {0.19054593f},
    {-0.16076449f},
    {-0.13146703f},
    {-0.22160283f},
    {0.12106054f},
    {-0.01042516f},
    {-0.13573000f},
    {0.13240775f},
    {0.15184386f},
    {-0.10904303f},
    {0.21327946f},
    {-0.14132008f},
    {0.10295980f},
    {0.01039342f},
    {-0.04696184f},
    {0.16308884f},
    {0.18844716f},
    {-0.18579508f},
    {-0.10443447f},
    {-0.20082235f},
    {0.02028837f},
    {-0.17737071f},
    {-0.19336212f},
    {-0.12671131f},
    {-0.18281816f},
    {-0.15587094f},
    {0.09355781f},
    {0.15844464f},
    {0.15160286f},
    {-0.12447901f},
    {-0.13771437f},
    {-0.16886844f},
    {0.13581333f},
    {-0.17940736f},
    {-0.00388282f},
    {-0.10331605f},
    {0.15628812f},
    {0.17475960f},
    {-0.12003499f},
    {0.12852219f},
    {-0.21755554f},
    {-0.10578268f},
    {-0.13188832f},
    {-0.01109055f},
    {-0.00039085f},
    {-0.14407082f},
    {-0.14400865f},
    {-0.15446042f},
    {0.10798000f},
    {-0.14451915f},
    {-0.14480597f},
    {0.16025986f},
    {0.16825618f},
    {-0.09891219f},
    {-0.06864834f},
    {0.11659690f},
    {-0.17003709f},
};

const float RNNModel::rec0_W_ih_b[64] = {-0.22516145f, -0.03297726f, -0.08600766f, 0.19821337f, -0.18299673f, -0.09299848f, 0.09855409f, -0.16088307f, -0.15339950f, -0.18800941f, 0.17829427f, -0.01626255f, -0.22885276f, -0.15931746f, 0.17446624f, 0.07379822f, -0.17726776f, -0.20816033f, -0.04824996f, 0.05566111f, -0.19076894f, 0.12951560f, 0.05810741f, -0.13601319f, 0.07136545f, 0.06330336f, -0.16814020f, -0.17491622f, -0.21016942f, 0.08467279f, -0.22542076f, 0.13092498f, -0.17254162f, 0.00965849f, -0.06805640f, -0.15434846f, -0.00150185f, 0.05882855f, 0.06902452f, -0.10356052f, 0.13543463f, 0.11844446f, -0.02773295f, 0.26031300f, -0.05957407f, 0.25495872f, 0.21556328f, 0.21112186f, 0.14090851f, -0.22177306f, -0.17668959f, 0.04875351f, 0.11887562f, 0.21453227f, -0.08072890f, 0.11184555f, 0.09265050f, -0.15707836f, 0.25961700f, -0.10052866f, -0.00522665f, -0.14473794f, 0.22426264f, -0.24547812f};

const float RNNModel::rec0_W_hh_w[64][64] = {
    {-0.03498951f, 0.09077990f, 0.02602768f, 0.08837233f, -0.04234186f, -0.07879774f, -0.08533852f, -0.07027881f, -0.09393847f, 0.06194617f, 0.03359818f, -0.07997805f, 0.11457460f, 0.03558739f, 0.04651965f, -0.05266914f, 0.08654223f, -0.08817360f, 0.09111588f, -0.06792675f, 0.05309200f, -0.04522049f, 0.08120865f, -0.10483390f, -0.02437234f, -0.03373954f, -0.07474650f, -0.06139927f, -0.03507563f, 0.01296113f, 0.08872575f, -0.02054091f, 0.12252508f, -0.05948377f, -0.06435186f, -0.00652033f, -0.02262919f, 0.03970408f, 0.11549826f, 0.04279876f, -0.10459618f, -0.04270734f, -0.02483305f, -0.11382456f, 0.03864853f, 0.10911322f, 0.06208171f, -0.00247517f, -0.00951642f, -0.05853671f, -0.01388669f, 0.10962962f, -0.06426530f, 0.01999821f, -0.09171519f, -0.03418271f, 0.00723834f, -0.09438741f, 0.03396237f, -0.10734047f, -0.05106300f, 0.08698726f, 0.11725676f, -0.00977302f},
    {-0.08934273f, -0.10263413f, -0.03071901f, -0.06378850f, 0.09936389f, -0.08910862f, 0.07524168f, 0.02376613f, -0.03801900f, 0.10189341f, 0.06956115f, -0.00437193f, -0.08472225f, -0.03679070f, 0.04030341f, 0.10830876f, -0.04218225f, -0.05194789f, -0.12213135f, 0.07683049f, 0.12200324f, 0.08605984f, -0.06965144f, 0.08954726f, -0.03789605f, 0.06535238f, 0.07308942f, -0.10191184f, 0.03093354f, 0.04990286f, -0.07514597f, 0.11556864f, 0.09758443f, 0.10447063f, -0.00112763f, -0.06687982f, -0.06830989f, 0.04418093f, -0.02483357f, 0.09935224f, 0.10468808f, 0.00964613f, -0.10233560f, 0.04961629f, 0.11186188f, -0.03139618f, -0.06541887f, -0.02924085f, 0.01790878f, -0.09274550f, 0.06675459f, 0.05343081f, -0.04779147f, -0.04630561f, -0.05931143f, 0.09771204f, 0.07413670f, 0.03552870f, -0.00560640f, 0.03122669f, 0.12060001f, 0.03957722f, -0.06234129f, 0.04835378f},
    {-0.04960509f, -0.00443864f, -0.08050966f, -0.00365718f, 0.00652112f, -0.07580969f, 0.08036253f, 0.11544859f, -0.10455456f, 0.03622057f, -0.08635047f, -0.02484471f, 0.05987704f, -0.00219427f, 0.03787901f, -0.04049990f, 0.11929050f, -0.05868608f, 0.02339567f, 0.01283093f, 0.08514716f, 0.01276472f, 0.07536490f, 0.03220665f, 0.07970226f, 0.00157985f, 0.04171030f, 0.12330249f, -0.04072447f, -0.05086605f, 0.09073868f, 0.04779989f, -0.11798857f, 0.04445785f, -0.12259428f, -0.06786534f, 0.04891799f, 0.06584688f, -0.02822436f, 0.10580827f, 0.12422299f, 0.09747183f, -0.11480717f, -0.04546721f, 0.00760511f, 0.10159650f, -0.02096844f, 0.02611241f, 0.06579274f, -0.06539991f, -0.07569943f, 0.12361676f, -0.00278920f, 0.08844848f, -0.12188649f, -0.04771236f, 0.08771083f, -0.01210177f, 0.04210314f, -0.10471500f, 0.12166584f, -0.06238882f, -0.00632055f, -0.08187455f},
    {-0.05545919f, -0.10716090f, -0.10941099f, -0.02553697f, -0.05513617f, 0.09233731f, -0.00060478f, 0.09719956f, -0.02093619f, 0.02651937f, 0.12005033f, -0.09672503f, -0.05415066f, 0.10686271f, -0.02865838f, -0.03366424f, 0.01003173f, -0.06710526f, 0.00898974f, -0.05195363f, 0.03965494f, -0.02653444f, -0.04194549f, -0.04708830f, 0.03247605f, 0.06272998f, -0.11428000f, -0.08717872f, -0.11996470f, 0.05834952f, 0.09374702f, -0.12010019f, 0.03249507f, 0.02535050f, -0.06707907f, 0.02700649f, 0.09638461f, 0.12260868f, 0.05405317f, -0.02478559f, -0.07112259f, -0.04760733f, 0.00102524f, -0.00917953f, 0.09121023f, -0.11296368f, 0.01115704f, -0.03975609f, 0.01042394f, 0.12020519f, 0.00365680f, -0.02167974f, -0.04236706f, -0.12474225f, -0.11325128f, 0.05446485f, -0.07633337f, 0.07096836f, -0.03543904f, 0.04509678f, 0.09124942f, 0.01828590f, 0.04291987f, 0.10563445f},
    {-0.03927939f, 0.09192751f, -0.10512823f, 0.11446200f, -0.04100178f, -0.00470473f, 0.07012348f, 0.00917707f, 0.10930173f, -0.05493967f, -0.06889629f, 0.11158797f, -0.07544895f, 0.08602309f, 0.12038964f, 0.08461644f, -0.04725927f, -0.00184779f, -0.11265005f, -0.06806435f, -0.02587232f, -0.08258721f, 0.07211414f, 0.06549901f, -0.03577037f, -0.01965867f, 0.12074509f, -0.00769930f, 0.10617049f, 0.11578909f, -0.04384710f, -0.11938533f, 0.11659588f, -0.06720659f, 0.11953427f, -0.07979958f, 0.02267161f, 0.03695863f, -0.02952746f, 0.09747678f, -0.11333422f, -0.05194221f, -0.01967663f, 0.09573545f, 0.05789369f, 0.08040673f, 0.05380501f, 0.11242859f, -0.03113025f, -0.03858897f, -0.01716486f, 0.04917343f, -0.03665633f, 0.04591013f, 0.03427117f, 0.02939141f, 0.10184264f, 0.01990932f, 0.08294791f, -0.03485021f, -0.11232880f, 0.07639499f, 0.05184154f, 0.10500932f},
    {0.04776162f, 0.00249813f, -0.09022547f, -0.11851089f, 0.02508645f, 0.10197550f, -0.00971740f, -0.04077947f, 0.06253505f, -0.06051809f, 0.04410793f, -0.10143501f, -0.11328380f, -0.07292479f, -0.02140245f, 0.04214987f, 0.06324652f, -0.07911870f, -0.02567230f, 0.04115821f, -0.02756645f, 0.00187844f, 0.08092573f, -0.03606044f, 0.06444526f, 0.10156757f, 0.04167052f, -0.02221110f, -0.07914765f, -0.08261842f, -0.02428754f, 0.03906456f, 0.06836471f, -0.00603004f, 0.10073069f, -0.04950905f, 0.02492659f, -0.06399634f, 0.03358875f, 0.10668367f, 0.04379991f, 0.00837535f, -0.04600361f, -0.10255669f, -0.08553872f, -0.10722394f, 0.08884314f, -0.05214697f, -0.01870322f, -0.11201331f, -0.03485496f, 0.10632063f, 0.02298127f, -0.02232043f, 0.06515110f, 0.09636913f, 0.09727086f, -0.09248707f, 0.00897461f, -0.10264626f, -0.08618420f, 0.09598552f, -0.09958990f, -0.06130213f},
    {0.05994630f, 0.12162167f, -0.12142701f, -0.08066003f, -0.04901668f, 0.09683225f, 0.07284640f, 0.07792798f, 0.08009511f, -0.03128289f, 0.09216705f, -0.00351255f, 0.01174420f, -0.03314903f, 0.05302636f, 0.05582030f, -0.01325005f, 0.11004241f, -0.03237328f, 0.03163871f, 0.11353247f, 0.07042700f, -0.04551768f, -0.05662264f, 0.02412443f, -0.00094736f, 0.00879736f, 0.08052053f, 0.04369371f, -0.07010548f, -0.10205817f, 0.11817721f, -0.01376125f, -0.04924546f, -0.09180762f, 0.12003486f, 0.06307571f, -0.07924195f, -0.10795833f, 0.10859020f, 0.05381772f, -0.01836124f, -0.10388575f, 0.07576327f, -0.08485262f, 0.06142536f, -0.11872244f, -0.11145119f, -0.11991562f, 0.11331782f, 0.11359236f, -0.10666046f, 0.09662929f, -0.07597829f, -0.11616910f, 0.06015757f, 0.07085778f, 0.07085347f, 0.02193716f, 0.11996347f, -0.10768203f, 0.05767384f, -0.03961061f, 0.00617354f},
    {0.08621100f, -0.08951309f, 0.05477902f, -0.02496746f, 0.08085255f, -0.00328246f, 0.06201714f, 0.11993650f, -0.04463126f, -0.12313083f, 0.11790955f, -0.06881990f, 0.02856617f, 0.07774228f, -0.01941180f, 0.09769177f, 0.08100677f, -0.02516603f, 0.03277348f, 0.00947295f, 0.12228611f, 0.08654115f, -0.08325522f, 0.01204398f, 0.06741992f, 0.09556299f, 0.04267901f, 0.05311462f, -0.02307920f, 0.00271124f, -0.08651307f, 0.10290512f, 0.09842990f, -0.06883071f, -0.10701801f, 0.09747346f, -0.11078888f, 0.08016522f, -0.12175497f, -0.06390664f, -0.05292432f, 0.11747564f, -0.02115189f, 0.10782336f, 0.03631778f, 0.12109786f, 0.08279346f, 0.09205930f, 0.10898115f, -0.03693140f, -0.03436817f, 0.04027608f, 0.11011778f, -0.04600100f, -0.09832680f, -0.09778266f, -0.05775002f, 0.01994565f, -0.01446506f, -0.03333496f, -0.05843724f, 0.03251304f, -0.10296464f, 0.12297784f},
    {-0.01935855f, 0.02332349f, 0.04117784f, -0.04863641f, 0.09864902f, -0.00092645f, 0.01025426f, -0.11899513f, 0.01547241f, 0.04289076f, 0.01741844f, -0.01238805f, 0.09438668f, 0.09882556f, 0.08605772f, -0.02169521f, 0.02159308f, -0.08727729f, -0.09358028f, -0.02184677f, 0.01397185f, -0.07280681f, -0.10433672f, 0.05686471f, 0.04570161f, -0.08258787f, 0.08317959f, -0.09343289f, 0.09455748f, 0.06640549f, -0.04224588f, 0.11900716f, -0.07018428f, -0.05709890f, 0.09962995f, -0.03221020f, -0.05048606f, 0.01934157f, -0.02112195f, 0.07874890f, 0.10205357f, 0.05560225f, 0.02703351f, 0.03140210f, 0.00325443f, 0.01467961f, 0.00237364f, 0.08523682f, 0.06990233f, -0.01256792f, 0.04720329f, 0.00691320f, 0.04417287f, 0.10262513f, -0.08504692f, 0.01776363f, -0.02600513f, -0.12220199f, -0.12146546f, -0.01636736f, 0.08946507f, -0.08242320f, 0.04071714f, 0.07204379f},
    {-0.09111005f, 0.05368315f, 0.02359173f, -0.11380151f, -0.00240333f, -0.11735104f, 0.10928783f, 0.05858520f, 0.04789554f, 0.09596571f, 0.09559555f, 0.12409388f, 0.05157275f, -0.09024730f, 0.11610451f, 0.03472312f, -0.04927498f, -0.04652062f, 0.11696702f, 0.02776775f, 0.09085560f, 0.00974870f, 0.11546671f, -0.09146647f, 0.02979165f, 0.02982730f, -0.00144166f, 0.11119679f, 0.02510148f, 0.00677136f, 0.08531654f, -0.00986826f, -0.00807635f, -0.10305741f, -0.00081897f, -0.05834690f, 0.07237276f, 0.10874222f, -0.11661629f, -0.07240187f, 0.12034620f, -0.05335279f, 0.11116706f, 0.12307055f, -0.03134842f, -0.10118647f, 0.06250237f, 0.05682160f, 0.10862751f, 0.01805378f, 0.06796877f, -0.10717992f, 0.01722698f, 0.02941972f, 0.07834469f, -0.06691244f, -0.01493804f, -0.07450823f, -0.08412650f, 0.05203633f, 0.01906127f, 0.04966822f, -0.00284639f, -0.00307073f},
    {-0.00479959f, 0.06752031f, -0.08649269f, 0.02694556f, 0.06854172f, 0.07249881f, -0.05998491f, 0.09679781f, -0.08330773f, 0.06517980f, 0.10225025f, 0.00401080f, 0.03829496f, -0.11841512f, -0.04944494f, -0.04911149f, -0.11637929f, -0.02647042f, 0.08726491f, -0.01193482f, 0.12352218f, -0.11252187f, 0.04985188f, 0.10808881f, 0.12149484f, -0.04848933f, -0.11286417f, -0.04594292f, 0.09266354f, 0.01095210f, 0.11947501f, -0.09127228f, -0.07827276f, 0.06370418f, 0.04285991f, -0.08121015f, 0.11628956f, -0.04820783f, -0.10388741f, 0.03473842f, -0.07002926f, -0.05948481f, -0.06982967f, 0.03399861f, 0.05856171f, 0.08407070f, -0.07073338f, -0.02921386f, 0.11667781f, -0.06421159f, -0.04518297f, -0.02403566f, -0.11068517f, -0.09239075f, 0.11136127f, 0.02307422f, 0.02335523f, 0.04955374f, 0.07601850f, 0.08396414f, 0.08952957f, 0.05045152f, 0.09423341f, 0.08167204f},
    {-0.02090131f, 0.01125950f, -0.06547689f, -0.09405811f, 0.11856022f, -0.09308302f, -0.07814611f, -0.12074390f, -0.09575067f, 0.02841446f, 0.05999789f, -0.10419148f, 0.00994712f, -0.09228167f, 0.02366656f, 0.07466274f, -0.04795980f, -0.05487789f, 0.08141868f, -0.08055863f, -0.02554679f, -0.10407348f, 0.08759186f, 0.03986776f, -0.04965834f, 0.08895409f, 0.11835510f, 0.05102281f, -0.08827278f, -0.02725670f, 0.10054986f, 0.09083992f, -0.04109512f, 0.08271623f, -0.08177036f, 0.03353103f, 0.11018823f, 0.02268752f, -0.09932669f, 0.03749083f, 0.06966460f, 0.08693460f, -0.08222511f, -0.02243830f, -0.00650571f, -0.02185442f, -0.02774124f, -0.04504058f, 0.04304855f, 0.05940020f, -0.02427872f, 0.09822759f, -0.00067174f, 0.03047198f, 0.03128363f, -0.04256099f, -0.00548726f, -0.01396032f, 0.04727218f, -0.06715582f, -0.05738045f, -0.12065685f, -0.05437744f, 0.03984316f},
    {0.10103527f, -0.12323301f, -0.04496874f, 0.07864316f, -0.06759691f, 0.08439784f, 0.00504464f, -0.11752573f, 0.02113599f, -0.07492477f, 0.02429439f, -0.11200130f, 0.11745773f, -0.05333318f, 0.07994470f, -0.07864709f, -0.10476278f, 0.04917911f, 0.07514994f, -0.00112431f, -0.10571320f, -0.03428777f, -0.08662194f, 0.03540842f, 0.02024041f, 0.08686526f, 0.12477763f, -0.05778408f, 0.09876017f, 0.08684570f, 0.01921456f, -0.12255511f, -0.08669707f, 0.05446643f, 0.09288490f, 0.06680369f, 0.01178153f, -0.07601850f, -0.10983835f, -0.07143325f, 0.00093143f, 0.01647636f, 0.09573442f, -0.09015547f, 0.06537695f, 0.10588855f, -0.11298126f, -0.06660311f, -0.03488506f, 0.02398302f, 0.11196835f, 0.02551007f, 0.08457713f, 0.10114117f, 0.09813131f, -0.11400363f, -0.08166659f, -0.00817296f, -0.00045612f, 0.01053770f, 0.10501122f, 0.11321656f, -0.03657262f, -0.05778714f},
    {0.01012455f, 0.01581615f, 0.07708994f, 0.04440916f, 0.03895144f, 0.04103650f, 0.09306614f, 0.07444514f, -0.01229517f, -0.08722210f, 0.08428697f, -0.01019111f, -0.08955152f, -0.02083184f, 0.09197494f, -0.05745769f, -0.01205291f, 0.04216902f, 0.08988465f, -0.01870807f, -0.08978614f, -0.05225389f, -0.04034919f, 0.01363625f, -0.08487424f, 0.11014053f, 0.03295465f, -0.09004629f, 0.06826259f, 0.00630814f, 0.12230118f, -0.00251189f, -0.00164844f, -0.12064029f, -0.10324878f, 0.00043714f, 0.10607958f, -0.07730022f, 0.02447404f, -0.08614340f, -0.09688206f, -0.04596245f, -0.08368497f, -0.10342391f, -0.03836800f, -0.01707913f, 0.06223360f, 0.05747014f, -0.00164075f, -0.02854997f, -0.02655593f, -0.10267301f, 0.08689281f, 0.11212614f, -0.11492240f, -0.11935188f, -0.11712155f, -0.02016057f, -0.00030184f, -0.08161989f, 0.06907213f, 0.00823198f, -0.06327142f, -0.12092525f},
    {0.09733899f, 0.12397853f, 0.01160626f, -0.05986632f, 0.07947066f, 0.07366794f, -0.01793706f, 0.11722034f, -0.09236763f, -0.01432465f, 0.10593264f, -0.07734376f, -0.03855780f, -0.05314453f, -0.05117097f, 0.11010616f, 0.07704486f, -0.11363979f, -0.07645284f, -0.00163116f, -0.04064357f, -0.06883827f, -0.12286943f, 0.09219061f, 0.06998585f, 0.03626947f, -0.02813075f, -0.12116513f, -0.00782564f, 0.04778717f, -0.03627737f, 0.09839280f, 0.02856791f, -0.00620246f, 0.04940119f, 0.06514110f, -0.09168275f, 0.03801259f, -0.11361156f, -0.02619278f, -0.04052697f, 0.09544408f, -0.12040125f, 0.04441062f, -0.11390239f, 0.05418900f, 0.03061309f, -0.04918748f, 0.03692132f, 0.11997138f, 0.07610093f, -0.11405845f, -0.03239468f, 0.11338565f, 0.01933901f, 0.01541057f, 0.00891843f, -0.04394817f, -0.03269887f, 0.00829574f, 0.09409408f, -0.03523104f, -0.03271164f, 0.02379496f},
    {-0.04575069f, 0.10903251f, 0.09403297f, 0.00525138f, -0.08083379f, 0.03498335f, 0.10600640f, 0.04118003f, 0.05239463f, -0.06616424f, -0.12313837f, -0.04700346f, 0.00399475f, 0.11105883f, 0.02609935f, -0.02291502f, -0.03140943f, -0.02390051f, -0.06721614f, -0.05233137f, 0.02322236f, 0.08465149f, 0.10617086f, 0.04813717f, -0.08637148f, 0.11555661f, 0.12070113f, -0.03714685f, 0.00430971f, 0.11314972f, -0.04395621f, 0.05925842f, 0.02079137f, 0.06967826f, 0.04355170f, 0.12401696f, 0.10593714f, -0.08529215f, 0.07522410f, -0.02473119f, -0.06540351f, 0.02096561f, -0.01701407f, -0.08145897f, -0.11033493f, -0.06966390f, 0.01286952f, 0.07617921f, 0.07365766f, 0.03333442f, 0.11857843f, -0.10706019f, -0.07867838f, 0.05380741f, -0.11385614f, 0.11789013f, 0.01723495f, -0.04606870f, 0.11153643f, 0.05828063f, 0.10512646f, 0.09417212f, -0.02175499f, 0.11347298f},
    {0.01650766f, 0.01210396f, 0.04343484f, -0.09785952f, -0.07474042f, 0.11828128f, -0.08180104f, 0.06754203f, 0.07554615f, -0.10148127f, -0.01432595f, -0.00133747f, 0.09273660f, -0.03420614f, 0.11290005f, -0.10488954f, 0.05222020f, 0.06825025f, -0.04503076f, -0.04110788f, -0.07961808f, 0.03316315f, 0.04188924f, -0.04393609f, 0.10108736f, -0.01915318f, -0.01947698f, 0.09762758f, 0.02190162f, 0.06691384f, 0.07367864f, -0.08182082f, -0.00158328f, 0.11039470f, -0.07729433f, 0.01637127f, 0.09285340f, 0.01380168f, -0.02802831f, 0.04520191f, -0.10339345f, 0.10269876f, 0.09819554f, -0.03500409f, -0.04521969f, -0.02445082f, 0.12437153f, -0.04798254f, 0.03743038f, -0.11867404f, 0.03778353f, 0.07573824f, 0.04045998f, -0.00593971f, 0.00912221f, 0.10824722f, 0.05432256f, -0.02888425f, -0.10040081f, 0.09110123f, -0.04653822f, 0.07793479f, -0.02512211f, 0.00207464f},
    {-0.09857942f, -0.04762037f, 0.01031365f, -0.12080005f, -0.02572379f, 0.07263118f, 0.08785568f, 0.09207405f, -0.03812034f, 0.00983964f, -0.10030650f, 0.06475148f, 0.02213202f, 0.10462831f, -0.01944599f, 0.11954911f, 0.06192929f, 0.10667649f, -0.00813496f, -0.09807831f, -0.09803101f, -0.11786111f, 0.02077693f, -0.09666187f, -0.04083239f, 0.06351809f, 0.11363614f, -0.03135030f, 0.08654390f, -0.00947204f, -0.02501449f, -0.01479290f, -0.05667898f, 0.03421211f, -0.00067665f, -0.06090415f, 0.07950729f, -0.05584231f, -0.08465981f, 0.04339316f, -0.00767584f, -0.06881113f, -0.10204142f, -0.03745131f, -0.09570834f, 0.06798699f, -0.01556993f, 0.06438217f, 0.06084576f, 0.01006831f, -0.01924591f, -0.06446815f, 0.02814128f, -0.10869342f, -0.06091137f, 0.09968323f, -0.02426215f, 0.10084039f, 0.07402173f, -0.02635072f, -0.10061164f, 0.10038662f, 0.01053025f, 0.11812973f},
    {-0.11305152f, 0.02575912f, -0.10769874f, -0.01517649f, -0.10956402f, -0.11377206f, 0.00630583f, 0.12323466f, 0.00957790f, -0.01158082f, 0.11651766f, 0.01144224f, -0.06979571f, 0.07948589f, 0.08919358f, 0.10838731f, 0.09830238f, 0.11619554f, -0.04636031f, 0.01797354f, -0.04561287f, -0.01663871f, 0.09882647f, -0.09876634f, 0.06830803f, -0.07222284f, 0.00068548f, -0.01488274f, -0.05630347f, 0.01065938f, -0.06331979f, 0.11321810f, -0.04525158f, 0.07911843f, -0.02977474f, -0.09841624f, 0.09703514f, -0.03451553f, -0.05178347f, 0.00937118f, -0.00127353f, 0.03527266f, -0.03032845f, -0.03606491f, 0.06839184f, 0.05729327f, 0.11048664f, 0.01379518f, -0.03244951f, -0.02663063f, -0.02547283f, -0.03950340f, -0.04266030f, -0.03521909f, 0.03769743f, 0.04945920f, 0.09514073f, -0.12164141f, 0.09693298f, -0.02518396f, -0.12214811f, 0.08171816f, -0.07086957f, -0.05632839f},
    {0.04148583f, 0.02047528f, 0.08520910f, -0.08721969f, 0.06790787f, 0.06515312f, 0.07737258f, -0.04160526f, 0.02122913f, 0.03679314f, 0.11785947f, -0.07595924f, -0.11477381f, -0.11304994f, 0.01655532f, -0.09500176f, -0.02313961f, -0.05843319f, 0.02264370f, -0.08857723f, 0.07708457f, -0.12279843f, -0.06848252f, 0.02579379f, -0.12294832f, 0.03081018f, -0.04676451f, -0.06313153f, 0.08960375f, -0.04036170f, 0.02954966f, -0.04826596f, 0.05847545f, 0.11383325f, 0.11999221f, -0.07561243f, -0.12425530f, -0.08741003f, 0.03521335f, 0.05018131f, 0.06565173f, 0.05428036f, 0.12160259f, -0.09479058f, -0.09799753f, -0.03914393f, 0.09702119f, -0.09598389f, 0.09371813f, 0.02079898f, 0.07732099f, 0.12384348f, 0.12166598f, 0.12000082f, -0.03067514f, -0.05333965f, 0.05306694f, 0.10659699f, 0.00311224f, -0.02958949f, -0.02021734f, -0.04461691f, 0.06002042f, -0.12432237f},
    {0.10636494f, -0.00459039f, -0.07577604f, -0.04458791f, -0.07673135f, -0.10861503f, 0.01257779f, -0.02838854f, -0.05611138f, -0.02128834f, -0.01723444f, 0.05507062f, -0.10111389f, -0.00293085f, -0.00170593f, -0.10218537f, 0.11522479f, -0.05925776f, 0.09917250f, 0.09581062f, 0.00338538f, 0.09307437f, -0.09406224f, -0.01374032f, -0.10311140f, -0.07609527f, 0.03949291f, 0.09314425f, -0.07417840f, -0.05050744f, -0.07008767f, -0.01086022f, -0.10382757f, -0.09893814f, -0.02719453f, 0.12010063f, 0.02153315f, -0.05203201f, 0.08356372f, 0.09225704f, 0.08543012f, 0.00116344f, -0.01354206f, 0.08119130f, 0.06719413f, 0.09477948f, 0.09002699f, -0.03548114f, 0.10587299f, 0.02445626f, 0.12444787f, 0.12435220f, 0.10483436f, 0.08320782f, 0.09814680f, -0.05875215f, -0.04866189f, -0.02913135f, -0.06397860f, 0.09183860f, 0.01168537f, -0.03165916f, -0.05600417f, -0.11128923f},
    {0.00896887f, 0.10987973f, 0.08219111f, 0.09907338f, 0.08540474f, 0.05259992f, -0.00359954f, -0.09247187f, 0.09190510f, -0.08796063f, -0.07516679f, 0.05015858f, 0.06864929f, -0.06504849f, 0.07910761f, -0.11698352f, 0.02978763f, 0.05518335f, 0.02321811f, -0.07033837f, -0.08441806f, 0.09990551f, 0.02753821f, -0.05370080f, 0.12039894f, -0.02609146f, -0.02311498f, 0.03217418f, 0.10406883f, -0.05564375f, 0.00063019f, -0.05611819f, -0.05661771f, -0.01703906f, -0.00012878f, 0.06702495f, -0.09336741f, 0.07253812f, 0.09765884f, -0.01425010f, -0.01119724f, 0.03082560f, -0.11443996f, 0.09197736f, -0.02186677f, 0.00502719f, 0.05926153f, 0.05204920f, -0.05783798f, -0.09181453f, -0.12058832f, -0.10437866f, -0.02627729f, -0.09704041f, -0.01262161f, -0.06603941f, 0.07082920f, 0.08550122f, 0.10575067f, -0.08196907f, -0.08821402f, 0.04336214f, -0.02854519f, 0.09479763f},
    {-0.11467463f, 0.11591706f, -0.08670230f, -0.10023941f, -0.01325521f, -0.05537564f, -0.07879898f, 0.07136352f, 0.09654033f, 0.06959486f, 0.01525760f, -0.01798762f, -0.06820175f, 0.11914045f, -0.06808186f, -0.10959715f, 0.10605279f, -0.01008107f, 0.08399017f, -0.04148902f, 0.09735888f, -0.08814646f, 0.07522295f, 0.09728904f, -0.00174758f, 0.08289555f, 0.00443570f, -0.11444737f, 0.05476180f, -0.09717497f, 0.00392832f, -0.11244071f, -0.05951472f, -0.03724530f, -0.04857726f, -0.12313206f, -0.06208578f, -0.11582182f, -0.10450186f, -0.12470977f, -0.07200834f, -0.02801049f, 0.11260945f, -0.08793916f, -0.09505454f, -0.10175781f, 0.11694227f, -0.01598564f, -0.03325745f, 0.06853653f, -0.07385613f, -0.03303543f, 0.11457184f, 0.06657675f, -0.09696649f, -0.03435536f, 0.01227497f, 0.04516326f, -0.05750854f, 0.08752394f, 0.00195479f, -0.10807784f, 0.03349490f, -0.12134475f},
    {0.00870243f, -0.12362856f, -0.03565559f, -0.02905066f, -0.11228347f, -0.03535645f, 0.00419760f, -0.07042688f, 0.01773918f, 0.06600802f, 0.01475258f, -0.12269491f, -0.00039499f, -0.05858053f, 0.03563014f, -0.10029554f, -0.08646683f, -0.00414966f, 0.07208036f, -0.03339422f, -0.00659153f, -0.01237933f, -0.09780592f, -0.00988969f, -0.00351809f, 0.02069040f, 0.05594704f, 0.03722629f, 0.06970887f, -0.02382994f, -0.05399877f, 0.10615663f, 0.09966548f, 0.06815156f, 0.09105799f, 0.06122145f, 0.11049671f, 0.10873732f, -0.10163280f, -0.11779596f, -0.06485288f, 0.09557289f, 0.11286531f, 0.00815420f, -0.09242207f, -0.05874981f, 0.05942275f, 0.11643693f, 0.02421106f, -0.08220899f, 0.11859977f, 0.10976230f, -0.05483685f, -0.06754212f, 0.07186359f, -0.09032904f, 0.10433984f, -0.02523325f, -0.00170128f, -0.06677924f, -0.12357610f, 0.02828066f, -0.04453568f, -0.07329309f},
    {0.09963900f, 0.02317931f, -0.03351651f, -0.11527319f, -0.07036722f, -0.04080319f, 0.05254689f, -0.11392713f, 0.07219236f, 0.11370191f, 0.03868094f, -0.12410924f, 0.01630796f, -0.05044411f, 0.03954065f, -0.00467250f, 0.06116031f, -0.01016997f, 0.02254669f, 0.04980122f, -0.09261213f, 0.02084596f, 0.11138947f, 0.08728255f, 0.00778070f, -0.02198139f, 0.05168590f, -0.10992107f, -0.03764874f, 0.10842106f, 0.01608618f, -0.00161715f, -0.09838924f, -0.08101594f, 0.01728709f, -0.09396143f, -0.03614648f, -0.06157848f, 0.03852205f, 0.01909593f, -0.12069157f, 0.04125692f, -0.01127009f, -0.06055754f, 0.09208347f, -0.08229224f, -0.11401650f, 0.01362808f, -0.06784514f, -0.05076179f, -0.10931765f, -0.03106582f, 0.09931135f, -0.11341335f, -0.08452536f, -0.02735417f, -0.09892690f, 0.02339831f, -0.02483983f, 0.09455958f, -0.12422951f, 0.00418474f, 0.05512089f, 0.01622681f},
    {-0.03404140f, 0.11722687f, -0.09702836f, 0.11642396f, 0.03403105f, 0.05952150f, 0.08812067f, 0.01244059f, 0.01325448f, -0.02534601f, -0.11339499f, 0.05265647f, 0.09348860f, 0.05226503f, -0.01950423f, -0.11189504f, -0.00206612f, 0.03250737f, -0.09783900f, 0.10629243f, -0.00329168f, 0.03414059f, 0.11027312f, 0.05426472f, -0.06773277f, 0.04609689f, 0.07349849f, 0.06236470f, -0.05872865f, 0.01269653f, -0.08981514f, -0.01404367f, -0.08673997f, 0.07145798f, 0.12230271f, -0.12106256f, -0.05840145f, -0.05287315f, -0.08752777f, 0.11374290f, -0.09655501f, -0.06535093f, -0.10384154f, -0.00041471f, -0.09252380f, -0.08420143f, 0.12429889f, 0.05585743f, 0.05303052f, 0.08864956f, 0.02159873f, 0.02028400f, -0.09388545f, 0.03511655f, -0.09765776f, -0.00054386f, -0.06745508f, -0.07085223f, -0.07318741f, -0.06051072f, -0.07433975f, -0.06836089f, -0.04553376f, -0.11421368f},
    {0.10005556f, 0.04200499f, -0.12433219f, -0.12493834f, -0.06295216f, 0.04823363f, 0.11441292f, -0.01947139f, 0.07437448f, -0.06742126f, -0.02594508f, -0.01937810f, -0.12169862f, 0.00065213f, 0.03308329f, 0.07618877f, -0.09671833f, -0.03763695f, 0.00471565f, 0.01325987f, 0.02108094f, -0.09285402f, 0.09701526f, -0.11295538f, -0.04339498f, 0.06229082f, -0.03117491f, -0.06022976f, -0.12331714f, 0.08609310f, -0.00280672f, 0.06037785f, 0.01994231f, -0.09295945f, -0.04416953f, 0.08912897f, -0.06121334f, -0.05759408f, 0.06854750f, -0.05417494f, 0.02040552f, -0.06076828f, 0.03847708f, 0.01271559f, -0.09921972f, -0.09480861f, 0.04596356f, -0.04093690f, 0.06847277f, 0.00650498f, -0.04274637f, -0.02175154f, -0.05695085f, 0.06168178f, 0.09915079f, -0.00389330f, -0.08058453f, 0.08985886f, 0.10171305f, 0.08521405f, -0.00226240f, 0.03072749f, 0.00635794f, -0.04747801f},
    {-0.12377201f, -0.01527858f, 0.05406296f, 0.07291406f, 0.02972992f, 0.05700079f, 0.07824457f, -0.02416554f, 0.08162475f, -0.00262554f, -0.04426916f, -0.04854059f, -0.07285039f, -0.09627479f, 0.02863514f, 0.11550643f, 0.01776968f, 0.01689425f, -0.04689282f, -0.04927443f, -0.03917795f, 0.04326715f, 0.02155080f, -0.04592714f, 0.02449314f, -0.02183954f, -0.00851451f, 0.08863316f, -0.05208726f, 0.11663224f, -0.06837089f, 0.11580816f, 0.04695946f, 0.05019113f, -0.02859361f, -0.03406499f, -0.09143303f, -0.11987212f, 0.08751900f, 0.12125395f, 0.03584495f, -0.04889403f, 0.02745330f, -0.00468141f, -0.10805126f, -0.10010974f, 0.04339980f, -0.03649703f, -0.02973086f, -0.07536539f, 0.05512698f, -0.06307854f, -0.03991981f, 0.06687872f, 0.12016603f, 0.11143684f, 0.04920658f, 0.00444034f, 0.09394760f, 0.11051805f, 0.05611779f, 0.03674495f, 0.03014183f, 0.01271971f},
    {0.08250482f, 0.03535968f, -0.10539271f, -0.07383877f, -0.11351579f, -0.03756738f, 0.00638880f, -0.05299623f, -0.11495942f, -0.08129524f, 0.05319890f, -0.00880525f, -0.02095634f, 0.02023765f, -0.02640410f, -0.06812164f, -0.05736110f, -0.05095001f, -0.11700338f, -0.11527824f, -0.04736038f, 0.04690759f, 0.12224476f, -0.00338325f, 0.08536230f, 0.04133190f, -0.09955564f, -0.06253588f, -0.03429765f, -0.10302645f, 0.01750657f, 0.02969159f, -0.09744187f, -0.02630867f, -0.11025774f, 0.12447709f, 0.07393345f, -0.04715280f, 0.10746048f, -0.07823864f, 0.10516118f, -0.04810518f, 0.03652243f, 0.08686228f, 0.05819668f, 0.03029132f, -0.01441418f, 0.00092019f, 0.10673198f, -0.04085042f, -0.04055643f, 0.01597381f, -0.06065053f, -0.04725939f, 0.00976765f, 0.09400947f, 0.04075602f, -0.07723838f, 0.07547811f, -0.04603520f, 0.03223641f, 0.00736105f, 0.08927329f, -0.02791971f},
    {-0.05079018f, -0.02490106f, 0.00113606f, -0.05898936f, 0.08591399f, -0.06701733f, 0.01977447f, -0.09597163f, -0.01552117f, -0.02693370f, -0.05000751f, 0.06534493f, -0.11161381f, 0.01311085f, -0.01169342f, -0.06500879f, 0.09720820f, 0.07847069f, 0.03777380f, 0.00243168f, 0.06928226f, -0.05490710f, -0.10171667f, 0.11995000f, -0.04679275f, 0.02507386f, 0.00249635f, 0.10523349f, 0.12433530f, -0.08409923f, -0.00133316f, -0.10133965f, 0.08073451f, 0.11934800f, -0.04778068f, 0.02265532f, -0.02752256f, -0.03028254f, 0.09925389f, -0.11614041f, -0.01711687f, -0.00051261f, -0.11024605f, 0.05139902f, 0.08335800f, -0.09929477f, 0.04836477f, -0.00808743f, 0.11711113f, -0.11779615f, 0.10612349f, -0.04643773f, 0.10537255f, -0.06376301f, 0.02117197f, 0.02915969f, 0.07754822f, 0.05858859f, 0.06985840f, -0.02631310f, -0.09889619f, 0.00145146f, 0.11401585f, 0.10812552f},
    {-0.07354906f, 0.08598895f, 0.05621950f, -0.02261890f, 0.06823073f, -0.00521311f, 0.01522058f, -0.08190715f, -0.01539353f, 0.12236452f, 0.07743736f, -0.10102129f, -0.00707981f, 0.07962325f, -0.05349241f, -0.01565684f, 0.06235000f, 0.10505642f, 0.11341000f, -0.09030300f, -0.11778377f, 0.08833839f, -0.00968191f, 0.11285609f, 0.08872588f, -0.04879951f, 0.03581096f, 0.04205459f, -0.04473998f, 0.11230823f, 0.01025695f, -0.04085471f, -0.11417508f, 0.10004026f, -0.12395002f, 0.09514326f, -0.04377896f, -0.02288380f, 0.01688574f, 0.12287651f, -0.08228646f, -0.08877540f, 0.07513532f, -0.06071073f, -0.04600042f, 0.07226218f, -0.05181432f, 0.07445434f, -0.04875174f, 0.09615029f, 0.12452388f, 0.01728973f, -0.04161376f, 0.07031536f, 0.03493857f, 0.00054260f, 0.11151910f, -0.00723013f, 0.04393804f, -0.03722772f, -0.02267843f, -0.00538060f, 0.00841066f, 0.05466503f},
    {0.09429342f, 0.07662931f, -0.05257560f, 0.11204185f, 0.08443253f, 0.04506133f, 0.01364172f, -0.07074277f, -0.07460554f, 0.00062668f, -0.09297766f, 0.04385076f, -0.11346722f, -0.11146408f, -0.05614483f, 0.07192357f, 0.09787486f, -0.10506570f, -0.07894155f, 0.02773063f, -0.02278253f, -0.10243814f, 0.03472483f, -0.10404673f, 0.00782318f, 0.05095524f, 0.11530045f, -0.10667965f, 0.09333707f, 0.01739371f, 0.10883206f, 0.12304327f, -0.03117558f, -0.01946816f, -0.03021735f, 0.09831114f, -0.05413012f, 0.08255088f, 0.05141030f, 0.11753298f, 0.08853796f, 0.10144614f, -0.10274436f, -0.06579302f, -0.08868839f, 0.06206714f, 0.02542908f, 0.04764564f, 0.04691617f, 0.00529072f, 0.04770172f, -0.06778182f, 0.08121161f, -0.10761526f, -0.11485727f, 0.04245166f, 0.11735237f, -0.04572988f, 0.11774701f, -0.04437135f, -0.09498881f, -0.01943475f, 0.06913060f, -0.06506364f},
    {0.11722299f, -0.05590029f, -0.05532934f, -0.05205971f, -0.09520540f, 0.11660351f, -0.07062203f, -0.05623910f, -0.03787491f, 0.10522464f, 0.05831416f, 0.04602356f, -0.03287031f, 0.06317197f, 0.02267542f, 0.09959301f, 0.02774902f, 0.09174542f, 0.08626547f, 0.02184384f, -0.11978360f, 0.02543369f, -0.09431277f, 0.02147624f, -0.01399836f, 0.09945820f, -0.08972415f, -0.10450129f, 0.05571333f, 0.08253290f, -0.02720551f, 0.03383254f, 0.10031962f, 0.01243412f, -0.03493746f, 0.07227561f, 0.11265747f, -0.02121781f, 0.08481306f, 0.01042925f, -0.02617338f, -0.01090933f, -0.12134707f, 0.05996566f, -0.06803693f, -0.10645759f, -0.01733027f, -0.05092917f, -0.07956165f, -0.02631594f, -0.01319247f, 0.03799148f, 0.01713237f, -0.01670124f, 0.02751626f, -0.08087941f, 0.10576940f, 0.06120828f, 0.07907826f, -0.11149284f, 0.08532237f, 0.02209537f, -0.12079579f, 0.11869135f},
    {-0.00261584f, 0.02397291f, 0.10341275f, 0.08061025f, 0.11120932f, -0.11667053f, 0.12357944f, 0.03044786f, 0.00162339f, -0.09821488f, -0.06721941f, 0.12135264f, 0.09293941f, 0.09743911f, -0.01050474f, -0.06962834f, 0.02918677f, -0.05956303f, -0.08136791f, 0.04037076f, 0.09804471f, -0.09589295f, -0.11049019f, 0.01688878f, -0.04404198f, -0.06684214f, -0.02558500f, -0.00722870f, -0.03466718f, 0.09256767f, 0.06926738f, 0.03931580f, -0.04008397f, -0.01114190f, 0.08104001f, 0.01036423f, -0.12059125f, 0.01187707f, 0.06545396f, -0.03206305f, -0.02333529f, -0.01695810f, 0.07681720f, 0.10321632f, -0.09809569f, 0.08235668f, 0.05118680f, 0.04375781f, -0.07100676f, -0.07136272f, 0.12412088f, 0.03198794f, -0.02781926f, -0.02531782f, 0.08368899f, -0.03113846f, 0.08445309f, -0.03544068f, 0.02954672f, 0.03292938f, -0.06402914f, 0.00308979f, 0.02496693f, -0.12225053f},
    {-0.02461760f, 0.01190093f, 0.10295434f, 0.02768034f, -0.10624504f, -0.03663687f, 0.12375897f, -0.01626636f, 0.09430163f, 0.01434165f, 0.08202161f, -0.05371694f, 0.12279910f, 0.02638093f, -0.02559133f, 0.09611329f, 0.06164201f, -0.08402143f, -0.00898781f, 0.08959085f, 0.03114244f, -0.03953245f, -0.08138461f, -0.08753254f, 0.06948504f, 0.05656227f, -0.11076634f, -0.02566589f, 0.03163652f, -0.11059581f, 0.10772473f, -0.01333113f, -0.05077823f, 0.01391840f, 0.04515879f, 0.02777682f, 0.11854172f, 0.07036835f, -0.01210693f, 0.02127869f, 0.03028972f, -0.04957777f, -0.10711068f, -0.01329662f, -0.04761264f, -0.11807898f, 0.04457861f, -0.05244739f, 0.11967646f, 0.04470511f, 0.05323292f, 0.03643297f, 0.04875000f, 0.08003557f, 0.09182821f, -0.00683050f, -0.03543577f, 0.03386675f, -0.05640067f, -0.00635150f, 0.03649753f, 0.05585393f, -0.12090911f, 0.04840201f},
    {-0.04839747f, -0.08804487f, -0.05323409f, -0.00269689f, 0.06155887f, -0.11132860f, 0.03395350f, 0.11262316f, -0.07062151f, 0.02986963f, -0.05025221f, 0.03073159f, 0.05412702f, -0.07700141f, 0.02991167f, 0.12354940f, 0.00877044f, -0.08872852f, 0.00156353f, 0.02756590f, 0.03848948f, -0.00901124f, -0.02678901f, -0.06215152f, 0.08077481f, -0.07061246f, -0.04254702f, 0.08293746f, -0.05874258f, -0.01631528f, -0.04983735f, -0.11079738f, 0.06025676f, -0.05550465f, -0.05768308f, -0.02754372f, 0.03424814f, 0.10975535f, 0.11056438f, 0.00170751f, -0.10720828f, 0.00922386f, 0.00288843f, 0.10556775f, -0.02583644f, -0.11745326f, 0.04541261f, -0.02741387f, 0.04361649f, 0.03761135f, 0.04455735f, 0.06914401f, -0.08763172f, -0.10181661f, 0.11703347f, 0.11425290f, -0.04934385f, 0.11968611f, 0.02467695f, -0.03284560f, -0.06769797f, -0.06652066f, 0.10029911f, -0.07683271f},
    {-0.05127209f, 0.12443727f, -0.06106363f, 0.12299088f, 0.05582464f, 0.06201272f, 0.02846617f, -0.02237660f, 0.05573079f, 0.03723171f, -0.06819662f, -0.10297488f, -0.10159193f, -0.01512820f, 0.03575006f, -0.07922900f, 0.02302961f, 0.07200693f, 0.07351997f, -0.04670969f, 0.02865444f, -0.11083016f, 0.08992930f, -0.09989975f, 0.00693783f, -0.03926809f, -0.10364240f, -0.10834983f, -0.08030233f, -0.09074587f, 0.09539106f, -0.01920098f, -0.08345397f, 0.00045086f, -0.05642886f, -0.01810090f, 0.10749984f, -0.11031853f, -0.10858984f, 0.03063448f, 0.08712614f, -0.11875896f, 0.03927150f, 0.12384461f, -0.02008232f, -0.07375818f, 0.06132342f, 0.07060471f, -0.01297680f, -0.10194890f, 0.00484778f, -0.08094992f, -0.10671297f, 0.07801929f, 0.08585006f, 0.05018489f, -0.10199541f, 0.10600790f, 0.09157431f, 0.10743037f, -0.00830844f, -0.02315009f, -0.11210668f, 0.09224208f},
    {-0.00655447f, -0.12498634f, 0.12222031f, -0.01616192f, 0.07518099f, -0.01845065f, -0.01966472f, 0.10995770f, 0.10378477f, -0.05834045f, 0.00390546f, 0.08490594f, 0.00600751f, -0.02252601f, 0.11167786f, 0.11130834f, -0.03350693f, 0.09464140f, -0.01238041f, 0.00371434f, 0.10027151f, -0.00969814f, -0.01243426f, -0.02716208f, -0.10436454f, 0.09678736f, -0.09806761f, -0.09594420f, 0.01691835f, -0.01316394f, 0.00489981f, 0.00983457f, 0.12388940f, -0.12136595f, -0.07515523f, 0.02305834f, -0.11127962f, -0.09875356f, 0.09578080f, 0.04840106f, -0.03877336f, 0.03298666f, 0.02186257f, -0.01231503f, 0.10380132f, -0.00003336f, 0.08868079f, -0.09729879f, -0.05078851f, 0.02114215f, 0.06677161f, -0.05085976f, 0.09017812f, -0.10370192f, -0.04768150f, 0.09397344f, -0.09339894f, -0.11723286f, -0.03155078f, -0.10414182f, 0.03718419f, -0.02197719f, -0.03679468f, 0.06912737f},
    {0.00727253f, -0.11269489f, -0.11845185f, 0.07850523f, 0.05390640f, 0.06869093f, -0.10616294f, -0.02415539f, 0.10679692f, 0.10096636f, 0.08497974f, 0.11604200f, -0.03917052f, -0.09676895f, 0.07026941f, 0.07969984f, -0.03774895f, -0.01166917f, -0.00601962f, -0.11088455f, -0.05177447f, -0.03960916f, 0.04666452f, -0.03647178f, 0.05641522f, 0.11255574f, -0.02664593f, -0.03046849f, -0.07851234f, -0.00953972f, -0.11439122f, 0.08449098f, 0.10782763f, 0.03333837f, 0.11822076f, 0.06296320f, 0.08285932f, 0.11545365f, -0.08594170f, -0.00980681f, 0.04696068f, -0.03345855f, -0.08867002f, -0.03924918f, -0.06196500f, -0.04384170f, -0.09522490f, -0.03770596f, 0.07162312f, -0.05486326f, 0.05324569f, -0.10279702f, -0.07876705f, 0.01295575f, 0.11575858f, -0.11543952f, 0.05440952f, 0.02186194f, -0.10213824f, -0.09075855f, 0.06297834f, -0.06245865f, 0.08759893f, -0.08644249f},
    {0.09442978f, -0.06377009f, 0.05063587f, 0.03740053f, -0.09808537f, -0.06555504f, -0.03027920f, 0.00039661f, 0.06173383f, -0.05138291f, 0.01839124f, -0.06780656f, -0.05941691f, 0.08157191f, -0.03423537f, -0.10952935f, 0.00525065f, -0.01781942f, 0.03553592f, -0.06376511f, 0.00538392f, -0.06166758f, -0.07554539f, 0.02857412f, 0.03863582f, 0.02312510f, 0.11546397f, 0.01158766f, 0.01062959f, -0.01634198f, -0.12085010f, 0.04888968f, 0.09744412f, 0.01238669f, -0.09748714f, 0.11223607f, 0.02800319f, 0.09041335f, 0.05428980f, 0.01971681f, -0.03682902f, 0.02566276f, 0.04022023f, -0.00757803f, -0.07984224f, -0.06569259f, -0.11456870f, -0.04888871f, -0.02015129f, 0.10223404f, -0.06686457f, -0.12299661f, 0.06851338f, 0.10777564f, -0.09749693f, -0.00124837f, 0.03974111f, 0.08058561f, -0.02243938f, 0.05693243f, 0.09604235f, 0.07314907f, 0.06090310f, 0.07601802f},
    {-0.11201312f, 0.02657788f, 0.09639640f, -0.09903970f, -0.10957122f, -0.10322475f, 0.03837952f, 0.11600825f, -0.01133779f, -0.04969059f, 0.00739753f, -0.10306659f, 0.02163853f, -0.08218116f, -0.08413424f, -0.09118317f, -0.03538883f, 0.08146317f, 0.02538890f, 0.08699167f, -0.12059523f, -0.10179876f, 0.07658938f, 0.09846418f, 0.10615407f, -0.11609054f, 0.05599043f, -0.12325893f, -0.03696802f, 0.00253221f, 0.05845353f, -0.03818527f, -0.10808316f, -0.12146741f, -0.05012774f, 0.09526108f, 0.05423558f, 0.06182919f, -0.10109492f, -0.11231671f, 0.11565724f, 0.08164912f, -0.05387758f, 0.01051062f, 0.09005283f, 0.11252129f, -0.10057929f, -0.06195338f, 0.04857509f, 0.09550531f, 0.02174690f, -0.00771435f, 0.00484189f, 0.11375034f, -0.09814116f, 0.05694650f, -0.08949254f, 0.01188491f, -0.11808124f, 0.08095989f, -0.06964584f, 0.00830355f, -0.07839453f, 0.01144741f},
    {-0.06087022f, -0.06392707f, -0.05417043f, 0.07755822f, 0.01746869f, -0.03219628f, 0.10646397f, 0.02449615f, -0.04045174f, -0.00565225f, -0.04887402f, -0.04958828f, -0.03903447f, 0.02978916f, -0.11130384f, -0.09734647f, 0.08391003f, -0.02993782f, -0.00461522f, 0.04365645f, -0.05591166f, 0.08756751f, -0.02829506f, 0.00761691f, -0.08669321f, 0.05082986f, -0.08884566f, 0.07602106f, -0.01769693f, -0.04565352f, -0.04184394f, 0.04769042f, 0.12242739f, 0.03396037f, 0.07661790f, -0.10536592f, -0.02949952f, -0.07079007f, -0.08971564f, 0.02146290f, -0.03907782f, 0.02829607f, -0.04970254f, -0.11397949f, -0.06433000f, -0.12015061f, 0.02707183f, -0.09384148f, 0.09608765f, 0.05410050f, -0.07013556f, -0.03572260f, -0.11199376f, 0.09005354f, -0.05589780f, -0.02625926f, 0.00923419f, 0.06068125f, -0.03726533f, 0.06128448f, 0.06428906f, -0.01544470f, 0.08288093f, -0.10961457f},
    {-0.06806433f, -0.00980952f, -0.01272714f, 0.04434630f, 0.09028240f, -0.09026021f, 0.06559362f, 0.02999239f, 0.10381278f, 0.06671712f, -0.02716987f, -0.01772495f, -0.08318311f, 0.02758092f, 0.09781834f, 0.04301323f, 0.10106827f, 0.04992557f, 0.02405195f, -0.02706166f, -0.10799104f, -0.02343249f, 0.10610850f, 0.10868697f, -0.04229021f, 0.10259819f, 0.10304090f, -0.10665971f, -0.12330222f, -0.06225742f, -0.01264869f, 0.04842101f, 0.05233742f, 0.07918873f, -0.06121665f, 0.08360705f, 0.02849837f, -0.08874024f, -0.09238042f, 0.04443827f, 0.11638583f, -0.08299091f, 0.01481143f, -0.11833555f, 0.08141956f, 0.03685337f, -0.03183770f, 0.06604235f, 0.05184114f, 0.08425421f, 0.01250099f, 0.00123391f, 0.05998231f, 0.04215606f, -0.10594629f, -0.04798129f, 0.07728410f, -0.06367068f, 0.09669265f, -0.02398664f, 0.11972950f, -0.07347892f, 0.08840507f, -0.05520277f},
    {0.08839555f, 0.06902052f, 0.05033511f, 0.03657785f, 0.07467586f, -0.04982619f, -0.04030389f, 0.03396009f, -0.08866039f, 0.00742841f, 0.05216847f, -0.11356422f, -0.00673504f, 0.00708219f, -0.09623420f, 0.09813194f, 0.00565638f, -0.11762460f, -0.04335836f, 0.02265245f, 0.09055266f, -0.04036905f, 0.10933952f, -0.05287318f, -0.10076284f, -0.03415215f, -0.08156891f, 0.04154408f, 0.08254512f, -0.10550907f, -0.09150696f, 0.06947391f, -0.02681395f, 0.11398044f, 0.11348106f, -0.08295132f, 0.07362759f, -0.12054779f, 0.05031988f, -0.07131751f, -0.00071001f, 0.12138718f, 0.01695175f, -0.06718457f, 0.05744827f, -0.02009763f, 0.11218368f, -0.09348068f, -0.02125268f, -0.10502227f, -0.07090282f, -0.03567347f, -0.08247031f, -0.08515869f, -0.03101067f, -0.07139799f, -0.07574257f, 0.00675353f, -0.09387717f, 0.07200381f, 0.08237100f, 0.11501265f, 0.03873299f, -0.01180278f},
    {-0.02183968f, -0.05942219f, 0.08501941f, 0.06922017f, 0.09026179f, -0.02426828f, -0.08635895f, 0.04169209f, 0.10957219f, -0.01982729f, 0.10095078f, 0.08826417f, 0.04394816f, -0.03380606f, -0.04191892f, -0.02188577f, -0.00938070f, -0.02572751f, -0.12176177f, -0.08573362f, -0.03964028f, 0.09605156f, 0.05164790f, -0.11384362f, -0.08949110f, -0.07334231f, 0.11854646f, 0.03094636f, 0.10012558f, -0.10093918f, 0.11677019f, 0.10171500f, 0.00867105f, -0.05845635f, 0.04899815f, -0.06716646f, -0.05181925f, 0.04689066f, -0.09600924f, 0.03041895f, -0.00666633f, 0.00116402f, 0.00572756f, 0.03013973f, -0.07471366f, 0.05144818f, -0.11726056f, 0.05258441f, -0.10157332f, 0.12029509f, 0.03006066f, 0.03462619f, 0.03320770f, 0.02428521f, -0.04780151f, -0.12162852f, 0.07475436f, 0.07570224f, -0.02286926f, 0.00626652f, -0.00803404f, -0.02822754f, 0.08528413f, -0.07473381f},
    {-0.11680076f, -0.02066450f, -0.07287826f, -0.08255495f, -0.03591928f, -0.00480993f, 0.08210564f, 0.07034172f, 0.10174872f, 0.09354852f, 0.03759442f, -0.00081491f, -0.00399116f, -0.09487231f, 0.01191626f, -0.02922882f, -0.03442837f, 0.10507752f, 0.05735593f, 0.07842882f, 0.08074157f, -0.07237396f, 0.03607380f, -0.01568058f, 0.04362319f, 0.07348906f, -0.03137858f, 0.09380004f, 0.00522552f, -0.02378288f, 0.08188839f, 0.09684342f, -0.03527033f, 0.07189175f, -0.02785061f, -0.00382134f, -0.08884822f, -0.05330051f, 0.01645656f, -0.02882974f, -0.01252781f, 0.03004563f, -0.04966317f, 0.06605367f, 0.12255763f, 0.09959947f, 0.11003126f, -0.03468010f, 0.00402549f, -0.04192890f, -0.06089777f, -0.02799699f, 0.07607926f, -0.11689338f, -0.06624676f, 0.06419539f, 0.06518957f, -0.03196475f, -0.02837451f, -0.01739347f, 0.09051019f, 0.09032504f, -0.05836068f, 0.02071640f},
    {-0.12099980f, -0.08252016f, -0.01143888f, -0.04180263f, -0.05897780f, 0.10272424f, 0.06221709f, 0.00963025f, -0.03680292f, 0.00185655f, 0.10257229f, -0.02334048f, 0.00952339f, 0.03871520f, 0.07402933f, 0.07656194f, -0.05852275f, 0.04913142f, 0.01988782f, 0.01800758f, -0.10771239f, 0.11567430f, 0.05574679f, 0.01465778f, 0.04803021f, -0.03104466f, -0.08974557f, -0.03268439f, -0.11188555f, 0.10810642f, 0.05350168f, 0.03280252f, -0.08454683f, -0.08142100f, 0.07129277f, -0.10127477f, 0.02424507f, 0.09352037f, -0.10898905f, 0.08824193f, -0.10304612f, -0.02427734f, 0.08631694f, 0.09269513f, 0.11352354f, 0.10342510f, -0.12056565f, 0.02094808f, -0.11170794f, 0.07115714f, 0.03700706f, 0.09632048f, 0.02932648f, 0.08569470f, -0.00548528f, -0.10039300f, -0.08221491f, -0.00175902f, -0.11226337f, 0.10615312f, -0.07504812f, -0.09484579f, 0.12173370f, -0.08014621f},
    {-0.05579780f, 0.00210775f, 0.03986108f, -0.04481240f, 0.06690955f, -0.08002175f, 0.02426895f, -0.12298283f, -0.11223513f, 0.04425333f, 0.06008917f, -0.05581866f, 0.04387254f, -0.03268927f, 0.06982884f, 0.01364952f, -0.02761759f, 0.02374926f, -0.11863357f, 0.07002027f, 0.11553711f, 0.10661608f, -0.07201278f, -0.05033025f, -0.05476786f, 0.01900484f, -0.08753300f, -0.09386672f, -0.04861934f, 0.10941771f, 0.03292890f, -0.11319336f, -0.05831964f, -0.09902795f, -0.01603968f, 0.00396594f, -0.08347188f, -0.09749299f, -0.02464494f, 0.00729285f, 0.09188744f, 0.04536341f, -0.07279307f, -0.11537367f, 0.02437480f, -0.01793344f, 0.07330121f, -0.08647780f, -0.00606620f, -0.09117737f, -0.06268743f, -0.07375060f, -0.02603215f, -0.01047243f, 0.11620304f, 0.11078884f, 0.09737000f, 0.02988479f, 0.00197677f, 0.11900079f, -0.08627971f, -0.11546516f, -0.06754413f, 0.09363206f},
    {0.12238370f, -0.05136722f, -0.08090046f, -0.11104774f, 0.05791950f, -0.05034268f, 0.09343240f, -0.04419743f, 0.11435969f, 0.08058800f, 0.08234245f, 0.06648752f, -0.10044551f, 0.01715119f, -0.07457487f, -0.03841254f, 0.07742280f, -0.06351925f, 0.07882701f, 0.00644965f, -0.05927017f, -0.06070304f, -0.12151313f, 0.04287703f, 0.00480022f, 0.11129206f, 0.04505372f, 0.03882082f, -0.00664020f, 0.05841802f, -0.01854591f, 0.05011624f, -0.05684273f, 0.07904294f, 0.03427668f, 0.06603260f, 0.00844166f, 0.05932723f, 0.11296743f, 0.01923582f, 0.08691104f, -0.11444861f, -0.00989112f, -0.10863858f, 0.00893760f, 0.02347419f, 0.03529721f, -0.05320753f, 0.05851224f, -0.05259617f, -0.03179924f, 0.09374529f, -0.11503665f, 0.02536859f, -0.10754704f, 0.05371699f, -0.10438216f, -0.11734150f, -0.03482018f, 0.09997246f, 0.06315619f, 0.08033694f, -0.02912112f, 0.11041839f},
    {-0.05699627f, -0.00875005f, -0.11478521f, 0.00629784f, 0.02865817f, -0.11997409f, 0.10508370f, 0.02351749f, 0.11920948f, -0.05381088f, 0.00582904f, -0.04011717f, 0.10568808f, -0.06987698f, 0.07194313f, -0.08777788f, 0.09393337f, -0.11638549f, -0.06214175f, -0.05641583f, -0.02122529f, -0.00155017f, 0.04039502f, 0.11209729f, 0.07363728f, -0.06027384f, 0.11745600f, -0.01840732f, -0.06970359f, 0.04672422f, -0.02178313f, 0.11929385f, 0.01394425f, 0.08273159f, 0.03218549f, -0.08168989f, 0.02630830f, -0.07233706f, -0.03347239f, -0.04026721f, -0.09904385f, 0.04837564f, 0.08845185f, -0.12318178f, 0.06804103f, -0.09869473f, -0.12233268f, 0.04310797f, -0.00277118f, -0.07663101f, 0.11192106f, 0.01019976f, -0.07840374f, 0.05734248f, 0.00884728f, -0.02000751f, -0.08898649f, -0.00906827f, 0.07233755f, -0.06106736f, 0.05757423f, -0.12284274f, -0.04729587f, -0.03932439f},
    {-0.10996588f, 0.04467534f, -0.09786636f, 0.07234479f, 0.02559325f, 0.00165942f, -0.06663911f, -0.04253949f, 0.03034626f, 0.12017462f, -0.05987296f, -0.08505014f, -0.05544746f, -0.08979073f, -0.01645595f, -0.08909701f, 0.09063350f, 0.08872327f, -0.07953657f, 0.11024253f, 0.02591494f, -0.07952729f, 0.04151882f, -0.11344725f, -0.06647789f, -0.09022595f, -0.06951949f, -0.02705722f, 0.02846445f, 0.02385290f, -0.12218259f, -0.11964630f, -0.01896375f, 0.10668737f, 0.04630607f, 0.11157855f, -0.05922611f, 0.03484489f, -0.10882315f, 0.06505390f, -0.00307971f, -0.00948110f, -0.06749815f, -0.10921721f, -0.04602234f, -0.01181139f, -0.06638156f, 0.05224603f, -0.02169065f, 0.01230781f, -0.11640926f, 0.03520340f, -0.06111303f, -0.09445183f, -0.05016662f, -0.11368404f, -0.09541105f, 0.09319708f, 0.10231648f, -0.08682452f, 0.02710865f, -0.06438529f, 0.11696965f, 0.07631220f},
    {0.04970102f, -0.10191338f, -0.06148364f, -0.02627005f, -0.11175737f, -0.07305244f, 0.03291038f, -0.10175930f, 0.03325859f, -0.00285658f, -0.01029372f, -0.03651287f, -0.06717868f, -0.11686805f, -0.08506103f, 0.09440351f, -0.00926530f, 0.12171867f, 0.00658995f, -0.01473381f, 0.07496198f, -0.11768354f, -0.07747738f, 0.07170537f, -0.03260009f, 0.09889507f, -0.01141424f, 0.08914407f, 0.00607084f, 0.01298127f, -0.10557923f, -0.04319841f, 0.00626746f, 0.05711330f, 0.02425388f, -0.02713954f, 0.00084393f, 0.10745351f, 0.08338293f, 0.04265232f, -0.09008455f, -0.04203008f, 0.07980514f, 0.11252204f, -0.05909383f, 0.05311310f, -0.02926984f, 0.07929529f, -0.01878235f, -0.09936339f, -0.12373093f, -0.00468343f, 0.03685066f, -0.07368679f, 0.09834670f, 0.05929121f, 0.07537885f, 0.05759084f, -0.12056120f, -0.02291916f, 0.06492966f, 0.06187807f, -0.11373354f, -0.07085446f},
    {0.09111059f, -0.10349165f, 0.09473725f, -0.02411686f, 0.00917041f, 0.06096621f, 0.03365029f, -0.08013014f, 0.04071602f, -0.10732082f, -0.06308115f, -0.02195704f, -0.02500419f, 0.09099343f, -0.06823559f, 0.10488962f, 0.05822326f, 0.04067625f, 0.08902124f, -0.08536610f, -0.10770401f, 0.00466281f, 0.06162101f, 0.06309827f, 0.00519818f, 0.11955079f, 0.04441056f, 0.05401158f, -0.06058599f, 0.03812976f, -0.04679014f, -0.10097884f, -0.08131678f, -0.07546818f, -0.01884781f, -0.05235361f, 0.11483844f, 0.05168143f, -0.10392269f, 0.00526069f, 0.10779166f, -0.00503942f, 0.02028681f, 0.03412583f, -0.04124469f, -0.08092985f, -0.04684697f, -0.03261353f, 0.09836204f, -0.10160935f, 0.01680534f, -0.04778323f, -0.01329926f, -0.01110485f, -0.04848792f, 0.02884354f, 0.02954213f, -0.07178219f, 0.07680243f, 0.11276059f, -0.05177346f, 0.02547820f, -0.04628561f, 0.08568515f},
    {-0.00969228f, -0.11145172f, 0.02908745f, 0.10358545f, 0.00048825f, -0.03201188f, -0.00342932f, 0.07078072f, 0.10720608f, -0.03128257f, 0.06658812f, 0.06964967f, 0.11167870f, 0.08955185f, -0.10324080f, -0.10326940f, -0.10373311f, 0.07854524f, -0.06347632f, 0.06904694f, -0.01861197f, -0.05150676f, 0.09406076f, -0.02414270f, -0.06745976f, -0.01915731f, -0.07950109f, -0.12036000f, -0.02190091f, -0.00703759f, -0.07124670f, 0.11078818f, -0.02792603f, -0.03175095f, 0.09906118f, 0.01390988f, -0.02940516f, 0.02874216f, -0.11293961f, 0.12289067f, 0.03297342f, 0.04396161f, -0.09219390f, 0.09556846f, -0.10273559f, -0.04343611f, -0.08015007f, -0.06312901f, 0.02667525f, -0.12396410f, -0.12237211f, 0.02855560f, 0.04119749f, 0.00179176f, -0.04748890f, -0.03496629f, -0.01726376f, -0.02534455f, -0.07733060f, 0.09408814f, 0.02529946f, -0.08362880f, -0.02540608f, -0.09044987f},
    {-0.07303400f, 0.09494436f, 0.03815944f, 0.05476090f, -0.01621766f, -0.03119086f, 0.01615746f, -0.08880283f, -0.12437798f, 0.08787753f, 0.00254732f, 0.07581981f, 0.09405284f, 0.05467267f, -0.04272395f, -0.02292225f, -0.00652376f, 0.00747730f, 0.00486201f, -0.09772620f, -0.06871323f, 0.09109290f, 0.00400108f, -0.05667348f, 0.08451112f, -0.03709908f, -0.05084343f, 0.08736202f, -0.09861894f, -0.05986297f, 0.09460029f, -0.01222250f, -0.05154583f, 0.10372217f, 0.01902111f, -0.11744519f, -0.09243420f, -0.03168753f, -0.00685990f, -0.09411402f, -0.04710376f, 0.04225586f, -0.11657138f, -0.11714099f, 0.03249861f, 0.02385718f, -0.12071390f, -0.11630502f, 0.10386081f, 0.12474933f, -0.05463165f, 0.12451585f, 0.08633317f, 0.11111169f, -0.05378777f, -0.03058942f, 0.07369663f, 0.04636496f, -0.09976517f, 0.07480824f, 0.12189640f, -0.07938245f, -0.11605635f, -0.11907096f},
    {-0.07908413f, -0.05504642f, -0.07064109f, -0.10947946f, 0.07806967f, 0.12225583f, 0.10465133f, 0.07827502f, 0.05549902f, -0.04927972f, -0.10087082f, -0.07382825f, 0.05659753f, 0.02734803f, 0.01595785f, -0.07586393f, -0.05880947f, -0.05271707f, -0.01586722f, -0.02358721f, 0.01321881f, -0.04162659f, -0.01416373f, -0.07950069f, 0.06176971f, -0.10388161f, 0.02281637f, -0.11892071f, -0.07128543f, 0.12086341f, -0.02339014f, -0.02296318f, 0.06448555f, -0.10783562f, -0.02879539f, -0.00402325f, 0.01406865f, -0.02070132f, -0.08817445f, -0.11456516f, 0.00134732f, 0.10438363f, -0.05611280f, 0.01580358f, 0.07945585f, -0.12213215f, 0.11061613f, 0.10557507f, -0.05468273f, 0.10895607f, 0.08538763f, 0.10383874f, 0.10825504f, 0.02866659f, 0.06868555f, -0.06693111f, 0.02099262f, 0.11986928f, -0.04307397f, 0.02945736f, -0.06386720f, 0.04620281f, 0.04069959f, 0.09437253f},
    {0.00068918f, 0.05968204f, 0.07578248f, 0.02012923f, -0.11791976f, 0.08862594f, -0.08004032f, 0.05790368f, -0.09352326f, 0.03641017f, -0.02339266f, -0.11194158f, 0.05707763f, -0.02908514f, -0.05201252f, -0.03883855f, 0.08499189f, 0.07344942f, 0.03405245f, 0.05230372f, 0.06420553f, 0.05171345f, 0.10643572f, 0.07526793f, -0.06432445f, -0.01903854f, 0.05830060f, 0.09945250f, -0.10386926f, -0.06199659f, -0.06199110f, 0.11806281f, 0.12268890f, -0.05587319f, -0.03862900f, 0.00221618f, 0.00731967f, -0.03562576f, -0.09119384f, -0.06652558f, -0.01043005f, 0.01353051f, 0.00479665f, -0.11478767f, 0.11068022f, -0.07280995f, -0.03060673f, 0.11595391f, 0.00081576f, -0.09992087f, 0.07201101f, -0.04702742f, 0.12117635f, -0.03626907f, -0.09343608f, -0.09298955f, 0.00067437f, -0.02013384f, 0.09731816f, 0.00748432f, -0.07513855f, 0.01400255f, -0.09245653f, 0.01866207f},
    {0.03302090f, -0.11785029f, -0.08550549f, -0.06278345f, -0.04370697f, -0.02271028f, 0.05242001f, -0.09866349f, 0.06464997f, -0.08664893f, 0.10976645f, -0.07134163f, -0.09562568f, 0.08958723f, 0.10167354f, -0.04235056f, 0.10959642f, 0.01407772f, 0.04539721f, -0.00733443f, -0.03414732f, -0.04521409f, -0.10717358f, 0.09123069f, 0.06622137f, 0.11356516f, -0.12288170f, 0.12350231f, 0.08336855f, 0.03408371f, -0.05365162f, 0.08820583f, 0.08015631f, 0.10757913f, -0.10320552f, 0.01899941f, 0.04501329f, -0.12296383f, 0.11700492f, 0.07802838f, -0.10038133f, -0.10731475f, 0.00509949f, 0.10025975f, 0.03629802f, 0.01757711f, -0.00809713f, -0.12420000f, 0.07523668f, 0.07972859f, -0.08789206f, -0.02302676f, 0.12152342f, -0.04791041f, -0.08582281f, 0.07150705f, 0.05774215f, 0.10767588f, -0.05382587f, 0.03039330f, 0.03009215f, 0.10170577f, 0.07004824f, 0.02937227f},
    {-0.01758666f, -0.02229851f, -0.06745757f, 0.05257776f, 0.10652848f, -0.06354180f, -0.08541921f, 0.09307404f, 0.01679523f, -0.05892356f, 0.08094619f, -0.10184741f, -0.06141692f, -0.04016748f, -0.00398044f, 0.02664655f, 0.05977926f, -0.04364710f, -0.01211883f, -0.06519297f, -0.08219083f, 0.02727342f, 0.09217322f, 0.10786898f, -0.09755734f, 0.05915134f, -0.03856514f, -0.00622934f, -0.00521690f, 0.10796776f, 0.10474186f, -0.10121408f, 0.02710877f, 0.07310103f, 0.03353682f, -0.00289612f, -0.05900839f, -0.08819517f, -0.12303400f, -0.00242251f, -0.04822877f, 0.02950051f, -0.05284476f, 0.10382788f, -0.08819458f, 0.11091776f, -0.04956166f, 0.01932044f, -0.04583803f, 0.05268525f, 0.09864675f, 0.11688060f, -0.08657464f, 0.08581094f, 0.08267644f, -0.10257524f, 0.05052483f, 0.02416652f, 0.06860836f, 0.10951993f, 0.00285947f, -0.04627088f, -0.05633895f, 0.01614286f},
    {-0.01834232f, -0.08952612f, 0.00348656f, 0.07157460f, 0.00414407f, 0.07858382f, -0.04722229f, 0.09803200f, 0.02978067f, -0.04200871f, 0.06026968f, 0.06147145f, -0.05359539f, -0.02273694f, 0.06451389f, -0.11016004f, 0.04762779f, 0.02740398f, -0.08520657f, -0.01541059f, 0.03658618f, 0.08695243f, 0.09140924f, -0.08063479f, -0.08127527f, 0.05911162f, 0.12332439f, 0.10674855f, 0.04922570f, 0.11852151f, -0.05738667f, -0.00353813f, -0.10196185f, -0.07671069f, -0.08453518f, -0.11339064f, 0.03526790f, 0.03228770f, 0.05032390f, 0.08284162f, -0.09956476f, -0.03607702f, 0.09836009f, -0.11062343f, 0.08785489f, 0.03849322f, -0.10147914f, 0.02696769f, 0.00401609f, 0.02414255f, -0.03586417f, 0.05658369f, 0.09721482f, 0.08712253f, -0.01199718f, -0.11498663f, 0.12237532f, 0.03478649f, 0.11094816f, 0.04502812f, 0.00205487f, 0.06726328f, 0.06995600f, -0.00808889f},
    {0.01913731f, -0.00507462f, 0.08564885f, 0.05690710f, -0.02084275f, 0.11648723f, 0.11978036f, 0.10154504f, 0.02239735f, 0.00764528f, -0.06527397f, 0.09112464f, -0.08981343f, -0.10773934f, 0.03771652f, -0.11693059f, 0.03985189f, -0.06020185f, -0.00157128f, -0.04815832f, 0.10107866f, -0.09290963f, 0.02296297f, 0.00177205f, -0.11894198f, 0.09665571f, 0.02472237f, -0.10030009f, -0.12406102f, 0.05527380f, 0.10261171f, -0.02848509f, -0.03692678f, -0.10659137f, 0.08441086f, -0.04709229f, -0.05745469f, 0.04756226f, 0.10932007f, 0.05785385f, 0.03605326f, 0.11063530f, 0.00531641f, 0.01933697f, -0.00913335f, -0.07832520f, 0.02296324f, -0.06491299f, 0.07233770f, -0.08622193f, -0.10217415f, -0.02415140f, 0.09285831f, -0.09497306f, -0.03983726f, -0.00957765f, -0.05466565f, 0.05905227f, 0.10918982f, 0.06765625f, -0.02636160f, -0.09814063f, -0.10320649f, -0.02993241f},
    {-0.03937823f, -0.09479804f, 0.03091276f, -0.04736502f, 0.03624953f, -0.06637804f, -0.01126318f, -0.03761847f, 0.07678095f, -0.11408159f, -0.04929179f, 0.02669388f, -0.03521661f, -0.00213927f, 0.08448158f, 0.01789401f, 0.01540935f, 0.03651828f, -0.06725180f, -0.04992110f, 0.05987723f, 0.01812060f, 0.08154190f, -0.01595898f, 0.11742575f, 0.07464986f, -0.03501782f, -0.06388141f, 0.02524257f, -0.10427848f, -0.05724554f, 0.03829373f, 0.01090255f, 0.05656950f, -0.05228536f, 0.10519373f, -0.06873766f, -0.06405002f, 0.08362994f, -0.02411674f, 0.03575937f, -0.02220568f, -0.08840397f, -0.00500023f, 0.05670966f, 0.08424222f, 0.09535296f, -0.00440174f, 0.09053734f, 0.03526068f, 0.00462584f, 0.00236149f, -0.01192741f, 0.03569844f, -0.00645785f, 0.08038847f, -0.01903892f, -0.06941316f, 0.03632663f, -0.07004194f, 0.07762761f, 0.10208873f, 0.02006668f, -0.02507526f},
    {-0.00564459f, 0.05854197f, -0.09548964f, -0.03345931f, -0.07615778f, -0.11306231f, -0.08943783f, -0.08031473f, 0.09517738f, 0.07640344f, -0.08486082f, -0.09864442f, 0.11194210f, 0.02967061f, 0.05756243f, 0.01952074f, -0.04670587f, -0.06753218f, 0.06725277f, -0.12348166f, -0.10401504f, 0.03774762f, -0.03278039f, 0.02391028f, 0.06666815f, -0.07183348f, -0.07036386f, -0.07688248f, -0.10936919f, -0.00846125f, 0.10614580f, -0.00764011f, 0.06855352f, -0.06216487f, 0.01240234f, -0.09386206f, -0.00826263f, 0.02743118f, -0.05348319f, 0.11476414f, 0.03529216f, 0.06252293f, 0.12440324f, 0.05298810f, -0.00982031f, 0.05969985f, 0.12317981f, -0.12034221f, -0.02356720f, 0.06070051f, -0.03029685f, -0.10169719f, -0.07256401f, -0.06496912f, 0.05182317f, 0.07958232f, -0.01422507f, -0.10228123f, 0.01776055f, 0.03494696f, -0.04715084f, 0.04310207f, -0.05106172f, 0.04208055f},
    {0.08943596f, 0.06234024f, -0.01181297f, 0.12006176f, -0.01099180f, -0.11149366f, 0.08985130f, 0.11623234f, 0.05704521f, 0.10954812f, 0.06751320f, 0.05102149f, 0.07237521f, -0.09602311f, -0.00149150f, -0.05339950f, 0.03438592f, -0.11054173f, 0.00738977f, 0.04890318f, -0.04644834f, -0.05041625f, -0.08106938f, 0.03441584f, -0.10492511f, -0.02565722f, 0.00695272f, 0.03566392f, -0.10731205f, 0.02522375f, -0.04904015f, -0.01455291f, -0.09121375f, -0.09817834f, 0.01705195f, 0.02122630f, 0.10743219f, 0.11761853f, 0.09133062f, 0.04843515f, 0.08313370f, 0.05338094f, -0.11644851f, 0.09097041f, 0.01517615f, -0.03117238f, -0.03717452f, 0.09970672f, 0.08722790f, -0.01161130f, -0.04672708f, -0.06720509f, 0.07206090f, -0.07580540f, -0.08286899f, -0.07501386f, 0.03629443f, 0.09582134f, 0.02498394f, 0.04659314f, -0.10095608f, -0.09082161f, -0.07321119f, -0.07998739f},
};

const float RNNModel::rec0_W_hh_b[64] = {-0.17050947f, -0.17811802f, -0.12443133f, 0.08102874f, -0.09378105f, -0.11243639f, 0.02201025f, -0.07730445f, -0.22556669f, -0.11792336f, 0.19333702f, -0.21226878f, -0.04429525f, -0.24352260f, 0.16784777f, 0.23317975f, -0.10532337f, -0.23129697f, 0.09061605f, -0.04124739f, -0.06450000f, 0.16012000f, 0.20686308f, -0.11093888f, 0.07031198f, -0.01737296f, -0.21168515f, -0.03895611f, -0.21896754f, 0.18760842f, -0.19426478f, 0.11168385f, -0.12588987f, 0.17197910f, 0.00405790f, -0.11572926f, -0.11178695f, 0.24368411f, 0.07851519f, -0.25846043f, 0.16373174f, 0.11570810f, -0.08283149f, 0.24156867f, 0.00794335f, 0.13059139f, 0.24697150f, 0.23952249f, 0.05483430f, -0.14885798f, -0.05460875f, -0.04818442f, 0.15043859f, -0.01853454f, -0.13142191f, 0.19212188f, -0.11301304f, -0.20253146f, 0.07579896f, 0.03094668f, 0.04207098f, -0.23891975f, 0.25832400f, -0.19289815f};

const float RNNModel::rec1_W_ih_w[64][64] = {
    {-0.28572136f, 0.05185506f, -0.05883063f, 0.11265783f, -0.08715698f, -0.02901109f, 0.12872967f, -0.06799700f, 0.03997595f, -0.10992131f, 0.17573716f, -0.27601695f, -0.17362447f, -0.07737611f, -0.05745970f, 0.02388407f, 0.02696664f, -0.17654932f, 0.12733842f, -0.03729684f, -0.09995439f, 0.18958370f, -0.12668031f, -0.17965622f, -0.01210402f, 0.01621048f, 0.00996417f, -0.02094376f, 0.05578003f, 0.05774473f, -0.00694170f, 0.23591526f, 0.01201617f, -0.12162124f, -0.07270550f, -0.08740164f, 0.03972381f, 0.37926713f, 0.21329747f, -0.58780324f, 0.24220623f, -0.00227147f, -0.03077267f, 0.15502745f, -0.05775062f, 0.34241039f, 0.12803108f, 0.21364705f, 0.27338189f, -0.11813948f, -0.06095442f, 0.05438689f, 0.29526383f, 0.23813041f, 0.08471949f, -0.02014121f, 0.16123101f, 0.08959578f, -0.00093265f, 0.00780823f, 0.10921989f, -0.13566796f, 0.09530302f, -0.01818396f},
    {-0.33267796f, 0.01302422f, -0.01267636f, 0.05092964f, -0.04966755f, 0.08058625f, 0.05749708f, -0.12262802f, 0.06492487f, 0.05660477f, 0.22352053f, -0.12812486f, -0.02013703f, -0.10552647f, 0.15406139f, -0.11227278f, -0.06444522f, -0.29090399f, 0.20178737f, -0.00103912f, -0.09034085f, 0.20317861f, -0.15138510f, -0.25309673f, 0.14703517f, 0.05151538f, 0.06844142f, -0.20024602f, 0.08257730f, 0.01648889f, 0.03314853f, 0.21420664f, -0.06286619f, 0.07855982f, -0.03443026f, -0.19980824f, -0.05087125f, 0.33389416f, 0.08808506f, -0.41389057f, 0.21304068f, 0.15565842f, -0.00882202f, 0.19279563f, -0.04859165f, 0.28361899f, 0.01282172f, 0.28346601f, 0.12846245f, 0.06589566f, -0.03879981f, 0.09535663f, 0.16279794f, 0.20552917f, 0.11233610f, 0.07133023f, 0.06156864f, -0.06120832f, -0.08009835f, -0.02937985f, 0.01192738f, -0.17466284f, 0.13969129f, -0.06824998f},
    {-0.04179517f, 0.24141817f, 0.20106663f, -0.04287861f, 0.17852783f, 0.06134319f, 0.13618205f, -0.00223628f, 0.28286877f, 0.31963113f, 0.03039482f, -0.04725545f, 0.15200637f, 0.42185879f, -0.31211087f, -0.27067673f, 0.20821321f, 0.05670054f, 0.15278019f, -0.10197296f, 0.17059575f, -0.21065041f, -0.17074749f, -0.03278160f, -0.01077184f, 0.20744570f, 0.12702189f, 0.12153891f, 0.24516107f, 0.00642945f, 0.38806018f, 0.02049089f, 0.21129093f, -0.04933467f, -0.19363990f, 0.03097711f, 0.07311445f, -0.07734221f, 0.14341347f, 0.02394055f, -0.04015093f, -0.16610150f, 0.20863323f, -0.28144109f, -0.10230903f, -0.03844266f, -0.23666845f, -0.09776225f, 0.01392350f, 0.51018828f, 0.10971975f, 0.05065151f, 0.15865679f, 0.05251845f, 0.25978553f, -0.21149078f, 0.20549946f, 0.27641168f, -0.16915892f, -0.04693484f, -0.02151580f, 0.11564681f, -0.28203812f, 0.28156134f},
    {0.32775396f, -0.09615964f, -0.11315368f, -0.27102214f, -0.04837221f, 0.03214621f, -0.19311967f, 0.08724578f, -0.02097267f, -0.05105533f, -0.31980497f, 0.34046459f, 0.18370962f, 0.05419919f, -0.03441113f, -0.00564307f, 0.04487649f, 0.21283208f, -0.23606697f, 0.01773614f, 0.10526534f, -0.10396282f, 0.00919863f, 0.28213707f, -0.22100824f, -0.11354265f, 0.01172325f, 0.11819792f, 0.08114826f, -0.18816681f, 0.03696714f, -0.19347900f, -0.04331303f, 0.01056152f, 0.21583569f, 0.20891170f, -0.07365570f, -0.30347207f, -0.11278488f, 0.31284982f, -0.09589928f, 0.03066923f, -0.03696874f, -0.06985874f, 0.01088224f, -0.26910973f, -0.12697753f, -0.33371577f, -0.08693145f, -0.05290594f, 0.21361332f, -0.08707651f, -0.27880338f, -0.26500133f, -0.05933641f, 0.08526339f, -0.07104534f, 0.03456539f, 0.14800444f, 0.02731411f, -0.12992503f, 0.17579269f, 0.06697281f, -0.00321749f},
    {0.26874238f, -0.09645515f, 0.09424452f, -0.14720899f, 0.01788124f, -0.08164209f, -0.15627474f, 0.14265807f, 0.12409344f, -0.03436923f, -0.06992694f, 0.26410404f, 0.03442286f, 0.04462996f, 0.03130364f, 0.11924626f, -0.05342593f, 0.35705292f, -0.09712666f, 0.14764695f, -0.02568536f, 0.01026732f, 0.12089144f, 0.14025724f, -0.08141971f, -0.06588150f, -0.09299382f, -0.05065817f, 0.10970012f, -0.20400773f, -0.00000818f, -0.25502577f, -0.11368395f, -0.03733979f, 0.11848062f, 0.04463662f, -0.11547823f, -0.36742571f, -0.10333502f, 0.35897002f, -0.03255296f, -0.14968188f, -0.14753473f, -0.07816403f, 0.18477055f, -0.07540243f, -0.05234735f, -0.28073254f, -0.15259765f, 0.02554567f, 0.05814907f, 0.00731348f, -0.20522985f, -0.06633010f, 0.04368176f, -0.08100712f, -0.08379448f, 0.05575110f, 0.08589154f, 0.14735982f, -0.09000737f, 0.07214408f, -0.08582184f, 0.11889189f},
    {0.05780947f, -0.42600086f, -0.14100519f, 0.07337373f, -0.09767418f, -0.22941951f, 0.03326057f, 0.05977594f, -0.30200887f, -0.16728340f, 0.06364552f, 0.07566621f, -0.19737819f, -0.40910792f, 0.21823020f, 0.08691469f, -0.31388247f, 0.06311687f, 0.02492284f, 0.08687430f, 0.01443549f, -0.03618174f, 0.10545182f, -0.02491993f, -0.16616571f, -0.12764066f, -0.28967458f, -0.16005048f, -0.24694529f, -0.14826411f, -0.29449958f, -0.03432176f, -0.19251859f, 0.02114114f, -0.05298630f, -0.07755834f, -0.05977284f, -0.01867592f, -0.16502599f, -0.05921933f, -0.04520048f, 0.00111982f, 0.00554799f, 0.46071637f, 0.09998010f, 0.03940126f, 0.35535887f, 0.04039168f, -0.00434298f, -0.60636169f, -0.20876634f, 0.02699862f, 0.02664186f, 0.01995650f, -0.10116611f, 0.54183060f, -0.19153875f, -0.22455542f, 0.09372263f, 0.16546336f, -0.08920977f, -0.26785663f, 0.29974833f, -0.33334991f},
    {0.14195749f, 0.00775042f, -0.22060172f, -0.23637317f, -0.18987440f, -0.10820774f, -0.25282517f, 0.21393234f, -0.27300477f, -0.22708811f, -0.25475094f, 0.08511014f, -0.02585182f, -0.05899916f, 0.10699164f, 0.10621291f, -0.11838260f, 0.07928416f, -0.31969464f, 0.11398376f, -0.00305152f, -0.05319346f, 0.25455746f, 0.27531049f, -0.26139444f, -0.06587575f, -0.04805610f, 0.06070266f, -0.18982150f, -0.29964051f, -0.11526950f, -0.20063345f, -0.11439572f, 0.01083027f, 0.16146989f, 0.18348177f, -0.18993936f, -0.18667801f, -0.07699776f, 0.21912901f, -0.27543265f, -0.02693268f, -0.08794300f, 0.12668326f, 0.06940443f, -0.11595023f, 0.05879740f, -0.19227217f, -0.17562212f, -0.08660427f, -0.10182260f, -0.16255097f, -0.09147117f, -0.24977426f, -0.19760233f, 0.01494224f, -0.29571357f, -0.08461625f, 0.13669333f, 0.28479341f, -0.02790793f, -0.07872726f, 0.02908434f, -0.10591726f},
    {0.22940148f, -0.15681745f, -0.06513762f, -0.18059772f, -0.04310213f, -0.01185660f, -0.01638433f, 0.21008404f, -0.07359819f, 0.10523956f, -0.19533220f, 0.05697859f, -0.03447467f, 0.02578286f, 0.04552404f, -0.06168727f, -0.01943741f, 0.18970439f, 0.01648693f, 0.00962681f, -0.02796289f, -0.09389449f, -0.00024996f, 0.08962497f, -0.12627633f, 0.03788245f, -0.05061131f, -0.05647177f, -0.09539469f, -0.10855516f, 0.04366061f, -0.09176330f, -0.15979926f, 0.07859042f, 0.17772628f, 0.07276694f, 0.00410215f, -0.07736977f, 0.00109400f, 0.36402839f, -0.24461395f, -0.15790333f, 0.02615337f, -0.11590060f, 0.18319167f, -0.03891945f, -0.10339925f, -0.12323721f, -0.22138679f, -0.11968885f, 0.11435655f, 0.08868372f, -0.07943483f, -0.04555897f, -0.04159507f, 0.08910932f, -0.19464619f, 0.01058743f, 0.05814984f, 0.04935364f, -0.15912667f, 0.13460532f, -0.01779114f, -0.02271907f},
    {0.11231688f, -0.27883086f, -0.23292342f, -0.32218468f, -0.21443009f, -0.24641714f, -0.23453516f, 0.29221743f, -0.23952419f, -0.18343639f, -0.31446242f, 0.11536990f, -0.03999374f, -0.25641885f, 0.26988846f, 0.35575089f, -0.21971004f, 0.25807616f, -0.20631398f, 0.32206544f, -0.10435486f, 0.10269213f, 0.28953230f, 0.22639218f, -0.34409100f, -0.11199381f, -0.18128031f, -0.09287807f, -0.12561786f, -0.09308743f, -0.27254987f, -0.21187383f, -0.24951535f, 0.12288718f, 0.09949379f, 0.16189790f, -0.28519702f, -0.04065703f, -0.14494076f, 0.07149756f, -0.32289377f, 0.11569192f, -0.24615224f, 0.06759246f, 0.33939961f, 0.05170800f, 0.13611539f, -0.06123020f, -0.28101227f, -0.36811531f, -0.07104852f, -0.01258655f, -0.18356982f, -0.21038245f, -0.37198910f, 0.25248179f, -0.24350625f, -0.34358314f, 0.16043347f, 0.29739493f, -0.32212669f, -0.09625629f, 0.33912396f, -0.29592264f},
    {-0.02300069f, -0.16121690f, -0.16979325f, -0.11761542f, -0.20656747f, -0.23778316f, 0.00907912f, 0.06604005f, -0.23811600f, -0.10025741f, -0.03162570f, -0.02010353f, -0.02597389f, -0.29823312f, 0.32603627f, 0.11395678f, -0.22181575f, -0.10994090f, 0.00533523f, 0.06014840f, -0.09722570f, 0.09434409f, 0.15385683f, -0.06824059f, -0.15316609f, -0.04019757f, -0.16881371f, -0.13195227f, -0.15151590f, -0.01009846f, -0.29432642f, 0.07621825f, -0.17235401f, 0.17543042f, -0.09340885f, -0.08421376f, -0.09590387f, 0.12463765f, -0.00505468f, 0.01390281f, 0.07446063f, 0.01084982f, -0.16135611f, 0.42357224f, 0.05977608f, 0.17476089f, 0.23806593f, 0.13893630f, -0.01085494f, -0.36284441f, -0.24959551f, -0.07338832f, 0.12789884f, 0.00545990f, -0.20574689f, 0.34310311f, -0.09114919f, -0.30996192f, 0.29063886f, 0.08610347f, -0.05691334f, -0.15485258f, 0.30731824f, -0.37102011f},
    {-0.18884329f, 0.10376656f, -0.03121008f, 0.08927625f, 0.05632801f, 0.05067765f, 0.11140890f, -0.18918908f, 0.01328724f, -0.05464075f, 0.14843547f, -0.22062072f, -0.00208216f, -0.09928277f, 0.00422105f, -0.10572768f, 0.11994419f, -0.26130328f, 0.06862585f, -0.06881209f, -0.01673517f, 0.02627255f, -0.09296013f, -0.23969764f, 0.06677642f, -0.03293430f, 0.00212779f, -0.05252460f, -0.01101890f, 0.12721719f, -0.04235568f, 0.03728478f, -0.01636017f, 0.06168507f, -0.06118402f, -0.10630867f, -0.02192600f, 0.29631436f, 0.18442023f, -0.42484754f, 0.22873589f, 0.10551538f, 0.05254041f, 0.14629929f, -0.19679148f, 0.41188711f, 0.01081260f, 0.14447345f, 0.12248550f, -0.10626015f, -0.18712759f, 0.12569827f, 0.13418570f, 0.15706713f, 0.04775707f, 0.17470363f, -0.00476985f, -0.03818864f, 0.10059616f, -0.17009257f, -0.04812006f, -0.13724619f, 0.12400808f, 0.05548303f},
    {-0.03548868f, 0.21048173f, 0.23130766f, -0.02042324f, 0.23402104f, 0.14024267f, 0.02111880f, -0.08484941f, 0.37469664f, 0.14881799f, -0.05273492f, 0.04637728f, 0.16237070f, 0.39928544f, -0.22203147f, -0.23179595f, 0.23333071f, -0.08632682f, 0.03352422f, -0.11015178f, 0.08498635f, -0.13562606f, -0.07256617f, -0.11533386f, 0.14389858f, 0.18581715f, 0.16946965f, -0.02730030f, 0.32939619f, -0.05005641f, 0.36927649f, 0.12231896f, 0.19574530f, -0.25094432f, -0.04846970f, 0.03275974f, 0.16008581f, 0.04704145f, 0.12109483f, 0.12550548f, 0.07878790f, -0.17149025f, 0.13244663f, -0.41452125f, -0.02387759f, -0.15432295f, -0.16721082f, 0.04431665f, -0.10621402f, 0.48286346f, 0.09426249f, 0.01982160f, 0.02509777f, 0.01547031f, 0.23829637f, -0.37293851f, 0.09345157f, 0.21522723f, -0.31339774f, -0.14214693f, 0.02234878f, 0.28579399f, -0.21924835f, 0.27422696f},
    {0.28481877f, 0.02495346f, 0.04505764f, -0.13372740f, 0.01534564f, -0.11433680f, -0.16679610f, 0.05128221f, 0.01463028f, -0.06831098f, -0.20579250f, 0.12201331f, 0.09757571f, 0.16838247f, 0.05806759f, 0.03559946f, 0.05055020f, 0.33849999f, -0.09367187f, 0.10646491f, 0.15233046f, -0.27991423f, 0.13891023f, 0.07255347f, -0.17605130f, -0.21366996f, -0.09004106f, 0.28011543f, 0.03727482f, -0.12265390f, 0.09598228f, -0.08246531f, 0.03185337f, 0.04407993f, 0.07158061f, 0.20810172f, 0.02257836f, -0.33629063f, -0.23210040f, 0.31117359f, -0.08522647f, -0.08884124f, -0.00023316f, -0.04338633f, 0.12133101f, -0.41654265f, 0.01439315f, -0.23490663f, -0.20317796f, 0.10028028f, 0.04509762f, 0.02235880f, -0.09192834f, -0.11643296f, -0.14215501f, 0.04589680f, -0.03864607f, -0.05865140f, 0.11630453f, 0.18912560f, -0.03913389f, 0.20192333f, -0.18722598f, -0.07524221f},
    {0.06508894f, -0.07866958f, 0.11033179f, 0.03735102f, -0.23305069f, -0.02236790f, 0.02108549f, -0.09963927f, -0.11449123f, -0.16575505f, 0.05102486f, 0.05170142f, -0.03412951f, -0.20214733f, 0.09012191f, 0.13109457f, -0.19625150f, 0.07083514f, 0.02033531f, 0.00510420f, -0.11796705f, 0.02101159f, 0.20608319f, -0.01213752f, 0.01857630f, -0.14027053f, -0.21317388f, -0.10429745f, -0.27056023f, -0.07935894f, -0.27880535f, 0.03442126f, -0.02982248f, 0.12913583f, 0.09017706f, -0.04969101f, -0.12792300f, -0.10696092f, 0.09507874f, -0.02480515f, -0.04671398f, -0.08119805f, -0.05560523f, 0.08161717f, 0.13083236f, -0.05392469f, 0.22960396f, 0.09583892f, -0.09844993f, -0.17713876f, 0.04805195f, 0.04444393f, 0.10319766f, -0.10408486f, -0.10263760f, 0.27241692f, 0.01890483f, -0.26020017f, 0.27523366f, 0.00711104f, -0.08633743f, -0.06834255f, 0.29686210f, -0.28223839f},
    {0.19534893f, 0.05210132f, -0.07609078f, -0.04185976f, 0.01858221f, -0.07616334f, -0.04729970f, 0.16609450f, -0.05406883f, 0.08949795f, -0.21747836f, 0.15616843f, 0.14552887f, 0.10000539f, 0.04195245f, -0.00228155f, 0.01516662f, 0.25047147f, -0.05011669f, 0.10681567f, 0.16537671f, -0.16921607f, 0.09506417f, 0.11814046f, -0.15357161f, -0.08283772f, -0.03201677f, 0.15171714f, 0.08727138f, -0.13488029f, -0.00745454f, -0.15581851f, -0.06212252f, -0.02916679f, -0.07279273f, -0.03082921f, -0.12397798f, -0.11465003f, -0.02543064f, 0.28890556f, -0.00962079f, -0.00893599f, -0.04511527f, 0.00472194f, -0.00100661f, -0.10671166f, -0.08929916f, -0.22839648f, -0.08622286f, -0.01479084f, 0.04878800f, 0.06914506f, -0.08482165f, -0.09041579f, -0.13584855f, -0.14100596f, -0.16682258f, -0.08206099f, -0.15743065f, 0.18174981f, 0.02071161f, 0.10451271f, 0.02968028f, 0.04836970f},
    {-0.04898064f, 0.13553424f, 0.03356803f, 0.02405985f, -0.01394602f, -0.11605585f, -0.02094226f, -0.07129136f, 0.03883466f, -0.01704556f, -0.02070132f, -0.03566551f, 0.01229339f, 0.01852833f, 0.07154144f, -0.03409322f, -0.06686119f, -0.07346992f, -0.11572481f, -0.07949712f, -0.02528213f, 0.09654112f, -0.07389642f, -0.00775551f, -0.01985431f, -0.10972106f, -0.08074952f, 0.13642955f, -0.09245832f, -0.04336645f, 0.08101504f, -0.07809640f, -0.06133380f, 0.11575638f, 0.00150513f, -0.05731184f, 0.04501755f, -0.14782219f, -0.15069021f, -0.07276394f, -0.01179254f, 0.11822731f, -0.14349763f, -0.03578298f, 0.13914545f, 0.13325664f, 0.09036893f, -0.11828362f, 0.04130226f, 0.00347350f, -0.09148774f, 0.04430356f, -0.12490351f, -0.03273874f, -0.10721647f, 0.02038401f, -0.02816480f, -0.08267034f, 0.12906925f, 0.13585448f, -0.06575207f, 0.10865159f, 0.00443639f, -0.13935524f},
    {-0.13342676f, -0.30178988f, -0.00513290f, -0.03176276f, -0.23439732f, -0.24135782f, 0.00820132f, 0.06402622f, -0.29355973f, -0.18791485f, -0.09073841f, 0.02315398f, -0.14299184f, -0.29921523f, 0.13224636f, 0.12033900f, -0.18255386f, 0.04582979f, -0.06245251f, 0.09540537f, -0.08724411f, 0.01968059f, 0.07141546f, -0.05733275f, -0.14280488f, -0.12004380f, -0.05609689f, -0.15081181f, -0.11516848f, -0.00424859f, -0.15810035f, 0.04180384f, -0.11316913f, 0.26101077f, 0.09675053f, 0.02965964f, -0.09276182f, -0.03518454f, -0.11773721f, -0.01892933f, 0.07498974f, 0.18087961f, -0.17554706f, 0.25089481f, 0.13412626f, 0.13734673f, 0.10620535f, 0.02884193f, -0.02579522f, -0.11865222f, -0.06786825f, -0.12413351f, -0.06038971f, 0.01582937f, -0.16831367f, 0.21592221f, 0.01632527f, -0.30098790f, 0.17084700f, -0.04507100f, -0.13270500f, -0.09646205f, 0.18402202f, -0.16162972f},
    {-0.02384446f, 0.13495196f, 0.05378808f, 0.11444559f, 0.06337222f, 0.17213769f, 0.02494237f, 0.00985316f, 0.08903756f, 0.16824386f, 0.11364330f, -0.06445113f, 0.20355710f, 0.37074178f, -0.24614750f, -0.22939858f, 0.22459462f, 0.00303193f, 0.09184849f, 0.00925480f, 0.21071243f, -0.19663113f, -0.13989533f, 0.03377401f, -0.02246647f, -0.02575491f, 0.12501758f, 0.21211223f, 0.24240276f, -0.05154609f, 0.29505870f, 0.08466277f, 0.21150696f, 0.01891135f, -0.03730806f, 0.00829496f, 0.22778769f, 0.08729829f, -0.01295404f, 0.09301007f, 0.02861822f, -0.00134126f, 0.00492130f, -0.32590553f, -0.01249122f, -0.11683235f, -0.31351998f, 0.06507190f, -0.07831765f, 0.36389202f, 0.08537982f, -0.14293826f, -0.11419749f, 0.06487951f, 0.20720923f, -0.22098236f, 0.16971996f, 0.18092252f, -0.10054146f, 0.08730745f, 0.13727380f, 0.25784078f, -0.28930789f, 0.13837546f},
    {0.09683064f, 0.10283280f, 0.09355004f, 0.04603330f, -0.03992228f, 0.02307967f, -0.06810764f, -0.01055096f, 0.11828818f, -0.07217447f, -0.10125341f, 0.00272840f, 0.02732635f, -0.14233913f, 0.09069943f, 0.01899322f, -0.00619784f, 0.07610593f, 0.07543634f, -0.07166348f, -0.06496406f, 0.06696956f, -0.03338363f, -0.07398677f, 0.04780182f, 0.06868955f, 0.01158380f, -0.02373521f, -0.12352980f, 0.05596083f, 0.01338889f, 0.06275679f, 0.11408017f, -0.04698757f, 0.03709475f, 0.13375497f, -0.00691229f, -0.05735926f, -0.08784670f, -0.01625425f, -0.06319512f, -0.01867002f, -0.12955216f, 0.05367400f, -0.01996667f, 0.12717439f, 0.09579997f, -0.12360220f, -0.04646873f, 0.09249248f, -0.05921545f, 0.07002677f, -0.11908972f, 0.10002391f, 0.05808115f, -0.09334131f, 0.04622351f, 0.05722345f, 0.07896706f, 0.01910417f, -0.06066454f, 0.01552760f, -0.05417976f, 0.10129722f},
    {-0.00459588f, 0.07298776f, 0.01012999f, -0.01740612f, 0.12835675f, 0.18188737f, 0.18620397f, -0.09365723f, 0.24413559f, 0.13285527f, 0.03016148f, 0.06889167f, 0.10273570f, 0.36205974f, -0.31632403f, -0.14904818f, 0.13413283f, 0.05850205f, 0.18132134f, -0.07902171f, 0.04825372f, -0.07118528f, -0.16959983f, -0.01564527f, 0.01665361f, 0.12526353f, 0.19882706f, -0.13763469f, 0.11908821f, -0.01158398f, 0.06845524f, 0.02628421f, 0.19652022f, -0.08905236f, -0.02839091f, -0.06671270f, 0.04338868f, -0.06272318f, 0.19809087f, 0.01989135f, 0.16963282f, -0.19773635f, 0.04844369f, -0.19269091f, 0.00689293f, -0.16740167f, -0.24624850f, -0.05377251f, 0.12756905f, 0.27368999f, 0.02667427f, 0.13802223f, -0.02572139f, 0.07847618f, 0.07862562f, -0.21390073f, 0.11725880f, 0.18966483f, -0.04785894f, -0.19744587f, 0.04597170f, 0.04284719f, -0.20084825f, 0.35231054f},
    {0.05339640f, 0.04225512f, 0.12134477f, -0.02501870f, 0.04035591f, -0.06535483f, 0.06239493f, 0.02858492f, 0.01373038f, 0.06745705f, -0.06164157f, 0.09338956f, -0.01735602f, -0.10333516f, 0.02300817f, -0.06295147f, 0.00549092f, -0.09123106f, -0.12465261f, 0.09949274f, 0.05512797f, 0.11853737f, -0.06680953f, -0.06097106f, -0.04537635f, 0.04768689f, -0.13451946f, -0.09187304f, -0.08925838f, -0.08095235f, 0.04057951f, 0.04008098f, -0.13343984f, 0.00231235f, 0.01609778f, -0.05569749f, -0.12215963f, 0.11756774f, -0.08762211f, 0.02880899f, -0.04986003f, -0.05001349f, -0.09504863f, -0.07870533f, -0.06266204f, 0.03365454f, 0.08464145f, -0.07772654f, 0.12475803f, -0.18693902f, -0.12524639f, 0.04069255f, -0.09418360f, -0.05690916f, -0.12716581f, -0.07438553f, 0.05652530f, -0.02678157f, 0.05973054f, 0.11663383f, -0.03243772f, -0.08611116f, -0.02402779f, -0.04306639f},
    {0.24182628f, 0.10525410f, -0.00479968f, -0.05086448f, -0.09414142f, -0.13188130f, -0.26015303f, 0.26686072f, -0.06228557f, 0.11892918f, -0.22329254f, 0.10887711f, 0.03995768f, 0.07149582f, 0.08463250f, -0.06364942f, -0.13759933f, 0.29593515f, -0.04478643f, 0.03001664f, 0.15475617f, -0.14243527f, -0.05565735f, 0.22588389f, -0.23893736f, -0.12268180f, -0.05530162f, 0.03525614f, -0.01272036f, -0.25642374f, 0.13217025f, -0.27132326f, 0.06429020f, 0.06440879f, 0.12715928f, 0.15519311f, -0.09892987f, -0.26858979f, -0.05133291f, 0.32526398f, -0.11640138f, -0.19484694f, -0.14569147f, -0.01448069f, 0.16075009f, -0.33743918f, -0.13507232f, -0.16391616f, -0.17538938f, 0.12926561f, -0.02746205f, 0.04524832f, -0.32445833f, -0.08988453f, -0.11057337f, -0.04007135f, -0.11604228f, -0.03310778f, -0.04483541f, 0.06025081f, -0.05892876f, 0.03151589f, -0.01731983f, -0.02887842f},
    {0.08248896f, -0.38220912f, -0.24295996f, -0.20037444f, -0.40833133f, -0.33718249f, -0.25951749f, 0.22832239f, -0.39978206f, -0.32465929f, -0.21107389f, 0.01045260f, -0.24881630f, -0.31608921f, 0.41020700f, 0.41899058f, -0.40126321f, 0.07373246f, -0.16992475f, 0.23973128f, 0.01598804f, 0.01263440f, 0.30020446f, 0.28610325f, -0.20296551f, -0.26588091f, -0.39030257f, -0.12158890f, -0.44120330f, -0.29188243f, -0.12394907f, -0.12292120f, -0.25167423f, 0.22591716f, 0.22202976f, 0.19393353f, -0.42699352f, -0.08842364f, -0.15699834f, -0.12024844f, -0.13370603f, 0.17641923f, -0.43993819f, 0.17986453f, 0.33200291f, 0.05970572f, 0.14661950f, -0.03859480f, -0.14334649f, -0.25784582f, -0.21744846f, -0.12926777f, -0.13641277f, -0.24467136f, -0.39234325f, 0.38025397f, -0.36841631f, -0.26141235f, 0.42773610f, 0.13894714f, -0.14535075f, -0.07702206f, 0.12663659f, -0.30256397f},
    {-0.02622490f, 0.23759606f, 0.31639168f, 0.13189085f, 0.20604314f, 0.27843875f, 0.25661555f, -0.07139298f, 0.11105486f, 0.20623657f, 0.10351854f, -0.15401901f, 0.08106749f, 0.15011141f, -0.29083490f, -0.30740631f, 0.16153663f, -0.06371525f, 0.27465734f, -0.24469596f, 0.10841239f, 0.00951428f, -0.33266634f, -0.10928071f, 0.19985583f, 0.30607817f, 0.22576830f, -0.05665400f, 0.32323137f, 0.04941863f, 0.26195845f, 0.05386822f, 0.19966708f, -0.24281989f, -0.32109132f, -0.22942410f, 0.18255861f, 0.09108039f, 0.20489849f, -0.10252145f, 0.25859186f, -0.09328481f, 0.24975851f, -0.15212236f, -0.27876037f, -0.04887013f, -0.28945071f, 0.24402593f, 0.08280218f, 0.11307321f, 0.13234073f, 0.00881060f, 0.02637631f, 0.07224671f, 0.23430374f, -0.19356754f, 0.09156913f, 0.22290052f, -0.28293329f, -0.25158176f, 0.23376128f, 0.21961197f, -0.16123547f, 0.18573099f},
    {0.03911310f, -0.07097899f, 0.02354067f, 0.02239420f, -0.13567118f, 0.04088227f, 0.06188497f, 0.08068628f, -0.12458379f, -0.08972584f, 0.01415718f, 0.02471711f, -0.18576334f, -0.29904154f, 0.14628229f, 0.16011591f, -0.05047165f, 0.09274960f, -0.04166807f, 0.15805592f, 0.11041993f, -0.08952538f, 0.22659533f, -0.01980252f, -0.12901799f, -0.04980390f, -0.21180697f, 0.04074985f, -0.15078659f, -0.01263405f, -0.24700612f, 0.02428591f, -0.03984815f, 0.11696627f, 0.11925867f, -0.01782043f, -0.03465569f, -0.08838324f, -0.08932979f, -0.04122851f, -0.03955155f, 0.12460560f, -0.06546873f, 0.26342404f, 0.09365889f, 0.01048379f, 0.12335199f, -0.02331458f, -0.10131656f, -0.13512895f, 0.03471437f, 0.01814323f, 0.04119257f, 0.05661061f, -0.07203098f, 0.09862965f, -0.10093063f, -0.25569832f, 0.06045333f, 0.04267827f, -0.15146294f, -0.14435479f, 0.17232224f, -0.26200432f},
    {-0.39153025f, -0.05783452f, -0.00034187f, 0.14078386f, -0.07277682f, -0.04367688f, 0.14657177f, 0.00502163f, -0.02493099f, 0.00081869f, 0.13000330f, -0.12994871f, -0.00800293f, -0.05917878f, 0.07752409f, -0.06525496f, 0.08626525f, -0.34059864f, 0.01254691f, -0.15331155f, -0.13802171f, 0.21730271f, -0.09721690f, -0.08651049f, 0.08411200f, 0.10555209f, -0.04468337f, -0.15053077f, -0.11265714f, 0.12297963f, -0.11171891f, 0.01737309f, 0.12464433f, 0.00185227f, -0.11096019f, -0.18556093f, 0.14872323f, 0.21642432f, 0.00686006f, -0.30237293f, 0.25568628f, 0.11159349f, 0.15173714f, 0.00168185f, -0.06994623f, 0.33124125f, -0.08642319f, 0.08891201f, 0.14606498f, 0.03983713f, -0.05806796f, -0.01989018f, 0.26817274f, 0.20454423f, -0.07722060f, -0.08638250f, 0.18309824f, -0.01290047f, -0.00664834f, -0.04388829f, 0.11788424f, -0.16150422f, -0.05469913f, -0.08188596f},
    {0.01879161f, -0.00144436f, -0.08837081f, -0.07261867f, 0.09311548f, 0.05208483f, -0.08293527f, -0.03348399f, -0.03596215f, -0.00557095f, 0.05365502f, 0.00866743f, -0.11481886f, 0.03910694f, 0.05370263f, -0.04996119f, 0.12536195f, 0.08809905f, 0.07274437f, 0.10355057f, -0.01253972f, -0.03909490f, 0.05989654f, -0.08275291f, -0.06461181f, -0.07438864f, 0.02373504f, 0.05043965f, -0.03045000f, 0.04385673f, 0.06269142f, 0.11275403f, 0.12113282f, 0.03672124f, -0.07907439f, -0.03964119f, -0.10236900f, -0.06134176f, -0.03105408f, 0.05441360f, 0.05302121f, 0.00221351f, 0.11261582f, 0.01005817f, 0.07407145f, 0.08501787f, -0.11778449f, 0.13216870f, 0.10294817f, 0.00515538f, 0.03122017f, -0.07288487f, 0.00024660f, -0.03586378f, -0.06956088f, -0.00914650f, -0.09530085f, 0.00722942f, 0.05771431f, -0.10376757f, 0.00124387f, -0.05913676f, -0.07235084f, 0.03550271f},
    {-0.07432131f, 0.14849450f, 0.15827249f, 0.01465590f, 0.19386503f, -0.02459087f, -0.04335533f, -0.03936339f, 0.22349280f, -0.02587618f, -0.02754052f, -0.09250731f, 0.13029820f, 0.07380336f, -0.22518690f, -0.17095132f, 0.08049095f, 0.10910729f, 0.05328786f, -0.09263307f, 0.12089287f, -0.03637671f, -0.03038986f, -0.06327169f, -0.05149166f, -0.05009540f, -0.02404989f, -0.06750430f, 0.18233480f, -0.04105542f, 0.08340643f, 0.03919558f, 0.06110171f, -0.18860842f, 0.08238563f, -0.13128497f, -0.06166726f, 0.05645651f, 0.06946388f, 0.02691946f, 0.08681115f, -0.18835939f, 0.00307229f, -0.19685468f, -0.06020005f, -0.03349560f, -0.30144787f, 0.07542507f, 0.05430989f, 0.09994018f, 0.03765507f, 0.06610986f, -0.01258859f, -0.08396371f, 0.15814880f, -0.02500412f, 0.12005481f, 0.18043962f, -0.19358216f, -0.07336456f, -0.01515512f, 0.11094053f, -0.11272074f, 0.13299756f},
    {-0.17796752f, -0.02642971f, -0.04738956f, -0.03099814f, 0.11856898f, 0.06717925f, -0.03048527f, -0.12499229f, -0.07209682f, -0.07668254f, 0.08958637f, -0.12460048f, -0.10813058f, 0.07452644f, -0.05817402f, -0.16558975f, 0.09824407f, -0.03817077f, 0.08660750f, -0.00663865f, -0.09306327f, -0.07887272f, 0.02302521f, 0.06275490f, 0.16313721f, 0.13191774f, 0.15756033f, 0.00649576f, -0.05592433f, 0.08721741f, -0.03115814f, -0.06304196f, 0.11200038f, -0.12722914f, -0.14274359f, 0.05846056f, 0.10058474f, 0.11715823f, 0.02263492f, -0.00156913f, 0.05005137f, -0.01046238f, 0.04061568f, 0.09006084f, -0.12400155f, -0.00795035f, 0.06219279f, 0.04037146f, 0.12515561f, 0.01175039f, 0.08237202f, -0.07139918f, -0.00201428f, -0.04077811f, -0.04944156f, 0.01679858f, 0.13576512f, 0.13135870f, -0.00031219f, 0.04285636f, 0.14280605f, 0.05927303f, -0.11519708f, 0.15787217f},
    {-0.09801495f, 0.07863428f, 0.03089363f, 0.22200359f, 0.04261256f, -0.05148765f, 0.04781064f, -0.10970581f, 0.09092730f, 0.07888903f, 0.13767423f, -0.05173131f, 0.09217951f, -0.03719153f, -0.08214889f, -0.05994822f, 0.04496089f, -0.28813636f, 0.05273747f, 0.03054104f, -0.17614144f, 0.06707115f, -0.02296651f, -0.15801716f, 0.05190241f, 0.02919736f, -0.08690155f, -0.15755805f, 0.09380181f, 0.09387840f, 0.02335536f, 0.11193342f, -0.07966803f, -0.07672813f, -0.20768477f, -0.05730562f, 0.02133603f, 0.13100371f, 0.16441038f, -0.21476525f, 0.04898864f, -0.10642032f, 0.04484237f, -0.08448183f, -0.18799102f, 0.10617375f, 0.04505105f, 0.13342836f, 0.04233622f, 0.11639293f, -0.06153643f, -0.09375647f, 0.04729195f, 0.13946460f, 0.09839446f, 0.08200355f, 0.05065557f, -0.02972173f, 0.07917676f, 0.00088199f, -0.01225628f, -0.14984284f, 0.02754334f, -0.02530954f},
    {-0.27283508f, 0.00213830f, 0.01020092f, 0.25835791f, 0.10372647f, 0.11404127f, 0.04209651f, -0.18855761f, 0.06972377f, 0.10669883f, 0.18261446f, -0.29614618f, -0.10466494f, 0.12171657f, 0.08847827f, 0.02770946f, -0.03247017f, -0.31749856f, 0.12660037f, -0.17050253f, -0.05540991f, 0.10008062f, 0.00197768f, -0.09379515f, 0.13748471f, 0.20438386f, -0.10250953f, -0.09745737f, -0.03706598f, 0.20955890f, -0.10890540f, 0.26391533f, -0.05112167f, -0.09231645f, -0.01001497f, -0.04341275f, 0.09977513f, 0.22565983f, 0.23295209f, -0.35125899f, 0.24565355f, 0.05761164f, 0.08198479f, 0.14325754f, -0.04269348f, 0.28276375f, 0.13642693f, 0.26314834f, 0.07411738f, -0.04303643f, -0.04926112f, -0.06566254f, 0.20487973f, 0.25932634f, 0.15482163f, 0.01984127f, 0.16939165f, -0.03118187f, 0.01700245f, -0.01625041f, 0.15325822f, -0.03262274f, 0.12809590f, -0.08813704f},
    {-0.04646254f, 0.00766847f, -0.10015319f, 0.13772444f, 0.00318690f, 0.01854400f, 0.01394905f, -0.10949664f, -0.04040496f, -0.13474064f, 0.14456211f, -0.05553200f, 0.02101125f, 0.10117175f, -0.01039959f, -0.06635803f, -0.05435190f, -0.14273950f, 0.04397191f, -0.03170123f, -0.00505564f, 0.07461206f, -0.06154504f, -0.18270169f, 0.06431228f, 0.08620819f, -0.08163078f, -0.05980001f, -0.04815966f, -0.06962010f, 0.09200714f, 0.18143144f, -0.10481652f, -0.15132812f, 0.03419281f, 0.02389353f, -0.11579052f, 0.11226463f, -0.00701039f, -0.19159117f, -0.00863172f, 0.03933361f, 0.15879430f, 0.09310480f, -0.14175235f, 0.15249421f, 0.14518391f, 0.21440601f, 0.19794255f, -0.08987977f, -0.08554282f, 0.06413516f, -0.00487307f, 0.02516710f, 0.08900783f, 0.03835903f, -0.01588871f, 0.06726419f, -0.05270500f, -0.12449306f, 0.07545196f, -0.08224762f, 0.12152497f, 0.02902424f},
    {0.39583379f, 0.13154346f, 0.02998476f, -0.20931961f, -0.14259192f, -0.07693223f, -0.24080952f, 0.22507481f, 0.08482286f, -0.00000271f, -0.18524903f, 0.31865659f, 0.09735815f, 0.11152674f, -0.05818799f, -0.04114393f, -0.02536948f, 0.31725615f, -0.13581617f, -0.02440639f, 0.20524657f, -0.25515601f, -0.07027316f, 0.16572891f, -0.06804504f, -0.15626305f, -0.03656553f, 0.21874680f, -0.00517658f, -0.09644914f, 0.13495843f, -0.18584636f, 0.01895049f, 0.00487253f, 0.05175381f, 0.26636547f, -0.00106284f, -0.33352795f, -0.21429072f, 0.48718855f, -0.26525500f, -0.08289864f, -0.06062424f, -0.24955390f, 0.17895558f, -0.33260185f, -0.06341053f, -0.31693926f, -0.28450203f, 0.14614642f, 0.04770463f, 0.07510828f, -0.11468384f, -0.17109829f, -0.10996399f, 0.01737291f, -0.17862357f, -0.04292910f, -0.10007218f, 0.17476107f, -0.00354187f, 0.06676219f, -0.19765538f, 0.16212305f},
    {-0.00400724f, -0.07242780f, -0.20736979f, 0.09857670f, -0.14682452f, -0.18537918f, -0.07336689f, 0.02142823f, -0.10226553f, -0.17888717f, -0.09061536f, -0.01598481f, -0.28187627f, -0.31949145f, 0.20147701f, 0.23952213f, -0.23229049f, 0.03098266f, -0.13482049f, -0.05726933f, 0.10126965f, 0.10438719f, 0.04603613f, -0.04909155f, 0.00734006f, 0.02756280f, -0.02439164f, 0.00117838f, -0.22850251f, 0.03933414f, -0.33959064f, -0.00548485f, -0.25106341f, 0.09976201f, 0.02865021f, 0.12469378f, -0.05578181f, -0.06032714f, 0.04654919f, -0.11011430f, -0.08801948f, 0.03425692f, -0.05704826f, 0.18495272f, -0.00718771f, 0.10092543f, 0.14870870f, -0.05014944f, 0.01538833f, -0.21296191f, -0.07781108f, -0.15784827f, 0.11309110f, 0.07629697f, -0.20798256f, 0.27179456f, 0.05891866f, -0.25028202f, 0.20518085f, 0.07883346f, 0.01312249f, -0.19068317f, 0.17224832f, -0.17792274f},
    {-0.03677516f, 0.03118092f, -0.04620698f, 0.13603351f, -0.03739223f, 0.06729916f, -0.03681918f, -0.04318463f, 0.03745154f, -0.07033259f, 0.09902510f, 0.12974991f, -0.06809364f, 0.05972119f, -0.13252762f, 0.00189714f, -0.06864846f, -0.14182308f, 0.04186444f, 0.09099999f, 0.07490569f, -0.01800261f, -0.06673117f, 0.06187313f, -0.07797606f, -0.06085923f, -0.00441259f, 0.01567574f, 0.11832211f, 0.13288637f, 0.04659192f, -0.04105964f, -0.05936305f, -0.02920424f, -0.05045905f, 0.01501951f, 0.09185887f, 0.10144082f, 0.09811929f, -0.08308491f, 0.13505949f, -0.16777807f, 0.00634606f, 0.00276052f, -0.05487749f, -0.05459499f, -0.06503379f, 0.10613225f, -0.11635023f, 0.03314142f, 0.07108743f, -0.01325583f, -0.01347313f, 0.10445888f, -0.08067819f, -0.07990695f, -0.06554598f, -0.00870066f, -0.06255957f, 0.05618881f, -0.05966036f, 0.03854550f, 0.09784736f, -0.09758206f},
    {0.20416343f, -0.34794930f, -0.16115625f, -0.23230086f, -0.34017655f, -0.19200353f, -0.18946014f, 0.25551051f, -0.15469143f, -0.24740691f, -0.25614116f, 0.28228471f, -0.15737754f, -0.11030534f, 0.30393451f, 0.11167940f, -0.25813824f, 0.18465252f, -0.35279134f, 0.30370918f, -0.02024812f, -0.06680724f, 0.32926020f, 0.26418751f, -0.09909641f, -0.21017310f, -0.27362224f, -0.05208906f, -0.21632494f, -0.10618475f, -0.22060761f, -0.22185227f, -0.14567479f, 0.20485735f, 0.24104285f, 0.29975852f, -0.13169941f, -0.03706566f, -0.34140843f, 0.13929880f, -0.09872881f, 0.18629508f, -0.33573550f, 0.21485834f, 0.16474080f, -0.06652717f, 0.11407749f, -0.24502347f, -0.19264376f, -0.22487767f, -0.16611703f, -0.02004283f, -0.24051797f, -0.06926781f, -0.38677767f, 0.29918995f, -0.34368533f, -0.29538986f, 0.26932478f, 0.20533465f, -0.29274082f, -0.09292452f, 0.08647598f, -0.30464056f},
    {0.28938955f, -0.03826027f, 0.01546591f, -0.00325835f, -0.03018117f, 0.02793021f, -0.03722513f, 0.10370766f, 0.00049449f, 0.01135936f, -0.00474273f, 0.17207380f, 0.15080045f, 0.05675898f, -0.00854538f, -0.08196984f, 0.00334156f, 0.15027350f, -0.03945225f, 0.01894098f, 0.15742984f, 0.03557965f, -0.03880230f, 0.07012755f, -0.17453519f, -0.02503530f, -0.10285185f, -0.04096085f, -0.08635829f, -0.19441624f, 0.08154033f, -0.17153779f, 0.05815214f, 0.02006363f, 0.04570488f, 0.07385137f, -0.13714576f, -0.13125984f, -0.13971138f, 0.31335807f, -0.21945345f, -0.05701928f, 0.03953126f, -0.13230190f, 0.09413073f, -0.33119071f, -0.07353394f, -0.06492036f, -0.06052061f, 0.02906122f, 0.10294722f, -0.04704519f, -0.18712351f, 0.01932208f, -0.07900355f, -0.01738045f, -0.14700502f, 0.05612763f, -0.01015040f, 0.03235563f, -0.15791872f, 0.10745612f, -0.10917436f, 0.09090427f},
    {0.03457990f, -0.04828771f, -0.10293858f, 0.08582187f, -0.01876785f, -0.06246101f, 0.14037792f, -0.08284518f, 0.06288467f, 0.03610263f, -0.03602972f, -0.12611726f, 0.06421372f, -0.04855641f, -0.08299543f, -0.07545468f, -0.00730662f, 0.07168613f, -0.03464299f, -0.17971073f, -0.13776726f, 0.11248751f, -0.16477926f, 0.02172278f, 0.17176096f, 0.19244771f, 0.15595232f, -0.02735337f, -0.04792897f, 0.07913160f, 0.10961351f, 0.05069958f, -0.04192694f, 0.03241133f, -0.03555355f, 0.01980568f, 0.06579325f, -0.04370753f, 0.17009604f, -0.16984349f, -0.03595601f, 0.12164806f, 0.03741510f, 0.05917542f, 0.03944440f, 0.00448695f, -0.08156051f, 0.10401115f, 0.04737689f, 0.11153325f, -0.03468684f, -0.03036064f, -0.00913243f, -0.05324733f, 0.02939077f, -0.11664266f, 0.11074346f, 0.06404480f, -0.14761820f, -0.13335654f, 0.05344506f, 0.03183179f, -0.04569260f, 0.07793202f},
    {-0.05532691f, -0.21284845f, -0.10099317f, 0.00923505f, -0.24577041f, -0.08238883f, -0.00094361f, -0.07888830f, -0.13718556f, -0.12229009f, 0.02325140f, -0.03637102f, 0.03020814f, -0.36753130f, 0.15304768f, 0.18947391f, -0.24781086f, 0.09801134f, -0.11649156f, -0.03842361f, -0.09616341f, 0.01101401f, 0.01964524f, 0.15694822f, 0.05665021f, -0.01476814f, -0.23257807f, -0.00516996f, -0.10100333f, -0.01467444f, -0.18482210f, -0.05255055f, -0.21283126f, 0.09744287f, 0.14543858f, 0.03584757f, -0.12848735f, 0.02499284f, -0.12308781f, -0.01229578f, 0.06604555f, 0.05292266f, -0.05060903f, 0.17050925f, 0.11709562f, -0.02973170f, 0.29946059f, -0.04573004f, -0.13503063f, -0.43471488f, 0.04260702f, 0.03892796f, -0.04054441f, 0.01834175f, -0.14526565f, 0.27133486f, 0.01576498f, -0.21590397f, 0.19628437f, 0.12692580f, -0.06608285f, -0.13262892f, 0.14936391f, -0.27541029f},
    {0.30408373f, 0.12590598f, 0.08345221f, -0.27314243f, -0.11605562f, -0.07838869f, -0.06764624f, 0.12053511f, -0.00435677f, -0.03591100f, -0.25652087f, 0.09682236f, -0.01196574f, 0.03508802f, 0.04235382f, 0.03174024f, 0.08210108f, 0.23984696f, -0.00399525f, 0.07783332f, 0.04728888f, -0.10183086f, -0.07075841f, 0.20509660f, -0.10803493f, -0.05831495f, 0.02647304f, 0.21712911f, -0.06914710f, -0.26299077f, 0.03524904f, -0.24004239f, -0.02120514f, 0.15933812f, 0.14945176f, 0.18392926f, -0.13265651f, -0.25164077f, -0.24151212f, 0.34778890f, -0.09033719f, -0.07944078f, -0.02188538f, -0.02624388f, 0.19992986f, -0.16689815f, -0.16591720f, -0.26364267f, -0.14748958f, -0.03966401f, -0.01369817f, -0.04391223f, -0.14984624f, -0.18307988f, -0.05754329f, 0.01930548f, 0.00719298f, 0.02158867f, 0.09184980f, 0.24340624f, -0.08634334f, 0.02851126f, -0.00990694f, -0.02985426f},
    {0.46958429f, -0.13369696f, -0.11779927f, -0.06808110f, -0.14578579f, 0.00107376f, -0.20746651f, 0.17868939f, 0.09369158f, 0.02337018f, -0.24080914f, 0.24414782f, 0.02416262f, -0.02886270f, -0.10953742f, -0.05131217f, -0.09083576f, 0.34631220f, -0.18719210f, -0.02116032f, -0.05188242f, -0.01454323f, -0.07269560f, 0.02554532f, -0.12137489f, -0.23079582f, 0.00970524f, 0.02047377f, 0.10718102f, -0.16258693f, -0.11140947f, -0.23875442f, -0.02747606f, 0.00697710f, 0.23962538f, 0.06119509f, -0.16436899f, -0.20552404f, -0.16728280f, 0.42775163f, -0.14601719f, 0.03203103f, 0.00579594f, -0.03190367f, 0.04546951f, -0.20681779f, -0.04452048f, -0.35566667f, -0.05894015f, 0.05086952f, -0.02743771f, 0.11077052f, -0.14663306f, -0.08620500f, 0.02006388f, 0.04034190f, -0.08911931f, 0.04663876f, 0.08525810f, 0.20128036f, -0.03774500f, -0.06368348f, -0.04994373f, 0.08988886f},
    {0.22538054f, -0.10856097f, -0.01025975f, -0.21874362f, 0.01108169f, 0.00618862f, -0.16621378f, -0.01159381f, 0.08572974f, 0.05246139f, -0.04677193f, 0.16827476f, 0.00618168f, 0.04393286f, 0.09136228f, 0.11318948f, 0.03019182f, 0.07751603f, -0.02554620f, 0.14080085f, 0.12151079f, -0.11902741f, 0.08538588f, 0.01126462f, 0.00330426f, -0.07445179f, 0.04952330f, 0.07809210f, -0.06953718f, -0.04503405f, 0.05100447f, -0.19119906f, -0.02905970f, -0.00453300f, 0.00224953f, 0.16795266f, -0.14777212f, -0.13384964f, -0.19473541f, 0.28034437f, -0.17322278f, 0.00779293f, 0.04668318f, -0.15935273f, 0.05298823f, -0.18821061f, -0.12417806f, -0.29497910f, -0.17129788f, -0.06022965f, 0.15295024f, 0.01757963f, -0.03229865f, -0.21066955f, -0.10745510f, 0.01422777f, -0.15399106f, 0.00377543f, 0.04779784f, -0.02910238f, -0.20116213f, 0.06751350f, 0.04111113f, -0.03809046f},
    {-0.03407049f, 0.06831646f, 0.00981927f, -0.04785876f, 0.12808493f, -0.01771262f, -0.01795609f, -0.02387157f, -0.01370450f, 0.00650109f, -0.04419996f, 0.02704150f, -0.01859624f, 0.08991005f, 0.00319068f, 0.06190982f, -0.06723750f, 0.04201001f, 0.03038227f, 0.08197013f, -0.11373533f, 0.03066172f, -0.06174610f, -0.06112235f, -0.00521221f, 0.00511352f, 0.07103132f, 0.09449696f, -0.02042947f, 0.12622535f, 0.08053628f, -0.08197303f, 0.10673904f, -0.11306826f, -0.05283233f, -0.06985411f, 0.01041514f, -0.08385648f, -0.10154651f, -0.09486721f, -0.04417311f, -0.02879916f, 0.10236597f, -0.11745711f, -0.00102764f, 0.08318465f, 0.02656347f, 0.04631449f, -0.10032123f, 0.08888409f, -0.05320095f, 0.00896236f, -0.05366030f, -0.00345242f, 0.09207475f, -0.07731220f, -0.07908364f, 0.01481518f, 0.04514569f, -0.10383689f, 0.04026807f, -0.08299848f, 0.01212924f, 0.04860917f},
    {0.20411819f, -0.28006116f, -0.33076105f, -0.15329596f, -0.17304526f, -0.29010537f, -0.14413647f, 0.05718241f, -0.17704219f, -0.16265363f, -0.27904180f, 0.10672627f, -0.01345334f, -0.12004181f, 0.25684834f, 0.15563110f, -0.12196864f, 0.03615207f, -0.19813718f, 0.13819832f, -0.02936318f, -0.09966552f, 0.34917003f, 0.06222739f, -0.09848662f, -0.08556683f, -0.30940968f, 0.11066887f, -0.27727467f, -0.28594622f, -0.26317534f, -0.18339099f, -0.32975832f, 0.20591651f, 0.26502597f, 0.22170503f, -0.36213395f, -0.08897313f, -0.18237348f, 0.13511425f, -0.08546787f, -0.09118142f, -0.30348623f, 0.15296012f, 0.21378702f, -0.04487786f, 0.07442313f, -0.12957212f, -0.15808094f, -0.16034766f, -0.11612421f, -0.01060451f, -0.13219963f, -0.20267753f, -0.35656127f, 0.33367309f, -0.30280069f, -0.33740163f, 0.30014580f, 0.13135339f, -0.11016874f, 0.00154861f, 0.04849955f, -0.33247709f},
    {-0.12919447f, 0.05755588f, 0.02212106f, -0.10501513f, 0.04770097f, -0.02041110f, 0.05438618f, 0.11819208f, 0.05259163f, 0.07568458f, 0.02266265f, 0.01017519f, -0.00676887f, -0.09991309f, 0.02401824f, 0.00566336f, -0.13376634f, 0.11354847f, 0.04029523f, 0.10939376f, 0.05868911f, 0.10213221f, 0.13284937f, 0.01680407f, -0.15147533f, 0.01862792f, -0.09982549f, -0.07667103f, 0.03633879f, 0.07411775f, 0.00993652f, -0.06777391f, -0.11532345f, 0.16617420f, 0.10970488f, -0.00040859f, -0.13685237f, -0.01443264f, -0.07840117f, -0.22210369f, -0.13071182f, -0.02270298f, 0.04741872f, -0.03893786f, 0.09843837f, 0.13373002f, -0.04941040f, 0.08276677f, 0.14492184f, -0.08896378f, -0.01290819f, 0.02243602f, -0.07849375f, -0.00367975f, -0.11406837f, 0.09296541f, -0.12357693f, -0.06073977f, 0.01691625f, -0.06366432f, -0.01938945f, -0.01431444f, 0.05333391f, -0.05588397f},
    {0.18647251f, -0.06446110f, 0.15687962f, -0.05957418f, 0.13038330f, 0.08095460f, 0.09205744f, -0.06767981f, 0.20535761f, 0.12865883f, -0.10325667f, -0.04005166f, 0.26393247f, 0.26597637f, -0.12532353f, -0.23037399f, 0.21118282f, 0.13987501f, 0.08871308f, 0.09298715f, 0.02298487f, -0.11992106f, -0.20280807f, -0.00923151f, 0.11989825f, 0.04852030f, 0.22706871f, 0.02700172f, 0.08423991f, -0.00167056f, 0.32437521f, 0.04883764f, 0.27810702f, -0.01398932f, 0.00456769f, -0.09985600f, 0.11279156f, 0.02087769f, 0.05123818f, 0.05643988f, -0.06174669f, -0.05787357f, 0.04580967f, -0.29612863f, -0.07372934f, -0.08336601f, -0.29974300f, 0.00795757f, -0.02827483f, 0.18755358f, 0.13396333f, -0.08962669f, 0.04368080f, -0.02339130f, 0.22680722f, -0.30521360f, 0.17095596f, 0.17931579f, -0.01771309f, -0.05742861f, -0.05361896f, 0.22443368f, -0.32811704f, 0.30070803f},
