{
  "num_steps": 25,
  "encoding": "rate",
  "architecture": [
    {
      "type": "SpikingLinear",
      "in_features": 2,
      "out_features": 30,
      "beta": 0.9,
      "threshold": 1.0,
      "reset_mode": "zero"
    },
    {
      "type": "LeakyReadout",
      "in_features": 30,
      "out_features": 3,
      "beta": 0.9
    }
  ],
  "parameters": {
    "layer_0_weight": [
      [
        -0.09676916152238846,
        0.9635772109031677
      ],
      [
        -0.9034316539764404,
        -1.8485568761825562
      ],
      [
        0.8595134019851685,
        -0.11062320321798325
      ],
      [
        -0.3921828866004944,
        0.21110303699970245
      ],
      [
        -1.353524088859558,
        1.7258391380310059
      ],
      [
        -1.4762345552444458,
        -0.8021882772445679
      ],
      [
        -1.0613733530044556,
        1.713732123374939
      ],
      [
        0.2182287722826004,
        -1.2793115377426147
      ],
      [
        0.7516730427742004,
        -0.09693233668804169
      ],
      [
        0.013288810849189758,
        -1.7256617546081543
      ],
      [
        0.6261933445930481,
        0.4905478358268738
      ],
      [
        2.1578547954559326,
        -0.8317012786865234
      ],
      [
        -0.5331881642341614,
        0.3539929687976837
      ],
      [
        -1.003496527671814,
        -0.8415673971176147
      ],
      [
        -0.8407010436058044,
        -0.06370435655117035
      ],
      [
        -0.8152915239334106,
        -1.136074423789978
      ],
      [
        -0.25736334919929504,
        -0.7379059791564941
      ],
      [
        -0.5775960683822632,
        1.3908923864364624
      ],
      [
        -0.27569323778152466,
        0.6289451718330383
      ],
      [
        -0.20566816627979279,
        2.0430140495300293
      ],
      [
        0.02686956338584423,
        -1.3991204500198364
      ],
      [
        -0.549076497554779,
        -0.38342905044555664
      ],
      [
        0.42090022563934326,
        1.3511018753051758
      ],
      [
        -0.024391304701566696,
        -1.7151360511779785
      ],
      [
        -1.135118007659912,
        -0.39744850993156433
      ],
      [
        -1.5633403062820435,
        -2.022324562072754
      ],
      [
        0.2002328634262085,
        -1.6197649240493774
      ],
      [
        0.7156229019165039,
        -0.9261269569396973
      ],
      [
        -0.1379047930240631,
        1.590346097946167
      ],
      [
        -0.305733859539032,
        -0.9994710683822632
      ]
    ],
    "layer_0_bias": [
      -0.17147180438041687,
      -0.25753894448280334,
      -0.0012571844272315502,
      -0.20608413219451904,
      0.4425375163555145,
      -0.2613174617290497,
      0.08285123854875565,
      -0.23148652911186218,
      0.04522883519530296,
      -0.243364155292511,
      0.047453124076128006,
      0.3727617859840393,
      0.5091614127159119,
      -0.27417704463005066,
      0.4658792316913605,
      -0.25673577189445496,
      0.9279705286026001,
      0.026482895016670227,
      0.13167692720890045,
      -0.1273002326488495,
      -0.21015538275241852,
      0.6167083978652954,
      0.265114963054657,
      -0.24230940639972687,
      -0.27811840176582336,
      -0.2537415325641632,
      -0.1801609992980957,
      0.636583149433136,
      0.07725907862186432,
      0.752116858959198
    ],
    "layer_1_weight": [
      [
        0.2526703178882599,
        0.09479406476020813,
        -0.48488539457321167,
        -0.1906183362007141,
        0.34050777554512024,
        0.30224213004112244,
        0.39893755316734314,
        -0.12135452777147293,
        -0.5385829210281372,
        -0.24010619521141052,
        0.3627471327781677,
        -0.19641195237636566,
        -0.0322924479842186,
        0.2602185904979706,
        -1.1149818897247314,
        -0.01953732967376709,
        -1.2414294481277466,
        0.3235284090042114,
        0.33927664160728455,
        0.6540560126304626,
        0.21777388453483582,
        -0.7418873906135559,
        0.07583705335855484,
        0.05457718297839165,
        0.2201029360294342,
        -0.1718590259552002,
        -0.12747548520565033,
        -0.47040313482284546,
        0.243587464094162,
        -0.23014281690120697
      ],
      [
        0.21762676537036896,
        0.06780749559402466,
        0.6453123688697815,
        0.10758401453495026,
        -0.06299178302288055,
        0.29484686255455017,
        -0.2445908635854721,
        0.18243779242038727,
        0.949232280254364,
        0.20627662539482117,
        0.544209897518158,
        0.6484073400497437,
        -0.5488975644111633,
        -0.1761569380760193,
        -0.4664146304130554,
        -0.27814996242523193,
        -0.6808519959449768,
        -0.3089729845523834,
        -0.22841955721378326,
        0.2904360890388489,
        -0.08891066908836365,
        -0.8861562013626099,
        0.032157253473997116,
        0.3358367383480072,
        -0.07931509613990784,
        -0.2967313528060913,
        -0.19692794978618622,
        0.1284242570400238,
        -0.4704655706882477,
        -0.8696505427360535
      ],
      [
        -0.16746121644973755,
        -0.037381887435913086,
        -0.952660858631134,
        -0.3382735252380371,
        -0.008151899091899395,
        0.003295809030532837,
        -0.14458560943603516,
        -0.13759250938892365,
        -0.8446474671363831,
        -0.1914457231760025,
        -0.08097653836011887,
        -0.21001961827278137,
        0.2683790922164917,
        -0.14831481873989105,
        0.7989965677261353,
        -0.2723674178123474,
        1.0920226573944092,
        -0.5396935939788818,
        0.05231659486889839,
        -0.5137940049171448,
        -0.1195153295993805,
        0.7957102656364441,
        -0.09167241305112839,
        -0.23485462367534637,
        -0.19582918286323547,
        -0.2828616201877594,
        -0.2077435702085495,
        0.20522163808345795,
        -0.8642764091491699,
        1.1953394412994385
      ]
    ],
    "layer_1_bias": [
      -0.2106872946023941,
      -0.1252015233039856,
      0.1732129007577896
    ]
  }
}