{
  "num_steps": 25,
  "encoding": "rate",
  "architecture": [
    {
      "type": "SpikingLinear",
      "in_features": 2,
      "out_features": 20,
      "beta": 0.9,
      "threshold": 1.0,
      "reset_mode": "zero"
    },
    {
      "type": "SpikingLinear",
      "in_features": 20,
      "out_features": 20,
      "beta": 0.9,
      "threshold": 1.0,
      "reset_mode": "zero"
    },
    {
      "type": "LeakyReadout",
      "in_features": 20,
      "out_features": 1,
      "beta": 0.9
    }
  ],
  "parameters": {
    "layer_0_weight": [
      [
        1.4824116230010986,
        0.9869150519371033
      ],
      [
        1.3221076726913452,
        1.2715544700622559
      ],
      [
        0.49286651611328125,
        0.4440939724445343
      ],
      [
        1.6941503286361694,
        -0.297707200050354
      ],
      [
        0.2014981508255005,
        0.42660704255104065
      ],
      [
        -0.3342353403568268,
        1.3859692811965942
      ],
      [
        0.8625254034996033,
        -0.8264958262443542
      ],
      [
        -1.8426381349563599,
        -0.861047089099884
      ],
      [
        -0.08014272153377533,
        -0.6781038045883179
      ],
      [
        0.6661457419395447,
        -0.10448998212814331
      ],
      [
        -0.1178763136267662,
        0.8367724418640137
      ],
      [
        -0.7376934885978699,
        -1.4622979164123535
      ],
      [
        -0.8372378349304199,
        0.6769908666610718
      ],
      [
        0.26770398020744324,
        -0.42365291714668274
      ],
      [
        -1.6789175271987915,
        0.179680734872818
      ],
      [
        1.1264067888259888,
        -0.47123342752456665
      ],
      [
        0.5321856141090393,
        1.0352705717086792
      ],
      [
        -0.8447380065917969,
        -1.9002058506011963
      ],
      [
        -0.3939148485660553,
        -0.6337288618087769
      ],
      [
        1.175134301185608,
        -0.09507595002651215
      ]
    ],
    "layer_0_bias": [
      0.1807871311903,
      0.010143551975488663,
      -0.11308272182941437,
      0.11369632929563522,
      -0.0972708985209465,
      -0.08219893276691437,
      0.2674444615840912,
      -0.24260540306568146,
      0.4485343396663666,
      0.01359676942229271,
      0.030297450721263885,
      -0.05339040607213974,
      -0.07508040964603424,
      -0.016843970865011215,
      0.25334829092025757,
      0.06651830673217773,
      0.062478210777044296,
      -0.20689357817173004,
      -0.18370367586612701,
      0.11540897190570831
    ],
    "layer_1_weight": [
      [
        0.3420971930027008,
        -0.07350751012563705,
        -0.05740121006965637,
        0.2737625241279602,
        0.18267658352851868,
        0.36521634459495544,
        -0.3303205370903015,
        -0.023126542568206787,
        -0.0016855853609740734,
        -0.15466244518756866,
        0.4897846579551697,
        0.4985830783843994,
        0.14378859102725983,
        -0.12580277025699615,
        0.2923724055290222,
        -0.24463403224945068,
        -0.00010872734128497541,
        0.025252699851989746,
        -0.505419909954071,
        -0.06209607422351837
      ],
      [
        0.5279948115348816,
        -0.40311384201049805,
        -0.31229791045188904,
        -0.09308841079473495,
        -0.3560275733470917,
        -0.16757267713546753,
        -0.3254252076148987,
        -0.28951817750930786,
        0.4799419343471527,
        -0.01003283727914095,
        -0.04209410026669502,
        0.43843501806259155,
        -0.352623850107193,
        0.5223085880279541,
        0.17446836829185486,
        0.17138834297657013,
        0.24648895859718323,
        -0.19307643175125122,
        -0.2522900402545929,
        0.5643286108970642
      ],
      [
        0.4383392035961151,
        0.19543111324310303,
        0.1416555643081665,
        0.19653290510177612,
        0.31130704283714294,
        0.3069237768650055,
        0.22074997425079346,
        -0.1920546591281891,
        0.5300812721252441,
        0.3419763147830963,
        -0.21477244794368744,
        0.17545348405838013,
        -0.33090245723724365,
        0.30922186374664307,
        0.14694969356060028,
        0.23189356923103333,
        -0.5708330869674683,
        -0.22497570514678955,
        0.012154042720794678,
        -0.3490372598171234
      ],
      [
        -0.4165962040424347,
        -0.27071285247802734,
        0.26066526770591736,
        -0.01464049145579338,
        -0.469424843788147,
        0.22583545744419098,
        0.8889369964599609,
        -0.3091568648815155,
        0.024658478796482086,
        0.32816314697265625,
        -0.3633674085140228,
        -0.17711931467056274,
        -0.3152481019496918,
        0.7529541254043579,
        -0.03896016627550125,
        0.026642654091119766,
        -0.45232146978378296,
        0.016798734664916992,
        -0.15257251262664795,
        0.1014387458562851
      ],
      [
        -0.2808173596858978,
        0.09626002609729767,
        -0.11884965002536774,
        -0.4014444351196289,
        0.15696007013320923,
        -0.268548846244812,
        0.7321258783340454,
        0.4451996684074402,
        0.7069606781005859,
        0.1956665962934494,
        -0.13267770409584045,
        0.4127894639968872,
        -0.18578973412513733,
        -0.08287359774112701,
        -0.17562083899974823,
        0.24221034348011017,
        0.34784770011901855,
        0.14571607112884521,
        -0.13876226544380188,
        -0.06055152043700218
      ],
      [
        0.37312886118888855,
        -0.5489490032196045,
        0.06174042820930481,
        -0.3020540475845337,
        -0.3467307686805725,
        0.0939021110534668,
        -0.3903670012950897,
        -0.318791002035141,
        0.5767603516578674,
        -0.24377413094043732,
        0.35069897770881653,
        -0.5080156922340393,
        0.4733203649520874,
        0.2762305736541748,
        0.20377101004123688,
        0.1748511642217636,
        0.24135500192642212,
        0.30532360076904297,
        0.33975058794021606,
        -0.1610030084848404
      ],
      [
        0.40446382761001587,
        0.40664908289909363,
        -0.4602733552455902,
        0.22782424092292786,
        -0.31459030508995056,
        0.22522364556789398,
        0.18991607427597046,
        -0.1528312861919403,
        -0.4287777245044708,
        0.5291551351547241,
        -0.2804187834262848,
        -0.15303349494934082,
        -0.48062002658843994,
        -0.019052060320973396,
        -0.5891724824905396,
        -0.060252610594034195,
        0.17573747038841248,
        -0.055599093437194824,
        -0.49322015047073364,
        0.41121751070022583
      ],
      [
        -0.08307003229856491,
        0.3787817358970642,
        -0.08178874850273132,
        -0.4992087781429291,
        -0.20259219408035278,
        -0.5762141346931458,
        0.7380385994911194,
        -0.3033657670021057,
        0.14360518753528595,
        -0.33623412251472473,
        -0.4824768006801605,
        -0.5187164545059204,
        0.10039401054382324,
        -0.2092743068933487,
        -0.44990110397338867,
        0.10441760718822479,
        0.4085199534893036,
        -0.05976450443267822,
        0.3687472343444824,
        0.5981494188308716
      ],
      [
        -0.2920742630958557,
        -0.008380909450352192,
        -0.10445991158485413,
        0.18914467096328735,
        0.27611270546913147,
        0.1733705699443817,
        0.6628871560096741,
        -0.3534510135650635,
        0.41639244556427,
        -0.38693422079086304,
        -0.546501874923706,
        -0.010641932487487793,
        -0.06323134899139404,
        0.11204860359430313,
        0.020094502717256546,
        0.170116126537323,
        -0.5767732858657837,
        -0.13308098912239075,
        -0.1893252432346344,
        0.4177311658859253
      ],
      [
        -0.12094724178314209,
        -0.3522537648677826,
        -0.5365597605705261,
        -0.22516946494579315,
        0.1889335662126541,
        0.18417032063007355,
        -0.20889724791049957,
        -0.35696321725845337,
        0.30292996764183044,
        -0.390761137008667,
        0.003681913483887911,
        -0.1365901529788971,
        0.11511041224002838,
        -0.38454970717430115,
        -0.13506105542182922,
        0.2022758424282074,
        -0.14759154617786407,
        0.3127273917198181,
        0.34282153844833374,
        -0.08026325702667236
      ],
      [
        -0.009392309933900833,
        -0.32593998312950134,
        -0.3648706376552582,
        0.10025018453598022,
        -0.4035038650035858,
        -0.09023375064134598,
        -0.6477959752082825,
        -0.40385082364082336,
        0.36171528697013855,
        -0.3283713161945343,
        -0.24340561032295227,
        -0.13495615124702454,
        0.2064300775527954,
        0.33825451135635376,
        0.24582460522651672,
        -0.5312101244926453,
        -0.5375950336456299,
        -0.19960913062095642,
        0.29338520765304565,
        -0.15105465054512024
      ],
      [
        -0.629305899143219,
        0.0976274311542511,
        -0.22296015918254852,
        -0.2503128945827484,
        -0.059896089136600494,
        -0.2021731734275818,
        0.26841455698013306,
        -0.09133931994438171,
        -0.5630025863647461,
        0.32928282022476196,
        -0.03450502082705498,
        -0.28528258204460144,
        0.17383550107479095,
        -0.007544409949332476,
        -0.0871557742357254,
        0.0663628876209259,
        -0.2169882208108902,
        -0.4537585973739624,
        0.10471934080123901,
        -0.0526866652071476
      ],
      [
        0.462970495223999,
        -0.1437479555606842,
        -0.10262880474328995,
        -0.29738444089889526,
        0.38043472170829773,
        0.6051144003868103,
        -0.1780293732881546,
        -0.07713305950164795,
        -0.2259688675403595,
        0.45299842953681946,
        0.03213219717144966,
        -0.3487151265144348,
        0.09833846986293793,
        -0.33389797806739807,
        0.1562802791595459,
        -0.16059015691280365,
        0.4364710748195648,
        -0.4911651015281677,
        -0.35078540444374084,
        0.1325356811285019
      ],
      [
        0.5389474630355835,
        -0.5497713685035706,
        0.2698647677898407,
        0.3594673275947571,
        -0.4837322235107422,
        -0.3911826014518738,
        0.5750177502632141,
        -0.13097593188285828,
        0.8521129488945007,
        0.31990209221839905,
        -0.09414742887020111,
        -0.005213677883148193,
        -0.1721363365650177,
        0.028842095285654068,
        -0.5615209341049194,
        0.16673702001571655,
        0.25136756896972656,
        -0.3969925045967102,
        -0.05636158585548401,
        0.19716830551624298
      ],
      [
        -0.54874187707901,
        -0.12279592454433441,
        -0.08741392195224762,
        -0.13902346789836884,
        0.303768515586853,
        0.22396908700466156,
        0.484515905380249,
        -0.5169565677642822,
        0.9140388369560242,
        0.4133017063140869,
        -0.15835648775100708,
        -0.5177263617515564,
        -0.2752126157283783,
        -0.03250735625624657,
        -0.15807321667671204,
        0.459175705909729,
        -0.44515302777290344,
        -0.482770174741745,
        0.0779983401298523,
        0.08775544911623001
      ],
      [
        -0.5054648518562317,
        0.018356170505285263,
        0.10904177278280258,
        0.09413617104291916,
        0.3727039396762848,
        0.6495121121406555,
        0.3616609275341034,
        -0.4013596773147583,
        -0.41938316822052,
        0.17923419177532196,
        0.25757837295532227,
        -0.20862755179405212,
        0.37480777502059937,
        -0.43185460567474365,
        0.3329290449619293,
        0.21486163139343262,
        0.6370717883110046,
        -0.31846100091934204,
        0.15912282466888428,
        -0.09918611496686935
      ],
      [
        -0.08096086233854294,
        -0.23503439128398895,
        0.2524653673171997,
        -0.13463649153709412,
        0.46830588579177856,
        0.46509385108947754,
        0.2734096050262451,
        -0.18706268072128296,
        0.021804144605994225,
        0.7252669334411621,
        0.7583568692207336,
        0.5378599166870117,
        0.1737307906150818,
        0.21152953803539276,
        0.5304511189460754,
        0.11999090760946274,
        0.4177688658237457,
        0.331220805644989,
        -0.3043155372142792,
        0.12411970645189285
      ],
      [
        0.16888979077339172,
        -0.26870283484458923,
        -0.07455266267061234,
        0.1726669818162918,
        -0.3823297619819641,
        -0.5069069266319275,
        -0.2831878364086151,
        0.09979665279388428,
        -0.2896631956100464,
        0.10158789902925491,
        0.04132125899195671,
        -0.17456620931625366,
        -0.34271833300590515,
        0.04332099109888077,
        0.12206102907657623,
        -0.5502674579620361,
        0.44431257247924805,
        -0.213778555393219,
        0.4784480333328247,
        -0.4124142527580261
      ],
      [
        0.5775446891784668,
        -0.2757532596588135,
        0.032396990805864334,
        0.46489590406417847,
        0.40769070386886597,
        0.07385687530040741,
        0.04461013898253441,
        0.12072288990020752,
        -0.5987064242362976,
        -0.2475220113992691,
        0.32201164960861206,
        0.1256117820739746,
        -0.05412972718477249,
        -0.21223674714565277,
        0.5470722913742065,
        0.004952752497047186,
        0.3809155821800232,
        -0.4986089766025543,
        0.18207389116287231,
        -0.5870692133903503
      ],
      [
        0.07075488567352295,
        -0.48976370692253113,
        -0.5600326061248779,
        -0.18320508301258087,
        -0.054702360183000565,
        0.41028639674186707,
        -0.24964961409568787,
        0.4231998324394226,
        0.7068190574645996,
        -0.13875484466552734,
        -0.1701405793428421,
        0.35863590240478516,
        0.07130371779203415,
        -0.044448837637901306,
        0.4774130880832672,
        0.3998234272003174,
        -0.12389276921749115,
        -0.08771631121635437,
        -0.2923673391342163,
        -0.6017109751701355
      ]
    ],
    "layer_1_bias": [
      0.007167148869484663,
      0.1756455898284912,
      -0.04563511162996292,
      0.07889177650213242,
      -0.08825144171714783,
      -0.07631682604551315,
      0.007103056646883488,
      0.15102706849575043,
      0.06034916639328003,
      -0.07818467915058136,
      -0.10693711787462234,
      -0.11273062229156494,
      0.03456506133079529,
      0.12046908587217331,
      -0.026474367827177048,
      -0.03404872864484787,
      0.10359717160463333,
      -0.015392672270536423,
      -0.001479468191973865,
      -0.034949399530887604
    ],
    "layer_2_weight": [
      [
        -0.4923628270626068,
        0.3080739974975586,
        0.017740121111273766,
        0.3381454646587372,
        0.03832240402698517,
        -0.310193806886673,
        0.25259578227996826,
        0.19768328964710236,
        0.20004147291183472,
        -0.23910942673683167,
        -0.12906432151794434,
        -0.06180809065699577,
        -0.18820308148860931,
        0.35392600297927856,
        0.1407538205385208,
        -0.19236312806606293,
        -0.3320996165275574,
        0.07552120089530945,
        -0.210442453622818,
        -0.2995982766151428
      ]
    ],
    "layer_2_bias": [
      -0.008685845881700516
    ]
  }
}