// GANModel.h  -  Auto-generated GAN Generator
// Do NOT edit weights manually.

#pragma once
#include <math.h>

// Generator block 0  in=16  out=128  act=relu
static const float gen0_W[128][16] = {
    {0.03349421f, -0.01302441f, -0.05114489f, -0.00003905f, -0.00081615f, -0.00434582f, -0.00662300f, -0.00201005f, -0.01160624f, -0.04678354f, 0.00465801f, 0.03940138f, -0.00344749f, 0.04263108f, -0.01921217f, 0.00949579f},
    {0.04810841f, -0.01926671f, -0.05882733f, 0.03845631f, -0.00509369f, -0.00500104f, -0.00835978f, -0.00199927f, 0.02130987f, -0.01652419f, -0.01336378f, 0.03112663f, -0.03166077f, 0.00339713f, -0.04311813f, -0.02125373f},
    {0.02152781f, -0.00327011f, -0.01117749f, 0.04400066f, -0.00440684f, 0.00040648f, -0.00251961f, 0.00092064f, 0.04223018f, 0.03540504f, -0.02265002f, -0.00792295f, -0.03489250f, -0.04570858f, -0.02881870f, -0.03439341f},
    {0.04342816f, -0.01716599f, -0.05029860f, 0.03831239f, -0.00612001f, -0.00490174f, -0.00561057f, -0.00210055f, 0.02325154f, -0.01075347f, -0.01463175f, 0.02524604f, -0.02957076f, -0.00152703f, -0.04099032f, -0.02150700f},
    {0.03402441f, -0.04706558f, -0.03893173f, 0.04568800f, 0.00023774f, -0.01090623f, 0.00999594f, 0.00603715f, -0.00477182f, -0.04836217f, -0.00575357f, 0.04133160f, -0.01061742f, 0.02388317f, -0.02280315f, -0.00509335f},
    {0.02073487f, 0.02344899f, -0.05143766f, -0.02824371f, -0.00632199f, 0.00157177f, -0.02433240f, -0.00468487f, -0.01845919f, -0.03979570f, 0.00587150f, 0.03817976f, 0.01690966f, 0.05048392f, -0.01209656f, 0.01048650f},
    {-0.00808991f, 0.00618992f, 0.02830302f, 0.02960680f, -0.00154956f, 0.00185650f, 0.00315474f, -0.00075186f, 0.03745445f, 0.05721811f, -0.02138169f, -0.03379950f, -0.02306633f, -0.06301896f, -0.00618579f, -0.03436736f},
    {0.00684259f, -0.00398014f, -0.02540617f, -0.03009129f, 0.00264424f, -0.00250454f, -0.00305663f, -0.00002585f, -0.03482549f, -0.05552212f, 0.01907206f, 0.03199712f, 0.02200062f, 0.06056676f, 0.00498449f, 0.03205454f},
    {-0.04362175f, 0.01586129f, 0.05223126f, -0.03615883f, 0.00370815f, 0.00552105f, 0.00503371f, 0.00062869f, -0.01983196f, 0.01095667f, 0.01462788f, -0.02948375f, 0.02871227f, -0.00503447f, 0.04259843f, 0.02040268f},
    {-0.02636478f, 0.00388686f, 0.03524906f, 0.01953596f, 0.00239630f, -0.00053332f, 0.00637337f, 0.00651399f, 0.02636298f, 0.05728356f, -0.01549430f, -0.03653571f, -0.01703373f, -0.06284338f, 0.00814703f, -0.02632494f},
    {0.03540657f, -0.01294827f, -0.03826232f, 0.04530582f, -0.00621241f, -0.00666937f, -0.00584880f, -0.00171438f, 0.03294077f, 0.00791413f, -0.02052718f, 0.01434634f, -0.03155008f, -0.01981838f, -0.03565039f, -0.03270940f},
    {-0.00130785f, -0.04245574f, 0.00098269f, 0.02927511f, 0.04356252f, 0.00685214f, -0.00018430f, 0.00575457f, -0.02310574f, -0.02549191f, -0.00557193f, 0.02116176f, 0.00821749f, -0.00972497f, 0.05258920f, 0.00776061f},
    {0.02330864f, -0.01045328f, -0.04400163f, -0.00980907f, 0.00073746f, -0.00185165f, -0.00399381f, 0.00088875f, -0.01912461f, -0.04859865f, 0.00973851f, 0.03703877f, 0.00677240f, 0.05082642f, -0.01212452f, 0.01601621f},
    {-0.01857182f, -0.00037854f, 0.00931867f, -0.04071111f, 0.00347027f, -0.00093550f, 0.00159207f, 0.00109480f, -0.03891230f, -0.03179382f, 0.02202606f, 0.00963452f, 0.03253879f, 0.04242075f, 0.02491401f, 0.03479948f},
    {0.01947312f, -0.00817016f, -0.01316258f, 0.04202203f, -0.00453445f, -0.00223352f, -0.00215464f, -0.00138560f, 0.03847634f, 0.03272369f, -0.02008935f, -0.00709101f, -0.03326246f, -0.04032514f, -0.02684733f, -0.03426740f},
    {-0.05083084f, 0.01606572f, 0.05960748f, -0.03066179f, 0.00525258f, 0.00301793f, 0.00483190f, 0.00198223f, -0.01371030f, 0.02455526f, 0.01217481f, -0.03605771f, 0.02567998f, -0.01703270f, 0.04186185f, 0.01536666f},
    {-0.02530518f, 0.00853245f, 0.01927776f, -0.04418829f, 0.00545796f, 0.00102955f, 0.00242612f, 0.00216124f, -0.03901705f, -0.02702166f, 0.02229552f, 0.00316164f, 0.03498508f, 0.03910745f, 0.03262205f, 0.03552997f},
    {0.05265906f, 0.01228148f, -0.07078946f, -0.01639018f, -0.00528198f, -0.01133775f, -0.00463994f, -0.02067149f, 0.01358045f, 0.01384675f, 0.00830246f, 0.02061754f, -0.02396625f, 0.02828305f, -0.04471355f, 0.01916393f},
    {-0.00122598f, -0.00167890f, -0.00964921f, -0.03726785f, 0.00462461f, 0.00127059f, -0.00174247f, 0.00100029f, -0.03619614f, -0.04879639f, 0.01933333f, 0.02238513f, 0.02841213f, 0.05396264f, 0.01379897f, 0.03516035f},
    {-0.02683045f, 0.03690861f, 0.00137969f, -0.06067915f, 0.00507817f, 0.01250657f, -0.01795444f, 0.00664720f, -0.03179599f, 0.00093322f, 0.02026791f, 0.00934266f, 0.03771341f, 0.02955686f, 0.02124658f, 0.02480499f},
    {0.00773295f, -0.00412688f, -0.02669096f, -0.03011034f, 0.00299187f, -0.00213414f, -0.00340994f, -0.00030270f, -0.03535906f, -0.05694703f, 0.01960462f, 0.03254747f, 0.02354080f, 0.06191429f, 0.00569913f, 0.03310168f},
    {-0.02810910f, 0.01227598f, 0.04740360f, 0.00800688f, 0.00141430f, 0.00567449f, 0.00705510f, 0.00235524f, 0.01787188f, 0.05586864f, -0.00762277f, -0.04220211f, -0.00344715f, -0.05542341f, 0.01910929f, -0.01839852f},
    {-0.04120310f, 0.01607871f, 0.05917448f, -0.01948327f, 0.00373885f, 0.00308795f, 0.00916749f, 0.00141701f, -0.00319752f, 0.03395168f, 0.00331113f, -0.03891639f, 0.01691350f, -0.02802185f, 0.03146366f, 0.00672265f},
    {-0.02371913f, 0.00407434f, 0.01279330f, -0.04387052f, 0.00359718f, -0.00005504f, 0.00301269f, 0.00033906f, -0.03897904f, -0.03248386f, 0.02369555f, 0.00737219f, 0.03362551f, 0.04337768f, 0.02930407f, 0.03407408f},
    {0.04865750f, -0.01923207f, -0.05887214f, 0.04188132f, -0.00615998f, -0.00444276f, -0.00880191f, -0.00335545f, 0.02451845f, -0.01484236f, -0.01503801f, 0.03047455f, -0.03317720f, 0.00142139f, -0.04497076f, -0.02307258f},
    {0.04378312f, -0.01865044f, -0.06181275f, 0.01755534f, -0.00209987f, -0.00631811f, -0.00770645f, -0.00117195f, 0.00311331f, -0.03703489f, -0.00329944f, 0.04051767f, -0.01859205f, 0.03319601f, -0.03410633f, -0.00387323f},
    {-0.01104444f, -0.00952552f, 0.02391418f, -0.00924061f, 0.02361916f, -0.00937241f, -0.00284586f, 0.01278628f, -0.02596899f, -0.04827252f, 0.03551363f, 0.00789309f, 0.00242837f, 0.01853331f, 0.04542833f, 0.02918850f},
    {0.03366017f, -0.01280827f, -0.04987341f, 0.00521177f, -0.00033645f, -0.00420653f, -0.00749606f, -0.00230864f, -0.00675169f, -0.04271935f, 0.00116299f, 0.03745548f, -0.00504184f, 0.03838548f, -0.02295420f, 0.00681190f},
    {-0.02342647f, 0.04285811f, 0.04238491f, -0.03690237f, -0.01617135f, -0.02149692f, 0.01875783f, -0.01625968f, -0.01142398f, 0.01745453f, 0.03753608f, -0.01887630f, 0.02179726f, 0.01008379f, 0.02268250f, 0.02479398f},
    {-0.03757207f, 0.02011088f, 0.03978206f, -0.04899658f, 0.00276354f, 0.00723204f, -0.00000420f, 0.00387795f, -0.03366340f, 0.00233522f, 0.02398962f, -0.01435845f, 0.04273411f, 0.01519143f, 0.03956900f, 0.02976601f},
    {0.01666997f, -0.02755594f, -0.03858965f, -0.00722911f, 0.01380540f, -0.00284102f, -0.00064198f, 0.01298158f, -0.02978802f, -0.05910088f, 0.01168335f, 0.04530273f, 0.01403469f, 0.05932825f, 0.01130829f, 0.02688299f},
    {0.02492956f, -0.00939373f, -0.01901990f, 0.04326392f, -0.00489986f, -0.00213495f, -0.00281885f, -0.00133619f, 0.03608523f, 0.02666644f, -0.01994248f, -0.00116997f, -0.03306912f, -0.03461278f, -0.03032219f, -0.03438479f},
    {-0.00166924f, -0.04111407f, -0.02421180f, -0.02248827f, -0.00485881f, 0.04240010f, -0.04678871f, 0.00096330f, -0.00396128f, 0.02949861f, -0.03717867f, -0.01215777f, 0.04511549f, -0.01220973f, -0.00483178f, 0.00616890f},
    {-0.00283738f, -0.00298641f, -0.01434987f, -0.03531986f, 0.00363904f, 0.00078150f, -0.00219152f, -0.00396291f, -0.03910207f, -0.04705624f, 0.01897786f, 0.02371548f, 0.02337196f, 0.05573621f, 0.01243196f, 0.03273726f},
    {0.03311862f, -0.01071492f, -0.02671618f, 0.05318609f, -0.00667510f, -0.00339367f, -0.00470653f, -0.00046428f, 0.04769747f, 0.02871176f, -0.02654574f, 0.00060560f, -0.04317550f, -0.04138435f, -0.04202482f, -0.04432788f},
    {0.04460282f, -0.01726991f, -0.06223468f, 0.01169644f, -0.00331640f, -0.00557691f, -0.00950343f, -0.00249760f, -0.00287425f, -0.04900465f, 0.00149693f, 0.04712052f, -0.01150468f, 0.04203608f, -0.03206960f, 0.00451191f},
    {-0.01596878f, 0.03807002f, -0.02118330f, -0.05601489f, 0.00989691f, 0.01188475f, -0.02609508f, 0.01069193f, -0.03182750f, -0.01022961f, 0.00512897f, 0.02714059f, 0.01716428f, 0.02929201f, 0.00227675f, 0.01969745f},
    {-0.03238687f, 0.01305468f, 0.02706444f, -0.04228616f, 0.00336271f, 0.00419595f, 0.00607529f, -0.00026169f, -0.03541224f, -0.01713345f, 0.01941906f, -0.00765461f, 0.03391640f, 0.02735547f, 0.03682632f, 0.03275523f},
    {-0.03941356f, 0.01469067f, 0.04690537f, -0.03129909f, 0.00352751f, 0.00458728f, 0.00740870f, 0.00128759f, -0.01876356f, 0.01357205f, 0.01286479f, -0.02637370f, 0.02602581f, -0.00248270f, 0.03699096f, 0.01814629f},
    {-0.04112644f, 0.01505386f, 0.04871137f, -0.03202184f, 0.00394876f, 0.00433285f, 0.00737545f, 0.00136851f, -0.01909783f, 0.01475056f, 0.01306315f, -0.02698068f, 0.02686114f, -0.00302851f, 0.03730306f, 0.01757028f},
    {0.02164631f, 0.00055836f, -0.00810346f, 0.02831008f, 0.04083573f, -0.01234687f, 0.05852066f, -0.00854027f, -0.01501775f, -0.00638042f, 0.03093340f, 0.01210771f, -0.02998577f, 0.03319256f, 0.06252576f, 0.01234231f},
    {-0.03982306f, 0.01492796f, 0.05258744f, -0.01209086f, 0.00310491f, 0.00343256f, 0.00799770f, 0.00058281f, 0.00168557f, 0.03855646f, 0.00009774f, -0.04050014f, 0.01159316f, -0.03410040f, 0.02783604f, -0.00018141f},
    {0.00797966f, -0.02207923f, 0.00871160f, 0.02899692f, -0.00397171f, 0.01631770f, -0.01664290f, 0.00412346f, 0.02701240f, 0.05091646f, -0.03911880f, -0.01219484f, -0.00655184f, -0.05554575f, -0.02058057f, -0.02851885f},
    {-0.01575036f, -0.01097295f, -0.00326115f, -0.03460955f, -0.00003616f, -0.00253515f, 0.00560770f, 0.00628054f, -0.05457849f, -0.05322110f, 0.01399149f, 0.01826112f, 0.05050915f, 0.05798920f, 0.02678810f, 0.03602868f},
    {-0.00134338f, -0.00244344f, -0.01593168f, -0.04760050f, 0.00543178f, 0.00049747f, -0.00181813f, -0.00044020f, -0.05081038f, -0.05928241f, 0.02611407f, 0.02847005f, 0.03406372f, 0.07400197f, 0.01681048f, 0.04326876f},
    {0.04040793f, -0.01535778f, -0.04856952f, 0.03298726f, -0.00373379f, -0.00372705f, -0.00705242f, -0.00134795f, 0.01869650f, -0.01243463f, -0.01108646f, 0.02552305f, -0.02613366f, 0.00222263f, -0.03657315f, -0.01795253f},
    {-0.02368421f, 0.01231758f, 0.04406634f, 0.00898848f, 0.00123763f, 0.00309702f, 0.00754258f, 0.00146685f, 0.01984442f, 0.05183426f, -0.00928892f, -0.03961094f, -0.00458757f, -0.05169679f, 0.01515249f, -0.01864642f},
    {0.00797387f, -0.00437827f, -0.02693993f, -0.03043684f, 0.00257194f, -0.00243749f, -0.00329132f, 0.00095703f, -0.03686018f, -0.05790541f, 0.02056957f, 0.03336849f, 0.02361152f, 0.06339031f, 0.00587633f, 0.03311772f},
    {-0.00296817f, -0.00266154f, -0.01056556f, -0.03958818f, 0.00467673f, 0.00184177f, -0.00176055f, -0.00223457f, -0.04242565f, -0.04841644f, 0.01977490f, 0.02165209f, 0.02958757f, 0.05952320f, 0.01592038f, 0.03536307f},
    {-0.00561836f, 0.00417018f, 0.02390926f, 0.02696912f, -0.00172740f, 0.00081714f, 0.00159323f, 0.00014560f, 0.03258813f, 0.04938807f, -0.01793491f, -0.02942048f, -0.01992087f, -0.05438702f, -0.00637389f, -0.03065732f},
    {-0.04663290f, 0.01713830f, 0.05526473f, -0.03694792f, 0.00406143f, 0.00492819f, 0.00800302f, 0.00152096f, -0.02255585f, 0.01559997f, 0.01467768f, -0.02953618f, 0.03015006f, -0.00269964f, 0.04273321f, 0.02172075f},
    {0.02000503f, -0.00725477f, -0.04041187f, -0.02202819f, 0.00439017f, -0.00273204f, -0.00545875f, 0.00127827f, -0.03400157f, -0.06254993f, 0.01647108f, 0.03712910f, 0.01818965f, 0.06505322f, -0.00431974f, 0.02764423f},
    {0.02838811f, -0.01436814f, -0.04818837f, -0.00054129f, -0.00118187f, -0.00344693f, -0.00681017f, -0.00204804f, -0.01186634f, -0.04723381f, 0.00752883f, 0.03704189f, 0.00003251f, 0.04631970f, -0.01721535f, 0.01356195f},
    {-0.03826055f, 0.01740032f, 0.05913617f, -0.00651471f, 0.00201541f, 0.00465230f, 0.00778917f, 0.00116248f, 0.01105746f, 0.05025581f, -0.00434441f, -0.04569538f, 0.00471109f, -0.04660385f, 0.02707355f, -0.00750603f},
    {0.02186249f, -0.00665229f, -0.03916693f, -0.01455460f, 0.00374486f, -0.00216528f, -0.00523274f, -0.00141141f, -0.02806425f, -0.05162330f, 0.01209261f, 0.03605134f, 0.00921715f, 0.05351921f, -0.00738151f, 0.02480972f},
    {0.00548424f, -0.00361352f, -0.02244279f, -0.03037061f, 0.00225291f, -0.00183863f, -0.00344713f, 0.00131545f, -0.03442030f, -0.05298635f, 0.01880137f, 0.03077212f, 0.02305774f, 0.05947197f, 0.00638581f, 0.03225317f},
    {-0.01882157f, 0.00573325f, 0.00292615f, -0.05358116f, 0.00502928f, 0.00186202f, 0.00062479f, -0.00189828f, -0.04842421f, -0.04787662f, 0.02936785f, 0.01983230f, 0.04043090f, 0.06141296f, 0.03019398f, 0.04754248f},
    {0.02155093f, -0.00638534f, -0.01117574f, 0.04843086f, -0.00545533f, -0.00136951f, -0.00130946f, -0.00037347f, 0.04550362f, 0.03489867f, -0.02655572f, -0.00962241f, -0.03456022f, -0.04901230f, -0.03280991f, -0.03817064f},
    {0.00397182f, -0.00309182f, -0.02115333f, -0.03391637f, 0.00333041f, -0.00143767f, -0.00268138f, 0.00036715f, -0.03806422f, -0.05465410f, 0.02021234f, 0.02921916f, 0.02417893f, 0.06023936f, 0.00855189f, 0.03670979f},
    {0.03593374f, -0.01469555f, -0.05464175f, 0.00987743f, -0.00219769f, -0.00381468f, -0.00715751f, -0.00192570f, -0.00350517f, -0.04299808f, 0.00041881f, 0.03882550f, -0.00916985f, 0.03849179f, -0.02738113f, 0.00256729f},
    {-0.04369971f, 0.01501795f, 0.04590363f, -0.04457552f, 0.00467474f, 0.00465528f, 0.00878491f, 0.00005904f, -0.03233433f, -0.00051347f, 0.01901583f, -0.01991299f, 0.03548381f, 0.01393008f, 0.04620665f, 0.03233418f},
    {-0.02885228f, 0.00871256f, 0.02318892f, -0.04515485f, 0.00500296f, 0.00123167f, 0.00419215f, 0.00107672f, -0.03800746f, -0.02475669f, 0.02308027f, -0.00015398f, 0.03740406f, 0.03703794f, 0.03453067f, 0.03550912f},
    {0.03006272f, -0.01014653f, -0.02437267f, 0.04773793f, -0.00613699f, -0.00250296f, -0.00486384f, -0.00051147f, 0.04009247f, 0.02677487f, -0.02159536f, 0.00112974f, -0.03734848f, -0.03740999f, -0.03607880f, -0.03683908f},
    {-0.00697869f, 0.00572615f, 0.02802106f, 0.02765820f, -0.00174073f, 0.00129176f, 0.00342617f, 0.00005959f, 0.03525475f, 0.05554579f, -0.02047700f, -0.03223333f, -0.02171521f, -0.06003518f, -0.00587814f, -0.03378356f},
    {0.00618273f, -0.00278439f, -0.02200569f, -0.02606405f, 0.00206897f, -0.00194966f, -0.00299922f, 0.00049677f, -0.03014644f, -0.04846226f, 0.01641428f, 0.02770758f, 0.01932959f, 0.05212427f, 0.00478785f, 0.02757933f},
    {-0.03090184f, 0.01798420f, 0.06321277f, -0.02280947f, 0.00160319f, -0.00828094f, 0.01714822f, -0.00205478f, -0.01238862f, 0.02650691f, 0.01154630f, -0.03560358f, 0.01558001f, -0.01784364f, 0.04522243f, 0.01006638f},
    {0.00550161f, -0.00231609f, -0.02305474f, -0.03001040f, 0.00200293f, -0.00161439f, -0.00370142f, 0.00203274f, -0.03452303f, -0.05333507f, 0.01922504f, 0.03044210f, 0.02344052f, 0.05945307f, 0.00664699f, 0.03244858f},
    {0.01179317f, -0.00735487f, -0.02953117f, -0.02323412f, 0.00068943f, -0.00295359f, -0.00131176f, -0.00249091f, -0.03149130f, -0.05412294f, 0.01806385f, 0.03221505f, 0.01774896f, 0.05508879f, 0.00268615f, 0.02760203f},
    {0.03023721f, -0.01246816f, -0.03141883f, 0.03930188f, -0.00348384f, -0.00520998f, -0.00304884f, 0.00306781f, 0.02915580f, 0.00696598f, -0.01841940f, 0.00798893f, -0.02928667f, -0.01575246f, -0.03255920f, -0.03211816f},
    {-0.05073015f, 0.01908023f, 0.06834370f, -0.02086874f, 0.00354170f, 0.00426242f, 0.00996091f, 0.00253880f, -0.00361818f, 0.04391341f, 0.00293903f, -0.04941450f, 0.01898693f, -0.03507401f, 0.03860167f, 0.00465994f},
    {-0.03143598f, 0.00931376f, 0.02534611f, -0.05222533f, 0.00478671f, 0.00197175f, 0.00366490f, 0.00089786f, -0.04419463f, -0.02818210f, 0.02743084f, -0.00057914f, 0.04246433f, 0.04273198f, 0.03946713f, 0.04053789f},
    {0.03972957f, -0.01210458f, -0.05702338f, 0.00650200f, -0.00314465f, -0.00398148f, -0.00876394f, -0.00151540f, -0.00796477f, -0.04816350f, 0.00276351f, 0.04360434f, -0.00615258f, 0.04186617f, -0.02431205f, 0.00703094f},
    {0.01945835f, -0.00292976f, -0.00622022f, 0.05533766f, -0.00812266f, -0.00042856f, -0.00118132f, -0.00060596f, 0.05158427f, 0.04753364f, -0.03059791f, -0.01580222f, -0.04404568f, -0.06221771f, -0.03322600f, -0.04843421f},
    {-0.03602857f, 0.01493027f, 0.05507245f, -0.00438262f, 0.00073018f, 0.00468844f, 0.00702578f, 0.00154451f, 0.01084951f, 0.04700631f, -0.00305128f, -0.04327547f, 0.00603066f, -0.04342486f, 0.02573381f, -0.00787834f},
    {-0.01870778f, 0.01339627f, 0.04077545f, 0.01999797f, -0.00204594f, 0.00456365f, 0.00768496f, -0.00063383f, 0.02871216f, 0.05875577f, -0.01761898f, -0.04140518f, -0.01313177f, -0.06371044f, 0.00105520f, -0.02588357f},
    {0.00758715f, 0.00336752f, -0.01876800f, -0.03227415f, -0.01233773f, -0.00928123f, -0.00269504f, -0.00650609f, -0.02518819f, -0.05617661f, 0.03805390f, 0.02610107f, 0.01931111f, 0.05480031f, 0.01044386f, 0.03577018f},
    {-0.00751770f, 0.00582343f, 0.02728852f, 0.02760038f, -0.00137779f, 0.00152449f, 0.00318731f, 0.00020542f, 0.03448649f, 0.05401879f, -0.01964020f, -0.03170814f, -0.02099941f, -0.05901279f, -0.00539533f, -0.03260174f},
    {-0.01477466f, 0.00606588f, 0.00254020f, -0.04210435f, 0.00549802f, 0.00230625f, 0.00189354f, -0.00220840f, -0.04488834f, -0.04010381f, 0.02115465f, 0.01204119f, 0.03714899f, 0.05208917f, 0.02866943f, 0.03988779f},
    {-0.04147036f, 0.01496767f, 0.04917252f, -0.03376588f, 0.00376648f, 0.00475653f, 0.00691324f, 0.00147297f, -0.02006198f, 0.01292733f, 0.01409462f, -0.02617762f, 0.02683948f, -0.00095996f, 0.03836820f, 0.02014586f},
    {0.00588748f, -0.00346627f, -0.02330677f, -0.02911466f, 0.00288897f, -0.00222212f, -0.00334260f, 0.00003438f, -0.03362525f, -0.05212679f, 0.01861894f, 0.03045676f, 0.02190173f, 0.05733046f, 0.00612658f, 0.03087673f},
    {-0.03147985f, 0.00908103f, 0.02497874f, -0.05172590f, 0.00643249f, 0.00117335f, 0.00407118f, 0.00081809f, -0.04396563f, -0.02842431f, 0.02622131f, -0.00180172f, 0.04099678f, 0.03874430f, 0.03907682f, 0.04054459f},
    {0.03213689f, -0.01403730f, -0.05469882f, -0.00498871f, 0.00161428f, -0.00333245f, -0.00777385f, -0.00089986f, -0.01835327f, -0.05801738f, 0.00974698f, 0.04554997f, 0.00364747f, 0.05639065f, -0.02002388f, 0.01710120f},
    {0.04461516f, -0.01808571f, -0.05440717f, 0.03540600f, -0.00533039f, -0.00453767f, -0.00693577f, -0.00130395f, 0.01925616f, -0.01558558f, -0.01268887f, 0.02886465f, -0.02860616f, 0.00375813f, -0.03970866f, -0.01852033f},
    {-0.01274842f, 0.01672301f, -0.00305128f, -0.06972245f, -0.00163247f, 0.03499970f, -0.02820283f, -0.00391379f, -0.01940691f, 0.02780427f, 0.01462398f, -0.00307877f, 0.04234770f, 0.00638824f, 0.00477101f, 0.03124362f},
    {0.02922196f, -0.00926565f, -0.02332170f, 0.04814535f, -0.00462087f, -0.00274134f, -0.00393372f, -0.00016481f, 0.04009571f, 0.02758127f, -0.02426674f, 0.00024068f, -0.03798081f, -0.03927122f, -0.03626670f, -0.03871097f},
    {-0.04402941f, 0.01657193f, 0.05232800f, -0.03403566f, 0.00407932f, 0.00417932f, 0.00791735f, 0.00171920f, -0.02037655f, 0.01599345f, 0.01409011f, -0.02894205f, 0.02863269f, -0.00283348f, 0.04030050f, 0.01926352f},
    {0.00054817f, -0.00325439f, -0.01613816f, -0.03391521f, 0.00112854f, 0.00114749f, -0.00218903f, -0.00120401f, -0.03879776f, -0.04768638f, 0.01915567f, 0.02477870f, 0.02362525f, 0.05594459f, 0.01070325f, 0.03617873f},
    {-0.00646623f, -0.02517874f, -0.02142582f, -0.00680068f, 0.01774381f, 0.00091956f, 0.00582290f, -0.00240697f, -0.03397349f, -0.04428655f, 0.00579046f, 0.03083311f, 0.00539489f, 0.05128755f, 0.02136793f, 0.02581084f},
    {-0.01618739f, 0.00690568f, 0.03491426f, 0.02254733f, -0.00246031f, 0.00519083f, 0.00510621f, -0.00122027f, 0.03500158f, 0.05802909f, -0.01726964f, -0.03785233f, -0.01745391f, -0.06266794f, -0.00004258f, -0.02831572f},
    {-0.01330697f, 0.00772847f, 0.03153899f, 0.01737601f, -0.00203625f, 0.00239129f, 0.00308982f, 0.00152389f, 0.02631776f, 0.05202682f, -0.01650462f, -0.03349997f, -0.01456285f, -0.05543995f, 0.00208012f, -0.02530700f},
    {-0.04152792f, 0.01505812f, 0.04900983f, -0.03308294f, 0.00372495f, 0.00472589f, 0.00774902f, 0.00127025f, -0.01915304f, 0.01433210f, 0.01391430f, -0.02725237f, 0.02699752f, -0.00252712f, 0.03850899f, 0.01882507f},
    {-0.03525572f, 0.01112772f, 0.03619279f, -0.04613193f, 0.00637518f, 0.00194813f, 0.00443919f, 0.00169547f, -0.03638009f, -0.01302130f, 0.02191235f, -0.01054823f, 0.03793262f, 0.02678998f, 0.04189418f, 0.03512480f},
    {0.00982922f, 0.00735178f, 0.00271686f, 0.02883948f, -0.00737872f, -0.00836247f, 0.00666805f, -0.00718000f, 0.03824589f, 0.05668457f, -0.01683555f, -0.02771276f, -0.03642938f, -0.05458953f, -0.01153105f, -0.03060323f},
    {0.05150516f, -0.02190877f, -0.06515837f, 0.03106119f, -0.00471925f, -0.00525937f, -0.00831955f, -0.00102152f, 0.01296418f, -0.03185131f, -0.00714350f, 0.04167361f, -0.02433564f, 0.02282174f, -0.04246270f, -0.01242202f},
    {0.01877443f, -0.00839429f, -0.03679804f, -0.00987588f, 0.00020387f, -0.00305291f, -0.00464303f, 0.00114616f, -0.01686921f, -0.04052181f, 0.00727342f, 0.02978103f, 0.00556339f, 0.04068731f, -0.01021562f, 0.01570433f},
    {0.03320808f, -0.01166934f, -0.02871355f, 0.05154998f, -0.00552452f, -0.00359767f, -0.00412542f, -0.00096262f, 0.04454680f, 0.02598908f, -0.02435446f, 0.00224725f, -0.04209687f, -0.03750523f, -0.03901051f, -0.04151705f},
    {-0.02433618f, 0.00816376f, 0.01898518f, -0.04267726f, 0.00466548f, 0.00118739f, 0.00208215f, 0.00235810f, -0.03821819f, -0.02458825f, 0.02170539f, 0.00229088f, 0.03360936f, 0.03579310f, 0.03137783f, 0.03419008f},
    {-0.03637331f, 0.00679169f, 0.03072252f, -0.04657498f, 0.00994937f, 0.00333373f, 0.00015604f, 0.00107019f, -0.04106435f, -0.01742217f, 0.02495464f, -0.00497059f, 0.03850785f, 0.02926333f, 0.03840285f, 0.03327059f},
    {0.03164301f, -0.01374795f, -0.05121468f, -0.00064031f, -0.00109125f, -0.00357116f, -0.00683770f, -0.00083145f, -0.01288539f, -0.04754451f, 0.00490328f, 0.03948896f, -0.00091260f, 0.04464218f, -0.01963877f, 0.01005528f},
    {-0.05442650f, 0.02020558f, 0.06767201f, -0.04160951f, 0.00374814f, 0.00464200f, 0.00872369f, 0.00209836f, -0.02281483f, 0.02032052f, 0.01663653f, -0.03977723f, 0.03462811f, -0.00941881f, 0.05044616f, 0.02421548f},
    {-0.04738341f, 0.01854467f, 0.06406655f, -0.01699700f, 0.00102614f, 0.00561507f, 0.00959792f, 0.00250940f, -0.00064935f, 0.04464190f, 0.00154016f, -0.04543797f, 0.01430073f, -0.03638084f, 0.03627144f, -0.00061636f},
    {0.04394716f, -0.01764049f, -0.05303601f, 0.03515967f, -0.00438613f, -0.00431701f, -0.00708258f, -0.00129996f, 0.01970769f, -0.01471053f, -0.01182548f, 0.02810802f, -0.02805490f, 0.00276675f, -0.03878072f, -0.01835995f},
    {-0.04316958f, 0.01382373f, 0.04193597f, -0.04648768f, 0.00610163f, 0.00330607f, 0.00458386f, 0.00284099f, -0.03021657f, -0.00149247f, 0.02148294f, -0.01817555f, 0.03453876f, 0.01446115f, 0.04289491f, 0.03062472f},
    {0.03282544f, -0.01407619f, -0.03690200f, 0.03860629f, -0.00554074f, -0.00467204f, -0.00240616f, -0.00417881f, 0.02597697f, 0.00407864f, -0.01897426f, 0.01402523f, -0.03303399f, -0.01277691f, -0.03718954f, -0.02590948f},
    {-0.03817594f, 0.01547821f, 0.05695891f, -0.00776373f, 0.00218349f, 0.00573035f, 0.00701998f, 0.00188121f, 0.00727906f, 0.04549786f, -0.00383211f, -0.04394066f, 0.00812405f, -0.04307393f, 0.02563363f, -0.00705305f},
    {-0.01216681f, -0.04927340f, -0.00096070f, 0.00349778f, -0.00178947f, 0.04111723f, -0.02672689f, 0.00934562f, -0.00878875f, 0.01567600f, -0.04769722f, -0.01704176f, 0.04086273f, -0.02708729f, 0.00310777f, -0.00052085f},
    {-0.04693192f, 0.01696711f, 0.05574496f, -0.03667532f, 0.00370748f, 0.00392268f, 0.00737195f, 0.00148233f, -0.02176210f, 0.01628109f, 0.01495690f, -0.02975301f, 0.02925211f, -0.00225762f, 0.04194723f, 0.02082501f},
    {-0.03626086f, 0.01616167f, 0.05498098f, -0.00570143f, 0.00216881f, 0.00592357f, 0.00738453f, 0.00095988f, 0.01035278f, 0.04585139f, -0.00407740f, -0.04302238f, 0.00558002f, -0.04402382f, 0.02517223f, -0.00836259f},
    {0.00042359f, -0.00345643f, -0.01822201f, -0.05477102f, -0.00253641f, 0.01284970f, -0.02419821f, 0.00292530f, -0.03325240f, -0.01317141f, 0.02908232f, 0.01306838f, 0.05098542f, 0.04263146f, 0.00968537f, 0.04195128f},
    {0.02081391f, -0.01192874f, -0.02100112f, 0.02564093f, 0.03895389f, -0.00877686f, 0.03329815f, -0.00327719f, -0.00905947f, -0.01827168f, 0.03112525f, 0.03045801f, -0.01961757f, 0.03309229f, 0.05282605f, 0.01133277f},
    {-0.02612569f, 0.00946954f, 0.02055088f, -0.04997769f, 0.00626852f, 0.00129603f, 0.00165245f, 0.00139461f, -0.04400340f, -0.03305791f, 0.02623074f, 0.00420906f, 0.03915923f, 0.04517255f, 0.03452249f, 0.04127127f},
    {0.01033392f, -0.04254967f, -0.02802633f, -0.02844691f, 0.01013660f, 0.01711974f, -0.01498264f, 0.00103861f, -0.02684623f, -0.04573273f, -0.00543048f, 0.02321546f, 0.04983612f, 0.02769444f, 0.02087329f, 0.02657278f},
    {0.02400893f, -0.00674641f, -0.01590487f, 0.04386336f, -0.00368758f, -0.00231524f, -0.00226685f, 0.00032973f, 0.03814533f, 0.03120774f, -0.02190342f, -0.00435681f, -0.03574017f, -0.03973888f, -0.03262571f, -0.03788357f},
    {-0.04065134f, 0.01140327f, 0.03856132f, -0.04934921f, 0.00747157f, 0.00185733f, 0.00539819f, 0.00086901f, -0.03895454f, -0.01436792f, 0.02359044f, -0.01117505f, 0.03871949f, 0.02627018f, 0.04208642f, 0.03534566f},
    {0.02603894f, -0.00110638f, -0.02147531f, 0.04566988f, 0.02152650f, -0.02044140f, 0.03683076f, -0.00457973f, 0.00506866f, 0.00117218f, 0.01953460f, 0.01240588f, -0.04402341f, 0.00782751f, 0.03666775f, -0.00521086f},
    {-0.00167668f, -0.00292296f, -0.01235879f, -0.03473411f, 0.00371521f, 0.00106570f, -0.00213999f, -0.00178717f, -0.03762960f, -0.04096082f, 0.01813235f, 0.01938841f, 0.02363669f, 0.05385922f, 0.01445332f, 0.03140095f},
    {-0.01334385f, 0.00904909f, 0.02980472f, 0.02076211f, -0.00325845f, 0.00499080f, 0.00634476f, 0.00130379f, 0.02889130f, 0.04921590f, -0.01707780f, -0.03247634f, -0.01349038f, -0.05593202f, -0.00228316f, -0.02587953f},
    {0.03202372f, -0.00980753f, -0.02873417f, 0.05194192f, -0.00627774f, -0.00393846f, -0.00382442f, -0.00112143f, 0.04416645f, 0.02549411f, -0.02581846f, 0.00415145f, -0.04232411f, -0.03605392f, -0.04052851f, -0.04082377f},
    {0.04855284f, -0.01921277f, -0.05896242f, 0.03945209f, -0.00539787f, -0.00530427f, -0.00708757f, -0.00209892f, 0.02207426f, -0.01672575f, -0.01416317f, 0.03104692f, -0.03122311f, 0.00312352f, -0.04467567f, -0.02231949f},
    {-0.01289095f, 0.03370337f, -0.01643319f, -0.06406471f, -0.00423842f, 0.01310093f, -0.01933473f, -0.00088450f, -0.02852859f, -0.00785301f, 0.02073814f, 0.01039155f, 0.03638433f, 0.02806765f, 0.00943269f, 0.03516608f},
    {-0.00730793f, 0.00477327f, 0.02563002f, 0.02606717f, -0.00099330f, 0.00140788f, 0.00236154f, -0.00018408f, 0.03304981f, 0.05145473f, -0.01870928f, -0.03022091f, -0.02015042f, -0.05644139f, -0.00543977f, -0.03079534f},
    {0.04368513f, -0.01766176f, -0.05916070f, 0.03240786f, -0.00448626f, -0.00472499f, -0.00909927f, -0.00104309f, 0.01914336f, -0.01987799f, -0.01233130f, 0.03321432f, -0.02887417f, 0.00946601f, -0.03756598f, -0.01826794f},
    {0.04824958f, -0.02247050f, -0.06442599f, 0.02300669f, -0.00349117f, -0.00846241f, -0.00707230f, -0.00087575f, 0.01011760f, -0.03777065f, -0.00664487f, 0.04202601f, -0.02392018f, 0.02615689f, -0.03993797f, -0.01135032f},
    {0.03260551f, -0.04918281f, -0.04261890f, 0.00330843f, 0.01109945f, 0.01706345f, -0.01739817f, 0.00103322f, -0.00440260f, -0.04117302f, -0.02229071f, 0.03700809f, 0.01897913f, 0.00202642f, -0.00235374f, 0.00987806f},
    {-0.01101934f, 0.01244296f, 0.03353624f, 0.02545827f, -0.00591318f, 0.00364039f, 0.00538236f, 0.00141629f, 0.03364765f, 0.05666633f, -0.02044983f, -0.03643403f, -0.01693450f, -0.06258024f, -0.00522681f, -0.02740860f},
    {-0.03500476f, 0.01379828f, 0.05177821f, -0.00267533f, 0.00191055f, 0.00489480f, 0.00729802f, -0.00054178f, 0.01259339f, 0.04525833f, -0.00445549f, -0.04246122f, 0.00291928f, -0.04442427f, 0.02110539f, -0.01029607f},
    {-0.00090758f, 0.00618276f, 0.01871772f, 0.03406853f, -0.00622836f, -0.00005431f, 0.00470396f, 0.00153432f, 0.03989260f, 0.04941317f, -0.02003194f, -0.03085032f, -0.02476484f, -0.05943108f, -0.01432312f, -0.03345851f},
    {-0.03811917f, 0.01613414f, 0.05963811f, -0.00823766f, 0.00366187f, 0.00709182f, 0.00860396f, 0.00054318f, 0.00487929f, 0.04401040f, 0.00002596f, -0.04286293f, 0.00891409f, -0.04156467f, 0.02355597f, -0.00590722f}
};
static const float gen0_b[128] = {0.00000000f, 0.00000000f, 0.00000000f, 0.00000000f, 0.00000000f, 0.00000000f, 0.00000000f, 0.00000000f, 0.00000000f, 0.00000000f, 0.00000000f, 0.00000000f, 0.00000000f, 0.00000000f, 0.00000000f, 0.00000000f, 0.00000000f, 0.00000000f, 0.00000000f, 0.00000000f, 0.00000000f, 0.00000000f, 0.00000000f, 0.00000000f, 0.00000000f, 0.00000000f, 0.00000000f, 0.00000000f, 0.00000000f, 0.00000000f, 0.00000000f, 0.00000000f, 0.00000000f, 0.00000000f, 0.00000000f, 0.00000000f, 0.00000000f, 0.00000000f, 0.00000000f, 0.00000000f, 0.00000000f, 0.00000000f, 0.00000000f, 0.00000000f, 0.00000000f, 0.00000000f, 0.00000000f, 0.00000000f, 0.00000000f, 0.00000000f, 0.00000000f, 0.00000000f, 0.00000000f, 0.00000000f, 0.00000000f, 0.00000000f, 0.00000000f, 0.00000000f, 0.00000000f, 0.00000000f, 0.00000000f, 0.00000000f, 0.00000000f, 0.00000000f, 0.00000000f, 0.00000000f, 0.00000000f, 0.00000000f, 0.00000000f, 0.00000000f, 0.00000000f, 0.00000000f, 0.00000000f, 0.00000000f, 0.00000000f, 0.00000000f, 0.00000000f, 0.00000000f, 0.00000000f, 0.00000000f, 0.00000000f, 0.00000000f, 0.00000000f, 0.00000000f, 0.00000000f, 0.00000000f, 0.00000000f, 0.00000000f, 0.00000000f, 0.00000000f, 0.00000000f, 0.00000000f, 0.00000000f, 0.00000000f, 0.00000000f, 0.00000000f, 0.00000000f, 0.00000000f, 0.00000000f, 0.00000000f, 0.00000000f, 0.00000000f, 0.00000000f, 0.00000000f, 0.00000000f, 0.00000000f, 0.00000000f, 0.00000000f, 0.00000000f, 0.00000000f, 0.00000000f, 0.00000000f, 0.00000000f, 0.00000000f, 0.00000000f, 0.00000000f, 0.00000000f, 0.00000000f, 0.00000000f, 0.00000000f, 0.00000000f, 0.00000000f, 0.00000000f, 0.00000000f, 0.00000000f, 0.00000000f, 0.00000000f, 0.00000000f};
static const float gen0_bn_gamma[128] = {1.00856268f, 1.11144400f, 0.96851134f, 1.02943182f, 0.71248049f, 0.74005109f, 1.11518657f, 1.08812022f, 0.95662081f, 0.79670316f, 0.95365721f, 0.75236976f, 0.98236239f, 0.92078251f, 0.99492735f, 0.82290131f, 1.04285800f, 0.65558398f, 0.99575210f, 0.73829943f, 1.05946612f, 0.95090306f, 0.98096794f, 0.98645461f, 1.02541971f, 1.01271164f, 0.62393582f, 1.03047955f, 0.76324248f, 0.78372997f, 0.81174171f, 1.00461638f, 0.67738855f, 0.81039673f, 0.85856855f, 1.00634122f, 0.66391695f, 0.98952937f, 1.03356028f, 1.09488034f, 0.64811587f, 0.96327198f, 0.79179394f, 0.77402437f, 0.82031405f, 1.10804510f, 0.95296007f, 1.10330987f, 0.83203506f, 0.99811441f, 1.07648110f, 0.96838319f, 1.01581407f, 1.04284739f, 0.85363901f, 1.02728939f, 1.00688410f, 0.97485614f, 0.86993176f, 1.05398905f, 1.02172911f, 1.02282727f, 1.00655842f, 1.13164783f, 1.05084229f, 0.78058708f, 0.98133928f, 0.94477737f, 0.88584697f, 1.02925801f, 1.01538992f, 0.90628880f, 0.94208562f, 1.00566649f, 0.83827525f, 0.87080604f, 1.12749851f, 0.90477014f, 1.02309644f, 1.08768654f, 0.88389128f, 0.93828189f, 1.07741833f, 0.67135221f, 1.05304503f, 1.07272553f, 0.92051691f, 0.64376712f, 1.00217986f, 1.08337724f, 1.03446674f, 1.02274394f, 0.84870571f, 1.05050933f, 1.02075422f, 0.89827901f, 1.06792367f, 0.83950883f, 1.01701474f, 1.03544748f, 1.01460111f, 1.03938735f, 0.81921750f, 0.87719512f, 1.02121592f, 0.65654129f, 0.98299921f, 0.97817034f, 0.68048769f, 0.61220312f, 0.99990112f, 0.66078478f, 1.04657149f, 0.98866123f, 0.61315906f, 0.70184445f, 0.86378539f, 0.86856693f, 1.05239725f, 0.76097405f, 1.09100759f, 1.03196478f, 0.90982008f, 0.69183725f, 0.90016788f, 0.94140875f, 0.88313973f, 0.94568181f};
static const float gen0_bn_beta[128]  = {-0.05582349f, 0.02649085f, 0.14912912f, 0.06403822f, -0.18528959f, -0.17173241f, 0.03629835f, 0.00986298f, -0.10742567f, -0.16056564f, -0.09188858f, -0.16714253f, 0.05698436f, -0.19402575f, 0.02293206f, -0.18667153f, 0.00272890f, -0.21142924f, 0.03688758f, -0.18462268f, 0.01136224f, -0.13752633f, -0.01473761f, 0.04852943f, -0.01969674f, -0.16257823f, -0.23786180f, -0.01664583f, -0.12106942f, -0.06151302f, -0.20573831f, -0.02990320f, -0.20034106f, -0.21845150f, -0.25045949f, -0.22279751f, -0.20227434f, 0.20346679f, 0.07199369f, 0.07960518f, -0.21775638f, -0.20691922f, -0.15937229f, -0.20433645f, -0.24674271f, 0.02891859f, -0.18068233f, 0.01442820f, -0.24758624f, 0.02588214f, 0.07596683f, -0.32751533f, 0.11885639f, 0.01431030f, -0.23589785f, 0.03236880f, -0.22122590f, -0.17178975f, -0.01420864f, -0.05668630f, 0.19101834f, 0.01999895f, -0.01505865f, 0.02369636f, 0.01689335f, -0.16375883f, 0.00765230f, -0.13570744f, -0.07157651f, -0.12907170f, 0.03413726f, -0.27197552f, -0.27418572f, -0.01615137f, -0.25191784f, -0.03360153f, 0.02631806f, 0.14435458f, 0.07243318f, 0.00285639f, -0.22375603f, -0.20552249f, 0.02333647f, -0.19660096f, -0.04714537f, 0.07728369f, -0.25545377f, -0.25974652f, -0.20473461f, 0.02548372f, 0.06813584f, -0.16188827f, -0.01565780f, 0.08018724f, 0.05483628f, -0.26175895f, -0.01073045f, -0.18132229f, -0.07050344f, -0.11065292f, 0.15395769f, 0.01950636f, -0.18793872f, -0.13284220f, -0.06573591f, -0.19710846f, 0.06956205f, -0.00560837f, -0.22735980f, -0.22586177f, -0.01341576f, -0.23782314f, -0.03673797f, -0.20804158f, -0.23489048f, -0.25027531f, -0.23962542f, -0.25619802f, 0.03511329f, -0.10037571f, 0.02949701f, -0.16333839f, -0.19159035f, -0.21840438f, -0.27697113f, 0.02692202f, -0.28035080f, -0.17096065f};
static const float gen0_bn_rmean[128] = {-0.00095712f, 0.00009355f, 0.00134603f, 0.00028644f, -0.00093706f, -0.00063599f, 0.00149573f, -0.00144959f, -0.00025641f, 0.00100070f, 0.00070522f, -0.00254174f, -0.00092068f, -0.00121453f, 0.00116882f, -0.00007072f, -0.00111174f, 0.00048977f, -0.00131642f, -0.00031734f, -0.00146334f, 0.00112314f, 0.00041985f, -0.00122643f, 0.00021274f, -0.00050393f, -0.00254590f, -0.00076987f, 0.00021437f, -0.00040732f, -0.00156157f, 0.00108590f, 0.00125683f, -0.00148886f, 0.00135455f, -0.00080752f, -0.00095513f, -0.00088693f, -0.00012112f, -0.00010906f, -0.00115790f, 0.00053806f, 0.00155475f, -0.00152922f, -0.00170620f, 0.00015256f, 0.00112054f, -0.00148662f, -0.00141637f, 0.00132013f, -0.00017816f, -0.00150740f, -0.00086764f, 0.00089118f, -0.00137032f, -0.00133585f, -0.00160254f, 0.00140696f, -0.00153229f, -0.00062951f, -0.00063269f, -0.00102793f, 0.00116284f, 0.00148001f, -0.00124675f, -0.00001270f, -0.00132740f, -0.00141602f, 0.00078795f, 0.00060338f, -0.00119053f, -0.00085545f, 0.00166843f, 0.00090558f, 0.00144054f, -0.00130693f, 0.00142270f, -0.00140673f, -0.00015358f, -0.00138899f, -0.00132302f, -0.00116389f, 0.00012199f, 0.00064884f, 0.00111445f, -0.00010801f, -0.00139838f, -0.00182872f, 0.00152768f, 0.00124213f, -0.00011060f, -0.00084607f, 0.00131040f, -0.00012939f, -0.00089532f, 0.00120355f, -0.00107541f, -0.00122646f, -0.00090291f, -0.00012068f, 0.00068798f, 0.00011316f, -0.00062788f, 0.00049593f, 0.00079679f, 0.00079263f, -0.00015318f, 0.00083818f, -0.00029379f, -0.00138865f, -0.00131938f, -0.00127861f, 0.00118183f, -0.00103818f, -0.00085484f, -0.00125505f, 0.00137492f, 0.00121392f, 0.00014133f, -0.00047858f, 0.00132836f, -0.00000833f, -0.00046100f, -0.00117615f, 0.00164234f, 0.00083948f, 0.00158116f, 0.00074570f};
static const float gen0_bn_rvar[128]  = {0.00980433f, 0.01286345f, 0.01143430f, 0.01075460f, 0.01247709f, 0.01096517f, 0.01336690f, 0.01214193f, 0.01086632f, 0.01262723f, 0.01054283f, 0.00931853f, 0.00952429f, 0.00978446f, 0.00999794f, 0.01243527f, 0.01087716f, 0.01368286f, 0.01097556f, 0.01084231f, 0.01277690f, 0.01192040f, 0.01045022f, 0.01082693f, 0.01365375f, 0.01183796f, 0.00916694f, 0.00891704f, 0.01069872f, 0.01225968f, 0.01361926f, 0.00975850f, 0.01194976f, 0.01078554f, 0.01591607f, 0.01357854f, 0.00921623f, 0.01015103f, 0.00874670f, 0.00924547f, 0.01413148f, 0.00970377f, 0.01153218f, 0.01593350f, 0.01852733f, 0.00896982f, 0.01034832f, 0.01330000f, 0.01241771f, 0.01006067f, 0.01195886f, 0.01420003f, 0.00944721f, 0.01265402f, 0.01047646f, 0.01156955f, 0.01747878f, 0.01310841f, 0.01261871f, 0.01000518f, 0.01276290f, 0.01132636f, 0.01219198f, 0.01228653f, 0.00910806f, 0.01068011f, 0.01164188f, 0.01069064f, 0.00810486f, 0.01527118f, 0.01478484f, 0.01146183f, 0.01867995f, 0.01109415f, 0.01329986f, 0.01218712f, 0.01174529f, 0.01274495f, 0.00957318f, 0.01098944f, 0.01417474f, 0.01351993f, 0.01091476f, 0.01144959f, 0.01257807f, 0.01065650f, 0.01101387f, 0.00930983f, 0.01300849f, 0.00993882f, 0.00954852f, 0.01211598f, 0.01200688f, 0.01424898f, 0.00651258f, 0.01445766f, 0.00993182f, 0.01210455f, 0.00996161f, 0.01685837f, 0.01363078f, 0.01049273f, 0.01191041f, 0.00874719f, 0.01140010f, 0.01090808f, 0.01184708f, 0.01106424f, 0.01210429f, 0.01115938f, 0.01388281f, 0.01166823f, 0.01105890f, 0.01340983f, 0.00943699f, 0.00964075f, 0.00987175f, 0.01438108f, 0.01319409f, 0.01066399f, 0.01066338f, 0.01143206f, 0.01366076f, 0.00992806f, 0.01268572f, 0.01035048f, 0.01208084f, 0.01125330f};

// Generator block 1  in=128  out=256  act=relu
static const float gen1_W[256][128] = {
    {-0.00352405f, 0.02428110f, -0.03533112f, 0.04034312f, 0.00691735f, 0.01941694f, -0.04667807f, -0.06040582f, 0.01971350f, -0.00195110f, 0.06653988f, 0.00107913f, -0.02268126f, 0.01821081f, 0.04429054f, 0.02339842f, 0.03135365f, 0.01108606f, -0.07057051f, -0.01795825f, -0.02623226f, -0.01139674f, 0.04546538f, 0.01617369f, -0.03720874f, -0.01668605f, 0.00359234f, -0.00062526f, 0.02158257f, 0.02701857f, 0.03725640f, 0.02656201f, -0.00570331f, 0.01230966f, 0.01105219f, -0.02383657f, 0.00438833f, -0.01593712f, -0.00219700f, -0.02554866f, 0.00649213f, 0.03465957f, -0.00880181f, 0.00497458f, 0.00889992f, 0.04507532f, 0.00473830f, -0.03117015f, 0.00273892f, -0.00857907f, -0.01117613f, -0.05289404f, 0.04267297f, 0.03514908f, -0.03491399f, -0.02373660f, -0.02084478f, 0.03189163f, -0.00384401f, 0.05265437f, -0.00031530f, -0.00793748f, 0.00380470f, -0.07625431f, -0.05848038f, 0.02305949f, -0.00050301f, -0.04434327f, 0.01208785f, 0.05397488f, 0.01860186f, 0.01000343f, -0.02082548f, 0.00800163f, 0.00631804f, 0.01797590f, -0.05976024f, -0.02242826f, -0.01915979f, -0.05341591f, 0.02200411f, -0.00433343f, 0.07226861f, 0.00095886f, -0.04766514f, 0.00554665f, 0.00602243f, 0.00618882f, -0.05202924f, -0.02994498f, 0.01211257f, 0.03405938f, -0.00817051f, 0.03581365f, -0.00673531f, -0.02128373f, 0.01753635f, 0.04765737f, -0.01691229f, 0.03654681f, -0.02281637f, 0.03331354f, 0.01034921f, 0.01189428f, 0.04619654f, 0.00717271f, 0.03797106f, 0.01797355f, 0.01072025f, -0.00600365f, 0.05378478f, -0.00841002f, -0.01501814f, 0.01826970f, -0.00101965f, 0.00016482f, 0.00257592f, -0.02453803f, 0.00266207f, -0.00591018f, -0.05262168f, -0.04613076f, 0.02384397f, -0.00261788f, 0.04453331f, 0.00917700f, -0.03570572f, -0.01156207f},
    {-0.02176287f, -0.04776019f, -0.01641253f, -0.04937513f, 0.00626017f, -0.00483327f, -0.01665151f, 0.07784609f, -0.00826730f, -0.00024148f, 0.04657989f, 0.00627130f, 0.00610184f, -0.01004876f, 0.05094879f, 0.02974777f, -0.00001476f, 0.02212886f, 0.04164283f, 0.00146539f, 0.02678044f, -0.03026327f, 0.00665463f, 0.02782538f, -0.02701112f, -0.00620197f, 0.00179663f, -0.02321799f, -0.01166946f, 0.00663139f, 0.01563047f, 0.06074849f, -0.00411815f, 0.00124583f, 0.01978929f, 0.03409772f, -0.00440549f, -0.00909382f, -0.02778132f, -0.00504036f, -0.00861561f, -0.00178846f, 0.00676270f, 0.02011448f, -0.00937377f, -0.05973297f, -0.00181509f, 0.06103712f, -0.00578199f, 0.01294025f, 0.02462937f, -0.02871383f, -0.07807649f, -0.06254870f, 0.01438371f, 0.02705002f, 0.01899493f, 0.03744015f, 0.02565850f, -0.01133865f, -0.04698007f, -0.00586609f, 0.03368198f, 0.00083992f, 0.01140041f, -0.00368324f, 0.03363134f, 0.02354843f, -0.00335357f, 0.04354381f, 0.02051518f, 0.01173467f, -0.01427230f, -0.07305810f, -0.02152214f, 0.01318845f, 0.00334928f, 0.01077560f, -0.03144298f, 0.04260932f, -0.01661783f, -0.01019812f, -0.06954104f, 0.01025418f, -0.00034420f, -0.00979973f, 0.02135631f, 0.00670443f, -0.00433035f, 0.01117710f, -0.04398367f, -0.04445568f, -0.01816984f, 0.00025446f, 0.00886807f, 0.02588771f, 0.05235155f, -0.01172854f, 0.00866251f, -0.00777357f, -0.00698680f, -0.02620635f, -0.00733968f, 0.01844271f, -0.03812400f, -0.02210909f, -0.01816523f, -0.05307806f, -0.01277442f, -0.01662979f, 0.03039265f, 0.00311145f, 0.00704470f, 0.00221727f, 0.00893644f, 0.03069219f, -0.02818624f, 0.00535584f, -0.03474931f, -0.00294495f, 0.00187864f, 0.02680825f, 0.01359365f, 0.00234764f, -0.01597717f, -0.02963646f, 0.00570582f, -0.03445114f},
    {-0.02344921f, -0.08753920f, -0.04836533f, -0.03882757f, 0.03054487f, 0.00010757f, -0.01167072f, 0.02223023f, -0.02545084f, -0.00700516f, -0.04229099f, 0.00777315f, 0.01610404f, 0.02596117f, -0.01058449f, -0.00702162f, 0.07390685f, 0.01818399f, 0.03989394f, 0.00872152f, 0.05674643f, 0.02517502f, -0.00857461f, -0.00799538f, -0.02340212f, 0.01021708f, -0.01611282f, 0.00487619f, -0.00263687f, 0.03129243f, -0.01673548f, 0.01029873f, 0.00865957f, 0.01459992f, -0.01878393f, 0.01434833f, 0.01026531f, 0.00871351f, -0.01522486f, 0.04964951f, 0.00495637f, 0.00376756f, 0.00708237f, -0.02301071f, 0.00921464f, -0.04198740f, 0.03925449f, 0.08930740f, -0.02436972f, -0.03382399f, -0.03148427f, -0.02192357f, -0.00931871f, -0.04836931f, 0.01035506f, 0.01578151f, 0.00169886f, 0.00204888f, 0.04993125f, 0.01041490f, 0.00712053f, -0.00064461f, -0.00381144f, -0.02415940f, 0.06407986f, -0.00726068f, 0.05854256f, 0.02504937f, 0.03500976f, -0.02410230f, -0.02554282f, 0.05800962f, 0.00470757f, -0.00252414f, 0.02492050f, 0.02594912f, -0.02884059f, 0.04975637f, 0.00311907f, 0.04509289f, -0.00122905f, -0.02403740f, 0.00337778f, -0.02055098f, -0.02259463f, -0.00092822f, 0.01897577f, 0.00201886f, 0.04731748f, 0.00046554f, -0.01905893f, -0.01077018f, -0.00966432f, -0.03849652f, 0.00120530f, -0.00288216f, 0.01910032f, 0.00754122f, -0.02034994f, -0.05906106f, 0.00748085f, -0.03877598f, 0.00463840f, -0.04499272f, -0.03703353f, -0.01284189f, 0.02270072f, -0.00588549f, 0.01123180f, -0.01508451f, 0.03608140f, -0.00806030f, -0.01811688f, -0.00709520f, 0.00443646f, -0.01521681f, -0.00702656f, -0.00347067f, -0.06012940f, -0.02233917f, -0.03646363f, 0.00068430f, -0.01596455f, 0.00852931f, 0.01639628f, -0.00083359f, -0.00378396f, 0.01042550f},
    {0.00528272f, -0.05152653f, -0.05849113f, -0.06887023f, 0.01008865f, -0.00056294f, -0.05016502f, 0.03117828f, -0.03584526f, 0.01138512f, 0.01273949f, -0.00960537f, 0.02974982f, 0.03017139f, -0.00788890f, 0.00023196f, -0.04047526f, -0.00423503f, 0.01813601f, -0.02996625f, 0.01768840f, 0.00235502f, 0.01334223f, 0.02387833f, -0.03844310f, 0.03230217f, 0.01507586f, -0.00111472f, -0.01494394f, 0.01835076f, 0.01309390f, 0.01757716f, 0.01045418f, 0.01324727f, -0.00182196f, 0.03005230f, 0.01890379f, 0.00910300f, 0.04313880f, 0.00665802f, -0.01048546f, -0.00858137f, -0.01530700f, -0.01169822f, 0.00852067f, -0.05203589f, 0.02605868f, 0.07629027f, -0.00397403f, -0.07943853f, 0.03294495f, -0.01087635f, -0.03783832f, 0.04136419f, -0.00595448f, 0.03561138f, -0.04847538f, 0.07155150f, 0.00874083f, 0.03982462f, 0.02320517f, -0.01883792f, -0.03585819f, -0.10464194f, 0.05423070f, 0.00692253f, -0.00446722f, -0.01730465f, -0.00322482f, 0.01026320f, -0.00639299f, -0.00431908f, 0.01905981f, -0.01258470f, 0.01075527f, 0.02791075f, -0.07545439f, 0.02938969f, 0.02394265f, 0.01130071f, -0.02191177f, -0.00381152f, -0.05359709f, -0.01963063f, 0.05464408f, 0.00329598f, 0.00530407f, 0.01635621f, 0.01972867f, -0.04067970f, 0.03778360f, -0.02212689f, 0.00475430f, -0.02807548f, 0.00376305f, 0.00012174f, -0.02427016f, -0.02332410f, -0.01849154f, -0.04095681f, 0.04523791f, -0.01932809f, -0.00523672f, 0.01018843f, 0.03327559f, -0.00470384f, 0.02017253f, 0.00827356f, 0.00623825f, 0.00880234f, 0.01051540f, 0.01779929f, 0.02739279f, -0.04991765f, 0.00227404f, -0.01160973f, -0.00710110f, 0.02993022f, -0.04387598f, 0.02142306f, -0.05747512f, 0.06901772f, -0.02366383f, -0.00295638f, 0.01797716f, 0.00987958f, 0.01679641f, 0.04142026f},
    {-0.03732961f, -0.07347079f, -0.06629729f, -0.04824173f, -0.00275313f, -0.01484426f, -0.04196105f, -0.00882837f, 0.01752190f, -0.01313474f, 0.03153988f, -0.00474965f, -0.00949519f, 0.00096677f, -0.03004607f, -0.00638722f, 0.02441769f, -0.00016275f, 0.00568975f, -0.01307589f, 0.00325587f, 0.02794101f, -0.00609600f, 0.02495653f, 0.02560525f, 0.02346695f, -0.00980978f, -0.03720558f, -0.00624450f, 0.02324231f, -0.00264520f, 0.04985385f, -0.00190031f, -0.00412366f, 0.03829904f, 0.03458248f, 0.00604248f, -0.00391719f, 0.03767541f, 0.01622414f, -0.01046609f, -0.00133053f, -0.01847698f, -0.00774613f, 0.00604825f, -0.03835964f, 0.03893083f, -0.00775420f, -0.00335768f, -0.00896821f, 0.04820035f, -0.00766420f, -0.01657859f, -0.01632117f, 0.00716887f, -0.04328549f, -0.02099572f, 0.07769986f, 0.01927936f, 0.00243595f, 0.06962108f, 0.02331110f, 0.00054040f, -0.07606662f, -0.02607098f, -0.01096745f, 0.00032622f, -0.00366855f, 0.00586748f, -0.03883214f, 0.01918937f, 0.00720469f, 0.02873112f, 0.02083035f, -0.00253368f, 0.00570963f, -0.09268855f, 0.02908321f, 0.04014233f, -0.00196448f, -0.02061628f, 0.00132233f, -0.07310284f, -0.00332905f, 0.11429924f, 0.02124774f, -0.02776653f, -0.00194809f, 0.02755459f, -0.08340911f, 0.00284084f, -0.05174559f, 0.00472503f, -0.00509771f, -0.01352244f, 0.03702010f, 0.01044453f, 0.00021718f, 0.00057233f, -0.02042123f, 0.01018021f, -0.08742243f, -0.01341984f, 0.00866345f, -0.01996743f, 0.01303708f, 0.05814409f, 0.00077503f, -0.01553474f, 0.00743223f, -0.00929931f, -0.00231429f, 0.02222058f, -0.01786976f, 0.00075231f, -0.00263637f, 0.01045009f, 0.06512848f, -0.04892429f, 0.00789937f, -0.05660267f, 0.08969449f, -0.01973181f, 0.00076374f, 0.01880311f, 0.01250512f, -0.00519054f, -0.00769306f},
    {-0.00931999f, 0.00885643f, -0.00553436f, 0.00477120f, 0.01227463f, -0.00871531f, -0.00733214f, -0.04286263f, 0.03604869f, -0.01136268f, 0.02794335f, -0.00939370f, 0.00796152f, 0.05107943f, 0.00117773f, 0.02386392f, 0.02755769f, 0.02694362f, -0.05791883f, -0.01035168f, -0.02835994f, 0.02202535f, -0.10005169f, 0.03671670f, 0.03820299f, 0.00767956f, -0.00858904f, -0.01248298f, 0.00365672f, -0.00371998f, -0.00902102f, 0.02193192f, -0.00138972f, 0.01969367f, -0.01785551f, -0.02390010f, 0.00405389f, 0.01090057f, 0.00188341f, -0.03289394f, -0.01366695f, -0.04155073f, 0.03457359f, 0.00346460f, 0.00939520f, 0.02577476f, -0.00979925f, -0.06035907f, 0.04344524f, 0.03742183f, -0.01414835f, -0.01780342f, -0.04681785f, -0.09554017f, -0.02179971f, -0.06107450f, 0.03424585f, -0.00272721f, 0.02033273f, -0.00524388f, -0.01680786f, 0.03448250f, 0.05026637f, -0.04834781f, -0.02313693f, -0.00126705f, 0.00666558f, -0.04304168f, 0.00469496f, 0.01024431f, 0.02009893f, 0.00685443f, 0.02821211f, -0.05256496f, 0.01195497f, -0.00893269f, 0.02142156f, -0.00547279f, -0.00386984f, -0.05436532f, 0.00994154f, -0.04392480f, 0.04019538f, 0.01159510f, 0.01117889f, -0.02236107f, -0.00602432f, 0.00982010f, 0.01943725f, -0.02499860f, -0.05924325f, 0.03905916f, -0.00117506f, 0.04733675f, 0.00800676f, -0.02099658f, 0.07473936f, 0.01676253f, -0.06386168f, 0.03913186f, -0.06078986f, 0.04443444f, -0.01541293f, -0.00013082f, -0.03436846f, -0.01208517f, 0.00314370f, -0.03850780f, 0.00518889f, -0.00492527f, 0.04229548f, -0.01310452f, -0.00655267f, -0.00497777f, 0.00662909f, 0.02896622f, 0.05006237f, 0.00219325f, 0.04830010f, -0.00637706f, -0.01782024f, -0.04537255f, 0.02239013f, -0.02035600f, 0.04045849f, -0.01970008f, 0.00014287f, -0.01753030f},
    {0.02140297f, 0.04748771f, -0.02476329f, 0.03658401f, -0.00713487f, 0.02147345f, -0.04490810f, -0.01838896f, 0.04366006f, 0.00931846f, 0.00087906f, 0.01978200f, 0.00420771f, -0.04168605f, 0.02234136f, 0.01521991f, -0.03894613f, -0.00252322f, -0.02216437f, 0.01088285f, 0.02439792f, 0.04816652f, 0.06124827f, 0.01352294f, -0.01412458f, -0.00276153f, -0.00897378f, 0.01103171f, -0.01473231f, 0.01087200f, -0.01264450f, 0.02198111f, 0.00954530f, 0.00175912f, 0.00612945f, -0.01808307f, -0.02266667f, -0.02213990f, -0.02175666f, -0.08935740f, 0.01844317f, 0.03497469f, 0.01105954f, 0.01002922f, -0.02068431f, 0.01277910f, -0.00035023f, -0.01468386f, 0.01526736f, -0.05079525f, -0.06989340f, 0.04964316f, 0.01361874f, 0.01121491f, 0.00940689f, -0.02606985f, 0.00372399f, 0.00590132f, -0.00986419f, 0.06398477f, -0.06493901f, -0.02417215f, 0.01829769f, -0.08586128f, -0.00249189f, -0.00407567f, -0.03850836f, -0.02952950f, -0.02780743f, 0.05960258f, -0.03546527f, -0.03091195f, -0.00578998f, 0.06921749f, 0.02692273f, 0.01141573f, -0.07329330f, 0.01017060f, -0.02782827f, -0.01384688f, -0.00012505f, -0.01791802f, 0.02534991f, -0.01167286f, -0.01437007f, -0.07005265f, -0.01231059f, 0.00667702f, 0.02239799f, -0.08959734f, -0.00721865f, 0.02501398f, 0.01143948f, 0.06110055f, 0.05156630f, 0.00101854f, 0.00936547f, -0.00021831f, 0.04328448f, 0.06687618f, -0.02913646f, 0.03651047f, 0.00325031f, -0.01130959f, 0.05017272f, -0.00796360f, -0.02166963f, 0.04354330f, 0.00640879f, -0.01858119f, -0.01525705f, -0.01305865f, -0.00908999f, -0.01646434f, -0.00643871f, 0.00693130f, 0.00399562f, -0.02754870f, 0.00222212f, -0.01025638f, -0.09329623f, -0.03129318f, -0.00064617f, 0.00012784f, 0.03675286f, 0.01338875f, -0.00516706f, 0.03151722f},
    {-0.00049135f, 0.02419111f, -0.02127771f, 0.01900688f, -0.00148388f, 0.01515720f, -0.02831664f, -0.04016624f, 0.03144627f, -0.02097977f, 0.02399683f, 0.02402581f, 0.00160417f, 0.03360605f, 0.03610272f, -0.00765827f, -0.02141405f, -0.00294420f, -0.00622128f, -0.00287827f, -0.00423363f, 0.03320621f, 0.02617326f, -0.01847275f, 0.00015311f, -0.01541696f, -0.00957562f, -0.00693351f, 0.01586216f, 0.00694721f, -0.01064102f, 0.02255098f, -0.00664281f, 0.02600539f, -0.01848369f, -0.02198492f, 0.00090180f, -0.03164231f, -0.02289568f, -0.09879551f, 0.00141120f, -0.00032986f, -0.03647973f, 0.01460078f, 0.02230083f, 0.02314467f, 0.00130846f, -0.06445202f, 0.00673893f, -0.00786851f, -0.01361010f, -0.00663568f, 0.03538183f, -0.01286463f, -0.02190853f, -0.05129175f, 0.03921448f, 0.00319355f, -0.01912225f, 0.04232457f, -0.01866487f, -0.02155437f, 0.05969423f, -0.05680868f, -0.02639370f, 0.01097025f, 0.02738592f, -0.03734089f, -0.00508535f, 0.03484211f, -0.03442820f, 0.01937958f, -0.06231682f, 0.02876834f, 0.01884969f, -0.01756394f, -0.06044928f, -0.01181296f, -0.04629813f, -0.05805938f, 0.02010880f, 0.00481252f, 0.01774057f, 0.01820667f, -0.02579938f, -0.03020060f, -0.00566152f, -0.01993409f, -0.00873705f, -0.04510304f, -0.01890323f, 0.04929698f, 0.03890030f, 0.03863721f, -0.01453082f, -0.00225353f, 0.04673379f, 0.01542040f, -0.05664140f, 0.07196143f, 0.00293711f, 0.02047979f, 0.02506975f, 0.02123907f, 0.03252432f, 0.00876694f, -0.00832575f, -0.00590876f, -0.00173080f, -0.00259871f, -0.02566678f, 0.00044168f, 0.00454114f, 0.02970779f, -0.00864138f, 0.01871608f, -0.00522556f, -0.00087076f, 0.03610165f, -0.00447748f, -0.05463625f, -0.01877899f, 0.01595581f, -0.00380534f, -0.00603331f, 0.02017259f, -0.01180885f, 0.00470933f},
    {0.00813791f, -0.04866640f, 0.00655982f, -0.02353465f, -0.00679422f, 0.01117026f, -0.03325583f, 0.06237006f, -0.03671707f, -0.00199651f, 0.02586910f, 0.01666960f, 0.01179741f, 0.02896790f, 0.07227396f, 0.01384914f, 0.02999351f, -0.00109077f, -0.01778071f, 0.01699170f, 0.03768375f, -0.02486473f, 0.01783027f, 0.00334941f, -0.04072921f, 0.03744963f, 0.00438604f, 0.00472407f, -0.00541338f, -0.03402194f, -0.01908731f, 0.05456077f, -0.02130133f, -0.00661700f, 0.01934685f, 0.03945740f, -0.00820835f, -0.00131281f, -0.01130824f, -0.00264071f, -0.00198331f, 0.00635863f, 0.00580206f, 0.01266054f, -0.01155114f, -0.05623102f, 0.08658964f, 0.08044112f, 0.00655079f, 0.00289199f, -0.02171683f, -0.02168674f, -0.02445469f, -0.05180551f, -0.00798052f, 0.05430879f, 0.00755701f, 0.01469558f, 0.02148641f, 0.00551382f, -0.02682499f, 0.02401729f, 0.05018763f, -0.05643367f, 0.02166492f, 0.01135547f, -0.00649810f, -0.02294837f, -0.03992135f, 0.00752083f, 0.00289376f, 0.02489134f, 0.01478556f, -0.03289668f, 0.01482638f, -0.02417292f, -0.04739074f, 0.02816850f, -0.02165869f, 0.08918764f, 0.00259464f, 0.01079692f, -0.02684853f, 0.02792815f, 0.02184476f, 0.00497496f, 0.03707919f, -0.01340609f, 0.04285209f, -0.02379533f, -0.04889059f, -0.06417728f, -0.00155924f, -0.09142111f, 0.00742476f, 0.04084348f, 0.03287211f, -0.02538646f, -0.01582383f, -0.04689878f, 0.03318701f, -0.02756110f, -0.00935094f, 0.02268255f, 0.03975077f, 0.00864675f, 0.03261343f, -0.02827406f, -0.00459334f, -0.01145974f, -0.00066096f, -0.01600514f, -0.04179963f, -0.02464029f, 0.00380071f, -0.01069854f, 0.01642709f, 0.04237667f, -0.06884236f, -0.00955312f, -0.04714721f, 0.02852217f, 0.01923958f, 0.00887786f, 0.00293129f, -0.03804518f, -0.02557888f, -0.04426687f},
    {0.03551747f, -0.02524747f, -0.02367611f, 0.01502692f, 0.02849072f, -0.00568666f, 0.02678883f, 0.00832504f, -0.01409485f, -0.02362162f, -0.04201183f, -0.01082562f, 0.03755666f, 0.00994019f, -0.05279270f, 0.01824472f, -0.04807287f, -0.01038266f, -0.09202238f, -0.02059360f, 0.01172333f, -0.00046260f, 0.00366152f, -0.03691768f, -0.03857195f, 0.02207948f, -0.00787894f, 0.00403934f, -0.01552578f, -0.00323159f, 0.02061072f, -0.08084004f, 0.00217752f, -0.02468269f, -0.03019021f, 0.01876626f, -0.00571468f, -0.00133666f, 0.00169228f, -0.03198415f, -0.00190778f, 0.04189198f, -0.02491059f, -0.02756065f, -0.01049893f, -0.05578561f, 0.01268959f, 0.02301532f, -0.01045032f, 0.01877607f, -0.00357988f, 0.01501016f, 0.05300128f, 0.02617409f, -0.00641266f, 0.00202168f, -0.05926568f, -0.04229248f, -0.01603904f, 0.04934813f, -0.01430196f, -0.08497890f, -0.05269277f, -0.01726745f, -0.00653548f, 0.00942233f, 0.00685744f, 0.02426477f, -0.00797512f, -0.00762637f, -0.10968389f, 0.05004112f, -0.01279037f, 0.03123149f, -0.00778117f, 0.00509986f, 0.00618788f, 0.01512723f, -0.01489871f, 0.02605352f, -0.02015452f, 0.00252674f, -0.07700969f, 0.02121809f, -0.02824245f, 0.00263776f, 0.01573011f, 0.00114854f, 0.01331708f, 0.02054751f, -0.00230193f, 0.01126768f, 0.00479388f, -0.01822829f, 0.02025881f, 0.00909317f, -0.05228571f, -0.01247428f, 0.05550386f, 0.01630125f, 0.01790438f, -0.05406932f, -0.01193750f, -0.01015268f, 0.03736440f, -0.00123013f, -0.02160267f, 0.04166223f, -0.01634821f, 0.00628277f, -0.06136389f, -0.02536797f, 0.00378666f, -0.01413380f, -0.00898134f, -0.00073354f, -0.01375895f, 0.01753262f, -0.03309840f, -0.00330963f, 0.01706953f, 0.00959117f, 0.05205256f, 0.03292460f, -0.01796260f, -0.00285948f, -0.00299464f, -0.00789541f},
    {0.00873058f, -0.09788600f, -0.08670127f, -0.06339782f, -0.01519201f, -0.00056704f, -0.08224050f, 0.01880184f, -0.01783802f, 0.00124213f, -0.00363173f, 0.00922602f, 0.03520646f, -0.04071900f, 0.05755345f, -0.01461079f, -0.03221864f, -0.00267152f, -0.00391177f, -0.01823729f, 0.04088574f, -0.01642629f, 0.02390864f, -0.01165023f, -0.02892833f, 0.03055730f, -0.00330884f, 0.00531470f, 0.00690173f, 0.00840204f, 0.00982548f, 0.04413933f, -0.02275650f, -0.00072167f, 0.02871039f, 0.04386081f, 0.00922248f, 0.03604815f, 0.02687042f, 0.05480830f, 0.01489922f, 0.00756591f, -0.02408865f, -0.00424473f, -0.01660148f, -0.04918980f, 0.02195830f, 0.03259916f, -0.02997815f, -0.03124503f, 0.01617748f, -0.00170528f, 0.02556240f, 0.03079009f, -0.01716827f, 0.05121427f, -0.03717047f, 0.02866425f, 0.02881046f, 0.01032930f, -0.00851847f, 0.00466495f, 0.02628608f, -0.07075080f, 0.03191671f, 0.00326045f, 0.02475103f, 0.00080058f, -0.00041792f, 0.00259810f, -0.00058105f, 0.00978098f, 0.05681092f, 0.01064040f, 0.01011572f, -0.01807421f, -0.02672838f, 0.01782881f, 0.03165507f, 0.02024821f, -0.00927234f, 0.01373878f, -0.04593454f, 0.03192797f, 0.02665681f, 0.00779089f, 0.01118603f, -0.01666657f, 0.04294924f, -0.03307401f, 0.01815010f, -0.03635244f, -0.01481822f, -0.05486388f, 0.00897559f, 0.02689817f, -0.00000742f, 0.00799112f, -0.01135799f, -0.04165639f, 0.01833872f, -0.07571386f, 0.02981448f, -0.00517342f, 0.02320633f, 0.02137709f, 0.01493955f, 0.00303124f, -0.01330478f, -0.00320366f, -0.01328137f, 0.00035856f, 0.00601239f, -0.05226011f, -0.01315870f, 0.00006244f, 0.00380314f, 0.02305328f, -0.05313522f, -0.00303201f, -0.07568520f, 0.01964657f, 0.03616411f, -0.00638526f, 0.02138733f, 0.02657885f, -0.00122801f, -0.02136648f},
    {-0.02730267f, 0.01587001f, 0.03551005f, -0.02569961f, 0.01086551f, -0.01130278f, 0.05174281f, -0.01350239f, 0.03572502f, 0.00762925f, -0.02071477f, -0.00124156f, -0.03834142f, 0.01877087f, 0.00964906f, 0.01325271f, 0.00647640f, 0.00642576f, 0.01631538f, -0.00393438f, -0.00324777f, 0.00149459f, 0.03889656f, 0.04746651f, -0.00049447f, -0.00190074f, 0.00305049f, 0.00317374f, -0.00415221f, 0.00612334f, 0.01565904f, -0.01817512f, 0.00462200f, 0.01760117f, -0.06121513f, 0.00584517f, 0.00070415f, -0.04302930f, -0.03586687f, -0.03707617f, 0.00265590f, 0.03004445f, -0.01218716f, -0.02269626f, -0.00482547f, 0.03002171f, -0.03474180f, -0.00651481f, -0.00953355f, 0.04243902f, -0.04230719f, -0.00475342f, -0.08473919f, -0.02205128f, 0.02532500f, -0.03620147f, 0.05776063f, -0.00763830f, -0.01513395f, -0.05300904f, -0.08327703f, 0.04814545f, 0.00695523f, 0.03095876f, -0.03231195f, 0.00720724f, 0.00972797f, 0.01707195f, -0.01340687f, 0.01689176f, 0.05890328f, 0.00802225f, -0.02594461f, -0.02117567f, -0.02100546f, -0.00665015f, 0.07634518f, 0.00002161f, -0.03339602f, -0.01702197f, 0.01310989f, 0.03669367f, -0.02546040f, -0.00681747f, 0.00760272f, -0.05302079f, -0.01236829f, -0.01564077f, 0.00358601f, 0.04990786f, -0.02791188f, 0.02996875f, 0.00024277f, 0.04987869f, 0.00236162f, -0.06199803f, 0.01223362f, -0.02304449f, -0.00724288f, 0.03773392f, -0.04767617f, 0.00181529f, 0.00155881f, -0.02700050f, -0.04247406f, 0.00217355f, -0.00101242f, -0.00287072f, -0.00598685f, -0.00583970f, 0.05474830f, -0.00426492f, 0.01409104f, 0.05386208f, -0.00402238f, -0.01975931f, 0.01133408f, -0.03331985f, -0.01644747f, 0.01461100f, 0.05227523f, 0.01569870f, 0.00210343f, -0.00536934f, 0.00033822f, 0.00927787f, -0.00270117f, 0.00020705f},
    {0.00945761f, -0.00889201f, 0.02465458f, -0.02711127f, 0.00341709f, 0.00382730f, 0.04388279f, -0.00489561f, 0.00446564f, -0.01003029f, -0.01788437f, 0.00131413f, 0.01444582f, -0.02710058f, -0.00232246f, 0.00846220f, 0.01149881f, 0.00521510f, 0.01827867f, 0.00333168f, -0.00984614f, -0.02582895f, 0.03827369f, 0.08112873f, -0.02485932f, -0.01094107f, -0.00429271f, -0.03355924f, -0.00037725f, -0.00714063f, 0.02054051f, 0.01279801f, 0.00280352f, 0.00200873f, -0.00245097f, -0.01376614f, -0.00328689f, -0.09845549f, -0.03185214f, -0.01654678f, -0.00094191f, 0.06499933f, -0.00320201f, 0.00004643f, -0.01509628f, -0.01190287f, -0.00150949f, -0.05305532f, 0.00067755f, 0.03246726f, -0.04288583f, 0.02264680f, -0.06807610f, -0.01114993f, 0.00600975f, -0.01878932f, 0.03353369f, 0.02594545f, -0.00312160f, -0.01525908f, -0.09166444f, 0.05428297f, -0.03368785f, 0.02625440f, -0.07508066f, -0.00138734f, -0.02053396f, 0.02327238f, 0.02374251f, 0.00026051f, 0.07703821f, 0.03150908f, -0.02819017f, -0.01217576f, -0.01420693f, 0.01705186f, 0.08578514f, -0.01147033f, -0.04502089f, -0.00724043f, 0.01150632f, 0.00188435f, 0.02378489f, 0.00361363f, -0.00282968f, -0.03318407f, -0.01820516f, -0.01090925f, -0.03733423f, 0.03230760f, -0.02098626f, 0.03366581f, -0.00309659f, 0.04112249f, 0.02229288f, -0.04007964f, 0.02464621f, 0.01771393f, -0.01236350f, 0.00847756f, -0.01396243f, -0.00582101f, 0.00481323f, -0.02897376f, -0.00672427f, -0.00391485f, -0.05020003f, 0.01064969f, -0.00408533f, 0.00256740f, 0.03554098f, -0.00737654f, 0.02661845f, 0.08581803f, -0.00287817f, 0.00622751f, -0.02297925f, -0.01486391f, -0.00280457f, -0.00551090f, 0.04642301f, -0.05921404f, 0.00939315f, -0.00296694f, 0.01049699f, 0.00309250f, 0.00944965f, 0.01934513f},
    {-0.01177571f, -0.06769133f, -0.01938714f, -0.01323577f, -0.01080268f, 0.02909875f, 0.02302908f, 0.00500286f, -0.01163104f, -0.02033494f, 0.00001383f, -0.00468418f, 0.01385643f, 0.08031360f, -0.02586367f, 0.00892593f, 0.04528607f, -0.00340622f, -0.03940671f, 0.01063520f, -0.02855703f, -0.02324740f, -0.03154248f, 0.04941586f, -0.09008411f, -0.01194823f, 0.04239344f, -0.04555051f, 0.01734806f, 0.00458401f, 0.01890156f, 0.03039781f, -0.02164223f, 0.04738647f, 0.01695223f, 0.00418857f, -0.01504568f, -0.01130026f, -0.02766589f, -0.02895176f, -0.01220875f, -0.01680111f, 0.00723203f, 0.01901264f, 0.01532481f, -0.07684445f, -0.02563841f, 0.02376289f, 0.00822027f, 0.00571593f, -0.01499066f, 0.00970589f, -0.07356203f, -0.02359501f, -0.00127277f, -0.00538402f, 0.03723478f, 0.03018634f, 0.03472123f, -0.03305956f, -0.01620701f, 0.00078170f, -0.02133824f, 0.06041974f, 0.00196942f, -0.00625439f, 0.00298993f, 0.02958751f, 0.03291186f, -0.02390938f, 0.00819156f, -0.01442140f, -0.00010721f, 0.00805161f, -0.02216028f, 0.02435435f, 0.02347490f, 0.02820507f, 0.00588300f, -0.00440199f, 0.03987605f, 0.00748446f, -0.09917524f, -0.00265886f, 0.03511788f, -0.02192737f, 0.02966067f, -0.00263102f, -0.00386475f, -0.02164497f, -0.00360305f, 0.02037780f, 0.02690949f, -0.02677039f, -0.00908638f, 0.01374099f, 0.03613736f, 0.02050076f, -0.00309354f, -0.02578795f, 0.01941444f, -0.07445897f, 0.03686709f, -0.00929799f, -0.01131683f, 0.00738502f, 0.00105067f, 0.00868387f, 0.01568047f, 0.00606346f, 0.04005729f, -0.01886799f, 0.03036724f, 0.03569694f, 0.01524775f, 0.00391703f, -0.01571027f, 0.01043977f, -0.05556789f, 0.01751075f, 0.00150838f, 0.02040370f, 0.00057630f, 0.04113692f, -0.01845015f, -0.01426896f, -0.01438099f, -0.01974775f},
    {-0.02111671f, -0.11837769f, 0.01538953f, -0.03442248f, 0.00201342f, 0.01001902f, 0.01150461f, 0.00119677f, -0.00474190f, 0.00566650f, -0.02227355f, 0.00342444f, 0.03886872f, 0.02044538f, -0.01184982f, 0.00457003f, -0.02323036f, -0.01542090f, 0.00014198f, -0.00594605f, -0.00331946f, -0.02782189f, -0.02450696f, 0.02082019f, -0.06596382f, 0.00687866f, 0.00045931f, -0.01778641f, 0.01823056f, -0.02037107f, 0.04707278f, -0.04647135f, -0.01022167f, 0.01116243f, 0.00148733f, 0.03746031f, -0.00303022f, -0.05606294f, -0.04880677f, -0.05624867f, -0.01316666f, -0.00594554f, 0.03437832f, 0.02559547f, -0.01031983f, -0.08476133f, -0.00976266f, -0.01889982f, 0.00447056f, -0.01106588f, -0.09588233f, -0.00643518f, -0.03622119f, 0.03742541f, 0.00572485f, -0.01894161f, -0.00838832f, 0.00237257f, -0.01836973f, 0.02216425f, -0.04031563f, 0.00453468f, -0.02340708f, 0.02285839f, 0.01849432f, -0.01258608f, 0.00104643f, -0.02966198f, 0.02180682f, -0.01073796f, -0.04371171f, 0.00247086f, -0.03423413f, -0.00092050f, -0.01092958f, -0.01862218f, 0.06928300f, -0.01046239f, -0.01944775f, -0.02189495f, 0.00820445f, -0.00714039f, -0.07830892f, 0.00118978f, 0.05082344f, -0.02943083f, 0.03544707f, -0.00625950f, -0.03799548f, 0.00138853f, -0.05754118f, 0.00630720f, 0.05309453f, -0.08998738f, -0.01424107f, 0.02491442f, -0.00895851f, -0.01611912f, 0.00185680f, -0.01914456f, -0.00026213f, -0.07820485f, -0.01270374f, 0.01206853f, -0.00415087f, -0.02341142f, -0.01227649f, -0.00440900f, -0.01173831f, 0.00093991f, -0.04487618f, -0.02500097f, 0.01176355f, 0.01320901f, 0.01959153f, 0.01817369f, 0.02252218f, 0.01799161f, -0.07456755f, 0.00845384f, 0.01081815f, -0.01221326f, 0.02630777f, 0.00461544f, 0.01890211f, 0.03494865f, -0.02657271f, 0.02876789f},
    {0.06653473f, -0.06126472f, 0.04438091f, -0.02675383f, -0.01532290f, -0.00902801f, 0.01931931f, -0.03631289f, 0.00630927f, -0.02100715f, -0.00678234f, 0.00680199f, -0.09256238f, -0.00799383f, 0.03228920f, -0.00175045f, 0.00474346f, -0.00941950f, -0.04402527f, -0.02389244f, -0.02704244f, -0.01265818f, -0.01989760f, -0.03036173f, -0.02487487f, 0.07341783f, -0.00481045f, 0.05724066f, -0.00206388f, 0.01093750f, -0.00087666f, -0.04120861f, -0.01595253f, 0.04202772f, 0.03084029f, 0.07378743f, 0.00580142f, 0.02556674f, 0.02997500f, 0.01334004f, 0.00405607f, -0.00717736f, 0.03319921f, 0.01367927f, 0.02368535f, -0.04699076f, -0.01010900f, -0.06776700f, 0.01573842f, -0.00848561f, 0.04347752f, 0.06851453f, -0.05986898f, 0.01550712f, 0.04339026f, 0.01408286f, 0.00827943f, -0.03585518f, 0.00279122f, 0.01975694f, 0.02597479f, 0.00023099f, -0.00640270f, -0.03119268f, -0.04127020f, 0.00217598f, -0.05152870f, 0.01070367f, 0.01209693f, -0.01847201f, 0.01509472f, 0.07990457f, 0.02696774f, -0.00588261f, -0.02358540f, 0.00358535f, 0.01624426f, -0.00370674f, 0.01352820f, -0.03973281f, -0.00540630f, 0.03101007f, -0.01667736f, -0.00278728f, -0.05170615f, 0.03386773f, 0.00337581f, -0.00417319f, -0.02607062f, -0.02540631f, 0.02518068f, -0.02609271f, 0.01092251f, -0.03624871f, -0.04353126f, 0.03985932f, -0.00472577f, 0.00175943f, 0.08855330f, 0.03164412f, 0.02325229f, -0.05905412f, -0.01273279f, 0.00266589f, -0.01650996f, 0.00646074f, 0.04360138f, -0.01179281f, 0.00299239f, 0.00138544f, 0.00296795f, 0.00827592f, -0.04643136f, -0.01157579f, -0.00425340f, 0.01267477f, -0.03177700f, 0.00950739f, -0.01928522f, 0.02833287f, -0.00088286f, 0.04269170f, 0.00763062f, -0.00686826f, -0.02989799f, -0.00677480f, -0.01051799f, -0.01539620f},
    {0.03618702f, -0.00545670f, -0.00463236f, -0.02269497f, 0.00434947f, 0.02428331f, 0.01520928f, 0.02472225f, -0.00143865f, 0.02631404f, -0.01887386f, -0.00787939f, 0.01052444f, -0.01849775f, -0.00269698f, -0.01522577f, -0.00521928f, 0.01821071f, 0.00657852f, -0.01661720f, 0.04950873f, 0.01351457f, 0.02464465f, 0.00327326f, -0.03751214f, 0.02705215f, -0.00398003f, 0.04570597f, 0.01076243f, -0.01225721f, 0.00273923f, -0.04143810f, 0.00312507f, 0.00257314f, -0.02414868f, 0.01382604f, 0.00068272f, -0.03686879f, -0.03853031f, -0.05069795f, 0.02257631f, 0.02119090f, 0.00001568f, 0.00012831f, -0.02728407f, -0.00321703f, 0.01744239f, 0.02656976f, -0.04836825f, 0.01724152f, -0.09070650f, -0.01446024f, 0.03221166f, 0.05671092f, -0.00136666f, 0.01023916f, -0.01496839f, -0.00393357f, -0.00159457f, 0.02767220f, -0.05119900f, -0.03773291f, -0.05748903f, 0.00864935f, -0.00597677f, -0.01794103f, -0.01347867f, 0.01170343f, -0.00972780f, -0.01034825f, -0.01122881f, 0.03894426f, -0.03479555f, 0.01124708f, 0.01434080f, -0.01325180f, 0.05205074f, 0.00767450f, -0.05464663f, -0.00250706f, -0.02676170f, 0.04119899f, -0.01788124f, -0.02046331f, -0.05568626f, -0.03642555f, -0.00405309f, -0.00894873f, 0.03200484f, 0.02230642f, -0.01553203f, 0.01622296f, -0.02964595f, -0.02829002f, 0.02788009f, 0.00661009f, 0.01176200f, -0.03009744f, 0.03183988f, -0.05579344f, -0.03134267f, -0.02808535f, -0.00449328f, 0.00398881f, 0.06489753f, -0.01261951f, -0.04350100f, 0.02639582f, -0.00277296f, 0.01598237f, -0.01050430f, 0.01790123f, -0.04678422f, -0.01481952f, -0.01463776f, -0.00754902f, 0.01387144f, -0.01977357f, -0.02454588f, 0.00421140f, 0.04140642f, 0.02317777f, 0.03646794f, 0.01970824f, 0.03780012f, -0.02150534f, 0.03245016f, 0.01715371f},
    {0.05355521f, -0.05437809f, 0.00753123f, -0.02161301f, -0.02076953f, -0.00923774f, -0.01901055f, -0.04107992f, -0.02288409f, -0.01088819f, -0.02730372f, 0.00318428f, -0.03287884f, -0.00283759f, 0.00536484f, -0.01029790f, 0.01170357f, -0.00941291f, -0.01270707f, 0.01263656f, -0.05723165f, 0.01529249f, 0.02597838f, -0.00244887f, -0.01058203f, 0.07967146f, -0.00488881f, 0.06124783f, -0.00979124f, 0.02077075f, 0.02508067f, -0.06022145f, 0.00102788f, 0.00198751f, -0.00992293f, 0.07103713f, -0.00980694f, 0.02326407f, 0.01910883f, 0.03300890f, 0.00045229f, 0.03439800f, 0.00755184f, 0.00758888f, -0.00446691f, -0.05397801f, -0.01065746f, -0.05517744f, 0.00215207f, -0.00204967f, 0.02877123f, 0.10469186f, -0.02902975f, 0.02395001f, 0.03406050f, -0.03702580f, -0.02659770f, 0.00199328f, -0.01542239f, 0.02179291f, 0.00899817f, 0.00269682f, -0.02209942f, -0.02260380f, -0.06172756f, 0.02249348f, -0.02927567f, -0.04266934f, -0.00635930f, -0.02616796f, -0.02956958f, 0.03346838f, 0.00397623f, -0.00373979f, -0.04027235f, 0.00151826f, -0.02819080f, -0.02935712f, 0.00243019f, -0.03233264f, 0.03825812f, 0.04926677f, -0.05874101f, -0.00222232f, -0.01687691f, 0.05757252f, -0.00222151f, 0.00336779f, -0.02702574f, -0.03911211f, 0.04244246f, -0.01807840f, 0.03408431f, -0.05616394f, -0.04462949f, 0.01153066f, -0.03867579f, -0.00187733f, 0.06210359f, -0.00519670f, 0.02534531f, -0.05078517f, -0.01913554f, -0.00398367f, -0.01370797f, 0.00258195f, 0.03070879f, -0.00074008f, 0.00078259f, -0.00418605f, 0.00122454f, -0.01143370f, 0.02535821f, 0.00074971f, 0.00085217f, 0.00257953f, -0.00600297f, 0.01454717f, -0.01333958f, -0.00203031f, 0.00944052f, 0.07016847f, 0.01618239f, -0.01002405f, 0.00010547f, 0.04849175f, -0.01894627f, 0.02783840f},
    {-0.00684901f, -0.00406724f, 0.04082017f, -0.00657920f, -0.00316738f, -0.00312792f, 0.05296722f, -0.04671635f, 0.02963368f, 0.00457488f, -0.02464470f, 0.00931191f, -0.00016349f, 0.02366670f, -0.01108435f, 0.01290444f, 0.00385997f, -0.00185137f, 0.00494104f, 0.01726495f, 0.00186792f, -0.00405063f, 0.00405576f, 0.05853990f, -0.02104870f, -0.00956577f, -0.00377835f, -0.02434898f, 0.00033799f, -0.01434169f, 0.00035128f, -0.02223794f, 0.00618058f, -0.00142555f, -0.01205007f, 0.01732318f, -0.00732109f, -0.10165312f, -0.03977179f, -0.02396020f, 0.00029975f, 0.03544371f, -0.02512687f, -0.00575376f, -0.00963790f, -0.01207069f, -0.04029956f, -0.03777266f, -0.01495869f, 0.02038054f, -0.04128394f, -0.00098674f, -0.03027163f, 0.00177397f, 0.00901670f, -0.00850770f, 0.06884540f, 0.00706355f, 0.00855251f, -0.04688235f, -0.09159780f, 0.08508465f, 0.00234389f, 0.07489029f, -0.04626004f, 0.00215320f, -0.03062806f, 0.04860623f, 0.00327590f, 0.01882542f, 0.05789160f, 0.02583355f, -0.02141184f, -0.01698036f, 0.00889910f, -0.00689365f, 0.04101981f, -0.00407666f, -0.03444756f, 0.01582143f, 0.00825893f, 0.02598652f, 0.01243406f, 0.00547476f, 0.01284986f, -0.03956091f, -0.01110708f, -0.03392092f, -0.03290510f, 0.01859647f, -0.02158687f, 0.01308665f, 0.00355111f, 0.01456272f, -0.00919337f, -0.03505628f, 0.00845483f, -0.01626622f, 0.04853172f, 0.04999789f, -0.00492027f, 0.01508847f, 0.02453187f, 0.00641979f, 0.00329755f, 0.00263573f, -0.04464920f, -0.00614762f, -0.00907027f, 0.00233882f, 0.03840778f, -0.00520364f, 0.00004499f, 0.06756531f, -0.00556210f, -0.01349865f, -0.00102253f, -0.04186875f, -0.03318544f, -0.00915981f, 0.04503896f, -0.02642739f, -0.01300996f, 0.00434613f, -0.02310311f, 0.00704405f, 0.02397321f, -0.00516829f},
    {0.03006487f, -0.07859741f, 0.00981931f, -0.02085494f, 0.00105638f, -0.00275514f, 0.00136952f, 0.03659737f, -0.00172124f, -0.00510565f, 0.05121027f, -0.00557054f, 0.00169988f, 0.00242909f, 0.02098987f, 0.01319237f, 0.06898668f, 0.00183768f, -0.02261536f, -0.01011882f, 0.03109636f, 0.02373640f, -0.01499773f, 0.03032082f, -0.05682379f, -0.00705351f, 0.00857880f, -0.01430002f, 0.00467449f, 0.02692343f, 0.00767169f, 0.01154250f, -0.00266246f, 0.02060014f, 0.01812943f, -0.01497521f, 0.00398771f, 0.02140862f, -0.10502147f, -0.08831125f, -0.01287361f, 0.02513575f, 0.00071391f, -0.00874577f, 0.01566949f, -0.03084400f, 0.01667940f, 0.01982580f, 0.00999227f, 0.03716779f, -0.07016622f, -0.05393353f, -0.00718157f, 0.04057640f, 0.00368246f, 0.03225541f, -0.01462108f, 0.03054204f, 0.00273607f, -0.02383643f, -0.03659698f, 0.01056475f, 0.00894147f, -0.01954953f, -0.00160748f, 0.00465193f, 0.01761110f, -0.04670667f, 0.04116963f, -0.00690473f, 0.03390236f, -0.01453007f, 0.00697582f, 0.01796144f, -0.01877069f, 0.00162225f, -0.03457744f, 0.02717290f, -0.04167449f, -0.03718790f, 0.05191827f, 0.01048472f, -0.06647182f, 0.00588065f, 0.03747203f, -0.09363443f, 0.01473258f, -0.00664881f, 0.00538787f, -0.03540796f, -0.04375331f, 0.04058265f, -0.00391195f, -0.06447959f, 0.04875409f, 0.03817401f, 0.00962349f, 0.01919569f, -0.03846487f, -0.01145982f, -0.00694001f, -0.06092416f, 0.01355892f, 0.01173462f, 0.01787443f, 0.00383427f, -0.02293172f, 0.02258628f, -0.00586774f, 0.01310197f, 0.00358535f, 0.00343112f, -0.01155357f, 0.03170343f, 0.00671906f, -0.01042421f, 0.02482264f, 0.06650034f, -0.00971245f, -0.00011338f, -0.00778135f, -0.01944171f, -0.00305609f, 0.00523495f, 0.01660207f, 0.01534749f, 0.02663386f, 0.02543727f},
    {-0.03252180f, 0.02986198f, -0.01585119f, 0.03760445f, -0.01070038f, 0.00143443f, -0.07426260f, -0.04278838f, 0.01105729f, -0.00009161f, 0.04483894f, -0.01291365f, 0.00384763f, -0.01096590f, 0.01180516f, 0.02233083f, 0.02057419f, 0.00213364f, -0.02140725f, 0.00702509f, -0.06312670f, -0.00869576f, -0.01968855f, -0.01311302f, 0.01879138f, 0.02187756f, -0.00893646f, -0.05722314f, 0.00824679f, 0.00404469f, 0.00518369f, -0.00096334f, -0.00126727f, -0.02031351f, 0.00006173f, 0.01453679f, -0.01950522f, -0.00414770f, 0.02989862f, 0.05022983f, 0.01317378f, -0.00503450f, -0.00998914f, -0.00655914f, -0.01121525f, 0.01523731f, -0.00211654f, -0.02456848f, 0.01306099f, -0.03743007f, 0.00698320f, 0.04197317f, -0.00142133f, -0.01980225f, 0.03195582f, -0.00266170f, -0.02031140f, 0.00150678f, -0.03166108f, -0.00372778f, 0.01578015f, 0.00116489f, 0.03875966f, -0.09842124f, -0.06708388f, 0.00304830f, -0.01032454f, 0.00010114f, 0.01701914f, 0.00624442f, -0.01725647f, 0.01388449f, -0.01628780f, -0.02407182f, 0.02128358f, -0.03716097f, -0.09407983f, -0.03002385f, 0.01404554f, -0.02408925f, 0.00205563f, 0.01496742f, -0.00984764f, -0.01867863f, 0.03761576f, 0.07396886f, 0.00241709f, -0.00099157f, 0.02414538f, -0.07409173f, 0.00744836f, 0.04578413f, 0.02118693f, 0.03200066f, -0.04670624f, -0.00111814f, -0.01713100f, -0.00480337f, -0.01700897f, 0.02890056f, 0.03373954f, 0.04561464f, -0.00182150f, -0.01469770f, -0.04742274f, 0.00891330f, 0.03622641f, -0.02371234f, -0.00078010f, -0.00284036f, -0.01924987f, -0.01434463f, -0.03585939f, 0.00809581f, 0.02363810f, -0.01197227f, 0.00101849f, -0.00325419f, 0.02383613f, -0.00513644f, -0.07619899f, 0.00143631f, 0.04126279f, 0.00613432f, 0.01276106f, -0.01596955f, 0.01768744f, -0.00054406f},
    {-0.03564381f, -0.00756316f, -0.05193518f, -0.05879815f, -0.00171158f, 0.00240309f, -0.08120855f, 0.00281897f, -0.02855603f, 0.00956941f, 0.02199720f, -0.00284126f, 0.03907041f, -0.06026400f, -0.02077740f, 0.00284454f, -0.02056175f, -0.00776961f, -0.02209632f, -0.01142959f, -0.00433947f, 0.03033925f, 0.02102756f, 0.00039626f, 0.00520311f, 0.03645660f, -0.00572435f, -0.06257834f, -0.00668842f, -0.00161131f, -0.00353802f, 0.01890061f, -0.00048743f, -0.01994403f, 0.02893976f, 0.03709264f, 0.00162409f, 0.05396738f, 0.02652935f, 0.06016894f, -0.00489484f, -0.00038967f, 0.00175936f, -0.00618627f, -0.04187710f, -0.00702185f, 0.01645705f, 0.03264036f, -0.03968342f, -0.04803801f, 0.01329382f, -0.03032160f, 0.01445900f, -0.02111184f, -0.01379783f, 0.01978461f, -0.04803105f, 0.05556363f, -0.00184638f, -0.00321926f, 0.04143224f, 0.02875080f, -0.02187873f, 0.00127341f, -0.00227375f, 0.00692371f, 0.02473842f, -0.00291864f, -0.00133117f, -0.02102336f, 0.04463682f, 0.01724930f, 0.02921221f, -0.00644253f, 0.00703658f, -0.00109653f, -0.05547563f, 0.01166177f, 0.02669108f, 0.02466772f, -0.02424385f, -0.01142544f, -0.04565996f, 0.01168487f, 0.09500793f, 0.04056250f, -0.02362075f, 0.00116020f, 0.04408505f, -0.00102504f, 0.02792060f, -0.02097404f, 0.01826967f, -0.03236630f, 0.02363349f, 0.03173646f, -0.04982899f, 0.00299244f, -0.07608217f, -0.02545706f, -0.01127640f, -0.03944587f, 0.00847473f, -0.01056967f, -0.01390507f, 0.00049673f, 0.00795993f, 0.00581017f, -0.01579338f, 0.00247486f, -0.01144980f, -0.01444198f, 0.01814652f, -0.03286840f, 0.00092864f, -0.00843087f, 0.00551212f, 0.02726488f, -0.04387847f, 0.00034002f, -0.06487289f, 0.05925104f, 0.04004850f, 0.00408212f, 0.00948558f, 0.01285412f, 0.00879352f, -0.00159126f},
    {0.00585036f, -0.07073420f, -0.00813969f, -0.01153338f, -0.00311516f, -0.01342954f, 0.06937545f, 0.02533305f, 0.00825301f, 0.00182141f, 0.02127485f, 0.00174097f, 0.01574329f, 0.00670295f, 0.01042786f, -0.00594866f, -0.03411054f, 0.00226276f, -0.05616317f, 0.02705286f, 0.00880344f, 0.00896349f, -0.00031421f, -0.06354734f, -0.01458663f, 0.02320455f, -0.00529217f, -0.00342422f, -0.01450804f, -0.00881256f, -0.02077851f, 0.01858968f, -0.00259340f, 0.01058789f, 0.01987073f, 0.03355062f, -0.01458196f, 0.03093640f, -0.01220162f, -0.00962536f, -0.00224591f, -0.03465126f, 0.00103731f, -0.00158309f, 0.01396783f, -0.02742883f, -0.03175591f, -0.00773588f, 0.03127503f, 0.01620946f, -0.00345964f, -0.01578767f, -0.00947745f, 0.00936802f, 0.02414780f, 0.01086304f, -0.00420501f, 0.01061204f, -0.01200911f, 0.11132952f, 0.01452588f, -0.04849714f, -0.00758285f, 0.04860710f, -0.01264285f, 0.00704279f, -0.01171646f, 0.03461932f, 0.00210041f, -0.02819448f, -0.04815409f, 0.01884734f, -0.00999165f, 0.00815990f, -0.01257684f, 0.01768234f, 0.07391661f, -0.01086230f, 0.01574406f, -0.04119403f, 0.01447677f, 0.03104713f, -0.08746607f, 0.00690916f, -0.01408531f, 0.01367149f, 0.00719657f, 0.00397092f, -0.01512754f, 0.06247363f, -0.01415968f, 0.04610028f, -0.00471683f, -0.07812978f, 0.01066985f, 0.01980828f, -0.02247301f, 0.04075630f, 0.02948461f, -0.00774544f, -0.01551019f, -0.04656992f, -0.01104849f, -0.01255452f, -0.02922051f, 0.00131035f, 0.02827828f, 0.01709760f, -0.00351053f, -0.00388899f, -0.03620666f, -0.01031215f, -0.01720991f, 0.00163405f, 0.00579368f, 0.01604161f, -0.01241122f, 0.01307893f, -0.03483911f, -0.00022144f, 0.02142051f, 0.03763916f, 0.02350189f, -0.00225367f, 0.02748418f, 0.01095871f, -0.00223562f, -0.03786217f},
    {0.01233402f, 0.00450657f, 0.03253742f, 0.03227971f, 0.01532446f, -0.00160202f, -0.01480627f, -0.02462526f, -0.02623788f, 0.00739831f, -0.01173472f, -0.00568137f, -0.01443162f, 0.03203189f, 0.01879110f, -0.00873812f, -0.08901309f, 0.00192654f, 0.05044951f, -0.00273601f, 0.03390668f, -0.00692279f, 0.02681295f, -0.05438176f, 0.04159648f, 0.01934896f, 0.00317183f, 0.02590541f, 0.00685347f, -0.00191453f, -0.02966304f, -0.03032478f, 0.00603403f, 0.00281268f, 0.04982177f, 0.01031667f, 0.01087404f, 0.00858409f, 0.04076413f, 0.02105050f, 0.00584946f, 0.00114148f, -0.00210178f, 0.02507443f, 0.01025277f, 0.01116847f, 0.01227871f, -0.02879359f, 0.02839262f, -0.00865456f, 0.00553763f, -0.04427991f, 0.04987177f, 0.04392463f, -0.01913642f, -0.02812651f, 0.05860085f, -0.03295219f, -0.00705341f, 0.04432405f, 0.04991937f, -0.06306856f, -0.00183167f, -0.03932367f, -0.01295050f, -0.00784765f, -0.00307519f, 0.00778470f, -0.03420794f, 0.02966969f, -0.07367248f, -0.01371812f, 0.01686331f, 0.02956005f, 0.03037149f, -0.02956306f, -0.00800287f, 0.00103395f, -0.02754434f, -0.03656755f, -0.00071685f, -0.01439648f, 0.01393659f, -0.01401296f, -0.06565940f, 0.00077515f, 0.01488430f, 0.01723084f, 0.00658473f, -0.03202981f, 0.00415712f, -0.03437052f, -0.01344531f, 0.00425707f, -0.03284829f, 0.02403272f, -0.05495797f, 0.02953365f, -0.01135856f, -0.01019513f, 0.04563723f, 0.01900625f, -0.00608542f, 0.01527923f, 0.01465185f, -0.00034489f, -0.00286361f, 0.00085600f, 0.01834652f, 0.00702061f, -0.04366325f, 0.00857308f, -0.01504017f, -0.04761140f, 0.00345346f, 0.00699932f, 0.00839877f, 0.00451810f, 0.04945021f, 0.02586816f, -0.04324419f, 0.03114177f, 0.02305577f, -0.00329428f, 0.00060926f, -0.06606967f, -0.00322158f, -0.01986217f},
    {0.04016903f, -0.01972857f, -0.03707630f, 0.03460709f, -0.01850478f, 0.00870013f, -0.06848036f, -0.09174988f, -0.01870592f, 0.00011599f, 0.01581581f, 0.01299747f, 0.00341538f, -0.01087793f, -0.00018060f, -0.00210059f, -0.01786556f, -0.01556606f, -0.03444673f, 0.03143504f, -0.05780475f, 0.02247124f, 0.02211489f, 0.00176666f, -0.02370568f, 0.00043807f, -0.00391285f, 0.01903869f, 0.00729281f, -0.00923957f, -0.01573682f, -0.02030077f, -0.00759770f, -0.00426322f, 0.02990461f, 0.03826486f, -0.01280013f, 0.00866231f, 0.00906968f, 0.04870374f, -0.00522427f, 0.00893879f, 0.00189369f, -0.00574458f, 0.00555857f, -0.03480473f, 0.02726195f, -0.06545872f, 0.03757652f, -0.07021819f, 0.01563513f, 0.07294326f, 0.01045690f, 0.04427014f, 0.03762682f, -0.04541699f, 0.00239858f, -0.02106548f, -0.03531162f, 0.03184550f, 0.01423440f, -0.00043730f, 0.00217024f, -0.05240098f, -0.08511231f, 0.01705436f, -0.01771881f, -0.01079463f, 0.04394590f, 0.01173071f, 0.02752063f, -0.00919306f, 0.03535002f, 0.00744144f, 0.04422078f, -0.00366371f, -0.05775770f, -0.00087599f, -0.02312213f, -0.09023599f, 0.02494318f, 0.04900156f, 0.02166564f, 0.01056297f, -0.03556202f, 0.00698669f, -0.01744844f, 0.00219375f, -0.01563626f, -0.06479630f, -0.01446058f, -0.01420891f, 0.00500550f, 0.01074513f, 0.02687227f, 0.03338148f, 0.00384377f, 0.02694868f, 0.04994820f, 0.00341915f, 0.01976635f, 0.02833370f, 0.00908767f, 0.04095887f, -0.00062297f, 0.00629220f, -0.01666480f, 0.01606804f, 0.00875410f, 0.01781469f, 0.00705241f, 0.00438285f, -0.01021467f, 0.01009794f, -0.01845422f, -0.00838824f, 0.03460539f, -0.00881583f, 0.02184143f, -0.02033041f, -0.06130376f, -0.02482453f, 0.02447239f, 0.00067575f, 0.04220375f, 0.00702286f, -0.01148243f, 0.03521086f},
    {-0.03902767f, -0.06894502f, -0.09024429f, -0.03963209f, 0.00336916f, 0.00802860f, -0.05094126f, 0.00030517f, 0.00122565f, 0.01054626f, 0.03814553f, -0.00447488f, 0.04057900f, -0.05197062f, -0.02404620f, -0.00533852f, 0.00821674f, -0.01332382f, -0.02833823f, 0.01861946f, -0.00957779f, 0.02189283f, 0.00046242f, 0.02716247f, 0.00773030f, 0.02596339f, -0.00411112f, -0.05026580f, 0.00946382f, -0.01619542f, 0.00658511f, 0.01659593f, -0.00197412f, -0.02354352f, 0.02542290f, 0.05474864f, -0.02088866f, 0.02664462f, 0.03690863f, 0.02320534f, -0.00403816f, -0.00112662f, 0.01021613f, -0.02307068f, -0.02674633f, -0.02500402f, 0.03256060f, 0.04706830f, -0.02319778f, -0.03966438f, 0.03708851f, -0.01580163f, 0.04979334f, -0.02484221f, -0.00017814f, -0.01552286f, -0.03813812f, 0.05203835f, -0.02289638f, 0.01456635f, 0.00683276f, 0.02275325f, -0.01938165f, -0.08615395f, -0.02490384f, -0.00879666f, 0.00101412f, -0.02499348f, 0.00298003f, -0.01102952f, 0.02401687f, 0.00691504f, 0.04685021f, 0.01130661f, 0.01695970f, -0.02460382f, -0.05458777f, 0.03057911f, 0.04067487f, -0.00348134f, -0.01669813f, 0.01628643f, -0.02444193f, 0.00102894f, 0.09380604f, 0.01511857f, -0.01878623f, 0.00819869f, 0.06320658f, 0.00452966f, 0.05154771f, -0.03047219f, 0.01053501f, -0.00887150f, 0.00994817f, 0.03395137f, -0.03665924f, 0.00299195f, -0.07154420f, -0.03013135f, -0.00237232f, -0.02206739f, -0.00713976f, -0.00593076f, -0.00053330f, 0.00042235f, 0.02949915f, 0.01359967f, -0.00707172f, 0.00886339f, 0.00502333f, -0.00313381f, 0.03163266f, -0.01913824f, -0.00130778f, -0.02344182f, 0.00608154f, 0.02582224f, -0.04142389f, 0.00292028f, -0.02435995f, 0.05483823f, -0.01258343f, -0.00145553f, -0.01551280f, -0.01759270f, 0.00941363f, -0.01540551f},
    {0.03219959f, -0.07446937f, -0.01870306f, -0.04047691f, 0.00858109f, 0.00512792f, -0.01531150f, 0.00516208f, -0.01436866f, 0.01596121f, 0.00191766f, -0.00867255f, -0.00352393f, 0.01240349f, -0.00386035f, 0.02681465f, 0.04382022f, 0.01580321f, -0.03358128f, -0.00356032f, 0.03058617f, -0.00221859f, 0.00963509f, -0.00146751f, -0.09137351f, -0.00411774f, 0.00208200f, -0.01306081f, -0.03009214f, -0.00681006f, -0.00498095f, 0.01542541f, 0.00471088f, -0.00286095f, 0.00679399f, -0.01332065f, -0.00448843f, 0.02796462f, -0.08205266f, -0.07967701f, -0.02619914f, -0.00646070f, 0.02898728f, -0.00869773f, 0.00057899f, -0.11043828f, 0.00082298f, -0.00923050f, -0.01890521f, -0.02890191f, -0.06955436f, -0.02889542f, 0.02488716f, -0.00093677f, -0.00851846f, -0.00417392f, -0.02156222f, 0.03201066f, -0.00432145f, 0.01971080f, -0.01119400f, -0.00497874f, 0.00730369f, -0.01346062f, 0.03622568f, -0.00479625f, -0.00227564f, -0.00226984f, 0.03139904f, 0.03801629f, -0.00083739f, -0.02613222f, -0.01692316f, 0.01576858f, -0.00584946f, 0.00267711f, 0.01260464f, -0.03074858f, -0.01084446f, 0.00339627f, 0.04236088f, -0.01005319f, -0.10246369f, -0.01808541f, -0.00890818f, -0.06282108f, 0.00329580f, -0.00638570f, 0.00664251f, -0.01820968f, -0.05381976f, 0.02730636f, 0.01698083f, -0.02289347f, 0.01433871f, 0.03218609f, -0.00126531f, 0.01346281f, -0.02068936f, 0.00944129f, -0.00442769f, -0.09645426f, -0.00029363f, 0.04776539f, 0.03668467f, -0.01898500f, -0.00273610f, -0.00654131f, 0.00032796f, -0.00572416f, 0.01607350f, 0.01356561f, -0.03379603f, -0.00389136f, -0.01214727f, 0.02236891f, 0.01628077f, -0.01564216f, -0.02640647f, -0.00554281f, 0.00617200f, -0.02545607f, 0.02940222f, 0.01075214f, 0.00166177f, 0.02594982f, 0.01729198f, 0.02904391f},
    {-0.00360993f, 0.01629378f, 0.01465479f, 0.03217330f, 0.00129207f, -0.00749948f, -0.05410051f, -0.00751872f, 0.02552252f, -0.01117422f, -0.00068007f, -0.00435850f, 0.02739877f, 0.00231431f, -0.00915205f, 0.00366031f, -0.09527916f, -0.00285613f, -0.00155407f, 0.00429298f, -0.00025095f, -0.00567592f, 0.02744878f, -0.00184721f, -0.00980666f, 0.01548054f, 0.00689391f, -0.01008193f, -0.00462348f, -0.01863422f, -0.01380696f, 0.00735923f, -0.00754963f, 0.01059721f, -0.00706892f, -0.02927554f, 0.00032122f, -0.02248001f, 0.01056899f, -0.00810005f, -0.00264474f, -0.01482718f, 0.02717166f, 0.01290893f, 0.01680008f, 0.05680816f, 0.00340059f, -0.00568632f, -0.00498523f, -0.01179178f, -0.05324902f, -0.03401634f, 0.02885570f, 0.01802549f, -0.01358776f, -0.01835018f, 0.03800653f, 0.03898322f, 0.03034032f, 0.02093715f, 0.02163854f, -0.02331036f, 0.00538659f, -0.09346415f, -0.00065476f, 0.00192286f, 0.02125740f, 0.02094582f, -0.00689830f, 0.06540264f, 0.00234758f, -0.03196391f, 0.03479838f, 0.01812656f, 0.00786651f, -0.00477614f, -0.06217990f, 0.04068534f, -0.01098432f, 0.00337582f, 0.03262777f, -0.04258912f, 0.03063896f, 0.00336323f, -0.04386880f, -0.01656789f, 0.00641103f, 0.00060771f, 0.02932571f, -0.06526473f, -0.01199089f, -0.03214898f, 0.00078474f, 0.07898588f, -0.02221751f, 0.01258613f, -0.06018088f, 0.01800802f, -0.02471771f, 0.04634789f, -0.01369015f, 0.03387051f, 0.01770566f, 0.01399366f, 0.04063019f, -0.00199110f, -0.00745993f, 0.00291585f, 0.00925801f, 0.00465294f, -0.05148111f, 0.00250143f, -0.02543485f, 0.02673813f, 0.00688110f, 0.00360709f, -0.01747512f, 0.01194021f, 0.04650380f, 0.00957177f, -0.04707407f, -0.00859568f, -0.01795732f, 0.00062201f, 0.02557241f, -0.01304142f, 0.02722693f, -0.00832637f},
    {0.06224284f, 0.01233477f, -0.02436654f, 0.01657301f, 0.01186045f, 0.01985195f, 0.03917144f, -0.03391448f, 0.05807078f, -0.01054569f, -0.01567199f, -0.00240244f, -0.01229142f, -0.01431139f, -0.06712772f, 0.03015710f, -0.01768254f, 0.00520784f, -0.05004504f, 0.01345328f, 0.01384719f, -0.00935191f, -0.02311489f, -0.02851541f, 0.02523624f, -0.00558008f, -0.00996089f, 0.02395352f, 0.00699451f, 0.02645217f, -0.00141114f, -0.06015624f, -0.00664093f, 0.02081755f, 0.04671802f, 0.03131311f, -0.01005044f, 0.02685005f, 0.02986743f, 0.01884963f, -0.00258371f, 0.04179952f, 0.02586833f, -0.03044029f, 0.01255103f, -0.01330580f, -0.03795883f, 0.00888054f, 0.01210970f, 0.00078985f, 0.00133927f, -0.01240290f, -0.04049005f, 0.01204293f, -0.00489991f, 0.01214198f, -0.00696898f, -0.07452399f, 0.00470907f, 0.00665246f, 0.00370669f, -0.03928206f, -0.06477225f, 0.03476845f, 0.04765936f, 0.01685560f, -0.03955312f, 0.02607261f, -0.00204417f, -0.01014088f, -0.04222205f, 0.00912445f, -0.02482365f, 0.03157979f, -0.05246362f, -0.02706873f, -0.02600253f, -0.01646835f, 0.02452832f, -0.02979176f, 0.01682362f, 0.03326591f, 0.05656197f, 0.00830700f, -0.11186849f, 0.01327324f, -0.03561039f, -0.01321831f, -0.01578579f, 0.00001562f, 0.03056181f, 0.03680388f, -0.01144119f, 0.00408826f, -0.02200387f, 0.02784620f, -0.04956238f, 0.02962635f, 0.04917140f, 0.04113406f, 0.03972155f, -0.02134131f, 0.01507840f, 0.00132492f, -0.03982573f, -0.00435613f, 0.01405679f, -0.01030460f, -0.00528932f, -0.00711821f, -0.01990952f, -0.00169148f, -0.02850435f, -0.00243097f, 0.01208515f, 0.01049002f, -0.01348255f, 0.02074191f, -0.01143388f, -0.03579222f, 0.02781963f, -0.00892381f, -0.03321803f, 0.00018977f, -0.06841295f, 0.00272876f, -0.02467757f, 0.05494022f},
    {-0.01562901f, -0.00926995f, 0.00350485f, -0.02285052f, -0.01461222f, 0.01682991f, 0.04328118f, -0.02054523f, -0.04085825f, -0.01502386f, 0.02329301f, 0.00724122f, 0.02302826f, 0.02038622f, 0.01182823f, -0.02145973f, 0.04528691f, 0.00321909f, 0.00491499f, 0.00495388f, -0.04789115f, -0.02140156f, -0.04663471f, 0.00793786f, -0.00799176f, 0.02335535f, 0.00179555f, -0.02807321f, -0.02681368f, -0.01604905f, 0.03177141f, -0.00446850f, -0.01836484f, 0.01938196f, -0.00956946f, 0.00747826f, -0.00638553f, -0.01466703f, -0.00773134f, -0.00059474f, -0.00131982f, -0.03987342f, 0.01877596f, 0.01384941f, 0.01633121f, -0.06872324f, -0.04492453f, -0.05084843f, 0.01452661f, 0.01021712f, 0.04822364f, 0.05834743f, 0.06607586f, 0.01405394f, 0.04375566f, -0.00795898f, 0.04907143f, 0.00622385f, 0.01521620f, 0.03518669f, -0.03038675f, 0.03099700f, 0.03131134f, 0.01190930f, -0.05371289f, -0.00539564f, 0.02525139f, 0.02873368f, 0.00309870f, -0.03110355f, 0.00195886f, -0.01196956f, 0.00788526f, -0.01850231f, -0.02017918f, 0.02221822f, 0.06742244f, 0.02322369f, -0.00419861f, -0.01210881f, 0.01539505f, 0.07823779f, -0.06349716f, -0.00555376f, 0.05534307f, -0.06900753f, 0.01441973f, 0.02077895f, -0.05743909f, 0.01703409f, -0.04309254f, 0.02335707f, 0.02536592f, -0.05414570f, 0.01893116f, 0.02224299f, 0.03175199f, -0.00395622f, 0.00708071f, -0.04123035f, -0.02689851f, -0.03382867f, 0.00153416f, -0.00399805f, 0.00023815f, 0.00463821f, -0.00365135f, 0.01198935f, 0.00032835f, -0.00094405f, 0.04593733f, 0.01828438f, 0.01155552f, 0.03191058f, -0.00101698f, 0.01406262f, -0.01601265f, -0.00624742f, -0.05874089f, 0.00384297f, 0.04522463f, -0.01630591f, -0.01334809f, -0.01280075f, -0.00437899f, 0.00308513f, -0.01900529f, -0.03300893f},
    {0.02386879f, 0.04672883f, -0.01490817f, 0.09590973f, 0.00960692f, -0.01004451f, -0.01397483f, 0.02361013f, -0.00091772f, 0.01037851f, 0.03992150f, -0.00483291f, -0.01632868f, -0.00826338f, 0.00706140f, -0.00233684f, 0.00348927f, -0.01225170f, -0.01905247f, 0.03084818f, -0.03635831f, 0.00544400f, 0.02726289f, -0.01134602f, 0.10443446f, 0.02989448f, 0.00194952f, 0.01485007f, 0.00271723f, -0.00306232f, -0.00210260f, 0.04552593f, -0.00596652f, 0.00197003f, 0.01733519f, 0.00972469f, -0.01586700f, 0.04698499f, 0.02258558f, 0.07221542f, 0.02248889f, -0.00843538f, -0.00665427f, 0.00376166f, -0.01741287f, 0.05810530f, -0.01247513f, -0.00111771f, 0.00564070f, -0.02610194f, 0.05110224f, 0.00721853f, -0.02943625f, -0.02057125f, -0.01623549f, -0.01299526f, -0.05167013f, -0.00410096f, -0.01734180f, 0.04114553f, 0.02136888f, -0.01210771f, 0.01630478f, -0.01647411f, -0.01373840f, 0.03174380f, -0.01506606f, 0.01503493f, -0.01026495f, 0.02524967f, 0.00752454f, 0.02261091f, 0.01152283f, -0.01436296f, -0.01913928f, -0.02565815f, -0.02625778f, -0.01143088f, 0.02014552f, 0.00184562f, 0.00292034f, 0.00331467f, 0.05461491f, -0.00970762f, 0.01982844f, 0.03875378f, -0.04682733f, -0.00525590f, -0.01008296f, 0.02438021f, -0.00208637f, 0.03524717f, -0.02581032f, 0.04988609f, -0.02742043f, 0.02916851f, 0.02134169f, 0.00027791f, 0.00922284f, 0.01231312f, 0.03218956f, 0.10891128f, -0.01910044f, 0.00071259f, -0.03055020f, -0.01073243f, 0.03680137f, -0.02182557f, -0.00101693f, -0.00307632f, -0.00230008f, -0.01070139f, -0.04906337f, -0.01941837f, -0.00562909f, 0.01208652f, -0.02896797f, 0.00990899f, 0.05371850f, 0.01232609f, -0.01784156f, 0.03766496f, 0.03732354f, -0.00720381f, -0.03564868f, 0.00005461f, -0.01697489f, -0.01830236f},
    {-0.02242447f, 0.02531861f, 0.03360068f, 0.00610977f, -0.00930478f, -0.00673764f, -0.01871148f, -0.07370731f, -0.01183564f, 0.01184478f, -0.01776291f, 0.02718688f, -0.01782310f, 0.00890274f, 0.02453742f, -0.03433840f, -0.02048871f, -0.00334971f, -0.06382141f, -0.00087822f, -0.07219779f, 0.02905592f, -0.06787822f, 0.02002418f, -0.01355815f, 0.00620958f, -0.00052577f, -0.00160589f, -0.01434648f, 0.02327012f, -0.01379527f, 0.04132618f, 0.01380175f, -0.00063281f, -0.00628334f, 0.03737431f, -0.01593505f, 0.01764173f, 0.00655973f, -0.03345193f, -0.02007762f, -0.02045124f, 0.00409621f, -0.03217421f, 0.02099831f, 0.01924239f, 0.01952077f, -0.05677125f, 0.01986770f, 0.00625501f, 0.02331060f, 0.03580508f, -0.01729000f, -0.01311144f, -0.01010758f, -0.10299281f, -0.00744165f, -0.00575391f, -0.03372408f, -0.02050794f, 0.03501918f, 0.00952852f, 0.00403688f, -0.00096167f, -0.08144878f, -0.00117610f, -0.05982751f, -0.02751435f, 0.03155205f, -0.04041264f, 0.01115483f, -0.00042163f, 0.02464780f, -0.01617446f, 0.01926268f, 0.01309343f, -0.00430009f, -0.02100862f, 0.01934658f, -0.08622856f, 0.05201485f, -0.01201061f, 0.01140899f, -0.01301292f, 0.04847912f, 0.00686370f, 0.00065317f, -0.00944712f, 0.03152392f, -0.00427081f, -0.00668253f, 0.00050311f, 0.02471345f, -0.01977241f, -0.02175703f, 0.01633382f, -0.03722464f, -0.01315643f, -0.03601781f, 0.01877570f, -0.00820209f, 0.00017370f, 0.00206336f, -0.01087871f, -0.00873357f, 0.01208962f, 0.01015462f, 0.01873492f, 0.00556253f, -0.00062476f, -0.03125873f, -0.03722545f, 0.01435890f, 0.04018552f, 0.00962189f, 0.00988480f, 0.01324115f, 0.00441705f, 0.01835964f, -0.00923776f, 0.00046754f, -0.08666047f, 0.01683962f, 0.00481216f, 0.02911951f, 0.03653168f, 0.02244104f, 0.01184201f},
    {-0.01757256f, 0.02509897f, -0.00624054f, 0.00940290f, 0.00704380f, -0.00412314f, -0.09383775f, -0.06551544f, 0.03018555f, -0.00052617f, 0.00348270f, -0.01344036f, -0.05859841f, 0.05105957f, 0.04462050f, 0.00816665f, -0.01716963f, -0.00486595f, -0.02626624f, 0.01477129f, -0.01690689f, -0.03119749f, 0.03844743f, 0.02823412f, -0.03086984f, -0.02719540f, 0.01898645f, 0.02494051f, 0.02231123f, 0.03044628f, 0.00658787f, -0.02009012f, 0.00575508f, -0.00996502f, 0.01703431f, -0.00896758f, -0.00274450f, 0.00611723f, -0.01671045f, -0.00604753f, -0.02004719f, 0.01416205f, 0.00147122f, -0.01086193f, 0.02389301f, 0.03209371f, -0.00176531f, -0.04553600f, 0.02549228f, -0.01793478f, 0.00558950f, -0.06252602f, -0.00656662f, -0.05449703f, -0.03682377f, -0.04094039f, 0.02801103f, 0.02399686f, 0.00128488f, 0.00844832f, -0.00421748f, 0.05410914f, 0.02464250f, -0.07125504f, -0.00599847f, -0.00631038f, 0.00693148f, -0.02980873f, 0.04206909f, 0.00538546f, 0.05209490f, -0.03384956f, 0.00087212f, -0.01439628f, 0.03927068f, 0.03750483f, -0.05376600f, -0.01593868f, 0.04032595f, -0.06100810f, 0.03794477f, -0.02602398f, 0.02685540f, -0.02257100f, 0.01794153f, 0.00811929f, 0.00687548f, 0.00290820f, -0.01020410f, -0.01748639f, -0.01011433f, 0.06314262f, 0.01814974f, 0.00285301f, 0.02484245f, -0.00063246f, 0.01987933f, 0.00871192f, -0.04555931f, 0.04679862f, -0.06464373f, 0.03174148f, 0.06393230f, 0.04027248f, 0.00971909f, -0.00779924f, -0.04030737f, -0.04359412f, 0.02452186f, 0.01525551f, 0.03301578f, -0.00192557f, -0.00439775f, 0.06136640f, 0.00903038f, -0.00408742f, 0.04291074f, -0.00814118f, 0.02187506f, 0.00444803f, -0.05511919f, -0.05501799f, 0.01275124f, 0.01705353f, 0.01099051f, 0.00175387f, -0.03199779f, 0.01904629f},
    {-0.00238226f, -0.08885355f, -0.04969089f, -0.03980595f, -0.00013166f, 0.01555476f, -0.10184179f, 0.00131181f, -0.02191475f, 0.00433250f, 0.02383951f, 0.00488054f, 0.00376530f, -0.01109777f, 0.01769649f, 0.00404991f, -0.01050160f, -0.00015273f, 0.05272183f, -0.01191248f, 0.03864828f, 0.05078861f, 0.03781372f, 0.01817921f, -0.01228541f, 0.01417819f, -0.00527148f, -0.01616533f, -0.01074375f, 0.00969107f, 0.01219074f, 0.01098700f, -0.00088711f, 0.00386874f, 0.01249953f, 0.03552609f, 0.00147165f, 0.03063528f, 0.02757991f, 0.02340083f, 0.01568181f, 0.00128419f, 0.00724573f, 0.00028603f, 0.00160447f, -0.08880296f, 0.03741305f, 0.00243331f, -0.01093982f, -0.03860057f, 0.01495663f, -0.01608559f, 0.00975904f, 0.01136650f, 0.01706403f, 0.00527634f, -0.00639269f, 0.01155532f, 0.00495085f, 0.03686283f, 0.03966133f, 0.00550321f, 0.00477641f, -0.05542872f, 0.03047644f, -0.00622021f, 0.00988240f, 0.00045922f, 0.00880695f, 0.01104467f, -0.00639880f, 0.04206268f, 0.02618942f, -0.01731811f, 0.01211276f, -0.02018661f, -0.06324684f, 0.01275941f, 0.06297562f, 0.02135009f, -0.02621106f, 0.00481472f, -0.03979611f, 0.00119988f, 0.04917943f, 0.02101980f, -0.01138417f, -0.00395161f, 0.06905221f, -0.03620430f, 0.00067216f, -0.03489038f, 0.00982854f, -0.01718136f, 0.04416844f, 0.01277821f, -0.01865585f, 0.00853593f, -0.01594574f, -0.05909621f, 0.03601853f, -0.05390786f, -0.03370452f, 0.00538908f, 0.00213703f, -0.01414450f, -0.00464920f, -0.00510040f, 0.01025431f, -0.00815489f, 0.00247660f, 0.00120788f, -0.05526558f, -0.01179104f, -0.01411177f, 0.00842977f, -0.00268223f, -0.00949847f, -0.07430205f, -0.00263518f, -0.08604334f, 0.05754899f, -0.01139935f, -0.00440479f, 0.03148756f, -0.00066257f, 0.00535392f, 0.02598043f},
    {0.01442012f, -0.01200065f, 0.00846853f, -0.01985482f, 0.01516393f, 0.01253573f, -0.01777271f, -0.06335487f, -0.04339178f, 0.00457011f, -0.02620723f, -0.01005703f, -0.03435297f, 0.00320674f, -0.01495144f, -0.01378101f, -0.05188787f, -0.00603716f, 0.01020629f, -0.02254294f, -0.08967237f, 0.00971004f, -0.00368777f, 0.00184105f, -0.01489524f, 0.03016919f, -0.00130168f, 0.00759211f, -0.00809861f, 0.00247146f, 0.02701713f, -0.01398016f, 0.00733712f, 0.03969505f, 0.01577584f, 0.02297921f, 0.02018518f, 0.01470724f, 0.01369627f, 0.02312289f, -0.00270707f, 0.05091909f, 0.00151636f, 0.00563564f, 0.02357310f, -0.01627017f, 0.07047876f, -0.08169036f, 0.01181956f, -0.03830874f, 0.04499236f, 0.07371527f, 0.02157755f, 0.01465664f, 0.03017999f, -0.02816443f, 0.01653434f, -0.00911960f, -0.01825283f, 0.05974776f, 0.03477512f, 0.03362110f, -0.02894993f, -0.06679974f, -0.05893893f, 0.01670736f, -0.04872788f, 0.00098713f, 0.00949600f, 0.00590419f, -0.01638214f, 0.00867533f, 0.04061545f, 0.00801093f, 0.01905116f, 0.02595069f, -0.01738912f, 0.02989205f, 0.01890609f, -0.07265744f, 0.00464498f, -0.00581754f, 0.01065994f, -0.00949434f, -0.08715540f, 0.00524453f, 0.02407563f, 0.02407965f, -0.01322886f, 0.01898361f, 0.03978992f, -0.02046754f, 0.02017724f, -0.01538669f, -0.02285665f, 0.04161343f, -0.01164394f, -0.01400872f, 0.02498294f, -0.04434279f, 0.02184518f, -0.00996879f, -0.00473823f, 0.00309315f, 0.02627619f, -0.00435411f, -0.00814495f, 0.03191642f, 0.01185085f, 0.00198283f, -0.02109349f, 0.02844817f, -0.05606631f, -0.02113047f, -0.00341171f, 0.02232350f, 0.02857292f, 0.02714790f, -0.00936565f, -0.00194864f, -0.04855935f, 0.02833265f, -0.00006878f, -0.00181634f, 0.02784728f, -0.01167496f, -0.01111367f, 0.00855701f},
    {-0.00766193f, -0.05738980f, -0.05813688f, -0.00600622f, -0.00321733f, -0.00707394f, -0.03742843f, 0.00911834f, 0.01169761f, 0.00125726f, 0.00291169f, 0.00236108f, 0.01506086f, -0.02606641f, 0.00337380f, 0.00995613f, -0.02281948f, 0.00210839f, 0.00922947f, 0.02384639f, -0.01968195f, 0.03314201f, 0.00935604f, 0.04176686f, 0.02514246f, 0.02740416f, -0.00461828f, -0.01259798f, 0.00333872f, -0.00211065f, -0.00714527f, -0.02925646f, 0.00560549f, -0.01665905f, -0.00611609f, 0.01323300f, -0.01584635f, 0.01950250f, 0.05058828f, 0.03736188f, 0.00747061f, -0.00441536f, -0.01957286f, -0.00025902f, -0.01548571f, -0.01143488f, -0.00797340f, -0.01184189f, -0.02154151f, -0.07088050f, 0.04816648f, -0.01054105f, 0.02396757f, -0.01689818f, 0.01190870f, -0.01899359f, -0.06528462f, 0.00550185f, 0.03153314f, -0.02921410f, 0.05066051f, -0.00025975f, -0.00881691f, -0.09072007f, 0.01674308f, 0.00000780f, -0.01779565f, -0.03434766f, 0.02196492f, 0.01289664f, 0.01330036f, 0.00962792f, -0.00413847f, -0.02816931f, -0.01166824f, 0.01660495f, -0.04355827f, -0.00496564f, 0.05597751f, 0.03968274f, 0.01620253f, -0.02455256f, -0.03405355f, -0.00143006f, 0.09877745f, 0.01951456f, -0.01585515f, -0.01352193f, -0.00460397f, -0.06335211f, 0.02969708f, -0.01474390f, -0.02693916f, 0.01991794f, -0.02590276f, 0.00640733f, 0.00103479f, -0.00384606f, -0.02515437f, -0.02898771f, 0.01722698f, -0.02439304f, -0.00966876f, 0.00822462f, -0.02728784f, -0.00878057f, 0.04419409f, 0.00510888f, 0.00102468f, -0.01480556f, 0.01304498f, 0.01077760f, 0.02940170f, 0.01115677f, 0.00296046f, -0.00252712f, 0.00051657f, 0.00952020f, -0.03461093f, 0.00590282f, -0.07152718f, 0.04650110f, 0.00461874f, 0.00263205f, -0.01662515f, 0.00781183f, -0.00824380f, 0.00716693f},
