{
  "architecture": {
    "latent_dim": 2,
    "output_dim": 2,
    "num_classes": 0,
    "embed_dim": 64,
    "conditional": false
  },
  "layers": [
    {
      "index": 0,
      "in_features": 2,
      "out_features": 128,
      "activation": "relu",
      "use_bn": true,
      "conditional": false
    },
    {
      "index": 1,
      "in_features": 128,
      "out_features": 256,
      "activation": "relu",
      "use_bn": true,
      "conditional": false
    },
    {
      "index": 2,
      "in_features": 256,
      "out_features": 2,
      "activation": "tanh",
      "use_bn": false,
      "conditional": false
    }
  ],
  "parameters": {
    "gen_0_weight": [
      [
        -0.009217930026352406,
        0.014651208184659481
      ],
      [
        -0.032676395028829575,
        -0.02964802086353302
      ],
      [
        -0.0321677103638649,
        0.005885208025574684
      ],
      [
        -0.0026598097756505013,
        0.014860669150948524
      ],
      [
        -0.031010542064905167,
        0.0029181831050664186
      ],
      [
        0.009141623042523861,
        0.0021291833836585283
      ],
      [
        0.02038746140897274,
        0.010108030401170254
      ],
      [
        -0.03313653543591499,
        0.006027169991284609
      ],
      [
        -0.027087971568107605,
        0.012867589481174946
      ],
      [
        -0.04817250743508339,
        -0.0008541375282220542
      ],
      [
        -0.00027675414457917213,
        -0.015475520864129066
      ],
      [
        0.030622873455286026,
        0.004557731095701456
      ],
      [
        0.027552559971809387,
        0.0349268913269043
      ],
      [
        0.019463805481791496,
        0.014378752559423447
      ],
      [
        0.008333089761435986,
        0.02293642982840538
      ],
      [
        0.008043089881539345,
        0.0028890541289001703
      ],
      [
        0.01914832927286625,
        -0.020562374964356422
      ],
      [
        -0.011214575730264187,
        -0.009004119783639908
      ],
      [
        -0.003870198968797922,
        -0.0009463411988690495
      ],
      [
        -0.013662477023899555,
        -0.0015173424035310745
      ],
      [
        0.03988494724035263,
        0.005454759579151869
      ],
      [
        0.01915239915251732,
        0.013668138533830643
      ],
      [
        0.0016488425899297,
        0.001193441217765212
      ],
      [
        0.030624518170952797,
        0.010331923142075539
      ],
      [
        0.011923287995159626,
        -0.010005500167608261
      ],
      [
        0.013408039696514606,
        -0.022096628323197365
      ],
      [
        0.0064771343022584915,
        0.027372553944587708
      ],
      [
        -0.04259001463651657,
        -0.02916678786277771
      ],
      [
        0.004711816553026438,
        -0.041720543056726456
      ],
      [
        -0.0045502157881855965,
        -0.018593020737171173
      ],
      [
        -0.013384201563894749,
        0.0029980505350977182
      ],
      [
        0.02936130203306675,
        -0.01391691341996193
      ],
      [
        0.003677090397104621,
        -0.01848297379910946
      ],
      [
        0.02679622173309326,
        -0.022969715297222137
      ],
      [
        0.009096469730138779,
        0.007512805983424187
      ],
      [
        0.00033676548628136516,
        0.00043203169479966164
      ],
      [
        0.007907127030193806,
        0.013716910034418106
      ],
      [
        -0.03303492069244385,
        -0.01814335584640503
      ],
      [
        0.009799678809940815,
        0.0050104414112865925
      ],
      [
        -0.005601856857538223,
        0.007099307607859373
      ],
      [
        0.014555484987795353,
        0.00666050286963582
      ],
      [
        0.01708945818245411,
        0.0006514265551231802
      ],
      [
        0.0096212113276124,
        -0.015422157011926174
      ],
      [
        -0.006037536077201366,
        0.002107800217345357
      ],
      [
        0.010149586945772171,
        0.03462553769350052
      ],
      [
        -0.0002778530470095575,
        0.022685103118419647
      ],
      [
        0.02109629474580288,
        -0.011051489971578121
      ],
      [
        -0.013365623541176319,
        -0.004437724594026804
      ],
      [
        -0.017635919153690338,
        0.004933275748044252
      ],
      [
        0.004778191447257996,
        -0.021451273933053017
      ],
      [
        -0.0066404216922819614,
        -0.016382090747356415
      ],
      [
        -0.01075309980660677,
        0.04010048136115074
      ],
      [
        0.042766038328409195,
        0.02903536707162857
      ],
      [
        0.005295258481055498,
        3.3972610253840685e-06
      ],
      [
        -0.03174132853746414,
        -0.017691252753138542
      ],
      [
        -0.003998391330242157,
        0.041204288601875305
      ],
      [
        0.0006192283472046256,
        0.006819708272814751
      ],
      [
        0.043143924325704575,
        0.03373178094625473
      ],
      [
        0.007683531381189823,
        0.012295372784137726
      ],
      [
        -0.0031868796795606613,
        0.015084359794855118
      ],
      [
        -0.005694974679499865,
        -0.02086646668612957
      ],
      [
        -0.022066554054617882,
        0.012210531160235405
      ],
      [
        -0.005450029391795397,
        0.02277359738945961
      ],
      [
        -0.008770223706960678,
        -0.008652950637042522
      ],
      [
        0.012994445860385895,
        -0.0006793188513256609
      ],
      [
        0.0005909598548896611,
        0.00636571180075407
      ],
      [
        0.03079177625477314,
        -0.01727638952434063
      ],
      [
        -0.014464841224253178,
        0.001217810669913888
      ],
      [
        -0.024394387379288673,
        -0.044861700385808945
      ],
      [
        -0.001876594265922904,
        0.02056439220905304
      ],
      [
        0.02339053899049759,
        -0.0026893713511526585
      ],
      [
        -0.011035238392651081,
        0.021286414936184883
      ],
      [
        -0.0037114829756319523,
        -0.016202062368392944
      ],
      [
        -0.01204482652246952,
        -0.011197996325790882
      ],
      [
        0.021614324301481247,
        0.0008239577291533351
      ],
      [
        0.0003286644641775638,
        -0.002796570537611842
      ],
      [
        0.013449475169181824,
        -0.03668452426791191
      ],
      [
        0.01942896470427513,
        0.022978363558650017
      ],
      [
        -0.004473538603633642,
        -0.0034717521630227566
      ],
      [
        -0.0036716896574944258,
        0.015780147165060043
      ],
      [
        0.00947190634906292,
        -0.030387533828616142
      ],
      [
        -0.006146667990833521,
        0.01558453869074583
      ],
      [
        -0.011223099194467068,
        -0.01004922203719616
      ],
      [
        -0.004718573298305273,
        -0.028056060895323753
      ],
      [
        -0.012437168508768082,
        -0.012098644860088825
      ],
      [
        0.003864570986479521,
        0.0035175143275409937
      ],
      [
        0.024342363700270653,
        -0.007863761857151985
      ],
      [
        -0.008158047683537006,
        0.01546042412519455
      ],
      [
        -0.010678759776055813,
        0.021804243326187134
      ],
      [
        -0.0037022545002400875,
        0.03305291011929512
      ],
      [
        0.018822263926267624,
        0.002379452344030142
      ],
      [
        0.011303285136818886,
        0.022827642038464546
      ],
      [
        0.01909692957997322,
        -0.02049540914595127
      ],
      [
        -0.0060438732616603374,
        -0.016556592658162117
      ],
      [
        -0.0009621282806620002,
        0.025520620867609978
      ],
      [
        0.0201204065233469,
        -0.009616326540708542
      ],
      [
        -0.024571793153882027,
        0.012906321324408054
      ],
      [
        -0.01903962343931198,
        0.002020189305767417
      ],
      [
        -0.01031758077442646,
        -0.018160661682486534
      ],
      [
        -0.008362533524632454,
        0.020767133682966232
      ],
      [
        0.031005244702100754,
        -0.003261545207351446
      ],
      [
        -0.006508737336844206,
        0.00550810294225812
      ],
      [
        0.0041181473061442375,
        -0.01525915414094925
      ],
      [
        -0.02176620438694954,
        0.025012053549289703
      ],
      [
        0.018387960270047188,
        -0.017157353460788727
      ],
      [
        0.0007953834137879312,
        0.0002160601143259555
      ],
      [
        0.006719827651977539,
        0.019766896963119507
      ],
      [
        -0.027206823229789734,
        -0.027032408863306046
      ],
      [
        -0.014959041029214859,
        0.011147910729050636
      ],
      [
        0.00971564557403326,
        -0.012856624089181423
      ],
      [
        0.05486365780234337,
        0.04086073115468025
      ],
      [
        0.046514030545949936,
        -0.015845071524381638
      ],
      [
        0.03575999662280083,
        0.013486392796039581
      ],
      [
        -0.008200216107070446,
        -0.012686445377767086
      ],
      [
        -0.008997345343232155,
        -0.013809439726173878
      ],
      [
        -0.027803990989923477,
        -0.025593822821974754
      ],
      [
        -0.006540829315781593,
        -0.004938229452818632
      ],
      [
        -0.01653662882745266,
        -0.016617121174931526
      ],
      [
        -0.01095717865973711,
        0.0013569757575169206
      ],
      [
        0.0066474974155426025,
        0.0025183423422276974
      ],
      [
        0.028068579733371735,
        -0.0009984185453504324
      ],
      [
        0.011160028167068958,
        0.004347874782979488
      ],
      [
        -0.013643880374729633,
        -0.01449219137430191
      ],
      [
        -0.0215110145509243,
        0.0432904027402401
      ],
      [
        -0.023749740794301033,
        -0.04665077105164528
      ],
      [
        0.016097957268357277,
        0.014482337050139904
      ],
      [
        0.015341181308031082,
        0.0054722558706998825
      ],
      [
        -0.0011647811625152826,
        0.015127524733543396
      ]
    ],
    "gen_0_bias": null,
    "gen_0_bn_weight": [
      0.9981271028518677,
      0.9984331130981445,
      0.997856616973877,
      0.9984142780303955,
      0.9956280589103699,
      0.9949349761009216,
      1.0007308721542358,
      1.003127098083496,
      0.9954723119735718,
      0.9947006702423096,
      0.9943230152130127,
      1.0017805099487305,
      0.9973949193954468,
      0.9986773133277893,
      0.9996157884597778,
      1.0057392120361328,
      0.998092770576477,
      1.0033671855926514,
      0.9965949654579163,
      1.0002747774124146,
      1.0000191926956177,
      0.9964334964752197,
      0.9998003244400024,
      1.0035125017166138,
      0.9974632263183594,
      0.9928269982337952,
      1.0014361143112183,
      1.000378966331482,
      0.9999387860298157,
      0.9944078326225281,
      1.0014504194259644,
      0.998557448387146,
      0.9995650053024292,
      0.9945589303970337,
      0.9985674023628235,
      0.9964258670806885,
      1.0010747909545898,
      0.9974125027656555,
      1.0033998489379883,
      1.0031354427337646,
      1.001075267791748,
      1.0010980367660522,
      0.9967067837715149,
      0.9957330226898193,
      0.9995110630989075,
      1.0000863075256348,
      0.9979515671730042,
      0.9960840344429016,
      0.9942365288734436,
      0.9950234293937683,
      0.9954046607017517,
      1.0028756856918335,
      1.001313328742981,
      1.0053198337554932,
      1.0019727945327759,
      0.998802661895752,
      1.0019309520721436,
      0.9947207570075989,
      1.0004678964614868,
      1.0042040348052979,
      1.0015531778335571,
      0.9985911250114441,
      1.0016895532608032,
      1.005158543586731,
      0.9961557984352112,
      1.0000426769256592,
      1.0019855499267578,
      1.0039955377578735,
      0.995293915271759,
      0.9974620938301086,
      1.0012112855911255,
      1.0059525966644287,
      0.994610607624054,
      1.0036389827728271,
      0.9993624687194824,
      0.9982650279998779,
      1.0042153596878052,
      0.995835542678833,
      0.9992066621780396,
      0.9996388554573059,
      0.9992920160293579,
      0.9950143098831177,
      1.0025240182876587,
      1.0016354322433472,
      1.0043447017669678,
      0.9973227977752686,
      1.0008509159088135,
      0.9969044327735901,
      1.0025877952575684,
      1.0002676248550415,
      1.0062599182128906,
      0.9986228346824646,
      0.996667206287384,
      0.9992549419403076,
      1.0068496465682983,
      1.002156376838684,
      1.002760410308838,
      0.9996529817581177,
      1.0042356252670288,
      1.0019466876983643,
      0.998464822769165,
      1.0022761821746826,
      0.9974239468574524,
      1.0046069622039795,
      1.0001732110977173,
      0.9981062412261963,
      0.9964791536331177,
      1.002766489982605,
      1.0025525093078613,
      1.0004491806030273,
      0.9971783757209778,
      1.0048418045043945,
      0.9955311417579651,
      1.006133794784546,
      1.0045820474624634,
      0.9986054301261902,
      1.0054481029510498,
      1.0018178224563599,
      1.0029547214508057,
      0.9999077916145325,
      1.0034291744232178,
      1.0040245056152344,
      1.0053715705871582,
      0.9965401291847229,
      0.9999844431877136,
      0.9998759031295776,
      1.0036811828613281,
      1.0046333074569702
    ],
    "gen_0_bn_bias": [
      0.0008891245815902948,
      0.0001516834308858961,
      0.0057593537494540215,
      -0.0009870592039078474,
      0.00040428544161841273,
      -0.0006412504008039832,
      0.007085142657160759,
      0.0035159513354301453,
      -0.0025127686094492674,
      -0.0024936578702181578,
      0.0028509991243481636,
      0.0003022094606421888,
      0.002844318049028516,
      0.008395805954933167,
      0.0007583149126730859,
      0.00746061559766531,
      0.0026466534473001957,
      0.007876485586166382,
      0.005460532382130623,
      0.005712870974093676,
      0.0025233710184693336,
      -0.0030942352022975683,
      0.000587279093451798,
      0.00791938602924347,
      0.0020654138643294573,
      0.0006109059322625399,
      0.0050477455370128155,
      0.0035946392454206944,
      2.9923785405117087e-05,
      0.00036181503674015403,
      0.006544024683535099,
      -0.003215658012777567,
      0.004684941377490759,
      -0.002605217508971691,
      0.005990625359117985,
      -0.0007270532660186291,
      0.005465836264193058,
      0.0021079066209495068,
      0.007046015001833439,
      0.001625342876650393,
      0.0062243277207016945,
      0.006622185464948416,
      -0.0032081324607133865,
      2.6646594051271677e-06,
      0.006793851498514414,
      -0.0029503225814551115,
      -0.003140467219054699,
      -0.0004292290541343391,
      -0.0030104639008641243,
      -0.004956543445587158,
      0.003295513102784753,
      0.0016187996370717883,
      0.007719890680164099,
      0.0021970048546791077,
      0.008544289506971836,
      0.00010447017848491669,
      0.0015470546204596758,
      -0.0028658253140747547,
      -0.004009728319942951,
      4.8317029722966254e-05,
      0.005408177152276039,
      0.0005621087038889527,
      0.00048729765694588423,
      0.005002669524401426,
      0.006358390208333731,
      -0.0012070126831531525,
      0.00044063181849196553,
      0.003827360225841403,
      0.0076265181414783,
      0.0018634640146046877,
      0.004666892345994711,
      0.0035371626727283,
      0.0038807052187621593,
      0.007626056205481291,
      0.005717774387449026,
      0.0015541157918050885,
      0.002201890340074897,
      0.003493141382932663,
      -0.0006760047981515527,
      -0.0010004453361034393,
      -0.0029496976640075445,
      -0.0032007601112127304,
      0.007445597555488348,
      0.0023958254605531693,
      0.007487728260457516,
      -0.005685508716851473,
      0.002622402273118496,
      -0.0029279980808496475,
      -0.0014773004222661257,
      0.003069748170673847,
      0.0055673192255198956,
      0.006707317195832729,
      0.006290830206125975,
      0.0067300377413630486,
      0.005898592062294483,
      0.006460824515670538,
      0.005479726009070873,
      0.006201242096722126,
      0.0010624728165566921,
      0.002042036037892103,
      -0.0007474147714674473,
      0.005193759221583605,
      0.004601207561790943,
      0.0025349913630634546,
      0.0011744424700737,
      0.00462601613253355,
      -0.0017469844315201044,
      0.00785489659756422,
      0.001368379918858409,
      0.003300679847598076,
      0.006739411968737841,
      0.00528268376365304,
      0.0013108458369970322,
      0.008450445719063282,
      0.0077872248366475105,
      0.006180283613502979,
      0.00783212948590517,
      0.007385787554085255,
      0.005716344807296991,
      0.005621403455734253,
      0.005862415302544832,
      0.006827699486166239,
      0.006245817523449659,
      -0.0013683075085282326,
      0.0055494592525064945,
      0.008005442097783089,
      0.006570532917976379,
      0.0036668868269771338
    ],
    "gen_1_weight": [
      [
        -0.0549650639295578,
        -0.006446416024118662,
        0.019156111404299736,
        -0.032180655747652054,
        -0.015744760632514954,
        0.006032033823430538,
        -0.001798134995624423,
        0.036721862852573395,
        -0.026489460840821266,
        -0.00605215597897768,
        -0.001469156821258366,
        0.01048851478844881,
        0.002257448388263583,
        0.04964321106672287,
        -0.01589018851518631,
        -0.01279725693166256,
        -0.007530700881034136,
        -0.02014116384088993,
        0.019280996173620224,
        0.018248403444886208,
        0.027250781655311584,
        0.0018111192621290684,
        0.01303219422698021,
        -0.036196690052747726,
        0.053124845027923584,
        0.025933347642421722,
        -0.011728854849934578,
        0.0015881970757618546,
        0.010666395537555218,
        -0.042481038719415665,
        -0.0032118901144713163,
        -0.02735527977347374,
        0.00942185614258051,
        -0.010928538627922535,
        -0.010060463100671768,
        0.018998250365257263,
        -0.012531323358416557,
        -0.01630251668393612,
        -0.01213222648948431,
        -0.010866598226130009,
        0.02113526314496994,
        -0.03722764179110527,
        0.017295150086283684,
        -0.021679632365703583,
        0.001585394493304193,
        -0.009855239652097225,
        -0.023209506645798683,
        -0.026677563786506653,
        0.031324438750743866,
        0.021937880665063858,
        0.004155694507062435,
        0.01170725841075182,
        -0.025662288069725037,
        -0.0025696579832583666,
        -0.022422220557928085,
        0.008236992172896862,
        -0.018595688045024872,
        -0.029931992292404175,
        0.01706847734749317,
        0.013122125528752804,
        0.020517323166131973,
        0.006696330849081278,
        -0.008369939401745796,
        -0.02738974802196026,
        -0.005002118647098541,
        0.0035203821025788784,
        -0.035941626876592636,
        -0.0021658658515661955,
        -0.010313553735613823,
        0.0040314653888344765,
        0.005924414377659559,
        -0.008594182319939137,
        0.03141427040100098,
        0.0015393475769087672,
        0.0033209649845957756,
        -0.020089872181415558,
        0.003718243446201086,
        -0.013146661221981049,
        0.017863981425762177,
        0.012238763272762299,
        -0.0002649131347425282,
        0.012681826949119568,
        -0.011508881114423275,
        -0.006220162846148014,
        0.02532193623483181,
        -0.0025067857932299376,
        -0.003826617728918791,
        -0.002649273257702589,
        -0.009479483589529991,
        0.008467171341180801,
        0.004503904841840267,
        0.00019786323537118733,
        0.0013870251132175326,
        -0.005403033923357725,
        -0.02563782036304474,
        -0.032376840710639954,
        0.010816016234457493,
        0.022326478734612465,
        0.02853667549788952,
        -0.006116415839642286,
        -0.0238243006169796,
        0.03424301743507385,
        0.00020719337044283748,
        -0.00946639571338892,
        0.01465284638106823,
        0.012514426372945309,
        -0.02364533208310604,
        0.01775156520307064,
        0.02978915348649025,
        0.0015817403327673674,
        -0.006927919574081898,
        0.0004074492317158729,
        0.03743060678243637,
        0.014523611404001713,
        0.006002657115459442,
        -0.003572047222405672,
        0.03331451490521431,
        -0.02877269871532917,
        -0.00729057053104043,
        -0.012961258180439472,
        -0.00649476470425725,
        -0.04641243815422058,
        0.019255736842751503,
        -0.02063967101275921,
        0.01740114577114582,
        -0.04641822725534439,
        -0.023689711466431618,
        0.015930555760860443
      ],
      [
        0.01532401517033577,
        -0.026845645159482956,
        0.012710572220385075,
        0.006856910884380341,
        0.013786327093839645,
        0.018900776281952858,
        0.00949113629758358,
        0.023949015885591507,
        0.01673634722828865,
        -0.01450931467115879,
        0.025193314999341965,
        -0.0004481786163523793,
        -0.03337230533361435,
        -0.025028865784406662,
        0.0030708813574165106,
        0.0320037417113781,
        0.0057830894365906715,
        0.011277721263468266,
        -0.02083868905901909,
        -0.040739599615335464,
        0.004568707663565874,
        0.0033267452381551266,
        0.013714807108044624,
        -0.028648490086197853,
        0.015213483944535255,
        0.0032614050433039665,
        -0.0043085068464279175,
        0.000847284565679729,
        0.02937271073460579,
        0.016281139105558395,
        0.0019357881974428892,
        -0.011900046840310097,
        -0.0059121279045939445,
        0.014167466200888157,
        -0.03970321640372276,
        -0.02653355896472931,
        0.00020941901311744004,
        0.022715020924806595,
        -0.0017625093460083008,
        -0.01249689795076847,
        0.015554326586425304,
        -0.011095111258327961,
        0.00164315989241004,
        -0.00654030404984951,
        0.03892340511083603,
        -6.069417577236891e-05,
        0.010817006230354309,
        -0.030153309926390648,
        -7.757448474876583e-05,
        0.022356681525707245,
        -0.016747906804084778,
        0.025830507278442383,
        -0.0026352826971560717,
        -0.002206244273111224,
        0.002843092195689678,
        0.023720702156424522,
        0.00748983072116971,
        -0.005970370024442673,
        0.008144966326653957,
        -0.008114097639918327,
        0.0018342527328059077,
        -0.013854347169399261,
        -0.021115679293870926,
        -0.0041298894211649895,
        -0.0072510079480707645,
        5.082518327981234e-06,
        -0.0115756094455719,
        -0.014581849798560143,
        0.005668845027685165,
        0.002512513194233179,
        -0.008158114738762379,
        -0.01279524341225624,
        0.010753097012639046,
        -0.007530282251536846,
        -0.030844219028949738,
        -0.0033575473353266716,
        0.016003774479031563,
        -0.011221878230571747,
        -0.024769984185695648,
        0.03788073733448982,
        -0.03602557256817818,
        -0.038061290979385376,
        0.011307874694466591,
        -0.005032422952353954,
        0.024865221232175827,
        -0.03581293672323227,
        -0.013369274325668812,
        -0.03964711353182793,
        0.01806703582406044,
        0.00166473095305264,
        -0.016044113785028458,
        -4.667800385504961e-05,
        -0.02027255669236183,
        -0.012833787128329277,
        -0.02051863819360733,
        0.02000945247709751,
        -0.010840103030204773,
        0.03544578328728676,
        0.003901935648173094,
        -0.007068459410220385,
        0.02016458660364151,
        0.018676845356822014,
        -0.014229310676455498,
        -0.004130289424210787,
        0.013044332154095173,
        -0.007326524704694748,
        0.010161121375858784,
        -0.010152447037398815,
        -0.0059119053184986115,
        -0.01293584518134594,
        -0.004483244381844997,
        0.005159683991223574,
        -0.01507971528917551,
        0.02452102117240429,
        0.0072722285985946655,
        0.0008600501460023224,
        0.021618152037262917,
        -0.00697940681129694,
        -0.006884782109409571,
        0.022483063861727715,
        -0.04904862865805626,
        0.014776946045458317,
        0.009373625740408897,
        -0.012824632227420807,
        0.0037702731788158417,
        -0.022173551842570305,
        -0.014569135382771492,
        0.007170958910137415
      ],
      [
        0.016902444884181023,
        -0.03316713869571686,
        -0.010917354375123978,
        -0.019006086513400078,
        -0.012539593502879143,
        -0.019592370837926865,
        0.0017856666818261147,
        -0.024985358119010925,
        0.0065329116769135,
        0.023518048226833344,
        -0.022301016375422478,
        0.007839935831725597,
        -0.0023985481821000576,
        -0.004502941854298115,
        0.00472073582932353,
        0.036122433841228485,
        -0.04425746947526932,
        0.016419028863310814,
        -0.027303120121359825,
        0.018070535734295845,
        0.017492791637778282,
        0.004656826611608267,
        -0.016999604180455208,
        0.025928141549229622,
        0.013878277502954006,
        0.01781987026333809,
        0.009182577021420002,
        0.01742897741496563,
        -0.02719755843281746,
        -0.031910717487335205,
        -0.017869193106889725,
        -0.0012599269393831491,
        0.009149719960987568,
        -0.028363369405269623,
        -0.019458698108792305,
        -0.04096607118844986,
        -0.03040619194507599,
        0.026333050802350044,
        0.04436526820063591,
        -0.005888053216040134,
        -0.01858072727918625,
        -0.0029779807664453983,
        -0.01954275742173195,
        -0.04917937144637108,
        0.026798520237207413,
        -0.0035183592699468136,
        -0.031379714608192444,
        0.018840767443180084,
        -0.006224287208169699,
        -0.048084329813718796,
        0.02877231314778328,
        -0.011186745017766953,
        0.0027306543197482824,
        -0.02230510488152504,
        0.025897642597556114,
        -0.012348568998277187,
        -0.012961156666278839,
        -0.008430279791355133,
        -0.007245280779898167,
        -0.014945518225431442,
        -0.002806631149724126,
        0.006675554905086756,
        -0.011826720088720322,
        -0.04924479126930237,
        0.021117640659213066,
        -0.031386371701955795,
        -0.012347490526735783,
        -0.0016268608160316944,
        -0.05441419407725334,
        -0.027513474225997925,
        -0.00693065021187067,
        -0.014057127758860588,
        -0.008076027035713196,
        0.007395186927169561,
        -0.007585326209664345,
        0.004807373974472284,
        0.03596487641334534,
        -0.018169421702623367,
        0.027378451079130173,
        -0.00424334779381752,
        0.0075986627489328384,
        0.0017839651554822922,
        -0.010293516330420971,
        -0.017024783417582512,
        -0.003765309927985072,
        0.00742768682539463,
        0.023328743875026703,
        0.037088558077812195,
        -0.010159951634705067,
        -0.015698501840233803,
        0.0036078374832868576,
        -0.03892705589532852,
        -0.02725890651345253,
        -0.026855727657675743,
        0.024882037192583084,
        0.03084835223853588,
        -0.002228100784122944,
        -0.04103608801960945,
        0.045339394360780716,
        0.03099261224269867,
        0.00501887034624815,
        -0.014879466034471989,
        0.011052737943828106,
        0.0020117054227739573,
        -0.005116225220263004,
        -0.005354711320251226,
        0.010102789849042892,
        -0.023755593225359917,
        0.022798197343945503,
        0.019755475223064423,
        -0.005924399010837078,
        0.04721459001302719,
        -0.01226720493286848,
        -0.020501872524619102,
        0.0025961087085306644,
        -0.0054925307631492615,
        -0.017655517905950546,
        0.0075492896139621735,
        -0.007868295535445213,
        0.04288846254348755,
        0.033438391983509064,
        0.03125161677598953,
        -0.017049985006451607,
        -0.000790033140219748,
        0.010768086649477482,
        0.010465970262885094,
        0.005172255914658308,
        0.0321606770157814
      ],
      [
        -0.017884911969304085,
        0.010056297294795513,
        0.027076013386249542,
        -0.0020312946289777756,
        -0.03632735088467598,
        -0.02368263155221939,
        0.020618632435798645,
        -0.008262628689408302,
        -0.02967650070786476,
        0.005501456558704376,
        0.0211649052798748,
        -0.010422613471746445,
        -0.01061348058283329,
        0.02656617946922779,
        -0.006827009841799736,
        -0.02456021122634411,
        -0.003192031756043434,
        0.007557201664894819,
        0.002454873640090227,
        0.015661494806408882,
        -0.014589415863156319,
        0.0003948647645302117,
        -0.02945461869239807,
        -0.02537919208407402,
        -0.0013406208017840981,
        -0.021008936688303947,
        -0.03379257395863533,
        -0.0036780049558728933,
        0.006985948886722326,
        0.014654791913926601,
        -0.011803369969129562,
        -0.0055334921926259995,
        0.03550232574343681,
        -0.008781827986240387,
        -0.017220310866832733,
        0.030332451686263084,
        0.006245078518986702,
        0.019005686044692993,
        -0.023861439898610115,
        -0.015615451149642467,
        -0.03080114535987377,
        -0.038259830325841904,
        0.0032504205591976643,
        -0.004815591033548117,
        -0.029787050560116768,
        -0.01645781099796295,
        0.0012573794228956103,
        0.010683859698474407,
        0.0030346426647156477,
        0.015925751999020576,
        0.03393867611885071,
        -0.013689391314983368,
        -0.004600836895406246,
        0.00832347385585308,
        -0.030218888074159622,
        -0.04782472550868988,
        1.7037000361597165e-06,
        -0.004879174288362265,
        -0.023428229615092278,
        0.015060216188430786,
        -0.026476645842194557,
        0.0018116469727829099,
        0.011822997592389584,
        -0.010241717100143433,
        -0.017866630107164383,
        -0.024161072447896004,
        -0.007951824925839901,
        0.029349224641919136,
        -0.0037400019355118275,
        -0.0005430008750408888,
        -0.00865272618830204,
        0.01980416290462017,
        -0.044698577374219894,
        -0.0332377664744854,
        -0.016597306355834007,
        -0.00677937176078558,
        -0.00781309138983488,
        -0.027378864586353302,
        6.370589835569263e-05,
        0.013894614763557911,
        -0.005782087799161673,
        0.026068387553095818,
        0.006237321998924017,
        -0.019221121445298195,
        0.013532489538192749,
        0.016964638605713844,
        -0.0005622361204586923,
        0.0002968889893963933,
        0.002673359587788582,
        -0.0035895435139536858,
        -0.025400729849934578,
        -0.0135493790730834,
        0.015331001952290535,
        0.02719978615641594,
        8.910753967938945e-05,
        0.01614995487034321,
        0.006558422930538654,
        0.04349286109209061,
        -0.04034710302948952,
        -0.018302859738469124,
        0.014369567856192589,
        -0.03788904845714569,
        -0.012304771691560745,
        0.010317551903426647,
        -0.002745207166299224,
        -0.017948010936379433,
        0.035833362489938736,
        -0.005287388805299997,
        0.0024767236318439245,
        -0.00523372134193778,
        0.004649107810109854,
        0.022176336497068405,
        -0.0021659391932189465,
        -0.009415111504495144,
        -0.03700818121433258,
        0.02614292874932289,
        0.006474365014582872,
        -0.038252878934144974,
        -0.027861885726451874,
        -0.051229942589998245,
        -0.00675733108073473,
        -0.00863152276724577,
        0.007303245365619659,
        -0.004589940886944532,
        0.02963128127157688,
        0.0003963432100135833,
        0.010764224454760551,
        -0.04531222954392433
      ],
      [
        0.016321703791618347,
        0.011480067856609821,
        0.00179407955147326,
        0.02199111506342888,
        0.015539451502263546,
        -0.03935497626662254,
        0.029108216986060143,
        -0.026952173560857773,
        0.009745584800839424,
        -0.003437742358073592,
        0.02815927006304264,
        0.0008035121136344969,
        -0.004039573483169079,
        -0.007100566290318966,
        0.020207494497299194,
        0.012754518538713455,
        0.011012685485184193,
        0.011368844658136368,
        -0.010139564983546734,
        0.00032195934909395874,
        0.03665005415678024,
        0.017319390550255775,
        0.030736083164811134,
        0.012033945880830288,
        -0.024556297808885574,
        0.015314381569623947,
        -0.02078612893819809,
        0.008137243799865246,
        -0.02382926270365715,
        0.018611473962664604,
        0.02792212925851345,
        0.021385997533798218,
        -0.0010886085219681263,
        0.007526724599301815,
        0.006996837444603443,
        0.038405172526836395,
        0.011102816089987755,
        -0.027176454663276672,
        -0.05113343149423599,
        0.0021128009539097548,
        0.004176994785666466,
        0.002301958855241537,
        -0.0032680556178092957,
        0.00790646392852068,
        0.01704513281583786,
        0.010166402906179428,
        -0.024761728942394257,
        -0.01796797662973404,
        0.0014563672011718154,
        0.023150598630309105,
        -0.004027948249131441,
        0.009084167890250683,
        -0.001421361812390387,
        -0.026489054784178734,
        -0.014115054160356522,
        -0.03066805936396122,
        -0.022695431485772133,
        0.0014143455773591995,
        -0.030415022745728493,
        0.02647959440946579,
        -0.06087928265333176,
        -0.036633431911468506,
        -0.0018839528784155846,
        0.015535993501543999,
        0.011475201696157455,
        -0.0018823867430910468,
        -0.0019578547216951847,
        -0.005484564229846001,
        -0.00827578455209732,
        0.004970740061253309,
        0.02762744203209877,
        -0.03187468647956848,
        -0.005219116806983948,
        0.0065481457859277725,
        0.027343032881617546,
        0.02897767163813114,
        -0.007028191816061735,
        0.001134173246100545,
        0.0027433389332145452,
        0.01739288866519928,
        -0.0022130231373012066,
        0.02880965545773506,
        0.006604254711419344,
        -0.025301698595285416,
        -0.015389694832265377,
        -0.018620572984218597,
        -0.018047431483864784,
        -0.03369311988353729,
        -0.01952415332198143,
        0.005629692692309618,
        0.011944879777729511,
        0.0032556909136474133,
        0.005231363698840141,
        -0.040548987686634064,
        -0.03823895379900932,
        0.007841677404940128,
        0.008578908629715443,
        -0.02657397650182247,
        -0.02328706532716751,
        -0.01563383638858795,
        -0.01565716043114662,
        0.0238739475607872,
        -0.0034855969715863466,
        -0.024415604770183563,
        0.031991396099328995,
        -3.022185410372913e-05,
        0.026740163564682007,
        -0.0036404584534466267,
        0.026431286707520485,
        -0.032431501895189285,
        0.02240941859781742,
        -0.027263671159744263,
        -0.01993781514465809,
        0.04215419664978981,
        -0.007920389994978905,
        0.006810733582824469,
        -0.005936542060226202,
        -0.011938922107219696,
        -0.02803143672645092,
        -0.01628868281841278,
        -0.029445817694067955,
        0.006337028928101063,
        -0.04544530808925629,
        -0.013737665489315987,
        -0.024355631321668625,
        0.03838394954800606,
        0.015566382557153702,
        0.02467721328139305
      ],
      [
        0.003307228209450841,
        -0.00903367530554533,
        -0.014076760038733482,
        -0.0171945970505476,
        -0.00905604474246502,
        -0.026910685002803802,
        -0.009113416075706482,
        0.0037204462569206953,
        -0.03047223761677742,
        0.02877107262611389,
        -0.0010415675351396203,
        0.020973147824406624,
        -0.02251799777150154,
        0.02146734669804573,
        -0.02028995379805565,
        0.013911678455770016,
        -0.012952874414622784,
        -0.05404141917824745,
        0.009909720160067081,
        0.016572874039411545,
        -0.011369433254003525,
        0.0040653846226632595,
        0.004065738990902901,
        -0.02497401088476181,
        0.016914179548621178,
        -0.018431182950735092,
        -0.005798718426376581,
        -0.011182780377566814,
        0.01588849537074566,
        0.021510198712348938,
        0.012456676922738552,
        0.01586860418319702,
        -0.024325279518961906,
        -0.018311679363250732,
        0.009936967864632607,
        0.027497775852680206,
        -0.003752058371901512,
        -0.028125541284680367,
        0.013435912318527699,
        0.021256674081087112,
        -0.0008184552425518632,
        0.023966796696186066,
        -0.012968099676072598,
        0.010404796339571476,
        0.02017495036125183,
        -0.014343091286718845,
        -0.05257547274231911,
        -0.002067960798740387,
        0.006806197110563517,
        -0.028934350237250328,
        -0.043601587414741516,
        0.030327830463647842,
        0.04626365378499031,
        -0.017310163006186485,
        -0.0053125605918467045,
        -0.022506050765514374,
        -0.019741632044315338,
        -0.0025962546933442354,
        -0.025401117280125618,
        -0.005027842242270708,
        0.006172940135002136,
        -0.013451839797198772,
        -0.004595598205924034,
        -0.0183778814971447,
        0.004399583674967289,
        0.00577174499630928,
        -0.0022046887315809727,
        0.0203019417822361,
        0.020230554044246674,
        -0.02328731119632721,
        0.014027613215148449,
        0.018948014825582504,
        0.01667730323970318,
        0.01116120908409357,
        0.03716724365949631,
        0.01567813754081726,
        0.015707919374108315,
        0.00567795243114233,
        -0.0030329867731779814,
        -0.025391245260834694,
        0.004868826828896999,
        0.027496719732880592,
        -0.024296604096889496,
        0.012557602487504482,
        -0.0007667656755074859,
        0.050188131630420685,
        -0.003089878475293517,
        0.008276532404124737,
        -0.010856353677809238,
        -0.00762298284098506,
        -0.021711086854338646,
        -0.008551331236958504,
        0.027322549372911453,
        -0.018075570464134216,
        -0.003984240815043449,
        0.02261345088481903,
        0.032285816967487335,
        -0.027709757909178734,
        -0.008130365051329136,
        0.02977650612592697,
        -0.01882689818739891,
        0.024418823421001434,
        0.0027613488491624594,
        -0.007984458468854427,
        -0.0035330059472471476,
        0.036362260580062866,
        -0.009000817313790321,
        0.007612049579620361,
        -0.02233576402068138,
        0.03631191328167915,
        0.0006874953978694975,
        -0.03174680843949318,
        0.03170173242688179,
        0.008666218258440495,
        0.007621359080076218,
        0.004805391654372215,
        0.006787501275539398,
        -0.020327957347035408,
        -0.04157912731170654,
        0.008464155718684196,
        0.017958706244826317,
        0.03463397175073624,
        0.03502483665943146,
        -0.01941518858075142,
        -0.0012202434008941054,
        -0.03306452929973602,
        -0.019658559933304787,
        0.006277494598180056
      ],
      [
        -0.004006279166787863,
        0.03377360478043556,
        -9.38597513595596e-05,
        0.010950667783617973,
        0.004676187876611948,
        0.0006258811918087304,
        0.01687559299170971,
        -0.026235708966851234,
        0.0017657590797170997,
        -0.0007959922659210861,
        0.007496084086596966,
        -0.008556702174246311,
        0.027166277170181274,
        -0.002017803257331252,
        -0.012172581627964973,
        0.0013630689354613423,
        0.03060269169509411,
        0.006725200451910496,
        0.00235334993340075,
        -0.01629001833498478,
        0.012165428139269352,
        -0.018764624372124672,
        -0.009016955271363258,
        0.014089802280068398,
        -0.013630769215524197,
        -0.0012576719745993614,
        0.009620909579098225,
        -0.04398643225431442,
        0.029707299545407295,
        0.009180737659335136,
        -0.004348081536591053,
        0.011392218992114067,
        -0.009046108461916447,
        0.01874750666320324,
        0.00987620186060667,
        -0.010290639474987984,
        0.011004515923559666,
        -0.01513392198830843,
        0.059884048998355865,
        -0.015369661152362823,
        -0.021710140630602837,
        0.003780398517847061,
        -0.04583392292261124,
        0.0033772483002394438,
        0.010087402537465096,
        0.02686409279704094,
        0.012949351221323013,
        0.04015514999628067,
        0.009600824676454067,
        0.038830481469631195,
        0.004619996063411236,
        -0.011230718344449997,
        -0.01986522227525711,
        -0.003387595759704709,
        -0.017973633483052254,
        0.013790428638458252,
        0.02894611656665802,
        -0.02054453082382679,
        0.0020398683845996857,
        -0.02542087621986866,
        0.012375340797007084,
        0.007471274118870497,
        -0.013515477068722248,
        -0.0010764230974018574,
        -0.008923979476094246,
        0.03437187150120735,
        -0.03529253974556923,
        0.010710093192756176,
        0.010919841937720776,
        0.02080775424838066,
        -0.03210757300257683,
        -0.0014313869178295135,
        0.003747262293472886,
        0.0020931228064000607,
        0.010660693980753422,
        -0.014653113670647144,
        0.002511704107746482,
        0.030748330056667328,
        0.011836469173431396,
        9.393586515216157e-05,
        -0.04933209717273712,
        0.02888364903628826,
        -0.0301979873329401,
        0.032985057681798935,
        -0.029993919655680656,
        0.018330812454223633,
        0.012808321043848991,
        -0.03729582205414772,
        0.03673083335161209,
        0.015771672129631042,
        -0.02681438997387886,
        0.03345898166298866,
        -0.025765307247638702,
        -0.00504780700430274,
        -0.004105794243514538,
        0.002579371677711606,
        -0.012319976463913918,
        -0.005248301662504673,
        -0.005442582070827484,
        0.006617206148803234,
        -0.002152826637029648,
        -0.0015283304965123534,
        -0.02779475599527359,
        0.014275101944804192,
        -0.022899959236383438,
        0.028495602309703827,
        -0.014240140095353127,
        0.0075980680994689465,
        0.05170687660574913,
        -0.004338711034506559,
        -0.004365719389170408,
        -0.004715451039373875,
        -0.01050443947315216,
        0.006471894681453705,
        -0.0018269711872562766,
        0.034978337585926056,
        -0.0193959791213274,
        -0.02468620054423809,
        -0.020248806104063988,
        -0.013062166050076485,
        -0.0039421794936060905,
        0.03717033565044403,
        -0.030301028862595558,
        -0.013725841417908669,
        0.009678669273853302,
        0.015407675877213478,
        -0.02006804384291172,
        0.0024621298070997
      ],
      [
        -0.007432770449668169,
        -0.0009573566494509578,
        0.04312337562441826,
        0.01013245154172182,
        -0.043785613030195236,
        0.030244585126638412,
        0.041025303304195404,
        -0.021941054612398148,
        0.023307999595999718,
        0.021805431693792343,
        -0.016865622252225876,
        0.019499288871884346,
        -0.012489192187786102,
        0.01895757019519806,
        0.0011780104832723737,
        -0.0027111098170280457,
        0.010562319308519363,
        0.004652700386941433,
        -0.011050318367779255,
        0.05559864640235901,
        0.026397760957479477,
        0.009080646559596062,
        -0.0035720558371394873,
        0.010406714864075184,
        -0.011520888656377792,
        -0.005916795693337917,
        -0.0026192425284534693,
        0.014218331314623356,
        -0.006138782016932964,
        0.020093759521842003,
        0.01584724336862564,
        -0.011786806397140026,
        0.028813982382416725,
        0.009613958187401295,
        0.01788761094212532,
        -0.027273306623101234,
        0.05674084648489952,
        -0.0397370383143425,
        -0.02930903621017933,
        -0.039453789591789246,
        0.003804420819506049,
        0.02484015002846718,
        0.028839904814958572,
        0.024647483602166176,
        -0.01628812775015831,
        -0.025267139077186584,
        0.009681204333901405,
        0.01374919805675745,
        -0.007370633073151112,
        0.0021260615903884172,
        -0.04733343794941902,
        0.004432947840541601,
        0.006756237242370844,
        -0.022766806185245514,
        -0.05173738673329353,
        -0.004320421256124973,
        0.016459928825497627,
        0.014190874993801117,
        0.019841810688376427,
        0.010720939375460148,
        0.023214800283312798,
        0.011840899474918842,
        -0.0191726703196764,
        -0.01996273174881935,
        0.03181299939751625,
        0.016494182869791985,
        0.004857320804148912,
        -0.0018913206877186894,
        -0.00838282611221075,
        -0.02592594362795353,
        0.03928159549832344,
        -0.020733514800667763,
        -0.003240143181756139,
        -0.01019858755171299,
        0.0016740948194637895,
        0.0007025060476735234,
        -0.022518260404467583,
        0.002083454979583621,
        0.017677921801805496,
        -0.04707302153110504,
        -0.003413391998037696,
        0.0127863185480237,
        -0.0256132110953331,
        0.008947395719587803,
        0.00566980941221118,
        -0.04024764895439148,
        0.002072193892672658,
        -0.025247011333703995,
        -0.05577436462044716,
        -0.014266208745539188,
        0.04188880696892738,
        0.003064377699047327,
        5.944512668065727e-05,
        0.011804640293121338,
        -0.01001161802560091,
        0.0016619148664176464,
        0.011705603450536728,
        0.006762273609638214,
        -0.04008021578192711,
        0.002279507927596569,
        -0.0009592651040293276,
        -0.004243162926286459,
        0.018888484686613083,
        -0.016764655709266663,
        0.013033276423811913,
        -0.0012470209039747715,
        0.025974849238991737,
        -0.00763748399913311,
        -0.006739296950399876,
        -0.03805459663271904,
        -0.019392741844058037,
        -0.006262927316129208,
        0.018530331552028656,
        -0.00880609080195427,
        -0.01174541562795639,
        0.024001594632864,
        -0.0292954258620739,
        0.007013702765107155,
        -0.02055077999830246,
        -0.027618277817964554,
        0.008742382749915123,
        0.014282861724495888,
        -0.02744700200855732,
        -0.013905446045100689,
        -0.0011193156242370605,
        0.036936864256858826,
        -0.043572306632995605,
        -0.0002046715235337615
      ],
      [
        0.014179362915456295,
        0.044360097497701645,
        -0.018797561526298523,
        -0.06633549928665161,
        -0.013439184986054897,
        0.0034411544911563396,
        -0.02029203623533249,
        0.01119218673557043,
        -0.007853230461478233,
        0.022856390103697777,
        0.003986879251897335,
        -0.05344679206609726,
        0.005959318019449711,
        0.03514539822936058,
        0.014709225855767727,
        -0.01748092658817768,
        0.018746020272374153,
        0.015783442184329033,
        -0.013485191389918327,
        0.008247043937444687,
        0.020772717893123627,
        0.0024364290293306112,
        0.005110503174364567,
        -0.008655743673443794,
        -0.007876693271100521,
        0.006308075040578842,
        -0.01044418290257454,
        0.009973090142011642,
        -0.029883772134780884,
        -0.004801512695848942,
        -0.012482747435569763,
        0.024488478899002075,
        0.005544545128941536,
        0.011538531631231308,
        0.009665156714618206,
        -0.030192941427230835,
        0.0180802121758461,
        -0.041559070348739624,
        -0.0037341234274208546,
        0.0067120823077857494,
        0.0009103724732995033,
        0.00033489009365439415,
        0.01154972892254591,
        -0.008005654439330101,
        0.002550993813201785,
        0.015326573513448238,
        0.002891689306125045,
        0.02584267221391201,
        -0.01756630465388298,
        -0.018080605193972588,
        -0.0022655222564935684,
        0.023076243698596954,
        -0.0015689433785155416,
        -0.009148912504315376,
        0.007481706794351339,
        -0.016404662281274796,
        -0.042513661086559296,
        0.004833863116800785,
        0.0015892728697508574,
        0.02917017787694931,
        -0.0005911411717534065,
        -0.017659561708569527,
        0.008185727521777153,
        0.03131304308772087,
        0.007083187345415354,
        -0.004912597592920065,
        -0.025508711114525795,
        -0.015385769307613373,
        0.004857657477259636,
        -0.0010549379512667656,
        -0.038486383855342865,
        -0.026732902973890305,
        0.041447170078754425,
        -0.0018188683316111565,
        0.0004707651096396148,
        -0.0017786506796255708,
        0.03010890632867813,
        -0.019716721028089523,
        -0.0204574353992939,
        0.00153151317499578,
        -0.015849750488996506,
        -0.012694926001131535,
        -0.00562050798907876,
        -0.01686042547225952,
        0.006829665042459965,
        -0.001947992481291294,
        -0.022233737632632256,
        0.014583938755095005,
        0.007969692349433899,
        -0.05794427543878555,
        -0.00023549632169306278,
        -0.02972589060664177,
        0.0004368605150375515,
        -0.011395093984901905,
        0.019798321649432182,
        -0.02708708494901657,
        0.007456184830516577,
        0.0198800191283226,
        0.014429625123739243,
        -0.02408188208937645,
        -0.004108536057174206,
        0.002641137223690748,
        0.012854001484811306,
        0.012226402759552002,
        0.0030126962810754776,
        0.01626230962574482,
        0.008742853067815304,
        -0.016985420137643814,
        -0.007357184309512377,
        0.006971985567361116,
        -0.0273419376462698,
        -0.022234223783016205,
        -0.0029765015933662653,
        1.9015576981473714e-05,
        -0.008356069214642048,
        -0.012556835077702999,
        0.007502781692892313,
        0.02836357243359089,
        0.0030968787614256144,
        -0.05310395359992981,
        0.0245383121073246,
        0.009438603185117245,
        -0.0025676668155938387,
        0.011848489753901958,
        -0.011921949684619904,
        0.004636561498045921,
        -0.04054504632949829,
        -0.005260447971522808
      ],
      [
        0.03430083021521568,
        -0.012310769408941269,
        -0.023277895525097847,
        0.0076025365851819515,
        -0.0011210337979719043,
        -0.012968756258487701,
        -0.022903719916939735,
        -0.006194221321493387,
        -0.027862926945090294,
        -0.0027793224435299635,
        -0.008559231646358967,
        -0.0318392738699913,
        0.005393625237047672,
        0.003068712539970875,
        -0.0372159518301487,
        -0.016127169132232666,
        -0.03709515556693077,
        0.014127577655017376,
        -0.012907781638205051,
        0.027014216408133507,
        -0.0016094585880637169,
        -0.013649066910147667,
        -0.021083394065499306,
        -0.027400944381952286,
        -0.01076571922749281,
        0.03206585720181465,
        0.03838222101330757,
        -0.023868385702371597,
        0.022809023037552834,
        0.0005041608237661421,
        -0.004319715779274702,
        -0.010954184457659721,
        -0.001055596279911697,
        0.0009311784524470568,
        -0.04594442620873451,
        -0.029560428112745285,
        -0.011319037526845932,
        -0.0042960443533957005,
        0.02790340594947338,
        -0.0009219745988957584,
        0.019301651045680046,
        0.043406736105680466,
        -0.00020212183881085366,
        -0.020008089020848274,
        -0.020824577659368515,
        -0.007649129722267389,
        0.011678017675876617,
        -0.004712944850325584,
        -0.00823616236448288,
        -0.03237968683242798,
        0.007443957030773163,
        0.015349759720265865,
        -0.008040502667427063,
        0.020639900118112564,
        0.0007515461766161025,
        0.0091854864731431,
        0.0014647324569523335,
        -0.0007490002899430692,
        0.0027412036433815956,
        0.022481262683868408,
        0.0015547118382528424,
        -0.028011079877614975,
        -0.02917269989848137,
        -0.01614036038517952,
        0.002701098332181573,
        0.008913425728678703,
        -0.00882728025317192,
        0.008118132129311562,
        0.007816124707460403,
        -0.018570829182863235,
        -0.009267865680158138,
        -0.005162957590073347,
        0.04186451435089111,
        -0.024431705474853516,
        -0.018162062391638756,
        -0.032869886606931686,
        -0.016337497159838676,
        -0.015175728127360344,
        0.016774404793977737,
        -0.03241024911403656,
        -0.02471885271370411,
        0.03886643424630165,
        -0.006047623232007027,
        0.003899287199601531,
        -0.011623172089457512,
        0.03745976462960243,
        0.010445506311953068,
        0.017542501911520958,
        -0.033182136714458466,
        0.011033149436116219,
        -0.013219628483057022,
        -0.034935057163238525,
        0.006201501470059156,
        0.012432200834155083,
        7.917168841231614e-05,
        0.00953126884996891,
        0.004237800370901823,
        0.0029696680139750242,
        -0.012341906316578388,
        -0.00415342953056097,
        0.02950449474155903,
        0.014014282263815403,
        0.0011606555199250579,
        0.011914941482245922,
        -0.013736148364841938,
        0.026012390851974487,
        -0.016141002997756004,
        0.021649165078997612,
        0.02011527679860592,
        0.023414282128214836,
        0.005226621404290199,
        -0.03204844146966934,
        0.040224719792604446,
        -0.005759809166193008,
        0.038803830742836,
        0.02080913446843624,
        0.025167269632220268,
        0.02745821885764599,
        0.0032137264497578144,
        0.00838758796453476,
        0.002132001332938671,
        -0.013442274183034897,
        0.00504806824028492,
        0.0012029798235744238,
        0.0012629958800971508,
        0.0017893100157380104,
        -0.03393176198005676,
        -0.021711943671107292
      ],
      [
        0.017546353861689568,
        -0.02256111241877079,
        -0.012699371203780174,
        0.016399933025240898,
        -0.0014719485770910978,
        0.019232001155614853,
        -0.0059937648475170135,
        0.024782277643680573,
        0.0022676107473671436,
        -0.016625968739390373,
        -0.0014471311587840319,
        0.00447117118164897,
        -0.01155372429639101,
        3.8111465983092785e-06,
        0.00893357116729021,
        -0.0002782507217489183,
        -0.03010145016014576,
        -0.03051193617284298,
        0.00482300715520978,
        0.0047584217973053455,
        -0.009797372855246067,
        0.023655038326978683,
        0.02141149342060089,
        0.013751189224421978,
        0.04868456721305847,
        0.008143032900989056,
        0.008606103248894215,
        0.018040524795651436,
        -0.016830071806907654,
        -0.017215436324477196,
        -0.003672209568321705,
        -0.01186454202979803,
        0.0006484829355031252,
        0.010905605740845203,
        0.016372639685869217,
        -0.0026830423157662153,
        0.0704437792301178,
        0.00431163189932704,
        0.0411510244011879,
        0.005756336729973555,
        0.002793070860207081,
        0.02103114128112793,
        0.011513509787619114,
        -0.02742156758904457,
        -0.049754247069358826,
        -0.032645102590322495,
        0.002986034844070673,
        -0.015037991106510162,
        -0.0014980777632445097,
        0.0006379023543559015,
        -0.007367412094026804,
        0.014673952013254166,
        -0.014323512092232704,
        -0.0062276883982121944,
        -0.030449166893959045,
        -0.00982997752726078,
        0.0220588818192482,
        -0.02281024493277073,
        0.020031489431858063,
        0.015877291560173035,
        -0.004522653296589851,
        -0.019612876698374748,
        0.01756499893963337,
        -0.005243405234068632,
        -0.025824351236224174,
        -0.0021035189274698496,
        0.00616916548460722,
        -0.032310850918293,
        0.007035561837255955,
        0.011427856050431728,
        0.0075416662730276585,
        0.011584382504224777,
        -0.0421704426407814,
        -0.03195988014340401,
        -0.02021290361881256,
        -0.02035098895430565,
        -0.02013200707733631,
        -0.009359415620565414,
        -0.032381508499383926,
        0.01248384453356266,
        0.02225608006119728,
        -0.00803365744650364,
        0.030044956132769585,
        0.026019474491477013,
        -0.0015083057805895805,
        0.040680814534425735,
        0.030249034985899925,
        -0.006749430671334267,
        0.015050502493977547,
        -0.025374023243784904,
        -0.025522582232952118,
        -0.033742379397153854,
        -0.007104641757905483,
        0.025635425001382828,
        0.009585159830749035,
        0.010469607077538967,
        -0.01174323633313179,
        0.00477977842092514,
        -0.004178899340331554,
        -0.011381319724023342,
        -0.015820423141121864,
        -0.02257991023361683,
        -0.009923011064529419,
        0.010710700415074825,
        0.0005057106027379632,
        -0.0076960911974310875,
        -0.001265057479031384,
        -0.027863411232829094,
        0.025622116401791573,
        -0.02127721719443798,
        0.017016464844346046,
        -0.00863475538790226,
        -0.03614943102002144,
        0.007138322107493877,
        -0.02457869052886963,
        0.0021694141905754805,
        0.006212941370904446,
        0.013108743354678154,
        -0.0040236227214336395,
        0.02156173810362816,
        0.007082565221935511,
        0.026484845206141472,
        -0.004873678088188171,
        -0.04376881197094917,
        -0.012884237803518772,
        -0.012482136487960815,
        -0.021610090509057045,
        0.0011240277672186494
      ],
      [
        -0.01241498813033104,
        -0.009060854092240334,
        -0.021522166207432747,
        -0.014422256499528885,
        0.022486912086606026,
        -0.0012890492798760533,
        -0.02276849001646042,
        -0.01997256465256214,
        0.029295707121491432,
        0.026932455599308014,
        0.02657323144376278,
        0.03265698254108429,
        -0.011384863406419754,
        0.005244985222816467,
        -0.0018137344159185886,
        0.012602153234183788,
        -0.019599374383687973,
        -0.017049752175807953,
        -0.015132149681448936,
        5.916316877119243e-05,
        0.015005894005298615,
        -0.012321512214839458,
        -0.024628400802612305,
        0.02827436849474907,
        -0.033571790903806686,
        -0.0038395756855607033,
        0.025440050289034843,
        0.0021293635945767164,
        0.02577131800353527,
        0.0049627721309661865,
        0.0163828544318676,
        -0.005132220219820738,
        -0.031130000948905945,
        0.002099283505231142,
        -0.03982585668563843,
        -0.023992419242858887,
        0.0002762649965006858,
        -0.017378631979227066,
        0.02214517816901207,
        -0.009556528180837631,
        -0.0005484953289851546,
        0.024995245039463043,
        0.010366130620241165,
        -0.0011841263622045517,
        0.000727107108104974,
        0.006011179182678461,
        0.0447462797164917,
        -0.03601701930165291,
        0.011053815484046936,
        -0.013501912355422974,
        -0.03194572776556015,
        0.02136637270450592,
        0.0007519674254581332,
        -0.001258858130313456,
        -0.004663731902837753,
        -0.028599442914128304,
        -0.028530018404126167,
        0.018524175509810448,
        -0.005578745622187853,
        -0.018308911472558975,
        -0.012578527443110943,
        -0.022375691682100296,
        -0.010623475536704063,
        -0.013654866255819798,
        -0.027902204543352127,
        -0.012741819955408573,
        -0.01227341964840889,
        -0.02209019474685192,
        -0.015102595090866089,
        -0.021323172375559807,
        0.0006932460237294436,
        0.013819729909300804,
        -0.0367656908929348,
        -0.005078216083347797,
        0.04046374186873436,
        -0.0047955201007425785,
        -0.00366310216486454,
        0.03514505922794342,
        0.06323450803756714,
        0.03959173709154129,
        -0.02625000849366188,
        -0.018575036898255348,
        0.004936257842928171,
        -0.0037344535812735558,
        0.013161987997591496,
        -0.005338575225323439,
        -0.03544933348894119,
        0.019204558804631233,
        -0.006476592272520065,
        -0.030929159373044968,
        0.028899338096380234,
        0.036124490201473236,
        -0.005693110637366772,
        0.016128111630678177,
        -0.011619441211223602,
        -0.0138896144926548,
        0.017972858622670174,
        0.02516288310289383,
        -0.030255232006311417,
        -0.006048715673387051,
        0.004846278578042984,
        -0.010786328464746475,
        0.02027895487844944,
        -0.009572109207510948,
        0.043580926954746246,
        -0.021783145144581795,
        -0.0007529258728027344,
        0.0031991195864975452,
        0.01933537982404232,
        0.02454826422035694,
        -0.0018847918836399913,
        0.013566955924034119,
        -0.006744698621332645,
        -0.00733161112293601,
        0.03594810143113136,
        -0.058949366211891174,
        -0.006764063145965338,
        0.03777750954031944,
        -0.01620764471590519,
        0.011035135947167873,
        0.015318816527724266,
        -0.0004201254341751337,
        -0.010006374679505825,
        -0.027430452406406403,
        -0.04016827791929245,
        -0.018694942817091942,
        0.016021838411688805,
        0.0007031065761111677
      ],
      [
        -0.013801196590065956,
        -0.004597037099301815,
        0.02086525596678257,
        0.0045738667249679565,
        -0.021190131083130836,
        0.007129870355129242,
        -0.019882846623659134,
        0.036728594452142715,
        -0.015432842075824738,
        -0.0031414958648383617,
        -0.024192769080400467,
        0.012441263534128666,
        -0.013607250526547432,
        0.010135802440345287,
        -0.0005264747305773199,
        0.04478340223431587,
        0.030207281932234764,
        0.004821850918233395,
        -0.0046917591243982315,
        -0.0032778908498585224,
        -0.02988380566239357,
        0.039920393377542496,
        0.011153237894177437,
        0.002447279170155525,
        -0.004527013748884201,
        0.014264648780226707,
        -0.026592018082737923,
        -0.01697465032339096,
        -0.04870706796646118,
        0.030973205342888832,
        -0.040932755917310715,
        -0.004264968913048506,
        -0.00846058502793312,
        0.011349315755069256,
        -0.027274450287222862,
        0.003083448624238372,
        -0.033137522637844086,
        0.029385337606072426,
        0.031061803922057152,
        -0.0075287530198693275,
        0.0016885874792933464,
        -0.0026417989283800125,
        0.017181193456053734,
        -0.015630893409252167,
        0.014862238429486752,
        -0.00254119373857975,
        -0.01629043184220791,
        -0.000563048932235688,
        0.02110791765153408,
        0.03142869845032692,
        0.005277199205011129,
        -0.00460494589060545,
        -0.023537490516901016,
        0.004371182527393103,
        0.007761321030557156,
        -0.0185447596013546,
        -0.005111684091389179,
        0.009432965889573097,
        0.02019694447517395,
        0.020429734140634537,
        0.03016505390405655,
        -0.0008695387514308095,
        0.010244385339319706,
        -0.013830965384840965,
        0.01187169924378395,
        -0.026089012622833252,
        -0.03179853782057762,
        0.029811693355441093,
        -0.004948385525494814,
        -0.018005313351750374,
        9.669724386185408e-05,
        -0.016922324895858765,
        -0.043491579592227936,
        -0.016911031678318977,
        0.00026830442948266864,
        -0.03125753253698349,
        -0.0280633345246315,
        -0.03038892149925232,
        0.022407764568924904,
        0.00027931432123295963,
        -0.01786850206553936,
        0.011765344068408012,
        -0.011197860352694988,
        0.0015072047244757414,
        -0.02806372568011284,
        0.025126338005065918,
        0.004470158834010363,
        0.003975788131356239,
        0.0033287671394646168,
        -0.013414633460342884,
        0.013327629305422306,
        -0.026780148968100548,
        -0.00992128998041153,
        -0.01878158561885357,
        0.002413940615952015,
        -0.024549733847379684,
        -0.010733040980994701,
        -0.01811991259455681,
        0.0037671136669814587,
        0.020233487710356712,
        -0.0005991369253024459,
        -0.012104136869311333,
        -0.005508801434189081,
        -0.024929797276854515,
        0.011686349287629128,
        0.0024246014654636383,
        -0.00910116732120514,
        0.0026746788062155247,
        0.023592043668031693,
        -0.01804889179766178,
        0.01926165632903576,
        -0.0075365095399320126,
        -0.014393774792551994,
        -0.0024341661483049393,
        -0.0005610379739664495,
        -0.02997906506061554,
        -0.03118203580379486,
        -0.008244264870882034,
        -0.032761350274086,
        0.0160848218947649,
        0.04629381000995636,
        -0.011964570730924606,
        -0.005326429381966591,
        -0.01726565696299076,
        0.055971790105104446,
        0.007206577807664871,
        0.031401995569467545,
        0.0009622941724956036
      ],
      [
        0.010118203237652779,
        -0.020033223554491997,
        -0.009365668520331383,
        0.019224435091018677,
        -0.0057310438714921474,
        0.029002469033002853,
        0.0049688974395394325,
        -0.0027800051029771566,
        0.02021356113255024,
        -0.03289142996072769,
        -0.02464405819773674,
        0.014652957208454609,
        -0.035193197429180145,
        0.012586562894284725,
        0.022199740633368492,
        0.04005223885178566,
        0.010159892961382866,
        0.02608143351972103,
        0.0029257405549287796,
        0.025640295818448067,
        0.0018001020653173327,
        -0.007504901383072138,
        -0.006987990345805883,
        0.022428268566727638,
        0.016304023563861847,
        0.010400980710983276,
        0.0150717468932271,
        0.002175249857828021,
        0.01145515963435173,
        -0.019145136699080467,
        -0.010592998005449772,
        0.028005653992295265,
        0.031910158693790436,
        0.012788389809429646,
        0.015832772478461266,
        -0.0492476150393486,
        0.055277466773986816,
        -0.033590588718652725,
        -0.0005628740764223039,
        0.015451469458639622,
        0.0018255884060636163,
        0.029650911688804626,
        -0.009814782999455929,
        0.013988003134727478,
        0.010197890922427177,
        0.03382416442036629,
        -0.003176262369379401,
        0.019132278859615326,
        -0.038391679525375366,
        -0.013405555859208107,
        0.014379135333001614,
        -0.02831251733005047,
        -0.012956678867340088,
        0.038576073944568634,
        -0.013478454202413559,
        0.002083970932289958,
        -0.023360051214694977,
        0.006255492568016052,
        0.024730045348405838,
        -0.009241871535778046,
        -0.035543400794267654,
        -0.028737680986523628,
        -0.01453852467238903,
        -0.04689117893576622,
        0.0025449185632169247,
        -0.001860247110016644,
        -0.0020706101786345243,
        -0.0009763893904164433,
        0.005143884103745222,
        0.007392860483378172,
        -0.02335350401699543,
        -0.007832566276192665,
        0.0033748627174645662,
        -0.011459263041615486,
        0.025698181241750717,
        0.004343850538134575,
        -0.017128409817814827,
        -0.005930058658123016,
        -0.026323437690734863,
        0.0034963293001055717,
        -0.0026228642091155052,
        0.007490518502891064,
        -0.033190712332725525,
        -0.02653263881802559,
        -0.007416549138724804,
        -0.018056990578770638,
        -0.04738159105181694,
        -0.007541911210864782,
        0.011793568730354309,
        -0.005598658695816994,
        -0.0022404950577765703,
        -0.008425960317254066,
        -0.021587226539850235,
        -0.004880217835307121,
        0.0021664625965058804,
        -0.010202472098171711,
        -0.027647828683257103,
        -0.003193541895598173,
        0.01954755187034607,
        -0.009522696025669575,
        0.0402480773627758,
        -0.004275043029338121,
        -0.02692720666527748,
        -0.043873339891433716,
        0.01818396896123886,
        -0.011939913965761662,
        0.002361416118219495,
        -0.023093892261385918,
        -0.03422635421156883,
        0.029096512123942375,
        0.009608596563339233,
        -0.02246052958071232,
        0.009343027137219906,
        -0.00934300385415554,
        0.007309653330594301,
        -0.010376298800110817,
        -0.008111041970551014,
        0.004108868073672056,
        0.003062671981751919,
        0.004523069132119417,
        -0.01139869075268507,
        0.012393184937536716,
        -0.006861383095383644,
        -0.011218177154660225,
        0.02261427603662014,
        0.01021711714565754,
        0.04159516096115112,
        0.008741459809243679
      ],
      [
        0.0006127397064119577,
        0.0226198211312294,
        -0.032853804528713226,
        -0.029098281636834145,
        0.020926546305418015,
        0.02434444986283779,
        -0.004439165350049734,
        -0.0065233479253947735,
        -0.026780491694808006,
        0.005195969715714455,
        0.006257122848182917,
        0.008735676296055317,
        -0.016477085649967194,
        0.025196107104420662,
        0.0247558131814003,
        -0.0031395230907946825,
        -0.021629462018609047,
        0.011327835731208324,
        0.007704725954681635,
        -0.02997075952589512,
        -0.025564737617969513,
        0.04816155880689621,
        -0.013272220268845558,
        -0.044223204255104065,
        0.019952913746237755,
        -0.020751742646098137,
        -0.02697356790304184,
        0.023203440010547638,
        0.02719181962311268,
        0.020630568265914917,
        -0.02022930234670639,
        0.026027316227555275,
        0.028378037735819817,
        -0.0359119214117527,
        -0.030005544424057007,
        -0.0017271925462409854,
        0.022645791992545128,
        -0.0233777966350317,
        0.013868248090147972,
        0.004635738208889961,
        -0.004827258177101612,
        0.005567194893956184,
        0.02213514968752861,
        0.011878772638738155,
        -0.03002254292368889,
        0.0039611756801605225,
        -0.01796170324087143,
        0.004501085728406906,
        -0.005882227793335915,
        -0.01898048259317875,
        0.03406880795955658,
        0.007970655336976051,
        -0.010196161456406116,
        -0.013780924491584301,
        0.01811770722270012,
        -0.0007863562204875052,
        -0.006445182021707296,
        -0.0020368071272969246,
        0.04290732368826866,
        -0.00027551574748940766,
        0.02313467487692833,
        0.0027478619012981653,
        0.017741646617650986,
        -0.012997963465750217,
        0.015205495990812778,
        0.015424607321619987,
        0.033102672547101974,
        0.017509883269667625,
        -0.022450074553489685,
        0.031452372670173645,
        -0.011414304375648499,
        0.0011683086631819606,
        -0.03124474547803402,
        -0.003492767922580242,
        -0.02739700861275196,
        -0.014856372959911823,
        -0.004829983692616224,
        0.02303648740053177,
        -0.019814085215330124,
        -0.024185961112380028,
        -0.003515553195029497,
        0.01739409752190113,
        -0.028571145609021187,
        0.00916126649826765,
        0.007948674261569977,
        0.001094440114684403,
        -0.008531993255019188,
        -0.03183838725090027,
        0.009437424130737782,
        0.058523520827293396,
        0.014650213532149792,
        -0.008965687826275826,
        0.0036623291671276093,
        0.0008658849401399493,
        0.006369695067405701,
        -0.018488841131329536,
        -0.004118696320801973,
        -0.028778737410902977,
        0.00430804630741477,
        0.002819433808326721,
        -0.05358336493372917,
        0.011404217220842838,
        -0.010585321113467216,
        -0.011432790197432041,
        -0.010778662748634815,
        0.008610297925770283,
        0.04903315380215645,
        0.006735739763826132,
        0.019595865160226822,
        0.031624697148799896,
        0.007564606610685587,
        -0.01919298619031906,
        0.007413480430841446,
        0.012917513027787209,
        -0.0027297227643430233,
        0.001914885127916932,
        -0.016531772911548615,
        -0.01388006191700697,
        -0.00110278045758605,
        0.0025323510635644197,
        -0.027736885473132133,
        -0.0037563752848654985,
        -0.034078340977430344,
        -0.014877156354486942,
        -0.016328761354088783,
        0.01514397095888853,
        -0.00715272780507803,
        0.028307486325502396
      ],
      [
        0.014414987526834011,
        -0.004573019687086344,
        0.0028119804337620735,
        0.027499660849571228,
        0.018674559891223907,
        -0.01689571514725685,
        -0.016363050788640976,
        -0.05686410143971443,
        -0.028916630893945694,
        -0.018177025020122528,
        0.017926307395100594,
        -0.014584161341190338,
        0.033309437334537506,
        0.0070410678163170815,
        -0.02362804301083088,
        0.012361547909677029,
        -0.0270287673920393,
        -0.012751941569149494,
        -0.034773293882608414,
        -0.03694358095526695,
        0.030315935611724854,
        0.008837026543915272,
        -0.01764201745390892,
        0.002467141021043062,
        -0.04295162856578827,
        -0.022879784926772118,
        0.015946483239531517,
        -0.03808889165520668,
        0.008101943880319595,
        -0.02009395882487297,
        -0.013429841957986355,
        0.0009009478962980211,
        -0.021893247961997986,
        0.023127930238842964,
        -0.008023600094020367,
        -0.010121532715857029,
        0.022809524089097977,
        -0.03858357295393944,
        -0.020847095176577568,
        -0.007638575974851847,
        0.01538557093590498,
        -0.009454379789531231,
        -0.015244574286043644,
        -0.020066305994987488,
        0.0001040731294779107,
        0.026066970080137253,
        0.0330013670027256,
        0.014100480824708939,
        -0.018026698380708694,
        0.013895162381231785,
        -0.006839563138782978,
        0.0030634375289082527,
        0.01386331394314766,
        0.028765913099050522,
        0.0001231729838764295,
        -0.01138594001531601,
        0.04771047085523605,
        -0.010517945513129234,
        -0.033959273248910904,
        0.023295076563954353,
        -0.0023761808406561613,
        0.007237610407173634,
        0.019242186099290848,
        0.0230701994150877,
        0.013028130866587162,
        0.007352791726589203,
        -0.02661995403468609,
        -0.025891486555337906,
        0.022014198824763298,
        -0.012499095872044563,
        -0.005064539145678282,
        -0.02904544025659561,
        0.007359480485320091,
        0.027060819789767265,
        -0.006128689274191856,
        -0.014410964213311672,
        0.006079050246626139,
        0.008935967460274696,
        -0.01257490087300539,
        0.004466616082936525,
        -0.01358095370233059,
        0.00791903492063284,
        0.0052232095040380955,
        -0.004531325306743383,
        0.00928475521504879,
        -0.008396327495574951,
        0.00098347757011652,
        0.028338026255369186,
        0.02157939411699772,
        -0.009757878258824348,
        -0.02766897715628147,
        -0.007325939834117889,
        0.007250172086060047,
        -0.010141359642148018,
        0.04205578565597534,
        0.0077928523533046246,
        -0.03690975159406662,
        -0.02923286333680153,
        0.0025840068701654673,
        0.004718417767435312,
        0.0017628641799092293,
        -0.007215311750769615,
        -0.01311169657856226,
        0.009688932448625565,
        0.04131333529949188,
        0.01933394744992256,
        -0.024988774210214615,
        -0.01409820094704628,
        0.02375481091439724,
        -0.013344600796699524,
        -0.0009347249288111925,
        0.007988783530890942,
        -0.01237963605672121,
        -0.019013743847608566,
        -0.008806873112916946,
        -0.013452931307256222,
        0.011651886627078056,
        -0.008049745112657547,
        -0.005912326276302338,
        0.005331993103027344,
        -0.019689681008458138,
        0.04019271209836006,
        -0.01967204175889492,
        -0.018442995846271515,
        0.023645691573619843,
        0.0078123933635652065,
        0.004941761959344149,
        0.004869677126407623
      ],
      [
        -0.011364374309778214,
        0.02562573365867138,
        0.0019458888564258814,
        -0.007496586535125971,
        0.0031267653685063124,
        0.030100516974925995,
        0.012876997701823711,
        -0.041978854686021805,
        -0.02457110397517681,
        0.009202140383422375,
        -0.023433858528733253,
        0.025793325155973434,
        -0.03207862749695778,
        -0.009073483757674694,
        0.0037942214403301477,
        -0.00929910410195589,
        -0.004989112261682749,
        0.03659819811582565,
        0.014015630818903446,
        0.019826240837574005,
        -0.049020785838365555,
        -0.02153421752154827,
        0.01073883380740881,
        -0.0029101278632879257,
        -0.01810782589018345,
        -0.03597539663314819,
        -0.025945255532860756,
        -0.0014434301992878318,
        0.03774218633770943,
        0.02151251770555973,
        -0.02068747580051422,
        -0.0031953032594174147,
        -0.01975001022219658,
        -0.014090975746512413,
        0.037561532109975815,
        -0.0012669656425714493,
        0.012905559502542019,
        0.03498292341828346,
        -0.018774187192320824,
        -0.029733100906014442,
        0.022438712418079376,
        -0.001833147369325161,
        0.029671210795640945,
        0.02789411135017872,
        0.014993534423410892,
        -0.023365642875432968,
        0.01655563712120056,
        0.004702335223555565,
        0.03242048621177673,
        0.0106981685385108,
        0.009746518917381763,
        0.012249835766851902,
        0.0017639020225033164,
        -0.01124008372426033,
        -0.0008991345530375838,
        -0.01716170273721218,
        -0.019572298973798752,
        -0.03936079889535904,
        0.000734117638785392,
        0.012474030256271362,
        0.010196668095886707,
        0.008843245916068554,
        -0.03637085482478142,
        -0.020135901868343353,
        0.03728918358683586,
        0.050679076462984085,
        -0.015642477199435234,
        -0.02691511996090412,
        -0.013949595391750336,
        0.04062977060675621,
        -0.015983834862709045,
        -0.02531805820763111,
        -0.024016104638576508,
        -0.0016730576753616333,
        -0.04997556284070015,
        0.020257679745554924,
        -0.0053492020815610886,
        -0.005879792384803295,
        0.04654334485530853,
        0.03995446860790253,
        -0.006131303496658802,
        -0.024041762575507164,
        0.017549561336636543,
        -0.0040524485521018505,
        0.0201412383466959,
        -0.010689539834856987,
        0.048829395323991776,
        -0.007382391951978207,
        0.0327998548746109,
        -0.022120118141174316,
        -0.049282997846603394,
        0.0019196285866200924,
        -0.002466341480612755,
        0.008584248833358288,
        0.004143907688558102,
        0.012049885466694832,
        -6.000179928378202e-05,
        0.016911856830120087,
        -0.010177805088460445,
        -0.0244961678981781,
        0.021083252504467964,
        0.006683064624667168,
        0.03277469053864479,
        -0.017538905143737793,
        -0.02201629988849163,
        0.00861229095607996,
        -0.018464641645550728,
        0.008106553927063942,
        0.05801107734441757,
        -0.014703136868774891,
        -0.04096062853932381,
        0.016294753178954124,
        0.012083257548511028,
        0.00697288615629077,
        -0.005599495489150286,
        -0.030065791681408882,
        -0.026185505092144012,
        0.020204074680805206,
        0.023134374991059303,
        -0.01452934741973877,
        -0.01999163255095482,
        -0.0028284925501793623,
        0.028256773948669434,
        -0.04455648735165596,
        0.02695968560874462,
        0.011478624306619167,
        -0.019788337871432304,
        0.027836961671710014
      ],
      [
        0.018404429778456688,
        -0.005819798447191715,
        0.007305758073925972,
        0.009405055083334446,
        -0.04123714566230774,
        0.004488059785217047,
        -0.003255896968767047,
        -0.0035148870665580034,
        0.02947026863694191,
        0.006147315260022879,
        -0.018391111865639687,
        -0.033222682774066925,
        0.003083422314375639,
        -0.030105281621217728,
        -0.018531225621700287,
        0.007653991226106882,
        0.01282122265547514,
        -0.0035303421318531036,
        0.022460877895355225,
        -0.021956298500299454,
        0.007257027085870504,
        -0.02542792819440365,
        -0.020459581166505814,
        -0.014151404611766338,
        0.039722662419080734,
        -0.027301358059048653,
        -0.011398780159652233,
        0.024051059037446976,
        0.012985359877347946,
        0.006138956639915705,
        0.03009825013577938,
        0.0013513820013031363,
        -0.03484668955206871,
        0.004339536651968956,
        -0.025636889040470123,
        0.0007591692265123129,
        0.0232671108096838,
        0.009607171639800072,
        -0.004927697125822306,
        0.01483923103660345,
        0.012025033123791218,
        0.008046305738389492,
        -0.033527083694934845,
        -0.0012891222722828388,
        0.012131942436099052,
        0.006219453178346157,
        0.019443467259407043,
        0.019274579361081123,
        -0.0048156320117414,
        0.042625170201063156,
        -0.009589486755430698,
        -0.0009624877711758018,
        -0.012235213071107864,
        0.030034182593226433,
        0.010099845007061958,
        -0.016752133145928383,
        0.001474607503041625,
        -0.001525084488093853,
        -0.02156117372214794,
        0.006269897799938917,
        -0.01168391015380621,
        -0.007358829956501722,
        -0.01713278703391552,
        0.014059126377105713,
        -0.006823696196079254,
        -0.002024759305641055,
        -0.0077035073190927505,
        0.02784980647265911,
        0.008024843409657478,
        -0.011260597966611385,
        -0.013314364477992058,
        0.0364975705742836,
        -0.007308224216103554,
        -0.0200980082154274,
        -0.019277092069387436,
        0.0039921710267663,
        0.016262821853160858,
        -0.016220662742853165,
        -0.018531881272792816,
        -0.0588473342359066,
        0.015835583209991455,
        -0.011050423607230186,
        -0.03445983678102493,
        0.006105674896389246,
        0.00714870123192668,
        -0.008762748911976814,
        -0.012111554853618145,
        0.015281244181096554,
        0.0279143825173378,
        0.0158899687230587,
        0.024465713649988174,
        0.006256584078073502,
        -0.02142351306974888,
        0.013940720818936825,
        -0.0029265140183269978,
        -0.02299262210726738,
        0.028613585978746414,
        -0.0010636965744197369,
        0.0008809923892840743,
        -0.00010629481403157115,
        0.013151438906788826,
        -0.029006164520978928,
        -0.014624192379415035,
        -0.006712136324495077,
        -0.009659931994974613,
        -0.04236987605690956,
        0.020675119012594223,
        -0.024049291387200356,
        -0.0221279114484787,
        -0.025223921984434128,
        -0.006770589854568243,
        0.02033042535185814,
        0.013389301486313343,
        0.00713252741843462,
        0.03977464511990547,
        0.0055428240448236465,
        0.027597200125455856,
        0.006171302404254675,
        -0.02200949378311634,
        -0.02536378800868988,
        0.002147628227248788,
        -0.006854681763797998,
        0.019448352977633476,
        -0.021307243034243584,
        -0.009643000550568104,
        0.010319617576897144,
        -0.021125413477420807,
        -0.005943864118307829
      ],
      [
        -0.004395330790430307,
        0.021923493593931198,
        -0.013431106694042683,
        0.018975479528307915,
        -0.04012031480669975,
        -0.010330937802791595,
        -0.0003192205331288278,
        -0.034776292741298676,
        -0.022936467081308365,
        0.0003149410476908088,
        0.012895801104605198,
        -0.015983745455741882,
        -0.01729811728000641,
        0.02988452836871147,
        -0.02457924373447895,
        -0.014139075763523579,
        0.025432152673602104,
        -0.015088073909282684,
        -0.023355664685368538,
        -0.0044221351854503155,
        -0.0010392542462795973,
        0.008519905619323254,
        0.04334789514541626,
        -0.013989314436912537,
        0.023396730422973633,
        -0.06669825315475464,
        0.00902504101395607,
        0.021290868520736694,
        0.008826731704175472,
        -0.022914282977581024,
        -0.00516534922644496,
        0.03487509861588478,
        -0.03464667126536369,
        -0.015753082931041718,
        0.01265043020248413,
        -0.012347791343927383,
        -0.01039770245552063,
        -0.00037424080073833466,
        -0.029727371409535408,
        0.0014116708189249039,
        0.004401146434247494,
        0.039336953312158585,
        -0.008278004825115204,
        -0.002747998107224703,
        0.0018522008322179317,
        -0.02598654292523861,
        0.0009775753132998943,
        0.012182599864900112,
        -0.0013518244959414005,
        -0.010920306667685509,
        0.014552661217749119,
        -0.03690310940146446,
        -0.005222867242991924,
        0.010877738706767559,
        -0.0051337056793272495,
        0.009374338202178478,
        0.02847278118133545,
        -0.0035218920093029737,
        0.01596149243414402,
        0.001344038755632937,
        0.015165567398071289,
        0.029117895290255547,
        0.03464866429567337,
        0.013439273461699486,
        0.0008026136783882976,
        -0.037071432918310165,
        0.004691599402576685,
        -0.008917678147554398,
        0.023862916976213455,
        -0.009456285275518894,
        0.016816716641187668,
        0.010432071052491665,
        -0.01834539882838726,
        -0.02488376945257187,
        0.04208589345216751,
        0.02031884156167507,
        -0.016924245283007622,
        0.02479335479438305,
        -0.0022530050482600927,
        -0.041190944612026215,
        -0.0005556013784371316,
        -0.0042932224459946156,
        0.02085796929895878,
        0.022528547793626785,
        0.0016776950797066092,
        -0.004450952634215355,
        0.03366287052631378,
        -0.006522734183818102,
        -0.029125146567821503,
        0.013759668916463852,
        -0.018064072355628014,
        0.0013976774644106627,
        -0.029403937980532646,
        -0.016299400478601456,
        0.022272303700447083,
        -0.005760611966252327,
        -0.021270133554935455,
        0.006619382183998823,
        -0.013848787173628807,
        0.024230746552348137,
        -0.0015761227114126086,
        0.003936153836548328,
        -0.014433737844228745,
        -0.023319032043218613,
        -0.002170422812923789,
        -0.0038586664013564587,
        -0.023310508579015732,
        -0.01543492078781128,
        -0.02226083353161812,
        0.013983395881950855,
        -0.017435917630791664,
        0.04230324178934097,
        0.00588125828653574,
        0.025677930563688278,
        -0.027600036934018135,
        -0.004511468578130007,
        0.003276862669736147,
        -0.014055541716516018,
        0.04222099855542183,
        0.03295620530843735,
        0.005897905677556992,
        0.023454027250409126,
        -0.02020466886460781,
        0.0014225093182176352,
        4.852169513469562e-05,
        -0.018320774659514427,
        0.03820423781871796,
        0.03228170424699783
      ],
      [
        -0.008185457438230515,
        -0.017811065539717674,
        -0.01717573031783104,
        -0.010697801597416401,
        0.0029958533123135567,
        -0.004011522978544235,
        0.016068337485194206,
        -0.0024409545585513115,
        0.009005422703921795,
        0.022614065557718277,
        -0.01075945794582367,
        -0.010272533632814884,
        -0.006921900901943445,
        0.00017626519547775388,
        -0.007022751495242119,
        -0.005190059542655945,
        -0.023649783805012703,
        -0.02166007086634636,
        0.03891827538609505,
        -0.0029019161593168974,
        -0.03923114761710167,
        0.001158718136139214,
        0.015741616487503052,
        0.03695147857069969,
        -0.025998195633292198,
        0.0240583885461092,
        -0.0002739850024227053,
        -0.008950860239565372,
        0.007147680036723614,
        0.0213028434664011,
        0.010913905687630177,
        0.004712756723165512,
        0.013001528568565845,
        0.015195786952972412,
        0.021425243467092514,
        -0.05028696358203888,
        -0.0017778861802071333,
        0.007074751891195774,
        -0.0011732922866940498,
        0.011802558787167072,
        -0.04129333794116974,
        -0.009016094729304314,
        0.016778137534856796,
        0.04900379478931427,
        -0.01720651425421238,
        -0.009618415497243404,
        0.010260386392474174,
        0.002908253576606512,
        -0.027667274698615074,
        0.0006973104318603873,
        -0.029363323003053665,
        -0.014172050170600414,
        -0.008958909660577774,
        -0.006180892698466778,
        0.000565241789445281,
        -0.027388865128159523,
        0.002662642626091838,
        -0.006509858183562756,
        -0.014090495184063911,
        0.0030272311996668577,
        0.008995972573757172,
        0.04019782692193985,
        -0.03312743082642555,
        -0.005374077707529068,
        0.04377162456512451,
        0.04922962561249733,
        0.019739734008908272,
        0.014158819802105427,
        0.029345395043492317,
        -0.03457918018102646,
        0.034942250698804855,
        -0.03745095431804657,
        -0.007557890377938747,
        -0.010503453202545643,
        0.03650275617837906,
        0.01325012743473053,
        -0.0010213180212303996,
        -0.017188239842653275,
        0.002870677039027214,
        -0.004840211942791939,
        -0.03250766173005104,
        -0.028233526274561882,
        -0.016085540875792503,
        -0.007598424330353737,
        0.002180837793275714,
        0.019263511523604393,
        -0.016869649291038513,
        -0.026125498116016388,
        -0.026422971859574318,
        0.009592823684215546,
        0.004529823549091816,
        0.008322106674313545,
        0.016088180243968964,
        -0.03409108519554138,
        0.014631218276917934,
        -0.009501062333583832,
        0.01478701364248991,
        0.0031912776175886393,
        -0.020212188363075256,
        -0.040710460394620895,
        0.006557604297995567,
        -0.022348593920469284,
        -9.562718332745135e-05,
        -0.010597722604870796,
        0.016700902953743935,
        -0.009119042195379734,
        -0.004479693714529276,
        0.00039284155354835093,
        0.00329670961946249,
        0.03758636862039566,
        -0.024000469595193863,
        -0.03013421595096588,
        0.005048185121268034,
        0.0386563204228878,
        0.029274705797433853,
        -0.006012988742440939,
        0.011367324739694595,
        0.011831960640847683,
        -0.0024433531798422337,
        -0.012964651919901371,
        -0.0070665995590388775,
        0.020701974630355835,
        0.0056128972209990025,
        0.004711357410997152,
        -0.006575793959200382,
        -0.019524047151207924,
        0.0013908491237089038,
        0.014558663591742516
      ],
      [
        -0.00037570676067844033,
        0.015208492986857891,
        0.010240529663860798,
        -0.014721468091011047,
        -0.021098721772432327,
        0.005714658182114363,
        -0.03162301331758499,
        -0.01665315590798855,
        0.00040694201015867293,
        -0.004596893675625324,
        0.035650450736284256,
        -0.0005691292462870479,
        -0.02097051963210106,
        -0.01625320129096508,
        -0.007741641253232956,
        -0.025245163589715958,
        -0.019074978306889534,
        0.015700075775384903,
        -0.004805597010999918,
        -0.020618967711925507,
        -0.0006439145654439926,
        0.033833105117082596,
        -0.022431764751672745,
        0.006885162554681301,
        -0.0002772733278106898,
        0.0014035096392035484,
        0.020319096744060516,
        -0.0013945866376161575,
        0.01138930581510067,
        -0.02176368609070778,
        -0.0003069236408919096,
        -0.023947084322571754,
        0.002185849007219076,
        -0.020254723727703094,
        0.007563771679997444,
        -0.03412890061736107,
        0.006621639244258404,
        0.022474342957139015,
        -0.002681712619960308,
        0.011973571963608265,
        -0.0037305967416614294,
        -0.006448295433074236,
        0.0125607680529356,
        -0.011129389517009258,
        0.03760942816734314,
        0.009731379337608814,
        0.0008137747063301504,
        -0.03351708501577377,
        -0.04146197810769081,
        -0.03423643484711647,
        -0.024470100179314613,
        0.013730510137975216,
        0.004744319710880518,
        0.00963409710675478,
        0.03965873643755913,
        0.004743093624711037,
        -0.03330959379673004,
        0.00045110462815500796,
        0.0019526224350556731,
        0.004511715844273567,
        -0.014921700581908226,
        -0.013128492049872875,
        0.009474560618400574,
        0.029756976291537285,
        -0.003968195524066687,
        -0.0221236702054739,
        0.0034946126397699118,
        -0.05108782276511192,
        -0.019788624718785286,
        -0.015223237685859203,
        0.01210098247975111,
        0.05217105150222778,
        -0.02123210020363331,
        -0.014536408707499504,
        0.010602946393191814,
        -0.009918036870658398,
        -0.020253093913197517,
        0.0040771570056676865,
        0.008023287169635296,
        -0.014605294913053513,
        0.038622498512268066,
        0.0159364715218544,
        0.017741365358233452,
        0.029373623430728912,
        -0.003317460883408785,
        0.02996445819735527,
        -0.013159399852156639,
        0.0345393642783165,
        -0.004200872033834457,
        -0.010348625481128693,
        -0.007003930862993002,
        -0.025088578462600708,
        -0.009346677921712399,
        0.003783394582569599,
        -0.04814743995666504,
        0.009489111602306366,
        -0.010886608622968197,
        0.01284738164395094,
        0.029000891372561455,
        0.00019093771697953343,
        0.008168029598891735,
        -0.0067736487835645676,
        0.0022802427411079407,
        -0.0016103873495012522,
        -0.004120721947401762,
        0.004571476485580206,
        -0.04153309017419815,
        -0.005447312258183956,
        -0.0047275833785533905,
        -0.01635870151221752,
        -0.009707145392894745,
        0.005181222688406706,
        -0.00153152400162071,
        -0.0054352059960365295,
        0.03532711789011955,
        0.00563122658059001,
        -0.008266051299870014,
        -0.006889063399285078,
        0.006602828856557608,
        -0.026471177116036415,
        0.005914947483688593,
        -0.03108181245625019,
        0.015940533950924873,
        0.013147267512977123,
        0.015616132877767086,
        -0.018177218735218048,
        -0.029362326487898827,
        0.002392413094639778
      ],
      [
        -0.004764431156218052,
        0.004552906844764948,
        -0.029701722785830498,
        0.018501857295632362,
        0.0028018809389322996,
        0.007169513497501612,
        0.05037394165992737,
        0.007177092134952545,
        0.0041071269661188126,
        -0.0030513363890349865,
        0.010582714341580868,
        -0.02271406725049019,
        -0.00854715146124363,
        0.004423391539603472,
