{
  "architecture": {
    "latent_dim": 8,
    "output_dim": 2,
    "num_classes": 0,
    "embed_dim": 64,
    "conditional": false
  },
  "layers": [
    {
      "index": 0,
      "in_features": 8,
      "out_features": 256,
      "activation": "relu",
      "use_bn": true,
      "conditional": false
    },
    {
      "index": 1,
      "in_features": 256,
      "out_features": 256,
      "activation": "relu",
      "use_bn": true,
      "conditional": false
    },
    {
      "index": 2,
      "in_features": 256,
      "out_features": 2,
      "activation": "linear",
      "use_bn": false,
      "conditional": false
    }
  ],
  "parameters": {
    "gen_0_weight": [
      [
        -0.007955682463943958,
        0.001751761301420629,
        0.021954422816634178,
        0.02454797551035881,
        0.008928207680583,
        -0.006845458876341581,
        -0.035106584429740906,
        0.0019257249077782035
      ],
      [
        -0.003815010190010071,
        -0.018194232136011124,
        0.04633583500981331,
        0.02581968531012535,
        0.005869044456630945,
        -0.011716233566403389,
        0.01143220067024231,
        0.01297722663730383
      ],
      [
        0.035879939794540405,
        0.024283450096845627,
        -0.034039415419101715,
        -0.0037364617455750704,
        -0.029869193211197853,
        -0.031073493883013725,
        0.0023122807033360004,
        -0.007047718390822411
      ],
      [
        0.0034900924656540155,
        0.016136962920427322,
        -0.04328717663884163,
        -0.023478778079152107,
        -0.005153501871973276,
        0.010990875773131847,
        -0.011088795959949493,
        -0.011380513198673725
      ],
      [
        0.003337188856676221,
        0.014749341644346714,
        -0.03912121057510376,
        -0.02189476415514946,
        -0.004688134882599115,
        0.010103736072778702,
        -0.009907889179885387,
        -0.01036153081804514
      ],
      [
        0.02302803285419941,
        0.038164202123880386,
        -0.01615930162370205,
        0.01182567235082388,
        -0.016920605674386024,
        -0.024892903864383698,
        0.02381850779056549,
        0.008864282630383968
      ],
      [
        0.004423446021974087,
        0.01971559040248394,
        -0.05298760533332825,
        -0.029175560921430588,
        -0.006348065100610256,
        0.01369453314691782,
        -0.01379134226590395,
        -0.014268343336880207
      ],
      [
        -0.004694745410233736,
        0.02142215333878994,
        -0.007944573648273945,
        0.012459189631044865,
        0.003944261930882931,
        0.0004210833285469562,
        -0.04649921879172325,
        -0.00047409729450009763
      ],
      [
        -0.006214174907654524,
        -0.02619628980755806,
        0.06529372185468674,
        0.03590380400419235,
        0.007813460193574429,
        -0.016813019290566444,
        0.01936420612037182,
        0.017835523933172226
      ],
      [
        0.009070930071175098,
        -0.012900128029286861,
        -0.017073368653655052,
        -0.02596893347799778,
        -0.010200281627476215,
        0.0052195386961102486,
        0.038146357983350754,
        -0.005989611614495516
      ],
      [
        0.00409285631030798,
        0.018438812345266342,
        -0.04892402142286301,
        -0.027223417535424232,
        -0.005752143450081348,
        0.012558222748339176,
        -0.012529739178717136,
        -0.012998012825846672
      ],
      [
        -0.0028520398773252964,
        0.03132050111889839,
        -0.042422063648700714,
        -0.013567603193223476,
        -0.0005552537622861564,
        0.013775431551039219,
        -0.03124898485839367,
        -0.016830455511808395
      ],
      [
        -0.010407659225165844,
        -0.0120772710070014,
        0.04713452607393265,
        0.01903464086353779,
        0.012019045650959015,
        -0.006211834494024515,
        0.018441325053572655,
        0.007658302318304777
      ],
      [
        0.03340156376361847,
        0.04031286761164665,
        -0.028528159484267235,
        -0.00888795219361782,
        -0.028598874807357788,
        -0.018198424950242043,
        0.03613521158695221,
        0.0008917700033634901
      ],
      [
        0.0035047405399382114,
        0.01778784580528736,
        -0.04773514345288277,
        -0.02674597129225731,
        -0.005621300544589758,
        0.012213263660669327,
        -0.01225999090820551,
        -0.012485080398619175
      ],
      [
        -0.0019002783810719848,
        0.019441694021224976,
        -0.04814779758453369,
        -0.018555371090769768,
        0.002507002791389823,
        0.017940253019332886,
        -0.016829974949359894,
        -0.013481056317687035
      ],
      [
        -0.0324617400765419,
        -0.00951168779283762,
        0.008794637396931648,
        0.008848857134580612,
        0.026057599112391472,
        0.02802448533475399,
        0.010215659625828266,
        -0.0029013354796916246
      ],
      [
        0.008861088193953037,
        -0.013139934279024601,
        -0.017611239105463028,
        -0.026852155104279518,
        -0.010118052363395691,
        0.0053113363683223724,
        0.03943372145295143,
        -0.005732828751206398
      ],
      [
        -0.007883105427026749,
        0.028569743037223816,
        -0.008479037322103977,
        0.017279142513871193,
        0.004827904514968395,
        0.0015285488916561007,
        -0.06271077692508698,
        0.0005737125175073743
      ],
      [
        -0.01375559438019991,
        0.015261493623256683,
        0.03774027153849602,
        0.027279796078801155,
        0.010594933293759823,
        -0.03547940403223038,
        0.021419288590550423,
        -0.015029745176434517
      ],
      [
        0.004045788198709488,
        0.018932251259684563,
        -0.049981046468019485,
        -0.027422156184911728,
        -0.006038252264261246,
        0.01299837976694107,
        -0.0127915870398283,
        -0.013356288895010948
      ],
      [
        0.03496788442134857,
        0.024323053658008575,
        0.003258085111156106,
        -0.014178476296365261,
        -0.02851005829870701,
        -0.03029218502342701,
        0.004636027850210667,
        0.002183294389396906
      ],
      [
        -0.004754250403493643,
        0.025842996314167976,
        -0.012710348702967167,
        0.01757698878645897,
        0.010668298229575157,
        0.0023640221916139126,
        -0.05580338090658188,
        -0.00024434749502688646
      ],
      [
        0.01617567427456379,
        0.02627035602927208,
        -0.04198884963989258,
        -0.005481919273734093,
        -0.010299893096089363,
        -0.0030968969222158194,
        0.005073377396911383,
        -0.004939617123454809
      ],
      [
        -0.003085165284574032,
        -0.013553522527217865,
        0.03752998262643814,
        0.01977766491472721,
        0.004690673667937517,
        -0.009710111655294895,
        0.009559780359268188,
        0.010108348913490772
      ],
      [
        -0.033158786594867706,
        0.009477626532316208,
        0.006654337979853153,
        0.016637392342090607,
        0.030246665701270103,
        0.010248691774904728,
        0.009243719279766083,
        -0.005301645491272211
      ],
      [
        -0.005782445427030325,
        0.028363078832626343,
        -0.010828282684087753,
        0.013926156796514988,
        0.00680942740291357,
        0.001937216380611062,
        -0.05574514716863632,
        0.00023061467800289392
      ],
      [
        -0.008091465570032597,
        0.01130666770040989,
        0.038208287209272385,
        0.02128199301660061,
        0.006848723161965609,
        -0.0077451495453715324,
        0.004045840352773666,
        0.005814358126372099
      ],
      [
        0.0024362506810575724,
        -0.01718827523291111,
        0.038815513253211975,
        0.011084862984716892,
        0.0016362154856324196,
        -0.007454412989318371,
        0.03183946758508682,
        0.007790512405335903
      ],
      [
        -0.009058663621544838,
        0.019493304193019867,
        0.011000458151102066,
        0.026357168331742287,
        0.010716091841459274,
        -0.006330801174044609,
        -0.04745431989431381,
        0.002023062901571393
      ],
      [
        -0.004487833473831415,
        -0.019228816032409668,
        0.051366329193115234,
        0.02817104198038578,
        0.005920251365751028,
        -0.013588258996605873,
        0.013505195267498493,
        0.01415388472378254
      ],
      [
        -0.006431992165744305,
        0.026878034695982933,
        0.039704903960227966,
        0.03701721876859665,
        0.009716199710965157,
        -0.013183309696614742,
        -0.0031736399978399277,
        0.009105190634727478
      ],
      [
        -0.005172291770577431,
        0.02523965574800968,
        -0.009994897060096264,
        0.012033559381961823,
        0.005276606883853674,
        0.0019189510494470596,
        -0.050145987421274185,
        0.00026582967257127166
      ],
      [
        -0.020618252456188202,
        -0.0030915304087102413,
        -0.002343983156606555,
        -0.002335653640329838,
        0.020434552803635597,
        0.04677783325314522,
        -0.0037793072406202555,
        -0.0011149921920150518
      ],
      [
        0.013394786976277828,
        -0.019599903374910355,
        -0.026006169617176056,
        -0.039342086762189865,
        -0.014500939287245274,
        0.00832502543926239,
        0.057775598019361496,
        -0.00837495643645525
      ],
      [
        -0.011374169029295444,
        0.017506349831819534,
        0.022770995274186134,
        0.03419306501746178,
        0.012229655869305134,
        -0.007241277489811182,
        -0.050310224294662476,
        0.007675803266465664
      ],
      [
        0.008991892449557781,
        -0.012146121822297573,
        -0.016464130952954292,
        -0.02533380314707756,
        -0.00994545966386795,
        0.0050881123170256615,
        0.03690497949719429,
        -0.0056960321962833405
      ],
      [
        -0.040946006774902344,
        -0.021257199347019196,
        0.014866212382912636,
        0.004705827217549086,
        0.0324951596558094,
        0.03531012684106827,
        0.015123555436730385,
        -0.004330030642449856
      ],
      [
        -0.03309935703873634,
        0.032814253121614456,
        -0.026707489043474197,
        -0.022070687264204025,
        0.02416425570845604,
        0.03603806719183922,
        -0.04140477254986763,
        -0.007254063151776791
      ],
      [
        -0.007139025721698999,
        0.010153466835618019,
        0.014468987472355366,
        0.02115343138575554,
        0.007318438962101936,
        -0.004686217289417982,
        -0.031202085316181183,
        0.004643731750547886
      ],
      [
        0.009458438493311405,
        -0.014051859267055988,
        -0.01890425570309162,
        -0.02849443443119526,
        -0.010683005675673485,
        0.00583070982247591,
        0.04190617427229881,
        -0.00616103271022439
      ],
      [
        -0.002578714629635215,
        -0.021886538714170456,
        0.05012517422437668,
        0.024496525526046753,
        0.00353009020909667,
        -0.012371296994388103,
        0.02028665505349636,
        0.012189025990664959
      ],
      [
        -0.011009746231138706,
        0.01692756824195385,
        0.023170892149209976,
        0.03433101624250412,
        0.012439141981303692,
        -0.0075692301616072655,
        -0.049786411225795746,
        0.007350444328039885
      ],
      [
        0.002714086789637804,
        0.0019868621602654457,
        0.0343422070145607,
        0.031762756407260895,
        0.0012465798063203692,
        -0.01814463548362255,
        -0.004955177195370197,
        0.012134685181081295
      ],
      [
        0.008347704075276852,
        -0.012048451229929924,
        -0.016288818791508675,
        -0.02441023476421833,
        -0.009445310570299625,
        0.004757859744131565,
        0.03606453910470009,
        -0.0053500705398619175
      ],
      [
        0.00983406975865364,
        -0.01425001211464405,
        -0.019520480185747147,
        -0.02898588590323925,
        -0.010878464207053185,
        0.005841962993144989,
        0.042745575308799744,
        -0.006288087461143732
      ],
      [
        0.001609785482287407,
        0.03790790215134621,
        -0.03605465590953827,
        -0.00846229400485754,
        0.0013559726066887379,
        0.004742590710520744,
        -0.04887351766228676,
        -0.006049708463251591
      ],
      [
        -0.0033248630352318287,
        -0.011490472592413425,
        0.029930513352155685,
        0.01614820584654808,
        0.003981819376349449,
        -0.006600467022508383,
        0.008180421777069569,
        0.008071387186646461
      ],
      [
        -0.00669657438993454,
        0.03535144403576851,
        -0.013927070423960686,
        0.01660863682627678,
        0.007228721398860216,
        0.002496483735740185,
        -0.06909272819757462,
        0.0016919070621952415
      ],
      [
        0.004617047030478716,
        0.0027637893799692392,
        -0.04401415213942528,
        -0.030207406729459763,
        -0.006464913487434387,
        0.015480099245905876,
        -0.005460562650114298,
        -0.015744686126708984
      ],
      [
        -0.00958158913999796,
        0.014718557707965374,
        0.019803287461400032,
        0.02919401042163372,
        0.011425299569964409,
        -0.006245907861739397,
        -0.04364394024014473,
        0.006548904348164797
      ],
      [
        -0.004441314842551947,
        0.02396331913769245,
        -0.008982173167169094,
        0.013696612790226936,
        0.005558931268751621,
        0.0009097714792005718,
        -0.05149585008621216,
        2.272575511597097e-05
      ],
      [
        -0.008684860542416573,
        0.013442332856357098,
        0.017010582610964775,
        0.02593953162431717,
        0.009303327649831772,
        -0.0056047746911644936,
        -0.038842737674713135,
        0.005904134828597307
      ],
      [
        0.0046107349917292595,
        -0.01859588548541069,
        0.04866643622517586,
        0.03139200434088707,
        0.0012809387408196926,
        -0.015972092747688293,
        0.01364890392869711,
        0.016124550253152847
      ],
      [
        0.003266730811446905,
        0.015995271503925323,
        -0.04261058568954468,
        -0.02323145605623722,
        -0.005142555106431246,
        0.010964268818497658,
        -0.01090606115758419,
        -0.011305559426546097
      ],
      [
        -0.0031324776355177164,
        -0.015520050190389156,
        0.04141320660710335,
        0.022482244297862053,
        0.004727533087134361,
        -0.010674838908016682,
        0.010301544331014156,
        0.011146806180477142
      ],
      [
        0.018117161467671394,
        -0.016206001862883568,
        0.04147878289222717,
        -0.007333043962717056,
        -0.021437881514430046,
        -0.02072693407535553,
        0.044242117553949356,
        0.01169526670128107
      ],
      [
        0.00813839491456747,
        0.04460235312581062,
        0.0031907022930681705,
        -0.007963704876601696,
        0.0014875229680910707,
        0.002725397702306509,
        0.011537966318428516,
        -0.004691679030656815
      ],
      [
        -0.007295479532331228,
        0.037488169968128204,
        -0.01403672993183136,
        0.01827552728354931,
        0.008771441876888275,
        0.0025516850873827934,
        -0.07450038194656372,
        0.0010459981858730316
      ],
      [
        -0.008693805895745754,
        0.013273108750581741,
        0.01847434788942337,
        0.026867685839533806,
        0.010274820029735565,
        -0.005470572039484978,
        -0.03982698172330856,
        0.005636224057525396
      ],
      [
        -0.03868214040994644,
        0.019237857311964035,
        -0.004721867851912975,
        0.011747010983526707,
        0.03175206482410431,
        0.017606720328330994,
        0.010955346748232841,
        -0.007097454741597176
      ],
      [
        0.007079620845615864,
        -0.03329190984368324,
        -0.010139906778931618,
        -0.029416633769869804,
        -0.011994877830147743,
        0.0030393556226044893,
        0.06663081794977188,
        -0.005946415476500988
      ],
      [
        0.020568234845995903,
        0.013401192612946033,
        -0.023180047050118446,
        0.007187355309724808,
        -0.015321341343224049,
        -0.01967233046889305,
        -0.004862561356276274,
        -0.012321512214839458
      ],
      [
        -0.006361139472573996,
        0.029004747048020363,
        -0.010484823025763035,
        0.014761533588171005,
        0.006820978596806526,
        0.00153149024117738,
        -0.058862634003162384,
        -0.0005757728358730674
      ],
      [
        0.007823772728443146,
        -0.027101393789052963,
        -0.025374334305524826,
        -0.040742967277765274,
        -0.010236592963337898,
        0.016322597861289978,
        0.04205857217311859,
        -0.006424393970519304
      ],
      [
        -0.005093210842460394,
        0.025755321606993675,
        -0.009504510089755058,
        0.014166275039315224,
        0.004929669201374054,
        0.0006173073779791594,
        -0.05613509565591812,
        0.0004703436861746013
      ],
      [
        0.007461738307029009,
        -0.010990672744810581,
        -0.015143479220569134,
        -0.023156706243753433,
        -0.008918987587094307,
        0.004687638487666845,
        0.03349963203072548,
        -0.005148990545421839
      ],
      [
        0.010692325420677662,
        -0.015873048454523087,
        -0.021501101553440094,
        -0.032200995832681656,
        -0.011971207335591316,
        0.006363829597830772,
        0.04741881042718887,
        -0.0070518506690859795
      ],
      [
        -0.006380705628544092,
        0.031230734661221504,
        -0.011418008245527744,
        0.0162920244038105,
        0.006953028962016106,
        0.0008125071180984378,
        -0.06510172039270401,
        0.0002938174002338201
      ],
      [
        0.004921881482005119,
        0.023149142041802406,
        -0.061173684895038605,
        -0.03320513665676117,
        -0.00717071071267128,
        0.015585247427225113,
        -0.015620804391801357,
        -0.016295960173010826
      ],
      [
        0.012040323577821255,
        0.006077325902879238,
        -0.058986153453588486,
        -0.03838224709033966,
        -0.014159835875034332,
        0.014303633011877537,
        0.012358102947473526,
        -0.0159604549407959
      ],
      [
        0.007886465638875961,
        -0.011446998454630375,
        -0.015788746997714043,
        -0.02328619174659252,
        -0.008916137740015984,
        0.004680244717746973,
        0.03411160409450531,
        -0.004521690309047699
      ],
      [
        -0.00329176289960742,
        0.04018779471516609,
        0.0009533602860756218,
        0.01889384165406227,
        0.008460354059934616,
        -0.004593170713633299,
        -0.05926074460148811,
        0.0023137035313993692
      ],
      [
        -0.0026895422488451004,
        -0.01804324798285961,
        0.02875099517405033,
        0.016741804778575897,
        -0.00043191530858166516,
        -0.009513475932180882,
        0.02932194247841835,
        0.00675288075581193
      ],
      [
        0.007702041417360306,
        -0.010877825319766998,
        -0.01456198375672102,
        -0.022017665207386017,
        -0.008739419281482697,
        0.004274842329323292,
        0.03261665627360344,
        -0.0047831167466938496
      ],
      [
        -0.008393743075430393,
        -0.0006843949668109417,
        0.05364337936043739,
        0.02017238549888134,
        0.00628667464479804,
        -0.006955780554562807,
        0.014919750392436981,
        0.009154878556728363
      ],
      [
        -0.007771865464746952,
        0.012381572276353836,
        0.016982652246952057,
        0.024833858013153076,
        0.00902020838111639,
        -0.005002116318792105,
        -0.03604421392083168,
        0.0057357302866876125
      ],
      [
        0.00449814647436142,
        -0.0119731230661273,
        -0.002498212968930602,
        -0.01618317700922489,
        -0.005548662040382624,
        0.003312394954264164,
        0.031809087842702866,
        -0.0036985056940466166
      ],
      [
        0.006995199713855982,
        -0.010160556994378567,
        -0.013896562159061432,
        -0.02060524746775627,
        -0.007990933023393154,
        0.0037497698795050383,
        0.03042437508702278,
        -0.003970853518694639
      ],
      [
        0.008453075774013996,
        -0.012261082418262959,
        -0.016344020143151283,
        -0.024637822061777115,
        -0.00932789035141468,
        0.004889294970780611,
        0.03618631511926651,
        -0.0052121663466095924
      ],
      [
        0.0070346929132938385,
        -0.020480122417211533,
        0.017471039667725563,
        0.010237807407975197,
        -0.0027394054923206568,
        -0.015079068951308727,
        0.0768711045384407,
        -0.001392496400512755
      ],
      [
        -0.004934086464345455,
        -0.011091737076640129,
        0.06890513747930527,
        0.036079347133636475,
        0.0035461834631860256,
        -0.018036851659417152,
        0.024258928373456,
        0.01472594402730465
      ],
      [
        -0.008531814441084862,
        0.013610596768558025,
        0.017625626176595688,
        0.026767997071146965,
        0.009792395867407322,
        -0.005639932584017515,
        -0.03893319517374039,
        0.005268331151455641
      ],
      [
        0.002003666013479233,
        0.013342593796551228,
        -0.03607604652643204,
        -0.019722620025277138,
        -0.004584640264511108,
        0.009746425785124302,
        -0.00927003100514412,
        -0.00949849933385849
      ],
      [
        0.007727386895567179,
        -0.011544407345354557,
        -0.015336647629737854,
        -0.023038139566779137,
        -0.009125236421823502,
        0.004648225847631693,
        0.03417711704969406,
        -0.005262746009975672
      ],
      [
        0.005333548877388239,
        0.023348493501544,
        -0.06360458582639694,
        -0.03576693683862686,
        -0.007567932829260826,
        0.01586870104074478,
        -0.015699230134487152,
        -0.017303450033068657
      ],
      [
        -0.00309402821585536,
        -0.019516674801707268,
        0.0453425757586956,
        0.02267642319202423,
        0.0037547817919403315,
        -0.010712000541388988,
        0.01662934385240078,
        0.011539218947291374
      ],
      [
        -0.05413416773080826,
        -0.05285857617855072,
        0.013431243598461151,
        -0.01952979899942875,
        0.03043927624821663,
        0.030408311635255814,
        -0.024798288941383362,
        -0.01935650035738945
      ],
      [
        0.01808391883969307,
        -0.002208172110840678,
        0.04761010780930519,
        0.01534512173384428,
        0.0010207872837781906,
        -0.021613506600260735,
        0.05649122595787048,
        0.0026404443196952343
      ],
      [
        -0.05564938113093376,
        -0.017440224066376686,
        0.03008531779050827,
        0.007497894112020731,
        0.04105643928050995,
        0.03469192236661911,
        0.004214067477732897,
        -0.004433374386280775
      ],
      [
        -0.0028890364337712526,
        -0.012437345460057259,
        0.033202964812517166,
        0.01796451397240162,
        0.004092531744390726,
        -0.008941691368818283,
        0.008802752941846848,
        0.008903930895030499
      ],
      [
        -0.007387200370430946,
        0.01159330178052187,
        0.015826713293790817,
        0.023519372567534447,
        0.008324658498167992,
        -0.004979887045919895,
        -0.03404741734266281,
        0.0049219015054404736
      ],
      [
        0.0057325661182403564,
        0.003356893779709935,
        -0.03751588985323906,
        -0.03866912052035332,
        -0.006753104273229837,
        0.013670557178556919,
        0.02510661631822586,
        -0.012715555727481842
      ],
      [
        -0.0062721362337470055,
        0.009604785591363907,
        0.012973310425877571,
        0.019538380205631256,
        0.007124191150069237,
        -0.004043128807097673,
        -0.028382090851664543,
        0.004084981977939606
      ],
      [
        0.021751664578914642,
        -0.021355856209993362,
        -0.0634593665599823,
        -0.036751680076122284,
        -0.016078919172286987,
        0.003333327593281865,
        0.0056648049503564835,
        -0.010986152105033398
      ],
      [
        -0.0033325618132948875,
        -0.017500095069408417,
        0.03855924680829048,
        0.01826031506061554,
        0.0037560053169727325,
        -0.009136583656072617,
        0.015281694941222668,
        0.010262595489621162
      ],
      [
        0.011233466677367687,
        -0.016819404438138008,
        -0.022662358358502388,
        -0.03410514071583748,
        -0.012812132015824318,
        0.0067689912393689156,
        0.05015546828508377,
        -0.0073700472712516785
      ],
      [
        -0.005558071192353964,
        0.025727659463882446,
        -0.007619520183652639,
        0.013422278687357903,
        0.005984421819448471,
        0.000988464686088264,
        -0.051345475018024445,
        0.00021718209609389305
      ],
      [
        0.008401626721024513,
        -0.01227942667901516,
        -0.01623760163784027,
        -0.02442670613527298,
        -0.009518441744148731,
        0.00498494878411293,
        0.036141205579042435,
        -0.005331081338226795
      ],
      [
        0.0037589503917843103,
        0.016166409477591515,
        -0.04424319043755531,
        -0.02431432716548443,
        -0.0054641240276396275,
        0.011002195067703724,
        -0.011068112216889858,
        -0.01156662218272686
      ],
      [
        0.011273916810750961,
        -0.016521833837032318,
        -0.02221068926155567,
        -0.03329365327954292,
        -0.01262956764549017,
        0.006818899419158697,
        0.04838944226503372,
        -0.006675413344055414
      ],
      [
        0.0024918976705521345,
        0.012777267023921013,
        -0.03461145982146263,
        -0.01912316121160984,
        -0.004642006941139698,
        0.008992419578135014,
        -0.008843169547617435,
        -0.009563453495502472
      ],
      [
        0.004375645890831947,
        0.01923343725502491,
        -0.05242307111620903,
        -0.02898642234504223,
        -0.00640510767698288,
        0.014014468528330326,
        -0.012615014798939228,
        -0.013630812056362629
      ],
      [
        0.010603032074868679,
        -0.016004038974642754,
        -0.02084481716156006,
        -0.03153266757726669,
        -0.012126668356359005,
        0.00674952520057559,
        0.047800324857234955,
        -0.006892792414873838
      ],
      [
        -0.004978007171303034,
        0.022885508835315704,
        -0.008351345546543598,
        0.012952231802046299,
        0.004870925098657608,
        0.00034899526508525014,
        -0.050911854952573776,
        0.000611430499702692
      ],
      [
        -0.01748478226363659,
        -0.0035867963451892138,
        -0.0021218229085206985,
        0.0003181141219101846,
        0.020161833614110947,
        0.047813959419727325,
        0.005633211694657803,
        -0.005323477555066347
      ],
      [
        -0.019657399505376816,
        -0.02801876701414585,
        0.05342733487486839,
        0.015162871219217777,
        0.013906539417803288,
        0.003110261168330908,
        0.0067063383758068085,
        0.010046225972473621
      ],
      [
        0.031116008758544922,
        0.0316716693341732,
        -0.010218477807939053,
        -0.03130748122930527,
        -0.025612983852624893,
        -0.014163997955620289,
        0.010275819338858128,
        -0.012197737582027912
      ],
      [
        -0.002795496955513954,
        0.01812533661723137,
        -0.006966802291572094,
        0.008708075620234013,
        0.0036737085320055485,
        0.0015682055382058024,
        -0.03485223278403282,
        0.00023792305728420615
      ],
      [
        0.012160985730588436,
        -0.018057290464639664,
        -0.023822424933314323,
        -0.03611792251467705,
        -0.013463135808706284,
        0.0076132225804030895,
        0.05312037840485573,
        -0.007832803763449192
      ],
      [
        0.015598950907588005,
        -0.0442909300327301,
        0.011760499328374863,
        -0.0024982427712529898,
        -0.006348311901092529,
        0.0012302708346396685,
        0.04008971154689789,
        0.008816317655146122
      ],
      [
        -0.004139700438827276,
        -0.017605053260922432,
        0.04719891771674156,
        0.02633477747440338,
        0.005550770089030266,
        -0.012486163526773453,
        0.010889477096498013,
        0.012262261472642422
      ],
      [
        -0.005032746586948633,
        0.025662580505013466,
        -0.009477834217250347,
        0.012801654636859894,
        0.0060804360546171665,
        0.0014390654396265745,
        -0.050681937485933304,
        0.000504922354593873
      ],
      [
        -0.029552273452281952,
        -0.04108552634716034,
        0.014575120061635971,
        -0.04689611867070198,
        0.011577757075428963,
        0.04768004268407822,
        0.02888987585902214,
        -0.006321803200989962
      ],
      [
        -0.004618101287633181,
        -0.020102359354496002,
        0.05389613285660744,
        0.029644716531038284,
        0.006021568551659584,
        -0.013754419982433319,
        0.013680764473974705,
        0.014135751873254776
      ],
      [
        0.00269876210950315,
        0.040767330676317215,
        -0.030412817373871803,
        0.024512119591236115,
        0.0037190797738730907,
        0.0028517302125692368,
        -0.034654807299375534,
        0.002198264002799988
      ],
      [
        0.010920778848230839,
        -0.015649426728487015,
        -0.021006187424063683,
        -0.031637128442525864,
        -0.012019901536405087,
        0.00643822131678462,
        0.04611910507082939,
        -0.006926022935658693
      ],
      [
        0.009095403365790844,
        -0.0015163449570536613,
        -0.05691840872168541,
        -0.02825680561363697,
        -0.004655793774873018,
        0.018989862874150276,
        0.016856413334608078,
        -0.012388301081955433
      ],
      [
        0.011554763652384281,
        0.026162130758166313,
        -0.039291415363550186,
        -0.012591502629220486,
        -0.008723337203264236,
        0.002453824272379279,
        -0.010309576988220215,
        -0.008378792554140091
      ],
      [
        0.0039140707813203335,
        0.01754067651927471,
        -0.0454048290848732,
        -0.025455079972743988,
        -0.00559315225109458,
        0.011806149035692215,
        -0.011559966951608658,
        -0.011921161785721779
      ],
      [
        -0.013380078598856926,
        0.002270414959639311,
        -0.020872123539447784,
        -0.02606506459414959,
        0.01011404488235712,
        0.03005998767912388,
        0.010735687799751759,
        -0.00667679263278842
      ],
      [
        -0.003913864493370056,
        0.01186294574290514,
        -0.054163962602615356,
        -0.04072744399309158,
        -0.001424814690835774,
        0.03111506626009941,
        -0.010564950294792652,
        -0.014592831023037434
      ],
      [
        -0.004192401189357042,
        0.0011193135287612677,
        0.03420797362923622,
        0.02735465206205845,
        0.005116016138345003,
        -0.010111295618116856,
        -0.014290999621152878,
        0.009805858135223389
      ],
      [
        -0.015978273004293442,
        0.059295378625392914,
        -0.021964356303215027,
        0.006180772092193365,
        0.015278334729373455,
        0.0018553193658590317,
        0.03058592602610588,
        0.0005761258071288466
      ],
      [
        -0.010430912487208843,
        0.017107535153627396,
        0.022436676546931267,
        0.03330123424530029,
        0.011540894396603107,
        -0.0069483802653849125,
        -0.04956233501434326,
        0.0074593061581254005
      ],
      [
        0.003344835015013814,
        0.017160741612315178,
        -0.04617704451084137,
        -0.02519174851477146,
        -0.005452727898955345,
        0.012200192548334599,
        -0.012280489318072796,
        -0.012779934331774712
      ],
      [
        -0.0036417273804545403,
        -0.014409507624804974,
        0.03802510350942612,
        0.01989859715104103,
        0.004009648691862822,
        -0.009302942082285881,
        0.009364156983792782,
        0.009162146598100662
      ],
      [
        0.024454234167933464,
        -0.010971896350383759,
        -0.0005272510461509228,
        0.011969715356826782,
        -0.02433066815137863,
        -0.04296976700425148,
        0.03924501687288284,
        -0.015237616375088692
      ],
      [
        -0.009224684908986092,
        -0.01283680647611618,
        0.03405405580997467,
        0.0292647834867239,
        0.01047566719353199,
        -0.007375906687229872,
        -0.0069247703067958355,
        0.012921418063342571
      ],
      [
        -0.007375321816653013,
        0.011700714007019997,
        0.015869643539190292,
        0.02352328784763813,
        0.008521161042153835,
        -0.004958508536219597,
        -0.034385282546281815,
        0.005071535240858793
      ],
      [
        0.00671303179115057,
        -0.027182327583432198,
        0.014262109994888306,
        -0.014002103358507156,
        -0.010036753490567207,
        -0.00229537021368742,
        0.06044107675552368,
        0.0021744691766798496
      ],
      [
        0.0016076251631602645,
        -0.028905071318149567,
        0.037453312426805496,
        0.009724084287881851,
        0.001594854169525206,
        -0.007597422692924738,
        0.03761813044548035,
        0.008404643274843693
      ],
      [
        -0.017049655318260193,
        0.010127323679625988,
        -0.025668486952781677,
        -0.03584345057606697,
        0.008627603761851788,
        0.028136152774095535,
        -0.016963813453912735,
        -0.010500525124371052
      ],
      [
        -0.004069904796779156,
        -0.024043958634138107,
        0.05163593217730522,
        0.028634170070290565,
        0.004348569083958864,
        -0.014268160797655582,
        0.016354814171791077,
        0.01563079282641411
      ],
      [
        -0.00595081364735961,
        0.027065761387348175,
        -0.009463897906243801,
        0.014074541628360748,
        0.006554970983415842,
        0.0012073817197233438,
        -0.055239684879779816,
        -0.00017415355250705034
      ],
      [
        0.008313624188303947,
        -0.012008261866867542,
        -0.016232600435614586,
        -0.02454184927046299,
        -0.009741514921188354,
        0.004871107172220945,
        0.03623216971755028,
        -0.0054510910995304585
      ],
      [
        -0.005015466827899218,
        -0.01592446118593216,
        0.04455391317605972,
        0.02488962560892105,
        0.0032773520797491074,
        -0.011572688817977905,
        0.009053456597030163,
        0.011063162237405777
      ],
      [
        -0.004196432884782553,
        0.020509015768766403,
        -0.007741429843008518,
        0.010215840302407742,
        0.004962494131177664,
        0.001455542049370706,
        -0.04147126525640488,
        -0.0006278768996708095
      ],
      [
        -0.021576279774308205,
        0.0032537756487727165,
        0.0005942350835539401,
        0.002418511314317584,
        0.020392417907714844,
        0.04686051234602928,
        0.012848841026425362,
        0.0007029412081465125
      ],
      [
        0.014280815608799458,
        -0.022434554994106293,
        -0.02890263870358467,
        -0.043006833642721176,
        -0.01595453731715679,
        0.009037701413035393,
        0.06451056152582169,
        -0.00922343134880066
      ],
      [
        0.003821365535259247,
        0.017491092905402184,
        -0.04559649899601936,
        -0.025306468829512596,
        -0.00551949255168438,
        0.012083539739251137,
        -0.011771737597882748,
        -0.012373105622828007
      ],
      [
        -2.2181193344295025e-06,
        0.02956833690404892,
        -0.05964064598083496,
        -0.029776547104120255,
        -0.001472685020416975,
        0.013368887826800346,
        -0.031038518995046616,
        -0.015107814222574234
      ],
      [
        0.006350467912852764,
        0.015383838675916195,
        -0.03965704143047333,
        -0.02538391388952732,
        -0.006186932325363159,
        0.012455789372324944,
        0.0024124279152601957,
        -0.011978094466030598
      ],
      [
        0.016512637957930565,
        -0.0336545929312706,
        0.02841300703585148,
        -0.009291318245232105,
        -0.015892621129751205,
        -0.004703687969595194,
        0.03417651727795601,
        0.003306070575490594
      ],
      [
        -0.0067485058680176735,
        -0.027995359152555466,
        0.07476334273815155,
        0.04112150892615318,
        0.00814947858452797,
        -0.01908141002058983,
        0.01941688172519207,
        0.020090267062187195
      ],
      [
        0.004178271628916264,
        0.020599015057086945,
        -0.05520961433649063,
        -0.029930412769317627,
        -0.00650039641186595,
        0.014190396293997765,
        -0.013854661956429482,
        -0.014756588265299797
      ],
      [
        -0.010765054263174534,
        0.0166609026491642,
        0.02095915377140045,
        0.031466271728277206,
        0.011203684844076633,
        -0.006663257256150246,
        -0.04727168008685112,
        0.00679390411823988
      ],
      [
        0.0061551728285849094,
        -0.01057625375688076,
        0.0421137735247612,
        0.021716704592108727,
        -0.0014064155984669924,
        -0.019797328859567642,
        0.01989419013261795,
        0.01135178655385971
      ],
      [
        0.011680887080729008,
        -0.016958048567175865,
        -0.02263174019753933,
        -0.03376985713839531,
        -0.012768915854394436,
        0.007065075449645519,
        0.04931778833270073,
        -0.007049195934087038
      ],
      [
        0.03270832449197769,
        0.030023684725165367,
        0.005873761139810085,
        -0.01332118920981884,
        -0.026318863034248352,
        -0.033948104828596115,
        0.007044837344437838,
        0.0025328940246254206
      ],
      [
        0.00929657369852066,
        -0.017627673223614693,
        -0.008113794960081577,
        -0.01949918083846569,
        -0.012322367168962955,
        -0.0009865326574072242,
        0.04480743408203125,
        0.0009432081715203822
      ],
      [
        -0.01553337462246418,
        0.02034473605453968,
        0.05802033841609955,
        0.02890397049486637,
        0.009573446586728096,
        0.0038361730985343456,
        -0.0020317514427006245,
        0.01123895961791277
      ],
      [
        -0.0033325497061014175,
        -0.01450925599783659,
        0.038772594183683395,
        0.02119654230773449,
        0.004061403218656778,
        -0.009822585619986057,
        0.00980370957404375,
        0.010266152210533619
      ],
      [
        0.004119649529457092,
        -0.006388506852090359,
        0.03556794300675392,
        0.03744454309344292,
        0.0026872640009969473,
        -0.029557112604379654,
        0.012953617610037327,
        -0.002829035511240363
      ],
      [
        0.003596968948841095,
        0.016797056421637535,
        -0.04374786838889122,
        -0.023847531527280807,
        -0.005137568339705467,
        0.011312500573694706,
        -0.011225740425288677,
        -0.011871522292494774
      ],
      [
        0.010233914479613304,
        -0.017734859138727188,
        0.03855079039931297,
        0.03908108174800873,
        -0.006565284915268421,
        -0.038469571620225906,
        0.026242520660161972,
        -0.0076822699047625065
      ],
      [
        0.007984936237335205,
        -0.01161197666078806,
        -0.015945084393024445,
        -0.023913688957691193,
        -0.008778944611549377,
        0.004796051420271397,
        0.03526459261775017,
        -0.005235535092651844
      ],
      [
        -0.00654586823657155,
        0.0104669826105237,
        0.013293297961354256,
        0.02044306881725788,
        0.007594412658363581,
        -0.004395968746393919,
        -0.029019508510828018,
        0.004928163252770901
      ],
      [
        -0.0023773943539708853,
        -0.016073977574706078,
        0.0334155410528183,
        0.0157830398529768,
        0.0029512124601751566,
        -0.008716319687664509,
        0.018617529422044754,
        0.008847279474139214
      ],
      [
        -0.03644223511219025,
        -0.0061351219192147255,
        0.011604921892285347,
        0.009998735971748829,
        0.031028928235173225,
        0.0301450677216053,
        0.007667012512683868,
        -0.0020093743223696947
      ],
      [
        0.005872445646673441,
        -0.008581633679568768,
        -0.011909345164895058,
        -0.017815744504332542,
        -0.006849356926977634,
        0.00369989569298923,
        0.025899484753608704,
        -0.003863855730742216
      ],
      [
        -0.015846427530050278,
        -0.026075398549437523,
        0.08936341851949692,
        0.020705904811620712,
        0.005381251685321331,
        -0.019568242132663727,
        0.011186052113771439,
        0.013773459941148758
      ],
      [
        0.007436783518642187,
        -0.03119121864438057,
        0.01130740623921156,
        -0.0163897518068552,
        -0.008629352785646915,
        -0.0003640847571659833,
        0.06307318806648254,
        0.00010361125896451995
      ],
      [
        -0.005079726688563824,
        0.028374753892421722,
        -0.010791719891130924,
        0.012904753908514977,
        0.005575851537287235,
        0.002650657668709755,
        -0.05478554219007492,
        0.00045467144809663296
      ],
      [
        0.0032140903640538454,
        0.014293664135038853,
        -0.037701282650232315,
        -0.021095819771289825,
        -0.00443313317373395,
        0.009725579060614109,
        -0.009557001292705536,
        -0.00997182447463274
      ],
      [
        0.0009787632152438164,
        0.020525237545371056,
        -0.0439545214176178,
        -0.011144960299134254,
        -7.988017750903964e-05,
        0.010135795921087265,
        -0.041504181921482086,
        -0.01410151831805706
      ],
      [
        0.005090107675641775,
        0.023198798298835754,
        -0.061337292194366455,
        -0.03402288258075714,
        -0.007187816314399242,
        0.0158656295388937,
        -0.015523354522883892,
        -0.016301969066262245
      ],
      [
        0.015364796854555607,
        0.07554895430803299,
        0.0028711429331451654,
        -0.0035918874200433493,
        0.002177308313548565,
        -0.003058310365304351,
        0.008936122991144657,
        -0.0025599307846277952
      ],
      [
        -0.0039054634980857372,
        0.02034197375178337,
        -0.008195593021810055,
        0.009616831317543983,
        0.0048370989970862865,
        0.0015034108655527234,
        -0.040328193455934525,
        -0.0001469447888666764
      ],
      [
        0.023207958787679672,
        0.040655460208654404,
        -0.0559941902756691,
        -0.008483640849590302,
        -0.016231857240200043,
        -0.004852399230003357,
        -0.022253207862377167,
        -0.006347316317260265
      ],
      [
        0.0035093622282147408,
        0.01681504398584366,
        -0.04455789551138878,
        -0.024082627147436142,
        -0.005230261944234371,
        0.0114640137180686,
        -0.01145243737846613,
        -0.011752957478165627
      ],
      [
        -0.007794186472892761,
        0.012031271122395992,
        0.015119023621082306,
        0.02325603924691677,
        0.008497723378241062,
        -0.004788574762642384,
        -0.034238219261169434,
        0.005295319017022848
      ],
      [
        -0.003233951050788164,
        -0.014094959944486618,
        0.03584567457437515,
        0.019701220095157623,
        0.004325156100094318,
        -0.009164555929601192,
        0.008931715041399002,
        0.009808697737753391
      ],
      [
        0.011061533354222775,
        -0.01661003939807415,
        -0.022270727902650833,
        -0.03346562758088112,
        -0.012464595958590508,
        0.0068649849854409695,
        0.04926307871937752,
        -0.007370957173407078
      ],
      [
        0.009975677356123924,
        0.0036981322336941957,
        -0.032748982310295105,
        -0.03690199553966522,
        -0.011172291822731495,
        0.020426848903298378,
        0.027782214805483818,
        -0.011145399883389473
      ],
      [
        0.004399533849209547,
        -0.0011149814818054438,
        -0.03576655685901642,
        -0.022531423717737198,
        -0.003042444121092558,
        0.02983381226658821,
        0.025658143684267998,
        -0.008566778153181076
      ],
      [
        0.02330494299530983,
        0.0024464218877255917,
        -0.020583625882864,
        -0.03688148409128189,
        -0.02272690273821354,
        -0.0024780987296253443,
        0.04471470043063164,
        -0.012116300873458385
      ],
      [
        -0.0077423895709216595,
        0.012079172767698765,
        0.014656249433755875,
        0.023254018276929855,
        0.00979393906891346,
        -0.005448183976113796,
        -0.03359731286764145,
        0.004371785558760166
      ],
      [
        -0.003356142668053508,
        -0.012948495335876942,
        0.0342252179980278,
        0.018669432029128075,
        0.004023136105388403,
        -0.008691147901117802,
        0.009219116531312466,
        0.009052528999745846
      ],
      [
        0.0016715559177100658,
        0.02876637876033783,
        -0.04110337421298027,
        -0.009817065671086311,
        -0.00421928521245718,
        0.001416324870660901,
        -0.02575439214706421,
        -0.010940812528133392
      ],
      [
        -0.0029251400846987963,
        -0.0289598498493433,
        0.017023636028170586,
        -0.010621242225170135,
        0.000207609060453251,
        -0.005068069789558649,
        0.05397190526127815,
        -0.0007005195948295295
      ],
      [
        0.004366784822195768,
        -0.01819428615272045,
        0.005935140419751406,
        -0.010234519839286804,
        -0.004280697088688612,
        -0.0006015628459863365,
        0.035808686167001724,
        0.00043190200813114643
      ],
      [
        -0.029742425307631493,
        0.01974450796842575,
        0.004275816027075052,
        -0.0051642307080328465,
        0.029899701476097107,
        0.060125626623630524,
        0.0014566041063517332,
        -0.007975813932716846
      ],
      [
        0.007921740412712097,
        -0.011538058519363403,
        -0.015052581205964088,
        -0.02258608490228653,
        -0.008384820073843002,
        0.004532091319561005,
        0.034022748470306396,
        -0.005107564385980368
      ],
      [
        0.010091566480696201,
        -0.014139873906970024,
        -0.019312884658575058,
        -0.028472550213336945,
        -0.010670781135559082,
        0.006053840275853872,
        0.04227884113788605,
        -0.006515342742204666
      ],
      [
        -0.005016951356083155,
        0.027955688536167145,
        -0.010745822452008724,
        0.014395110309123993,
        0.006909877061843872,
        0.0022339285351336002,
        -0.05700276792049408,
        4.379540041554719e-05
      ],
      [
        0.004521166905760765,
        0.02221008948981762,
        -0.057185765355825424,
        -0.030723344534635544,
        -0.006109059322625399,
        0.01453330647200346,
        -0.014925740659236908,
        -0.015125950798392296
      ],
      [
        -0.006101907696574926,
        0.03227362409234047,
        -0.012458800338208675,
        0.01588265597820282,
        0.007400040049105883,
        0.0020119124092161655,
        -0.06409327685832977,
        0.0005284141516312957
      ],
      [
        -0.006628295872360468,
        0.010059782303869724,
        0.012952804565429688,
        0.01970789209008217,
        0.00722366850823164,
        -0.0040552644059062,
        -0.028683535754680634,
        0.004270731937140226
      ],
      [
        0.006722337566316128,
        -0.009172898717224598,
        -0.013169020414352417,
        -0.01964356005191803,
        -0.007450596895068884,
        0.0037343150470405817,
        0.028764646500349045,
        -0.004304736852645874
      ],
      [
        0.03261904790997505,
        -0.028946517035365105,
        0.0014197687851265073,
        -0.013653232716023922,
        -0.03257623687386513,
        -0.010170042514801025,
        0.054984141141176224,
        0.008403104729950428
      ],
      [
        0.0032940139062702656,
        0.015412616543471813,
        -0.040849391371011734,
        -0.022735346108675003,
        -0.004704507999122143,
        0.010615107603371143,
        -0.010303949005901814,
        -0.010990092530846596
      ],
      [
        0.008340472355484962,
        -0.012181086465716362,
        -0.016678500920534134,
        -0.02487746626138687,
        -0.009445742703974247,
        0.004879329353570938,
        0.03674625977873802,
        -0.00518146762624383
      ],
      [
        -0.003631419036537409,
        -0.015253010205924511,
        0.040236808359622955,
        0.02279644086956978,
        0.004636656027287245,
        -0.009944982826709747,
        0.010959768667817116,
        0.010530289262533188
      ],
      [
        -0.007292314898222685,
        0.029359621927142143,
        -0.010824095457792282,
        0.015614551492035389,
        0.006209949497133493,
        0.004715283866971731,
        -0.05992200970649719,
        0.0019445080542936921
      ],
      [
        -0.0024574268609285355,
        -0.023439403623342514,
        0.04939363896846771,
        0.022638199850916862,
        0.003377352375537157,
        -0.0125676728785038,
        0.02349904365837574,
        0.013057415373623371
      ],
      [
        -0.001260183285921812,
        -0.01576901227235794,
        0.03519907966256142,
        0.017427172511816025,
        0.002084949519485235,
        -0.009593188762664795,
        0.01567918062210083,
        0.011159748770296574
      ],
      [
        -0.005276614800095558,
        -0.014466743916273117,
        0.054414842277765274,
        0.034636255353689194,
        0.007148941978812218,
        -0.01419583149254322,
        0.0023695940617471933,
        0.01471066102385521
      ],
      [
        -0.0031251043546944857,
        -0.007954759523272514,
        0.05650714039802551,
        0.030672894790768623,
        0.003031137865036726,
        -0.017644168809056282,
        -0.0032229193020612,
        0.017211761325597763
      ],
      [
        -0.014956984668970108,
        -0.021061653271317482,
        0.05090855434536934,
        0.024512475356459618,
        0.014191597700119019,
        -0.028498724102973938,
        0.03970430791378021,
        -0.008192915469408035
      ],
      [
        -0.03162587806582451,
        0.0010150562738999724,
        0.03809913992881775,
        0.006280985195189714,
        0.027970008552074432,
        -0.008578375913202763,
        0.06045098230242729,
        -0.011047733016312122
      ],
      [
        0.007877952419221401,
        -0.01177908293902874,
        -0.01569974608719349,
        -0.02344474010169506,
        -0.009073455817997456,
        0.004943945445120335,
        0.03461510315537453,
        -0.005162598565220833
      ],
      [
        0.003478657454252243,
        0.015153108164668083,
        -0.040376927703619,
        -0.022633548825979233,
        -0.0047641354613006115,
        0.010450808331370354,
        -0.010154630988836288,
        -0.010741008445620537
      ],
      [
        0.00354041438549757,
        0.017513852566480637,
        -0.046474941074848175,
        -0.025794535875320435,
        -0.005785726010799408,
        0.012083085253834724,
        -0.011741002090275288,
        -0.01242078747600317
      ],
      [
        -0.00885576568543911,
        0.03345707431435585,
        -0.015493196435272694,
        0.013648834079504013,
        0.008667560294270515,
        0.005199566949158907,
        -0.07843998819589615,
        0.004514086060225964
      ],
      [
        0.0034891946706920862,
        0.015070993453264236,
        -0.04109746590256691,
        -0.02255410887300968,
        -0.005096739158034325,
        0.010234787128865719,
        -0.010235917754471302,
        -0.010740868747234344
      ],
      [
        0.0021342032123357058,
        0.0167528185993433,
        -0.0347294844686985,
        -0.015611416660249233,
        -0.002172056818380952,
        0.009183185175061226,
        -0.01557640079408884,
        -0.011247058399021626
      ],
      [
        0.0038045530673116446,
        0.017445120960474014,
        -0.04609796404838562,
        -0.02554660476744175,
        -0.005562614183872938,
        0.012028822675347328,
        -0.011652338318526745,
        -0.01229964941740036
      ],
      [
        -0.004130449611693621,
        0.011357213370501995,
        0.03597847372293472,
        0.03542352840304375,
        0.012259600684046745,
        -0.012676111422479153,
        -0.035883884876966476,
        0.01135022472590208
      ],
      [
        0.00037343514850363135,
        0.019405022263526917,
        -0.04722578451037407,
        -0.028671804815530777,
        -0.0029620854184031487,
        0.011218532919883728,
        -0.008100701496005058,
        -0.013975602574646473
      ],
      [
        -0.0014893957413733006,
        -0.03511956334114075,
        0.0509091354906559,
        0.019044024869799614,
        0.005021239165216684,
        -0.0071600209921598434,
        0.02252095751464367,
        0.01637997478246689
      ],
      [
        0.0033672538120299578,
        0.015455629676580429,
        -0.04148557037115097,
        -0.023011857643723488,
        -0.00486050546169281,
        0.010799427516758442,
        -0.01064741425216198,
        -0.011053222231566906
      ],
      [
        -0.011103237979114056,
        0.017754806205630302,
        0.006438763812184334,
        0.019979389384388924,
        0.01092256885021925,
        -0.0013932561269029975,
        -0.04360442981123924,
        0.00031528592808172107
      ],
      [
        -0.013036433607339859,
        0.023203667253255844,
        -0.019413836300373077,
        -0.01452088262885809,
        0.007456994149833918,
        0.021647676825523376,
        -0.054279129952192307,
        -0.0014412601012736559
      ],
      [
        0.00290512153878808,
        -0.020021600648760796,
        0.03509369492530823,
        0.016108378767967224,
        -0.00036381196696311235,
        -0.009740086272358894,
        0.025474656373262405,
        0.009976478293538094
      ],
      [
        -0.0023152544163167477,
        -0.022058309987187386,
        0.05155952274799347,
        0.024711808189749718,
        0.004951249808073044,
        -0.012602753937244415,
        0.02115853875875473,
        0.014442132785916328
      ],
      [
        0.003366851946339011,
        0.016607969999313354,
        -0.04390072077512741,
        -0.02426241524517536,
        -0.005523828789591789,
        0.011470722034573555,
        -0.011243634857237339,
        -0.011643105186522007
      ],
      [
        -0.0237639881670475,
        0.020945247262716293,
        0.04380447790026665,
        0.026584777981042862,
        0.018649382516741753,
        -0.0013605214189738035,
        -0.046912167221307755,
        0.006533876992762089
      ],
      [
        0.008754456415772438,
        -0.014872351661324501,
        -0.009349591098725796,
        -0.01803102344274521,
        -0.008009235374629498,
        0.005711674224585295,
        0.05591212585568428,
        0.0017330815317109227
      ],
      [
        0.02282879315316677,
        0.029854612424969673,
        0.011008959263563156,
        0.015222510322928429,
        -0.033480413258075714,
        -0.026295946910977364,
        0.028357291594147682,
        0.027577687054872513
      ],
      [
        -0.010257118381559849,
        -0.0482049286365509,
        0.04159320145845413,
        -0.011405030265450478,
        0.0005799446371383965,
        -0.002523567760363221,
        0.030961986631155014,
        0.00023389977286569774
      ],
      [
        -0.017765460535883904,
        -0.032430291175842285,
        0.045597776770591736,
        0.004042522516101599,
        0.01173402275890112,
        0.004149293527007103,
        0.02162216231226921,
        0.006464630365371704
      ],
      [
        -0.002061799867078662,
        -0.014322844333946705,
        -0.019111232832074165,
        -0.003211223054677248,
        0.0006995690055191517,
        0.0030490271747112274,
        -0.061130065470933914,
        -0.009644321165978909
      ],
      [
        -0.010060842148959637,
        -0.004117471165955067,
        0.01848575659096241,
        0.0356469489634037,
        0.01474642101675272,
        -0.013897662051022053,
        -0.06069013848900795,
        0.01248129177838564
      ],
      [
        -0.00556230591610074,
        -0.004038621671497822,
        0.03818901255726814,
        0.025735948234796524,
        0.0028803544119000435,
        -0.007904740050435066,
        0.01249678898602724,
        0.007594479713588953
      ],
      [
        0.00645036157220602,
        0.015223642811179161,
        -0.053089674562215805,
        -0.03111976385116577,
        -0.00864188838750124,
        0.010767586529254913,
        -0.004020008258521557,
        -0.011022963561117649
      ],
      [
        0.01197679340839386,
        -0.017849266529083252,
        -0.02421022206544876,
        -0.03644626960158348,
        -0.013493654318153858,
        0.0073165930807590485,
        0.0530751571059227,
        -0.007551064249128103
      ],
      [
        0.0005987760378047824,
        -0.023220062255859375,
        0.017494387924671173,
        -0.0032277510035783052,
        -0.0029479132499545813,
        -4.9740890972316265e-05,
        0.04755249246954918,
        0.01170275453478098
      ],
      [
        0.019011955708265305,
        0.0564691536128521,
        -0.008978307247161865,
        0.028817053884267807,
        -0.0027006235904991627,
        -0.031638238579034805,
        -0.0025583936367183924,
        0.0009686163393780589
      ],
      [
        0.008451715111732483,
        -0.012055665254592896,
        -0.016099385917186737,
        -0.024235863238573074,
        -0.009241038002073765,
        0.005080557893961668,
        0.0354929119348526,
        -0.004714526701718569
      ],
      [
        -0.00207537692040205,
        0.029964152723550797,
        -0.01473483070731163,
        0.012308955192565918,
        0.0025730933994054794,
        0.005070534069091082,
        -0.06537855416536331,
        0.003508396213874221
      ],
      [
        0.0009552186820656061,
        -0.004481468349695206,
        0.03575689718127251,
        0.024764416739344597,
        -0.0013701226562261581,
        -0.009465827606618404,
        -0.002495876280590892,
        0.014059605076909065
      ],
      [
        0.006894288118928671,
        -0.020117003470659256,
        -0.013607345521450043,
        -0.029196571558713913,
        -0.010811622254550457,
        0.008734334260225296,
        0.04877382144331932,
        -0.004238918423652649
      ],
      [
        0.008745189756155014,
        -0.013209645636379719,
        -0.01797260344028473,
        -0.027092382311820984,
        -0.009876260533928871,
        0.00561180803924799,
        0.0401335284113884,
        -0.006310186814516783
      ],
      [
        0.0036609384696930647,
        0.018309321254491806,
        -0.04951704666018486,
        -0.027241015806794167,
        -0.006064806133508682,
        0.012684153392910957,
        -0.01235367450863123,
        -0.013266739435493946
      ],
      [
        -0.005130607169121504,
        0.03612702712416649,
        0.0007240347913466394,
        0.022947194054722786,
        0.012334420345723629,
        -0.0047144293785095215,
        -0.0647704154253006,
        0.0016632446786388755
      ],
      [
        0.02576390467584133,
        -0.004306623246520758,
        -0.02384197898209095,
        0.004902263171970844,
        -0.018584923818707466,
        -0.025908013805747032,
        0.028809385374188423,
        -0.014802264049649239
      ],
      [
        -0.00048309017438441515,
        0.023081641644239426,
        -0.050366245210170746,
        -0.0234873928129673,
        -0.002446724334731698,
        0.014824829064309597,
        -0.0315680168569088,
        -0.01256263442337513
      ],
      [
        0.005285636987537146,
        0.023971015587449074,
        -0.06250675767660141,
        -0.034727271646261215,
        -0.0072511350736021996,
        0.016134148463606834,
        -0.015835249796509743,
        -0.016635997220873833
      ],
      [
        -0.008156090043485165,
        0.01271120086312294,
        0.015965431928634644,
        0.024102045223116875,
        0.008871919475495815,
        -0.005608400795608759,
        -0.036705225706100464,
        0.005720591172575951
      ],
      [
        0.010536802932620049,
        -0.010000535286962986,
        -0.008522985503077507,
        -0.007822978310286999,
        -0.00825861468911171,
        -0.006447337567806244,
        0.03637174516916275,
        -0.0056993127800524235
      ],
      [
        0.011751731857657433,
        -0.01682105101644993,
        -0.022437207400798798,
        -0.03411698341369629,
        -0.013138101436197758,
        0.006992214359343052,
        0.04982861503958702,
        -0.0071632289327681065
      ],
      [
        0.0076971882954239845,
        -0.011038816533982754,
        -0.014925477094948292,
        -0.02239864505827427,
        -0.008419832214713097,
        0.004378176294267178,
        0.03300652652978897,
        -0.004815117456018925
      ],
      [
        0.003914440516382456,
        0.02703363262116909,
        -0.04063592106103897,
        -0.019394217059016228,
        -0.0020114483777433634,
        0.0051193805411458015,
        0.022001124918460846,
        -0.002013934077695012
      ],
      [
        -0.04395411163568497,
        0.023541247472167015,
        -0.004070544149726629,
        0.012584652751684189,
        0.03867609426379204,
        0.014459888450801373,
        0.019211573526263237,
        -0.006822063587605953
      ],
      [
        -0.03787044808268547,
        -0.006613637320697308,
        0.0006627465481869876,
        -0.028825461864471436,
        0.020658358931541443,
        0.03729396313428879,
        -0.033098604530096054,
        -0.01174567174166441
      ],
      [
        0.013713103719055653,
        0.01801268383860588,
        -0.043671607971191406,
        -0.027920156717300415,
        -0.012910941615700722,
        -0.001643720781430602,
        -0.0027349323499947786,
        -0.015368962660431862
      ],
      [
        0.014361768029630184,
        -0.009935201145708561,
        -0.036114566028118134,
        -0.030383087694644928,
        -0.01292429305613041,
        -0.00397994089871645,
        0.03331396356225014,
        -0.009647403843700886
      ],
      [
        -0.006505978759378195,
        0.02688094787299633,
        -0.01050924975425005,
        0.014603582210838795,
        0.006494664587080479,
        0.001003552577458322,
        -0.0564182884991169,
        7.765431655570865e-05
      ],
      [
        0.005633727181702852,
        -0.029909418895840645,
        0.0030225503724068403,
        -0.02218571864068508,
        -0.009778966195881367,
        0.0022088501136749983,
        0.06354488432407379,
        -0.003507596207782626
      ],
      [
        0.00453637819737196,
        0.020314600318670273,
        -0.053115978837013245,
        -0.02948954701423645,
        -0.006459940690547228,
        0.013662265613675117,
        -0.01361543033272028,
        -0.013844135217368603
      ],
      [
        0.0033975522965192795,
        0.01594611257314682,
        -0.042856499552726746,
        -0.02360406704246998,
        -0.005505967419594526,
        0.01119240466505289,
        -0.01110127940773964,
        -0.011219068430364132
      ],
      [
        0.0030332172755151987,
        0.013356348499655724,
        -0.035061124712228775,
        -0.01977459527552128,
        -0.004150962457060814,
        0.009100877679884434,
        -0.008769498206675053,
        -0.009320431388914585
      ],
      [
        0.014415507204830647,
        -0.020253952592611313,
        -0.027432052418589592,
        -0.037413090467453,
        -0.015049838460981846,
        0.006531413644552231,
        0.061231933534145355,
        -0.009275991469621658
      ],
      [
        -0.003886469639837742,
        -0.015196671709418297,
        0.04235270991921425,
        0.023165082558989525,
        0.004815778695046902,
        -0.010945919901132584,
        0.010927497409284115,
        0.010454980656504631
      ],
      [
        0.0042438143864274025,
        -0.020038560032844543,
        0.01971379667520523,
        -0.018383173272013664,
        0.0009180284105241299,
        0.00016732823860365897,
        0.06284072995185852,
        0.0011243380140513182
      ]
    ],
    "gen_0_bias": null,
    "gen_0_bn_weight": [
      0.9568219184875488,
      0.9742171764373779,
      0.8922997117042542,
      0.9830684661865234,
      1.0709917545318604,
      0.901246964931488,
      0.9747577905654907,
      0.9825379252433777,
      1.0144788026809692,
      0.9526193737983704,
      1.0562622547149658,
      0.9375665187835693,
      0.9437651038169861,
      0.8988281488418579,
      1.0134191513061523,
      0.9650371670722961,
      0.9384890794754028,
      1.0446350574493408,
      0.9371746182441711,
      0.8937733173370361,
      0.9548571109771729,
      0.8823151588439941,
      0.9483126401901245,
      0.9108515381813049,
      0.9642968773841858,
      0.8911688923835754,
      1.0118526220321655,
      0.9204563498497009,
      0.9417077898979187,
      0.9773261547088623,
      1.0051339864730835,
      0.9219520688056946,
      1.0313955545425415,
      0.908079981803894,
      1.0137128829956055,
      1.0134265422821045,
      1.013200283050537,
      0.9385051727294922,
      0.9239276051521301,
      1.0115646123886108,
      1.0305145978927612,
      1.0045957565307617,
      0.9556574821472168,
      0.9272364974021912,
      1.0448009967803955,
      1.0565460920333862,
      0.9378610253334045,
      0.9991282820701599,
      0.9806355237960815,
      0.9697818756103516,
      0.9805064797401428,
      0.9783563613891602,
      1.0160856246948242,
      0.9571041464805603,
      0.9853010177612305,
      0.9664592146873474,
      0.9069729447364807,
      0.8653839230537415,
      1.016904592514038,
      0.9826579689979553,
      0.8895692229270935,
      0.9743894338607788,
      0.8917465209960938,
      1.0231425762176514,
      0.9523961544036865,
      0.990583062171936,
      0.9842917323112488,
      1.0374282598495483,
      0.9830343723297119,
      0.9642084836959839,
      0.9681426882743835,
      1.0436149835586548,
      0.9537150859832764,
      0.9530161023139954,
      1.0372260808944702,
      0.9214694499969482,
      0.9864883422851562,
      0.9621521234512329,
      1.033142328262329,
      1.0408588647842407,
      0.9591121673583984,
      0.9883551001548767,
      1.0138826370239258,
      0.9964306950569153,
      0.9708123207092285,
      1.0116925239562988,
      1.0072999000549316,
      0.8526279330253601,
      0.9158289432525635,
      0.9244750142097473,
      1.0091208219528198,
      1.0139570236206055,
      0.9821484088897705,
      1.0256620645523071,
      0.9294034242630005,
      1.0169259309768677,
      0.9434185028076172,
      0.9946956038475037,
      1.0300767421722412,
      1.0435501337051392,
      1.031031608581543,
      0.9911757707595825,
      1.0233566761016846,
      1.0011459589004517,
      0.9460444450378418,
      0.875826895236969,
      0.9378289580345154,
      0.8849995136260986,
      1.0182620286941528,
      0.9973555207252502,
      0.9442759156227112,
      1.0040000677108765,
      1.019773006439209,
      0.9233993887901306,
      0.9823872447013855,
      0.9022110104560852,
      1.0017057657241821,
      0.9301497936248779,
      0.9623481631278992,
      1.0646013021469116,
      0.9166807532310486,
      0.9642897248268127,
      0.938330352306366,
      0.8768622279167175,
      0.9984261393547058,
      1.0109846591949463,
      0.9804548621177673,
      0.9241540431976318,
      0.942084789276123,
      1.0088231563568115,
      0.9889882206916809,
      0.9807873368263245,
      0.9378682971000671,
      0.9817984104156494,
      1.0011943578720093,
      0.9835447072982788,
      0.9850373268127441,
      0.9934016466140747,
      0.9034749865531921,
      1.0142902135849,
      1.0126936435699463,
      0.98115074634552,
      0.9640880823135376,
      0.9193374514579773,
      0.995871901512146,
      1.0401369333267212,
      1.0023610591888428,
      0.9113556742668152,
      0.9829734563827515,
      0.8883943557739258,
      0.9660757184028625,
      0.9112523794174194,
      1.0283716917037964,
      0.9348987340927124,
      1.064872145652771,
      0.9269520044326782,
      1.0394062995910645,
      1.0009849071502686,
      1.001763105392456,
      0.9047141671180725,
      0.9598900675773621,
      0.9352616667747498,
      1.0018806457519531,
      1.0048253536224365,
      1.0639638900756836,
      0.9761821031570435,
      1.0533431768417358,
      0.8768157362937927,
      1.027083158493042,
      0.9500448107719421,
      1.0194017887115479,
      1.0245879888534546,
      0.9774154424667358,
      0.9879405498504639,
      0.9213317632675171,
      0.8739017844200134,
      0.9244863390922546,
      0.9688158631324768,
      0.9990741014480591,
      0.95082688331604,
      0.9723740220069885,
      1.0047019720077515,
      0.8928170204162598,
      0.9783161282539368,
      1.0259594917297363,
      1.0342419147491455,
      1.0141465663909912,
      1.010457158088684,
      0.9967889189720154,
      1.033414363861084,
      0.9173188805580139,
      1.023714303970337,
      1.0516247749328613,
      1.0049387216567993,
      0.978581964969635,
      0.9891048669815063,
      0.9814132452011108,
      0.9968037009239197,
      0.959189236164093,
      0.9530971050262451,
      0.9096418619155884,
      0.9797629117965698,
      1.0646355152130127,
      1.009596347808838,
      0.9745320677757263,
      1.0522664785385132,
      1.013472557067871,
      1.044538140296936,
      0.9810723066329956,
      0.9740957617759705,
      0.9164595007896423,
      1.0608737468719482,
      0.9713886380195618,
      0.9493828415870667,
      0.9424782991409302,
      0.9986481070518494,
      0.9860937595367432,
      0.9368088841438293,
      0.9781257510185242,
      0.8263211250305176,
      0.9399659633636475,
      0.9697535634040833,
      0.8910672664642334,
      0.9176690578460693,
      0.9553642868995667,
      0.982787013053894,
      1.0373003482818604,
      0.9438154101371765,
      0.8837134838104248,
      1.0208821296691895,
      0.9641187191009521,
      0.9581133723258972,
      0.9812986254692078,
      0.979594886302948,
      0.9737626314163208,
      0.9230493903160095,
      0.9281073808670044,
      1.0021939277648926,
      1.0441232919692993,
      1.0155655145645142,
      0.9139389395713806,
      1.0126683712005615,
      1.032751202583313,
      0.9100783467292786,
      0.8748863935470581,
      0.887858510017395,
      0.9705215692520142,
      0.9374076724052429,
      1.007232427597046,
      0.9765881299972534,
      1.0792639255523682,
      1.0031620264053345,
      1.059313416481018,
      0.9371808171272278,
      0.9918889403343201,
      0.8801295757293701
    ],
    "gen_0_bn_bias": [
      0.03220640867948532,
      0.08254779875278473,
      -0.03624483570456505,
      -0.08969594538211823,
      0.031191283836960793,
      -0.03639887273311615,
      -0.10014428198337555,
      -0.11045539379119873,
      0.11689883470535278,
      -0.10403528064489365,
      0.03452475368976593,
      -0.034708473831415176,
      0.04310983046889305,
      -0.04554574191570282,
      -0.1318635642528534,
      -0.04077418893575668,
      -0.030033674091100693,
      0.04285608232021332,
      -0.10091903805732727,
      -0.04219522699713707,
      -0.07997734099626541,
      -0.0466080904006958,
      -0.05546994507312775,
      -0.029449930414557457,
      0.1465114951133728,
      -0.04526546597480774,
      0.06671960651874542,
      -0.04399202764034271,
      -0.03641634061932564,
      0.02670285291969776,
      0.13052619993686676,
      -0.02611573413014412,
      0.06605110317468643,
      -0.04354846104979515,
      -0.09159397333860397,
      0.09347070753574371,
      -0.12047072499990463,
      -0.029470838606357574,
      -0.002588934963569045,
      0.13930818438529968,
      0.039370495826005936,
      0.034025415778160095,
      -0.03217059001326561,
      -0.011645946651697159,
      0.04759525507688522,
      0.04699090123176575,
      0.008966928347945213,
      0.11889175325632095,
      0.0834343284368515,
      -0.035487785935401917,
      0.09648456424474716,
      -0.08709059655666351,
      0.11397771537303925,
      0.05543600395321846,
      -0.09781865775585175,
      0.10814760625362396,
      -0.04746537283062935,
      -0.031687650829553604,
      0.08203878998756409,
      0.10075893253087997,
      -0.04488148167729378,
      0.016000447794795036,
      -0.05094419792294502,
      0.10111048817634583,
      -0.0301276333630085,
      -0.13465704023838043,
      -0.1182912290096283,
      0.042572084814310074,
      -0.11119549721479416,
      -0.09253045171499252,
      -0.018650710582733154,
      0.03376144915819168,
      0.001000446965917945,
      0.0670107752084732,
      0.049871861934661865,
      -0.00683344854041934,
      0.07611401379108429,
      -0.019063375890254974,
      0.03554801270365715,
      0.03849302604794502,
      0.0036594239063560963,
      0.10952740162611008,
      -0.042084768414497375,
      -0.12455523759126663,
      -0.09883318841457367,
      -0.1351018249988556,
      0.03763202950358391,
      -0.06935447454452515,
      0.0028606115374714136,
      -0.02674376405775547,
      0.13160564005374908,
      -0.03568078204989433,
      0.010440871119499207,
      -0.0409674309194088,
      -0.020195482298731804,
      0.08410000056028366,
      -0.09861757606267929,
      0.09655336290597916,
      0.048310402780771255,
      0.05293392390012741,
      0.030963962897658348,
      -0.1192733496427536,
      0.06709670275449753,
      -0.09001714736223221,
      -0.12040654569864273,
      -0.03712926432490349,
      -0.011565330438315868,
      -0.05477604269981384,
      0.07545585930347443,
      -0.09038662165403366,
      -0.013011046685278416,
      0.07063083350658417,
      0.06785520911216736,
      -0.02426678128540516,
      0.10085062682628632,
      -0.06924367696046829,
      -0.10679551213979721,
      -0.028908783569931984,
      -0.05633557215332985,
      0.028849748894572258,
      -0.018976522609591484,
      -0.046956997364759445,
      -0.039098918437957764,
      -0.04074254631996155,
      0.11807737499475479,
      -0.06991471350193024,
      0.10592056065797806,
      -0.028363972902297974,
      -0.026454748585820198,
      -0.0413634367287159,
      0.05476606264710426,
      0.01239896472543478,
      -0.02956411801278591,
      0.08414722234010696,
      0.08405056595802307,
      -0.10345149785280228,
      0.017563732340931892,
      0.06557545810937881,
      -0.04273151978850365,
      0.0438842847943306,
      -0.08461329340934753,
      -0.05101355165243149,
      -0.05160143971443176,
      -0.03933875262737274,
      0.10861847549676895,
      -0.10733425617218018,
      0.11325276643037796,
      -0.052153121680021286,
      -0.11125627905130386,
      -0.03516293317079544,
      -0.012133259326219559,
      -0.03679681941866875,
      -0.0317140631377697,
      -0.04813888669013977,
      0.04945651441812515,
      -0.018390031531453133,
      0.0490555576980114,
      0.08493119478225708,
      0.034803468734025955,
      -0.02344002202153206,
      -0.10792604833841324,
      0.015278671868145466,
      0.07850590348243713,
      0.08837916702032089,
      0.03414642810821533,
      -0.016755327582359314,
      0.031509630382061005,
      -0.04984908178448677,
      0.08015711605548859,
      -0.024612879380583763,
      -0.09863505512475967,
      0.12019611150026321,
      0.10018761456012726,
      -0.09335939586162567,
      -0.04790705814957619,
      -0.060843419283628464,
      -0.0607113316655159,
      0.11232895404100418,
      0.1253107488155365,
      -0.015578379854559898,
      0.010281665250658989,
      0.1416677087545395,
      -0.02293580025434494,
      0.031686700880527496,
      0.044711947441101074,
      0.09147278219461441,
      0.058033816516399384,
      0.0678582414984703,
      0.0938337966799736,
      0.055568236857652664,
      -0.030229773372411728,
      0.0321604460477829,
      0.04021201282739639,
      0.12011824548244476,
      0.02651401050388813,
      0.017887309193611145,
      0.034155186265707016,
      0.0891202986240387,
      -0.03737460821866989,
      0.015902437269687653,
      -0.04602278769016266,
      -0.09249239414930344,
      0.036735132336616516,
      -0.1131688728928566,
      -0.04174007847905159,
      0.04840308055281639,
      -0.03716909512877464,
      0.03692327439785004,
      0.024832624942064285,
      -0.05844971537590027,
      -0.025052569806575775,
      0.03579111024737358,
      0.0020000559743493795,
      -0.04849500581622124,
      0.048423171043395996,
      0.05251045152544975,
      -0.10384984314441681,
      0.012472592294216156,
      -0.0047567179426550865,
      -0.061561159789562225,
      -0.0022278977558016777,
      0.010838815942406654,
      -0.05984530970454216,
      -0.040013574063777924,
      0.045618508011102676,
      -0.03832000866532326,
      0.04431476444005966,
      0.005355299450457096,
      -0.054786596447229385,
      0.03143351897597313,
      -0.0714326798915863,
      0.016031529754400253,
      -0.05726371333003044,
      -0.08726882934570312,
      -0.1077585518360138,
      -0.04108991101384163,
      -0.031341686844825745,
      0.01487659104168415,
      0.028994571417570114,
      0.12835954129695892,
      -0.021313995122909546,
      -0.11007431894540787,
      0.04067550227046013,
      -0.028919095173478127,
      -0.04428981989622116,
      -0.053974833339452744,
      -0.03565814346075058,
      -0.06749100238084793,
      0.0625777468085289,
      -0.03625001758337021,
      0.03955208510160446,
      -0.10613828897476196,
      0.031105270609259605,
      -0.08503292500972748,
      0.07912029325962067,
      -0.02262519672513008
    ],
    "gen_1_weight": [
      [
        0.022357426583766937,
        0.025936009362339973,
        -0.013637661002576351,
        -0.019000107422471046,
        0.013061338104307652,
        0.021165551617741585,
        -0.015363425947725773,
        0.005652029998600483,
        -0.03663136065006256,
        0.012404866516590118,
        0.02038862556219101,
        -0.015553440898656845,
        -0.020668191835284233,
        -0.012231188826262951,
        -0.02081328257918358,
        0.01334337703883648,
        0.0020807276014238596,
        0.0076627363450825214,
        -0.020419267937541008,
        0.016511935740709305,
        0.009526560083031654,
        0.01924102008342743,
        0.015373687259852886,
        -0.008969360962510109,
        0.01090372446924448,
        0.0070181312039494514,
        -0.0033691490534693003,
        -0.007600919809192419,
        0.006493966560810804,
        -0.011135013774037361,
        -0.055566057562828064,
        0.011912912130355835,
        0.01260976493358612,
        -0.02977275848388672,
        -0.002563194138929248,
        0.018816184252500534,
        0.010541677474975586,
        -0.017328200861811638,
        0.031184924766421318,
        0.03734268993139267,
        0.03341393917798996,
        -0.017052365466952324,
        0.013906131498515606,
        0.026734033599495888,
        -0.007194148376584053,
        0.018501993268728256,
        0.0001878792973002419,
        -0.03266920521855354,
        -0.045719221234321594,
        -0.02184014581143856,
        0.006329765077680349,
        -0.009132352657616138,
        -0.019844671711325645,
        -0.004003831185400486,
        -0.03494871407747269,
        -0.01672932505607605,
        0.0021154622081667185,
        -0.021861430257558823,
        0.004795076325535774,
        0.0106901740655303,
        -0.03925846889615059,
        0.019823266193270683,
        0.059963129460811615,
        0.02761744149029255,
        0.010882435366511345,
        0.02773275598883629,
        -0.03289863094687462,
        0.04759114235639572,
        -0.0173802450299263,
        -0.01494990661740303,
        -0.019364044070243835,
        0.032309502363204956,
        -0.007901931181550026,
        -0.032952744513750076,
        0.0185527540743351,
        0.03189530223608017,
        -0.02380247414112091,
        -0.027351466938853264,
        0.019490526989102364,
        -0.004725808277726173,
        -0.011543834581971169,
        -0.022993044927716255,
        0.009108535945415497,
        -0.01445530354976654,
        0.007573946379125118,
        -0.021405968815088272,
        -0.00044037948828190565,
        0.026347193866968155,
        -0.011039181612432003,
        0.0022066247183829546,
        0.03246976435184479,
        0.00492608780041337,
        0.030644046142697334,
        0.005769745446741581,
        0.02116670273244381,
        -0.026052793487906456,
        0.008343391120433807,
        0.0048502348363399506,
        -0.016516076400876045,
        -0.0010581223759800196,
        -0.005700713023543358,
        -0.02623915672302246,
        0.002607890171930194,
        -0.018187176436185837,
        -0.003940458409488201,
        0.02152595855295658,
        0.004206772428005934,
        0.011144462041556835,
        0.008070079609751701,
        -0.0017854328034445643,
        -0.014757467433810234,
        -0.03881480544805527,
        -0.01701754331588745,
        0.000562793284188956,
        -0.021445265039801598,
        -0.0030655786395072937,
        -0.005001674871891737,
        0.034150201827287674,
        -0.011232984252274036,
        0.02611202746629715,
        -0.010753796435892582,
        0.017250152304768562,
        0.03674012050032616,
        -0.004793638829141855,
        -0.013397847302258015,
        -0.029016537591814995,
        -0.019838115200400352,
        -0.0031946999952197075,
        0.007306959014385939,
        0.045662280172109604,
        0.0015122515615075827,
        -0.014381960965692997,
        -0.010909110307693481,
        -0.030410928651690483,
        0.030466977506875992,
        0.023639554157853127,
        -0.0416547991335392,
        -0.0005286876112222672,
        0.005275920033454895,
        0.018104126676917076,
        0.0004468975239433348,
        -0.0358174592256546,
        -0.008841886185109615,
        -0.00916727539151907,
        0.0052535501308739185,
        -0.060882993042469025,
        -0.022348428145051003,
        -0.007327794563025236,
        0.01777978427708149,
        0.005068933591246605,
        -0.026309803128242493,
        0.017912359908223152,
        0.025541851297020912,
        0.0022260721307247877,
        -0.022427979856729507,
        0.036691900342702866,
        0.024624980986118317,
        0.017671432346105576,
        -0.010312946513295174,
        0.045388028025627136,
        0.029273072257637978,
        -0.0005610030493699014,
        -0.031249504536390305,
        -0.01715514063835144,
        0.033008210361003876,
        0.02987932227551937,
        -0.02996295690536499,
        0.00268791476264596,
        -0.006999226752668619,
        0.00041858022450469434,
        -0.014526904560625553,
        0.0005286097293719649,
        -0.04292229562997818,
        0.018367614597082138,
        0.03646433353424072,
        -0.020728690549731255,
        0.031392887234687805,
        0.012424732558429241,
        -0.032729487866163254,
        0.010746298357844353,
        -0.032151177525520325,
        -0.017465602606534958,
        0.009311412461102009,
        0.015552502125501633,
        0.006193073932081461,
        -0.025320446118712425,
        -0.023083403706550598,
        0.020617660135030746,
        0.005842255894094706,
        0.031061848625540733,
        -0.01479090191423893,
        0.013623054139316082,
        0.00939706340432167,
        -0.0607604943215847,
        -0.0001874507579486817,
        -0.011357075534760952,
        -0.020938191562891006,
        0.05142999812960625,
        -0.0005967142642475665,
        0.013482854701578617,
        0.04819289594888687,
        -0.007901057600975037,
        0.02765170857310295,
        -0.05609394609928131,
        0.002412998815998435,
        -0.0004452915454749018,
        -0.026644309982657433,
        -0.0006044390029273927,
        0.0018754565389826894,
        0.0016432581469416618,
        -0.0054423450492322445,
        -0.003528372384607792,
        -0.025912880897521973,
        -0.013819082640111446,
        -0.006810363847762346,
        -0.03316514939069748,
        -0.03975140303373337,
        0.025529397651553154,
        0.0194941908121109,
        0.02171880565583706,
        -0.027164017781615257,
        -0.01598259061574936,
        0.013432580046355724,
        -0.00026656431145966053,
        0.006779887713491917,
        0.010633014142513275,
        0.04161478206515312,
        -0.019182715564966202,
        -0.008482878096401691,
        0.032626621425151825,
        0.007848214358091354,
        0.034583549946546555,
        -0.007176707964390516,
        0.01532009057700634,
        -0.03541230037808418,
        -0.0075618801638484,
        0.00248332554474473,
        -0.0071806395426392555,
        -0.022305352613329887,
        0.008382851257920265,
        0.0020768819376826286,
        -0.0003253889735788107,
        -0.010729759000241756,
        0.004051258787512779,
        0.015104642137885094,
        0.009316983632743359,
        -0.012330202385783195,
        -0.00897209346294403,
        -0.042116183787584305,
        -0.002041808096691966,
        0.01388055831193924,
        -0.015829740092158318,
        0.007084510289132595,
        0.01144351251423359,
        -0.05547507852315903,
        0.007106008008122444
      ],
      [
        0.012754718773066998,
        -0.00021768425358459353,
        -0.003415355458855629,
        0.00720064016059041,
        0.014031462371349335,
        0.024156691506505013,
        0.0035006701946258545,
        0.003433603560552001,
        -0.0194056648761034,
        0.055083632469177246,
        0.01951933652162552,
        0.028918134048581123,
        0.002160985954105854,
        0.01022480707615614,
        -0.023777823895215988,
        0.020546508952975273,
        0.007694857195019722,
        -0.028664788231253624,
        0.02108592353761196,
        0.018693599849939346,
        0.014229410327970982,
        -0.009865859523415565,
        0.019114013761281967,
        -0.00629718042910099,
        -0.0022348915226757526,
        0.03127439692616463,
        0.0021318409126251936,
        0.006388567853718996,
        0.017588108777999878,
        0.0071012107655406,
        -0.03162015229463577,
        -0.021289877593517303,
        0.004131529945880175,
        -0.001010280568152666,
        0.04313192516565323,
        -0.008348511531949043,
        0.0720047801733017,
        -0.007586507126688957,
        0.03629618138074875,
        0.02212122082710266,
        -0.040084440261125565,
        0.005185623653233051,
        -0.008623003959655762,
        -0.01165737584233284,
        -0.07238611578941345,
        -0.05973036587238312,
        0.020257623866200447,
        -0.005707432050257921,
        -0.01678279973566532,
        0.01606185920536518,
        0.029782554134726524,
        0.001291592256166041,
        0.023655489087104797,
        0.005051007494330406,
        -0.008129898458719254,
        0.0032764330971986055,
        -0.021621083840727806,
        -0.006002334412187338,
        -0.024890705943107605,
        0.0005280203185975552,
        -0.0167173370718956,
        0.018231509253382683,
        0.005131449084728956,
        -0.03449005261063576,
        -0.008443879894912243,
        -0.013492699712514877,
        0.062934510409832,
        -0.043860092759132385,
        -0.00017857916827779263,
        -0.015593237243592739,
        0.03784769028425217,
        -0.02421117015182972,
        0.022027289494872093,
        -0.008248867467045784,
        -0.07310924679040909,
        -0.017458481714129448,
        0.005564853549003601,
        0.039826709777116776,
        -0.02303803525865078,
        -0.06576236337423325,
        -0.010135013610124588,
        -0.0010784026235342026,
        -0.03638103976845741,
        0.01660536788403988,
        0.036065034568309784,
        -0.002576426137238741,
        -0.006727342028170824,
        0.0007201515836641192,
        -0.008698660880327225,
        -0.006704265251755714,
        0.010927518829703331,
        -0.07012637704610825,
        0.013905654661357403,
        -0.026669712737202644,
        0.0041592177003622055,
        0.037689827382564545,
        0.016712157055735588,
        -0.024737054482102394,
        -0.0647004172205925,
        -0.0015158011810854077,
        -0.02030983939766884,
        0.005522182676941156,
        -0.0008589968783780932,
        0.059881094843149185,
        -0.010395606979727745,
        0.00592704676091671,
        -0.012127695605158806,
        0.008939544670283794,
        -0.02044692263007164,
        0.037276580929756165,
        -0.015605242922902107,
        -0.012295940890908241,
        0.005694408901035786,
        0.0072111631743609905,
        0.02113853394985199,
        -0.01254655048251152,
        0.015562920831143856,
        0.026205673813819885,
        -0.011223328299820423,
        -0.022280070930719376,
        -0.003188655711710453,
        -0.011937885545194149,
        -0.04049348831176758,
        -0.03277648240327835,
        0.012443838641047478,
        0.019856013357639313,
        0.03770442679524422,
        0.006168908905237913,
        -0.02814972959458828,
        -0.008496860042214394,
        0.023355647921562195,
        0.01848892867565155,
        0.0003176516620442271,
        -0.015162525698542595,
        -0.003501573111861944,
        0.046898115426301956,
        0.01750277169048786,
        -0.01284380629658699,
        -0.016153590753674507,
        -0.01290551945567131,
        -0.012038737535476685,
        -0.004201542120426893,
        0.028598429635167122,
        0.029483074322342873,
        -0.013091831468045712,
        -0.010910308919847012,
        0.0361722856760025,
        -0.014374335296452045,
        0.03536016121506691,
        0.01114778034389019,
        0.025289226323366165,
        0.011114231310784817,
        -0.017641326412558556,
        0.004468906670808792,
        0.014981447719037533,
        -0.022028375416994095,
        -0.04423895478248596,
        0.015282084234058857,
        -0.018010620027780533,
        0.01007390022277832,
        0.051304686814546585,
        -0.0055475695990026,
        0.0163156408816576,
        0.014910503290593624,
        0.007033852860331535,
        0.0044323294423520565,
        -0.011439130641520023,
        0.008318891748785973,
        0.017441963776946068,
        -0.018445488065481186,
        -0.024025510996580124,
        0.024383675307035446,
        0.021054932847619057,
        0.03426916152238846,
        0.0108962282538414,
        -0.020564569160342216,
        -0.022437769919633865,
        -0.007982167415320873,
        -0.01602485217154026,
        -0.005138157866895199,
        -0.019524430856108665,
        0.0187391247600317,
        -0.006476879119873047,
        -0.015359778888523579,
        -0.023928705602884293,
        0.022680236026644707,
        0.020599842071533203,
        0.014794794842600822,
        0.015169025398790836,
        -0.00135648378636688,
        0.0011476357467472553,
        0.0026480446103960276,
        -0.04543585330247879,
        0.01392858475446701,
        -0.012163922190666199,
        0.01267150603234768,
        -0.009153558872640133,
        0.009502419270575047,
        -0.00714273564517498,
        -0.008698911406099796,
        0.010175119154155254,
        0.024197125807404518,
        -0.017300859093666077,
        -0.014974833466112614,
        0.018764914944767952,
        0.010144820436835289,
        -0.033660344779491425,
        0.016921885311603546,
        -0.0007843678467907012,
        -0.009866360574960709,
        -0.020657073706388474,
        0.02020135149359703,
        -0.0217073205858469,
        0.03655831143260002,
        -0.001418491592630744,
        0.020214762538671494,
        0.017504671588540077,
        -0.0028769872151315212,
        0.0452159158885479,
        0.002305508591234684,
        -0.011922917328774929,
        0.02126745879650116,
        -0.009798803366720676,
        0.04070769250392914,
        -0.01721993088722229,
        -0.004584730137139559,
        -0.045570455491542816,
        -0.007371600717306137,
        -0.007782550062984228,
        -0.09436856210231781,
        -0.021484894677996635,
        -0.010097620077431202,
        0.024099741131067276,
        0.023149071261286736,
        0.0019513779552653432,
        -0.019224274903535843,
        -0.005044515244662762,
        -0.007134320680052042,
        -0.04593465477228165,
        -0.04935547336935997,
        0.0011171014048159122,
        0.03929547965526581,
        -0.047145385295152664,
        0.023239456117153168,
        -0.008715011179447174,
        -0.02886565960943699,
        0.0019255280494689941,
        -6.548241799464449e-05,
        0.029943155124783516,
        0.014355821534991264,
        -0.015364371240139008,
        0.005201147403568029,
        -0.01950834132730961,
        0.01774677447974682,
        0.005494539625942707,
        -0.008009543642401695
      ],
      [
        0.012417655438184738,
        -0.002304802881553769,
        0.011837723664939404,
        0.010452697984874249,
        -0.0017926684813573956,
        0.014129496179521084,
        -0.02635749615728855,
        -0.026062890887260437,
        -0.007736303377896547,
        0.04353834688663483,
        0.006129886023700237,
        0.02249852754175663,
        0.009021754376590252,
        -0.0034513589926064014,
        -0.007564574014395475,
        0.03202536329627037,
        0.01113976538181305,
        -0.049389101564884186,
        -0.032148271799087524,
        -0.0030832744669169188,
        0.007337589748203754,
        -0.024873850867152214,
        -0.02272082306444645,
        -0.0031812493689358234,
        -0.029125362634658813,
        0.0042212591506540775,
        -0.013184288516640663,
        0.023119591176509857,
        0.006319884676486254,
        0.015718095004558563,
        0.01923500746488571,
        0.018253959715366364,
        -0.01805187575519085,
        0.012161743827164173,
        0.04724493622779846,
        -0.012137554585933685,
        0.06955751031637192,
        0.004692475777119398,
        0.012197020463645458,
        0.018864333629608154,
        -0.0769837498664856,
        0.005416711792349815,
        0.008550295606255531,
        0.008532915264368057,
        -0.09871349483728409,
        -0.07232849299907684,
        0.015091001987457275,
        -0.028316376730799675,
        0.013955928385257721,
        0.0072486512362957,
        -0.0035618222318589687,
        0.014915850013494492,
        -0.006307878997176886,
        -0.01657824218273163,
        -0.006986642722040415,
        -0.0032903337851166725,
        -0.010187529027462006,
        -0.0044702584855258465,
        -0.0016781180165708065,
        -0.005435563158243895,
        -0.0072282482869923115,
        0.002714039757847786,
        -0.0033859063405543566,
        0.0044692340306937695,
        0.02983470819890499,
        0.016221117228269577,
        0.06124714016914368,
        -0.048968881368637085,
        0.010972465388476849,
        -0.0007188086747191846,
        -0.003821589518338442,
        -0.05424804240465164,
        -0.01620577648282051,
        0.00696033239364624,
        -0.058836646378040314,
        -0.033523283898830414,
        0.00013235579535830766,
        0.04588313773274422,
        -0.07605715095996857,
        -0.11885544657707214,
        -0.012102903798222542,
        -0.001388922450132668,
        0.040182676166296005,
        0.0066877566277980804,
        0.029725227504968643,
        -0.005187337286770344,
        0.01970737986266613,
        -0.013058152981102467,
        0.020012184977531433,
        -0.01840059459209442,
        -0.024747507646679878,
        0.004143870435655117,
        0.005488051567226648,
        -0.007515652105212212,
        0.007351720239967108,
        0.0034734581131488085,
        0.04069559648633003,
        0.0410221703350544,
        -0.05420966073870659,
        -0.02751929685473442,
        -0.016047025099396706,
        -0.009005852043628693,
        -0.012357951141893864,
        0.02696911431849003,
        0.013834437355399132,
        -0.00464846333488822,
        0.01850651390850544,
        0.010461817495524883,
        0.0030796544160693884,
        0.0800173282623291,
        0.006562679540365934,
        -0.03448695316910744,
        0.03507522866129875,
        0.00013920204946771264,
        -0.00038812609273009,
        -0.002950109541416168,
        0.06515505909919739,
        -0.008614633232355118,
        0.0013712146319448948,
        -0.05106329545378685,
        0.033847782760858536,
        -0.011397836729884148,
        0.007758690044283867,
