{
  "metadata": {
    "creation_date": "2026-01-24T13:29:24.826131",
    "framework_version": "3.0.0",
    "description": "Advanced RBF Network Model",
    "author": "RBF Framework Pro",
    "tags": [
      "rbf",
      "neural_network",
      "machine_learning",
      "advanced"
    ]
  },
  "architecture": {
    "hidden_layers": [
      {
        "type": "rbf",
        "units": 30
      }
    ],
    "output_activation": "linear",
    "use_bias": true,
    "normalize_input": true,
    "normalize_output": true
  },
  "parameters": {
    "hidden_layer_sizes": [
      30
    ],
    "hidden_layer_types": [
      "rbf"
    ],
    "output_activation": "linear",
    "use_bias": true,
    "rbf_types": [
      "gaussian"
    ],
    "distance_metric": "euclidean",
    "center_init_types": [
      "kmeans"
    ],
    "width_calc_types": [
      "adaptive"
    ],
    "training_method": "direct",
    "regularization": 0.001,
    "learning_rate": 0.01,
    "max_iter": 1000,
    "tolerance": 0.0001,
    "p_neighbors": 2,
    "width_value": 0.5,
    "sigma_values": [
      1.0
    ],
    "c_values": [
      1.0
    ],
    "optimizer": "adam",
    "beta1": 0.9,
    "beta2": 0.999,
    "epsilon": 1e-08
  },
  "learned_parameters": {
    "layer_0_rbf": {
      "centers": {
        "data": [
          [
            -0.7353407079199534,
            1.1889056214739326
          ],
          [
            0.9911738770602755,
            -0.8125660861539751
          ],
          [
            -0.4304373473083908,
            -0.1918079481658995
          ],
          [
            0.5836164113355641,
            0.1053528676039643
          ],
          [
            -1.7197265728346423,
            0.16791821373790036
          ],
          [
            0.4252106882029086,
            -1.2121940334168453
          ],
          [
            -0.03403675677315483,
            1.1626856139166484
          ],
          [
            1.6415478700281265,
            0.5013283929861375
          ],
          [
            1.2363693054654352,
            -2.1055547703372817
          ],
          [
            2.09655206326847,
            -0.25606086402115935
          ],
          [
            -0.5475459974809055,
            1.579469633697556
          ],
          [
            -0.7080583230742313,
            0.5183467217023113
          ],
          [
            -0.20845198642601637,
            -1.1154734461118714
          ],
          [
            0.825820326376458,
            -1.39447457307055
          ],
          [
            -1.5062983749096328,
            0.9214182300225681
          ],
          [
            1.4362941791233403,
            -1.0862691692724695
          ],
          [
            -1.3765269021239208,
            0.5113310173124263
          ],
          [
            0.3183982101763524,
            0.555809343384386
          ],
          [
            0.5053644706989137,
            -0.3474188705488247
          ],
          [
            1.7852284414695914,
            -0.8564715926590605
          ],
          [
            1.8482829329374435,
            0.2011228040392716
          ],
          [
            -0.022145232734092978,
            -1.5408831792894893
          ],
          [
            -1.5670880047667088,
            -0.22985496917244677
          ],
          [
            0.3201949339182553,
            1.340151878816771
          ],
          [
            -0.0361772610798587,
            -0.7400215817736024
          ],
          [
            -1.093380939726071,
            1.1059284334072546
          ],
          [
            1.2667820458976278,
            -1.6283992828262888
          ],
          [
            -0.27421441401655966,
            1.7375219999017877
          ],
          [
            1.4630859562841954,
            -0.3106677020497771
          ],
          [
            0.44767113731636515,
            -1.7559939867689036
          ]
        ],
        "shape": [
          30,
          2
        ],
        "dtype": "float64"
      },
      "widths": {
        "data": [
          0.18376480983258944,
          0.2612687605786825,
          0.33763116105681446,
          0.22974203635996804,
          0.21302701560157664,
          0.22006492072453715,
          0.1980999532229218,
          0.18225173652880128,
          0.23906186126317303,
          0.26012231133474245,
          0.157869174462499,
          0.33425269680467684,
          0.2065445977435478,
          0.22006492072453726,
          0.21506519777578276,
          0.20890311489810176,
          0.21506519777578276,
          0.26136742853626854,
          0.22974203635996804,
          0.20890311489810176,
          0.18225173652880128,
          0.2322087678972711,
          0.21302701560157664,
          0.1980999532229218,
          0.2065445977435479,
          0.18376480983258944,
          0.23906186126317303,
          0.157869174462499,
          0.3168902285357085,
          0.2583602528746607
        ],
        "shape": [
          30
        ],
        "dtype": "float64"
      }
    },
    "layer_1_dense": {
      "weights": {
        "data": [
          [
            0.6295762749412943,
            -0.6295762749412943
          ],
          [
            -1.2055157779870365,
            1.2055157779870365
          ],
          [
            -1.7698177281491645,
            1.7698177281491645
          ],
          [
            0.39952409263468613,
            -0.39952409263468613
          ],
          [
            0.45380830129597316,
            -0.45380830129597316
          ],
          [
            -1.1505858439723902,
            1.1505858439723902
          ],
          [
            0.5760519950518348,
            -0.5760519950518348
          ],
          [
            -1.8534812720272944,
            1.8534812720272944
          ],
          [
            -1.2196839256076237,
            1.2196839256076237
          ],
          [
            -1.362473551332788,
            1.362473551332788
          ],
          [
            0.6729279976301614,
            -0.6729279976301614
          ],
          [
            -0.514378198956498,
            0.514378198956498
          ],
          [
            -1.3425570540752618,
            1.3425570540752618
          ],
          [
            -1.0149341457035932,
            1.0149341457035932
          ],
          [
            0.5669706582656051,
            -0.5669706582656051
          ],
          [
            -1.1335878408286237,
            1.1335878408286237
          ],
          [
            0.6946112276889316,
            -0.6946112276889316
          ],
          [
            0.5610460479298232,
            -0.5610460479298232
          ],
          [
            1.0380020567264439,
            -1.0380020567264439
          ],
          [
            -1.3613916073822085,
            1.3613916073822085
          ],
          [
            -1.0746370237963323,
            1.0746370237963323
          ],
          [
            -1.2051672651617868,
            1.2051672651617868
          ],
          [
            0.6186353853629031,
            -0.6186353853629031
          ],
          [
            0.6285089204082706,
            -0.6285089204082706
          ],
          [
            -1.1594932665062816,
            1.1594932665062816
          ],
          [
            0.5312152410569184,
            -0.5312152410569184
          ],
          [
            -1.3202488213648171,
            1.3202488213648171
          ],
          [
            0.6080101065171696,
            -0.6080101065171696
          ],
          [
            -1.45797732624979,
            1.45797732624979
          ],
          [
            -1.1883324434979472,
            1.1883324434979472
          ]
        ],
        "shape": [
          30,
          2
        ],
        "dtype": "float64"
      },
      "bias": {
        "data": [
          [
            0.38043094288864854,
            -0.38043094288864854
          ]
        ],
        "shape": [
          1,
          2
        ],
        "dtype": "float64"
      }
    }
  },
  "components": {
    "normalizers": {
      "input_scaler": {
        "data": [
          0.42588302911157777,
          0.2832594185810556
        ],
        "shape": [
          2
        ],
        "dtype": "float64"
      },
      "input_var": {
        "data": [
          0.7945085565933337,
          0.2481305062111438
        ],
        "shape": [
          2
        ],
        "dtype": "float64"
      },
      "output_scaler": {
        "data": [
          0.5333333333333333,
          0.4666666666666667
        ],
        "shape": [
          2
        ],
        "dtype": "float64"
      },
      "output_var": {
        "data": [
          0.24888888888888844,
          0.24888888888888844
        ],
        "shape": [
          2
        ],
        "dtype": "float64"
      }
    }
  }
}