#include "BNNModel.h"
#include <math.h>

float BNNModel::input_buffer[20] = {0};
float BNNModel::hidden_buffer[20] = {0};

const float BNNModel::w0_mu[20][2]  = {
    {-2.0069515705108643, 0.0286830123513937},
    {-0.6648797392845154, 1.838690996170044},
    {1.1023913621902466, -1.0204288959503174},
    {0.40174809098243713, -3.479071617126465},
    {-2.033078908920288, 1.1854057312011719},
    {0.8929729461669922, -0.5638478398323059},
    {0.4636974334716797, 0.04474729672074318},
    {0.7900142669677734, 0.5752789974212646},
    {-1.2913063764572144, -0.5524859428405762},
    {-1.3365602493286133, 1.1780834197998047},
    {-1.9476754665374756, 0.36522820591926575},
    {1.1878947019577026, 0.19438301026821136},
    {1.7111302614212036, 0.2864866554737091},
    {1.4204496145248413, -1.4065786600112915},
    {0.4735087454319, -1.9917327165603638},
    {-2.1630842685699463, 0.40577325224876404},
    {0.8592262268066406, 0.45812007784843445},
    {-0.47639000415802, 1.2263069152832031},
    {-0.36266666650772095, 1.156256914138794},
    {0.1260754019021988, -0.423508882522583},
};

const float BNNModel::b0_mu[20]  = {
    -0.19472120702266693, -0.7961337566375732, -0.9623242020606995, -0.6192492246627808, -0.6882744431495667, -0.8139690160751343, 0.039021871984004974, -0.29794222116470337, 1.2313472032546997, -0.40315353870391846, -0.3606373965740204, 0.023724118247628212, -0.1452791839838028, -1.2102848291397095, -0.6028127670288086, -0.42169666290283203, -0.8872981667518616, -0.6227182745933533, 0.15889492630958557, -0.04562697559595108};

const float BNNModel::w2_mu[20][20]  = {
    {0.34758660197257996, 0.2785158157348633, -0.8224633932113647, -0.7485840916633606, 0.6143551468849182, -0.6243886351585388, 0.19249673187732697, -0.011596553958952427, -1.0873485803604126, 0.5286036729812622, 0.6693186163902283, 0.5896488428115845, 0.533562958240509, -0.20710256695747375, -0.698663592338562, 0.6032499074935913, -1.1783523559570312, 0.6155046224594116, 0.43735161423683167, 0.14613249897956848},
    {-0.00691299419850111, -0.18745143711566925, -0.09822672605514526, -0.048814039677381516, -0.14895284175872803, -0.06197059899568558, -0.29573267698287964, -0.2688508927822113, -0.339810311794281, -0.21431072056293488, -0.09698791801929474, -0.4966748356819153, -0.46724677085876465, -0.1347617208957672, -0.027970576658844948, -0.04083423689007759, -0.08574610948562622, -0.12782041728496552, -0.3565380275249481, -0.12125936895608902},
    {0.6111822724342346, 0.7715510129928589, -0.5012001395225525, -0.7530070543289185, 0.6748924255371094, -1.0188000202178955, 0.43633484840393066, 0.044895678758621216, -1.0475397109985352, 0.7138592600822449, 0.6636634469032288, 0.23829059302806854, 0.501989483833313, -0.5214099884033203, -0.2027357667684555, 0.772971510887146, -1.4319953918457031, 0.40766602754592896, 0.09884113818407059, 0.0668807178735733},
    {0.04870554059743881, 0.4993053078651428, -0.7781225442886353, -0.6856490969657898, 0.18245428800582886, -0.613795280456543, 0.5379472374916077, 0.2806049585342407, -1.5194405317306519, 0.3133528232574463, 0.02834576554596424, 0.6928263902664185, 0.37823206186294556, -0.7087220549583435, -0.24904310703277588, 0.09764085710048676, -1.216268539428711, 0.588457465171814, 0.13815714418888092, 0.1605212241411209},
    {0.725463330745697, 1.2620246410369873, -0.12958210706710815, -0.4978195130825043, 1.1583106517791748, -0.020505713298916817, -0.4690082371234894, -0.1871144324541092, -0.08782520145177841, 0.8719406723976135, 0.7742308974266052, -0.2923431396484375, -0.10570113360881805, 0.3233264684677124, 0.0755029022693634, 0.9992982745170593, 0.052632007747888565, 1.0448682308197021, 0.6644721031188965, -0.2778162360191345},
    {-0.9913694858551025, -0.8771761059761047, 0.6253098249435425, 1.3827611207962036, -1.2822375297546387, 0.3294939696788788, 0.13556769490242004, -0.5407163500785828, 1.6372817754745483, -0.2965150773525238, -0.8807221055030823, -0.0894581750035286, -0.4554283320903778, 0.35378143191337585, 0.6109257936477661, -1.1932965517044067, 0.4892072379589081, -0.5746686458587646, 0.2945684790611267, 0.03893642500042915},
    {-0.22762975096702576, -0.24050623178482056, 1.2091008424758911, 1.1022435426712036, 0.11648151278495789, 0.9840158820152283, 0.022008653730154037, 0.3808048367500305, -0.2865116596221924, -0.07582881301641464, -0.22499442100524902, 0.13062243163585663, 0.3614022731781006, 0.9358881711959839, 0.7422678470611572, -0.24679043889045715, 1.160681128501892, -0.2672885060310364, -0.3612769544124603, 0.180752694606781},
    {-0.5689699053764343, -0.9483163356781006, 0.7751907110214233, 1.0141817331314087, -0.8741044402122498, 0.5299038887023926, 0.08507408201694489, -0.06622496992349625, 1.3747378587722778, -0.6665725111961365, -0.4247930943965912, -0.08844030648469925, -0.10246128588914871, 0.8490590453147888, 0.8152801394462585, -0.8225705623626709, 0.9210192561149597, -0.8483087420463562, 0.517379105091095, 0.309034526348114},
    {-1.212647795677185, -1.5901256799697876, 0.05737138167023659, 0.39926639199256897, -1.5936758518218994, 0.05670373514294624, -0.01959749311208725, -0.31065264344215393, 1.6068035364151, -0.9732427597045898, -1.001800298690796, -0.2060008943080902, -1.0892164707183838, -0.1957634538412094, 0.08165077120065689, -1.6224968433380127, 0.0037509500980377197, -0.9228398203849792, 0.6154991388320923, -0.4481170177459717},
    {0.48645076155662537, 0.7113953232765198, -0.6222845315933228, -0.7761812806129456, 0.6720478534698486, -0.7841132879257202, 0.24775587022304535, 0.009244625456631184, -1.0941559076309204, 0.4159437417984009, 0.5975744128227234, 0.34355685114860535, 0.24587275087833405, -0.3468191623687744, -0.44598492980003357, 0.7049416899681091, -1.0843117237091064, 0.42850127816200256, 0.24763481318950653, 0.16713495552539825},
    {-0.14578057825565338, -0.10600950568914413, 0.701741635799408, 0.7840833067893982, -0.11783941835165024, 0.8753957748413086, 0.06593752652406693, 0.09098634868860245, 0.5790155529975891, 0.2467142641544342, -0.28833770751953125, 0.06774816662073135, 0.23834563791751862, 0.6176686882972717, 0.5483013391494751, -0.308870404958725, 0.7582681775093079, -0.021001847460865974, -0.408311128616333, 0.39150527119636536},
    {-0.5049061179161072, -1.082087755203247, 0.880021333694458, 1.0792365074157715, -0.8697365522384644, 0.6900534629821777, -0.05782298743724823, -0.24090546369552612, 1.4565119743347168, -0.3687763512134552, -0.6044670343399048, 0.16593022644519806, -0.10143068432807922, 0.5204313397407532, 0.5265669822692871, -0.731113851070404, 1.0721389055252075, -0.39781785011291504, 0.16084681451320648, 0.1849125474691391},
    {-0.5915986895561218, -0.4710468351840973, 0.6845231652259827, 0.6994840502738953, -0.2558169960975647, 0.7971116900444031, -0.07652519643306732, -0.1470063477754593, 1.275443196296692, -0.2557106614112854, -0.477417916059494, 0.23388954997062683, 0.02925955317914486, 0.4629650413990021, 0.8170960545539856, -0.7002217173576355, 0.9490076899528503, -0.42918047308921814, 0.08179324120283127, -0.16474317014217377},
    {0.7547791600227356, 0.8493797183036804, -0.08396828174591064, -0.11454746872186661, 1.067086100578308, -0.15068884193897247, -0.0675622820854187, 0.0549115389585495, 0.1363237351179123, 1.1587188243865967, 0.8784800171852112, -0.7149746417999268, -0.29125913977622986, 0.009991115890443325, -0.19806824624538422, 0.964702844619751, -0.11248108744621277, 0.5843033194541931, 0.09629444032907486, -0.14285412430763245},
    {-0.0036021771375089884, -0.05142443627119064, -0.016513776034116745, -0.059467874467372894, 0.20404399931430817, -0.02341030165553093, -0.17978434264659882, -0.2081572413444519, -0.13995595276355743, 0.1486550122499466, -0.049400463700294495, -0.15861961245536804, -0.0050041223876178265, -0.022741520777344704, 0.0170361939817667, 0.004288828931748867, -0.004254636820405722, -0.33513548970222473, 0.1980254203081131, -0.03289967402815819},
    {0.7885412573814392, 0.5965279340744019, -0.3715514838695526, -0.9493796229362488, 0.4705659747123718, -0.8161889314651489, 0.06194169446825981, 0.35538002848625183, -0.6783693432807922, 0.7525894045829773, 0.6318928599357605, -0.07524812966585159, 0.5167101621627808, -0.010625151917338371, -0.2304147183895111, 0.7453359365463257, -0.8455802798271179, 0.29873815178871155, 0.24165141582489014, -0.030925780534744263},
    {-0.35295337438583374, 0.0528084859251976, 0.8889049291610718, 0.6645137667655945, 0.019679855555295944, 1.2277531623840332, -0.1369599997997284, 0.2048727571964264, 1.1827714443206787, -0.41413378715515137, -0.31505286693573, 0.07494831830263138, 0.14049607515335083, 0.677386462688446, 0.5725640654563904, -0.6676377058029175, 0.9646928906440735, -0.28676798939704895, -0.08537913113832474, 0.012214266695082188},
    {-0.26600411534309387, -0.28291282057762146, 0.8243563771247864, 0.6201939582824707, -0.2721284031867981, 0.6294748187065125, 0.21878467500209808, -0.03464340791106224, 1.4326658248901367, -0.48036330938339233, -0.4476167559623718, -0.0010768219362944365, 0.16532984375953674, 0.7076789140701294, 0.6404758095741272, -0.5425107479095459, 0.822823703289032, -0.45200586318969727, 0.07442719489336014, -0.18538084626197815},
    {0.42694804072380066, 0.8226321339607239, -0.610598623752594, -1.10541832447052, 0.7300706505775452, -0.4960251450538635, 0.1403549313545227, 0.13939596712589264, -0.4193212389945984, 0.48987799882888794, 0.6276446580886841, 0.27244964241981506, 0.45872825384140015, -0.6634474992752075, -0.4669434428215027, 0.690144419670105, -0.7702779173851013, 0.5233542919158936, -0.08705483376979828, 0.3380350172519684},
    {0.1607595980167389, 0.8585052490234375, -1.269946575164795, -1.2498276233673096, 0.3556247353553772, -1.1070597171783447, 0.21233674883842468, 0.08407577127218246, -1.6056194305419922, 0.3918606638908386, 0.11472167819738388, 0.5327185988426208, 0.39903590083122253, -0.8234941959381104, -0.8470630049705505, 0.1773141473531723, -1.4498165845870972, 0.5592668652534485, -0.008481379598379135, 0.6024653315544128},
};

const float BNNModel::b2_mu[20]  = {
    0.27696922421455383, -0.6204606890678406, 0.3470841944217682, 0.44201505184173584, -0.2684645652770996, 0.6541080474853516, -0.8816919326782227, 0.08651828020811081, 1.0625972747802734, 0.3099813759326935, -0.6725417971611023, 0.15629415214061737, -0.1539522260427475, -0.33298128843307495, -0.16381368041038513, 0.2756710946559906, -0.3376406729221344, -0.3173903822898865, 0.18255989253520966, 0.6272638440132141};

const float BNNModel::w4_mu[1][20]  = {
    {-0.7852342128753662, -0.10719389468431473, -1.017194390296936, -0.7761647701263428, -1.198788046836853, 1.7401307821273804, 1.057544469833374, 1.0433435440063477, 2.3873982429504395, -0.8924281597137451, 1.0203371047973633, 0.8255225419998169, 0.9817517995834351, -1.2100075483322144, 0.008419917896389961, -0.7230332493782043, 1.1001367568969727, 0.6913660168647766, -0.7988748550415039, -1.36381995677948},
};

const float BNNModel::b4_mu[1]  = {
    -0.1212395653128624};


BNNModel::BNNModel() {}

float BNNModel::predict(const float* input) {
    float* temp;
    for (int i = 0; i < 2; i++) input_buffer[i] = input[i];

    float* current_in = input_buffer;
    float* current_out = hidden_buffer;
    int current_size = 2;

    // Linear layer 0
    for (int i = 0; i < 20; i++) {
        float acc = 0.0f;
        for (int j = 0; j < 2; j++) {
            acc += w0_mu[i][j] * current_in[j];
        }
        acc += b0_mu[i];
        current_out[i] = acc;
    }
    temp = current_in;
    current_in = current_out;
    current_out = temp;
    current_size = 20;

    // Activation relu
    for (int i = 0; i < current_size; i++) {
        if (current_in[i] < 0) current_in[i] = 0;
    }

    // Linear layer 2
    for (int i = 0; i < 20; i++) {
        float acc = 0.0f;
        for (int j = 0; j < 20; j++) {
            acc += w2_mu[i][j] * current_in[j];
        }
        acc += b2_mu[i];
        current_out[i] = acc;
    }
    temp = current_in;
    current_in = current_out;
    current_out = temp;
    current_size = 20;

    // Activation relu
    for (int i = 0; i < current_size; i++) {
        if (current_in[i] < 0) current_in[i] = 0;
    }

    // Linear layer 4
    for (int i = 0; i < 1; i++) {
        float acc = 0.0f;
        for (int j = 0; j < 20; j++) {
            acc += w4_mu[i][j] * current_in[j];
        }
        acc += b4_mu[i];
        current_out[i] = acc;
    }
    temp = current_in;
    current_in = current_out;
    current_out = temp;
    current_size = 1;

    return current_in[0];
}